[[[0.4195520234278521, 0.18414280730490787, 0.27293827775507107, -0.2338482653958291, 0.14373772336943547, 0.17815777662200744, 0.09069933192466384, 0.05574643228806149, 0.17691277131521163, 0.03587974309460385, -0.007765012142276015, -0.13306340088637278, -0.5747216105742871, -0.11751205126044076, 0.7465724883616373, -0.0903165231315225, 0.39826768947644275, -0.23267445659297456, 0.039180483372602375, 0.3069800074402624, 0.12496534855158045, -0.36299973252191026, 0.23430977074607318, 0.28193213823165786, -0.20503873314419474, -0.08977690490243914, 0.3051461980907341, 0.35641985563316647, -0.35273248588803807, 0.09546489894695552, 0.5653049363233081, -0.24147478985029633, -0.47289054965448624, 0.14605387340455142, 0.4037589657540376, -0.47390328913018603, 0.17427970558127492, 0.27449357342582614, -0.10181046641560697, -0.07418123522434486, 0.11005446883968141, 0.0928695587684788, 0.47466168643252676, 0.20400219948852516, 0.2714714577592615, 0.37189556298079285, -0.16843973505982288, 0.1684082845023265, 0.06494741351134758, -0.22525693924639717, 0.008149157405003726, -0.3944983884165963, -0.18443241847538058, 0.1131192597348511, 0.12225887293403215, 0.17323908479841696, 0.07095581175518649, -0.4519506529291951, -0.06574135262869614, 0.18150638368977767, 0.16866302384508614, -0.549655196015663, 0.20615311922181198, 0.030445732336157615, -0.542339428338608, -0.10112619625855997, -0.07687609411747888, 0.05957662227519895, 0.17377916267619728, 0.2252064042873873, -0.25490776333637183, 0.5046533869918395, -0.747639726426526, 0.35160991529377944, -0.5300038463782177, -0.17825405802841254, -0.06050441947830737, 0.00768737227282609, -0.2284276790364185, -0.49033058126636564, -0.023428796356652612, -0.25710625705785084, -0.038736260076585725, 0.10311969253164796, -0.19959197826917832, -0.08545435018669374, 0.09695385018795173, 0.3337543496830304, -0.3918325273782241, -0.6430647793174074, -0.08176560270355117, -0.0737359449338863, -0.5507798839843925, 0.04202198381356919, 0.26564867398230246, 0.26420550301481, 0.0889932906353636, 0.40771069095285034, 0.06957619422656473, 0.02357458002839341, 0.037680557420373684, 0.5415839757835738, 0.44939286955138785, -0.4184833195377503, -0.5610041507897897, -0.4656543586537947, 0.2599142612639996, 0.21367750364226598, 0.090450591895843, -0.1080992214065233, -0.11655916966855097, -0.1788221831051057, -0.10082786063335639, -0.15414784561706368, 0.06797318376860897, -0.5620870308382121, 0.36397171199897077, -0.023100896949496408, 0.1710322091115089, -0.37127852026187513, -0.06520864052244855, 0.37882827837347166, 0.04788911737944101, -0.41758277302287566, -0.14385091839310105, -0.2525278769438449, -0.0498905015289166, -0.44355341991263736, -0.11806563396148981, -0.597302635032433, -0.05221952449622987, 0.09095959518914798, -0.12868194478285094, -0.36548821456132236, 0.4153727987040983, -0.061304588860988406, 0.2963754470814694, -0.14281770754680845, 0.25509664960664136, 0.5034975719646603, 0.07352546582575954, 0.6282560567777868, -0.47045180582798957, -0.3646962974808788, 0.17033511083839406, 0.018960330464622012, -0.2049537262785554, -0.09209962459207627, -0.6309827671362518, -0.11800939301244695, 0.184131684141764, -0.2663899271908397, 0.1252375087690067, 0.08610759601601702, 0.07778955490789949, 0.19353607576249576, -0.040447745331384996, -0.3169315187324461, -0.6785173874457759, -0.1280560249986689, -0.219929519570908, 0.03090308046636628, -0.2928774892766818, 0.16452348937164463, -0.6282329773066679, 0.5331545429425621, -0.46545237464743705, 0.046448232491755614, -0.006429338232047151, -0.06294562617807933, -0.14855273052381, -0.399852154506389, 0.5031209406983785, 0.06997987329071927, -0.21951087778844156, -0.5140528747080422, 0.0013444476167093604, 0.21891877780528107, 0.3115930752116894, 0.17563499224052512, 0.5776080558333198, 0.2397631352138018, 0.5583869951237755, 0.547788542384539, -0.21341654350293374, 0.4983980304157947, 0.21947354336793884, -0.345688967688504, -0.18333383951937007, -0.13720176310457027, -0.06632270628246202, 0.17892643446682666, -0.7229020564446867, -0.005208380351433106, 0.0631369859893378, -0.21091614884220047, -0.01259387456439769, -0.1468246347177946, 0.1966753906683452, 0.19282183767975808, 0.19224589173836376, -0.18491541436128064, -0.28482719269480905, 0.10680281562864168, -0.7286019473762049, 0.11134616140730978, 0.16870045013534696, -0.4795635410300737, 0.519519559247218, 0.42912242383065563, 0.5267110175827601, 0.9990686420603345, 0.7218760523549198, 0.7526640775647047, 0.08214657252540022, 0.35272694162798396, -0.2867069607355733, -0.30518282315249495, 0.06615826119488534, -0.5418131003312484, -0.7556382608157605, -0.3082448653139793, 0.0851261436293298, -0.6121218233206766, -0.4223470780757682, -0.0036283123786657848, -0.6144880901746984, 0.19911642701102433, -0.28666192696293263, 0.15799647568250694, -0.07741073208034438, -0.10898757796211839, 0.0010249389408945305, -0.08184242991252103, 0.43433340772906187, 0.1844699063882246, 0.27585552351649906, 0.6705861454579428, 0.838806016446981, 0.5388381569845028, 0.5194821225210108, 0.10867941232976241, -0.12626118685137896, -0.25575646454254597, -0.12036230482245688, -0.5934994438008304, -0.07218371175714412, -0.2314998362334007, -0.3415845025991426, 0.05573241304780834, -0.300158978363602, 0.5249495347117268, 0.7853639804346836, -0.2615149490034866, -0.04831060542702525, 0.07076871225691292, -0.3248192257489736, -0.3521345141776026, -0.3091036861444528, -0.0310461736591898, 0.12659299213061737, 0.34021890111351216, 0.20982473682092406, 0.13451256155671035, -0.02901887829557976, 0.9032407994584291, 0.40979432442422214, 0.41217115466424736, -0.0644591999791839, 0.0640501574090132, 0.0680708499444171, -0.09478259857058838, 0.29883497297689643, -0.21335973097358168, -0.372285119638559, 0.3863632765016429, -0.44147889246259464, -0.10078728450634113, 0.19216217007242772, 0.11144579075129953, 0.1816352692423758, -0.05467534687794739, 0.5702851421175763, -0.06610204151178761, -0.20608061747717482, 0.1849933766477054, 0.2576484793998221, 0.295917442677814, -0.04817647122486826, -0.2715585180415197, -0.20912972294769175, 0.07150093619303825, -0.3329339614942511, 0.4302298599646726, 0.05158980376615002, -0.15034549910282088, 0.02572205128505677, -0.013232118376016263, -0.5869596549697973, 0.27535120875062324, -0.9782885458388118, 0.6730760659280516, -0.32028683885187703, -0.017389207103249156, -0.03173132821572742, -0.0738689808992876, 0.542815112670643, -0.16810040897410328, 0.41309570454147176, -0.002186664796521083, -0.5642645780192268, -0.6948909500988028, -0.13722970622439393, -0.1881954707540416, 0.22365966549631, 0.010932252394020493, 0.125672243018178, 0.2721774227558974, -0.43952417349521955, -0.26265424736340387, -0.5409131465613661, -0.2211587874943421, 0.0028515410217605087, -0.2804553781671599, 0.6581573017194957, 0.013377049293586345, 0.9933456215828125, 0.03847828653874482, 0.7158612806648199, 0.2736257821706905, -0.35986849672136845, -0.39513574801650736, -0.09976850061608757, -0.07337442857667555, 0.34145401963549993, -0.045770655489576595, 0.07330507096332872, -0.3601238590032855, 0.838902179504555, -0.10311135389945819, 0.31903404545577474, -0.0972346342496876, 0.4762317130310031, -0.3454100839900349, -0.8470384090649455, -0.2645708627721773, -0.18626741202634736, -0.7294197287784546, -0.28694752863043455, -0.32251629430286183, -0.016863834153614168, 0.3431445683726687, 0.17027947908095084, 0.2764642756747416, 0.7492403914746869, 0.4985281830504236, 0.18532058502877197, -0.015495619687403945, -0.41368536083937313, 0.03319692552718673, -0.12150924684109043, -0.38552471852058173, 0.13115102664161507, -0.021111477643635905, -0.5831131136394538, 0.06698273934115181, -0.24947591421679857, -0.3478052449346251, 0.5867409248800659, -0.0290658128633455, 0.2929636196871364, -0.09337367913799664, 0.2849242031531825, 0.05877682740118211, 0.005365491483963592, -0.3217401940597443, -0.4579954310921818, 0.2728322789977567, 0.45253020551162876, 0.24210409749637657, 0.23358146733577734, 0.6280366154116768, -0.5130016906651117, 0.4351758920640725, -0.04607966881138429, -0.22158645556065262, -0.08093483185662567, -0.5968016870208975, -0.30126980485048593, -0.20996209663083795, -0.47673421140337535, -0.07206096473375125, -0.04745382434386772, 0.608201912636539, 0.30739577885572805, -0.17091890922836722, -0.28729804657641655, -0.3291475140098016, 0.18090277760898757, -0.34090005695301473, 0.07727270592516533, -0.24445022773750602, -0.30347018814266963, -0.1925946694903629, -0.2497744825360446, -0.09489930272898303, 0.4132772612025456, 0.5883915251822796, -0.5962454130901477, 0.09500444586379427, 0.15502331377350387, -0.03135638939033596, 0.13047723471637582, -0.06903529355861408, -0.39076952234146767, -0.24216856171215986, -0.39729989297939433, 0.11400257416512838, -0.23397702589022945, 0.544196608833603, 0.0717349696798074, -0.29811914047972066, -0.8611685743337284, 0.15947440065480487, -0.23050140710741057, -0.4354247776181647, -0.023436762020769455, 0.22784265082857455, -0.5773339346917837, -0.4462960500562778, 0.4259732708791853, 0.6574057106882043, 0.29012230974576575, 0.12861450942802805, -0.4768235752421163, 0.3889106121691078, 0.11466595569429527, 0.11458522241074003, 0.6635333159620466, 0.21239726451132707, -0.5900260821731627, -0.3552659828384067, -0.07491017207337038, -0.24649843100302785, -0.4249989487096752, 0.4622445758373347, 0.23344792177921445, 0.16025973510583613, 0.3715092291312209, 0.162941481358836, -0.5583938703979696, 0.22014016997488217, 0.5410808083109101, -0.16338891565258903, 0.19831840047973823, -0.5739241015457298, 0.3177027150837195, 0.10162538971954362, -0.11408849259578277, 0.7987047540608085, 0.10962737139605559, -0.2673901049950202, -0.5474785518755654, -0.07024288657410799, 0.018516697384117972, -0.002181757273108644, -0.5857668856350583, -0.1636583490973337, 0.0845280258217229, -0.2801930513687315, -0.30766670583490124, -0.4058613987961854, -0.17997087871484793, 0.48860996351925384, 0.2550159698333936, 0.08077584511702093, -0.10901112716184741, 0.12164387776204293, 0.37836243576435363, 0.29147119996766496, 0.11886253456782109, -0.22589025045554464, 0.14317720116820176, 0.045136991708609485, -0.14547070351865732, 0.49594642222100127, 0.511220424052942, 0.15017465620504705, -0.02792770962677542, -0.1758712006021961, 0.010084496446026062, 0.41189564384812893, -0.14155582882241127, 0.04026667889496715, -0.4885697239660718, -0.1416703161142438, -0.01708204185679676, -0.20241501106836032, 0.014296958614573318, -0.5154314963868842, -0.7946749171767574, -0.18252289833763885, -0.11440359036496509, 0.03472043027721491, -0.42287130149421703, -0.42265908699091614, -0.07184036803825818, -0.07856306323312756, -0.19665038859369888, -0.01298357289770591, -0.33550010482442516, 0.09521191780402424, 0.11564724871247209, 0.8331482517817629, 0.1079798870353258, 0.23386993823649346, -0.13063018185368597, -0.38285833975648376, -0.39978684544169496, -0.4222195658071604, -0.3248292535052456, -0.004684790186923195, 0.47587957442960543, -0.061425342998473804, -0.3711829533983576, -0.14100587053805658, -0.3185443738166585, -0.30617728829527413, -0.12182224594364624, -0.35987571945167723, 0.20233715895960225, -0.258677775333145, -0.04215382663041262, -0.16467234131898156, -0.03811443181759048, 0.2996046341298055, -0.1251501574130364, -0.08874644589640303, 0.5946942919038146, 0.2506375819808427, -0.011051445982607605, 0.06582877799196725, 0.13731915030608485, 0.04519391657320821, 0.11834836104106726, 0.019277436964261735, -0.19873991255033444, -0.00971572298645828, -0.23039734512237514, -0.20593322072364798, -0.020006419295677022, -0.07781650460371552, -0.1658297508315565, -0.2983775153830442, -0.024914148085660337, -0.36587901390799665, 0.16174742330217026, -0.2629605906932565, 0.1055783996558467, -0.10721477584581145, -0.09730014016266163, -0.11587173234801015, -0.043936629811310836, 0.7192577191373916, 0.2406556244506502, 0.4168052593254974, 0.045702316998594436, 0.5303560066245435, -0.46742933931966485, -0.11510357728658686, 0.1565287089519989, -0.4408404679897945, -0.610111848664071, -0.41067758295218404, 0.363119516918032, -0.7277752283340615, -0.1867734440207179, -0.2803417952703418, -0.4840346396797451, 0.1394190793492687, 0.24107738284469596, -0.3849574549586195, -0.3806137372982855, -0.5884311506194618, -0.1185033924417483, 0.2377932113837213, 0.030217971451614825, 0.14899190946424024, 0.38306039203571635, 0.2185440738047015, -0.3311932505816823, -0.4386860164893721, 0.11040832775452557, -0.13182961566801124, 0.62019020308251, 0.1357587305595359, 0.24994141101276932, -0.20357594131483905, -0.008147089280991657, -0.4146016402161416, -0.6543265112035014, -0.5770660854830465, 0.025478582890544468, -0.05601284312690175, -0.38727862212912867, -0.45883928321137013, -0.5144369353430449, -0.30856394560861106, 0.09949658782146573, -0.11351457794876489, 0.010029615926843571, -0.30709676146238324, 0.14125999695521266, 0.3776383658812434, -0.13521745524795656, -0.20212367074369006, -0.1119602550950451, -0.12276131308098846, 0.12891573046434188, -0.52109049815819, -0.20046199098192263, 0.18896708544882182, -0.5300560236960645, -0.0626263200424776, 0.5459745920705259, 0.414022803229392, -0.20787678292177755, -0.012681733096457, -0.39160287900502305, -0.8580683135617447, -0.1103487054151675, 0.17040142181307374, -0.5746093994117718, -0.08995452396483716, -1.1321893790681128, -0.7828243608954328, 0.2148943195040119, 0.015205303770582733, -0.32400963086561363, 0.16521062587992888, 0.16550106991025812, 0.16007598166347903, 0.30406448895033567, -0.0855678102805616, 0.11099833414817983, -0.06724597213641163, 0.3343815735126134, 0.34707658006047987, 0.3001219848247129, -0.05630639959576492, -0.10851409848810128, 0.07133657352859765, 0.31998763093193106, -0.29777930579273054, -0.15231555225309262, 0.07858792423121928, -0.16952431806839816, -0.2785317987128143, -0.3647962036594891, -0.6933903111843697, -0.4335586548476196, -0.19517456580782352, -0.727323724034581, -0.14132105923333277, -0.04020309530072465, 0.46575653853995236, 0.039697853617537936, 0.051625556810827554, -0.17261785360191395, 0.17475779369704325, -0.25283613912589403, 0.5611270424038481, -0.15358260005241514, 0.4847004804209159, 0.3712841103109887, 0.4001073736510112, 0.31939738413454877, 0.5454881368177589, 0.6047002137127363, -0.3101520534717128, 0.12436705565248363, -0.6356682939829613, 0.24534669580543741, -0.2612000562361122, 0.3799938981476975, -0.6736513001699883, -0.3463959233581488, -0.17208929801701525, 0.029220408905798436, 0.03201956083765124, 0.035503680259607345, 0.12106522685158355, -0.36185732450305774, -0.1089256404857648, -0.35107041784162213, 0.24381383492616707, 0.10525753746444587, 0.4104934260095915, 0.4789963684551444, -0.09045380425092345, -0.7684932417097489, 0.15366450506501886, -0.497398155734484, 0.03387459868109425, -0.32418152888451757, 0.10608762516422882, 0.4782346375609572, 0.5144788307902504, 0.7102207443837006, 0.29416628330893657, 0.12248155023462558, -0.03060183699626705, 0.039641090992141276, 0.5326932970826954, -0.02472573930726222, 0.13233057606591486, 0.04532587466918189, 0.4768523916778003, 0.3014745487305342, 0.10537138024066606, -0.16154815838390196, -0.07896056462535599, -0.06161020745690316, -0.12827295090356222, 0.564702458043929, -0.5209471045315611, 0.6765832841428268, -0.37426193315610023, 0.3224329465841701, -0.1375176701383806, 0.3854467379806552, -0.1564723126853811, 0.568466986102792, 0.13098200638019525, 0.02915288826521757, -0.4349432466020946, -0.07370946722448751, -0.055978697756833236, -0.15734107637239197, 0.17660578675727995, 0.5045713326007625, 0.19736338218322882, -0.009374186869313567, -0.07033355021880093, 0.4513312386842001, 0.6098800190649888, 0.3311901801913337, 0.40757312521997274, 0.365505466518384, -0.3196906036094784, 0.5032285337296928, 0.3197835058451839, -0.30678401843333114, -0.0036424107732966633, 0.48377382802697727, -0.49710178280495265, 0.42103662998142716, 1.0284220037910596, 0.09168152536644661, -0.1610550330525138, 0.1803358037391156, 0.01642444568851329, -0.10806856975113545, 0.02592895548563555, 0.5220818658719282, 0.3051609900589974, -0.29569132753193167, -0.06047542248738392, 0.18363016771043478, 0.12763805417595486, -0.10527610665990368, -0.07578474069371359, 0.14224787331274968, -0.015546852331741585, 0.4258455553159061, 0.1608937567375893, -0.04421646537497301, -0.2955968674785459, -0.01395470461817045, 0.19948369209306888, -0.4484471528583178, 0.4722052161209137, 0.43826977451639365, 0.299780396193741], [0.13411629003536288, -0.006599806497320662, 0.10648042311749117, -0.3438690741578246, 0.3014191063565085, 0.03847106302257609, -0.0735556085897206, -0.12971980162834262, 0.5199142195140055, -0.029264012867089823, -0.23776821497798653, -0.1807262575330308, -0.1157729339532762, -0.22872085837805237, -0.1438777637529711, -0.8040474495659136, -0.01169338522170214, 0.025674233402623474, 0.23206233984850977, 0.3777982644880089, 0.3092746783047712, -0.5748672156782342, -0.05877595923181031, 0.49159346947236604, -0.6872784933180999, -0.1317325935232368, 0.08180517352182642, 0.10260941021351913, -0.1758457801963193, 0.6147284099352497, -0.15643345468856823, -0.2403638068657215, 0.14343387960245468, 0.0030112570107931414, -0.2754625149348451, -0.41940632900255165, -0.10717211331217295, -0.5560995659085229, 0.1481640858869862, -0.12589744777808817, 0.021174832211764624, 0.7022531069551718, -0.34585473026709757, 0.1492916514535101, -0.5378406561330998, 0.036391928507084795, 0.1828947190165334, 0.058079070342542734, 0.5430436453086215, -0.15846426839396144, -0.5583257742836171, 0.6667678942556996, -0.009049900145474094, -0.08182843679481293, 0.16639419802812822, -0.3352843429615895, 0.3268273321988628, 0.135596267285199, 0.019552429157521284, 0.29162913226089004, -0.29188960232237, 0.2790903195127288, -0.14269798469258174, 0.3235975430543418, -0.45821961543742795, -0.35057303432192977, 0.4235675234788832, 0.7269260181479112, -0.16290175825725564, 0.5662505956138734, -0.04628682373606659, 0.11996856632916852, 0.01886214251849591, 0.11782992920577472, -0.18377382810503184, 0.13869115287093686, -0.2671870485100943, 0.8404210059550372, 0.20414999526215907, -0.21335277940458447, -0.050325990613612474, -0.4535849485636277, 0.3389245615712457, 0.03780831353419529, -0.7221392547831167, 0.5391477615707222, 0.11467752286978472, -0.08192707767411263, 0.13696973749868918, 0.4411383559530226, 0.3773578847950818, -0.1209790978448731, 0.005094310279357523, 0.11149025153558026, -0.22690948947816783, -0.32776597411520847, 0.1863241914418052, 0.6398812171731411, -0.09798227633645125, 0.5315813261038632, 0.31616669089389204, -0.07457309184711464, 0.5019819400112502, 0.28467136231308154, -1.153768005083402, 0.3861253330820827, 0.2786248199472362, -0.2529405049925191, 0.241275410715724, -0.041857242018219463, 0.8746762054933483, 0.6431189778342445, 0.48414876319052574, -0.6411001617494242, -0.12566534023007184, 0.1000235910855927, 0.28389992613866327, -0.08835641901868226, 0.0662107926170784, 0.20954694030784704, -0.3972125868508365, 0.300483366289341, -0.25139996733815667, 0.12500388489926906, -0.3972470683219475, 0.1795394662777957, -0.4574792680335237, 0.02287607568383219, 0.5942299719122509, 0.20589652492509958, -0.07067225756180016, 0.46666375493683093, -0.05594721147074343, -0.10608662363030244, -0.08407328881720366, -0.27834966188360566, 0.5605794022894168, -0.5247096725503193, 0.4274814725511375, -0.16254703352471775, -0.17408906747589797, -0.3273119623818704, -0.06423692951424892, 0.4976311145836416, 0.03791930016410544, 0.07076275787592218, 0.47344370989872475, -0.18348105730310732, -0.13382849011561399, -0.05059650437318859, 0.31712866800836964, 0.36117657563230027, -0.01938727272496879, 0.07931280614872542, 0.5483164859551752, -0.09106483449214345, -0.14048666511340394, -0.16486159453939833, -0.036320028858349146, -0.05899162562423028, -0.3818334972759322, -0.234405309458706, -0.17896343592672137, 0.386010166023992, -0.04835728873161183, -0.08453095480234037, -0.11444331583002654, 0.7098842188322191, 0.2774309176847412, -0.08754722209402091, 0.2683381230542618, -0.18838381406220825, -0.2433623657806907, 0.34161309259137984, -0.3976242190890216, -0.2797674747310932, -0.06441645259839397, -0.4343733892234832, -0.2291330615630197, -0.09097471790462808, -0.04738239506247767, -0.14641997694255088, 0.5968504541625964, -0.11160170665669343, 0.08834632424124216, -0.09242992946698614, 0.263005127216194, 0.37959657017840825, 0.059337759873008045, 0.0693071270863552, 0.3690745826916745, 0.49363597228382883, -0.030036947981602106, -0.043406072636515684, -0.40589404318121847, 0.09151934760355918, 0.42407332553750554, -0.17406332360710686, -0.3173999031693926, -0.030666368131247033, 0.3933791926651338, 0.4721622647202598, -0.3988438735971389, -0.039264144673226226, -0.006285958503410129, -0.6198682146605623, -0.07470104065454639, -0.5228093585234435, -0.05296374836867117, 0.06974158593356926, -0.5008195806694862, -0.4281745890692973, -0.7130710737553242, -0.5488682630860249, -0.10987201834908142, -0.5200352162729153, -0.2214941169052247, -0.3869742539194896, 0.10947388797396039, 0.4628319727347731, 0.2510256999554285, 0.31692388422379364, 0.2026905860251484, -0.1988692466715813, 0.3440390560168779, 0.20258773226517565, -0.14846508050579366, -0.7732337676342912, -0.2566545680204603, -0.06423548900982395, 0.10068583934123856, 0.1022517106462398, 0.05645087529416214, 0.6069898045812638, -0.5643019276185286, 0.149931789365577, -0.1635388658896217, 0.1446037771815216, -0.28035484671642585, -0.1496870377640815, -0.41107402643035096, -0.36469828015092215, 0.4685945360444989, 0.11964661344950837, -0.5758285116360874, -0.15504460169624884, 0.029928894077183084, 0.26702912037338156, 0.5464698678876608, 0.010665795058471213, 0.06022119309312453, 0.1847605875210792, 0.3828189559725261, 0.30135262282895564, 0.12502314739584736, 0.13064351336288807, -0.09370105564381125, -0.23565799374821836, 0.05728054776915567, -0.20112904979180493, -0.053976717363266334, -0.30781428842521436, 0.17593556043505695, 0.19904133924146356, -0.004321428585676504, -0.23224368525672914, -0.1590331457658152, -0.18533726526000038, -0.5580133115993507, 0.36362402207686306, 0.008129422853649385, 0.22458245250625025, -0.01723074450942504, 0.30661988192116935, 0.12958418909335453, 0.6814882742390892, 0.003412912403775011, -0.28981980922836625, 0.011939631553862993, 0.07547811834958612, 0.42359184976697434, -0.058084568049644694, 0.013470617821284888, 0.14280410676269747, -0.3524867268774486, 0.4140349462720459, -0.2949244463894657, 0.16281554318022826, 0.14238305279790323, 0.2508876223448092, -0.40660689828460056, -0.3206989567847547, 0.0544299410090624, -0.1709926065533408, 0.2528002110359706, -0.025060925714594777, 0.1254487310519713, -0.4282254211549684, 0.005325088398807919, 0.45675008257201927, -0.33251328379329176, 0.9468223684720675, -0.25959120405949526, 0.5540398473911554, 0.23445480391707874, -0.0437140868812219, -0.08852472959769778, -0.17459035361025163, 0.21248161848209454, 0.0671317234835249, 0.12702973233102227, -0.2453238775508355, -0.13407132631719787, -0.08063128133302692, -0.15641408582224306, -0.2592575341666811, 0.3736314210859631, 0.06687583698238217, -0.14749187472604014, 0.35748405082930984, -0.031336642397047136, 0.1831405467155235, -0.05324891813308122, -0.12802113899366463, 0.031621355041047676, -0.23106454844509575, -0.479086502098816, 0.5794166680220153, 0.4571246033775399, 0.2920501997977704, 0.20693629960937487, 0.7326799938251822, 0.46191773185637297, -0.11582601061152187, -0.3055152926631933, 0.32775716527123483, 0.7561077248090321, -0.3754422809555308, 0.7364692265008347, 0.024128437106367962, 0.1723640241070264, 0.18147622870923846, 0.05951241561170164, 0.2651423302255799, -0.1246444215870653, 0.05590822652824197, 0.12221201639461066, 0.3023916464992521, -0.23314551844396847, 0.12891380546777775, 0.3868535449245969, 0.15958953804465204, -0.11758101980642796, -0.7804322234634306, -0.17252927381894254, 0.030033211888695264, -0.16100187611682368, -0.3136515111844535, 0.20309770038940353, -0.03258499065025455, 0.18448890002218513, -0.05743749134336312, 0.013539893823307168, 0.3918811210498175, 0.2262381668177639, -0.002178718308370711, -0.038094744204346484, -0.3630829585484286, -0.34133801169494926, -0.015400414760623737, 0.30212997921463364, -0.1275795570422601, -0.5233456269170599, -0.08689516440256914, -0.34295409060571164, -0.22114088956647066, -0.08205723310798956, 0.2858416824660326, 0.07621691600008194, 0.12253507229819331, 0.14256724702527945, -0.03181918233664534, -0.07172500666826456, -0.44258200723012114, 0.35495760382522185, 0.5590271967254856, 0.2392950166818435, 0.30607487691616214, -0.1953863465754968, -0.31035804057235206, -0.1843724725333426, -0.29019041718046396, -0.1977819621004808, 0.04138186938892957, -0.4915038048265204, 0.3699542151524674, -0.3744721548591435, -0.20576195440914305, 0.04683798134764695, -0.5427683828675892, -0.3680449598802334, -0.2473668350167051, -0.3646057830338033, 0.7021215653169359, 0.16547590504241944, -0.13872570304932869, 0.2037351395982471, 0.00907396607055613, 0.1807261326279483, -0.4584716966761496, -0.6489611297915185, -0.06873613397240055, -0.010151165682884695, -0.6441208958668014, -0.6346301130462773, 0.38369981803619374, -0.6154323937316591, -0.1931108824831938, -0.2239987765562553, 0.2623658628854522, -0.007918634287763163, -0.15821532522560622, -0.7846194934063138, 0.6027955854263708, -0.22136398535399382, -0.3929928617110723, -0.13061941700456603, -0.19372010659230365, -0.05163819317665519, -0.000973952974624423, -0.14489674004185765, 0.4943521199599033, 0.869696812764182, 0.06325853075046756, -0.2461106172699311, -0.11816647595532008, -0.11677244657083222, -0.49610557891693907, -0.19285612463135382, -0.4006550430253825, -1.1198126721730954, 0.21272172528703193, -0.8237045340489522, -0.3375273809338884, -0.36314536324549834, 0.4283789650906953, 0.46608963628448763, 0.013479737186361689, 0.38478946506362666, 0.30318737324997, -0.48122844029522716, -0.13598123048183106, -0.705583070256466, -0.5976932224475588, -0.4164962646961088, -0.04836930506289959, -0.02699813703487385, -0.19504966172397323, 0.1503248642470857, 0.39556847927643046, -0.13436499571469135, -0.027722901393158614, -0.11492458073512221, 0.09164771704885104, 0.1516783564601212, -0.013589342025122129, 0.18610708723850722, -0.499876085163632, -0.19128269875556173, -0.4304271180007631, -0.4358286859020305, -0.105448664033597, -0.025410146658343513, -0.2320260742345504, 0.06575981357385642, -0.42468835600199795, 0.12158888243634071, -0.4590885616331794, 0.7132455636381282, -0.34672032047103524, -0.2316117967504991, -0.13996040636788296, -0.3151322317625907, 0.21974925217330116, 0.4159724787284898, 0.8160562457069024, 0.4932756303197253, 0.8972153888437396, 0.7275932058752563, 0.439147353039003, -0.3056552064381872, 0.3253138300353804, -0.26553025405302205, 0.0386397141955908, -0.7338721616866123, -0.7170981284318211, -0.8976569785137891, 0.37319137808843056, -0.40934558696971446, -0.43462863862256973, -0.6952696590404284, -0.02852018371805817, -0.40721125088221305, -0.6124463369861746, -0.09986835306550104, 0.3322106662401987, -0.5206229633732262, -0.41134269212953317, -0.004373030641510259, -0.03339883158778534, 0.4384849427508642, 0.7288840427797513, 0.31846372200015927, 0.8287028594721426, 0.31530788806244786, 0.58404366882303, 0.5863809970897519, 0.2900551902371813, -0.6015551969331454, 0.14641317943107857, -0.6834001356494847, -1.0362444884633784, -0.7888488324934708, -0.7482924672374535, -0.4773583548824911, 0.08914743442913294, 0.10714411995411167, -0.040407049123806354, 0.3954424089603924, 0.4236517059538496, -0.11855369916885274, 0.21591783136033216, 0.07485301405862024, 0.19874491570297415, -0.0032311637300336585, 0.3568259663084809, 0.08616013157097051, -0.20449236694873624, -0.031078375758858266, 0.5167362311026715, 0.6682048115491296, 0.5304227121696684, 0.39064185602203944, 0.9174172894030819, -0.5127777340334821, -0.3840720408300888, -0.43469619529127174, -0.5067488704826724, 0.09756871922443965, -0.009734327249608814, -0.07005860880184261, -0.556911107592444, -0.3500227829523075, -0.14618301266591105, 0.27086272823148216, 0.20278127438814691, 0.06939856780562674, -0.1319020025248321, -0.3696203561697745, -0.1104705855394747, -0.34667064508491546, 0.3958569250886762, 0.534759899186619, -0.365767681372552, -0.16831083583452297, 0.3260464900383153, 0.41926869540868233, 0.12612354319305988, -0.34403933637261824, 0.4634035707120187, 0.6764718501961234, -0.0014480076963095082, 0.2795463637016985, -0.14565078022034916, -0.6089907678664771, -0.3221366133994929, -0.44562237635577123, -0.0013334156682315408, -0.11299123412572028, 0.17535025156839093, 0.16095983905836705, 0.1962782144295562, 0.19609623448609112, 0.034633872944153925, 0.5497504501084746, 0.5013678061310299, -0.19278092851450723, 0.25674746021762473, 0.4765027661801361, -0.3652749347735654, -0.29482383879981006, -0.01029265559181184, 0.01859678335820404, 0.2688810661834064, -0.5968277885762433, 0.32985907854489843, 0.5285473659609259, 0.13233563705704626, -0.03390419324359789, -0.013409391711752821, 0.37542231177051155, -0.23043348489672258, 0.48591690380431884, -0.5892499277345006, 0.23778013342958626, 0.13463564606336134, 0.14555593444712553, 0.476667783578959, -0.061271343972368976, -0.626446741292623, 0.16098659995895886, 0.14848707121603993, -0.4762968947943958, -0.0890752211954296, 0.2889086936080098, 0.19374841217952413, -0.08586755279570243, 0.19743090856174497, 0.021891480073053596, 0.05133151672189895, 0.12096867627194888, -0.5050185411957465, -0.21230894504510428, 0.09216616612252074, -0.14129160436917373, 0.10643712478767851, 0.5444736286104647, 0.0738118453297926, -0.009339926652197045, 0.1972801436646112, 0.07627128332510756, -0.3143030822725659, -0.607210205056246, -0.19507724256628517, 0.23244749039179466, 0.2415372059214284, 0.2392751308302792, 0.15689356797380158, 0.09857024731456145, 0.4643180963540434, -0.21889616255952543, 0.12980110091361324, 0.5059160887468004, -0.38403235493876, -0.4558016012809779, -0.28182479598605026, -0.2244435958524789, 0.35530681087323446, -1.0057745993753202, -0.48085015231043543, -0.07231572205165032, 0.37079149075803886, 0.22149929453494058, -0.046648492239995176, 0.30079979774178073, 0.08682020460638393, 0.29999897204766546, 0.6880245653952027, -0.23223420584517607, -0.05288294789281135, -0.09620135298595059, -0.053216099834483395, 0.21727552772247405, 0.47997957749156817, -0.6176938454951205, 0.17275002290927158, 0.5677012499069858, 0.3484851005243496, -0.1638621270115033, 0.21147445407340984, 0.22531321039802887, 0.01710007139592611, -0.041306589419641195, 0.14485091870031694, -0.6334214556476727, -0.8838752834063202, -0.09332842511148125, -0.6128759643304705, -0.5658970142240259, -0.2052534191645003, 0.4855626763509574, -0.37833716043141347, 0.37669296970135635, 0.385066989872236, -0.10454636827755782, 0.27058481309127186, -0.06474582136162649, 0.5231128680764877, 0.2019186525476132, 0.2543535402751858, -0.025560169677893152, 0.995911980663353, 0.25615257193733704, -0.3164195761865381, 0.154319808276005, 0.19076948537965852, -0.016518925999755636, -0.16474590318889978, 0.23888491162990128, 0.3121188836821212, 0.193845397992836, 0.3628431814501654, -0.2923033655593185, -0.023945461505578906, -0.035929724221698635, 0.3825653538768103, -0.13818314228228928, -0.37760725385804406, 0.6431412969141964, -0.22970177809701095, -0.5739713332037953, -0.28741094445180954, -0.12226904438990481, 0.020819423819835713, -0.10364771061196033, -0.17912516414138363, -0.2072858167496237, -0.12270931535786213, -0.2061709845537295, -0.20444935024729444, 0.05529908734704504, 0.013565096200300228, -0.08721341232670382, 0.009872878907464763, -0.28976860768229756, -0.3968461010629854, -0.2887733225966018, -0.1645879974078991, 0.1732758526399623, -0.1820490957672811, 0.08656257860510255, -0.10434829392201184, -0.35879352634107387, -0.0196379558668407, 0.11219618489349657, 0.15737415187204518, -0.4166571734316797, -0.7954995558537162, 0.8250599052050814, -0.2447320479307741, 0.15261067213369717, 0.1553809645338501, -0.9293017598560276, -0.21592181649562384, -0.3368994666773716, 0.02076230421815201, 0.1461913323859343, -0.04844224941835804, -0.34825327612610846, -0.32448696781939274, 0.18565695518667474, -0.13107005456043674, 0.2933363724018373, -0.4813894906107131, -0.352117262787795, -0.1530409294550838, -0.07944478295233574, -0.17377521708893812, -0.30141763217815487, -0.23845170480135947, -0.0005237366862256579, -0.25216947619323915, 0.44313988026990125, 0.04890366926226008, -0.13197034408315053, -0.36139392741615417, 0.23021894780329866, 0.06279436944587795, -0.06290281346719712, -0.17952623572468815, -0.7051155597738088, -0.3708846312513698, 0.35816803091738286, -0.03939420225241611, -0.2183067799442773, 0.02039180397548086, -0.45435014142618996, 0.4028157128330983, 0.4609030206322142, 0.44529138626937703, -0.18287878365837526, -0.2849404559300632, 0.2994253214657737, 0.4961056704380013], [-0.321777794142168, 0.06756474112800126, -0.028776608996013833, 0.11647068592092746, 0.07875759740183029, 0.2750295143589491, -0.07995716023941449, -0.5660000030839536, 0.01188882151036018, 0.11516018143173103, 0.47747569347610486, -0.028329173596791567, 0.41126601836533555, -0.33830107069225024, -0.01514394956162404, -0.09681708655416595, -0.12414814800813138, -0.07833413717635171, -0.29663069248575985, -0.4720895705522608, 0.24405909446963717, 0.07193928952770427, 0.3361210445404879, 0.10113787710131641, 0.26469010045708435, -0.2782630023317284, 0.06696642054280476, -0.35285583520482056, -0.2980375709129116, 0.29075356736553065, 0.10218888709951897, 0.9875482531350569, 0.38554466328579146, -0.2683330934465276, -0.33656278142369056, 0.369190553603344, -0.33526653344913265, 0.061760255032109954, 0.17364885741377303, 0.19890500523579008, -0.15596761223022793, -0.5968106598274623, 0.008591848399674425, 0.3276030966539667, 0.5270133735342356, -0.1326495440328682, 0.6370107066115872, -0.5849118468974902, -0.08516290852082375, -0.00805948128484569, 0.008880195612285867, -0.4855947142965084, -0.7050946502621254, 0.05090893866712663, 0.2916099014709317, -0.051562656988261, -0.19200868074340696, 0.25903486986171675, 0.4448779007301799, -0.06593873471251951, 0.226577609542588, 0.20781038199407256, 0.36320036049171417, -0.17260916437363857, 0.3878326410855364, -0.18193962731558389, 0.01742290002425252, -0.6504262718652468, 0.028366862619992658, 0.06848938780935719, -0.24858540143612065, -0.19434446999572386, 0.936410658867916, -0.0036077940878985843, -0.3869507586314974, 0.22508554639419212, -0.2415982194875531, 0.11594051031999014, -0.056388259387435774, 0.2212614264284556, -0.11472625408550731, 0.07510863915494159, 0.44142613091803673, 0.22029236722294507, -0.06143758913273915, -0.11475533501177108, 0.3077994101249876, 0.5032856026458811, -0.19012678842125513, 0.3495959974656169, 0.5764513776026845, -0.525687718429025, -0.10314283014987376, 0.747087636084565, 0.2263699565917003, -0.19686444875301584, -0.0783267696552895, 0.409626779110987, 0.9086741805003397, 0.4578659626123889, 0.10316603143322842, -0.02973562649175302, 0.8726272649135794, -0.6900572957772562, 0.025269065821247945, -0.4544627857212282, -0.5533783260625132, -0.3263764362322084, -0.3243840546827127, -0.5881712590176197, 0.19771501256913612, 0.15582557023901447, -0.1276604952584593, -0.17704531226278383, 0.24092241659232677, -0.06426923630523304, 0.46894690515254, 0.18075633394029528, 0.04956665272253361, 0.18675972454297232, 0.020153824368062588, 0.5426393365684276, 0.0896141555803384, 0.009752805623792892, 0.5735979038169637, 0.3813795582769925, 0.04056218497331255, 0.11090866286311492, 0.4348268604320917, 0.31434988034455635, -0.22979537285312854, -0.06821131532902897, 0.07062401643519702, -0.05774064144821805, -0.40075226337807873, -0.17099236003717636, -0.4370246388008336, 0.036965592620290436, -0.11237856729099167, 0.02568111056984747, 0.42654236301595555, 0.44735534300370966, -0.255978560938426, -0.1497882529044331, 0.1800751047939861, 0.7121719684018663, 0.12780065159752968, 0.4701539473738616, 0.4041802842432101, -0.2192614863813839, 0.1951880081276764, -0.5849539856870768, 0.6388195209624765, 0.45943280721676577, 0.516288771692055, 0.17263001504800105, 0.12833197732255344, -0.16775243723881292, -0.2186411521165179, -0.4253621774225565, -0.30485340032219466, -0.5499237709269014, -0.31346874986358503, -0.19893293311108962, 0.33423614624536774, -0.06271469450919055, -0.09140858615205785, 0.32608760664599457, 0.4039385097920366, -0.40056425911907956, -0.12993210803020952, 0.37746956134147086, 0.20852196217225366, 0.6988277661167178, 0.3312751349900685, 0.10178755911239803, 0.030226170028493225, 0.01752182948009187, 0.314440953190942, 0.17937233422148824, -0.49600104602023404, 0.3641991962456151, -0.24022101682300473, -0.1540740020686162, -0.1722410587651665, 0.024717703672306784, 0.5917230907208658, -0.26777691462353237, 0.05140224501820403, -0.2698643925359944, -0.6874814336124109, -0.488602206072156, -0.609505063226267, 0.0025898910533302534, -0.28336392836003893, 0.2380467743141421, 0.12588259501611573, -0.29088276601639823, 0.19273358827131432, 0.4092358197678737, 0.47842725767270056, 0.40120292058931795, 0.1770513336401274, 0.46851999523162446, -0.4810093604073814, 0.1388692568220246, 0.046024025545179224, -0.2589590645449818, -0.011545306200925927, -0.325292323074952, 0.07519658258792862, -0.22381269380278257, -0.37556494795550427, 0.01768434890290485, -0.33552607899819786, -0.0699058921328892, -0.570945351310536, -0.04444793884549846, -0.3549454337647215, -0.7925233426947172, 0.19593794102758388, 0.0006586649554094637, 0.05292441844682387, -0.2900461836854989, 0.26476343306793954, -0.5840720520777448, 0.2572049343804837, 0.5320028772264991, -0.3727534402649683, 0.6602199436999071, 0.2400156380224701, -0.18240120037886348, 0.11733302324673003, -0.5673809051121057, -0.5458640245178582, -0.3485596978927803, -0.3747352221569138, 0.45935753554050457, 0.15972375059172206, 0.13633662487995377, 0.28572699287937375, 0.1733248187857956, 0.6495021977806076, 0.3081463203140365, 0.3167937418736786, -0.09499969726021393, -0.42494319105415496, -0.8451255622926321, -0.12414399981901499, -0.5084394233456538, 0.009459722810021581, -0.0712498332249715, -0.08950249232879427, -0.2778683482258118, 0.027366387760460412, 0.19109943249786224, -0.29033966404101214, 0.13363874413924906, -0.8614151929358856, 0.24518384602590046, -0.520080353625572, -0.6351981267526771, -1.0716011774972312, -0.816347474370861, 0.02919670670145788, -0.18954426411136724, 0.3740840627077734, 1.2781277192253202, 0.7775207179780942, 0.18911341478990834, 0.15507639341157878, -0.45509553125710384, -0.04888105151556817, 0.12007567385546228, -0.11996036104252489, -0.7336255069888395, -0.570691246929688, 0.10174547267635546, 0.17447058419784836, 0.016692985710421524, 0.028685659527335275, 0.6235476042599872, -0.18788610256723492, 0.2983248408711897, 0.5459416326347818, -0.04379920338418118, -0.15021685723267475, -1.0684804536396424, -0.6492141950824033, -0.8097734964902616, -0.8447696097490105, -1.154625096741798, -0.13304399543773826, 0.030840893598227257, 0.26258952358760673, 0.8190790931160393, 0.5735339206639826, -0.20610939576400136, 0.32610512058206875, 0.16239762894365645, -0.37128372141607074, -0.5465101073030401, 0.30020190119282686, 0.21500141067609682, -0.21774340162365569, -0.36696686309439214, 0.11093477149052597, -0.23705005123430856, 0.06242224224491812, -0.02188326967553032, 0.22657557308305398, 0.04151389768799986, 0.2672434427179886, -0.4407627764974356, -0.6238617423961005, -0.575463135799289, -0.6224291561009521, -0.3875829991999013, 0.1595506578877356, 0.00011940811221465153, 0.4363884017672993, 0.4756025166279855, 0.49917335865014195, 0.3043981286867228, 0.13639693973959152, 0.8943779002995111, 0.47687128966898834, 0.2628391817915422, 0.027069410672802177, 0.007351276653464656, -0.15022205623559032, -0.3589954104741286, 0.22492093623420226, 0.03817859801891729, -0.011469829229787253, 0.2233036483790539, 0.7056088712114001, 0.007289820653800402, -0.02710896235327674, -0.07369611928269008, -0.40871946214308247, -0.5588214683055377, -0.35702774041962476, -0.1737838034960923, -0.5151678908453274, 0.30675098285280483, -0.20560870490220995, -0.41608638545140275, 0.41148827027482016, 0.15321501287385011, 0.08723348898511257, -0.1824672780783375, -0.10831579688050591, -0.7912932382554161, -0.30915221663369563, -0.48235640703385824, 0.1447265782367564, -0.2960010028704503, -0.11264841754356517, -0.7970776374571896, -0.11819087218444488, -0.16706769862606016, -0.3034381176003509, -0.08301960059782809, 0.09850027862505441, 0.05910178813677934, 0.1614395037726179, 0.2669350222146928, -0.16587594406762834, -0.5432554110994189, -0.2885952767460299, -0.15827620229011963, -0.17889578220511856, 0.6334760414434913, 0.5625320580207759, -0.1250070276649442, -0.8023507799906201, 0.1113602892868981, 0.31307083588180507, 0.7073399041035843, 0.3703292508138465, -0.31797770852325374, -0.17984117498973057, 0.3229015205916241, 0.17082342060690697, 0.09789586779492962, -0.5434199672172216, -0.5163101499897214, 0.04039042069092019, 0.5948289060860148, 0.006451474265427037, -0.35763142694197253, 0.05140133499630108, 0.1426731480959639, -0.2985625143865008, -0.2864771986691625, -0.4332278820758959, -0.65201989508359, -0.1829290768608336, -0.20974733503627918, -0.07921749265340379, -0.08492146715387354, -0.291421734407935, -0.18163891281199146, -0.5776516663083318, 0.08062143348725408, 0.3402170897577717, -0.12887171059010163, 0.08341942089941853, -0.3384618084847371, -0.0663548698105274, -0.3254620046205954, -0.19949975575727918, -0.012523919073108914, -0.23692628295104454, -0.38020561572375466, 0.0752278407410856, -0.07036005323604776, 0.17220761359501607, -0.08127980135583569, 0.4533639900726153, 0.3213939993736489, 0.02226666402524482, -0.21767480761138633, -0.24892140489153158, -0.05599880873795875, 0.12079691255102776, -0.44625176047934334, -0.3084792894776124, 0.31518505322422347, 0.13678266408220502, -0.42129501898677013, -0.30468958304890187, -0.02773845251023744, 0.12985056884987328, -0.03401173232173555, 0.28702180091450114, -0.883793251475645, -0.13576036109358422, 0.2311084341955542, -0.3587843953002603, 0.22871272454693406, 0.11092586541796919, -0.11345877025800287, 0.3119645116793019, 0.03349774110511571, 0.06657222098985362, -0.20102504070947602, -0.47374194915154616, 0.19403853879662658, -0.030936808825937797, -0.49188948798567644, -0.2202900167092212, -0.8586888698291401, -0.2309307751310353, 0.3578886007729606, 0.2008233240764419, -0.8447318099310238, -0.18901773494966004, -0.3465370373339706, 0.3845166777255214, -0.20295293049069874, 0.15987479305031768, -0.4373458993979256, 0.35489513314126686, -0.4674143889967942, 0.46734799160289087, 0.2720571984149112, 0.011681377488921823, 0.30065615336265056, 0.24730236754093668, 0.05724863460446435, -0.3121501295997397, 0.1366184561312657, -0.23967463430721841, 0.13681634073224286, 0.05627416807148529, -0.7687469455966889, -0.2792168469157086, -0.009699150400652425, 0.29962004761864225, 0.025388661968826734, -0.06527599607818854, -0.07595535671876695, -0.45386478355708537, -0.6573060997172443, -0.7122627401502206, -0.10770163619095291, -0.7599996908243144, -0.14422555375275986, -0.18118888611178197, -0.36495751329708903, -0.10755758381298901, -0.3929110242875753, 0.20947724061130976, 0.25400484078751207, -0.4870793624977152, 0.04260218788343035, 0.33118987292690905, -0.10509069578281449, -0.49612061631393556, 0.6926627365509135, 0.09573820636682044, -0.5010294744490171, -0.4514607001610739, 0.611270443227853, -0.5904001049352887, 0.4674400096436494, 0.502627896806346, 0.24347969133588535, -0.5609837315643214, -0.3582618042402966, 0.09270571485369286, 0.6545057895355125, -0.09427846280804224, -0.42154042993941115, -0.11406340075366421, 0.2617295521095522, -0.17990604085549947, -0.2405218671256937, -0.621121166060162, 0.03124402270866461, -0.40342054197574906, 0.33841302217604763, -0.08517396787666164, 0.6153572438979243, -0.5577423287873527, 0.45366427764971057, -0.004897044907426797, 0.14438967971494976, 0.5559816415037174, -0.39054420256470623, -0.5467189072239712, -0.21406264292150773, -0.5519739927828382, 0.311573113132881, -0.133504264832476, 0.2857266582172359, -0.16119424711345248, -0.5073909792189774, -0.44865819316023875, -0.4279152926832032, -0.4694634308681118, -0.38743929737056204, -0.06138979387218689, -0.12167711757684485, 0.5677309646492448, -0.29726682280097405, -0.14901932386533956, 0.3630266773046001, -0.08986978452431248, 0.30745362839953905, 0.592047822994624, 0.547245665522414, 0.22434854567569013, -0.31644995987208985, 0.5352680535799395, 0.15709204066140256, 0.4653799221864277, 0.099501105463413, 0.605668121553835, -0.2879510572902636, 0.439700072246282, -0.0987251974193523, 0.2507390052442192, -0.03883650847204293, -0.1074539287438967, 0.13127927316232033, -0.40649588195652325, -0.09346930740089969, -0.32374828120222726, 0.1845052628361589, 0.1613542837935661, -0.26908858981169825, 0.018777809725420876, 0.17982755821360683, 0.1547955704002286, 0.059290941032962736, 0.09684565542881848, 0.5636176930849547, -0.12842567174926864, 0.28632655785524364, 0.5914930618054232, -0.10978230522145416, 0.22506343810421656, 0.24361413675355653, -0.596987509491567, -0.37942326674317833, 0.059828141010768596, 0.337344114634172, -0.45853560997720705, 0.37000898225780476, 0.01462918380603136, -0.17911948683846554, 0.2048140912448473, -0.2023412918792959, 0.011923613848103028, -0.37109292170089103, -0.008560135329988333, -0.39498164638080413, -0.311121216567818, 0.16733188705003926, -0.24505790270701172, 0.0888490580781664, 0.10774740982484926, 0.16922082024392024, 0.36545806637998174, 0.601430527168817, 0.1995605286825462, 0.24796090074040789, 0.048131889492109996, 0.035940017135629714, 0.22514316057891312, -0.5093528973016432, 0.28140884853758164, 0.49177310093024157, -0.4640057013859621, -0.5031981971322498, -0.2709922919866345, -0.24348758501198367, -0.37404390169477564, 0.024823471326623568, -0.23536525316880466, 0.3762463141325902, -0.04222607323840747, 0.40139547058711766, 0.1302342108374018, -0.15857991077246805, 0.4021647457894517, -0.026761145817406618, -0.33891572392039476, -0.14221424418166326, -0.31153945960106116, -0.1666099209244701, -0.08837293680792975, -0.21396153333796092, 0.09266176142110776, -0.19096855355281908, -0.7669905556487479, -1.5221706442756747e-06, 0.29099712056437116, 0.1778546987045442, 0.0005821296001693445, -0.34379426469761326, 0.06676155683151667, 0.07001258766928659, 0.059430901085997974, -0.06076706218406063, 0.19456350043002343, 0.0008859175850638083, -0.20813270621002872, 0.46061602438856925, -0.3636677856505198, 0.3608521519635365, 0.2200815845634293, 0.4796104206524958, -0.3515592703136665, 0.19000145159609963, -0.22032319013026336, 0.4980822979661135, -0.2581875376452334, 0.3781519822879036, 0.6915699871969957, 0.2609770328845173, -0.3214335694735086, -0.25668304503055045, -0.0291604354200627, 0.5170336309620077, -0.3388361911541129, -0.382112863276596, -0.3435688809036255, 0.0007003456203427791, -0.28789756003142447, -0.6567497724131784, 0.05229419709192356, 0.07333119967796795, 0.03603407251496559, 0.12099042650032171, 0.3718580818781593, 0.023749282214019854, -0.29189428787844524, 0.1673015897201534, 0.03464504081576375, 0.4841657674818909, -0.4059101925487091, 0.4667274042133288, 0.45660384318447755, 0.11740957184740079, 0.026219242461013818, 0.3503750192249516, -0.12190719007092087, 0.2324094565276184, -0.05390231113243797, -0.3602711373533964, -0.11635323353090352, 0.03888004652099375, -0.11042133930675023, -0.03869632857222283, 0.459913439163947, -0.23623287727873513, -0.5638640085976685, 0.3922463852914634, 0.171062166084705, 0.29335048594802343, -0.13942111439342994, -0.11019268832547098, -0.31360695865957194, 0.3399863611702556, 0.6811853126310826, -0.04552133009965238, -0.09130215907700319, -0.06479549871740578, 0.5176141306896741, 0.33553830225811293, 0.26548106825088685, -0.17772595418179515, 0.14212164873937688, 0.37101352870979837, -0.4258008920841581, -0.21863796993693083, 0.14293265932685315, 0.27744117837368537, 0.40204546400210467, -0.4490300234079579, 0.42616783842786204, 0.10804490636313283, -0.05327864391453403, 0.46251863180519315, 0.32504967823005565, -0.11174281703787836, 0.04008049124621332, 0.39685702656408156, -0.250794626753734, 0.1324354155465135, 0.3601705077250219, -0.35032217997710724, 0.2784223676572209, -0.5154641543281774, 0.2689089429647891, 0.03661394773471137, 0.03672687049999466, -0.14287987348177747, 0.13534466847722543, -0.16126701229732382, 0.22232652523269184, 0.1071422968765461, 0.13814666990282798, 0.5537693264639827, -0.617124549302463, -0.6742660655304589, -0.23969151966490052, 0.8210160617540888, 0.2753139833823687, -0.1456236656669686, 0.18197408373265261, -0.47859412892286607, -0.4021033375280135, -0.07731112386825133, 0.18481667333296786, -0.8642045203940144, -0.11260928270913867, 0.12366597174604843, 0.27492517064569383, 0.11280759825516393, -0.1892838368647946, -0.03539127732762219, 0.027563441817228574, -0.3476983166856331, 0.15569566641933255, -0.3140857223381692, 0.01357741024696221, -0.1390954701317578, 0.3527760051063628, -0.412322784117611, -0.3005192843784547, 1.099404471150211, -0.032308332044333136, 0.3769578580488161, 0.0789569568186482, 0.2932503749676451, 0.15489469466292285, 0.007123219374312476, 0.11384115618681825, -0.23164143450788713], [0.7064996413261535, 0.03581557429553064, 0.11782360552146923, 0.3625584025290079, -0.15027667340429213, -0.11076075558814867, -0.284541005703944, 0.029196823302499616, -0.2423982883703297, 0.838232783346125, -0.3530455601848719, -0.26559099990528406, -0.4942319043514488, -0.21475733599795613, 0.18967131863838288, -0.03259013948165623, -0.34553911339444116, 0.11352333534672925, -0.025745217115923594, -0.07151511875031834, 0.13010593616905336, 0.22551395863590948, 0.11053733405015935, -0.3577309139383312, 0.2545515144859032, 0.013103274121764511, -0.010863023179292526, 0.2096042312035102, 0.45611858107389663, 0.23335839993010413, 0.2814324688068063, 0.5117532826327379, 0.16010905133157943, -0.13527896681938428, 0.12031418048541014, 0.4367716999219933, 0.1614701436623222, 0.48533976406047735, -0.6935032986252055, 0.5587983542638247, -0.676069136710959, -0.4000632587583713, -0.2895473838838104, -0.4494410016839244, 0.40169007934495005, 0.3138491413727159, -0.5981150059808408, -0.22530861263885502, 0.5215194495646963, 0.3162629559783614, 0.22477612101133326, 0.24485773512194633, -0.10559025826166836, 0.23057750111552397, 0.5617390446988313, -0.28020047695159356, -0.03413443808269451, -0.11882700238562507, -0.19803225369474572, -0.154799003909503, -0.059414976323997, 0.4370252826022458, 0.37583286946702643, -0.033055055112811, 0.04911484186178313, -0.13189108412545114, 0.1212113149857828, -0.006162321106138524, -0.16754919291106354, 0.17833278922070228, 0.6065532869274786, -0.08906949877812666, 0.6021208263962182, 0.10683509041780609, -0.4917403898520498, 0.33252686337674275, -0.027294315106295326, -0.26558359525610387, -0.3150536540381765, -0.11043906240589468, 0.18343488891984394, -0.07727814969246234, 0.2948021172504095, 0.28669179144451284, -0.34737182677979955, -0.2229090577721901, -0.07157376557166306, -0.13195876032358517, 0.2144200427607453, -0.3476248753067635, -0.13508442470012222, -0.06924644494884187, -0.07698467313354868, 0.605935956106496, -0.10810836516690388, 0.3001869796570317, 0.47377135689865385, -0.15463804004489706, -0.6016410360275681, -0.4688123344878098, 0.35511603273750414, 0.30706916665774503, -0.06150877469769339, 0.2176622296292694, 0.16928160516596547, -0.0861465153184414, -0.16024143288642723, -0.2653481025426989, 0.009263579391234901, -0.19985016372422518, 0.437364983500307, -0.283334479304823, 0.24197723148002934, -0.0663258678826278, 0.16363662183547426, 0.00022370774519492152, 0.2793587615178307, -0.308055340604646, 0.22653781897941946, 0.11500825827089292, 0.22514379199421675, 0.4640363071664202, 0.06861038522803768, 0.04968492236134728, 0.7067504948645309, 0.21251048890946142, -0.022762957434107764, 0.167954751504034, 0.29450178028783663, 0.45371500546837806, -0.23790611916804977, 0.14375949476443756, 0.13515486763517598, 0.02631419082903194, -0.3497612794379376, 0.107088345140106, 0.1540932412643755, -0.3599831441697449, 0.6108360135567963, -0.1272529074548449, -0.09828780447265463, -0.01335434366269439, -0.001488480530703972, -0.3124804517208595, 0.0257961982314984, -0.2848420589629976, 0.1528975840769058, -0.09514585942991363, -0.39391536352632234, 0.16299996719569265, 0.5856287842170484, -0.114590268576568, 0.14558763017235793, -0.15021656288884816, -0.024329605202863064, 0.33560515740467184, 0.1551380770625362, 0.09704216205075619, 0.17453173512620063, -0.6222835416347494, 0.017607520650895485, -0.5048051405945351, 0.03447529037385947, 0.46536728063952737, 0.06540300714409306, 0.42550663878461803, -0.17060914770106247, -0.4103575249252503, 0.35241358942124007, -0.4043978295150631, 0.5772375419737948, -0.5018867142582992, 0.4556710304961045, 0.31964450393966276, 0.5727509961717167, 0.17575589594068428, -0.2523475556525122, -0.053295568404298034, 0.07307470110708611, -0.3476073418547266, 0.03689668622746489, -0.828956903161832, -0.7254987606244138, -0.33297648925727696, -0.16359342977356953, -0.6415701025875781, -0.19177810360320544, -0.4413824492300264, -0.3273606945571819, 0.05799513612542739, 0.08462560813902267, 0.3125077511338174, -0.12324223220938452, 0.2043071106086596, 0.32764275100790735, 0.19753862225305127, -0.27445236804613143, -0.9669937752657689, -0.382529143857591, -0.17777463618004813, -0.27144068452030184, 0.1319524140499155, -0.37356604239050184, -0.10911120828905317, -0.335827364651753, -0.3498103823916395, -0.3266966786287996, -0.13632948456277005, -0.23902095780292887, 0.06865064551618012, -0.46846329426631256, -0.50837173485129, -0.2469660068101761, -0.4212356788224459, 0.20544043234488996, -0.6006944554247459, -0.779484757915792, 0.22561807407775297, -0.002992532204009712, 0.39079660291330165, 0.2529005535655571, -0.38781945537811063, -0.09672825462388521, -0.3971966124041547, -0.0369317169131309, 0.37689353184438706, -0.47909889967185293, 0.5729653109517907, -0.2890763585532877, -0.009386878844488076, -0.11047129995491295, 0.2005244276547649, -0.11260155270232139, -0.340352247213324, 0.2964616086491636, -0.09787767326234977, -0.1080605312957441, -0.31807213318059846, -0.5607151451347491, -0.41784064193689135, -0.10388900254781268, 0.38486348577362806, -0.8580247992040174, -0.6365293670122637, -0.010399281248097102, -0.4080488556520258, 0.49510349182975666, 0.1082123317590436, -0.1438006842303086, 0.44601300919779263, 0.5979239911919536, 0.3240736640332677, 0.0583867960152033, -0.18870167094430998, 0.07894187019909218, 0.055892016340479495, -0.474625723620683, -0.4845709305510569, -0.47028527024942063, -0.8619942030040788, -0.5897640204211719, -0.739622530607202, -0.2914303508720319, 0.030070517625198113, -0.6157773822903866, -0.25401554701215157, -0.8961348810610411, -0.7335365821562365, 0.002283339879733707, -0.058184726061675955, -0.06863018573793861, 0.2374798952043849, -0.09717616076754432, 0.34990348807376853, -0.21814549035920752, -0.39832749147927715, -0.25956959430490634, -0.28820679158526663, 0.2464724019676726, 0.1984823191576074, 0.3593349107193257, 0.20935333412739693, 0.19750961902390557, 0.09352797936377216, 0.25292615222861126, -0.1793564653179932, -0.9610990081726258, -0.21966563296822136, -0.7164264315300843, -0.11019697917292787, -0.37033479091067417, -0.8314418258043573, -0.057870168805382656, -0.17852837974956975, -1.4270634223140157, 0.03644497032355789, 0.08525192086281237, 0.1362995550729645, -0.04434466258446438, -0.20713844037190499, -0.1468941302785358, -0.13507429126371517, -0.08021698304012942, -0.6853016816010443, -0.28609643979679744, -0.04691294182535374, -0.43743569429153434, -0.5852997349311158, 0.19827378431204226, -0.3924518309237042, -0.652323123260915, -0.2264981638681529, -0.1804241422523545, -0.5302602498527486, -0.18402097599503392, 0.0873906262041526, -0.1990540599966542, -0.7859286834435035, 0.04301552678951652, 0.19767796802712584, -0.22113009676866058, -0.5565060317671999, -0.27107115895820527, 0.1377848400276274, 0.004330050640132436, 0.266251503531242, -0.2793819279944821, 0.10367169928749513, 0.5104178523968953, 0.00689637317627467, -0.0255282345685283, -0.4591164527591165, -0.08293698430260624, 0.39919423154557304, -0.29262768922095617, -0.737796520173926, -0.37629282750227794, -0.021544342722680566, -0.30073902329267893, -0.3225763077181393, -0.24423602887382387, -0.06715747221705509, -0.029115033281274693, -0.061854401249037204, -0.4172279318578446, -0.1586796076523671, -0.3976965422185809, -0.020388539692635644, 0.02023825893959008, -0.4782453354861665, 0.15976090587664876, -0.41734451983128923, 0.1897646292694071, -0.2824100128937573, 0.22416891605486652, 0.01052383071840722, -0.3797173512312654, 0.16292248795828607, -0.006279029879786738, -0.5842135548531227, 0.5640871947592778, -0.4993229925812129, 0.5647497488476103, -0.12294984087681753, -0.025888974895700093, -0.04464902214107596, 0.08614217431952013, 0.24030529048184673, -0.036831423046171485, -0.09124084745209873, -0.09950108899325372, -0.0844686128874721, 0.6655636818877552, 0.7777516768796238, 0.6543673210348884, 0.3542093071551011, -0.12111698703498668, -0.5743923421663492, 0.20718933099313233, 0.05054207882689563, -0.39104669984036783, 0.3787135177212355, 0.05756045702773135, 0.04727305130339877, 0.00022611801626840145, -0.16513481647563177, 0.34546888948308546, 0.21351217182256788, -0.3524422844240414, 0.4696163914093413, -0.5469973426247974, 0.09504598331152002, -0.22059091916488863, -0.4191505737760235, -0.08232900861294991, 0.14978771085081316, -0.6342085155907353, 0.0061261376401556, 0.7008852548705926, 1.1443003186338907, 0.2212353146202614, 0.3972833780874488, 0.7420153239515196, 0.37107667269267686, 0.4616885849470189, 0.21248319633263335, -0.21246243164489045, 0.08431985909501952, 0.13863196054130147, -0.3934613914030762, -0.2899587846662535, 0.14764374269282662, -0.08359833382318095, -0.06621577999177859, 0.10272653275361535, -0.1240285893325644, -0.22456402137727569, -0.15838207120008704, -0.07094744019209757, -0.3750969478602757, -0.09398564682138345, -0.19900099149329523, 0.05629705552120796, 0.339245185314797, -0.2914344908727203, 0.2363364605538762, 0.3483869167014295, 0.6575571951341569, 0.6956292568552452, 0.5338966202771132, 0.7203922580341016, 0.783161375891755, 0.13343063135384556, 0.14553737632685787, 0.1917897334644461, 0.7925222115396524, 0.058238645915212356, 0.10336541196743926, 0.09965483521111822, 0.355723336344536, 0.04995319463427014, -0.2525991958084632, 0.5105789889206654, 0.3113328743438196, -0.24922241831663722, 0.3481035902017417, -0.16190147798423282, -0.3733065864675037, 0.36592542717039, 0.3812053808478768, -0.2636629922816506, -0.22055329059112905, -0.03360075264313115, 0.28778228789170485, 0.8591121938039997, -0.02091403923767408, 0.613757001539439, 0.3790810776973114, 0.1716061266250438, 0.026111691681162858, 0.12187924290726324, 0.18381798955971224, 0.22744760905936162, 0.06495919075846542, 0.11374042240761724, 0.0687518376601949, 0.5551390875050617, 0.21524740304584414, 0.16710731548138275, 0.38306844142775875, 0.4917508772597126, 0.269197374664818, 0.3875541490303169, 0.14788748639651753, 0.16445159705691154, -0.23341113612821388, 0.19977620250161124, 0.8502031943124284, 0.2929162814456004, 0.17415789236715254, 0.17585866307450157, 0.8201893535444326, 0.47278387011658196, 0.36581495799806335, 0.47347419877681457, 0.5663163379595036, -0.1051171128623586, -0.6548250943686477, 0.3868400405650836, 0.2357389312130664, 0.20297914056848673, -0.07833559427779546, 0.03245155305151436, 0.228906770964326, -0.08464298689643529, -0.14255750397360015, 0.09407512910372842, -0.24590405724569936, 0.610319418003977, -0.38883103322267826, -0.017783425527121137, 0.2011121181271132, -0.15964285863418695, 0.05993246865586628, 0.08866355948717117, -0.15899632758378374, -0.07187354524794068, 0.34468158856643066, 0.16765754693519352, 0.3919801790110128, 0.5618010988699934, -0.1825883274158452, 0.565785626790861, 0.34464586799609714, 0.5988530289904653, -0.1740143330887167, 0.19789888198860128, 0.44757902288996115, 0.20188460943277836, 0.5306475128729492, 0.3416247734552277, -0.07927919757603169, -0.06822373832681378, 0.1026423197057039, -0.0509462967486157, -0.27288175236553563, 0.3239522830480476, 0.28043441007303355, 0.18526743242844385, -0.2951949817712447, -0.43525288384156025, -0.4236329840304064, 0.16639607356129094, -0.31656902894653777, 0.012437220580649931, -0.39901598813723504, 0.28877713885938067, 0.07529222542271412, 0.6464075025452442, -0.3250781840716462, 0.32331150234816525, -0.28048785256662767, 0.28055694644114376, 0.018017560004480224, 0.5284630456351188, 0.20032281495316107, 0.22793857029281972, -0.36322300975541605, 0.07358596151026076, 0.10873142075499975, -0.44859670882499864, -0.20553583663342656, -0.1785222400393738, 0.28218328152963346, 0.22004618170408485, 0.22142263360204031, 0.004832373182225114, -0.4319449770852377, -0.25533140151457934, 0.06287968642183298, 0.5915156100622746, 0.29756936036680315, -0.18462576262008398, -0.019521371370059323, -0.25111251745752666, 0.08011091423272967, 0.16663557901572254, -0.21423958254028783, -0.25856003371241876, -0.10627624545173654, -0.0019350387226817478, -0.27380903190798467, 0.2653255372284606, 0.10027545266108842, 0.14335171818548267, 0.7327515766760975, -0.2812136118754717, 0.1819338431368207, 0.1293041956921729, 0.061625172911428314, 0.0017272996211934609, -0.5086844435617558, -0.0029064444126982603, -0.07854041357444305, 0.21419085311918576, 0.46721587140009335, 0.04248509788947983, 0.2236282189555902, 0.09656279750424751, 0.389435180805265, -0.04490655827758085, -0.1619700796190552, -0.27355574747207845, -0.2924552751774385, -0.35679728023732915, -0.02474615557705459, -0.05406738397769731, -0.2991479759589192, -0.19406025213613767, -0.4984747786611574, 0.029769885973263348, -0.24033968127596947, -0.32521729097986113, 0.2477403484987696, -0.08652570445975631, -0.0033497324997728705, 0.04403199719441766, 0.5178707866826759, 0.5148922188109354, -0.2622355402486406, -0.024815363301977925, 0.030605900460131234, -0.4489630914895373, -0.12419593657571923, 0.11987304292699107, -0.08556099987844219, -0.26088447764266076, 0.14457345067102706, 0.10849274146603873, -0.2184719160319232, 0.23959155782880173, -0.33285823397175873, -0.8011179651565797, -0.2536392314415211, -0.2032680507628493, -0.0563937113494477, -0.029925888280250227, 0.185398094409187, -0.06301559240096921, -0.14495062555323968, -0.07230133485565939, -0.27204597687992566, -0.007688577005295498, -0.020686928971689684, 0.02510504896817262, -0.3312500909002198, -0.05517683181986971, -0.02169069106449885, 0.17488337827803735, -0.06783945553980164, 0.07819084291358651, -0.2228291979225827, -0.17169880541106275, -0.13822433546405982, -0.2169298350075711, 0.07694936327691565, -0.05885409679571955, -0.08736651441196973, 0.39925767233567333, -0.3493880459088237, 0.0018443206111227435, -0.07804601934567224, -0.4537454519503383, -0.20510409738109947, -0.03649190523644803, -0.08351982338237973, -0.5376352344005129, -0.4036952248282109, -0.6264606191444299, -0.468913012451769, -0.15196351536514285, -0.798077833084301, -0.3951271572874228, -0.3469887675743219, -0.21061769408865208, 0.47583285973468964, 0.17324580972012812, -0.32283405350682787, -0.13478394276206648, -0.02252044872079769, 0.06261030353143335, -0.5330597279962062, -0.3908577336875493, 0.44544908094296226, -0.0428034307920763, 0.022488833835263462, -0.07155392781862618, 0.04587675312953301, -0.044152500461420864, -0.816335960678006, -0.16057708374079163, -0.43525579011183363, -0.2989272187948917, -0.16213739709989744, -0.23673933325968585, 0.08543957855129429, 0.11934144382604986, -0.08171887800094696, -0.30136876592131745, 0.36438280505724313, 0.017501909209390418, -0.9176501155069318, 0.023123139947359705, 0.2295602666331385, -0.6239953540445284, 0.0018205453955425068, -0.7116203308436986, -0.2564637630429461, -0.3386348314050563, 0.47761817366759635, -1.0259230798333823, 0.24768313702460248, 0.3509176341712421, 0.013038575601011468, 0.7793831278756175, -0.5309742777092364, -0.2943462045922932, 0.22894360333395417, -0.2649369639274016, -0.7355298159325557, -0.3505457406538188, -0.5246207729545876, -0.4554314873044991, -0.23912765874936734, 0.07827966572381571, -0.1420693794064975, -0.13287885912605876, -0.04308339399877546, 0.4986138586302051, -0.6520746950102998, -0.4392164164360932, 0.4128815851956035, -0.398054961588373, 0.017377171233123153, 0.46613983177383866, 0.31064937017797667, -0.023449340694918226, 0.03222517145721412, 0.03775008907372718, 0.020809745513537033, 0.3427660408526667, 0.46976394899205864, 0.31548084836029344, 0.4284531359407987, -0.5986486166594267, 0.3267879369243295, 0.435012865413341, 0.3915323627153326, -0.4273163204134666, -0.08450650159210096, -0.09620964321698137, 0.07451786483851487, -0.18832299481322035, -0.28149225432327124, -0.7241404122812081, 0.03543047842929517, -0.3205947863671627, -0.6180538171260073, -0.6897830988582676, 0.059019815572877776, -0.11250486544100904, -0.18108239907650434, 0.26215870638543637, 0.1725319116806125, 0.03489335967751133, -0.38075377945193406, 0.2788456863376597, 0.44087572834714606, 0.4171759461449945, -0.4578244848823769, 0.06547140767994261, -0.3946549430250293, 0.09203574918759236, 0.27999463370988203, -0.2120323208780997, -0.34066343278399747, 0.41329654714625147, 0.34115371241439807, 0.14020477982355664, -0.1814653841020313, -0.16390058787118733, -0.25051708016666174, -0.22982198910497742, 0.14916440486757582, -0.21058961604431647, 0.33951247885740654, 0.23431376695995015, -0.18827900334231162, -0.03411582269156309, -0.2013678973845322, 0.305447469238067, 0.2768337018850449, -0.19146680395519633, 0.18114687575706226], [0.07771653826771881, -0.2063769015209659, 0.40120914692657295, -0.08943565831993408, 0.0937595287249987, 0.36092912770394237, 0.10409212671234763, 0.3177678036649464, -0.15496995164580799, -0.03806489722989029, 0.389384301993814, 0.07970712688366705, 0.06403649073389596, 0.45419308467248354, 0.1933846948919542, 0.2942861421811438, -0.3720982349069213, 0.24004066105474858, -0.1394238660220407, 0.28883091323810994, -0.16547845955534612, -0.18006347029181624, 0.0024845467224522888, 0.0713895140114183, -0.03756735014095484, -0.3031092394097958, 0.7881208167946521, 0.23188713804606229, -0.9227087446073787, -0.235064583484714, 0.10984785173286842, 0.45053829383700433, 0.5679842210039555, 0.46670569775189025, 0.21016596377504654, 0.14060587175344566, -0.15773499878148864, -0.219555631813227, 0.35518575677505093, 0.08768006430979527, -0.03526022217432456, -0.507844841521414, -0.22615424613918098, 0.23629572442368488, -0.2975824795228159, -0.245152599674684, -0.5920335068731518, -0.13817221021696094, -0.6856185144559599, -0.3652533698109554, -0.08886519565645302, -0.37686885349468746, 0.3237267984279593, 0.10405369616698455, -0.16955076358678076, -0.031840402757905034, -0.4595609318917211, -0.2711351611639128, 0.24241176268459275, -0.1720130066259793, 0.3443020401476715, -0.2322878940700721, -0.17539815163209796, -0.14690844785028315, -0.30992239673799443, -0.3068049556014693, -0.07055611966533609, 0.555969727317111, -0.4185753381288438, -0.12745143594828207, -0.0030225142901204637, -0.02011535118364716, 0.012464064901973989, -0.01240776850334306, -0.0719324753114654, 0.14684924450873518, -0.11832101929727815, 0.22096598300274303, -0.20853605588276503, -0.13154935192487538, -0.46209028461328017, -0.4707607112269567, 0.008393760435617126, 0.019646097179741757, 0.3651884516493582, -0.29940270251733386, -0.03498176361553796, -0.13235130530543257, 0.0308611580722319, -0.1339722566785913, 0.16554145185559602, 0.16167154020157595, -0.4178427328423917, -0.1919698769276851, 0.2786752806536849, -0.32946760822550164, -0.013830955180848042, -0.41508796086977545, -0.6829985327964605, 0.22000713661842933, -0.6835545154293045, -0.3221035085692701, -0.24457160594591967, -0.5575802420873435, -0.2410852688702319, 0.13761916392216164, -0.19711668211054317, 0.4375753794319712, -0.49768310084165446, -0.2833225176849363, 0.21951907882890695, 0.021016410185351875, 0.1724859984259185, 0.2507120242334412, -0.13403059862973934, -0.3465813194773708, 0.14624910993852555, -0.06955039739041036, 0.26790426614874113, 0.08219660649099585, -0.2699907259289548, -0.1486247639931088, -0.0532821860449077, 0.1447267318176761, 0.5146487363720548, -0.08369780818594592, -0.1026657746011097, 0.18642145239380828, 0.1462130058244823, -0.15430317214553685, -0.009186178939513873, 0.24781005159488348, 0.38497413850098977, -0.16140429083962088, 0.050922741478839025, 0.004028694364133458, 0.13086053222511806, -0.10928878402358644, 0.18417302887186565, -0.24259475911985487, 0.03851570556863045, -0.3938955076198196, -0.04999952391937654, 0.22722393977697217, -0.2774178823455356, 0.08040400714449995, -0.7949732841023203, 0.15318273338827368, -0.05377763855660843, 0.02225190914130801, 0.06304379859078932, 0.09109195123950038, 0.30181034382324223, 0.12817224584735726, -0.3774537724853213, 0.25062511059747694, -0.1378415866472472, -0.007805539335194567, -0.4757685251858713, -0.3154703903418042, -0.21843203565937316, 0.33286300190947793, 0.08688686809269792, 0.0245973834969724, -0.07403091595562174, 0.36478195984523787, 0.03945913811841333, 0.28255145597136394, 0.1258148775679684, -0.2835271374797844, -0.05987033164111595, 0.38451536660439656, -0.13195289614057742, -0.5899797090484773, -0.06841549213589036, -0.4104541340845801, -0.10340839765502481, -0.5204981506741249, 0.20106765268626142, -0.590090509779524, -0.2953200730693133, -0.576950070157501, -0.06914457465793804, -0.45308179278466304, 0.11456744934511032, 0.022251169148670227, 0.1869395900489161, 0.3986949794769576, 0.004039962178482471, 0.4628267237765068, 0.2560614947792727, 0.02580217663392252, 0.1344373290859171, 0.07392820170643989, 0.06517704715122133, -0.2226649514931585, -0.04774364509574154, -0.10401514870457075, -0.08817445529830814, -0.030876352234743585, -0.2994704740705939, -0.04570335073240433, -0.19879890072281783, -0.08833926761461412, 0.21799771921327457, -0.2802378739272527, -0.4833229255588335, -0.13253678697547489, -0.4969422221708455, -0.3661424117138239, -0.42076423484901754, -0.4418971954456836, -0.5023375736086542, 0.04893819200718715, -0.10949834978198081, 0.1401048209960295, 0.0441129404957841, -0.30528977138886615, 0.06454933647547555, 0.2144693400573097, 0.33295831184508345, 0.19703747875245672, 0.4687702351393964, 0.7716480903883347, -0.13879610674518375, -0.5861547517470089, -0.09406326096900045, -0.4597557925602414, -0.3411353025420623, 0.5391677298052843, 0.5021677804904021, 0.0210865421917663, -0.03308196029033331, 0.17925872499914283, -0.13190617711312924, -0.32047164916922183, 0.359448832987003, -0.6278156962652486, -0.18444074333893623, -0.3047074852756956, -0.11886473113437505, 0.47614933085899147, -0.30931180390455426, 0.2595831722124744, -0.20509816453376456, 0.6407054664014344, -0.29645938113715764, -0.32085371463111667, 0.1550327151080149, -0.3551161751045484, -0.6901096020360977, -0.4832091894992413, -0.29184697696391626, 0.13773386040215643, 0.35689554322612416, -0.5813022239871214, 0.5896076822320687, 0.43407540088946184, 0.23578340829806543, 0.3017059399297383, 0.25597688298088606, -0.21647673487945, 0.34062362410533564, 0.1852440021266042, 0.20702991520393105, -0.27193534561096605, 0.6450122151922807, 0.15514011869896338, 0.010172972729857998, -0.43345588147536973, 0.38193207594974893, -0.0031685631713752153, -0.5151304004394912, 0.07193852213820946, -0.042487581285312624, -0.2045987314338173, 0.2956738948509061, -0.15872701311484466, 0.15851233865144196, -0.07270208699311485, -0.293646537278961, 0.07107315806485126, -0.33841277058607433, -0.30782696591177333, -0.021136487047967636, 0.18586540148168332, 0.5786013017943061, 0.5052030433768018, 0.4445283025982763, 0.10693062732160923, 0.6261560770588934, 0.6055679873411334, 0.472737236161717, -0.20444806376708832, -0.13581157527136778, -0.16986393207938974, -0.15151704621644127, -0.24990319413211723, 0.22246615348950377, 0.21602118998113803, -0.05144010491186678, 0.09083729140823894, 0.43117496271633626, -0.40564544574402467, 0.5733497049711205, 0.3720949171983379, 0.29511573462741514, -0.13546657653257307, -0.4118127623822872, 0.4544094183318094, 0.19379767058730477, 0.10813451072684976, 0.23588059171481082, -0.6934885743937469, 0.18283776825346185, 0.4569942909824779, 0.13859628661656478, 0.49035235512934977, 0.17462522644921977, 0.7780670663665921, 0.5853099339432806, 0.19242659160918818, -0.8797520063190503, -0.5355059136420381, -0.23062462024829178, -0.5204047031739348, 0.5363463865943802, 0.31873225387056975, 0.010845346986653756, 0.028170791207024672, 0.34975553754526006, 0.24579377563089042, 0.04440838309855766, -0.32183022051062443, -0.43443868847129957, -0.13300574217718156, -0.06848787574630048, -0.061536291445001355, -0.0715477101104097, 0.11830280181995896, 0.43583665026938834, -0.2559034197779903, -0.02191676691936036, 0.20774595184377095, 0.026948965737098065, 0.06801375823234539, 0.39326646399297455, 0.50631166634416, -0.30164220219767734, -0.12561085206678735, 0.259581208725901, -0.2131552372309474, -0.20460645615802206, -0.4838033162220763, -0.13942612692077463, -0.04301817959628917, -0.010807500307723369, -0.44197271720361897, -0.007815549703625533, -0.43276733281496305, -0.5692881792493864, 0.6770154154799344, 0.1392918409744098, 0.06718226172033072, -0.6440559977657766, 0.017198034294716228, -0.02395997430155097, 0.17967106699045327, -0.12492282119753276, 0.07924391452567216, 0.2492236480104759, -0.12207935675303146, -0.06009417506836712, -0.06573516149369117, -0.043799901782877224, -0.08330354650541733, -0.06741412211949702, -0.12273891556957313, -0.310722120413473, -0.0952490840258443, -0.7986663832619093, -0.17691869427986062, 0.6358513225950666, 0.1557095780251961, 0.10125535509513725, -0.02164144126018376, -0.2275574173565355, 0.2027054968266449, 0.4215157064330412, 0.18240516819856384, -0.33069847454946794, 0.20748736309090493, -0.11212703313444572, 0.6981888386137476, 0.5348174702142582, -0.023916614972944245, -0.19822886747316446, 0.2823241803586015, -0.3038896352447765, -0.1422858062503371, -0.23228730041652926, -0.09807877093961406, -0.15898679338823088, -0.6586568058142378, -0.3709988557951757, -0.06287500228838147, -0.11796021998990618, -0.16563591988345563, -0.34920693695010824, -0.6025463219262301, -0.23108692937007033, -0.21593790915536587, 0.07178533648270917, -0.04616793742104572, -0.4770890196206564, 0.1627135866014544, -0.35114599125646734, 0.20276337079003262, -0.3004445088372057, 0.24444396073944627, -0.4804083806617856, 0.06044300877197564, -0.06820622359622355, -0.045625404407334126, -0.10724636170389452, -0.3666445895459471, -0.14380873736022187, 0.29856367578314513, 0.1564572340166652, -0.3469035397235338, -0.04273806994053518, 0.1552725121217994, -0.5900806226587438, -0.11037017907360458, -0.2811155019253087, -0.28583676695208476, 0.16244321829300418, -0.24795715271795638, -0.284701934564486, 0.33263080504452125, 0.21268140072405256, -0.27568026103526294, 0.004883946772070843, 0.41802955726296215, -0.43428893468966306, -0.01172206253103822, -0.46088816077147937, -0.06843579671463364, 0.05426322723191194, 0.26974461116010623, -0.13233975861608444, -0.48569709070122813, -0.3432685831868736, -0.037345240764730225, 0.07395047287161388, 1.0444412998556198, -0.18029802552058272, -0.4286786084331749, -0.02038923316423397, -0.35651878529451, 0.054115469446498206, -0.2961858025816084, 0.3653775730826342, 0.15531832590618797, -0.4403930533014255, -0.30767400166625947, 0.5977824413031917, 0.4113698189887376, 0.503647979467036, 0.0748440968230969, 0.7141331442283434, 0.1813716096058367, 0.24750537756286, -0.14506054716964034, -0.22008269928062088, -0.015434425707804206, -0.06883400359545859, 0.295411648183342, -0.29432052438389267, 0.15395834998805472, 0.30900343401202784, 0.022611587346725425, -0.08639375269078663, 0.3404958269131711, -0.05946893026198118, 0.06574451641793211, 0.12642581699108701, 0.21593504752576403, -0.6355255634833015, -0.20657950170049474, -0.02476821198236478, 0.35224802794397736, 0.1100098139087459, 0.3718737007387176, -0.45365628354258525, 0.08904561954902969, 0.1025302483857826, 0.5705738656423094, -0.1327230261438365, 0.3684802262593649, 0.3870342313168135, 0.34107260285835517, -0.13203612300478673, 0.2431088842679248, -0.2190243071842275, -0.22606081228633676, -0.11249460340358555, 0.0598525762961302, 0.26684122672559, -0.6771236218719803, 0.4178937969508521, -0.3662501149785757, -0.20593505393023598, 0.5846739844947005, -0.0844245899892628, -0.25054992723233854, -0.06977468984305289, 0.41217849853799843, 0.23638082408825242, 0.1836991058835361, -0.6340582967111508, 0.5460360165821044, -0.05541179310075301, -0.3510779446149539, 0.23539291164747678, 0.25080170455615497, -0.2555014752733306, -0.37586809085052353, 0.8702751946723598, 0.06872345471129589, 0.12558578248689303, 0.6338070142869864, -0.11820727330006765, -0.08266261068449196, 0.3221339988525096, -0.049279478488651614, -0.2101797684277511, 0.35953051853783313, 0.5277148687162199, -0.030260413019482176, 0.12362911178550438, -0.16253764507500715, -0.038159595569876914, 0.07145166336695956, -0.2624054582745752, -0.4524808812175877, -0.1808397412455228, -0.8973702495942644, 0.010061091077880432, -0.011777994559980829, -0.04842584053103361, 0.0801429043478746, -0.41493251556619576, -0.3828818734979903, -0.5372884278354964, -0.007967628693797317, 0.13230427929204852, -0.20490950148412407, 0.33681084058174837, 0.2973662814578482, -0.21308568626946756, 0.10800289571829812, 0.46010559603493667, 0.17464937321477503, 0.1591799941423083, -0.290933976697462, 0.049950920413895504, -0.14756883324691566, 0.014735100521153935, 0.28465303918548324, -0.23559640410907334, -0.31046909301432807, -0.5907916691498941, 0.05141757223068932, -0.5296225612095272, 0.10273140349616838, 0.424420861630766, 0.2902607777965633, 0.18832887648520277, 0.06365895181502633, 0.32184234567057257, 0.22410168237167682, -0.5103220732249916, 0.17437811740622328, -0.1797606907402574, -0.25377679163879696, -0.10149280025395274, -0.26762898457205636, -0.27417004731696243, 0.17315471862773146, 0.015056257587084744, -0.3737280823173719, 0.624379111367583, -0.30405838179131256, -0.013774448926516754, -0.4926627572722182, 0.07048790441107446, -0.23514610926637003, -0.534876005702078, -0.13047009839253976, -0.2168221793444041, -0.47775031796977957, -0.2543336439676797, -0.2535948527406217, -0.4638127462836432, 0.5942798901801426, 0.28453407776544504, -0.6281569963071241, 0.17384183179475773, 0.2014127092487824, -0.22186977769081934, 0.38233163969285694, 0.4060919993601832, -0.10746059156479054, -0.047352266673904214, -0.1864699309862857, 0.19841026594248945, -0.016425099702631056, 0.0048789743550974075, 0.09235899328635735, 0.10940327850410649, -0.0759233850152084, 0.149483114941293, -0.40557852866906013, -0.5242508316135368, 0.350908681275444, -0.300202520997244, 0.4055840252408825, -0.5472306024120247, 0.3240495706370685, -0.10594789441441986, -0.053935969801237806, 0.5225986550806817, -0.49065011633434386, 0.6862136717474951, 0.08385262210210465, 0.03279806133283481, 0.03655254021157724, -0.034533439440337675, -0.4790258640224194, -0.46186467317673746, -0.17608407832721093, -0.36448926344008215, -0.23804510003459375, 0.1787600153498087, 0.05721922825381766, 0.050609519422147906, -0.07589076048847306, -0.1596318051223696, -0.1565414046349193, 0.09593760249377428, -0.16434319789175864, 0.14778362989435956, 0.23172467046702339, -0.948360398363259, 0.3117291492346909, -0.24770855942857128, 0.30906792716493947, 0.3805004142614379, 0.32895656695854986, 0.5762225475193189, -0.4088437793880669, -0.01772155358277137, 0.2702555978677712, 0.37086951913165145, 0.13475046443430927, -0.1309913651049597, 0.4156385521153041, -0.23613483846104463, -0.02154381423795338, 0.30428663055810834, -0.22760753812495815, 0.5274904588460433, -0.5642000499444608, 0.042091064623763066, -0.2628529599620717, 0.12355518871270325, 0.3823159577914507, -0.035774616344561604, 0.027189871953248484, -0.020334050850962758, -0.7603169166149918, -0.0075545162417099, -0.5153666145395522, -0.20711041423065496, -0.06407128329205662, -0.20682282826962797, -0.627032648890072, 0.8018618861567649, -0.13866555587946433, 0.18701288501933963, -0.3386563473609233, 0.1957002004624083, -0.04721699687481075, -0.5917946708253636, -0.0565664180987166, -0.08336939847146035, -0.03897697581488032, -0.19914652569065003, 0.015506324202624027, -0.09274041259930343, 0.046750067361293834, 0.33100681165597645, 0.27061967909033463, 0.4047912261491829, -0.18096887881038123, 0.5031948538433555, 0.3223764303282204, -0.05961555249707775, 0.21123372439669247, 0.36022748094190765, 0.2570351464062835, 0.6596991259225067, 0.198460679425575, 0.227715446186859, 0.04784454641643403, -0.2837106284972439, 0.05199428601957077, -0.7224146823757386, 0.8395878653296457, 0.09996655228188187, -0.20780848459273632, 0.19472578630109236, -0.026235086398543512, 0.536171772228664, 0.1304279555201656, 0.031325761247071274, -0.0086753325063851, -0.04743614795565416, 0.023836202528292133, 0.42653981110679745, 0.20944108831724526, -0.2611652870145039, 0.19392538505504098, 0.3703067027393889, 0.46861327728092217, 0.45508177348444956, 0.03721042413305839, -0.09442163950426831, -0.12172712035356929, -0.085853777853639, 0.37534589796168594, 0.20418949492469024, 0.581177168083327, 0.5267373524367563, 0.1379120795178084, 0.20268119089996967, 0.04057973704472757, -0.12001090305791867, 0.18168019012652303, 0.05145890372251153, 0.7051648512955606, -0.009742594085176907, -0.8609893752126407, -0.05695803350211348, -0.06808719565703739, -0.17910672846169204, 0.46536513560771786, 0.2916143694639361, -0.07547904621486314, -0.37860096895684175, -0.7671858271588653, -0.43850388174203797, 0.06092439591527759, -0.15553256869477988, -0.03691106211353546, 0.2062885608105162, 0.1009527924824346, -0.18733288695993894, 0.09511803096204945, -0.164893728631826, 0.21306226561184533, -0.35514079406732213, -0.26985297616964193, 0.17352410217618472, -0.19937030171939282, 0.1835861513521072, 0.14238059829684643, -0.11405158378749838, -0.3138221412046305, -0.35235916134419204, 0.0885420100639549, -0.09595518016179251, -0.035864000168871535], [-0.18113889397615646, -0.3906199952513176, 0.17727384357518503, 0.35752181615022394, 0.16475714988411716, -0.029951131076753124, 0.09095523382574938, 0.721188022976106, 0.739314185799835, 0.009082915967256735, 0.3356307864025493, -0.409760886185172, 0.219082457044473, 0.5580162259353187, 0.004632583453385026, -0.015310238498095863, 0.059973171957180285, -0.13942071594038233, 0.2320264320335125, 0.16752511013595442, 0.39508249361045433, 0.10851187827323726, 0.4726595438424544, -0.16436422637629186, -0.019010662590325755, -0.009037350256301473, 0.163879534703674, -0.3224502478529849, -0.17107236168225637, -0.5271105621946081, -0.29526383337952494, -0.11503128366845078, -0.4064047415882971, 0.10465397762810429, 0.12142115650408315, 0.09213889998483285, 0.39106302207328203, 0.2155955940950494, -0.17609665393751942, -0.2168536849021311, 0.00492958210574254, -0.06737145969423101, 0.1738829571671135, 0.0037728770567120916, -0.24276228086905555, -0.4180158266892543, -0.27461695967402305, -0.20340733989033405, -0.2866337425825493, 0.1935018641760732, 0.21565361008747944, -0.6173709076609428, -0.46495824197406505, 0.01727247055674602, -0.3613836824154158, 0.10244783496097021, -0.4915325656316082, -0.09063507024559005, 0.4206382006881713, -0.10012309635789274, -0.30482871838786096, -0.19041019740792434, 0.14161900948381245, 0.04157458406046919, -0.20371998146098724, 0.05666326306203089, -0.37113599142558235, 0.48506837024330757, 0.23533938905592314, 0.218617097081112, -0.17954405451421657, 0.18557781557321446, 0.025666093215545797, -0.3706004613818962, 0.44782665691502976, 0.3179953634415057, 0.19950336285102754, 0.3310131395712101, 0.10347277808901668, -0.034983907199082724, 0.07498545202454622, -0.18844762729790973, 0.15699829045743524, 0.25282699309811096, 0.0015473111423389672, 0.07737716671909055, -0.01096088957452105, -0.16144629892535256, 0.23203664841685426, 0.3600555850573215, 0.001912917777272436, 0.0013872663296897248, -0.10447880184734534, 0.1322756430676162, -0.1664171318737532, 0.6089947612715758, 0.07214082808773851, -0.11177164645353607, -0.14096215058499842, -0.20377101781979443, -0.15514111442795767, -0.3475603105558681, 0.0835403519843676, 0.023096677688367748, 0.27387055548483513, 0.015652273941197805, -0.024292400478905993, 0.16754588231778345, -0.03402024291851329, -0.15966864127681762, 0.06652165799616462, 0.5083813511078784, -0.13363113064658974, -0.09733847103897371, -0.3624268367844077, -0.2390324660627591, -0.40843370158572867, 0.4592731482065409, 0.24610475297589043, 0.15477526014157483, -0.019582054767727442, 0.5079000471496732, -0.1910344070858712, 0.45671578859035106, -0.362846732589118, -0.42725500937555133, -0.3613408183755955, -0.14139393993031368, 0.33790381877691367, -0.08411013561811502, 0.10793939689244168, -0.32121638946242276, 0.010901488548758689, 0.6467379221556384, 0.03010565266030845, -0.8937028291310131, -0.14581251139835352, 0.15619657863930683, 0.19300967115118065, -0.23660795347168767, 0.24231498315309588, -0.11139102109280788, 0.06697068159240206, -0.291972925723591, -0.39422453146453057, 0.2294659983363659, -0.2722972403845754, -0.11860769168687627, -0.0010059626248053021, -0.45913574260379597, -0.11618583268139608, -0.5107317026831294, 0.2582493711123213, -0.5155354972994268, -0.09434162512491778, -0.9878843018157181, -0.4572306412748609, -0.6455443765506501, -0.18605758499591382, -0.20498895979626167, -0.37406918181482507, -0.6117259821525796, -0.6558003211009947, -0.6090315630480436, 0.1804956060929236, -0.37334022226135116, -0.11560084718134289, -0.30257926304560684, 0.018315297591710737, 0.9102148535105166, -0.1776274582294092, -0.5294566501003368, 0.06238754681894929, 0.1904575402154623, -0.6679797216962943, 0.1623188917287565, -0.15906160340951536, -0.0922067016575597, -0.2848095070594023, -0.41779191453027553, -0.08693535743613806, -0.0652193373820977, -0.12529047937865537, -0.32582226080008736, -0.2460501225249267, -0.08610685489075942, -0.0071592699568415455, -0.4928439140713504, 0.026222858649210246, -0.37158709029265097, 0.25517948466162566, -0.12671913852786432, -0.5079177579580018, -0.5999267037054683, 0.19689176170121758, 0.01424743854619229, -0.10001705387679172, 0.004817396721762817, 0.43892519254292806, 0.41807213982875246, -0.15967005981360102, -0.2739864542175294, -0.4410486375479174, 0.04917355053764913, 0.761165036045033, 0.29263584354651456, 0.34000990595063124, 0.19078124883500236, 0.4440647532942815, 0.05230259489403622, -0.08082113950063252, -0.07259028496276869, -0.09512763559955931, 0.054352704464427866, -0.00026773830116532337, 0.2060286838112636, -0.06665988173329741, 0.17124900161454293, 0.08393010085766027, -0.9696255803492162, 0.4426914353968766, -0.3646906024089307, 0.4423594300499216, -0.021325160149232743, 0.3084338205635476, 0.29212404844233036, -0.2592686082231883, 0.5775101190824835, 0.20034531915848927, 0.27670570287722585, -0.3361625923166342, 0.6062844017371827, 0.568054364154737, 0.1604600952129426, 0.17249825505720587, 0.20157562205731896, 0.37821249878308927, 0.19883377872162375, 0.646808116218458, -0.1280447787483016, 0.24983181176830663, 0.3649245434684799, -0.224460679953493, -0.0792561820280956, 0.34400650695599294, -0.2696022144748052, -0.20601507670787478, 0.11761112211055468, -0.4495682973450695, 0.26931258849302075, -0.09988105556254792, -0.16867453854031592, 0.21686679085895874, -0.09843521692692829, 0.3713305311824397, 0.2613303162121225, 0.5990440763668232, 0.07672956026330034, 0.4385118645674017, 0.38251216433065005, 0.026307686197372417, 0.3758163850974278, -0.3939508169490084, 0.08977028433236263, 0.5560696270116016, -0.408223328821353, 0.5297891632125846, 0.4210973474096612, -0.14086160392593347, 0.37946928145542813, 0.745540304521349, -0.08437120407603173, 0.1993900824792719, -0.3282747849229133, -0.004249077029249226, 0.3244764464276596, -0.1491316107836328, 0.07648137196272735, -0.16319954679952528, 0.4726493807693214, -0.08895274086196163, -0.2679086236772815, 0.2039952960725851, 0.1508334810523141, -0.019093680355794937, 0.33204092434669674, -0.21288763822611198, -0.017921478136911598, -0.16243807265534493, -0.02010721082886509, 0.08653752704646847, -0.18311570647251235, -0.09410795359134805, 0.5707647047625473, 0.28330758698523867, 0.45254440680628083, 0.9936231601500284, 0.20495911485748733, 0.1299629176161873, 0.523099430093108, 0.44834160278134894, 0.48711527298702256, 0.25370255237886785, -0.1171896892414234, -0.016014554591123924, -0.4305001886565555, -0.03713913274628581, 0.09514910208542221, -0.3394597779561845, 0.7490992818441012, 0.08475167926113018, -0.03952986001193785, 0.3731384400989048, 0.3810491089612883, -0.5166194955332399, -0.014154586262002347, 0.176275529303656, -0.3717261692490279, -0.3732876737326783, 0.3417364926439632, -0.1628638120268378, -0.04564599924783132, 0.07519482168832471, 0.4611030136202381, -0.020035621899078995, 0.3963021018476394, 0.5856969867662706, -0.07668072548809453, -0.15551721539921293, -0.4244512178080644, 0.04634262063963289, -0.24423463688542468, -0.42079082615593705, 0.12692712980673437, -0.24478081967756177, 0.0759659562253385, 0.1019350158529231, -0.0017694184870586341, -0.21728886911509765, -0.20891249138269435, 0.22246289071743972, -0.684901143097542, -0.21022053019046952, -0.11188852173026269, -0.6314150794808369, 0.37252541904529696, -0.018946389393606825, -0.6253713572684224, -0.6450449182554152, -1.5329183310234182, -0.8372996326614681, 0.16201221944573427, 0.16522909826057267, 0.543412843038854, 0.2613385571884214, -0.5333379916301765, -0.20404901583625148, -0.39955208573382583, -0.22288899404835213, 0.14491595699614981, 0.2506984660163655, -0.18955964947543583, -0.3326427771867435, 0.2850110979009322, -0.15415503078775888, 0.10741535743312275, 0.18256232998620953, -0.0008901268668464147, 0.12680129309356045, -0.09945476827689592, 0.0412647792381095, -0.4616822232921519, -0.026273360447215417, -0.1873766748130195, -0.1114103741121029, -0.4199687206218619, -0.45412461826869954, -1.2925999685581637, -0.9734075241557318, -0.4120043223339388, -0.13850504899000857, -0.59643364314185, -0.012232312595247924, -0.36522475687231065, -0.25077965355380666, 0.14284660236310118, -0.2559179018194821, 0.29128884921653625, 0.5207419751226692, -0.0464891214612892, -0.0644379361776319, 0.04296067286673653, -0.6331554873283608, 0.8318179146678019, 0.011314541922134278, -0.014844040333222933, 0.3094855148587582, 0.1082562602991784, 0.3535142663911839, -0.025970932021980607, 0.22497418166667527, 0.049196989947235176, 0.4873421067823876, -0.12832686369224167, -0.6807278351531215, -0.878630846245381, -0.33251824842618477, -0.007275326373885368, -0.27487737385295996, 0.2403300479174686, 0.3768186155120754, 0.27975329355524775, 0.013374276144469595, 0.44652150897429554, 0.12396390341967334, 0.5463978351640107, 0.14360692227034336, 0.08727748551130349, -0.0070932135110568775, 0.46718293740287603, 0.48330899776499614, 0.1109830757658338, -0.6370343011700643, -0.04992292573478109, -0.05011970473725886, 0.11240263094018942, 0.4966419480610417, -0.16981451147142193, 0.24614821910579632, -0.23719363227345908, -0.11021572106502574, -0.07426404909703614, -1.0593116048142899, -0.37656558453209593, -0.3634169705569826, 0.09011197425520363, 0.1306350673460777, 0.5084725961696035, 0.7777373989511754, 0.30834887346883416, -0.06976708550349299, 0.8405284753963689, -0.426339141163587, -0.14095978401868975, 0.26814900055629304, -0.059917828407228854, 0.25262245838408565, -0.8768023830881251, 0.021729698316224347, 0.2289194545718995, -0.43711688007757193, -0.4918011930621671, 0.815210739174899, 0.13154711031997834, -0.23946884594162057, 0.12950747584691205, 0.0894676325186411, -0.24096494153348938, -0.112355238061841, -1.1228338767021562, -0.8785081291727566, -0.395687802459262, -0.06782881433164287, 0.2634548586617076, -0.345005412240236, 0.02979126112043634, 0.4894006539700365, 0.2560279392153152, 0.522544137221447, -0.006405208496569763, 0.0680922251835269, -0.23393687766354854, -0.8327329208771241, -0.09609790004355162, -0.23189260914742968, 0.2777360911775203, -0.0003530245218572828, 0.2459229262040012, 0.19810605979503237, -0.36257330519033504, 0.125878632225981, -0.5215319329752682, -0.04597574555334492, 0.10483034462406278, -0.9273799844381793, -0.00047512726539477554, -0.2539177263504654, -0.3312599494725985, -0.5463967520628253, -0.025087674286482863, 0.3635093656538428, 0.10989174304053878, -0.006581886702964691, 0.6021221092147943, 0.1863045744117233, -0.12557708498595574, 0.04274637977687636, -0.2135741939099886, -0.3316521135024804, -0.21918108416389087, 0.04479688102136304, -0.22367390781364033, -0.13372560900285718, 0.17947830055939978, 0.5469263992373242, -0.19823083413644774, -0.5716831259972718, -0.033923041164308027, 0.27761756951435995, 0.142536572866578, 0.12620698414413403, 0.4747340462352603, 0.039462616731057006, -0.6697616484615297, -0.5573634487440887, -0.12864489431209447, 0.4853267802702245, 0.07650025471729378, -0.3273727177097461, 0.056683311368811266, -0.47048907718328686, 0.04374554433642932, 0.046566205175385594, -0.9302340397300606, 0.10383177715551795, -0.12448621990059487, -0.570311466638916, 0.2957183049353916, 0.26552206824682595, 0.024074467390218394, 0.042199285210492175, -0.3502609764161765, 0.08098003964360151, 0.023997863905100395, 0.012230787237282227, 0.05759364410887983, -0.2904810235710805, -0.5019163181569388, 0.1477425578830255, -0.4853550354173647, 0.10442117672111063, -1.0328546192290586, -0.1402500505447157, -0.521170632525794, 0.11747264097087033, 0.027920558356843758, -0.20594928414687275, 0.08745167494973449, 0.31364790008223725, -0.5181649152982878, 0.4214218775146615, -1.1338483908205834, -0.38585191833215204, -0.7368034851255365, -0.0639541487974799, 0.5985194695395852, 0.12286254805012631, 0.1630059021061896, -0.10858233791443501, 0.017133401316811108, -0.3979095669456312, 0.433734254895597, -0.24223291416567264, 0.038615940753312775, -0.10868345793007231, -0.5725409048758509, -0.3838543303440011, -0.7368981917727292, -0.5574601376921798, -0.41806884819924833, 0.9061981683320021, 0.03165990546773177, -0.2341859394604301, -0.5235775632976941, -0.0002825247088664624, -0.205548410744564, -0.6610927557916115, -0.31227240505440707, -0.44644235186107106, -0.23323484089932398, 0.0525110982137562, -0.8152577681681002, -0.012516918484156068, -0.3981745731903247, 0.22816795363529246, -0.3436592810131246, 0.057655228819303427, -0.31361940461090104, 0.08513025832260412, 0.13738550522746995, -0.5023430767155384, -0.2651441256948052, 0.7987832811661122, -0.09047811117563491, -0.470659766080076, -0.2681166876645212, -0.3952920048327181, 0.050565655856066656, 0.31727573223617245, 0.12435730769378636, 0.17065767374731688, 0.48382409639311885, -0.06852044693828543, 0.21776053385836414, -0.14646728863496858, -0.036847528992730576, -0.6084119991175062, -0.017216255121954273, -0.399073728253038, 0.025937092433866726, -0.16548983060435246, -0.06628990951708641, 0.24975713453809567, 0.12887138332078374, 0.49566993421280253, -0.5226325793549894, 0.03595185049968005, 0.8267048722314531, -0.26404707152580026, -0.2002992626674699, -0.4006720269779245, 0.05889582023916566, -0.31022692815178576, 0.054275582183104146, -0.5760780747862428, 0.4333352125639292, 0.2633306836276348, 0.2906284238126163, 0.16582306159795404, -0.11800823673198167, -0.2126957911877485, 0.35722340180659484, 0.08968806027819833, -0.35893262665932335, -1.2298898210474152, -0.37918776851782243, -0.8792146769532652, -0.11569795537516907, -0.6541730906545544, -0.2182087967444697, -0.09994472520867033, 0.25970392041074986, 0.05181499569380797, -0.317554802631443, -0.0032708699311965713, -0.0859758320056138, 0.13205294751693636, -0.24932372376149115, 0.18488340533271144, -0.13002630223775888, -0.17143153896546828, 0.9682887333364253, -0.19970756081268892, -0.4499561001100553, 0.041245153982564606, -0.17600423309494, 0.37683136414964746, -0.13509392855960128, -0.34142717953642576, -0.1627160730080473, -0.04449233325486006, 0.08516207945095605, -0.12219754063530924, -0.2887809302183414, -0.46306234983361266, -0.6001994745981162, -0.2606084322091383, 0.28229695684874045, 0.4140793848439474, 0.1366017992729647, -0.2872268169412553, 0.1957196121261053, -0.1999751089994273, -0.3307434404269494, 0.10097662427457497, -0.14634221695869867, 0.22396973678432294, -0.742841207474889, 0.5781249509868394, 0.17978417280938166, 0.41810388959660144, 0.27128507301927135, -0.2795775526977971, -0.22417494603364777, -0.031195091908506188, -0.11070864630608888, 0.3968901228691092, 0.2138020822025793, -0.29995287461229014, 0.3595357995680647, -0.4404758551960839, -0.34276545238082257, 0.015266251539767602, -0.5627615240477782, -0.22590768187205168, -0.24593552380874262, 0.12347188798969073, -0.14147731453054802, 0.046402265654074785, 0.05681193803022556, -0.09029656857307752, -0.1586951904915864, 0.7603213263701784, -0.11394883285815612, 0.20677982352715446, 0.366411966430428, 0.1151988487345979, 0.18288032614804234, 0.11341112263358841, 0.20956463140417517, 0.48696207941217545, 0.5083635053469657, 0.2034932870370965, 0.37729623721085637, 0.04671320229361898, 0.3953009226920647, -0.17844258622293985, 0.4288940748558567, 0.22279371230681383, 0.32781269598597956, -0.16863375876471126, -0.10216455039878736, -0.1346376431128909, 0.026899417167497126, 0.3155927984519717, -0.35657882021281895, -0.3881929692611529, -0.37749978580550975, -0.29468604760784817, 0.3333085203939965, -0.4427418901723833, -0.03383290386599974, 0.05893696819855537, -0.1943578106651542, 0.1185315860204344, -0.08589346596725109, 0.01934324450047504, 0.09822022700655164, 0.11775951832057861, 0.22696765734384372, -0.1997895341981452, -0.40930730095316803, 0.0457409261763668, -0.12154547391010198, 0.1755998451565004, 0.0203575865117344, 0.33931905261102874, 0.9558380051371885, -0.5430154173334415, -0.11541541914732115, -0.03375254770789322, 0.34847129539199234, -0.22877542977901588, -0.48684531178098284, 0.41251241368313446, -0.23964125826553956, -0.3260294760974588, -0.1233727581019129, -0.40749802720998723, -0.2902818615444355, -0.038847452292902894, -0.5658920499206037, 0.15055827958629256, -0.25862600237770333, -1.1553451023326076, -0.3936268750599809, -0.22053285733908712, 0.41316266007040536, 0.10555175341047406, -0.20180677150907542, -0.20606876420896378, -0.033709687566812294, 0.36102030113911254, -0.13870333532779125, -0.035179827520790886, -0.07402657742217209, -0.7489240201137259, -0.5757145170067265, 0.22539608367993774, 0.20062321566611338, 0.09974365241696974, 0.3453737417407459, 0.10775494845495005, -0.5071867073413376], [0.20228301986253, 0.42225466033672676, 0.14034155968224202, 0.14950536261058056, -0.19725264190878844, -0.042425263938134304, -0.06814347422878785, 0.14449454130679731, -0.30289734518042566, 0.3915153775035091, 0.4413228585338613, -0.1109850057141852, -0.7765647328246131, 0.00963296243058613, 0.1098237662435827, -0.7878068563992887, 0.11789101621730459, 0.2056845840176908, -0.06810187570625431, 0.4061101623141706, 0.37853471839487796, -0.5704574534868228, -0.5602116022107201, -0.2043298337005355, 0.22753742790555523, 