[[[-1.2051435183928771, -0.8732203304815241], [-0.18529841758978272, 2.479129998267479], [-0.43016555727330724, 0.20905695721396012], [0.9668207716150424, -0.22599469209262565], [-0.7314608810198853, -0.19694968017866074]], [[0.9805515873820448, -0.5903617997459684, 0.21672852487424976, -0.21917972850018066, -1.1816584434564545], [-0.8047771024621939, -0.4236019813806906, -0.4095037262894745, 0.4527145952191114, -0.3583208218846191], [-0.23609427714272388, -0.15677036205840583, 0.23861561193317524, 0.7771855624876591, 0.9678823108587574], [-0.567507067029325, -0.5899228589047452, -0.7110066797816557, 0.0367595124268901, -0.7107036046126313], [0.28782848817863615, -1.0046061863657425, -0.8120482384080574, -0.4697671472182676, 0.19823816019567655]], [[0.802447433647665, -0.7714236708399238, -0.3711966646036885, -0.2560139167223879, -0.10019156870551604], [0.17482244708110278, -0.3158577861964434, -0.745251980615481, -0.4811254624532414, -0.38882575851043294], [-0.10311500533442255, -0.7558241812256014, -1.183677695868946, -0.4721450706120233, -1.1256536150437284], [-0.8776435725850235, -0.8404643123865073, 0.9068757391015658, -0.8464244292242412, 0.5112571104966743], [0.2031145277159253, 0.18772618028424387, 0.08035403516571869, 1.084217379251198, -0.608887298825348]], [[0.4733575865198848, 0.02363254236393038, -1.0347702716716582, 0.13316904245723005, -1.1200027388306093], [-0.33131549834661755, -0.9013254809988751, 0.949718191009363, -0.6754624369849456, 0.43901019338150804], [-0.3344447619055121, -0.11231402239055446, -0.31299879296484284, -0.43155509012988486, 0.9914104006243505], [-0.38196827486920526, 0.5967190641475472, -0.6148458533759327, 0.6028729032151007, -0.3735944347192365], [-0.31607332493914186, 0.00014986554519915606, 0.49637764022129965, -0.36145741449455404, 0.7718822081609356]], [[-0.7201929594026292, 0.09181749530982271, 0.6673676694930419, -0.6845012785059943, -0.9876794552963031], [0.8902989131101127, 0.5430985279490451, -0.47129331044364203, 0.7570801962501111, 0.38272503435845384]]]