[[[0.6443455201835838, -0.7341686793035791], [0.1392471008216054, -0.4494380957127851], [-0.7293784439025743, 0.29466127443684625], [0.9514800048296129, 0.4893741365859731], [-1.3940397113024654, -1.0689410242810073]], [[1.3067479743707195, 0.29499173192298606, 0.4723912006010886, 1.6383488927898018, -0.07268652517612378], [-0.15011050771899492, -0.14678740770237175, -1.271185701034783, 0.6715807808661046, 0.7297709917534243], [-0.1640172546154782, -0.04512067684731307, 0.05824556468503458, -1.4548260813916023, -0.7092035254611267], [0.19987171418848176, -0.5675997772313779, -0.29016410893814226, 0.6691923424862722, 0.36977426952640957], [1.0488100133797877, -0.7518185776056326, 0.8637593663568387, 0.2776666735188146, -0.021067237155081447]], [[0.2938034342423937, 0.023412807033147815, 1.059095806455403, 0.6830315712038283, 0.5661248687165252], [1.5808071420918388, -0.5691249607310148, 0.793125052118772, 0.1515584302115077, 1.3857303657404845], [0.20565474945632795, 0.022056280880736828, 1.4285268384875, 1.105459507180454, 0.2136206483085153], [0.4084803815215883, 0.4199282040861706, -0.28266549830814924, -0.4211753602937509, 0.06257744820779217], [0.06139621334116577, 0.6995772370481975, -0.17312426386831375, 0.37674688446374544, -0.5694744631530505]], [[0.7257115917699927, -1.5695173482955138, 1.6169407867809502, -0.30933006765699606, 1.4513602133901946], [1.2482810785381302, 0.027096670274535366, -0.7384026604100039, -1.1584545140216929, -0.15369641364700848], [-0.39036229581775816, -0.8836025930500562, -0.20045873572010517, -0.6829718373182804, 0.06282187996095119], [0.6819856477621652, -0.322270342753023, -0.35711739253868713, 1.2434342092027602, 0.579054466137635], [0.08360068572717708, -0.4434658903463775, 0.13542949555036451, 0.12475264423675454, 1.501546346583321]], [[-0.4721395272131291, 1.3716049185517978, 0.2739391272162205, -0.14488759910750615, -0.4808571269063422], [0.537188343550313, -1.1685896574749903, -0.04173227126112625, 0.4299355221277661, 0.31720961459021035]]]