[[[-0.019528859362813275, -0.009638483639487678, 0.0038352821419538204, 0.010035956703993315, 0.014965191142818829, -0.03949048697712856, 0.07054501205660071, 0.014800491549584778, -0.00869450598853587, 0.029746298515490745, 0.04961899608841162, -0.012505976933052974, 0.023210219242065858, -0.08407701478225138, -0.07841870865204216, 0.07354160591373524, 0.10066241892015784, 0.07527824270529873, -0.026855103054763147, 0.06305723021914045, -0.045018741723481394, 0.006900612827251527, 0.07913863507770486, 0.06320720444291636, -0.042312450117606266, -0.03530574385603064, 0.005792430947243129, -0.031258136392187795, 0.04991649589840181, -0.0015813462649946176, 0.09301771010363194, 0.003765058102319804, -0.08447010856622092, -0.06235320242555001, 0.02753817785404093, 0.01799562307055811, -0.05438103406302553, 0.04332394783346157, -0.030765586709840004, -0.03214331322365971, -0.02831225102960497, 0.08489401324781218, 0.03188767164877147, 0.006393317879589488, -0.006107483708700832, 0.011813424297823043, -0.00669559952145227, -0.05101363970046803, 0.028812040899131714, 0.09066994942264237, -0.011601586630044836, -0.03656143115590214, -0.014205056552192886, -0.07271313850315766, -0.02123293680352724, 0.04875886477880298, 0.04051976090428332, -0.01091308291859912, -0.0056250132597771944, 0.057018485657739704, 0.07176272315067869, 0.024131695776179518, -0.0031118450490167475, 0.07410353914398628, 0.048324975509083226, -0.01994622872170729, 0.04708312053786253, 0.0456875381548822, 0.0228902021354312, 0.10901120654530651, 0.1108703947438836, -0.034648361557326625, -0.0436653908407771, -0.08305033994099228, -0.06835256114613757, 0.024652036181293954, 0.012791867000038662, 0.05560165583924738, -0.0003669715279060742, -0.057816796219261946, -0.062311583236396594, 0.04633823668306284, -0.05330433488119873, -0.013894206938329356, -0.07308431597498125, -0.08086417973929623, 0.08253661630825025, -0.02385401122092656, -0.004058398685356431, -0.04793746221994372, -0.020306142954880545, 0.020219923005049267, 0.04585801955553365, -0.03342972085037365, 0.05315858792280142, -0.018939132379641, 0.006374668233143901, -0.023053066651338588, 0.06434932868187711, 0.020910399334419946, 0.01579805785364068, -0.06791980356333745, -0.02374049932490759, -0.005481221252890817, 0.023160324855948707, 0.03230407677866969, -0.035626410607388165, -0.009463245602607638, 0.07599073619890606, 0.003347811035519569, -0.023647990110374235, 0.06873101040297037, -0.049872725560852704, -0.019748224065599944, -0.0837771406112931, 0.04043881511899249, -0.07213288039760439, 0.04393025980748109, 0.057251034564953646, 0.02943402279604521, -0.08093322731392809, -0.050172691504915656, 0.05627434804905366, 0.05542121485642338, -0.024730167662426996, -0.0587826990349469, -0.06292856441977487, -0.05848459236217511, 0.027727628191333165, -0.02372974865290022, 0.07985458939400593, -0.01811693658888987, -0.018871096913621776, 0.08244554395095786, 0.0380714613680574, -0.003409765550966561, -0.1360806991045465, -0.017906956058631796, 0.018825222830275053, -0.020387211613416997, -0.009723956450438326, -0.11845477197565718, -0.007154599621541512, -0.018828800847897446, -0.046357676162352986, 0.031176635244381405, -0.0550563497320145, 0.028972928267071037, 0.04692403749895768, 0.03560029863517035, -0.010607163381768734, 1.550236618685222e-05, 0.07450538170743543, -0.07745730574794359, -0.04354141316959444, -0.04924132251595295, -0.0490039891187611, -0.033697282934562686, -0.0453667368228544, -0.03887276191712977, 0.07525933864485398, -0.005783664174609943, 0.12395140926102172, -0.005883285570806316, -0.010624591304355845, 0.047334533095384546, 0.11290509512930107, 0.0227578029958618, 0.05259581066067061, 0.017691053691252945, -0.008039876393857505, -0.030728603956530803, -0.0369338687900202, 0.09666270792411719, 0.04811205322725821, -0.05475600901908191, 0.09853827933280146, 0.02268433795998346, 0.04225511672353594, 0.03644906434319827, -0.052993798072623464, -0.11009285746400715, 0.026195756878461797, -0.027422066551407574, -0.04668947757846403, -0.10387921567213615, -0.014985366778844541, 0.11490220477172312, -0.015187444224386134, 0.07174782880290946, 0.0040125023547917145, 0.020413876137575043, 0.03652856451382439, 0.013544620249905628, -0.04780126130672802, 0.03738711895100741, -0.09846398445049556, 0.011244894541071823, 0.029159773968755767, -0.0031201792401786927, -0.00127226316044072, 0.05000208173388738, -0.059083363979815055, 0.061940573715796185, 0.04039024716754024, 0.014137639231332414, -0.03652556488182028, -0.04846182379079044, 0.07863768564156741, 0.01104049286224665, -0.019145110547175465, -0.00039322616371175655, 0.019190701026460578, 0.02007066986417493, 0.03137420681250468, -0.04316766417454961, -0.03159835812699278, 0.028626931006819793, 0.09042818780085597, 0.07766998908006974, 0.035256232955073165, -0.000492647212314649, -0.029480163637131063, -0.04014918437299688, 0.06781853329657686, 0.04708356509286022, 0.005867896015845568, -0.007919973941951004, -0.051706684559058184, 0.1276913375934957, -0.0774957516688133, -0.18387564700552872, -0.02298049083050352, -0.039107357867231046, 0.10173362396727746, -0.10917589731545227, -0.08419741704811133, -0.05042767831033806, -0.01790644930492785, -0.0037642798973116635, -0.03567386844573348, -0.008377479787553831, 0.004517006991403298, -0.005714970604467128, -0.04168000637952626, -0.010828610504534878, 0.07462068665860233, 0.12641590303968306, -0.002508745897113407, 0.05627038305597625, -0.018232277590653767, -0.026208782777918802, 0.07017759090365858, 0.002478405702943524, -0.04783885595191567, 0.07053030601613, 0.06790581841875584, -0.08311293739190333, -0.005002552043176193, -0.10463406888925761, 0.14545742000402626, 0.11538839031424016, -0.02128026647326996, -0.032778829796763706, -0.005252058820844807, -0.15268979221303647, -0.015519476489239532, -0.10182849844907203, 0.03852196532025968, -0.053461261357930605, 0.12091628841798065, 0.011313834743829332, 0.06325808929783992, -0.028463135217342003, 0.05472023907538619, 0.09126431976727499, 0.0685480420520053, -0.04773937054901474, 0.06354408402006674, 0.028559664328773996, -0.00967199647660479, -0.04395210966934408, 0.008777115356329142, 0.030154528023768737, 0.022194438358715166, -0.018911962831829374, -0.008194632987916142, 0.07311256846510394, 0.09940598072588137, -0.005245774614003364, 0.07526298108544499, -0.05846892387809647, -0.004585892023500568, 0.011935795930574901, 0.10494388403917422, 0.06434756008688941, -0.029322297349367806, -0.10489774353522774, -0.020717655910561412, -0.034898716912427276, -0.022667280923232214, 0.01656164374513062, -0.061297663655318385, 0.004314205026773383, -0.019314717957998054, -0.07093715863272733, -0.0038973355682809657, -0.07420240397698272, 0.017420369922019143, -0.04533403355764456, 0.01963304430660278, -0.0864925274278875, 0.049219075401900285, -0.01324939378383308, -0.10206343491854826, -0.06767057066172576, 0.0232539150044079, 0.018495144824169557, -0.021949888878202883, -0.04904560298871857, 0.0030214532228909565, 0.003617421837327043, 0.0940361980779736, 0.08425119913645748, -0.02373450138617808, -0.07280453484537458, 0.008941893594755881, -0.07192468377871561, -0.15964070104270703, -0.05639867692423338, -0.00283571466490267, -0.0025506586781047463, -0.022600112946558525, 0.08401192345222705, 0.06878026857131009, 0.06134094355181689, 0.04551976481332378, -0.035714823282593455, 0.04984075394638461, 0.07426003246362442, -0.07202937714664412, -0.11126608302545325, 0.04538282448867524, -0.11204273751295148, -0.06845256190981715, -0.09319654215912465, 0.0497070502453147, 0.05669467751329601, -0.08319792526307346, 0.10812175001189765, 0.07452653752294429, 0.15763808576228544, 0.017095256287199618, 0.04953415701389864, -0.00022838706176354123, -0.11723130931883423, -0.08246894416342788, -0.04685223158482339, -0.06097014884852204, -0.039189694582014004, 0.008251311715237342, 0.05103700795970156, -0.06403130183866378, 0.032205341494941336, 0.03157115439248072, -0.04649753067216151, -0.04956428375570048, 0.03830757136549139, -0.02040891401944167, -0.0331833449614749, -0.1175284795525182, -0.0012902222757614759, 0.030072133358619624, -0.0738263014809333, -0.0015476611780871475, 0.016614039531797877, 0.03687180228920295, -0.00020327533247489502, 0.09687932963605292, 0.04049457439815524, 0.06077661779970744, 0.053166423464275546, 0.10050069806142549, -0.12942743525419, 0.08744564262949488, -0.12416042916034281, 0.02425003971525938, 0.058021068758928034, 0.02636845803581513, -0.06487142272073151, -0.022455191786527433, -0.056856609217111116, -0.031589401068705426, 0.05856089979610061, -0.04982890594546576, -0.026421722184218302, -0.007926823482748273, 0.019105449083217128, -0.04894625827804503, 0.07499647009102658, 0.016383870026858042, -0.0021815519732442086, 0.11227829653312055, 0.07634428606627085, -0.07904823641862814, -0.031809953839153075, 0.07841971523522877, -0.06250875875988969, 0.06306431566495715, 0.09680646614629333, 0.06143837944425341, 0.16785491296505575, 0.1030834220674164, -0.04821448150374386, -0.054321748962989976, -0.028031708844029515, -0.025493197788081682, -0.037436394777371255, -0.0660481266866527, -0.02272293463303375, 0.059422446410448054, -0.001850834913627016, -0.040626856435305336, 0.042798731937655474, 0.02063618001976473, 0.010844386139733011, -0.03257937381860198, -0.02693898530902071, 0.013662968205682935, 0.06859832497408631, -0.024332878612710503, 0.005169800497525474, 0.10779380122155013, 0.14995167621428365, 0.11450673101110435, 0.0497586996471906, 0.08369177522681963, 0.05779485786929531, -0.03629032620999574, 0.02776566941341148, -0.04388028113948758, -0.03693756304129898, -0.04655902423856909, 0.029162640151265882, 0.05359382627777335, -0.012162416879500444, -0.016127183930445432, 0.004359608704117008, 0.011987515662258816, -0.0060139120027613785, -0.07364204450156968, -0.0736246917127882, -0.007638078967414088, 0.07218711659021972, -0.03461862683517176, -0.057035855936082326, -0.01013846816237104, 0.039912106491291545, -0.09179343150854177, 0.0010466841265556169, -0.05755652100081043, 0.06230521167006464, 0.06161556776693346, -0.021878451005868813, -0.13335106450142556, 0.015352954710594679, -0.05825980118441924, 0.011006322618710393, -0.09689990431052947, -0.11366027914403891, 0.011882992421565541, 0.08504382875021722, -0.07872287975446618, -0.013358619824883393, 0.051095102898427454, 0.06655833910873853, 0.034782701746989275, 0.10606986806792756, -0.02421260639387111, -0.08800475988669765, -0.035076529767562606, 0.02055130937449162, -0.004175195163932959, -0.0005859017616015068, -0.06937532770544876, -0.14662598572571875, -0.14889501263932348, -0.04966057866786236, -0.03618860788265611, -0.14242227872421168, -0.11068012113564453, 0.006662134291277153, 0.0050785949749729085, -0.020833169306107405, 0.015155836671569459, 0.04051264791961821, -0.04060893511420745, -0.023011013611201822, -0.023592179951213543, 0.07886781125236397, -0.0873435259375645, 0.026045684097736176, 0.13192783722187368, 0.051910742531476026, 0.02649978360291576, -0.012888832833321399, 0.09939433651336028, -0.02113751100865693, -0.0008375064929643156, -0.013129899172694002, 0.01705684118681428, -0.07530217276443277, -0.15670616970301762, -0.052173665525630006, -0.07338564336695923, -0.09910654499853801, -0.08023752070502274, 0.009950702684472347, 0.03276297729374351, 0.0017180533332006682, -0.0029610766604299173, 0.11517382018825953, -0.029431181242345842, -0.05987206102157277, 0.014492925628810103, 0.0035981486522235697, 0.019603527697612304, -0.009595677121725356, 0.04001552639248341, -0.010016511324388164, -0.060331371223219556, -0.009962079575090937, 0.020354979696661755, 0.002866621249415163, 0.020388132983882395, -0.013351344666937543, 0.07613574349661027, -0.04943550427336888, 0.05874176055301518, -0.028265055783879958, 0.0476707538870887, -0.018322987712571563, -0.018444684470263824, -0.03858176666862889, 0.03334895520568993, -0.004495872631492482, -0.03904382894177512, -0.0027586829003255894, 0.06414932644243965, -0.009352994384680013, -0.019306914326679404, -0.023017935617939474, -0.04613427209864135, 0.14737736515077174, -0.016547779823704648, -0.09875458002771362, 0.05106880513848769, 0.06469906919149696, 0.008108033392012532, 0.0637912317421586, 0.08451447969946707, 0.027867311388937107, 0.03897869030273405, 0.013103505674190202, -0.10010529497306611, -0.04399691416763125, 0.052520432899791344, 0.009812990487265034, 0.023180115863255878, 0.03157869055730158, -0.0009892244797884212, -0.0031821264884078775, 0.0030971885364505197, 0.027497913190261264, -0.040376185231987965, -0.027564259995695152, 0.041205345293044, 0.05839395573652781, -0.05270708197680815, -0.05693199349030299, 0.022923129013370378, 0.007832771182820185, 0.004837285545678202, -0.000545810557101001, -0.04101955636011659, 0.050398104510341005, 0.009592776546492758, 0.07422702959742665, 0.07818555607046751, -0.09473278549149672, 0.018379535874191284, 0.031634441544821076, 0.05696087203278243, -0.038324584855094795, -0.016722853443572425, -0.024891847924780556, -0.04362947045901835, 0.07770066347697598, 0.03982016088022744, 0.044903580570345665, 0.030309096478069505, -0.009705011203115628, -0.03363460635236429, -0.008180637318130204, 0.09088106873025338, 0.07816300953525569, 0.005445308644180716, -0.000268419551780871, 0.026308165832348632, -0.0512409939291903, 0.1156548715025162, 0.025645241920424545, -0.003389789666350567, 0.04862914143497437, -0.012383549899416637, -0.01157867315900483, 0.03671705348052745, -0.0980232714629033, 0.05569864979681847, -0.0012069555784971877, 0.006816061427518296, -0.11415606009304428, 0.0726059473962552, 0.030705241013785307, 0.007131769348445519, -0.03762325009884389, 0.050461702233114976, 0.0349233145913205, -0.05203728265176663, 0.01620351948527922, 0.05305335388276134, 0.07780031875434677, 0.0651929031879824, -0.007475172122024682, 0.03849740450250975, -0.09347483483956767, -0.0765824202283376, 0.016489801179469986, 0.07366193412621327, -0.01904674251098556, 0.009919662496707773, 0.15141403139745588, -0.013772115966226005, 0.098246375024152, -0.050418529316028256, 0.09104983397993287, -0.031089968610007675, -0.06087701111074164, 0.13779063183411866, -0.03992369696379943, 0.08345061324814529, 0.05775716991528817, -0.03210783090114771, 0.04845736090125013, -0.052780694133865456, -0.08532034625941252, -0.03056185576231697, 0.032557743251361904, 0.08865164782581629, 0.006310931379513581, 0.027706014184226822, -0.01179219960693667, -0.034229143998829474, -0.06880433585283292, 0.008218253969832194, 0.02563533643740941, 0.014224415338554066, 0.047139375770880836, -0.10576663753195423, -0.03602512901340329, 0.003652533260517174, -0.01972281405529183, 0.025641179508290275, -0.06045825909835473, -0.03071473664815193, 0.09311557941593573, 0.02744909654248882, 0.029928569967197678, 0.08418283173721397, 0.2049122494715675, -0.031669036098727454, 0.025516034329528706, 0.05886647186570159, -0.10730806807573715, 0.07167128121018233, -0.007105033584275751, -0.08755631559969064, -0.09074894225821618, -0.07873787610021178, 0.021034106933955108, -0.019266339827512604, 0.0104343866605136, 0.0034406768579283084, -0.04430658453481429, -0.016162862163228802, 0.0269639637799741, 0.030676432783454936, 0.024301998132765082, -0.009556515300199811, 0.01218842737980328, 0.017159054333082315, -0.05709093267983623, -0.01838991540567613, 0.011295801632158623, 0.08149960532952336, 0.03803009819736838, -0.07629076653881073, -0.08670942112624828, 0.08198915603385752, 0.04879488307773124, -0.07168136204600614, -0.015526499986173278, 0.013434700608548754, -0.01219882160296881, -0.11362763735232533, -0.07023369602866902, -0.0629792897961652, -0.08892346859064357, 0.010951406767825737, 0.0766498623802611, -0.017626131020569712, -0.07828054060747511, 0.02685158532506466, 0.026234427220509823, 0.02678492251107812, 0.044647142794908834, 0.04197451226017515, -0.038193955248690445, 0.06766844752211243, -0.021104609850606387, -0.011368369179798837, 0.004823124956047615, -0.02187058420037795, -0.061435230667368154, -0.07883791867008422, 0.04418398085041998, 0.10062002613179978, -0.05668123528438898, -0.044567994997253266, -0.00579253643403904, 0.009208283583143566, -0.05573892166408554, -0.00016801403293978826, -0.01333323354751726, 0.0665894268266986, 0.03862672676340145, -0.02323759814535182, 0.053126313691079716, 0.03510544620629053, 0.00408760362065005, -0.007532645158908237, 0.01196152102826645, -0.03139678803811245, -0.042304373608722454, -0.02072836517989213, -0.014157737683856014, 0.050476885470934305, -0.017448083751853753, 0.017901972303257768, -0.030029589781014353, 0.11703891164977419, 0.020039853505471248, 0.005599668177621524, -0.022926433912196422, 0.00304213104875684, -0.03988058136170611, 0.05885123551283093, 0.0573779735630876, -0.059891295461466404, 0.036761748539666975, -0.027778601308518783, -0.017716543318455333, 0.051714986394956725, 0.038701946234392944, 0.03146451400179607, 0.0346794011113333, 0.0015897513956360742, -0.0024975185043938095, -0.09697210308717978, 0.09481338050435921, -0.0544181739821075, 0.031264187573205524, -0.032202359729768586, -0.021514103947708696], [0.0492803264734087, 0.04342619581627278, 0.07989787904624601, 0.0061480583199540395, 0.009191908751431242, -0.03816218313983196, -0.04000807539323493, -0.10636412711855459, 0.020859731611030684, -0.0147707566691808, -0.01059457619245634, -0.05884452920907854, -0.013964765355900778, -0.043477388642990125, 0.08148173852088024, 0.011731999365557627, 0.11824536428331173, 0.04760265108426681, -0.008525550005361348, -0.0502798173881638, -0.062146843477732326, 0.03469070404203292, 0.1275254230524351, 0.06261784023912113, -0.030105498189379208, 0.024315218752263307, 0.05598647490928515, 0.00010774293131448386, -0.03993648981106307, 0.11617054856982807, -0.03919432252904131, -0.06170634632848334, 0.032200724315564595, 0.07598099822992593, 0.058066301988514236, 0.06197825084713868, 0.09195164434509759, 0.02792640081181371, 0.047091925380010266, -0.017599201768719246, 0.04024271292149505, -0.011664479084686274, 0.04408157783637035, 0.05997550424227393, -0.08384048879823638, -0.055384942734550344, -0.019661412538740455, -0.011660790822658425, 0.08925794078973603, -0.008531513497799589, 0.03561544572003147, 0.04526430368363103, -0.0037696879922731355, -0.03489807132066646, 0.032350239060211804, 0.09174595846780147, -0.10338196186435089, 0.08149618393087778, -0.051011657857528474, -0.07229900994115836, -0.0007264756774072218, -0.03793703227935523, -0.06710208850603684, -0.04392978275356224, 0.028926791266706928, 0.05965527501629709, 0.004571058746663465, 0.01867413420569508, -0.07075923484130121, 0.00122372158065129, -0.11722325583113932, -0.011943797988426765, -0.020426437951442125, -0.06713623802288805, -0.10236921173439428, -0.040042772418279415, 0.02592699156775132, 0.005023464273462595, -0.1457059050746446, -0.020642575640217053, 0.04090175208745325, -0.06694408276719953, -0.04851835645962924, -0.05691063731577683, -0.07026015902420636, -0.04242951747095465, -0.00464684692300938, 0.05814211943977979, 0.0030576799393208965, 0.02191838942932307, -0.04010558602132166, -0.032515008502154746, 0.09073131063803398, -0.03138373099460536, -0.009759437897464954, -0.05862370642866813, 0.02379849093107629, -0.023019744345710854, 0.018438257041314996, -0.061446684422146985, -0.06912022260613564, -0.001196197572636425, -0.057512906045289094, -0.022783532286052736, -0.05899506416982503, 0.0014998291413852141, -0.03845470131835413, 0.08957048877257598, -0.020246016205611755, -0.012067089310350734, 0.026633454875841404, 0.00611266492504678, 0.012115950355749368, -0.04889141968890726, 0.035031628666315276, -0.05338296763470104, -0.009080151930674692, -0.10902022623240176, -0.037909887130205835, -0.016055800136021328, -0.018990410066800065, 0.015284186707178132, -0.030361558040098394, 0.03672994970335837, 0.17318532303252598, -0.015210188028473941, -0.02340176687700853, -0.14270415466081354, -0.017369549678836693, -0.04579536193232383, -0.0739664567749899, -0.011376179345108574, 0.10374596931517492, -0.07618951809500236, 0.06986738382138902, -0.0027934081721615383, -0.059098575884489454, -0.050473085001421426, -0.03218601168752532, 0.020883343357403605, 0.023545983327606344, -0.008423709997052312, -0.03648825871544492, 0.025207894119097053, 0.010667739045153475, 0.0377829230580623, 0.009744215712289677, -0.052222351153363766, -0.023447010443123206, 0.03897244933022991, 0.00932985589632655, -0.05307662196721023, 0.029569459491274763, 0.009853079553850707, 0.06472287554695544, -0.0897700084128666, 0.03328895509638992, 0.009437570718799543, 0.0014068079719005467, -0.021248496544359462, 0.04866110732108297, 0.04379978313932969, 0.05892237867278249, -0.05291348649475672, 0.09239400347590954, -0.08444153431191888, 0.053300224892041254, 0.0036875637227607853, 0.018521442380105578, 0.00229722798347436, 0.0579930785385701, 0.013119658612146286, 0.012769175391169084, -0.15571520624033794, 0.012633012392333985, 0.006971008705606084, -0.04450530246101383, -0.006364863994079571, -0.06416061271148163, -0.04451232158072242, 0.07006884817083871, -0.07697149837476282, 0.07082782780171488, -0.03694991813227927, 0.0857040914072417, 0.008052252588368818, 0.07494565816564287, 0.011730105050199576, 0.052127301336105915, -0.027314345181100732, 0.001321043853615889, -0.038929282468646006, 0.049329656720135534, 0.030993602322041503, -0.056738947122072815, -0.0319086701131877, -0.045884752953415625, -0.13422868082365966, 0.03269802726405385, -0.007724529628136905, -0.05497913643511878, -0.09058722681981075, -0.09737698155838148, -0.02312104946246241, 0.008669673193571844, 0.1343905884876472, 0.03036794729146695, -0.10669003266951779, 0.01860307129751549, 0.046119017651274075, -0.016011144038929382, 0.09179463069813358, 0.06878536561032503, 0.05570981595509989, -0.08939961285133598, 0.009551252974945277, -0.03301926087900121, 0.02729353760923411, -0.09924715744754993, 0.06423343491848565, 0.07751427775628682, -0.044489329167657694, -0.0385016512900365, -0.054571991146070115, 0.10610307660684984, 0.06924631631468821, -0.028028467231884135, 0.004453166041757323, -0.07578029042105523, -0.06039161348149612, -0.031076796929840195, 0.05284497725961274, 0.04489672029899656, 0.06478835507587591, -0.01725012056663426, 0.07160107417377487, -0.07723609194615767, 0.010777057409120223, 0.010815836599802254, 0.030243228825537014, 0.06761769671579028, 0.06409234439110276, 0.11894695362112133, -0.07455212284962548, 0.08650194880052514, 0.02581850948686805, 0.0722215674743774, 0.07083800163861027, 0.0689234504316085, 0.048450039295728914, -0.05005490404538777, 0.008561483724415836, -0.11586658420746423, -0.012464821895673894, -0.009279744739873213, 0.07822950923476005, -0.01758660589874268, -0.04631563070861596, -0.05182611715018301, -0.04932026040267493, 0.01767908632726882, -0.04564624894089862, 0.04324942702025919, 0.021634321640434724, 0.009440954348568165, 0.11944944516834478, 0.0161374039411549, -0.048135543359837774, -0.10765632448595204, -0.031345754293721016, -0.020704261846753648, 0.02548307978241298, 0.008574021415433833, 0.0981650498534483, -0.09690205606850333, 0.060506992846236986, 0.0660530471417499, 0.11017077996363589, 0.040006787560132887, 0.031066811349475455, 0.05907008282878304, -0.04050224245978135, -0.06191748352256157, -0.057509138842204946, -0.0364728796750012, 0.0722502451889579, -0.03522653115270221, -0.049271180866697684, 0.05185778128523111, 0.03783240133921935, 0.07098219720872366, 0.030230475159114183, -0.031025235756664018, 0.04551351480214215, 0.004022474373076435, -0.05410509990910949, -0.020654263666918034, -0.01879595716691648, 0.07952523982140705, 0.02585426355486726, -0.0043361610731777345, -0.05655066779300792, 0.05708451094330057, 0.04853194094884013, 0.03853093924776235, 0.033673526027869424, -0.007378999959698736, -0.03948695614902488, 0.04037260800259683, -0.006428916698474412, 0.04686414723880537, 0.03747274948057513, 0.055752272307177504, -0.04618265032539995, 0.03539174550631559, 0.07525952218507316, 0.0684391309422199, -0.002199413305304545, 0.05655944324109543, 0.15054643847815913, 0.05529640240137614, 0.006098138742937577, 0.06622685122380875, -0.009294441356977724, -0.06170699102970096, -0.11753457283102711, -0.10098470269490235, -0.04257340663034741, -0.13735105239913817, -0.08981703842610296, -0.014011528842595957, 0.016712715197099454, -0.13972313818900486, -0.1349809881562248, -0.0006744902065361094, 0.06893971378695433, -0.03368149748022903, -0.08881037999367028, 0.0022778472005681345, 0.13298818993977174, -0.01762830549626144, -0.026255266040712624, 0.041131120694151986, 0.012506534540683551, -0.014897173149847502, -0.059771718997121984, 0.10403610392187247, 0.09389844864065343, 0.031688454865887034, -0.05028473380396489, -0.1212283883233862, -0.13819326088475278, -0.05673147625305884, 0.002056322522222937, -0.030517863337056455, -0.12226177048042147, -0.043351229303586286, -0.10791175041534713, -0.04649401485167179, -0.10945485860947322, -0.05779667482740947, 0.10015167612004769, 0.021057711875702472, 0.07791410630609383, -0.04471575204307285, 0.1339060830475129, -0.03410885133758994, 0.010322144428253861, -0.04273554046245295, -0.01131509336998849, 0.035761034762276565, 0.08117392383426386, 0.009009582609591307, 0.06938729892526269, -0.06120744671630673, 0.06783587755531802, -0.07777370384345289, 0.025688612088736726, -0.0684726998465754, 0.036216603597375066, -0.027669599739956804, 0.012899650321061693, 0.07345435892397432, -0.06814358149246061, 0.0403332290206501, 0.024865463389704735, -0.03786415799156914, -0.09241113364948067, 0.0393798963173488, 0.07069616509132064, -0.029370400662657427, -0.053276788222487936, 0.10498622298824821, 0.08125588902844152, -0.020144204423078692, -0.09102583801204717, -0.06871735202656551, 0.05669745844609152, -0.04396785509157487, -0.04539641336329842, -0.010126850504895618, -0.033448205737301326, 0.14930539906308815, 0.047455583809366396, 0.11262188480562708, -0.041785029794847536, -0.016004684108576483, -0.027773373036710257, 0.030834151303366, -0.06915381271229314, -0.08511848517263458, -0.024887090111004824, -0.00823955406546596, -0.05106558402407801, -0.011706216215181491, -0.01710236826624127, 0.09531760687591315, -0.00802672861450589, -0.03305287893843897, -0.049664318621863254, -0.02958097096586217, -0.02393983503143892, -0.012434988133103508, -0.1196995385463102, -0.005074985605961096, -0.012371208337473147, -0.006399974725418218, -0.08694257640367627, -0.002343487600185873, 0.022574252918841266, 0.06349675275374801, -0.04052732452941624, 0.07545907372650666, -0.05623876508328175, -0.09403305454980995, 0.025093362501899474, -0.041962786035338505, -0.04938709885268175, 0.05511419144234069, 0.012441222992344252, 0.07303797389616791, 0.06490802193866395, -0.046729353653729905, 0.09247959259821655, 0.03981890340129486, -0.008286061132218907, -0.028529191120449954, 0.04186141872924369, -0.027269383567551663, 0.06566929475200953, -0.012156892445481035, 0.031099997818516703, 0.07106958859898599, 0.07205914586817354, -0.0034907445734667295, -0.02142662589503751, -0.001916125983827986, -0.061050665891507906, 0.010118372059629725, 0.01887215290440468, -0.06345505038953232, -0.028543768734742854, -0.07356598620261307, -0.006068020772846684, -0.010751155398661744, -0.014348197797877304, -0.11654039759779915, 0.006544533832387129, 0.021766135216022664, -0.01655699209587998, -0.07402439865620214, 0.03552168847992338, 0.06906767306698407, -0.02742448938302569, -0.04504373638166436, 0.09224067680278371, -0.07379555489549855, 0.044498850852702033, 0.11116585020630727, -0.047903879274391804, 0.07589910929768001, -0.015473410922616032, 0.03321719946269555, 0.03090738518654038, 0.01895539920707733, -0.08225497773731401, -0.21878663466626602, -0.026929396150072473, -0.02044103401605098, -0.15939752697567325, -0.029957970192160926, -0.02970176721475149, 0.04256374197216912, -0.08743220357095574, -0.050593744257298144, 0.004648681464587969, -0.016330418067358656, -0.0029902271952947884, 0.013400929034597013, 0.0387056639611701, 0.038534640701829034, -0.0018061136441306863, -0.06765559355082076, 0.03030432601783599, 0.06418562981842794, 0.024094727126849718, -0.00567675515696996, -0.05355849333756282, -0.047686640878036125, -0.032762189871562326, 0.047619851485133556, 0.08387491407779885, 0.00495016507137638, 0.01106442737818108, -0.19469739781173412, -0.03523186747649721, -0.06259401550431509, -0.0921859913451172, -0.026557497074398487, 0.025526000447510553, -0.03650414105582347, 0.0026587848034778996, -0.025090192268907314, -0.014599399977668289, -0.017984099480269522, -0.08953510351256766, -0.06994257264922751, -0.05059412330758782, -0.019093500588167247, 0.04406103677441543, -0.013548043393666493, 2.7287215820682643e-05, -0.0987827657759781, -0.00415861479848922, -0.012974509685399664, -0.02963394900214988, -0.013134827982087541, -0.035305703872587885, 0.08362103020366524, 0.09124892354407084, 0.09002983289686255, 0.15686399430997153, 0.09992458706271783, 0.11368931782678084, 0.05926478296591405, 0.043445417161823714, -0.11235728917494758, 0.016280156311884755, -0.010002713095281213, 0.027576344962785673, -0.017610219017788295, -0.11571857097678935, -0.09363458851755355, 0.006524144183899904, -0.03586832717490997, -0.06055507959492196, -0.04382836512926683, 0.09123753645987795, -0.026830325537457067, 0.07721114459533901, -0.01567128959191419, -0.03132517046013905, 0.0027491011857885767, 0.04915675833337578, 0.012937668078813075, -0.03481750918396948, 0.03276411411185826, -0.07329952713134884, 0.13302805822895877, 0.0371047034494502, -5.3288952964162736e-05, 0.12666480370201075, -0.012965721173323147, 0.015028314826110308, -0.08539879738162695, -0.014154099027607597, -0.0339124305491613, 0.03775489163594875, -0.0024669706692922403, 0.005249102973990794, -0.03153719002312654, -0.13557697504750021, 0.06471860422050313, -0.07822270630514315, -0.04190368500079794, 0.008806744649977351, 0.1418298387480169, 0.016660075396456364, 0.0527147051671879, 0.0782505652866542, -0.03157854467046626, 0.029489512187543393, 0.07535674936578027, 0.026658391695568925, 0.025242146576214524, 0.019697901515734813, -0.041908638568582, 0.05992130309668419, -0.016784967103039252, 0.09991027078972739, -0.037597109168765235, -0.05849024669038348, -0.02688176405801613, 0.00585413576218603, -0.02294011375964248, -0.012533786069458543, 0.08115730382594452, -0.0124849134379127, 0.044895357625671296, -0.03297368242672213, -0.041397484664347395, -0.018441072991571765, -0.02026075333985503, 0.08874296637905489, -0.04416971705692644, 0.00549457064832523, 0.03214661066743122, -0.03993565374105527, 0.022988681479579817, -0.062129919992220214, 0.03346133694977034, -0.05165011749170993, 0.013229162862196863, -0.03870739683727991, -0.04706170050801941, 0.09525189001446364, -0.009553859475550364, 0.11014934951350484, 0.047249224947315496, 0.051183579907523535, 0.07045955775397869, -0.06255526255483451, -0.004476024615889921, -0.09541921236334953, 0.067517814903383, 0.1261723945643981, 0.07599920673132465, 0.030454437691205764, -0.08441105924068538, -0.024998132560767414, 0.06747111415096506, -0.10227861261036278, 0.08240649670086926, 0.07065437971616632, 0.045149168922618714, 0.060757273470586556, -0.04385471229963459, -0.13243619624435332, -0.051375926897232, 0.0013371357963428512, 0.09164237649024046, -0.003960309653301086, -0.0360685792485125, -0.009137913314584897, -0.1271647021447759, 0.03084398759595238, 0.042982520933771154, -0.033376316470664504, 0.13559585924587775, 0.023057077596340438, 0.10339564080869412, -0.03398726454154916, 0.03919739717837246, -0.026512037742663582, 0.04832398598765429, 0.02743846619780748, -0.013344210379002271, 0.03062757068303695, -0.013576942260163897, -0.018182145313374795, 0.014050668507162356, -0.057317304490461414, -0.0027655984751968495, 0.05380842359571411, -0.02709446248910672, -0.026780721088567, 0.01286393123231342, -4.0902822971802185e-05, 0.0028488684757633225, 0.07675235250038187, 0.013240839371637444, -0.03457967872755012, 0.05967709038256746, -0.0326001566686387, -0.036592148991192064, -0.08074969102247835, -0.03031072776274027, 0.046554877747515724, -0.08134155152170934, 0.00177062785369307, -0.07136999947582075, -0.042372083347900845, -0.10217921870587778, -0.006896534601176419, -0.013663561856919618, -0.07136271795891275, -0.016535368486136355, 0.04681165831093509, -0.03969097961304307, 0.03916865352416099, 0.025320036951728957, 0.004888755321458058, 0.019030889334340117, -0.0495194772052474, -0.08504496845035533, 0.08882833432423078, -0.02787412592653689, -0.10109832297492585, -0.01735126632825695, -0.043510121392246234, -0.04079322713253019, -0.07044668213261321, -0.029434714078469426, 0.04124918001991975, -0.03606239844241659, -0.016216506477971238, 0.0475433774237134, 0.09583757753070193, 0.10601241071183085, 0.06502063758007147, 0.007712991308359312, 0.006015071335955294, -0.06945102007327812, -0.08081482309770302, 0.029397252365150534, -0.04223431339315676, -0.040501367420587686, -0.06770127012894232, 0.07505391856121814, -0.018490802002548868, 0.018003845136328894, -0.05571786431770587, -0.05276806876525085, -0.07313202425265597, 0.03674230182360741, -0.10190790916715392, 0.0077713307195055314, 0.030514585616954092, -0.047472412305739994, 0.03883595655907792, 0.06915858066377169, 0.059269654901464124, -0.07830720651166093, 0.023887461538791302, 0.004064348864312051, 0.09959070136006264, 0.056041187799805936, 0.08044641948923542, 0.010895036994960616, -0.070193632824429, -0.11263807282804612, -0.09158560659340279, 0.020270256880277327, 0.03405797784730745, -0.014202114672550307, 0.003949335451931575, -0.029651544760826626, -0.07255066974593279, 0.06775775150361804, 0.04210742330571975, 0.05151168428237405, 0.028558499611121016, 0.04733968787817386, -0.014656399095668507, 0.020461152474797403, -0.021317255616557076, -0.06306133800951419, 0.00900723800417341, -0.0066128413060379315, -0.02795245901604139, -0.026651794498947404, -0.028417277459686318, 0.006274635270801688, 0.026162674170008636, 0.018289399893231428, 0.03946081849141247, 0.06414244829802948, 0.02620302988370834, 0.06206467636079719, 0.03451460118136433, -0.004849715189856177, -0.0014994028071310687, 0.038394399153068026, 0.040732642402457754], [-0.022099737386149405, -0.038632253046443986, -0.0011054466272374488, 0.011992931666029572, 0.034043849746038926, 0.08014271693126723, 0.017471545792161543, -0.021506472685722294, 0.059653918086829745, -0.03397972666140161, -0.01727433033927053, -0.04699575960688657, -0.016189888191170378, 0.043806929533215896, 0.052645019064802206, -0.0025023361028543895, 0.0015840505826166466, -0.003019482397695072, -0.06705061802278971, 0.048919604480633434, -0.06649698116548393, 0.0760694671687544, 0.059981622734143834, 0.0038473838611394876, -6.730376327430585e-05, -0.05414108392051496, -0.038407202290715425, -0.052580365325456596, -0.030302800534503543, -0.03796090266061415, 0.02581283513074962, 0.019824673711017576, 0.040154340259161224, -0.02201335307449466, -0.02150995868758146, -0.04603744535972711, 0.018476174443618917, 0.04348022903513108, -0.043338339451316016, -0.01871145137926007, -0.020767458947618105, 0.07809750410879876, -0.0067344159184366545, 0.015137152307852831, 0.004047153876316106, 0.02780269878954656, -0.06621615462282289, 0.049614655672673424, 0.0451165064509641, 0.03643911716844842, -0.00856471899854934, 0.0099314890138174, 0.011694971158435248, 0.003726158582189736, 0.09251140000220566, -0.023058470622650235, -0.017965207162905613, -0.002085971941082656, -0.05342189492996644, 0.05605947790209196, -0.007745331998049203, 0.012877841975573552, -0.059982808889903975, 0.014141809512417523, 0.10014104902963411, -0.06936537921975798, -0.026105086657702285, 0.031150701421947532, -0.04111174769489527, -0.052064268425227024, 0.09220928353438505, -0.04251952018435393, 0.052121660123147034, -0.008850239837378968, -0.07223285246061029, 0.03454380839832741, -0.07003127936566751, -0.09325914924734598, -0.018627821001190446, -0.07643183056879096, -0.023956241413392455, -0.0905318953698428, 0.02483461298383443, -0.05803828431503641, 0.005899126238787294, 0.008850862032952253, 0.05783868123897724, 0.013731979788431216, -0.04121528166699699, 0.024842368159142265, -0.06916593668597333, -0.0179438318617999, -0.0463663586459064, -0.038223111071495126, -0.020422689644269514, 0.06796847955926323, -0.0014623148445741527, -0.004776780742305638, -0.02376094839527371, -0.019216403251215944, 0.03684164062622746, 0.014448038279729764, 0.013465414249764947, 0.001203108159314635, 0.037061079253610546, 0.05148104648583644, 0.09148743007327595, -0.04788382784469343, 0.051704371738325254, 0.017795893488333443, -0.029908263382549132, -0.043124715212760095, -0.03625483314175153, -0.03371690607164562, 0.11773562230587174, -0.019184659341789954, -0.011289423704811447, -0.003099079801175939, 0.031985794487123714, -0.07810669125909464, -0.06626929236633045, 0.0009361528334690738, 0.08561622336756695, 0.0393977222412244, 0.031957787268195675, 0.02341373913718328, 0.13234481838379372, 0.006128183717988173, 0.03678260994954694, 0.03286924899327638, 0.013133229160981663, 0.005419566999353456, 0.04979238351552251, -0.12520161631813337, -0.01830729374658173, -0.009326879551237628, -0.0020769441955929, 0.04485064368573361, 0.017733865268579917, 0.0420330511526099, -0.05742769033581046, 0.07759024848943562, 0.08770533979556527, 0.060723111534768094, -0.014371851445607474, 0.05062739907746553, -0.058212803502935284, 0.04754974766953219, -0.052115418484411195, -0.0196375572231827, -0.016546983630933813, -0.01264795959876442, -0.018768233834913904, -0.06172517256306653, -0.060619530268927815, 0.011827404856221482, -0.09885224859454372, -0.030506543127381876, 0.051471901342595654, 0.01647819824446099, 0.058441776600072416, 0.022416462077567086, -0.031837101218703465, -0.12199495931877558, -0.06040864630527498, -0.026258372195473792, -0.04111756191714475, 0.030174539559346052, -0.000730207471604084, 0.032336754911184144, 0.033580308084597194, 0.010222509906382968, 0.06783908464182174, -0.034468945966494385, -0.05157594179859631, -0.021694036882629237, -0.10282720179167941, -0.007852003152512029, -0.02755503698019284, 0.04092070390575722, -0.016347883281527188, 0.03212873778306914, -0.007935204886992082, 0.00462962408526762, -0.048562821167316896, -0.017385461381262155, 0.06986811214586455, -0.054435645801003414, 0.006865239083560119, -0.10753144744768106, -0.024361238945247058, -0.05441084299827878, -0.0649340081564869, -0.05295554230752831, -0.08771666703316162, -0.028039146932063486, -0.07110366707549146, -0.05047369230551257, 0.05622057345000309, -0.05362036440483712, -0.12039623137511203, -0.0033965822268906985, -0.015092781835506306, 0.0869489847530378, -0.13840057009194057, -0.03361195392156678, -0.04071213779569498, -0.04078709400186454, -0.06214209997638724, -0.05364110661654184, 0.05594681330074466, -0.03008237765568657, 0.09325129572399496, -0.10684462923300299, 0.04502673652211709, -0.03002069015450252, -0.04973133915509274, -0.1120601535703445, -0.13017162432346502, -0.14976466289065454, -0.0987816495200363, 0.0253241338655839, -0.07358898250234656, -0.01769896822246827, 0.08528035179112325, 0.0729910819893697, 0.03870638564634621, -0.053983599206838574, -0.06171216351768418, 0.034893782355661596, 0.05899318681834877, -0.076399242991385, 0.022384566069610583, -0.012248131626792525, 0.013136601549554351, -0.025564600767773105, -0.00043421905072797863, 0.08049529777236278, 0.12107574656817244, -0.02133862941912808, 0.0779490543986609, -0.05280726332714119, 0.01347324514986293, -0.06867357196820065, -0.0887418665343258, -0.1293527631070298, -0.08915730730172731, -0.06152260803256796, -0.07769508447243559, -0.08628644196216942, 0.03870231219580805, 0.0006544142697649503, 0.07034024741784337, 0.002677122149037656, 0.05398178086497524, -0.02703637001342069, -0.08122933016044458, -0.0787331806608572, 0.0021750314120084643, -0.11402870519539463, 0.002314943795882144, 0.04684991987500142, -0.02439559054281851, 0.08657835224907445, 0.06640666458794017, 0.0014116413175757718, 0.020098483177291182, 0.04582714668898225, 0.05444444578482641, -0.0695370843371724, -0.07321476863078039, -0.07753715208749452, -0.043786311298316886, -0.11728003263356244, -0.08619776044006856, -0.13163376690954526, -0.04974582687177, 0.07026021456108299, 0.0187191297788262, 0.07039642308880488, 0.010223302402006145, 0.019826941774848037, 0.01702200649385391, -0.03361359321152364, -0.0019348092216004637, 0.002137515056098341, -0.14883945994533826, 0.0450088309730604, 0.06512750183474769, 0.04232953030115058, -0.04029123319036168, 0.035031754861844934, 0.015582913653719421, 0.05712959058553821, -0.006970231656306011, 0.0334508146522122, -0.16320251568985633, -0.006449663509361151, -0.06115673916755208, -0.007260554761198071, 0.004089996276565864, -0.1357268379513891, -0.11934502424970297, 0.01823527615022002, -0.0022553541837710303, -0.022304411368328524, 0.03666300266269752, -0.04651217191567071, 0.06771429379914982, -0.028122599671305273, 0.04527676458000577, -0.02697234817554717, 0.00644585168073688, 0.07102779462426473, -0.051593359015100704, 0.012416010322743911, 0.010012219681860824, 0.03718224228661916, -0.05719360691938182, -0.07894320772168317, 0.021864301018470762, -0.004748851196610161, -0.09635634616661283, -0.07947797143632458, 0.009335148083972518, 0.02817062704353871, -0.025137834930179792, -0.07840093918956056, -0.024248523805138384, 0.058999032249363786, 0.028327175728372216, 0.11124005568980844, 0.002371219640867688, 0.00962135916313556, 0.005518918639185666, 0.046951271655194415, 0.09633550557852562, 0.014549391724733244, -0.05530770387483356, 0.015711197905470323, -0.06598064548908913, -0.08115673362978942, 0.06082865477007237, 0.003646681747225452, 0.0725717538064211, -0.006708122706073729, 0.028268695105363256, -0.04602266051325502, -0.017945080321523914, 0.01767196516570225, -0.004006985150564571, -0.07022609809852541, -0.008978978310725794, -0.075177794591195, -0.03035146055129844, -0.044706174527721514, 0.13097269812927378, 0.06174484430371943, 0.09872213559958298, 0.0504893927788091, 0.01006454798039505, 0.03683077508123407, 0.0482849306056878, 0.054646029408250085, 0.059838225400665745, -0.036232569738872296, 0.04931221052372785, 0.021929956689051726, -0.05389185468876618, -0.07227639223687185, 0.03959451929735158, 6.971117498938446e-05, 0.004251545594375091, 0.03661725069796829, -0.12996255754463804, -0.07750109415432989, -0.09447330936847563, 0.022615922320441274, 0.10388814259495918, -0.02459421740147746, 0.06369238078007003, 0.007538362687635547, -0.030069668367000035, -0.06737455177453906, 0.035088073679107434, -0.025383129440579702, 0.027355023323437092, -0.09561977008633693, -0.05049654833375583, 0.03776108702979821, -0.024241145908764777, 0.11549148977406995, 0.04720885137452989, 0.04417188703729118, 0.005150657746821358, -0.05339906330590907, -0.02339547388632546, -0.042289219985324956, 0.04436032029877588, -0.0544527724098631, -0.06735713049805087, 0.1311997792571913, 0.049664148114513765, -0.03421037298704572, -0.05194123538870104, 0.02475403257357232, 0.03728512136485442, 0.05141903167081514, -0.13617115376663724, -0.062291483761002735, -0.002970310615557107, 0.09051915633244541, 0.13453980954561384, -0.013339458641394615, 0.07157583027911908, -0.0016422131795690359, 0.05698228689278617, 0.07254584867530492, 0.0796226367133473, -0.08683914726364923, -0.04288544799489666, -0.03698028959196043, 0.02930676154971444, -0.041712388546357726, -0.0874586648883726, -0.010408687004510654, 0.05763752093350589, 0.06214879298242637, -0.010674815003028105, 0.10305425029097415, 0.02773560334207973, 0.0647082935779391, -0.080516774367432, -0.07846826643839178, 0.03891020820028814, 0.06786551418499455, 0.06926032643685706, 0.026552790634299984, -0.05150516870939447, 0.0641799146346851, 0.05199993942831061, -0.015981031541919426, 0.0500813336590152, 0.10286243942290128, -0.023076117316463193, 0.08191149738904611, 0.04401274591623047, -0.07924546485365835, -0.04214658294777245, -0.03251480073853437, -0.028506022895331863, -0.03368169831874213, -0.07385084206742595, -0.03136340836075082, 0.05189740719999856, -0.08048445804169069, -0.08989155240569749, -0.0016356436538563742, 0.014553067667979955, 0.006638053464712908, -0.0014672531683948868, 0.10551365097285932, 0.05169123951081729, 0.034529639797582994, -0.08133129344437341, 0.003222905248928617, 0.012664431634394185, 0.029569573469226382, 0.021673634146661538, 0.05298629832285406, 0.03846461834811174, -0.11726912222932942, 0.014327936671479568, -0.00038904319021083823, 0.062255260492701116, 0.042623044713001636, 0.059168254633945996, 0.0248483348098798, -0.024806758057891506, 0.0017788176418037445, 0.01795467444081712, 0.0037303197286129887, -0.06233267199693083, 0.09845655196649901, -0.05891703460298429, 2.0079491629681903e-05, -0.006935696014613673, 0.045813145425657814, 0.032554957201615775, 0.06377398275031076, 0.05815980887691962, -0.052851639408342185, -0.0609866841973725, -0.05603012276071259, 0.031794263290434, 0.06672259192263558, -0.06220773810794475, -0.07083658524091513, 0.08276199463286199, 0.04192194618292941, -0.06274278907958813, -0.04779147701614633, 0.0182486656825459, -0.09306497811624234, -0.02337262168684235, -0.00616198798958307, -0.07862764425401655, -0.03290028185117947, 0.022765115592888862, 0.0387864211862964, 0.01980503410073629, -0.05044419016677638, -0.0009136131481100675, -0.06202845426286069, 0.03299698190646124, 0.05147969140962007, 0.0017845935980151835, -0.015049643704050358, 0.12003622024685724, 0.033391233489834714, 0.0007310395744565655, -0.005067242117615494, -0.03996673277411369, 0.08462504571408362, -0.022087406723298054, 0.020586028869128366, -0.1064358070473304, 0.05256517643146211, -0.01651644132085239, 0.10492761436289234, 0.0035545650972305175, -0.1709477556019096, -0.05906186566967208, 0.010089717299288939, 0.029549481691453845, 0.057611559003275484, 0.10219308372183512, -0.07396705025034704, 0.05119053079946624, -0.10810321037251289, 0.04607129388034663, 0.02528922700823166, 0.06093146218606046, -0.005839192671399986, 0.07904303208454064, 0.05866303513356216, -0.028707140184292497, -0.040864330592719565, -0.043603001034272226, -0.0165784202330859, 0.04428235160621182, -0.048616776517836184, -0.027598167826736977, 0.020181000532673347, 0.05310415700506212, -0.12229623398205157, 0.043661786444817816, -0.06338453985089548, 0.012720703563055566, -0.0632953428410913, -0.035205734138109776, 0.045312300476913134, -0.09088122914333756, -0.056658688209440505, -0.03812215058720216, 0.036835147288882965, -0.1055398634771479, 0.02386369330909554, 0.007237887988536387, -0.09417459942967614, 0.07300961539688669, 0.15513543635013052, 0.01113063568022443, -0.0002837362929543589, -0.007322347746164491, -0.053351358277770024, -0.041297671820251194, -0.013477465836413037, 0.08672694721970893, 0.03005150745476143, 0.018498445468960952, 0.04651877838032593, 0.055342806297347724, -0.03500530242230736, -0.048728668775720047, 0.07609817247030277, -0.011683376033332778, -0.03054269378969687, -0.013996166101209021, 0.05991813995185966, -0.08384113500971054, 0.012269578093417966, -0.017509676562278913, 0.031183656652022454, 0.00405437220730523, -0.06152941376064456, -0.008111012190504653, -0.007774800906624169, 0.0777024585947176, 0.029354437256353273, 0.0755292027848863, 0.007482944196570764, 0.018390880104435948, -0.041872932557501207, 0.10417375812725227, -0.02660136532328517, -0.043230626124799956, 0.003115206079598107, 0.01564469979955265, -0.07053252268953716, -0.07477493375348927, 0.09273491416167536, 0.007887744136994794, 0.014670322600230185, -0.06453724691991827, -0.13193524887528954, 0.025527057243550002, -0.026432284560791778, 0.052229514098261806, -0.011589521825241008, 0.005454427206621264, 0.05802034604905807, -0.03451259417674258, -0.00195478160917276, -0.049835526972852755, 0.04886928255368265, -0.0063376690203539995, -0.1746727121669743, -0.08848763239791506, -0.03807103562246616, 0.02175003011027252, 0.025299570706375535, -0.004429194793903018, 0.09037811969193082, -0.1530410177739456, -0.09247460588043022, -0.0527450291712486, -0.019095352433279502, -0.07833822214861026, -0.03677994799994805, 0.010823257961220554, 0.008688040413440644, 0.03118467344856542, 0.04404441006120946, -0.06105450146000761, -0.019412994175346174, -0.007286501834301237, -0.08324354210416492, -0.02939233352869065, 0.016948517312079484, -0.07935981819205785, -0.037948841686927075, -0.09046625290461863, 0.00254700256006069, -0.14128762908683526, -0.018106924417839933, -0.06862108665582989, -0.141135867334914, -0.09781517535706673, -0.1458413001555018, -0.023192803844497976, 0.006312069543401386, 0.0176323252740037, 0.04773143462902721, 0.07770252654529178, -0.0007857928002795987, 0.030464539165511974, -0.10716609930638726, 0.07598617596988483, -0.035422253799715836, -0.01205100730453718, -0.12828488497399432, -0.013971862432294686, -0.043692810587610535, 0.012588159755378041, -0.05482482064581109, -0.12555610768552072, -0.027919360960624074, -0.008722381161691462, -0.0710454662972993, -0.05475934601599274, -0.00036680587046544614, -0.06168064325524449, 0.035287491289823315, -0.08424466490980499, -0.08780367644474332, -0.09492877295194012, -0.07021310419605904, 0.03822558443916164, -0.12850884122366205, 0.03900424970041559, -0.029717197850774306, -0.07352530878990549, 0.08152396994022727, 0.029225018915717237, 0.017589597159605213, 0.03115985247558621, 0.0209350253320147, -0.007830182612170446, -0.014549125222724156, 0.06456807007296458, -0.10774235068021691, 0.07873840165172617, 0.09376205658989677, 0.059111360799894964, -0.060396043648845675, 0.045952478904931794, 0.01361629727385822, -0.049959792111648464, -0.10951885652536877, -0.008611697391723027, 0.052399363059288044, -0.05164842796446231, 0.02900190137503748, 0.04339718607109019, 0.11649323617219479, -0.005758876098483832, 0.008620073582053647, 0.009867750682015898, -0.13600836191293345, 0.010842386001582433, -0.0396955387723257, -0.0345395448343284, 0.021971829051484166, 0.022951400009912283, -0.032777072736125824, 0.058067234694620856, 0.005891258666248251, -0.016324435323632834, 0.049147061917156176, -0.0009867037334167761, 0.05373362440640846, 0.06916311269061298, -0.04232500072578524, -0.05871723311243663, 0.0013580745861634378, -0.029552440707781527, 0.045189536307762644, -0.062247131807598124, -0.05985798909368621, 0.03464937747752412, -0.011199645196562823, 0.014780417238437307, 0.10867813299472218, -0.07383286793508645, 0.002699679236002166, -0.04173143724873878, -0.01845311554607189, 0.07048075593132225, 0.006436812889050709, 0.02884300904103985, -0.02143052165481439, -0.005381946337038975, -0.01611290127973239, -0.03176522524026834, 0.012751317423460199, 0.005221852008826306, 0.00020087116024988325, 0.014953391779433447, 0.006705248197356689, -0.036384629176390904, 0.025019193648524306, 0.028671556480238482, -0.04586047777897183, -0.033084047926930565, 0.09750835486387766, -0.0750995187121069, 0.07162156660536988, 0.011363877398415352, -0.011679015260054899, 0.07686466837006332, 0.03487807066477227, 0.0497946828678701, -0.031163208629488497, -0.03934211513790335, -0.03426662932440039, -0.0510693313408954, -0.04899298909368044, 0.04711760053154833, 0.12506427472115134, 0.003912880917986249, 0.0005195098637699863, 0.04486364805670317, 0.06854935172831851], [-0.01783350420643932, 0.07473178189927454, 0.018851102910696173, 0.07341285272215228, 0.07270123312948051, -0.042313115385154206, 0.02261696864821697, 0.080846912489596, 0.037339567902218464, -0.032013160979480135, 0.04711974427367825, -0.061116779932422635, -0.030044676671712622, 0.06299356725396976, 0.00590701705368028, 0.03782839184708513, -0.07688807753529674, 0.04611074691720071, 0.02890012262867289, 0.037371210567256286, 0.06108422705345846, 0.04651443418218999, 0.02517581802756326, 0.0157885050308027, -0.009215175069921004, -0.07454376540778535, -0.010732510874050125, 0.04542091404377322, 0.07536750826611122, 0.0007653626512715545, -0.03754246019444121, -0.025858999579553465, 0.012018777029262653, -0.11257042775804149, -0.05510876238378853, 0.12872444883566514, 0.009961250848760544, -0.08348561500932357, -0.023592631916891562, -0.06125706105852208, -0.07160621728826276, 0.04963708998175539, 0.01933788209034316, 0.07936841966989198, -0.01609443898648027, -0.01923676774357405, -0.06578742611031578, 0.006784788627878342, 0.02078165225444534, 0.05499325866940317, -0.024392015279550348, 0.03054811279119072, 0.04347559942253513, 0.0003181206920596968, 9.399709674110611e-05, 0.08980442602454881, -0.0158046355180242, 0.07140937208213859, 0.07479810366453239, 0.05177034809472161, 0.059382642858417975, -0.011705947748950911, 0.027411148763709498, -0.06947037255791892, -0.0570292097918629, -0.06541418946199264, 0.022813826276619705, 0.032399635951282015, 0.04151773433934511, -0.029595352431046964, -0.027200537391422756, -0.0008063530180259733, 0.05154189211635751, 0.08164570978624848, 0.12956264420332558, 0.006670805243052359, -0.01774880199076477, 0.003219012727352384, -0.01590784160650535, 0.092972363051886, -0.06494401018034111, -0.08903028541342868, -0.0918232945192207, 0.010963012964071699, 0.06682072896209537, -0.024270971924296628, -0.023940106168980967, -0.015301549389900483, 0.071440554105705, 0.016505684062863468, 0.0720800113404695, -0.03177574644329671, -0.0026892629386810613, 0.002942922781117018, 0.048145452138658076, -0.02115383022931409, -0.06637704995715349, -0.04295458751150594, 0.016161104483449866, 0.035932542459277385, -0.023105486688193323, -0.006209770226703427, -0.014519921429219457, 0.0951304262413062, 0.050594493732753994, -0.02297931147768033, 0.054060618957559835, 0.05335715316562908, -0.014774653450217471, -0.046847995573968924, -0.05580721298236699, -0.004917101054343921, -0.03680207600164194, -0.005356805096534677, 0.025908165761669474, 0.030118627892775644, 0.02028082826714993, 0.13529996381963622, 0.053572411163758236, 0.03610706853342867, -0.056698448473648994, 0.08410023178854664, -0.024219510602226237, -0.03357157025273903, 0.009411723975714348, -0.09007158970203874, -0.01995960275545629, -0.03463395115846954, 0.05855033195557644, -0.08261089361780273, -0.039789643591167836, 0.023439643762342467, 0.0686332645770724, -0.03619771612784089, -0.02136747989325832, 0.005875248660478984, 0.06595233544538176, 0.025088724150200865, 0.015797396606131886, -0.03740466275454858, -0.05098593207731128, -0.07934990743375503, -0.05464777943882645, 0.07864140078936799, -0.00307833868182616, 0.061471869059647216, 0.05578026521323771, -0.020498501387561163, -0.04299252992310574, 0.056882239906899716, 0.015536511768196513, 0.05005247873982387, 0.0055622193994911895, 0.07741604555217216, -0.07437376127702774, -0.05251440136309767, 0.03253973777972119, -0.05198090093668188, 0.013003320615810943, -0.08188965167762412, -0.029390321881906042, 0.02796861848364157, 0.03144810315416814, -0.04992150736938905, 0.07886211697098622, 0.03677296262157541, -0.009259711554980291, 0.027865970522811246, 0.06142094596488912, 0.05429117619587843, 0.018200512025769226, 0.003977161691067356, 0.10931260437222758, -0.0721108589690895, -0.03801051747298961, -0.08349528013360391, -0.026555726466875786, -0.009517001238822846, 0.10242814229834396, 0.02200573355911927, -0.006868147428451676, -0.13579090489184928, -0.06570256068594671, 0.02881103916131288, -0.010318240914266308, -0.08701970614438277, 0.00932724591648434, 0.0230034992280161, -0.04836831932383274, -0.07091830879843415, 0.0361884621916034, 0.020399345264417456, 0.10881018264126427, -0.03884482737438837, -0.05634467630265948, -0.049787475135222914, 0.03423708658163139, 0.08286895301469013, -0.02686003247709051, -0.17762221463223968, -0.043862125111121725, -0.06808466579009298, 0.025891386923086485, 0.05900935445063671, 0.032367446908149564, -0.004544353092242844, 0.03655139381126675, -0.05213866257118347, -0.09532782087069076, -0.005918964767487688, 0.05041694210306152, -0.07159453331094372, 0.002761633494802095, -0.01638210009823012, -0.07899818653386757, -0.07523861196214104, 0.007643452280449526, -0.04504212424558802, 0.03644924863750067, -0.04355451939949736, 0.03359093786433188, 0.03801702317361022, -0.056791061605714115, 0.11141511156540157, 0.09836161030396667, -0.02389489298321714, 0.01477569611303707, -0.004381102425963684, 0.1377190775112091, 0.0479105442064345, 0.010138203892455518, -0.031529193437912016, 0.06867249583491447, -0.01768558037092174, 0.04287666272680033, -0.02781393767184749, -0.0713981336816925, -0.04749137693721825, -0.017602689538865367, -0.06707392293847991, -0.04493879831462173, 0.11096553825117529, -0.08622653081259651, 0.025144949960180775, -0.0030276156570114847, -0.019026098379875178, 0.02163974570641708, -0.06792232632657694, -0.053063199578862, 0.10572185255303936, -0.07523291139432736, 0.015797718274095367, 0.029362330879131066, -0.027472278063051643, -0.018132253770819604, 0.02654296256051826, -0.021834979040390463, -0.026902589557848456, -0.1092121863698723, -0.08293400915556007, 0.004289791900086734, -0.02345856951102313, 0.029008603980588275, 0.007840603983077555, -0.011471912022237985, 0.09961070944026904, -0.08930607045078646, -0.1965342896007303, -0.05544543959407576, -0.05534648454748658, -0.09011429983627735, -0.014222964312287204, -0.19444256215593297, -0.10810219579968289, -0.02465953508457552, 0.022657367713011883, -0.054271630376530565, 0.05772870252122583, -0.01586671509709359, 0.03350442159531687, -0.002920884014624883, 0.03315038031864025, -0.048203778834067, -0.07121154718131384, -0.06304111875822578, 0.04041742619548906, 0.01230913794720164, 0.05266943362377361, -0.02409035483066735, -0.017967495614713253, 0.042304976462992035, 0.004981945228442254, 0.030120124601070494, -0.0849487104533261, -0.08074510118926521, -0.10919292576730306, -0.021081109095074595, -0.12136506215528906, -0.04901862778095918, -0.022122462275361306, -0.06876911623841052, -0.07650377275466287, -0.05722931342749837, -0.1266614463313094, -0.004818265385215883, 0.0668376752437912, -0.030319242563564743, -0.08723482004250185, 0.03904430083486629, 0.009195813726324664, -0.056435635259877076, -0.050366350008872476, -0.06385999009920507, -0.019530256991946243, 0.0847159244981768, 0.06899643606584856, 0.01755484264735447, 0.04002408796519673, 0.04842915644175995, 0.13963989314587286, 0.04149261069649989, -0.08760406637634906, 0.03141071056407425, 0.012834470443302045, -0.03441172391980151, -0.13712137858615428, -0.09961496457590091, -0.03249392759827812, -0.0547125501841674, -0.009817803994395935, -0.02563662920288604, -0.02724307457759179, 0.01205423380587992, -0.03112367690643672, -0.045544161448919686, -0.08322035364479774, -0.08825472892901634, -0.029708230690755108, -0.026198606923171174, -0.0576956308100758, 0.011113868599067508, 0.11315723219421724, 0.11062207303135556, 0.09102810735279189, 0.09947104001878168, 0.15634294804060878, 0.023365666011133462, 0.15541695330101585, 0.03720144457507974, -0.02269516685935192, -0.07818622004110413, 0.006549991413578837, 0.017199166582206445, -0.009859672185439254, 0.0793645161435918, -0.06304404345894608, -0.04964764990043343, 0.032799981576074215, -0.08908661659601398, -0.1654702041549081, -0.016800818365390387, 0.04296032555573274, -0.07887857966311702, -0.00016182427660266783, -0.06907250772545805, -0.05654344590263482, -0.013300036913157776, 0.09645717272803132, -0.017300630425078338, 0.059860841264536724, -9.502286292294778e-05, 0.04215634406587064, 0.025661836074143414, 0.0787793940508224, 0.20557804816815906, 0.1325619848873767, 0.054211530030336866, 0.057343346024639766, -0.030675201995990817, 0.04891568428505643, 0.01749402163104499, 0.03948896976479659, 0.08571831715983486, -0.0006478008538419647, -0.1093250247530684, 0.04969320072014422, -0.10499238530130062, 0.022128919993611447, 0.03020660632437017, 0.07682686769729197, 0.04815861329173622, 0.024160482247425206, 0.019500680043141833, 0.024259935013109808, -0.026473754888833287, -0.018011536126160715, 0.07756387380124606, -0.0370306957355947, 0.0731391319719543, 0.10175274832398193, -0.026421376698200775, -0.009873138168633725, 0.06512041396615739, 0.055827827205444415, 0.05298583223350091, 0.0395445444638141, 0.10388084556031242, 0.07246681441518998, 0.061298026238751795, 0.02364643801698013, 0.007168083331556736, 0.04275274863877265, 0.015968653229124195, -0.01666056299014061, -0.04053299627994744, 0.028979232090712917, -0.04073092286561298, 0.1248147792491909, -0.02778655606895807, 0.03876458308416555, 0.00892328865226209, 0.034701281562553414, 0.06839572359045563, -0.059482442493792184, 0.1037036385430806, 0.0951769116596975, -0.0026979158996379236, 0.09894749792435709, 0.009381530682988878, 0.012457850505953412, 0.07194643152937755, 0.0011746756967344792, 0.08155050302935454, -0.014378771007326577, -0.0170858606595317, 0.05097254087133863, 0.14348333628109197, 0.06344671456216469, 0.04218404637559349, -0.05525037827959301, 0.0983938774902601, 0.05423540163078931, 0.008491479120576663, -0.04291637618686828, -0.022595808889918377, 0.06412351782938433, -0.0071679785679100395, -0.019991858908148762, -0.009676092451740816, -0.011160346539857015, 0.021202440863343244, 0.05375994993731283, 0.1695828153697409, 0.11032823579517127, 0.030880766468827196, 0.11784720967152902, -0.011258408585997722, 0.04141340979045017, 0.09780828055260195, 0.11186896102770602, 0.050961649555409834, -0.05590292749130899, 0.07738589826804496, 0.01694271398170705, 0.055905779815793276, -0.039881996024451076, 0.01622520662008968, -0.003815717274583967, -0.022005387023094635, -0.04582299414053029, 0.026802029115241155, -0.03771854355585015, -0.002224574488269006, -0.08042940729178058, 0.08298786754466543, 0.019996492619811884, -0.0032862069155265815, -0.018800665946643605, 0.041203771276291865, 0.016857022385351184, 0.013661747375948094, -0.10388059723750104, -0.030047715423224965, 0.04400400966263043, 0.008357815145410208, -0.036704863459315624, 0.06466438972768915, 0.018253107022499576, 0.04958468522096264, 0.1054520371492695, 0.10259145066405818, 0.014975410405208375, 0.04024838973102745, 0.026404472305544904, 0.003911958383289213, 0.056150842229849, 0.06564817837704717, -0.06534125211187121, -0.053545734399076755, -0.03397441572051959, -0.050911511165881065, 0.040363115271639084, -0.04398081221574239, 0.0152847722269995, 0.006119196977410838, 0.02526280771863292, -0.013290849939321938, -0.04821628264635208, -0.0511444724756963, -0.026111075117135764, 0.06840855824013412, 0.07161184822263003, 0.04151371151366765, -0.038205763053567605, 0.00031062583935492256, 0.011445523695233729, 0.07832593506121764, -0.0016902019629219801, 0.0045402035751652805, 0.08956406229882945, 0.05604863766028982, -0.016700527164942493, -0.027994783428887157, 0.01572179760835673, -0.014933229485249633, 0.078339261464697, 0.02364712745369858, -0.11813943039713823, -0.1036617690556957, 0.04768032546826609, -0.04551777709743595, 0.022958081910820008, 0.005618312872050378, 0.05041363200710238, 0.007337069077597959, -0.043444741746774464, -0.0395291501041636, -0.03884185943306692, -0.023542159353631194, 0.008427259938774693, 0.06906369601925565, 0.036653362444041465, 0.0003496725063730232, 0.03919108798951205, 0.06632514241179437, -0.037765357050981864, -0.011827600880861152, 0.010106861392414524, 0.04353294320436849, -0.005323174827664912, 0.0780468530706685, 0.07370288419742621, -0.030758315650967566, 0.03761852128790414, 0.03280630827517503, -0.009368649959322411, -0.00018069610931810198, -0.07834324138342035, -0.026431415060497926, -0.052935195068479865, 0.029241478273044418, 0.017970791878896906, 0.02545852864027808, 0.002797544212916162, 0.047697427847970694, -0.025932460129521984, -0.008170330453093665, 0.03446484199472642, -0.024182039515598816, -0.07626229120042316, -0.030062933669090405, 0.01845159721531666, 0.02168211283204289, 0.009158013286621377, -0.02148632706103879, -0.11140613820933691, 0.009126694095130693, 0.012896213214840751, 0.02434680475850186, -0.09167238809750625, -0.09372729407198845, 0.000283187926543029, 0.06270696596646312, 0.018945155854849637, 0.07744190858635316, 0.12330789488094537, 0.06160355155624012, 0.012661209222833593, 0.057752328623505635, -0.05431899523190742, 0.03902333532120919, -0.010875857217809311, -0.013426111250962382, 0.007135343758652436, -0.05794820735202784, 0.010376686965585994, -0.011004224672617278, -0.11812801763919667, -0.07415050931848799, -0.0018856651347465298, 0.03325694157353284, 0.0067342509790981435, 0.03487352368940685, -0.02322504092641164, -0.07568591404760996, 0.03113333395535854, 0.017961070306196644, -0.04818095647269961, -0.011989078719006495, 0.09083501379715522, 0.03331950422838043, 0.020716629716597695, -0.010877533910723929, -0.04730193745436365, 0.01530846611325772, 0.022097521480123145, 0.02798114435162178, 0.07170297838281026, -0.020864175588580426, 0.06549094938288959, 0.061214738658375636, -0.006147292121127106, -0.04067165666578353, 0.04083310954860442, 0.030171275376775813, -0.028894371976204734, -0.06620820749416555, -0.13070373461910326, 0.001866772393505963, 0.01495068880095105, 0.06181732441399085, -0.05016590793890645, 0.0123963225461893, -0.026995084560628758, 0.08128882712808995, 0.0627565706600322, -0.043294054726089236, -0.018125286426943804, -0.003007336601200961, 0.01706056174086051, -0.015519074755307095, 0.003939878972589459, 0.07505192714262594, 0.04885553365777526, -0.006182076013448857, 0.04759570505014988, 0.01422345032110483, 0.05426316377489987, -0.008793347882335096, -0.012551303253527388, -0.036270107806576836, 0.013834651101893117, 0.010882301736617628, -0.005578689010315446, -0.058467410655172136, 0.004669105381155908, -0.030300358937642335, -0.04001368110768051, 0.012648284416960651, -0.01889165270226323, -0.06410835508308409, -0.013770235813095907, 0.022698073109369343, 0.08991210690135144, 0.025193085033179102, -0.12820148594151903, -0.03301480604328067, 0.00686867904730865, 0.026093063962706636, 0.03466365198539467, -0.038716662737021304, 0.018868395900931968, 0.034556217223758255, 0.018044377929597247, 0.07307096505146451, 0.025025625476817737, 0.06648647108886177, 0.020264480969822585, 0.0035576660404803714, 0.019185460080661576, -0.01056647133277911, -0.07597172685651209, 0.03370386118441284, 0.04710696736918498, -0.08153969256676404, -0.05232263093714471, -0.009027371189230258, -0.04628120835122956, -0.033606801640231505, -0.04285904547230723, 0.02114352379664118, 0.00401577185663894, 0.04713465248772024, 0.0187953495631814, -0.01889393996386885, -0.01118495303908767, 0.05146436480738698, 0.039454204668046125, -0.06293295604048044, 0.010615127030396663, -0.0334715569061141, 0.05938697788725699, 0.05182910018292965, -0.002184140340940978, 0.01774574374727078, 0.08302949693398966, -0.036809948327804765, 0.016190684709412585, -0.07187751247801508, -0.06720245461301519, 0.0019366025704391967, -0.033425824939158556, -0.045559003754899276, -0.10408450292650062, -0.01317345131017869, 0.08721228929843818, -0.01308593301609232, -0.09758873801680576, -0.020432780942746462, -0.00985596861833511, -0.02780877705334197, 0.10162865624506438, -0.054563008391603045, -0.0321685506690043, -0.061862864146563626, 0.03361190082081886, -0.02691920473733999, 0.0489162212882108, 0.015740759712969576, 0.0015943010061236656, -0.02093309838148614, -0.021593044065588013, -0.07000431162732035, -0.02006875536012339, 0.016510577388584847, 0.018027469616257383, 0.04690250895222195, -0.01678144930662506, 0.03327856656194566, -0.004865025962011924, -0.031118372629468812, -0.10055710142150853, -0.00860853481325385, 0.08995122441499294, 0.006272851019379475, -0.02803529115719447, 0.005741864493062172, 0.01048219582234682, -0.02834213807766652, -0.062103526901240505, 0.029167092362362666, -0.12781063599035286, -0.020185366581989744, -0.02565264596103141, 0.012105789637077674, 0.006755033390880315, 0.15790067609224945, -0.09360408817851222, -0.005639250977197429, 0.01106366763234465, -0.08018330913805133, 0.0764411453724269, -0.015233273429459807, 0.07427294991716192, -0.08600472313193097, 0.04235867497285138, 0.07209837340265063, -0.02651991996203535, 0.026696689727437474, -0.02313217402993809, -0.06377263652059714, -0.030872089044243916, -0.025995919472229387, -0.015510256462660129, 0.02304459065246031, 0.07898961829543422, -0.06151643496812527, 0.0517740114832452, -0.0010146026012148365, 0.05718073638310528, -0.017757984395739695, 0.008504354789560093, 0.013597409956751922, -0.07833140191377011], [0.04970571344740773, 0.1064001663445833, 0.06750399917514259, 0.04037709415835759, 0.08109033432668128, 0.03300065463160016, 0.014369705547969683, -0.0728905399668893, 0.02491913630660751, -0.049504186535785165, -0.06125328380894242, 0.01161834196236541, 0.08002961575330622, -0.008269782565262321, -0.05806044549961451, -0.04444155019790886, 0.0013827791856760947, 0.026217281639532276, -0.03195853463699085, -0.031873457362721694, -0.013009693106643247, 0.0973734059184006, -0.03737163175251792, 0.08034294220337544, 0.08839682594733111, 0.04827786855614722, -0.058635667995891705, -0.0012835900176455162, -0.016406751643240784, 0.12185554737956832, -0.02251545409635754, 0.005811698710605556, -0.06983317008703818, 0.08938679352428565, 0.07518049517518229, -0.04341320141406325, -0.025927255853401634, 0.005752740205973366, 0.005941488627729568, 0.025572805984069975, 0.04236240963229407, -0.02567527788912303, 0.048738029924024276, -0.002311272987043844, 0.00508227553581243, -0.0008869615309800359, 0.009682119169667776, -0.13418116634227725, 0.06205987616681797, 0.06341719841865973, -0.02112320015910491, 0.006273072538553581, 0.0070112128629919845, 0.02398016318604636, -0.030372431467743554, -0.05538530624277877, 0.040471744410138934, 0.009211469103161674, -0.011730950863201951, -0.09249915083474558, -0.012554840796191104, -0.03543499022053047, 0.0676282049867284, 0.04905428041631916, 0.009553452688471803, -0.002966241196629384, 0.03917696730459922, -0.01768981632941046, 0.02628304653048897, 0.05472504430605198, 0.08524814904586983, -0.0266522106466551, -0.07715795984975898, 0.01601081071658246, 0.042720647134824284, 0.1233353882516595, -0.05364001781750589, 0.08539401735459762, -0.00786754519717223, 0.06150550166632026, -0.07761421770991374, -0.05272629512258561, 0.005802531582539323, -0.0245498144383395, -0.037715178410278966, 0.014775417674286891, -0.0312544154337483, 0.04952941621919057, 0.0196168072952964, 0.02754666740221139, 0.0009373531858401704, 0.026360877351411106, -0.0815033647933487, 0.027917755804319988, 0.06917638472562836, 0.03300482760419449, 0.015630934412072466, -0.02504378693880237, -0.04382373881403824, -0.019708880075128582, 0.018596536106964982, 0.050851475280261606, 0.06292915203900909, 0.068250022164357, -0.039621239233144354, -0.01053270165203066, 0.025070233163166113, 0.028933803289684853, -0.05811154951880008, 0.03357371980237383, -0.046087962479035564, 0.004996322514635519, -0.010546966771158763, -0.03944810401129228, 0.049020556261347416, -0.01101880670386908, 0.009207671487938938, 0.061542099611686135, 0.03384953707634124, 0.007232537865050839, -0.07193343602184184, 0.025293276183400763, -0.06899487418866324, -0.026781997327752657, -0.030128103776528144, -0.04992363352452086, -0.0626046949027687, 0.0012184077689942902, 0.04581332290781174, 0.050889292751239566, 0.062122963748727965, -0.001313342166034722, 0.040886972915188766, -0.03539009491578284, -0.06349279201634357, 0.04419961683586949, -0.027552485364071202, -0.009618575225387085, 0.01217356066371007, -0.06339598691541455, 0.110989637704474, 0.009552659847699634, -0.004743847521917183, -0.03752843440992671, -0.03671402823218908, 0.01664440563743564, -0.03781917174710489, 0.056857899212718534, -0.012205191871856817, -0.062480578379861554, 0.0013119317521029267, 0.01098395878578148, 0.007922806553216703, -0.018059663263416344, -0.016308253440095552, 0.04825991070422283, -0.04306717773947169, 0.02321084527260051, 0.01840400277357079, 0.02097547895608947, 0.04989480107907465, 0.02051135316832092, -0.02166606018043214, -0.07332075935084628, 0.012002966573352529, -0.021935537128779322, 0.01106648364351974, 0.016885666731696985, -0.0068312011694764375, -0.040637682855854715, 0.04434987339301925, -0.04434877594955668, 0.029703481851213135, -0.017232520269002776, 0.03384265412959962, 0.06984069165650501, 0.0014184844685927577, -0.007730787886793184, -0.10728230618371412, -0.09183404785681046, -0.055079979908077545, 0.05122350367433085, -0.08684119751723088, -0.007094110911710583, -0.1096442752627281, 0.08249098624743986, -0.00030578071663369343, 0.012230906315551005, -0.0010123787057180688, -0.0006784649464850213, 0.011329885728281615, -0.028259479395583507, 0.09251743324071224, 0.047884370825305674, -0.02786785415367568, -0.028821250489623983, 0.009677346928151581, -0.05351042678264517, -0.005968651905170972, 0.009040172394861615, -0.062437181350672125, 0.03185609726902039, -0.03531328919447075, -0.03542668790424736, 0.08898550934238209, -0.0019581353939849234, 0.008002883495249144, -0.010087716125974559, -0.036759402309799655, -0.06749608630915052, -0.02626943458511127, 0.013526507021498445, -0.04643419002094546, -0.03994025666985612, 0.028141718427856743, -0.06564229680347615, -0.046018509551174674, 0.04934414088000334, -0.07432701575654994, -0.06608570913978191, -0.04262980127741269, 0.029154937471790307, -0.029527285520587383, -0.006752407296723014, 0.028455603318315193, 0.062294038037030174, -0.05051141533408147, -0.012351686180076354, -0.02326398195415486, 0.01060230305706486, 0.014434861198190842, 0.018427898063253914, 0.03087984576829137, -0.013297462297565989, -0.0045498579410582435, -0.11128905976812138, -0.050376917654019505, -0.04611912431934624, 0.05326506935663648, -0.10864514177867639, -0.14248078835032119, -0.019332560808983625, 0.01458960840390194, -0.1447888001841052, -0.06164210366914541, -0.04418312781574853, 0.04439406040362723, -0.06255823503553408, -0.008198391271317414, -0.017012454418422644, -0.007823562562262644, -0.059187179945013775, -0.0013181001392216592, -0.030275680026199285, 0.004151617755454997, -0.012274807481641146, -0.0144035007417752, 0.07504787485511513, -0.03596411500142475, -0.029399021572043195, 0.06940668861862188, 0.08354954568676756, 0.020018154578614215, 0.0006982527839926535, 0.010219403711308795, -0.020632882339563795, -0.010096146835069389, -0.05177692536115586, 0.0030028558926400426, -0.07919664673526436, 0.0028939377099372987, -0.002976891024915645, -0.0016061724652844495, 0.07201258179676132, 0.07848089126414952, 0.04882741565004424, 0.025018446383526162, -0.07471543324869916, 0.06376709283858799, 0.04598259647176543, -0.08154968732081194, 0.0012339957495434753, 0.08672273842878393, -0.03207059991482749, -0.03094991385893369, 0.024828223975085658, 0.04698482951966208, -0.03650297997373664, -0.05786485596724288, -0.00969359891695407, -0.017038818313764248, -0.02552122945749731, 0.04530813357271073, 0.04546623251317127, -0.05438812528566562, -0.040916786491741866, -0.12513964332331595, 0.03325150313607629, -0.06698683521878236, -0.05181822716200441, 0.03008586960799126, 0.08232268786216691, 0.04032019121409183, -0.03103448147679465, 0.06509435704198524, 0.049370851099956974, -0.05570966496212075, 0.006957479178870349, 0.09053209720142207, 0.05551332111031994, -0.008298440101280771, 0.015048475073780897, 0.06515266672798901, -0.044363680569369644, -0.032526216253597216, 0.030608277635416275, -0.004404412378287724, 0.04269989347842203, 0.05154541608072348, -0.060169639024420976, 0.007238251152689072, -0.038213689153528796, -0.06075049408488689, -0.12267435758291097, 0.0007070316721234291, -0.0011900331676281707, 0.024277658690999827, 0.11719894094510401, -0.018011463721027268, -0.00891675679147547, 0.011187299468251609, -0.09688177832121425, 0.011843292485922032, -0.04025384138074383, 0.0028698456276689817, -0.045963872745915915, -0.03023985961513147, -0.037568594193033086, 0.0060437296343470075, -0.07219836445093326, 0.019685705919158563, -0.06737727816613541, -0.029639332397627408, -0.047680633532075245, -0.10317313739928391, -0.042022023639299626, -0.06085220605801784, -0.05434718990471954, 0.00879465377061879, 0.027828010475890345, -0.08552819006712278, -0.071149797097118, 0.01160262200720088, -0.001218079997656641, 0.02076646447358044, 0.07459902897288728, -0.0930095842202608, 0.07548717857380556, -0.13086812062156222, -0.07878314685723033, -0.04935267236392188, -0.00761984346093978, -0.04965647674805811, -0.07965094178706851, 0.008394676751585645, 0.02571522296129061, -0.04491855183568281, 0.025958577503262543, 0.0013141979265745751, 0.06679683547859323, -0.061238741232101844, 0.02477159141757701, 0.04046168968564703, -0.04349036613467169, -0.06019343539527642, -0.05028204648369613, -0.04451698577162646, -0.05205115465188216, 0.08011423371435732, 0.013914662499605534, -0.04905534956104588, -0.02270846173724332, -0.08678468847024444, -0.015791998797127137, -0.00467937968910702, -0.1319127422305049, 0.002806197133245283, 0.012485822132657056, -0.037374070567668435, -0.051919977667948244, -0.05959423559310355, 0.0306588514872079, 0.060298056736452436, -0.008114335334538805, 0.040940411503616485, -0.06900343514316816, -0.02369931343673743, 0.06789300545223624, -0.053475674720200324, 0.011453051967580927, -0.09000638337424006, -0.11744349643685334, -0.032428798362621865, -0.12459684874964758, 0.056222268878888926, 0.061646834733521574, 0.001474994079752916, 0.021898234029120757, -0.04105581717843755, -0.07208290618390359, -0.023795829124967933, -0.011147130690710098, -0.04456544901706091, -0.07350592685656196, -0.036931776569036505, 0.010002482423338184, 0.07091843573952156, -0.007636305591694833, 0.009995277304755855, 0.12022036023370461, -0.02169486085673829, -0.03257987822362419, -0.032060781676106896, 0.018735169204630822, -0.01763207154850476, -0.042633835511997016, -0.02662874489779909, -0.0990171433910142, -0.09735235134595094, -0.04497643668639706, 0.021592701694026925, -0.0381784717019094, -0.0631865358187493, -0.01363639653195234, -0.0158503448257799, 0.028979100290275304, -0.0058474196278221315, 0.001999257813431256, -0.012836911852909314, -0.0819957662594421, -0.03959476226045469, -0.05106728321651627, 0.020160113708288598, -0.03865254326866709, -0.10439596867058008, -0.027695800064386544, -0.014970003192234906, -0.012783770276630385, -0.01613963826647535, 0.048778036292279975, -0.036069858503266286, -0.04180024773297914, 0.03949430384491873, 0.019884650903862815, 0.013208628014430094, -0.03651636309571443, 0.013289008681467412, 0.06474856953449346, 0.045880367518946634, 0.03980930080344051, -0.033380922362022836, -0.0850918383948067, -0.03022688936122179, 0.0910999990335398, 0.016003122168300302, -0.04154982911574887, -0.01689520188004624, -0.05147944769128586, -0.06388322612043291, 0.03756122268657792, 0.0908649579890144, -0.008960890496483293, -0.011576002876546006, -0.05025128121575819, -0.09308317490458402, 0.07309247312177786, -0.057708855038036126, 0.0531601548413251, 0.02330927734929203, 0.02180700346608068, -0.0424171707508294, 0.004916313941045865, 0.027729477315562922, -0.11276982447006428, 0.020771557828186835, -0.09775987896234885, 0.03011154503534572, -0.12811776344267778, -0.021239699858507693, 0.004239472137101167, 0.007050194215080728, 0.012037236699367885, 0.04184488824606923, 0.053303085352678393, -0.001131422236714833, 0.06905758003624542, -0.00036405649170358244, 0.019041116869032967, -0.03708228731150748, 0.004599136162936985, 0.020425391320247243, -0.032926401328748814, -0.028861423471210564, 0.07790267453784835, -0.06262529497356917, -0.08318688203634689, -0.06348931088407032, 0.01795455479148058, -0.0005557926424453878, -0.046088763548443136, -0.0008243574847479671, 0.10062549544424419, 0.09216694924897662, 0.1092535296072147, 0.03291362166549979, -0.01088378131669111, -0.038808139028483506, 0.007085645137545033, 0.13909339298580606, -0.004358809573943747, 0.08457666761947735, 0.023478695378989285, -0.01805952619104088, 0.030502890051416993, 0.06121846896493266, 0.009584955171499192, 0.043249163191876897, -0.0033881243112775608, -0.005027712546354087, -0.04725638291642396, 0.023131215259028035, 0.09670454560169513, -0.07653804702482525, -0.017086439082963978, -0.0031284290635604896, -0.09452266594465782, -0.025739001344836445, -0.04492610105873666, 0.014144544393975153, 0.005125663489106417, -0.07611987524540549, -8.601630723392803e-05, 0.07543030223150167, -0.04106959462226861, 0.0454543392854057, 0.034798398344254466, -0.04105738544282593, -0.09826999401556204, -0.007572936098859272, 0.028137848140351054, -0.057475368519630296, -0.02447715381624938, -0.04180096434677493, 0.014156938747096262, -0.007140484092232929, 0.013185574228009632, 0.0012818624619642689, -0.03143771952910045, -0.048652638391493794, -0.02479314132382848, 0.02366462564701656, 0.06798927864854966, -0.08598161005352589, 0.041774585969340174, 0.055780120034902805, 0.05467204474887593, 0.017233641854326628, -0.0321521825372944, -0.021751429246610558, -0.08303141211870124, 0.14505077990101428, 0.021061465891522406, 0.03543225446816522, -0.15857910137448028, 0.036733764701461454, 0.08058888621216939, -0.04742657964484608, -0.20223096480363234, -0.13245375158170763, 0.061651123851988024, 0.015654079703359004, -0.0003700014160094338, -0.01258541776150093, 0.040768819695922505, -0.04959882864556424, 0.0828645635574545, -0.06748419397970333, 0.016644310211014705, 0.04916968023941427, -0.011355107298845802, -0.06447781159561032, -0.016608963422967166, -0.06337185265877275, -0.1165627744068148, -0.039103704321691884, -0.073811347946906, 0.060761381604058966, -0.06965516900805889, -0.034530228233093437, -0.047409927013597995, -0.027533955689941287, -0.07872940449580017, -0.05140176989112214, -0.007590170997877463, 0.009483348786551198, -0.08092076355158252, 0.02913813323148969, 0.027659801261726177, 0.06214875053060045, 0.09097556130079494, -0.03416196822773501, -0.09261086264800576, 0.029363894317138043, 0.004332812514327057, 0.013379074320926816, -0.039854608135803875, 0.07692501292064262, 0.004480403379861704, -0.0393342784499829, -0.06745564828463237, -0.07064065247061486, -0.027355357845424134, 0.026086148888955524, -0.03924134542245762, -0.026760286792096976, 0.028861549869438875, -0.028984738860718777, 0.024091317045577463, 0.055304770856572635, -0.005825358926844558, -0.035943782693805736, 0.0072738783067833376, -0.06850907181645725, 0.0689639399979943, -0.029676097518165225, -0.052141774428851255, -0.028826581376597566, 0.0227125452827382, -0.046938138641222746, 0.01165710642463745, -0.0006641347570742537, -0.04802719593309455, -0.018946531548012766, 0.034190701941207234, 0.002323874931071386, -0.03593917564476077, 0.07542161142836343, 0.010187173217942458, 0.031138932776168374, -0.0215837575972469, -0.0287777542919035, -0.07796293938589045, 0.016708969472379865, -0.023787826037259794, 0.025087149935522284, -0.04967784067065899, 0.009185973679705308, 0.00032734170002863704, -0.14159997647598296, 0.014534227214243424, 0.046910841675455624, -0.07191089089828623, 0.07730093074175085, -0.04641406212727244, -0.0640854388153904, 0.09280037368336581, -0.0007142797722917305, 0.023952981882754645, 0.01582517047553888, -0.034040812790138555, 0.046975243287647225, -0.08451431057767084, 0.04981557886413015, 0.01957657203536054, 0.015060121894522351, -0.0025207589515043455, 0.05804749167692428, -0.03080472043104537, 0.06347509820789997, 0.029735895475131478, 0.009136795176265094, -0.06814964883458977, 0.05607127184430184, 0.00028651491706471564, 0.00607945276443667, 0.003595708018659204, -0.011869176493235096, 0.027736254397963043, 0.08035510834688803, -0.025714194775690365, -0.03522378324719604, 0.00721646609410984, 0.049933728730445326, -0.05124186123071918, -0.12714777261883908, 0.029505114375387876, -0.06141175060875749, -0.08565956405784159, -0.08087657665387163, -0.012057026183049265, 0.0027591379549015273, 0.003787663013364082, -0.09888730833020394, -0.015151519993856347, 0.017688051496503106, -0.015219938733532744, 0.02365861486114035, -0.03187084867257333, -0.0633687532325277, 0.055373089484818665, -0.060248529185218135, -0.04710431625820766, -0.06786064215962696, -0.009034212928188632, -0.010604540914769334, 0.06582721149833996, 0.08966685314368807, -0.009939905901610155, -0.021057780758391983, 0.025979358228588347, 0.030708215571079188, 0.03144863165947273, 0.024593555566657564, -0.02445286581964114, -0.04298148051123312, 0.06805886488295607, -0.02508992890977308, 0.018644699812951672, 0.026794450197979495, 0.0404254789041004, 0.004180800891294986, 0.07957650117228304, -0.0013722421206766205, -0.05840854443400466, 0.0036470947716447724, -0.00554659192365668, 0.06303736593201939, 0.07103752993750136, -0.06818129846211207, 0.06710468655113506, 0.09789527096525671, 0.0018944032465777797, -0.01591777102191225, 0.007604100895197127, 0.02044671859532017, -0.07082587530573065, 0.1537462878660028, -0.061096000607809745, -0.007815799807634237, 0.09135845097586784, -0.04745888346232688, -0.11200453753583982, -0.011587483365007376, -0.17703002357479053, -0.002606314770876502, 0.0200676742602116, 0.06677151532532531, -0.04321581556520538, 0.004967918089902518, 0.003125278975237913, 0.03059161697285026, -0.10314194857678662, 0.014471589115113393, -0.012607317825206977, -0.07175400116782027, -0.06092374451166597, -0.04276002299044818, -0.021113682249303847, 0.02815509362079867, -0.04340488726112637, 0.05471675033958053, 0.042139498493556554, -0.0488835489126059, 0.034338973662074466, 0.0023493651114531522, 0.0077807359797750705, -0.03388833006703085, -0.0001008096162569746, -0.0667373709841371, -0.0651015611875551, -0.10609001885145539, -0.01392197304158432, 0.023001843660908843, -0.045649914606004996], [-0.012203387525598141, 0.015335329051044823, -0.005357067799112178, -0.04203590155506827, -0.02919304729826523, -0.028583737352476577, 0.03638678490128476, -0.0007530877469195561, -0.03389033445538222, -0.005221835471142688, 0.03227648253163319, -0.07009291778004088, -0.05429870101493048, 0.018773579511908674, 0.07765670634523239, -0.08958767482892904, 0.05696111805331637, 0.016919390778777556, 0.014123538902753209, -0.008844340042940723, -0.02406936740031, 0.09360030243348526, 0.02391006492108947, 0.0022392373661418823, 0.02155716871665118, -0.07128758401109864, -0.011905171881308475, -0.029527734798912884, 0.005844879422348325, 0.07565870245609033, 0.02289608300773121, -0.010308363385745716, 0.06686194863762131, 0.05279464337077905, -0.0006351844946515949, -0.029404245247458067, -0.05814943520425253, 0.028674152363785007, -0.001969663724039739, 0.08620561057709843, 0.01987844184095073, 0.049054782997160255, 0.02136002321260644, -0.07432622363183379, 0.0897106784634129, -0.04242869832007633, -0.02959422147180694, -0.0333916322990475, -0.07949009073809615, 0.07391884810956817, -0.01455715217770202, -0.05864034290596128, 0.017938659642200736, -0.029189451938138624, 0.006398125414093849, 0.013256539878039254, -0.02490502801737352, 0.021421236789751847, 0.025514137167244058, 0.008600865660100602, 0.061481449682904636, -0.08480781318309245, -0.02527392456074644, -0.07233001111002764, 0.057061474345133166, 0.015157208445133028, 0.006395433971424728, 0.03914315560590027, -0.014513209450789568, -0.03983473063870265, -0.04375627912009498, 0.06714845475219068, 0.032721776508956205, 0.07390677101597921, -0.05880372372507524, 0.018366100434917723, 0.007005116760479495, 0.07577679019656858, 0.0020459208994961977, -0.09548012747062225, -0.0581335458231376, 0.0204687760475471, -0.011873272260647424, -0.013140903207898121, -0.012192575582740277, -0.02062667375860505, -0.0915527931503628, 0.003852122142201075, 0.03198229247906574, 0.036671435248422445, -0.03260260888713421, -0.0006009721011935621, 0.014106134730521238, 0.01872272319730693, 0.004392617018489523, -0.05638069127959712, 0.10272604334741667, 0.021468514808117928, -0.00556775948180132, 0.07787063899241121, 0.02382897792666033, 0.07392182175319804, 0.0727359578459017, 0.12175765552081431, 0.027856456008757167, 0.030044878279233092, 0.015826851647477654, -0.04675115367196961, -0.02422451575480828, 0.01544015471706807, 0.06050856374848302, -0.0564171135789738, -0.01611596537505789, 0.05255873523343543, 0.015483748932020666, -0.026290896715830042, 0.1155106788395637, 0.014700318788499629, -0.007162332747408069, -0.0018853738121238468, 0.0758014139196344, 0.016784228550020756, 0.06032090865045395, -0.0022876308571634194, -0.038745672899691545, 0.07195737836405762, -0.00388075005249219, 0.03138338787336323, 0.015048292562509299, 0.037583635108497014, 0.03713297355810767, 0.09096170670781373, 0.09183613603675567, 0.02982526662324745, -0.02327709873041748, -0.05600845053824044, -0.054910169113475654, -0.1342963437140501, -0.031612926347450346, 0.15232719894338018, 0.01110180724532675, 0.024115052902653204, 0.08181970603747321, -0.009041811184675203, -0.045988123054906446, -0.10720692191568144, -0.050824149359876364, -0.05530724195871657, 0.022719641201778974, -0.010338364770906428, 0.09382037959272778, -0.016885907649220187, -0.03884353940837476, -0.03844496346547608, -0.07174761218027237, -0.15342014053279796, -0.06742050691321826, -0.0661233080218809, -0.08110007274659099, -0.08293807399918449, -0.11552787704875711, -0.07459439229006921, 0.021822986015939294, -0.049608935381407496, 0.03364367516933077, 0.04216253256341239, -0.026207836879608797, 0.061095727991784796, -0.08564819268024117, -0.0829378360513611, 0.10175057213946632, 0.05145944113015505, -0.014664683769783074, -0.03975225065343557, -0.03451076547865324, -0.10371774385542219, 0.07302116262279415, -0.015680842578532212, -0.06079661987631555, -0.011483599220700757, 0.05109282329492798, 0.026842853614258682, 0.10983607226811555, -0.019237966213372638, -0.07224629087611237, -0.04588559888092602, -0.05360857989799704, -0.05092794594991199, -0.07561431797803576, -0.015207390387350384, -0.05258121014283137, 0.03720525562848816, -0.10180182980834797, -0.0563375313007458, 0.00043655256990502816, 0.005692296235879987, -0.10858919919725409, 0.028603159673166362, -0.06176302441262974, -0.0703521226702952, -0.08226548009686695, -0.029885540183424507, -0.021988886498692746, -0.0033335812866849713, 0.004324976053035574, -0.0439029149053363, -0.02168785577745086, 0.025032634672999102, 0.008754261141431591, 0.09387879147845367, 0.08845457673938245, 0.06497479307659089, 0.028492330271843336, 0.07331957077992479, -0.0010036025471078453, -0.048227843115969046, -0.00040787500561394554, -0.0330969656679293, 0.01644180730527917, -0.04082103229604792, -0.02933059807241148, -0.0006683865010052857, 0.006286377271768403, -0.010463323887638468, -0.06687378678150355, 0.03832729923196512, -0.046722677256102865, 0.04576138381523697, -0.0031250588431138864, 0.005364750505855608, -0.022104608762046545, 0.06663323754083002, 0.023738885370334372, -0.03095020924605249, 0.02707660503069242, 0.024675135753028418, 0.05914331435576818, 0.008594049618932965, 0.023917481587212675, 0.06949519596293229, 0.002531379592388236, -0.01576107655694994, 0.06466287673667566, -0.002498234927615568, -0.11935323118972703, 0.01188239587923236, -0.005234876555910614, -0.12104841384429724, -0.033895150554879856, -0.127178422213712, -0.008754871718122715, -0.09275868931310384, -0.04238228841288231, -0.03793264790133833, 0.00998711717771758, 0.0347818135804878, 0.0240601673540695, -0.025368977514779296, 0.029619503988239794, 0.06420838822375338, -0.03629673582021838, -0.04317756750039289, 0.009809457624819783, -0.07747104133473326, 0.03231310834506406, -0.0949581522630852, 0.05802770040436287, 0.08068823017415762, 0.04118217324788945, -0.0213092290129003, -0.018712139851312995, 0.04577623055274237, -0.02833728592440042, 0.0026552477384930986, -0.024781612982776247, -0.04788393469596333, -0.04867322350444581, -0.08005392287708966, -0.03524399750027841, 0.033046901918958704, -0.020453272669706753, -0.03730802075099935, -0.052285982636186716, -0.0224404048954338, 0.0544686087340784, -0.05741464608789603, 0.05969400211772606, -0.004477549874564696, -0.028912449130759566, -0.07045194012148347, 0.02440670359646612, 0.04927003911881719, -0.002687799173201307, 0.06776467960230287, 0.07435179134424877, -0.040905427013355825, 0.03407571660432633, 0.0811921955681077, 0.029866985047713686, 0.0727822980761351, 0.05776066496092543, -0.04654607072125852, -0.08799726483814385, -0.029098937094657138, 0.002076336807636367, -0.06079575982923244, 0.030280252794559565, -0.05919367784082335, -0.02072899407601698, 0.036448640577408126, 0.08328312467282145, 0.10144674861740627, 0.09254300841011334, 0.02334950075974162, 0.060187705259543055, 0.03339120396023809, 0.028426829897508752, 0.07124669579720719, 0.007912185394503389, 0.08260180998103352, -0.0058748695476647924, 0.06377451517776984, -0.005557990760403711, -0.011499357928890883, 0.1412866570732786, 0.04935956447047574, 0.05085591213301932, 0.0029490856634970574, 0.11748050900223361, 0.10938645296366754, 0.04848859600768899, 0.0407187175115589, 0.015928720290238934, -0.028884895136301016, 0.029347653820070083, 0.03515117370018677, -0.03248282246354681, 0.12805461121554707, -0.044944324864462266, -0.04137924931591245, -0.01631857106834404, -0.03312446946108632, 0.04580280426728251, -0.011587197313015048, 0.01048656589170342, 0.05689153140486727, -0.026014686113107494, 0.09532702024421086, -0.020161620917138683, -0.07374109675082453, -0.06985156233057045, 0.050654027738960744, 0.12539744810803202, 0.08618899652948499, 0.05472557108553278, 0.012951176587360256, 0.08725762471569168, 0.00708599715432064, 0.03759904514953296, 0.04118322650588204, 0.02154244245596571, 0.04011895638885085, -0.04010456542142932, -0.057686137714453974, -0.0513469164886627, -0.053974248315585206, -0.0020161756196615376, -0.01622194324392559, 0.06742861894994251, 0.019374300306390785, -0.08740829952623647, -0.012153728960457097, 0.11740654615346702, 0.1521484030900009, 0.04809789533667608, -0.03643670666180987, -0.12114339963571637, -0.09047734910621916, -0.14281546801236558, 0.06836675609668809, -0.009594778879831551, 0.029702427842929615, -0.02189879028931875, -0.0031241440287381747, -0.047910685744889235, -0.03905681865023286, 0.024430045217000592, 0.05619458655224301, -0.08926047365123714, -0.009307627471684905, -0.016028680304096616, -0.07243378546042498, 0.01019152408986212, 0.0006887688897946034, 0.015266237280260556, -0.03973467465323081, 0.017855178380963194, 0.1855142390144185, 0.018478148541663904, 0.07877507501747444, 0.017838675368957838, 0.01965537089602681, 0.06427491307505813, 0.019217390193010324, -0.09692552334221262, -0.023358821883734174, -0.022581555710683866, 0.046958720619406924, 0.1356927708775325, 0.15027642903139177, 0.006267272393841781, 0.029077273629958, 0.016612442433514403, 0.047892994362456684, 0.12503847155633405, 0.09483597314647799, -0.05375042405863186, -0.008699374962619709, -0.008400697267944022, -0.08834796328387286, 0.02571621122544053, -0.09773325352294722, -0.036984105730584506, 0.04353347418843542, 0.07202406197731946, 0.1344900220230125, -0.05224456037568512, 0.02970957971031733, -0.07640316565598389, -0.012027955209911274, -0.025239548108182096, 0.05772452447500335, -0.06008370865000348, 0.01066164411254315, -0.04673503749885645, 0.029344693214486944, 0.12165461667537518, 0.17110725009580294, 0.1365024842758261, -0.005909897967211793, -0.0890583794715487, 0.0782876768813818, -0.013604311277777652, 0.09305933120123393, -0.06956026133439265, -0.04100564209317427, 0.011072828744045575, -0.03969025434764503, -0.04610402982812803, 0.0840977658299581, 0.04341537249613814, -0.004977108985843408, -0.02453380419337093, -0.07397294988474708, 0.09920201015955749, 0.024490839053567873, 0.06700381483858725, 0.032942189735530675, -0.049927452409503276, 0.011636708369087121, 0.01249990150310049, -0.04355520173423756, 0.0394397114960436, -0.03902179048609518, 0.029565587551652766, 0.0803039218962811, 0.04018471272910197, -0.00530328040341913, -0.06275143197619952, -0.03892410422668775, -0.005607540171807815, -0.05298971268497847, -0.09027983172686752, -0.04120538866192051, -0.0035740628162789618, -0.05487014992484448, -0.03889418465779349, 0.07185763360091377, 0.019263878060345824, 0.020413901045964553, 0.04970341697673931, -0.07030831240587974, -0.04434115791904138, 0.039170878435096326, 0.19361658449511987, 0.009054776788864502, -0.06748482788938087, 0.012849985672454203, -0.015084701850375668, -0.006700310011764512, -0.02359370329072637, 0.057118092222679454, 0.03156892791986687, 0.025702204232736923, 0.011897676963983335, 0.0456643091629545, -0.026961444746940153, -0.023596674344122295, -0.07121690718612851, -0.1679586836043127, -0.05012457379363463, 0.0316352845915468, 0.03938495374596884, 0.060696934805764685, -0.05893819045486587, -0.0003673392518942456, 0.00918210088813955, 0.12014281559323517, -0.061751187357816345, -0.09216424195841266, -0.10927069068640541, -0.03184945245586182, -0.03351160773012965, -0.09232476652226866, 0.026885923656424476, -0.024889393354206816, -0.02145038851632974, 0.026974137545524614, 0.07807473490450664, -0.028514274772753, -0.08886726259407145, -0.023666386667758565, -0.04053260085757426, 0.061635508042687845, -0.012004090286083912, -0.09961830693990137, -0.09372460685751755, -0.12600078877799828, -0.007789516984449603, 0.028112270994359236, 0.05762162679152997, 0.047116182829624854, 0.04402926139331269, 0.07453687144882233, 0.019628862895678886, 0.04798057432307756, -0.16296413102307314, -0.0678388592960541, -0.04846578872284106, -0.14519585918559968, -0.0417010912838772, -0.028624088998266763, -0.0057715171369528305, -0.11648864432306995, 0.02864106739847723, 0.07349810021673372, -0.0844785597975751, -0.05198877699156234, 0.04622569612173908, 0.004130814996504327, -0.07517434177342902, -0.061727497009713285, 0.012110959670146526, -0.12976259883248492, -0.008446737762681957, -0.014214828145895047, 0.014682434557984157, 0.055507205088466995, 0.02880695202403385, -0.045398339547902, -0.07981781904237129, -0.02787968289807584, -0.0895778540870764, -0.05334562527552025, 0.04271882460941142, -0.025565329685636243, -0.051329618298738014, -0.03912225981357663, -0.15464737159991612, -0.04233856416038509, -0.07115327192131689, -0.1084695975913069, -0.054847211348671314, 0.025867519886184322, 0.05281115068213761, -0.0007808480235398763, -0.0035528762223544443, 0.0624749968706889, -0.11582040026675483, 0.03031093485348545, 0.057412842462169426, -0.058929988538738265, 0.056361377530276584, 0.015789570447914777, -0.03004206651711408, 0.12055570028622521, -0.024247192692852013, -0.005186294600431669, -0.05382835229585094, -0.00590207831996423, 0.06565519778363839, 0.013833889249105058, -0.013200803720070004, -0.04783506780573595, -0.03304641479857263, -0.08966425683961976, -0.08634579047287265, -0.002820878882979374, -0.04430919009280057, 0.04770731394033314, -0.08718157569966768, -0.06027561694959834, -0.03431724695543134, -0.005903438476047514, -0.19734033018160846, 0.021683200761335467, -0.07442586651794192, 0.025537779442198236, -0.015084171587700916, 0.055948302003691004, -0.04915774164174526, -0.15301021788666813, 0.08331928768983475, -0.02567899892383045, 0.035248181406436575, 0.027759242650890838, -0.041378482195250976, 0.012121178033797224, -0.005830361674724485, 0.07828597977373801, 0.0607926923318554, -0.00942908352226508, -0.04341677572706499, -0.1023054173980373, 0.08642945836945458, -0.09665728765261493, -0.059576992434766024, 0.026231554042066625, 0.003305864020628732, -0.04891002669760677, 0.0455528866365931, -0.0512212570629601, -0.03655456300928911, 0.08407795303620227, 0.030339424679791453, -0.06864512573354822, -0.006372869563756317, -0.057892067645559785, 0.057934767035747854, -0.059807985983147904, -0.02158080723257859, 0.08057597328795751, -0.01502613731030824, 0.05623892918306615, 0.01048953700329001, -0.0047074999127451654, 