[[[-0.06053719189178644, 0.053782416429716914, 0.037873731836845725, 0.03335276543917409, -0.013790530678094952, -0.0483147424011549, -0.06935290632845315, 0.09324555341112932, 0.0249758297341757, -0.023709176289932358, -0.0284644629394983, -0.09134923034663218, 0.026999300557708456, -0.05183030935672994, -0.04409851535382481, -0.017689988786024496, 0.06292793150005506, -0.08526273525871854, -0.006232872524648426, -0.02386502345397524, -0.017208212446259995, 0.02036859545039455, -0.01795068532006187, 0.015316416784525885, -0.0677200835021134, 0.10855714976672388, 0.009563303388921581, 0.06039571761639826, 0.011038158776517148, 0.05639758266309062, 0.03203824112067637, 0.08633175812942527, 0.013958917904385344, -0.03966723805197301, 0.03784263409273304, -0.016386401545822507, 0.044752664107919025, -0.08713979303357831, -0.11002654768999398, -0.025256410919111384, 0.05805518226967375, -0.08097403412020733, 0.022811291274540114, -0.039804183796996795, -0.04210650670226997, -0.08786177847262448, 0.10788924015130666, -0.020250651827108668, 0.012686595042159084, -0.006116736948894185, -0.05603940404055537, 0.0038466791757810303, 0.01681678811916842, 0.058932475544206366, 0.03228956199387807, -0.044850875144955955, -0.041176675835966826, -0.008674604031321967, 0.13457919630080822, 0.05006036156890081, -0.1113667621811399, 0.05906326369087106, 0.044669939736764516, -0.09219853675591513, -0.020116003411166636, -0.01461277667270008, -0.021355774086360576, -0.0886502061841306, 0.04099407393882394, 0.020847501208923664, 0.008007672067079228, 0.04616883285173055, -0.014472149608149106, -0.04690280310795868, -0.04454627208039929, 0.005434464109239445, 0.11217100348745444, -0.015536084810307521, -0.04495669065359822, 0.0439055748030278, 0.0050908562923888115, 0.010396951072356149, -0.01839258658156949, -0.04783427281140863, -0.06021769364924241, 0.0082002988087179, 0.06868855663014126, -0.03145245703678162, -0.10079552800153897, -0.011516505410691887, 0.008050992654325656, -0.0403317617414983, 0.047584984190463364, 0.07185926522141158, -0.06766297482825392, -0.008208373631297915, -0.10046268743324939, 0.014668309616048784, -0.13152890634334066, -0.1900767520564308, -0.15250022244785844, 0.05376143080656965, -0.06436509482904755, -0.14420989196465883, -0.026303137786470896, 0.014691877041098998, -0.11658880373979101, 0.09559997473831065, -0.0074675534561381065, 0.050860588831512135, 0.02727962888179447, -0.04727677374829969, -0.0033947978497141174, 4.422453616428099e-05, 0.007304948752420108, -0.05013060659207556, 0.037305287654706774, -0.006143505217574731, -0.038000382723575525, 0.02373056186414428, -0.07483417733926986, 0.04422290290063735, 0.10680304181476917, -0.023245230895333965, 0.06353995166238138, 0.0038409118765521913, 0.061984186744637786, -0.05514143206504019, -0.030400870922334677, -0.04723277462902278, -0.08286036063386336, 0.04200213622287438, 0.034440869345465946, -0.05035259065656705, 0.011844370112311705, -0.0035669101390897523, -0.029208761864304086, -0.04057187022652624, -0.09924721084790508, 0.004549597317602029, 0.04089383302993449, -0.045346397968221555, 0.07156859924465149, 0.01155581472554888, 0.10352304645799303, 0.10383934303677705, 0.00214919079429361, 0.01627420220507888, 0.14141560867048483, -0.03401717606111021, 0.09297743751663982, -0.05775663854741695, 0.13150507647851392, 0.007081140796215288, -0.042780176959021865, -0.05895565205547225, -0.01584881187359853, 0.02898173223920349, -0.09727967340224786, 0.07344409194806995, -0.0825891140776398, -0.16291031409633097, -0.10488732629723768, -0.0166478177718619, 0.08309860641738584, -0.1039138651750011, 0.03350937758700914, 0.18091850222353817, 0.026045347317332972, -0.03513041028254121, 0.03708795204555743, 0.0015146776759097113, -0.018599669276254713, 0.03008155582927076, 0.021962664970883783, 0.015772959039342987, 0.07303945659266815, 0.045936392957495215, 0.07098720801552987, 0.03417545895973745, -0.009107821344141186, 0.14584223751022407, -0.059801493161218786, -0.02358202193335448, 0.04981395258096568, -0.044040660300518286, 0.07812482982210518, -0.027183471685913226, -0.0018133037530127416, 0.038126239591055495, -0.06401207139252202, -0.023399451214682898, -0.0074014128096836765, -0.05222708773300879, 0.012486285634689365, -0.02613640735155623, -0.02482735707471055, -0.00013231999449404434, 0.04536996529506711, 0.04355730135376787, 0.08642115419960085, 0.008243734007226453, 0.025955080964976333, -0.03678881182111508, -0.04688102956822828, -0.10176303139379632, 0.023752586241523575, -0.021802541331502053, -0.006343581491178115, -0.0009726776062887704, 0.015412624513044135, 0.07810652432342384, -0.01237219071696814, 0.06997520330961193, -0.011488909184740008, -0.06960670897743279, -0.005422105104084208, 0.0049882225966359495, -0.01380990439891549, -0.11830322581504774, -0.038535944143944, -0.07958351461261268, -0.04423335778275184, 0.05821792281888052, 0.040280753063214124, -0.05745987062328725, -0.013659974674278395, 0.0902198987035135, 0.19454302387200786, 0.0608741281402144, -0.03756022101290095, 0.09010074346357272, -0.06004535938475081, -0.04977386221863645, 0.059075158190918034, -0.11050652396747175, 0.047380036183428356, 0.05675315160147832, 0.02804213751802793, 0.03856032706446784, 0.020373316455184202, -0.01519424290392053, -0.01623516660429883, -0.051690438274803074, 0.003391919395664148, -0.08523976012189832, -0.040543056665987294, -0.03834285057402854, -0.23485696975887146, -0.10511010410202644, 0.017703637445809182, 0.007241142826654842, -0.008671794102779436, 0.06078575008939921, 0.0012257283240120279, 0.10568233416948945, 0.04372702172873474, -0.0569255529408617, -0.012782420479545122, 0.017346566136772948, -0.039611117425827326, 0.02793335385753599, 0.060125365394399284, -0.13231640202528075, 0.12369393687480704, -0.042525147833113654, 0.06628511342403944, 0.10404488786218667, 0.05989885421863283, 0.018976307479088305, 0.03174347258280272, -0.001789462027407017, 0.11722035653167642, -0.05649210217601407, -0.03891445770818237, -0.0916544032933586, -0.2566551080293679, -0.11792322011997466, 0.03420447014827668, 0.005910936312355886, -0.05533959637992404, 0.04642003378997957, -0.04939577435135431, -0.004108550423040269, -0.020313113474803968, 0.06690138489524584, -0.02568115648401473, -0.03733453130654364, -0.03538593350256448, -0.14910786435063036, -0.058355522319336446, 0.01773719298229659, -0.06593941243271684, 0.011265054687122413, -0.006111438092603936, 0.13248842714713585, 0.16907742426641958, 0.08210069385454614, 0.11421829975623286, 0.042475468787391155, -0.15304225777766708, 0.00878433301615291, -0.003773272902706162, -0.07802187431496521, -0.1248132194457355, -0.13490424970113074, -0.04849802909144056, 0.0045958685304757696, -0.025043029604767397, 0.08674601619759698, -0.029625544820680774, 0.07697628158186512, -0.04131179928858549, 0.029986648604189873, -0.03147409053046598, 0.028455626790547705, -0.05650925462350431, 0.06596492119025836, 0.04737665095679886, -0.11262903191485442, 0.06832135313332321, -0.044647596984340954, 0.12209773788043543, 0.047892463244316355, 0.08502183436618142, 0.1916639681029403, 0.08550763116006797, 0.08195677206958954, 0.20825886587370693, 0.12080029313528193, 0.1474011468484029, -0.04747028681829715, -0.20897471107714521, -0.1581692834742776, -0.1068636651355051, 0.049880427660397415, 0.025203655424206967, -0.026718996985585754, -0.05112434592761579, 0.11108426083299147, 0.05640998566778755, -0.018552595763002205, -0.022739145588842907, -0.05902436347781182, 0.05607456015447386, -0.03523140877484754, 0.005571752933262398, -0.01463108106506578, 0.03834923118742751, 0.03335218506104304, 0.07230552587735743, -0.04571601782205242, 0.08000725358419475, 0.09220440965474194, 0.0293095180861216, 0.06917350311266904, 0.13378457598623078, 0.011158781069543686, -0.015716835877973657, -0.16650461674474754, -0.051230230534825096, -0.10563050300142335, -0.0401849195911072, 0.04138232189720787, 0.014622339036477288, 0.09947705522610265, 0.011804438595464055, 0.07440676023651648, 0.03687238562329564, 0.03899909761848034, -0.05031964119978178, 0.044776229063460495, 0.047473218685177634, 0.025967518230497613, 0.12471267694978805, 0.041695558818888485, -0.1299042839610937, 0.021885168482062362, -0.0005814294380805618, 0.06858637737902219, 0.028759198896643638, 0.10694248641634774, 0.01993764726286579, 0.05845244212993338, -0.07009883022951849, 0.06494241025773592, 0.045274956114167014, -0.008389550810471689, -0.07782726377087805, 0.08457537308499677, -0.032249886931209504, -0.009587596497872677, 0.011170551695630498, 0.048992821605697685, -0.00209320249227648, 0.07415715297866438, 0.08273716358900629, 0.06273872724305742, -0.01810155476333926, 0.09490391166799843, -0.012504048643055248, 0.03584971892502409, -0.0364562579218002, -0.06502855804187148, -0.024320336270395263, -0.05689269690811452, 0.05921690803812605, 0.09414141429154242, 0.0007438780325114901, 0.15188831609533784, 0.0850266970353586, 0.11099443212569876, -0.04671414397500691, 0.05962534371172678, 0.047684223557622175, -0.07778738832054269, -0.1016535412706674, 0.13094332701167236, 0.03334587316733363, -0.09371477986869713, 0.027475393678854907, 0.02426450763346395, -0.027907968011456057, 0.11029163811486367, 0.04129146686175344, 0.06523803024469511, 0.05040026180926904, 0.004943403331103976, 0.0005458920876810837, 0.0320867856940981, -0.09215686675524626, -0.023780607563688775, 0.022684001843591897, 0.02153234742045303, -0.00503475869838021, 0.06132151706524853, 0.0537940173185275, 0.18613723782977248, -0.01590930875216527, 0.02872601355809905, 0.1285516157960664, 0.03287624487338453, 0.0583807818610765, -0.019412723747849824, -0.009023880518160476, -0.029675260684986302, 0.06551583545980083, -0.05218457003784514, -0.058953502362929885, 0.00430179237003375, 0.03749095016917713, 0.09029379367271165, 0.061268605851625114, -0.0486033768581956, 0.059099933955362616, 0.05677822181210734, 0.041203266402041486, 0.007885691724922388, 0.05090743634502996, 0.0032416075567575256, 0.07403914085666033, -0.0373236344712316, -0.002541102965967413, 0.06863298215030342, 0.18900080717587933, 0.015159732574820579, -0.002755689900418989, 0.09775453148178347, -0.04240339689502434, -0.01113098613969778, 0.01250487757738076, -0.12372484737090818, -0.08440195787459598, 0.05878461827641303, 0.01914314945771918, -0.05463408582756861, 0.10714266907706213, -0.024016195319599816, 0.08122443650247226, 0.0021970429784955474, 0.05130214740289078, -0.09178136561008683, -0.13930636634999097, 0.0501793030229609, -0.0351092717477441, -0.07450787043243921, -0.11739131741725393, -0.09902885429775832, -0.008818113525743174, 0.0036988334195687707, 0.11734272396483547, 0.1408063825166736, -0.023460674010437343, -0.06275240963913485, 0.13263730248218372, -0.06344247329866783, -0.13538224047367203, -0.04459272125550054, -0.045328090690880646, -0.08575988355979546, 0.010000587439949497, -0.00915796093049115, 0.002091983015128796, 0.03039176018116092, 0.006567151471193291, 0.009863963371944076, -0.003246507214768025, 0.14966794624687593, -0.09130464835850731, -0.05026610848693196, -0.09362861575290686, -0.05466986607979741, -0.006566664295592685, 0.03092275744729552, 0.036839914628080186, 0.05565668696906744, 0.026517882229946808, -0.005900879884595684, 0.04219648285900492, -0.1324175564334792, -0.02301891587489466, 0.05472365948762672, 0.0008783390152470894, 0.05850448132555858, -0.06437027130554078, -0.07664608533379101, -0.024704952819007926, -0.21369838468350935, 0.00927246193718638, -0.05650733498267929, -0.008591491796117139, 0.07922013296927621, 0.10470080830236951, -0.1261765535292559, 0.03728407604866133, 0.005207123369134585, -0.12844620376039115, 0.053738650068545786, 0.014324411398581035, -0.020055519058507686, -0.05524727527442278, -0.18979290030853235, -0.1184529394581646, -0.0981670216019589, 0.006346542143389753, -0.06628400312386333, 0.08249573273075417, -0.012847481638951374, -0.03766294934605931, 0.0058814751454179465, -0.19394251443745028, -0.003376851196454024, 0.139188625279082, -0.02355347725443691, 0.0024268181760757936, -0.19131779118537082, -0.024297433349306296, 0.051317829400462624, -0.07367096812443108, -0.02290481579295837, -0.00758340435036629, -0.0356714728476349, -0.014333143843728894, -0.02971405554122756, -0.015259685130831032, -0.058657952079751476, -0.03405921442475431, -0.09494984792446275, -0.011513487333231976, -0.2262267240162208, -0.14623842250667074, -0.03397505838466802, -0.014319339740755527, -0.06491774513826497, 0.05088514029977942, -0.028524807051733506, -0.054852860410164496, -0.06980359746933966, 0.020921178369324736, -0.1360485285902728, -0.06018932289297514, 0.0033054897475534024, 0.022227181131043373, -0.10643101098385138, -0.07237098144924826, -0.09194560139155897, 0.001247388232887767, 0.08600721814842477, 0.021347790884800235, 0.02977343919267359, -0.012276368415297341, -0.014836824900538115, 0.030323892125022015, 0.09839639871176359, -0.06972643499940877, -0.16252719584997094, -0.08080171892813141, 0.022895084714674222, 0.09407489857014291, -0.10664787570054546, -0.01926649970846939, -0.10994846889999868, -0.09156109136267827, 0.02026573009157724, 0.0457285647880535, -0.05483515024523858, 0.06562266249414025, -0.09104956156578253, 0.0004971512758122734, 0.021406053810394905, -0.0931238533011255, -0.030714919061661704, -0.10393499507521464, -0.010811703362054118, -0.0811049684379975, 0.11654685496162422, 0.01341256489425632, 0.0994868342713905, -0.0030971387254944563, -0.05981873763707789, -0.024340863661420416, -0.029251038459546415, -0.11326574594117202, -0.08079736102776922, 0.08601304874361895, 0.008640008192511808, -0.05412532516140318, -0.06662777098564455, -0.019397427138793614, -0.045259799686233136, 0.09245758554288741, 0.05339270005478682, -0.06823886170915966, 0.08498637996401667, -0.0934439594816838, -0.10279463057272224, 0.11658499112736935, -0.1457104777919232, -0.127595701175681, -0.01666805281222061, 0.017615088273252328, -0.005966996930190252, 0.15343114066445973, 0.009510269654419529, -0.016592608147115516, -0.026966705569394157, 0.051853862035310234, -0.043395272373417476, -0.08765166398779087, -0.10643412193513951, -0.1403589818251805, 0.14215328496801963, 0.07139660735357778, -0.1487506445424143, 0.03111926787800584, 0.021583266866335295, -0.14022970087887554, 0.006425891883040791, -0.1377683434667941, -0.105743329156799, 0.025384295754395478, -0.00787313532240909, 0.009032353371217317, 0.09715188891481417, -0.026617399518921524, -0.07000284335538981, 0.01657281948944888, -0.02057728303564471, -0.03824789208098308, -0.016496718037215544, -0.00131356826929944, 0.013847006458197536, -0.06927768581898708, -0.022649206370617122, -0.06937875632496536, -0.000319027893691578, 0.04313998999212015, 0.1423751718335862, 0.0554712629640723, 0.0937975049679085, 0.05764330090089481, -0.01323405474253474, -4.113471653399577e-05, -0.03327825933967294, -0.046240857921686786, -0.008912227063348545, -0.03082393601676724, -0.04661960460228296, -0.0908474300553236, -0.11518717494996002, -0.04342855151249047, -0.15819687625608714, -0.10698917268421637, -0.009602937499784471, 0.1898847382056798, 0.17708881012065314, 0.014902102278635065, 0.033225765040331874, -0.003584452260970382, 0.08506284118469339, -0.018561672999448837, -0.04687000309182529, 0.00895557152163628, 0.04124480468873962, 0.06481256106961145, 0.16691007857252443, 0.11687732165566588, 0.04031950511914668, 0.05805433465774115, 0.0330689164732669, -0.04071840949943175, 0.07235041165751162, 0.033338468279760496, 0.05316508680848294, 0.05584720931812515, 0.03357963745238261, 0.15249818788179823, 0.039543659780583905, 0.09075236975098473, 0.0382323894905087, 0.0718970331320107, 0.02185412517607255, -0.006263529469271681, 0.07999326576740534, 0.06578796012053487, 0.059193496612668386, -0.12413243440024145, 0.021781367689285076, 0.00830888380661047, 0.06421025305013654, 0.028596130792363374, -0.0795777470725413, -0.00866471174008343, 0.061412881449979514, 0.017054709283839734, 0.060275899268767794, 0.12806696545288343, 0.06771120836815016, 0.1247963632719401, 0.04204652271197575, 0.07420647211891156, 0.037606915971827276, -0.004929403739346116, 0.08342974445625295, -0.023770494241806127, -0.002604783664562859, 0.1110602713381848, -8.142054314563774e-05, 0.09101310967109545, 0.12619527350864648, 0.08679723067222944, -0.10676566158202708, 0.02199950799338006, 0.03177871511867672, 0.06892360730829299, 0.04732241219164259, 0.00820029690923504, -0.010832405767136205, -0.030408329814537175, -0.12133065776560646, 0.06478038818066882, -0.10233662640007177, -0.0019560010409126125, -0.010777849853589393, 0.044492458824385094, 0.007723522001724435, -0.0077378609077767765, -0.020123523117148677, 0.012758775721669289, 0.059664067724163536, 0.11429254404510711, 0.12717932109447194, 0.1119761058640271, -0.0381363962342525, 0.16843449177259634, 0.09644724175995936, 0.0076825570808087915, 0.06653146154875185, 0.009739415549603116, -0.010551801136579638, 0.05748255501732383, -0.003527170113735988, 0.009044876616604344, -0.049078951589846966], [-0.012530341654865104, -0.07520836045400922, -0.005628174250503348, -0.015714901765942448, -0.06691149444149998, 0.012506914989736731, 0.022454685649670007, -0.08442277830903626, -0.010043912201789866, -0.003889215555116983, 0.03439281740048645, -0.045802259766656805, 0.10554444490250196, -0.05307954461517906, -0.018113110168766, 0.0008297860114270798, -0.02141531560644218, 0.006984452290315468, 0.04552893597671634, 0.038881370382682814, 0.007617032487509953, -0.009362924505670693, -0.07524440007140465, -0.09538165885854374, -0.0007189405266138678, 0.04023296235532175, 0.025681223735189863, -0.015616388454149241, -0.004645961130403662, 0.03772257868984529, -0.005420501858018811, -0.018777525527095714, 0.06091398595346004, -0.0642591461029373, -0.03070141900865558, 0.00225962269030266, -0.04314129406897303, -0.04169219990986271, -0.11204525261843327, 0.014842622058877987, -0.07677243843535189, 0.002096081820697558, -0.13734047634076466, -0.02623737026577715, 0.005341294115631894, 0.060903274989097776, -0.017922795425293177, 0.014251608690863568, -0.07421726131504747, 0.07554394049741611, -0.12312061877780117, -0.002698536513675091, 0.062416018772120066, 0.06775886335413567, 0.007720057115464274, 0.025394682417606614, -0.06386254642420228, 0.09859341464057593, -0.03150943130076072, 0.04961942323746134, -0.061466758877679904, -0.024948379054672967, 0.019763210290364142, 0.007329218142178816, -0.005510849454839123, -0.022316167505831562, 0.08266758343692747, 0.0319701002112692, -0.054952331016386316, -0.0578820681956543, -0.06599184757651978, -0.0782470724421441, -0.04589285713502562, -0.08439613084269897, -0.045115070260208376, -0.047154566054296305, 0.030717966357686446, -0.024602655662840638, -0.005433261440020735, -0.010769458176136983, 0.0012407995709657223, -0.04388200531626051, 0.04116359832551412, -0.11524826560020435, -0.0236295032258691, 0.02018586074676166, 0.0839767908089627, 0.03489796321407071, 0.04672263985073437, -0.03270743204527853, -0.011548386263372103, -0.053046546172982816, 0.02627259436247118, -0.11141865387468694, -0.13257784482093835, -0.16581921783528578, 0.13079412895678166, 0.04289352997663151, -0.018286697928903133, 0.006324030473010189, -0.05333547177631256, -0.06793968416970339, 0.09860683690049996, 0.008071828465429164, 0.04567610700465407, -0.0017124018799775558, 0.1134633637243676, -0.01798175975427633, 0.01704056932559069, 0.00921345010942787, -0.013709778909624468, -0.011762252104145419, -0.006925498099113199, 0.02591635022128139, 0.015990438477355526, -0.13283068955257613, -0.012171401698388377, -0.06726633663323041, 0.11402393167427531, 0.004973746487237621, 0.05856572370364292, -0.0035131579902480657, 0.11719289681261685, 0.10670880438726599, -0.040829884697385944, 0.01298626085653488, 0.10010686029608347, 0.09649094611032148, -0.013650194559582333, -0.01574799260879277, 0.2025804501603777, 0.11710037129840044, -0.006331892950321357, 0.09877350940179057, 0.03169674438534544, -0.019563032730142836, -0.032339591350013255, -0.0025838985957148913, 0.0029826895804813945, -0.034305301540257016, 0.021633021833212345, 0.009591218328438154, -0.08703338691637957, -0.07707015808557634, -0.031207892243980274, 0.02498353977713424, -0.13982118269745636, 0.10516680461132577, -0.0217100179359667, -0.11226670676535785, 0.03835730654228817, -0.04881037072780133, -0.011450000127584037, 0.14894688567901035, -0.07285571889202748, -0.06716321512434174, 0.064256559364405, 0.052525674973392535, 0.09961606347741776, -0.07823302669341925, -0.002395196143071249, -0.01891593465135929, 0.11272381142375626, -0.05120470231177932, -0.013855469599281358, -0.01821392148426289, 0.06505516062772232, -0.10500354601315103, -0.022640175715237083, -0.05249681740004383, -0.03794608811812962, 0.04943070162167316, -0.02739552648327387, -0.053378269280338037, 0.06432941462771187, 0.0011297939284299484, 0.1153626305497425, 0.10837402436388846, 0.041867320732743844, 0.10718899227518909, 0.04456644486809173, 0.04717930763465622, -0.10156079164216711, 0.0029677708488859327, 0.016009145902675177, -0.1311834912891099, -0.011955820549921814, -0.00019238591813806104, 0.0599404244266903, -0.048705842105324755, 0.11817568283505055, -0.060161555128897905, 0.09216015533320325, 0.08741207757044991, 0.004415427176401796, 0.008819200181894452, -0.007032937911049063, -0.015264991574845446, -0.01390917257863644, 0.03917491396245009, -0.012821193911334499, -0.07974001645949243, -0.01219388312417208, -0.007438723207502692, -0.09474226241484993, -0.021400841006059487, -0.0222244494751261, 0.014847632471774307, 0.02336850777972887, -0.0008013469838577485, 0.10999510719584776, -0.06977734947552557, 0.0715677985844697, 0.09109148332760209, 0.10732155178795696, -0.07786677934889008, 0.14947527641737038, -0.08255314686986491, -0.05126177274423084, 0.019920584876302903, -0.014886169529396122, 0.060157419226358574, -0.028822787548515257, 0.017940134773109722, 0.011576852509530637, -0.08268917776255734, -0.04704533011456911, -0.07709387297643563, 0.09579395795261178, 0.013837521636870288, 0.07322459845123092, 0.01433097217896641, -0.020472484317539848, 0.06439303647744307, -0.042390991951514884, 0.04824469279083247, 0.0924471932037848, 0.04454580287568473, 0.0888095181404262, -0.029062005039602084, 0.016721266924278833, 0.10320515875838542, -0.01428517214436826, -0.007525340596484066, 0.16269576169046146, 0.021193874867425234, 0.003707504821889053, 0.10384096425144676, 0.04078474283894045, 0.11463229154589855, -0.05407463133928452, -0.059552157394847455, -0.002173315940299082, -0.004468835618138767, 0.0832759270029372, 0.04449331918048038, 0.11210736595687662, 0.05818311555608021, -0.066684192948295, -0.04927703851123904, 0.001152338001648003, 0.037257607129505356, -0.13719819313717457, 0.0038230577900990157, -0.02100798766122951, 0.03349716992366847, -0.037391204440034936, 0.04471568459511164, 0.05203008330634731, -0.07044704962566493, 0.020165925618472014, -0.04787210051227986, -0.00021725397073072252, 0.03573474565947631, 0.06649171018887517, -0.004594840691218471, -0.062202810534722576, 0.08119578821844899, 0.05719890636044116, -0.05235605387800373, -0.02178617189419842, -0.06976885583085309, 0.08451522106675646, 6.914225642565883e-05, 0.018439349893395744, -0.02741751546174934, -0.026254222898133953, -0.003742939042142674, -0.0812757442702783, -0.004415651017648532, -0.13018489908183353, -0.007578840606481246, -0.139844891912071, 0.02477108930843009, -0.17572073598964633, -0.10421594142697616, -0.18047885708683947, -0.2181908016257885, -0.0678704323978991, -0.21300747646779905, -0.15530240064306103, -0.0038915280929249165, -0.10868271494006855, -0.16331615104857392, -0.1363072430928091, -0.03897873704877018, 0.0419731941678738, 0.014075643174511787, 0.024513820507235252, -0.06686065529100486, 0.006727124186382771, 0.038883171342659575, -0.12118571779918963, -0.04554810487642229, 0.12184191349787528, 0.0035337174340355076, -0.14208367490444315, 0.027089512787221832, -0.049706877038027536, 0.05287601708195852, -0.062148432712032714, 0.1517172064010831, 0.180918594504943, 0.04621829206265671, 0.12613949757408535, -0.06435982106610305, 0.023401428643946474, -0.09037982528314847, -0.17281483871228812, -0.2453706874267014, -0.2973423199644561, -0.1256108855095293, -0.11576320770273181, -0.04586516141531933, 0.07289886281568024, -0.06870257367755975, 0.09277618189350757, -0.03265246956079267, 0.004002834490378389, 0.04861832595709882, -0.1979881015723707, 0.06612313591190792, -0.12238599844152208, 0.04864254103947865, 0.04618304951430104, -0.04867176592258666, 0.012085038659457594, -0.051001023075681114, 0.03972122272271968, 0.10666172215268832, -0.044892070915364214, 0.020122749272736006, 0.041628156563187975, 0.10278269747603379, 0.03365969288696884, 0.043991283974238016, -0.07596278403524755, -0.17422714205014492, -0.15778160903980692, -0.2324627327299304, -0.09535911616195257, 0.011590847775557717, 0.019024249652358605, 0.07129530515869947, -0.06851594978550364, -0.031722471494630776, -0.05090578163567091, -0.014341737051942808, 0.0711080765815858, 0.07167281735503603, 0.08697851562324008, -0.06155439006444427, 0.058151946694627914, 0.06699219415880805, 0.02323436355221839, -0.008365656271659765, 0.11188263036701672, 0.040946775998712805, 0.09159015146456496, 0.02869408013814092, -0.06105842566675955, -0.04595257110365697, 0.058460454255395825, -0.10812812263588323, -0.009331169571698897, -0.09876143367993614, -0.18936347164321785, -0.06519730319608913, -0.1138147870834208, -0.08418934362550773, 0.018037381696529346, -0.04470222517440646, -0.05250135699202677, 0.04989389380129931, -0.04678809041059919, 0.05277142593181072, -0.06152093924647063, -0.18836209273447008, 0.03894051538409524, -0.07188371992066765, -0.07854350327434365, 0.034248509714839205, -0.037515783624841856, -0.014905530863200038, 0.0017342851128302255, 0.03657063658883368, -0.14130218236024145, 0.07576311411356398, -0.006972969687024326, 0.008241561705022198, -0.012840029277345663, -0.08682792362070418, -0.003236263504819573, -0.024785606043108387, 0.02754207372246801, 0.010045881506851973, -0.01945230616893443, -0.12983043253644194, -0.04772894580550703, 0.029396603049885558, -0.02464075306016381, 0.04484147662151499, 0.04049543075459343, 0.005985712601183702, -0.15306846649343991, -0.22317876488099853, -0.08418380932332037, -0.17425801436819927, -0.02595353142142532, 0.04132260863645517, -0.06168529378646375, 0.06499919939799884, -0.0005283822341212924, 0.03153525236584097, 0.034067328694011446, 0.013386272414502349, 0.02497427234254716, -0.08181700832762236, -0.11931117130469367, -0.011417105069817109, 0.1533984764111653, 0.06339637398775815, 0.011167467414969273, 0.051581856769143467, 0.01663386711567472, -0.042268817610473235, 0.021227783268456858, -0.0909973156669678, 0.0019805375037329504, -0.05358066011921983, 0.07037487632666654, 0.06364177531577293, 0.08960081936941296, -0.1527913574368656, -0.09860954902125113, 0.01982331918731741, -0.07412019375939774, -0.04086347554023589, -0.09856132985913538, 0.07671023051189078, 0.13471636442122462, 0.06099139725104141, -0.009625734672405194, -0.10742395726420007, -0.1530229316114903, -0.03354169589286419, 0.005992795739184465, 0.22389657647108635, 0.022661347229667773, 0.09233371963408706, 0.10644462976907694, 0.036370480412810734, 0.010985489837101651, -0.03174994670136786, 0.03557191623018665, 0.03850156665900771, 0.008480383378547115, -0.010059955829174443, 0.11849190319279798, 0.2794789412775541, 0.09769958578647714, 0.041865762081307704, -0.09289710376514594, -0.2005102950333943, -0.26083756337876923, -0.3326793848402855, -0.28355896681340076, -0.25260391888372147, -0.00594949921942077, -0.10399997394273207, -0.24923545300131617, -0.018531524619936564, -0.0048767463204682365, 0.024874959791972934, 0.033685255094071456, 0.10340244733342041, -0.08561347870935766, -0.03645841656422078, 0.10463134434904718, 0.004605460098203861, -0.09900054311350082, -0.04127646079682479, -0.02372410757002885, -0.011476490773528919, -0.0445786833170321, 0.03888026605323807, -0.010600413511750976, 0.19872664372243828, 0.25097970745330683, 0.13718041990352348, 0.00030839167312094536, 0.006823311948708268, 0.06388455930277848, -0.26655282337210046, -0.2611142719356635, -0.5365441422745796, -0.4714810508662809, -0.2244427382412062, -0.10622595974300328, 0.05273489718682882, 0.11297873071480523, 0.12537386743970488, 0.10031448294550052, -0.01432396150917604, 0.12866069362918858, 0.08859776058372339, 0.010164508998478467, 0.0026508412434113173, 0.04214277907745507, -0.03708172840437719, -0.008876447164317845, -0.06529211373280597, -0.006953003210336101, 0.03423542067491389, -0.023364277339500316, 0.12313749947035231, 0.09794239259133108, -0.041717451638013624, 0.0008842151136350331, -0.08850097949404521, 0.11234125805287642, -0.07635602292150084, 0.11204069857395521, 0.05854034724185899, -0.07149807039010445, 0.18952034476770438, -0.028700731909460545, -0.07972257059273032, 0.01628951824907573, -0.09823400218759114, 0.049585617372900605, 0.06878024980064074, 0.07357803448917523, -0.0632480422405016, -0.05285000271401478, -0.03317069986019366, -0.009528248644288168, 0.04257193383655864, 0.06130739591958344, -0.08930879156552697, -0.04317583221353933, -0.019203738349243906, -0.07016948388096728, 0.11718604146075982, 0.031762725398136855, 0.06212774289502827, 0.047189805520657525, 0.05240077524884033, 0.035453588145565, 0.0964701529386648, -0.09244073990197232, 0.10228750977598498, -0.006438996913487681, -0.107152462918212, 0.046313813680432976, 0.04238268639351136, 0.03665243534367835, 0.010015102095450711, 0.006804068774497066, -0.1000706727491527, 0.03399985616439799, 0.07752910862740658, 0.09610416244875322, -0.07038713454084305, -0.04800860479280566, -0.08578269035497822, -0.005279540561274692, -0.005548795121417604, 0.03799000173159536, 0.010498547256300573, -0.04602319787958171, 0.013798442699722987, 0.01656084448677217, -0.0279297282423462, 0.1501248249237686, -0.005551514234524986, 0.05809340696401273, -0.008836780887321209, 0.002666138177071624, 0.0033793450312040747, 0.02190815681316558, -0.02546939815213352, 0.0367072840422848, 0.03954772859813913, 0.019028182891428956, -0.07326341491048974, 0.03146269968315395, -0.05165568285820672, 0.028150249390713006, 0.04033917472288659, 0.016480642094690474, 0.015706870107146654, -0.12924480192770457, -0.05390314677932146, 0.08879561681225195, -0.03423970631129009, -0.0356783148392087, 0.030887653447367314, 0.0023048342987973544, 0.005439449447178714, 0.06726917170445465, -0.1267729776728364, 0.02151382412793546, -0.07614967581163569, 0.04783014259650307, 0.05250661834406088, -0.037009632361898595, 0.0662838458915684, 0.01736598174995349, 0.048308392891335726, -0.015088277425055273, 0.07764866305481573, 0.02147804791934418, -0.03517280867285749, -0.016850914011642175, -0.03378855550122117, -0.02420637565923576, 0.0507508015819204, 0.00301450167389989, 0.037877439899843594, -0.0056628880120861876, 0.0824215253382764, -0.07384085304231605, -0.046918005489307794, 0.07412160655381847, 0.016478596271635098, -0.02111332631891964, -0.0005139048107963072, 0.1374833150723243, 0.06152555250320192, 0.1621946184155321, -0.06968652408000481, -0.06591590645433698, 0.13358906830401596, 0.03479698530345394, 0.10453482363510842, -0.0026760223436607306, -0.03704540040486529, 0.014350514108130279, 0.007936390363180956, 0.0162481456638643, 0.09333754011302799, -0.0005110263434586924, -0.05159502912924524, 0.04241530517754076, 0.03652099143160307, -0.018630567842090887, -0.00820472624121283, 0.017583028751690592, 0.10548231522656426, -0.022005419533948162, -0.03364233126463393, -0.027184621406875498, 0.08533013766994074, -0.007687834614932167, 0.06805807802078227, 0.10575587666369793, 0.26988537898751763, 0.20342506433713378, 0.22387694969875183, 0.17998733935641803, 0.12971671842994165, -0.007207161748815711, -0.02129527714925259, 0.15691158039717887, 0.06052606568705376, 0.07541331837030701, -0.08560605819358331, -0.07503062355621645, -0.04364803323123311, 0.010719035885562039, 0.009802566898325716, 0.056935178230938695, -0.010834948537478638, 0.00905230137295057, -0.041364347725426735, -0.011540326188026457, -0.03316816130761596, -0.018782789306978943, -0.0018153395690667273, -0.050801701556896575, 0.03593906508417873, 0.011141470205727033, 0.01565790266368115, 0.00810000398089613, 0.044224923860739916, 0.1740329729959802, 0.07157922488664344, 0.1821691217465578, 0.10005672416116945, 0.1753941547081332, 0.07360468249606619, 0.0326487192996279, 0.03923803682719374, -0.13043128191701298, -0.044631011121768344, 0.06728296310504005, -0.07674161092280653, -0.09531333871945873, -0.09109661973866752, -0.06115039553729522, 0.0022198521884239835, -0.10027820371271112, -3.4845083303101324e-07, -0.012890262431734875, -0.05220016899591786, 0.006839729001271576, 0.01805948060163454, -0.004784516652961598, -0.06355645078616713, 0.026188643415064387, 0.02301725812726806, -0.0055098066023753015, 0.01805135536308216, 0.0016182407235222776, -0.009544024465459558, -0.0760994232696981, -0.07042801724098348, -0.04906364421438056, -0.11180008726160583, -0.1541233884383299, -0.06540949020640598, -0.052786310248119424, 0.08676316625674277, -0.03820327831966713, -0.04176140928067038, -0.07022989131049609, -0.022889050427517942, -0.05736561397837466, 0.0005202557212312008, 0.019084694465250813, -0.030667752903413024, -0.005960533976663733, 0.03814539216947073, -0.05807761032285162, -0.0034160230672857185, -0.08696383316064522, 0.043257529001914236, -0.018762046503067103, -0.04075760019853836, 0.11375640686972402, -0.0030546398489245674, -0.015794540757219894, 0.00823425221573189, 0.10287871265845637, 0.03841341474330087, 0.07210162020396237, -0.007100649901010192, -0.006027131331617487, -0.047237924160897095, 0.01752890400159424, -0.018933889342353325, 0.09502297251328592, -0.014210457681893511, 0.008371420871172135, 0.06935739647877907, 0.0648178266989887, 0.02603969669579192, 0.016637622411840382, 0.014982727670386256, 0.11515820399529021, -0.021894645405346268, 0.03812274272457747, 0.03737080552918692], [0.013618572913884817, 0.11333292975041782, 0.0006325069603215555, -0.02856285747158382, -0.03772437681785245, 0.004977656124009668, 0.021694071790724648, -0.04128197805926542, 0.10602822316748375, -0.015481576529522192, -0.006352680294991936, 0.04915645037545269, -0.007573527111362084, 0.03083062432788817, -0.07308616142564824, -0.015546753906715867, -0.07526652178177591, -0.03856369875002577, 0.038192872559664526, -0.05641821873033823, 0.069534429861731, 0.04714507292981893, -0.057740764009824336, 0.005395908370754074, 0.04758455629085649, -0.04098893497299446, -0.02788798589418571, -0.04483744977728439, 0.01960548062843863, -0.01998224199431749, -0.029450340501778884, 0.07699254350562272, -0.028022648012516513, -3.3743690070376565e-05, 0.059567624109608384, -0.018820862641743506, -0.05361520484409218, 0.022619201727180772, 0.05227429142385154, -0.045504945425372416, -0.07502714622156054, 0.0014348482225884705, 0.05726870762369631, 0.0644248304621365, -0.06577416212154283, 0.11940967940446374, -0.023502541455806686, 0.07823705460935909, 0.030110613565430305, 0.04626691885206527, -0.014123278157316885, -0.06564036460972396, 0.04582958167185207, -0.043552907324341306, -0.09043761740908916, -0.018311785445563993, 0.01859016939206549, -0.06523636915084399, -0.06994093697361563, -0.055415254931435814, 0.05804260577438303, 0.04763261809183408, -0.023024353802339907, 0.06410645535630963, 0.05743188189514598, -0.02427175989403825, -0.0001627044095193546, -0.0091293209204847, -0.017145287342330697, -0.033651681374899656, 0.004885263373586757, 0.025864908318160986, 0.04910543434125307, 0.0692433305967315, -0.04563910911513005, 0.023843296511831504, 0.008966462413577656, 0.02481916851299279, -0.009622455727375762, -0.006262422057891744, 0.02504517170188788, -0.055400652454852296, 0.022139174319906123, 0.04410082917683104, -0.009785894453651547, 0.01411115846744125, -0.02421749335522784, -0.0680279128190566, 0.05039851349702508, 0.00377294465431184, -0.020979161489139603, 0.006700470540471218, 0.011249268537524587, -0.007484477240415113, -0.007820322789631776, -0.05412542952117528, -0.02526647239948907, 0.06188865994200206, -0.05716734413255334, 0.03142345697086474, 0.020616881294351425, -0.006770453800307962, 0.03953961565996749, 0.10966810816519429, 0.12146156045516128, -0.023682717113171523, -0.007797266189815147, 0.008056189357270906, 0.037609241202464345, -0.018674771683972406, -0.002365300102439793, -0.056288679115380484, 0.06609502577839652, -0.09818276961052742, -0.0011999690212421879, -0.035190346408344356, -0.08631835303568447, -0.049992337234708535, 0.04275203887811854, -0.05343581795853103, -0.09593387829127861, -0.023789037712404884, -0.06387080005373295, -0.12151083148058682, -0.14580323774010523, -0.10261236161361555, -0.13746469229886915, 0.09151900042803443, 0.13160718219133488, 0.07949300291497513, 0.1152148015383528, 0.019483451828628963, 0.1191874926797051, -0.07185195059123357, 0.059029025593307964, -0.04892427807892397, -0.05112606293321509, -0.00819264953605681, 0.0038067027983055483, -0.09830044896292087, -0.007046616672010632, 0.018532709233824718, 0.02242970776342938, 0.021145616757927265, 0.0329421905899797, -0.0279756986374237, -0.054320596475826696, -0.10537670995177864, -0.0562068098974567, 0.04975248390021653, 0.020756833364957074, -0.029209002581703423, -0.12581140044330635, -0.07789167608002388, -0.060903950948776715, -0.05734376657163129, -0.020338676978819963, -0.09558175602748423, -0.10332078629282034, 0.04388314698933411, -0.11547823095479186, -0.08076348507810813, 0.0008442993175201158, -0.0028223209329856715, 0.0016907814658383212, 0.00180747065469252, -0.035147147002706935, 0.04040820950767726, -0.01875402794578138, -0.027817438420126177, -0.10925593519327192, -0.04856729204292716, 0.04263493645242964, 0.011699595104244684, 0.0062419831892057956, 0.03763810149597883, 0.13938992465818265, 0.03937308725610243, -0.019705994082076767, 0.04909752514857158, 0.06991370452084435, -0.09352574858590247, 0.06825985884684295, 0.04175907727339635, 0.044136257735496294, 0.016202283220628066, -0.029033881154761434, 0.028412945215414015, 0.016050328398418662, 0.01378439563662818, -0.05796776051756044, -0.031200212230500745, -0.13153952021994084, -0.06847497472156004, -0.01265759984628598, -0.0587244584736313, 0.11528966495819376, 0.06323566019204768, -0.035193041700308896, 0.03835883199466341, 0.1631420570151076, -0.02438174843845128, -0.05549504508641003, 0.1393567382763152, -0.041664266151927865, -0.032610476921014424, 0.057899988241788894, -0.039591863304192, 0.04599140329659021, -0.02366266070188762, -0.040246947554347205, 0.04093899498743249, 0.03282450606538301, 0.05182637863157024, 0.028156782943108145, 0.011690405985960469, 0.06391507830512663, 0.07238839280698307, -0.031135214230783498, -0.0963685848973601, -0.0739210149867575, -0.1481849633999166, -0.041666034396167666, -0.08409545683273184, -0.0322411394886003, 0.04049685144241052, -0.010084289760522528, -0.011328547917875775, -0.002068642300530279, -0.09558758127341198, -0.06823178922200403, 0.021004134996232406, -0.03308065061317759, 0.050391489037713, 0.05612247797051673, 0.1144840540635906, 0.034006682563701644, 0.15300270774603308, 0.1027184912275562, 0.17236443444604108, 0.03924086528725381, 0.10623599543952743, -0.01606509205360963, 0.06427108470040574, 0.028951569476644734, -0.05512220572741365, -0.018210817318447748, -0.05231420342631688, -0.11766130472753702, -0.01938175508491915, 0.04050840833146018, 0.0286176231372392, -0.027509557307529, -0.07349113559796905, -0.01836665751827939, -0.005748291965878552, 0.09904430932006784, 0.0001178034531368209, 0.04000220600705344, -0.022007288713289115, 0.04457069800857053, -0.07670249869761396, 0.08723413583412411, -0.10584210063266357, -0.07608078919580828, -0.03918331374600207, 0.03499956498926222, 0.08275439071421917, -0.010482784288904961, -0.07029493910583826, -0.009254299034619506, -0.06679838432736587, -0.12436632971419385, -0.06832799693551593, 0.0197516504520074, -0.07739159789908776, 0.004385468457953814, -0.002312870016003365, -0.0747103186852698, -0.10033871506831661, -0.02482140263300547, 0.006141023567102381, -0.03392865826261608, -0.05840516314935459, -0.00909371175251706, 0.024634396902244636, -0.03932987509021673, 0.04848658276086346, -0.08669594262700867, -0.03407467169912339, -0.020130105013988174, 0.07615946819584064, -0.2090914420016204, 0.16303730317306786, -0.15506575568543643, -0.10062520972042861, 0.0166679801143616, -0.1107638959141935, -0.05454887815707152, -0.07486838988181836, 0.031571739167361654, 0.01202021014744598, -0.07107624960246532, -0.12483208330184947, -0.06518239985539848, -0.018748883221852024, 0.0069001567520293626, 0.021923673441585318, -0.10248903671923577, -0.07354057769001682, 0.005110908219335228, 0.053078702839789146, 0.04635884117987508, -0.0879888590975521, -0.0255334318324901, -0.024724730071886816, 0.03912675276517981, -0.011995421285449332, -0.05990275668184362, 0.003666212592872432, -0.10186226083914798, -0.011428475405325439, 0.13533836537209967, 0.12924966852459074, -0.012058348495862526, 0.08911668954286753, 0.06771099679734251, -0.03421219797248759, -0.001255323213803177, 0.02729058661657356, 0.012966192812859321, 0.025438933029115426, -0.028231465470096997, -0.07224757686227687, -0.030903726419140937, -0.013969746670385945, -0.022639502888354847, 0.07117939893668887, 0.06058528008470922, 0.022789569851670292, 0.0047595794422335925, -0.02584101874871356, -0.0073264077882314775, 0.02082281801168637, 0.03784287992577241, -0.03857425542229202, 0.03206804364007286, -0.13217872067434785, -0.12541473464295702, -0.14178327028259105, -0.03063725027759966, 0.005999974969691834, 0.04666639369018595, 0.061863226295722426, 0.01650286405764797, -0.11825358790337312, -0.04184216627078822, 0.020379163572505545, 0.06369785971879655, -0.037272764583669724, -0.04563476535048815, 0.029604746033122364, -0.0006835020104430625, -0.024334589683133807, 0.04449937468628582, -0.045646086157080094, 0.037351545461013644, -0.017574204671889932, -0.011623419807087974, -0.0030198249531742214, -0.03512657739225206, -0.021872627446945077, -0.018084885095166182, -0.04794216015235747, -0.08262841206393566, -0.07337568723111956, -0.000378925264348874, -0.07616685709293174, -0.04168550064216386, -0.0010672476697915529, 0.0721390516044, -0.07135812738167291, 0.008947456735411148, 0.03572679895744652, -0.13246847787525934, -0.12256043003838399, -0.02159601491026686, 0.06801320077334767, -0.0025806327368292246, 0.02541442035433906, -0.026545254167548344, 0.0215234510246229, 0.012169269451461231, -0.00106485577442831, -0.09576351998136187, 0.018573133115633293, -0.04975142162587475, -0.02081374623665154, -0.00528895789855572, 0.036194440438981686, -0.05382985271484393, -0.13409232535376034, -0.21045027985968057, 0.030731845050398904, -0.08067307253675898, -0.1394287850435813, 0.02259225422348907, -0.05130215032230796, 0.06210829832535363, -0.0030873099410096486, 0.007356701730827396, 0.09905166024916755, 0.05633581195886257, -0.04042189728940315, 0.03005196629775314, 0.04205908110828112, 0.04962273870354123, 0.1543413769639013, -0.03084365433892711, 0.08662453722478265, -0.00205265292982971, 0.07628458743316006, -0.01199201714806584, -0.0381422927364286, -0.10842440113506852, 0.04271850010923109, -0.007969539758052195, -0.15770663456559247, -0.12226524748062474, -0.08867360349090896, -0.06387963651645358, 0.05443216959185579, 0.008789193194958234, -0.046400215816265904, 0.0531828008245068, 0.03223256606448581, 0.0488098608870444, 0.08434992459553191, 0.05427509341847145, -0.032587190984999154, 0.04097281491865451, 0.0907019241935084, 0.19249561189030073, 0.03640882447741936, 0.009621193883446316, -0.03283393282763238, 0.023852120499692434, 0.002159604575279333, 0.011812580683429028, -0.04335633492177143, 0.009746889016211143, 0.004096087916688246, -0.04996305590104941, 0.06685223061488382, 0.005777882901393373, 0.047177757295237904, -0.07540847800859726, 0.028251435496204076, -0.030310163121890218, 0.07409883338579397, -0.005342419582638501, -0.08448991121567222, -0.03299321787039247, -0.11564299921361045, -0.018558149970762217, -0.004883434760694962, 0.07053015810308684, -0.03633030310166045, 0.04418529413387382, 0.018463833401140835, -0.12718969134228947, 0.0665622086200145, -0.10682522490981333, -0.05273113819719732, -0.01940231373910089, -0.02761171305850701, 0.004495157086545941, 0.018396471154601152, 0.09064211225434415, 0.10516330052949112, 0.03698279636451804, -0.010502906422400711, 0.01606696972332611, 0.008871997688182446, -0.05935217184881483, -0.17869065721063337, -0.02556772339185339, 0.02272456122871988, 0.0014677155210622514, 0.06186613127144677, -0.015006254898217749, 0.04177214079166248, 0.059118412085337885, -0.019954410693202685, -0.006691916000077494, 0.0404243229021778, 0.026880447457595855, 0.07419737880267335, 0.08227165273633005, -0.13422834503093375, -0.09722686220107754, 0.005686140721579307, -0.028545142346617793, -0.05425615334989012, 0.023897433672537247, -0.011074894284215866, 0.11236435763258282, -0.13301654494612186, 0.030742392324944842, -0.09834612624437772, -0.17499282993793897, -0.09317211036761595, -0.052689254825449075, -0.05044693893844292, 0.05731620715810902, 0.011029369296712992, -0.01703118508687548, -0.081116027891189, 0.05351231609486084, 0.08431143833607808, -0.08057930226029868, 0.029933496587999972, 0.0008116929311628162, -0.026274148835199573, -0.04581881716698805, 0.08386515058307181, -0.047410498392991225, -0.04229019871949185, -0.024786440406478618, -0.005737013563330825, 0.009641791963698609, 0.040256366606835785, -0.05011816471948519, -0.10101068700420454, -0.039833441678862394, -0.11103327740419308, 0.054392883313812576, 0.006622329968299062, -0.023376475498737066, -0.08588348821547083, -0.1714295058160324, -0.03921108492839564, -0.007977978906942833, -0.05484151009219186, 0.1334311806006832, 0.04229473498423521, -0.1161004668537312, 0.0352567692929326, -0.01805584445506067, 0.007026612516007228, 0.042044967795094965, -0.02308145295707856, 0.025514726644614735, -0.032255336903647236, -0.04471342508744982, -0.06628784373892552, -0.09863917350167066, -0.03092807021962664, 0.04089590856294853, -0.06091430399975701, -0.025958619665288164, 0.007174010740193413, 0.030294040410307362, -0.036311174142579165, -0.11009917136717089, 0.029863770024316717, -0.06156634842330493, -0.030086610581106628, -0.07904086400269034, -0.046528722282266906, 0.060689221314339105, -0.033817085383062544, -0.02824128164553522, -0.04354378993870615, -0.07171207845624074, 0.013519920342026212, -0.07103096739242254, -0.11152231652169187, -0.101256021460325, 0.009222527301087287, -0.076329992466785, -0.01579516983859042, -0.1489469691259185, -0.06361333469810582, -0.08533032858302302, 0.05958962957841337, -0.068936785745056, -0.016830384924117932, 0.06738953401594479, -0.047469182281568344, -0.03212066530751832, -0.024618476096675293, -0.008282017280826618, -0.012384814602704096, -0.13159485155106626, 0.07879053401373406, -0.05239233458924116, 0.0084965037434146, -0.0006653096843754395, 0.0822886202807694, 0.026157178143333248, 0.05442330380648088, 0.04325857667337959, 0.005692087637815609, 0.008779334888068938, -0.10113583016048071, -0.051853769866421255, -0.09284791879917995, -0.029275427494865273, -0.1009608620306763, 0.053123353858804054, -0.08905734981000106, -0.15166652766549896, -0.05111828875748822, -0.09440359654024724, -0.025748885372719528, -0.010353152674675023, -0.08604332777095736, 0.02819422548510289, 0.04883784126118638, -0.015576205347758772, 0.006900333287007028, -0.06267089674633908, -0.08215777326676921, -0.05000777796898919, -0.028481448457626714, -0.08873293845852989, -0.008989639036058553, 0.04262818993955699, 0.05069902107321328, -0.0012845679361191671, 0.011584592716744746, 0.014387383319428501, -0.01695387948344146, -0.11538119477760005, -0.15544741923048636, -0.0639197271000778, -0.0611769802090069, -0.10833743285161063, -0.04074334068534233, 0.09345851490440149, -0.0027848329792745713, -0.052046589113453036, -0.006804034466608155, -0.07928930396888895, -0.038210502678425656, -0.026444396788874735, -0.020683617022863962, -0.03211966934985878, -0.04884995456987931, 0.06162854660361987, 0.043243346126776466, 0.07629270020984338, -0.04176431387974265, 0.06224833869471465, -0.10199899919326165, -0.10018969265785754, -0.007895909063217358, -0.03763285522943995, -0.11212021468111179, 0.013287737291840792, -0.05200702796432823, -0.027314469557883202, -0.06647687602569996, -0.05724719877229193, 0.016718759832045092, -0.13304331731751587, 0.014721389928489408, -0.03332620541587156, 0.048992485113742684, 0.06838048851109917, 0.030037095739569617, -0.038968705610210624, 0.05829631766130022, -0.006996427273152272, 0.05084099900175592, 0.08302914997183651, 0.07157573279084722, 0.04406363735368364, 0.030857933657618523, 0.005397710433517925, -0.01715960190035354, 0.01487625756524303, 0.16348014943143666, -0.004968512992564036, -0.023925126651611908, 0.0020391074830422517, 0.06313833436964902, -0.032393880250519626, 0.026895801063258007, -0.009838232642615588, 0.04846270240556147, -0.07603562935131604, -0.04824988034523351, -0.004489148398227926, 0.030630578773452714, -0.013946878760289891, 0.006746780798753501, 0.059862011239021615, -0.004666862897182654, 0.08977217003502813, -0.09559513528563982, -0.10052123415181606, -0.01777472065188987, 0.11642869455956939, 0.04983622503303323, -0.0646022868426138, 0.023592623088814352, 0.10005906318190448, -0.012654940556423166, -0.045432905773939165, -0.029994349229301148, 0.013788783304713637, -0.00994446476425266, 0.10432749805194823, 0.014664206599952946, 0.015960361087903666, 0.1093732694817939, -0.023530282748467714, 0.04008739224719464, -0.07997213241299778, 0.056970078985051395, 0.047193224667217974, -0.08406975937209867, -0.007090829820516186, 0.06108114847750321, -0.09842941460326358, -0.025755976891455777, -0.036995556163977046, 0.005184746884552619, 0.05979030883810354, -0.01850242993274297, -0.03984123323993618, 0.05113914031108784, 0.0670897460516132, -0.013176093027182062, -0.010958315681713798, -0.017054463556721335, 0.05800717406144431, 0.02339554562318613, -0.0410072371080126, 0.006832428044540425, 0.010952956908703607, -0.028333949789531878, 0.035507285227930625, 0.01587962812345924, 0.020055058760353083, 0.07744572484682793, -0.039648674264982635, -0.03808574417552229, -0.011529982520604673, -0.00837106402724746, 0.046209602639372065, 0.06141844280287544, 0.0020534615917874783, -0.009623189512619902, -0.007787823513920931, 0.03209329606898572, 0.08281288949403776, 0.0979444477033728, -0.042018306204432664, 0.06817505618452425, -0.02283946444175926, 0.07042877991259125, 0.011829434642480336, -0.018193050678575056, 0.0938393081398329, 0.020474103123925416, 0.13861249630589215, 0.041265381928655344, 0.09418717127469158, 0.12613743065807992, 0.0030433701264003356, 0.08312032287127855, 0.0025795797599495614, -0.020164443543727102, -0.05938814069002008, -0.04101104096789694, 0.04788390716554283, 0.05811524833417566, 0.002034097271699602, -0.0008055728206683346, 4.700787859239392e-06, -0.06743800499360109], [0.023367502205017893, 0.09144366120283107, 0.04070905702100684, 0.03286986189969962, 0.006925462573287626, 0.010984104377835736, -0.08009843514723872, -0.003002215475029122, 0.061662735687192376, 0.08400459137370798, -0.020672861631734346, 0.019130037559469855, 0.043183427614144676, -0.05914845715308, 0.052397976653054734, 0.021182007929904392, -0.06582961907129446, 0.009802490760383144, 0.0005990561408225568, -0.010146341566089387, -0.03397549659602495, -0.04531852179585327, 0.00869606935054487, 0.02657325758547475, -0.0369014349655512, -0.050517873297932364, 0.1709324085497857, 0.07581034357670309, 0.027891763092152296, -0.013050887399580364, 0.05616231784386002, 0.04781646647805614, -0.04117863667568825, 0.008393936391882259, -0.004431780428103628, -0.015191477380184108, -0.01527486128534572, -0.08883353424983793, 0.04990088592740265, -0.06735181704278823, -0.024882071315155945, -0.052208369792321005, 0.08385693741875823, 0.12822653987012259, -0.1209047430123847, 0.025301669860303678, -0.035616943700440794, -0.08628629228083981, 0.05440906533478124, -0.023229422720913103, 0.012947459154355937, 0.045230786595737316, 0.015974790138520857, -0.07321797441406956, 0.010354669489547422, 0.07278760598602169, 0.01928721846970887, 0.06192701869551138, -0.025134936018210256, 0.047472914592812485, 0.005612700997256931, 0.044707012871829016, -0.03738071428440575, 0.012643077970453427, -0.035911890801909666, -0.06181614566726618, -0.033192698414910925, 0.0009045775792569773, 0.027558463901915305, -0.03959745861820098, 0.07310522462361466, 0.047969895512627404, -0.06164437644546636, 0.01264690331807003, 0.008935587140461717, -0.0015621381355853893, -0.15396850879815283, 0.0010349056698147534, 0.03523858519447893, -0.10222821312386642, 0.01934474543749747, 0.08836785760356465, 0.03669974332690177, -0.07178191837679831, 0.03391546987868015, -0.021651449695202163, -0.0805081693226166, 0.051177982789407356, 0.03618067635804148, 0.03226453192034114, 0.05232045214430381, -0.043192346364585806, -0.09201664478946496, 0.0034688891213654404, -0.019747269860277455, -0.21159095533994998, -0.06992646843927255, -0.00927566412748623, 0.02355791318372013, -0.034681715056256945, -0.0477267500848763, -0.017749883275253776, -0.059496626911726004, 0.0422068601838038, -0.05316832915457029, -0.0667646468201599, 0.055008337376328646, 0.041674352258913694, -0.037331099493662145, 0.016257029831321514, -0.010124843918348466, 0.02864112365175173, 0.007148923365170961, 0.028562403606555823, -0.04393257415723062, 0.051522946765047595, -0.007608405396866721, 0.007192941609112365, 0.06322858944896423, -0.018075731489178064, -0.052826336713201416, -0.07823921040721142, 0.03811743178215888, 0.04196614142634406, 0.025860392675510126, 0.08239284032682707, -0.054022433703776095, 0.10412690018980321, -0.10858694666085801, -0.005458659386299622, 0.07997823189072653, 0.021011911934089342, -0.036664946086198864, 0.09153668878911649, 0.040255031000121164, -0.024894725195832922, 0.0002067457516130511, 0.039231869423200436, -0.03351656368874949, 0.050238390527137355, 0.006545828247648731, -0.05727565961999211, 0.056577215568187685, -0.00041444002338730644, -0.012817345186762424, -0.07520892459493754, -0.08712326540273846, -0.11421576118262264, 0.0734027996098491, 0.07098412746878568, -0.03125980740333467, -0.06797391825254469, -0.0753181105930723, 0.020138889026486563, 0.0421423278625485, 0.016959144009931478, -0.020967270385542518, 0.047441136999036786, 0.027285272499481348, -0.029329973776592355, 0.023734782085049765, 0.07072390398329167, -0.007989489594156435, 0.04603498015424226, 0.014291950735864752, 0.09431636357419497, -0.019960386529248888, -0.046753681695377206, -0.06932334171158289, -0.03540539202090024, -0.05591306749381165, 0.039613362913011936, -0.039768339602106684, -0.019784232482360036, -0.021665668566833114, -0.0849806338244337, -0.05087407383257528, -0.0018561600685481636, 0.021473793196473155, 0.004399280547281318, 0.08082639993445657, -0.07702435055413355, 0.021782515857121452, -0.06518629555893884, 0.02461635570502714, 0.009333121489648318, 0.021746078908431835, 0.07649090124127139, 0.052727210144721426, -0.029852537253461483, 0.018303402468511268, -0.029843517190656695, 0.02384717780670234, -0.061724220329521566, 0.014816245917166173, 0.028165685786653172, -0.043910646301772736, 0.11208031376219504, -0.0005083670382785669, -0.0328785658872177, -0.1349782075192348, -0.030096830407455352, 0.00950114333472574, 0.013037113499137854, -0.014945382719184925, 0.02874667771174271, 0.051649172704634295, 0.07385416888874019, 0.07180414419124238, 0.07822903574770744, 0.0878645450738011, 0.13194978427293455, 0.032843999094590695, 0.07447386633791528, 0.07735153819582953, -0.0062508442354613945, 0.0022782823618148164, 0.0887398352653757, -0.08753498228340878, 0.02292744766130821, -0.06754999037430626, -0.021951499367317308, 0.024473731778934284, 0.05219050087544423, -0.020531870769885482, 0.054491004957489944, 0.04731479522823198, -0.04905382265124278, -0.10221689591198517, -0.08547381182949432, 0.01785964989465622, 0.00018844469374349777, 0.11169973335710319, -0.0581486650918306, -0.11961379794673933, 0.006181164503383037, 0.017672515561773332, -0.05518151298991148, 0.08700408617738702, -0.05023817041404658, 0.0869397803747525, 0.03378515103809552, 0.04436588207833224, -0.02377275264952016, 0.041227242950731685, -0.038613642228411404, -0.057025881978510044, -0.03543222997432955, -0.056693659064112646, -0.11283105864684533, 0.0365786487643887, 0.020498722598887145, 0.029615426252718423, 0.01882352435179586, 0.053392189920440855, 0.021452760448939023, 0.024996605107456816, -0.02174164011446569, 0.07459276725807465, -0.16283753371423867, 0.02139618085412618, 0.07247455916992877, -0.0678845166735301, 0.051050041136286174, -0.08756181728792094, 0.07362897884062626, -0.0672795020027929, -0.08108417386710659, 0.0996917543624252, -0.10740911912411434, 0.02324760377381069, 0.05550167095115644, -0.06269149620078877, -0.11075330882864075, -0.023462292935330552, 0.0922511632585392, 0.0717686255317182, -0.013282975275486896, -0.03057263659584942, -0.0215555836924936, -0.029420343892159452, 0.12343326770238129, 0.015605952540115995, 0.03717129255285698, -0.024606866265188657, 0.053636648922900286, -0.00433575588457897, -0.005414773741060107, 0.0868856968258346, 0.04431539930186464, 0.07170663555223421, 0.08117553927741315, 0.07084984522060206, 0.12144390096458499, -0.034843439714855644, -0.14574782621503973, -0.03870658324264698, 0.07068222479723994, -0.020833879399118814, -0.1408616701464724, 0.024677076503012672, 0.0068421488845666805, 0.0020677910865137834, 0.024834001707609788, -0.09262850943925574, -0.15681419354710918, -0.05784927507137944, 0.05293556502855023, 0.10897733691975056, -0.05147010992494312, -0.06579161920649637, -0.0648256473987745, -0.15860031596032234, 0.17688584207639427, 0.006571063939196281, -0.07167690656410904, 0.047758352876935216, 0.04133564013785178, 0.0321654244201391, 0.07516934490235955, -0.02343905122270176, 0.056712158467869006, -0.15735399173252274, -0.10769970422103559, -0.01989533666911077, -0.014091595731217457, -0.013828905592677026, 0.02730489978104259, 0.049181082071791914, 0.012560993003786793, 0.054645259132255423, -8.821510859777615e-05, 0.03311634090258861, -0.10294125346761601, -0.07987735474436009, -0.09215685548601985, -0.01118534107041933, 0.033934413915604755, 0.049049750205055316, -0.07792589523062729, -0.10484890695939235, -0.026105427467084646, 0.03242228577313555, 0.08529234866094305, 0.07515309470498485, -0.014425590123412848, 0.09357784982225359, 0.07372697363945774, 0.06246940515615829, 0.025511164732756414, -0.08956158657111073, -0.14714582087960937, -0.01861968158038912, 0.016779783677027857, 0.02296017586124521, 0.03258407554630967, -0.004665927054355219, 0.004221939900223839, 0.037433468191048216, 0.0030740890244962678, -0.044398792549354034, -0.08954183988601395, -0.07643069729061433, 0.008628696976345251, 0.029526707355904645, -0.03606785571954464, -0.01170755801628917, -0.020510512937983543, -0.10277487970275685, 0.06417448904230086, 0.06164457871275571, -0.018917385189852438, -0.0004906812886566712, 0.014304339120286492, 0.0022819407867605114, 0.09173376644655885, 0.1347043890176102, -0.07111473010286519, -0.13945985908499015, -0.22574487276773014, -0.0949725118968869, 0.04914334931446203, -0.06056363680101715, -0.031089412016467595, -0.06738449345523896, 0.013984648403934768, -0.029216587223813213, 0.0002681491169370348, -0.04646248167925042, -0.10835583087016738, -0.035747468736961364, 0.01733811541478602, -0.020577514564973087, 0.054091758250809634, -0.05923102685215453, -0.08684417191736371, -0.13985028782969017, 0.2139553744579351, -0.007793792397241656, -0.04558849157041617, 0.011652055649780085, 0.034561411905292515, 0.1366401738995166, -0.1360004274476771, 0.03574965199762145, 0.10321193094710081, -0.07182050056575615, -0.15169092189736036, -0.04041572814080102, 0.024296111522202245, -0.08416404504538216, 0.0028863934714006122, 0.011974551616925812, -0.015086429712380726, 0.010710443285392366, -0.04264654854801634, 0.11085032895488538, 0.03297624010975639, 0.019508831184990787, -0.040899616257076804, -0.0057267390589974395, -0.01683452540403534, 0.018512643338287955, 0.013365161466493714, -0.0723336775935664, 0.0885453327711043, -0.04111253316294222, 0.06315119356848768, -0.02746978407953093, 0.028927334081223756, 0.20458131062272125, -0.11618677833874266, 0.06089729820724243, -0.13475155992937815, -0.22061830509942368, -0.10382985044285525, 0.022787683895590563, -0.0776433010884955, -0.02792587453782081, -0.08660185630154342, 0.08060041129559935, -0.014340904294717075, 0.052136980560854224, 0.1227808258172692, 0.012257181689656197, -0.10418091831107944, -0.020123111690062232, 0.04887691992366754, 0.12290236964134635, -0.06742874608394642, -0.04507643140143122, 0.06148829388836126, 0.024071398745072463, 0.04555625198989295, 0.07770277645877269, 0.023052183171485774, 0.1276802691558799, 0.0749593293824217, -0.15916365235667357, 0.09224055176068316, -0.06085049591198624, -0.15545129829241547, -0.16015355302400153, -0.04211402560613195, -0.09129176056735677, -0.10709611155950396, 0.0992777733698407, 0.08798635537312781, 0.01737565076760211, -0.05962509250812138, -0.024233553236923364, 0.10636963279207651, -0.060383516336968895, -0.14488313815836715, -0.1571160220595436, -0.020238308831328742, 0.005156562300243631, -0.041264734795154676, -0.03475316830786653, -0.10836532562805833, 0.01716895832282482, -0.05789705893634511, 0.06572562113063972, 0.06924051295659922, -0.04722614346101739, -0.023270401222277613, 0.14342770079087833, 0.020025053471939103, -0.087538986341952, -0.2557544564993492, -0.09158606320422986, -0.046394092130683164, 0.006750672117835785, -0.011783991329666147, -0.09419365390957354, -0.013494421304083076, -0.007324902350459204, 0.06581117704341732, 0.12202511179505934, -0.0070066049687980275, -0.05128633453866576, -0.03460705853528052, 0.0021113055872313377, -0.052461464734356096, -0.054427192006773525, 0.038042031317705206, 0.029548386967158807, -0.013599306689615842, 0.028430115260183964, 0.09707547001248738, -0.03692601129920378, 0.0058277286388425205, 0.05878304684977769, -0.003354496570899971, -0.03930825937974324, 0.023485169447332387, -0.12129272778635848, -0.10322973233193221, 0.008001530965955952, -0.018197782284616194, -0.0027198777073638796, 0.06657376445271367, 0.037924688388252144, 0.07215714184962706, -0.021669742401995862, 0.08017013715041449, -0.015280465233721726, -0.06001165960000751, -0.11656532236949643, -0.050282172266261756, -0.03760877333454702, -0.005085940943795092, 0.04139058175578827, 0.033495329945397716, 0.015181246659427543, -0.12942717242098725, 0.054484165642313204, -0.017554416082039125, -0.023558272931465347, 0.04254065747278566, 0.08347564461332124, -0.00044657015867617694, -0.08465930767972123, 0.10489177262808791, 0.0654888985380283, -0.1099216112328771, -0.0001129756362987152, -0.04092397898776461, -0.01303322284724231, -0.008131755215521584, -0.04146444434119896, 0.01553643239000926, -0.05553438753303934, -0.08773252532931737, -0.049460838175155765, 0.07254398719968752, 0.015069647269000567, -0.07999506156196831, 0.014759674575234912, 0.03209992240240464, -0.053373115182575016, -0.06490944007756348, -0.01962192851363437, -0.011412205264285543, -0.00663248634507422, 0.01007227294607113, -0.043550370889956995, -0.06447632498677791, -0.05356409011821479, 0.06342989190738546, -0.006112965374727152, 0.05346328965308832, -0.0019214985625076815, -0.055890713028214224, -0.07644098436734113, -0.03877420358611628, 0.015293559559963062, -0.01978322752158048, -0.11185306935530043, -0.020431535743770417, -0.08360358496936669, -0.01707929342262038, 0.04434433396368464, -0.03996606810659094, -0.0739045124115542, 0.004813845048595006, 0.07057773073662803, 0.05065980702585239, 0.023980626039833586, 0.041680217854757694, 0.0356704339362915, -0.10741406448375969, -0.034696934503053854, 0.021587794733268207, 0.10466303592955206, -0.04927186717767071, -0.06527447066247208, 0.03875973561394704, 0.012731955864312111, 0.18395309011148972, 0.13502378634442222, -0.07756741264659806, -0.05464448581778177, 0.04224662280786267, 0.003670116431320204, -0.03279326604414196, -0.019635999440658067, -0.010643822523485667, 0.0035156349689349333, -0.03216432881558522, -0.06909418634280606, -0.04208332830128815, 0.10122561089882923, -0.01990258402836282, -0.009597065796423696, 0.07516397437999077, 0.04381165611225105, 0.0006135867141088056, -0.010361168852211347, 0.052249066130842146, -0.056389471557284014, -0.03173689910445872, 0.08796905992215422, -0.11804436178569873, -0.0029673689885812296, 0.08372675895891613, 0.04333736410752465, -0.025429939129289373, 0.019290060409468963, 0.15298964738237783, 0.0886654529357677, 0.026615014565025054, 0.03440157290568211, -0.1345223477341876, 0.11027849127034065, 0.0334297398418413, -0.030641189207720288, 0.038122734845447356, -0.05323595520268418, -0.04085131770059339, -0.04559368560764514, 0.061908242698298206, 0.019679328470158356, 0.03636480449227235, -0.019494283378041103, -0.030272192042352396, -0.03915214719360174, -0.012199532075355186, -0.010615266906457073, 0.08272227092508226, 0.000776268842696446, -0.09506379480787981, 0.026074853990387954, -0.04031824722263799, 0.07594911757490855, 0.023169301565491116, 0.04982427192204857, 0.006491876090579601, 0.007227349130962354, -0.037467990225840686, -0.013338711121418115, 0.09386697057524244, -0.010112927871155655, -0.09962165131665886, 0.06636609610527637, -0.008383788492360215, -0.014482440192481972, -0.007101215745805573, 0.03492115373178596, -0.036411386913545056, -0.04112857674662598, 0.004972996322221509, -0.03640606125259262, -0.0605852971263374, -0.017329243443756605, -0.06867318722156991, -0.006655349231953159, -0.05972998342469256, -0.008025252180210024, -0.10410381474273663, -0.023983824945833752, 0.03806738298925713, 0.09027673387098231, -0.013081437210573744, 0.028847916425089697, 0.05582686768013748, -0.016757466065645397, 0.01162026124327408, -0.0697337498477372, 0.04103537582398901, 0.09153779529810716, 0.003452737373500216, -0.044044546585637175, 0.027246762286841635, 0.00527326198366538, 0.0601547395285802, 0.05875459211776145, -0.00010469092454543488, 0.00564093269730838, -0.013957847424160973, 0.05956622186330194, 0.010214034838052286, 0.048816814549738144, 0.04295764679455531, 0.014767468593585287, -0.09820440049447005, 0.06616536617231723, -0.0026478535610644153, -0.10391082288393401, 0.04126240837824309, -0.015964780117784644, 0.031975592794172565, 0.01123510402605273, 0.04439944083321955, -0.11798768291117552, 0.008941510296431893, -0.04631700963159705, 0.010167077167605672, -0.1099532623852764, -0.023025245279011498, -0.03488860881575468, -0.05677241246405124, 0.015614807924658386, -0.004481603342452469, -0.0022965347907235286, -0.025930019745006406, -0.007353293833441126, 0.009208479034499091, -0.03960353573415147, -0.0845805212658716, -0.046907169332697445, -0.0008382294572658548, -0.0003036197976461919, 0.06593679587412513, -0.0418456787199154, 0.0002864008099558416, 0.10359748288597893, 0.01295755658281488, -0.050584995815902, -0.13076940214172691, -0.03644607516606313, -0.06555125319245052, 0.049402757543157524, -0.0918162335230679, -0.03915827801647243, 0.08626325572231905, 0.056733167190130794, 0.056494083721800245, -0.04880773466432407, -0.021841274328456, -0.03912370944740511, 0.07475526190522103, 0.062425718755731344, -0.010251504875328681, -0.05743050862974238, -0.02489016446428841, 0.055937107454298314, 0.021967648807259495, 0.02077955288756452, -0.04357986316281137, 0.09390724609343296, 0.04036467295113256, 0.024501169886620683, 0.007416232295775266, -0.043879695806092016, 0.06320100669468663, -0.04859428271257887, -0.07329951180023118, 0.08064284962307455, 0.014340253187707982, 0.009279014892911407, 0.09654423967801748, -0.03677991991997177, -0.04953160964335695, -0.024082966347042028, -0.03695193566644716, 0.04350167626631883, 0.06235432644313653, -0.050775519732414516, -0.020869796044237467, -0.02641971341550127, 0.002698695248271907, 0.07694671818735492, -0.012136906100995494], [-0.006502883075344522, -0.0006550449164735659, -0.02529371586938852, -0.09497035199543302, -0.03072350448197393, -0.04580030415792083, -0.0451531747116877, 0.007990263418746757, -0.051418719697749665, 0.021959305430062477, -0.10267481930379135, -0.030822915293489687, 0.011136509218687557, -0.029633637904864462, -0.1181219888326766, 0.006374815408114016, -0.009607149128868606, -0.0556041174958147, 0.016962609395974708, 0.04331209844823743, 0.01784379778457107, -0.042449116199545854, 0.020894097105783726, 0.040625388066258226, -0.02659505484469162, -0.14530190287214606, 0.0063960815820660296, -0.029425030420835697, -0.017190568473292724, 0.004505110478917073, 0.08600994804468884, -0.04641738680027649, -0.011477568762511254, 0.03330482550142832, 0.052193224334817795, 0.08435512005910291, -0.015790073178800504, 0.04005059793896378, -0.008565727811211519, 0.052525309993803254, 0.04611403465403635, 0.027214074689662013, -0.07482304131979303, -0.05343926702393662, 0.06917479022976608, 0.053118548590474164, 0.07617610937214168, 0.07744264595563286, 0.010857550324888124, 0.06114627464353225, 0.0028824028758879365, 0.11003603520434861, -0.02041644271464272, 0.06635777838861366, 0.09044651833170035, -0.033558297643313986, -0.001893220823000274, -0.024682133796753346, 0.01492813153149474, -0.0385170007297604, 0.05927972757495441, 0.08143777053708556, 0.13420462162637545, 0.023431982478051037, -0.0010770220626362809, 0.0084725661218437, -0.05481257155192722, -0.01954752580348348, -0.02357146220715657, -0.001102914760134877, 0.015290177307380318, -0.05040798394207903, -0.027438316180387088, 0.005841152092169442, -0.009652337836154504, -0.018776056031677948, -0.021283300230698153, 0.038742612312974385, 0.03489205513790912, 0.025543996739371407, 0.022056886271404973, 0.10993246715210095, -0.036859537981812546, -0.009192825130224794, -0.050011065032429455, 0.027976947354247095, 0.05658595984271995, -0.08569465326024282, 0.028231373643003634, 0.0790571858667635, 0.0806679179165688, 0.03219216773699502, 0.025133974674429734, 0.021857932629369442, -0.09542460816512748, -0.043440552580396655, 0.014109917424380704, 0.013323091233007817, -0.020884076035517143, -0.013052545375958367, -0.05971829977636157, 0.015513695723788107, 0.018318051379374756, -0.055156514484568014, -0.038044016931689684, -0.031092805897473878, 0.019819506178116324, -0.002987757412417933, -0.05317616243684027, -0.040232615705697465, -0.054965319579338985, -0.07973903883659421, 0.047647848253819236, -0.07833178616180528, -0.034148754862549216, 0.10484550518018756, 0.005548284539253559, 0.06807932090209262, -0.07889797206661078, -0.10373645413629004, -0.0012046929991625494, -0.08847478376338536, -0.06850367850227775, 0.04331151995530358, -0.015871035093177256, -0.004110474467978308, -0.053806093596571236, 0.039909805453220724, -0.08599634743451326, -0.030317321251077747, -0.02577256333495372, -0.1098975708894807, -0.03428056648481555, -0.023798545074510347, 0.06495845666629581, 0.01570448746880721, -0.021533859086142228, -0.005135758830050422, 0.016381189377080038, -0.07052489916733662, -0.0010113325174550215, 0.0351834531554393, 0.1389155053959752, 0.0017024449731022902, 0.10567943663554225, 0.07953459762984483, -0.10290399742923637, -0.016074660655507538, -0.11232845351087627, -0.10413686679092955, -0.11767276285211654, -0.06716933407880656, -0.02464305295969751, -0.009817500006648048, -0.10897213218343409, 0.03046598615451877, -0.00450990239021569, -0.032275261940155245, -0.005153287188591583, -0.030181082645165308, -0.1188463945862534, -0.06973156159438768, 0.04117552996383018, -0.05430348574569606, -0.05432838404987158, 0.06288961967861562, -0.11710330109115592, -0.09600596918991447, -0.10805485965166939, 0.0069135583342880905, -0.08579187217897576, -0.05659417204602859, 0.041134740003693625, -0.09425392994801403, -0.003464427821657566, -0.08653524356142132, -0.09412978004199642, -0.06711496424662712, -0.006837375326664371, -0.042302915422543885, -0.09312420452931718, -0.0057840035000190125, -0.05358337431672203, -0.07106820796100351, -0.10088603261599859, -0.0848328109007095, 0.03683544147810075, -0.06355768353304432, 0.06783117492445229, 0.030221562167298887, -0.06661843668193772, -0.00713740711557061, -0.1834521056539998, -0.06413700495595381, -0.016738126706092926, -0.027301305987537113, 0.043140846984212285, 0.026125973351658283, 0.029698751549498307, -0.05266923352682723, -0.1103559900231765, -0.04996520629928259, -0.08254101404697607, -0.14563078504844423, -0.1336514615379883, -0.022113929516751032, -0.015621698186348267, -0.016633688907623644, -0.03931788994649503, -0.05252635147393712, -0.01571808143780315, -0.06851607032356843, -0.11969391733684495, -0.04354811738362187, -0.02145724800708476, 0.09154337161419597, -0.02937264384823926, 0.013342014892140727, 0.06219420404828785, -0.002839198763990928, -0.1244982569487304, -0.0790244817437457, -0.07428974715365205, -0.09342491461481464, 0.027090207301519828, 0.046423578473832675, 0.05578291448207696, -0.05125022140431983, 0.05230312970536714, -0.04080324730029118, -0.09912208471136628, -0.19522752672586577, -0.0731124856872985, -0.0031284114859123032, -0.04481459155600633, -0.027842641425441364, -0.07277068444717383, 0.09682748903873675, 0.07141128179515667, -0.006291497646575321, -0.05229097296858017, -0.08901688799209771, -0.023364689717145788, -0.031568651725756715, -0.05057282765581157, -0.010661710904450769, -0.1016599445121568, -0.16654771350850806, -0.12078990626797019, 0.05745283822630305, 0.04050388990024742, 0.004355411703957471, 0.04191769867350951, 0.0023972446038609796, 0.06235760250579463, -0.09027169207616736, -0.0011762193110030038, 0.0009615664144951202, 0.012622090547975905, -0.07516921253625924, -0.02373500365077447, -0.011223693365640754, -0.17567465772588597, -0.10689187276455554, -0.010336671929894257, 0.04545543198781004, 0.06505000449987507, 0.04054672387727248, 0.015511823645767264, 0.0642507771382057, -0.0006381015172659376, -0.19100158289974623, 0.07709542673208876, -0.054032017524001656, -0.10870282601457285, -0.03820117937652348, -0.0661122409543067, 0.05352990147775816, -0.02736462439185795, 0.04183804657016082, 0.11907783645053366, 0.0484018385798942, 0.06554320061387885, 0.037090690799541436, -0.04290049634676401, 0.009270785121455825, 0.011787814751245056, 0.033659359690249496, -0.12052473193785607, -0.17001437231936514, -0.061565124884379555, -0.1476363931708297, 0.039527711792889435, -0.031399268754275934, 0.1496795009421097, 0.04825469243690693, 0.13020766813279006, -0.037881730096908775, -0.0324117736684512, -0.037800118094173725, -0.06308133165290028, 0.052545130029817415, -0.12426926621071493, -0.006317209996339073, -0.02505059114735422, 0.06374322232145883, 0.001835919735105489, 0.06370686585915546, -0.013431629155818532, 0.05898709854159396, 0.00577402700147174, 0.011851365535585695, -0.12563937575400858, 0.002093504833567658, -0.07576871419513971, -0.06917503796442234, -0.11174558122230845, -0.039351157256310075, -0.044614493254179204, -0.10028809412306751, -0.001560185020460466, -0.07956669737340061, 0.16455542683119295, 0.16599136227662065, 0.04400099344743497, -0.014306032118005598, 0.03489307252625863, -0.11508670657607062, -0.04027271667810897, -0.05193496166534119, -0.05997655825717428, -0.0894479425942814, -0.057993088874473846, -0.007449574038296057, 0.012536940241720047, 0.03896128896467648, -0.041348632144067886, -0.07962985389430535, -0.05611123524553527, 0.02397165992479754, -0.046947136678650844, -0.025452804152742058, 0.06592622481918355, -0.029285465486066607, 0.027872562032628955, -0.059643144223705195, -0.14404242442271065, -0.12340230433284215, -0.04571333181110821, 0.06808295982002399, 0.0983738843339324, 0.18631405358294417, -0.04761311374799105, -0.04969813444190915, 0.03271071730347011, -0.10637913848831555, -0.12570890449869865, 0.016872232646988592, -0.0850763799588091, -0.14130180978151569, -0.12152761709553292, -0.03889307719155332, -0.04628444254683026, 0.02052213953968503, -0.0056121990086548685, 0.034066071588380986, -0.025473441566400273, -0.015441551955261512, 0.06336068949453662, 0.033818288761661534, 0.029902945750392245, -0.013274588486422092, -0.028271992870569966, -0.09987803598065506, -0.06293665219619486, -0.03498934781616772, -0.032965449236890675, -0.03713236225460275, 0.2594467922365356, -0.06748533145383723, -0.012699658110571275, 0.06661397407565628, -0.09155465588848313, -0.10095120740368192, -0.021588098388362145, -0.1655776769788906, -0.11606237677574564, -0.0662389870546798, 0.0035262438289025543, 0.01552046604618033, 0.029026311903504447, -0.012915600092165138, 0.00958687715183527, -0.016606198198469636, 0.009494859011805757, -0.04664252954539082, 0.022420872319699827, 0.009380947519220039, 0.0006132985786105823, -0.05827270085470288, 0.02459596892532078, -0.07734595657210198, -0.054986465324836246, -0.01958349492887774, 0.001598712971346661, -0.019760579040546417, 0.20619214426626045, -0.00627430118904091, 0.08210060197776355, -0.011390757889998233, -0.03070464556034956, 0.04951693430253725, -0.01659356524882431, -0.08821870344689248, -0.040591248669433, -0.08714705783969028, -0.0741977038877969, -0.08483829466539151, 0.027011143410846733, -0.05203399326005717, -0.05835425093661916, 0.023979225049886914, -0.033715116046099454, -0.04586471820264333, 0.015707579348231786, -0.020282734255186813, 0.018205228716811177, -0.0004868893619034803, 0.025718070140991672, -0.07200760813233012, -0.09912103798435667, 0.034901539402593114, -0.10030781509654181, 0.04598792670845096, 0.22365541319305807, 0.014897258550624315, 0.026417502077208766, -0.04647031815829638, -0.09778057582319916, -0.053793939395178174, -0.076596546875264, -0.09607660405184096, -0.05182275521753627, -0.0003203562882561072, -0.04678568501666343, -0.19376606016067763, 0.03789655574755868, 0.09121902038259715, 0.03155734946456134, -0.005697261594415127, -0.05380276422094431, -0.09968655391521579, 0.0010742948808976588, 0.04655095927129301, 0.03833902083000278, 0.0042026667763320775, -0.04730063513618054, -0.04626409454162872, -0.01641108956360825, -0.025004785437309864, -0.028164941231411653, 0.043272891722672645, 0.12969269114194076, -0.07962531444167471, -0.030797535248045883, 0.021209680913766692, -0.06184680657321249, -0.03749376712786319, -0.05052022453336556, -0.04700537676534963, -0.044441460310577406, -0.09976469475036973, 0.05202049925597699, 0.01274803348148225, 0.01493289349645386, 0.03104339456017435, 0.0314401915414669, 0.05404168926168568, -0.020781328169792484, -0.015628251405175323, -0.03827770024459413, -0.00875180633489518, -0.007602208956304802, 0.00511687964890487, 0.19344206090936708, -0.022072802592243604, -0.017279248945046226, -0.027624404499752078, 0.0536447570261571, 0.09661466917584066, 0.0320807703092968, -0.021920895142497045, -0.025561068915257345, -0.19193167891238097, -0.03615833145310968, -0.06453740665641557, -0.03814185881572805, -0.0315927045603053, 0.04621228750731629, -0.09657964836543131, -0.04483572419190562, -0.027502701336743356, -0.04589653934919118, -0.03911435102996164, 0.03703112745839479, -0.018247595506051432, -0.06401083997274379, -0.022057608497445095, 0.012971041576409112, -0.04549480409431708, 0.03553839734124313, -0.030472321784910723, -0.05267319974423098, -0.05513442027047548, 0.01682635702543241, -0.02558267726529076, 0.05887139545420409, 0.062115870266443995, 0.17686022133779977, 0.001758132565677792, -0.10468236165669581, -0.011188129407401366, 0.013060686153280975, -0.004249249938151487, -0.0822217886062342, -0.028866413514526717, -0.012891199637910371, -0.009757320488772238, 0.015208467149290575, -0.024188882289466213, 0.08265167308914878, 0.07219346008875395, 0.06201371889816352, 0.045210279200084795, -0.03923930102861119, 0.07687858769211951, 0.08413216757282341, 0.017461718577180683, 0.03906226588135967, -0.09537247620499398, -0.09819645933001636, 0.07411612125357844, 0.028048702037170213, 0.046597414287612285, -0.007003675432622592, 0.005154663839653781, -0.027792357283255492, 0.04569514292883536, -0.07456449989057842, -0.1194845095263062, -0.009789787950787351, -0.05470001106935453, -0.029814408521036347, -0.06896697539482083, -0.0869028141400258, -0.023109819051215105, 0.05162053991040068, -0.029179611513411367, -0.032474063361275056, 0.03672746499052179, 0.028284980122946477, 0.03135793129118777, -0.04669930187153251, -0.05134080593735779, 0.008532683836555494, -0.06635494855671058, 0.0003115400600064434, -0.08569168258968184, -0.02186036121591032, -0.08468100935876428, 0.05664951855178415, 0.05081305361605244, 0.10610788397524232, 0.04278666884722575, 0.036956810997045494, 0.010760565258990162, 0.09986176976077274, -0.03931972478681482, 0.08427767088227185, -0.08308249396262801, -0.1133593064572244, -0.13919983943044045, -0.04949573468048035, 0.05301452643997448, -0.0026065488150997114, 0.02480816948489944, 0.03971966162364898, 0.013283521892649955, -0.013105240336913775, -0.0800761887479513, -0.05433276111480775, 0.030339638716697974, -0.09482082005373665, 0.08436942907741174, -0.0008235592800464702, 0.0713083304346784, 0.07329011781435005, 0.04120404829470857, 0.1432559068057595, 0.10494770577043212, -0.006148339970234834, -0.045635475075901, -0.11417611762866124, 0.05823826866254836, 0.03425903510346446, -0.06480369879669332, 0.004533528761211504, -0.061044150010235214, -0.04729557940633003, -0.006547946555440268, -0.04940251757284942, -0.002712721297203571, 0.05514021861595116, 0.002500660280831964, 0.05438721713677606, -0.05122348736588816, 0.01177793070908133, -0.026171284919851323, -0.04707839206824787, 0.007333873374056152, 0.021388882020058814, 0.07129641789505649, 0.1420224108138509, 0.037228702957756626, 0.04898139256484557, 0.024141216036135747, -0.14613956611876, -0.030471071174432512, -0.05966318083935975, 0.04963691053314346, 0.045298931346351955, -0.037396202115801795, -0.06867248031160691, 0.17105281740997208, 0.06421918836945803, 0.014174625396403481, -0.07717015669213173, -0.03389755375767935, -0.010620641598849522, -0.024991566635287656, -0.047415013817845776, 0.0802170523787617, 0.042923403196124546, -0.06274987673651292, 0.024880120033176217, 0.027492966380749058, -0.06473014389617532, 0.07400267947361384, 0.07196822380328993, 0.07579365153737774, 0.13006481288744007, 0.0367776585597413, -0.03196917477954655, 0.017841396445708972, 0.029755013819587197, -0.1115919059960113, -0.024725910115289705, -0.09896267533646239, -0.02206915815356168, 0.05997024372395717, 0.11100460909763298, 0.16481643278585362, 0.06136485783746101, 0.056456190780924995, -0.040783380446704674, 0.050053430303267435, 0.06171168698181375, 0.038744238877445505, 0.024154304162032732, -0.045143303965022814, 0.023630887933342105, -0.008113421894426914, 0.026379862386576667, 0.09482596765263246, -0.08437624114259808, -0.01169434514612856, -0.023830387804730537, -0.09031749073668827, -0.017381362619579347, -0.0965126953181189, -0.13132476608547264, -0.10257196570436507, -0.10287303265181894, -0.06381905685098788, 0.00046573955423252886, 0.0022563739926655386, -0.08328633076097611, -0.11324601771325675, -0.08047347036635774, -0.08198069077771157, -0.09114430373592396, -0.005418460728356719, -0.006674246308270602, -0.053537833497446334, -0.09502082523949595, -0.054674097191148165, 0.04285945948001681, 0.07580950396107881, 0.005640740904582616, -0.032765240000911786, 0.00264226392601631, 0.09459904034840759, 0.02082460695564586, -0.10995204441508222, -0.0145503605571375, -0.01958895119350791, -0.011924727753385897, -0.12610648428311844, -0.15654836982488948, -0.04710858374243067, -0.12450394989916047, -0.28575162114011926, -0.07088315199374917, -0.03401738992912466, -0.10876594424942801, -0.053242977051186136, 0.013131998112862406, 0.026521723631243815, -0.1309785845740302, -0.050805003308409216, 0.010618541998722711, 0.02504949487879165, 0.08967366558512078, -0.00029438722299797286, -0.02325937649339276, -0.042743351155466416, -0.05922380009428349, -0.04313869342125333, -0.04685989254294212, 0.02880979191677064, -0.020156177123016674, -0.03891810315733404, -0.008827506059438177, 0.012206750951684671, -0.08724847779152967, -0.0015459849800698716, -0.045080844135865834, -0.0037531062654872086, 0.06022725750838549, -0.20522178404048194, -0.04658320707429055, 0.07664497386607731, 0.036010952076238306, 0.061437989114766514, 0.06839195728667033, -0.05397014627213235, 0.03208561834364327, -0.09679190448628229, -0.05522026640113433, -0.020556600843811952, 0.01237909401191572, 0.047630823032133035, -0.04261934291128609, -0.001879447054859858, -0.02348048975119923, 0.09563757577522863, -0.0004492396132883615, -0.03150666740791552, -0.05856011646081314, -0.008563476674792386, -0.02725820362436098, -0.045759036942270896, -0.012293786979349026, 0.024822549907356575, 0.018334420168754282, 0.08665891628502888, 0.010321848908739899, -0.02262464491143436, 0.06510378501512669, -0.0036889394825122797, 0.03247992919709505, 0.02186628048911926, 0.013845248333511936, -0.08687135046769226, -0.08459429062646476, 0.04961284374742238, -0.005741452455886674, -0.02955408523296305, -0.08430474985528613, -0.041624965418013006, -0.1058813380760358, 0.0754757397463653, 0.08262897586109383, -0.14483028024355551], [-0.017418154478585364, 0.0006391874032471695, -0.048767532434613854, 0.011010249741919699, -0.011469126014887365, -0.01646834295743343, 0.01355965302968947, 0.05360346672921395, 0.11346059503724776, -0.027655688102091232, -0.07479645879835833, 0.014986201337787174, 0.02367231324166869, 0.022332775501287552, -0.0468654886282631, -0.028425466807943053, 0.06010398554788322, -0.012642687282660662, 0.021750700063068326, 0.03979894863492697, 0.03961524990844209, -0.021263206797508285, 0.015937318103519674, 0.06499737821623851, -0.010726025698881116, -0.027331382424340054, -0.02566691687871459, 0.017726797593725224, -0.010767836761573875, 0.01858598727641424, -0.031765993016715656, 0.025071256088908506, 0.027719583552926533, 0.07893673811504694, -0.019579547092210728, 0.015460925529580246, 0.0023183323438468488, -0.0598311755880315, -0.03803016267466819, 0.0065108717745789284, -0.0264471164156401, -0.026496300394976337, 0.006032830175747341, -0.01912642253273072, -0.032974716300484624, -0.020721812866499763, -0.04024999486744742, 0.06447041570904077, 0.06151442267709525, 0.036206436359927575, 0.05763695228555021, 0.020357703720460373, 0.11331746820533278, 0.04040367918946163, -0.021017760215863168, -0.0033060241155768453, 0.0491249279921891, 0.07597751961006483, 0.03891486920940127, -0.0657559335475303, -0.06792665885445755, 0.06298626612467069, 0.0695306340108063, -0.030440528918940637, 0.03767869154324519, -0.00021397021039501566, -0.004293591755365467, 0.01710036734796622, 0.05480392452414644, -0.026533161763873343, 0.05154605905738231, 0.03243733878528573, 0.046800159611226855, -0.0051907491509639095, 0.07155754902452381, 0.028117068921572633, -0.027656228602679377, -0.04549514366336022, 0.060904376300061736, -0.033383169650745434, -0.05797509327238692, 0.062454289075739626, 0.1186562999356225, -0.01779180517946917, 0.09053065302230585, 0.005983938621941292, -0.06398193758470277, -0.047750034540410505, 0.002883475812746404, -0.07225947435624329, -0.02667616258204479, -0.011707011054183801, -0.05492663665931775, -0.005389339191803296, -0.07807479622382657, 0.03673229758487438, 0.009562782070923054, -0.011570719348854073, 0.11140565592551127, 0.09034183201025438, -0.03482371677920153, 0.01701739103376044, 0.008047874979120783, -0.02399257372869467, 0.004712675733474064, -0.0057562062382743905, 0.03304008289839429, 0.0200516062848524, 0.06588765618906467, -0.03930213969466478, 0.06494564530604022, -0.019959581224537438, 0.013181710672387732, -0.04568338193902864, 0.0022981395482353185, 0.024291947456804325, -0.0026587839526685873, -0.03319820916210641, 0.05014841108047451, -0.007368264478728507, 0.039168342941310365, 0.10442375115525133, -0.014547824122587222, -0.02345085439726272, -0.1545028298250116, -0.013501391664270543, -0.033193621049809496, -0.11125297861810644, 0.011059351995297761, -0.025362524281995123, 0.0032392190984544184, -0.0523806517429497, -0.06708334642178974, -0.026137327052254047, -0.020389859458501913, 0.08640735736462692, 0.035456318469147326, -0.021634998878575187, 0.05265652881973821, 0.041109373403750205, 0.09015580241225636, 0.03502598982162475, 0.002454113120173334, 0.0070729493495649415, 0.03604656720210253, -0.04305182388829652, 0.12820909537085373, 0.04005119712659305, -0.03453401072347029, -0.04813715746929322, -0.042461053770921395, -0.12540841418226517, -0.11333510713994205, -0.07043659433082171, -0.034228565716186106, 0.0006649440386003226, -0.03836392568258274, 0.0420658517331044, -0.006985588551860289, 0.024828021584650868, -0.050803114382971824, -0.05710215640810264, 0.039451390807139844, -0.08512494136945445, 0.07562589567341833, -0.02305444408408397, 0.028270098290515987, -0.06856223917443338, -0.07435458994419698, -0.057169823780419224, 0.06285454345813428, 0.035949299997396156, 0.033713901655857706, -0.013133735846975973, 0.13749318824873846, 0.05143274688681217, 0.019010857454378857, -0.13419218176461375, -0.05526783359786093, -0.13971439474802272, -0.08323665934695497, 0.026685981413533275, -0.0558666981738161, -0.10413751288696134, -0.10699474786898992, -0.14247502034772233, -0.05335418439220474, 0.015302209338178384, 0.004172604027652423, 0.08339491327064577, -0.04376960956230132, -0.004077892304922601, -0.024162115210812667, -0.06672996703637607, 6.1021598650398335e-05, 0.0023739274148992374, -0.02189957663540151, -0.031431535151629234, -0.011348574026159925, 0.042896998248042134, 0.03169015479532272, 0.06546917054099666, -0.00528980075551512, 0.11871810179441779, 0.0356564006378724, -0.026558260871777255, -0.05767320624823237, -0.06901303086174355, -0.05579433886918045, -0.014843220918709668, -0.11378946320003745, -0.11874691312140831, -0.1310105609236288, -0.028118358700071306, 0.008874625382022518, -0.01028727806605153, -0.06520840431974902, -0.08301964485732563, -0.032473790700739455, -0.06443594168238292, 0.020682708333652024, -0.0016360533209717845, -0.13403753049656938, -0.048600735363387645, -0.0016067018321837471, 0.09897051696692943, 0.05474035829828789, 0.01606359988608315, -0.03863220589654156, 0.05973082017802846, 0.03881449457898194, 0.04267773061291263, -0.08616665639654576, -0.1557090942102275, -0.16105487577415786, -0.09777927872763133, -0.09524435855115967, -0.10833844036454653, -0.0924863205825712, 0.09258177474435728, 0.05520707879202408, 0.02682991751735037, -0.01952154459276306, -0.02804211308902008, 0.010422968754131755, -0.07793876935457474, 0.10929756837028141, -0.10260090095738178, -0.014486644820216514, -0.02660922764977507, 0.014288640310725319, 0.01090357950072644, -0.14000256970951094, 0.03637292852320344, -0.05785364678101594, -0.012852911625111034, -0.022442989025683768, 0.0912928059807706, -0.056769308391300365, 0.0005781444443360954, 0.019573381865797806, -0.025346294258013543, -0.027575368905931034, -0.11979505247963336, -0.06357186703883416, 0.010034608706302812, 0.051128351404073354, 0.12280407893489832, 0.07882326056465733, 0.03731979638062722, 0.0695021606911191, 0.08713610385705735, 0.13022178378181168, 0.03637361667029704, 0.12006412899460067, 0.1391583956591234, 0.030764022772131437, -0.1018367255874981, -0.07289970841061569, 0.02975263534708624, -0.13530197198913255, 0.020478746438199254, 0.03227257128688334, 0.002331141490905582, 0.04821316906253539, 0.0907159997191125, 0.051567782768774294, 0.13560698137824823, -0.04248511392010096, -0.03264952717306654, -0.1840877129912817, -0.07776725752549, -0.0676027913639836, -0.036370941864634056, 0.08842861381947578, 0.1257851521501562, 0.06613693877344068, 0.02421884427893768, 0.07267737107899463, 0.13410894547472463, -0.021535260167967425, 0.023905285249347003, 0.042141518792653, 0.18568876660468642, -3.290453128299106e-05, 0.038338424649256735, 0.008173798715421218, 0.04440115955759768, -0.11772643352703582, 0.02301201252455551, 0.032437704745348156, -0.042513763807619086, -0.015549495208964387, 0.02086382788655967, -0.020057347724262223, 0.023477688206624856, 0.056707710836163445, 0.026855769460270153, -0.09029474034108019, -0.2012660081129633, -0.06451901388735466, -0.08305649875343277, 0.006464971295032711, 0.01647433112373178, -0.007696687979047411, -0.04941020459456434, 0.04130460632592685, 0.05559288114642908, 0.044136101231589224, 0.060746587361673585, -0.013175827076144349, 0.0042625564551366565, -0.003987020131711388, 0.008315800660629905, 0.0016365946786289997, 0.06656435087783143, -0.003608884982134719, 0.0490281220549249, 0.07720361563342869, -0.10621448003447698, -0.027766805084095163, 0.02003085787277577, 0.02519333126176555, -0.03670456259690515, -0.033613426182721055, -0.0425866249297782, -0.06031718638360072, -0.13955310852985053, -0.09824482971721257, -0.05275387742991564, 0.018721485091517328, -0.07476119830988402, -0.08856301848049863, 0.0598897336540306, 0.00819137654394083, 0.06837432392487768, 0.05262080390159117, 0.04699301737829923, 0.03447565959662932, 0.004676955077097393, 0.05403586768044747, 0.038420732564998734, -0.07821092378600068, -0.0020099087121498113, 0.06538807886113072, 0.021619839803756667, -0.04838691447828644, 0.04061847512454354, 0.00881357276130903, 0.01465900082695614, 0.07023983354767052, -0.1673297605551586, -0.0983653519342306, 0.13611762598242763, -0.07402449410275518, -0.2224989095603823, -0.19959253037015198, -0.02965361910358909, 0.03361227432431867, -0.12850382783598002, -0.09901989132103678, -0.047540581794435224, -0.06013426801493247, 0.08023335873002031, 0.11418374453711676, 0.07930503046725865, -0.025408605878724445, -0.03628411790815883, 0.05992879594582657, -0.008547965055576926, -0.06805070512925887, -0.07438178672523472, 0.06524167402513857, 0.005567254274995053, -0.08835115280115259, -0.06169547499546359, -0.014542881310121802, -0.018250453734010692, 0.037395305066259675, 0.0013793659625942938, 0.07614594586446942, 0.005146930712947997, -0.14998696079115698, -0.08941307094847456, -0.175588112033185, -0.07284025920659319, -0.019094014675232904, -0.029823957560744338, -0.1722150657926016, -0.2608598886086504, -7.014857705688735e-06, 0.06586316889664473, 0.059122832188152986, 0.040942678518238046, -0.021319569827131367, 0.02690421964969792, -0.008862142001424031, -0.011331705998739061, -0.004528727254396793, 0.02948338519902367, -0.03325376637641515, 0.029645244549284362, 0.07859139707072063, -0.0021353762176823756, -0.008828740833807514, -0.04622467331755167, 0.017761215987804325, -0.03728323328738517, -0.03286382396658503, -0.1283256916206792, -0.059250816947839645, -0.14952725974908423, -0.1141701731493772, -0.13460206645245357, 0.0320324895622517, -0.1063316889429322, -0.2861800075519669, -0.092425212449322, 0.021976938722958618, -0.01537203392600685, -0.1022372276668372, -0.02550877115382308, -0.00031785481602982245, 0.09963481643567977, 0.005992645636791796, 0.01918063039982494, 0.012927595953516715, 0.008307291038752261, 0.05051814985651133, 0.07326005429346406, 0.040615354867324406, 0.08244340336913109, -0.051320707609939356, -0.05958008072407744, 0.05486199613664033, -0.005736166510901332, -0.06907662681855865, -0.0843467243102656, -0.024189976507375362, -0.10649287828785052, -0.20802111580463986, -0.0029655159923817854, -0.037864352577530375, -0.23181164587038072, -0.15095036120433056, -0.0680835108460581, 0.0766800044281475, 0.062499598370628406, 0.05550920708921423, 0.010020550695828639, -0.010957045905734354, -0.06873847234246618, 0.026794605508791387, 0.05356102083752581, 0.0664952271879167, -0.032585071675312355, 0.0031979850271106527, 0.014074389909540349, -0.021227053218774522, 0.005890125239295527, 0.05772132686212109, -0.07742576410401272, -0.12942125212383146, 0.05674488762017534, 0.015735902881052394, -0.020835770429640358, -0.1223536442718784, -0.14182626692229788, -0.0314252291798408, -0.05756575007857196, -0.11308734746004781, -0.2481883848962948, -0.2862114143175087, -0.049222063508590756, -0.02963050044201715, -0.03346719977729448, -0.029347187254432076, -0.06515895698606919, -0.034946463855664536, -0.041203819878784846, -0.05588191818990899, -0.02041145450985199, 0.06448462643491878, -0.026070728369370536, 0.06762723084337843, 0.061410400268763286, 0.003219367416309407, -0.007825792392934393, 0.09246586967331978, 0.01913851506185331, -0.020839476439655825, -0.057527142722697995, -0.00859995773963695, 0.04953059104001419, 0.07270170350815386, -0.025883871504951476, -0.08557574107859503, -0.20808254203206966, -0.1315991880053702, -0.22819728360206204, -0.1420805553459831, -0.019019330861657507, -0.04384273016840093, 0.02332496110448845, -0.0729697614645497, 0.009287275143132634, -0.09115806574830199, -0.04433969999114726, 0.0928013951430979, -0.031172990285552676, -0.020070372040849174, -0.014717100153931796, 0.0159993666235527, -0.06400145896250461, -0.00498588910448023, 0.02596639883126868, 0.056909683827473724, 0.005533942218035163, -0.05843822143663329, 0.07544847464436602, -0.0097583355311644, 0.04566917578217122, 0.017130721986585155, -0.08509699995901339, 0.03799051057917462, -0.022997766541550484, -0.05353758805321651, -0.09295201820049032, 0.007954101138356715, -0.0028327992695039647, -0.07775902945307477, 0.03500073212298176, -0.018230436051867437, 0.08617792770999665, 0.03716601991898843, 0.041691652179824346, 0.010962832615627159, -0.09699429637528548, 0.08842573986474252, -0.0002243424254257162, -0.013297477044594231, 0.04004963563382693, -0.027801527514879913, 0.05158669285311452, 0.023133985275061903, 0.042341754233302345, 0.05240374820949733, 0.04272032015807352, 0.095952419933935, 0.07302140415789352, 0.0046513561984863495, -0.11117379682265328, -0.0037790431573874995, 0.02712742630314666, 0.057872763754234884, 0.07173565123766602, 0.057334846045686824, 0.033918040901062506, 0.11777768845828268, -0.03506850298118436, -0.07260799955747306, 0.045704319333095135, -0.08462905209977925, -0.011732180152939208, 0.01477331684842468, -0.04607878828297807, 0.046149401372610574, -0.025902886325948137, 0.04106683692389468, 0.020168234582002696, 0.032735240427849366, 0.05276038584454412, 0.024234915507632696, 0.11530248963455894, 0.007715315575991544, 0.12760463612739023, 0.0550195549638032, 0.11515192340554309, 0.03649140529270459, -0.061388334800901535, -0.05728084525232465, -0.020223095646022215, 0.022043092405659246, 0.00892441259176369, -0.015099044224283839, -0.07527521092848397, 0.01835120269308266, 0.03785531445453925, 0.01147317517889835, -0.006890741333684905, 0.02118298725957629, -0.057009281994923285, 0.010795944968944059, -0.12483646077443504, 0.0587418740582665, 0.0025995956187477545, -0.00529445719853699, -0.0750917544440923, 0.06114159662442517, 0.09250080487722133, 0.07842903618090513, 0.07166097158109502, 0.13618873931038392, -0.025851194920190407, 0.055662627684376076, 0.04733013585976446, 0.013272192273617422, -0.12724829605956486, -0.027733688846707797, -0.048581873884533805, -0.06053385465326111, -0.03683187223050254, -0.07163389131430875, 0.012724553048580065, 0.013437688309866715, -0.07360991387706498, -0.0629100984447439, -0.017721074805609575, -0.04228058142041545, -0.10223877292374452, 0.03845267984355795, -0.11142621282436653, -0.010542712774807221, 0.024512526965848287, 0.052613783180839695, -0.027119885694394975, -0.013267172491657804, -0.053886076846958696, -0.15084003528851467, 0.05516947227623936, 0.08603084305170587, 