[[[-0.02428225145641466, -0.06415850990116431, -0.04317695667452615, -0.09399031554943912, -0.04836058312327369, -0.050861398338174046, 0.046613759536694416, -0.059463139004578405, -0.011304817769343159, -0.03937538409808562, -0.027128746465730876, 0.00793168180553734, -0.012253467812191552, -0.00045725548489530614, -0.056904804514207555, -0.00831504476418473, 0.050224552395424775, 0.00899723266837909, -0.06738434779743765, 0.047967480022233784, 0.02186709694907597, 0.000951144173980234, 0.09493627914126893, 0.040909680148488864, 0.005364435232767802, 0.07634804733070504, -0.034118178868092, -0.015505961879621652, -0.08501651531824132, 0.0016694638949942369, 0.030230207224955504, -0.07663658220846632, 0.054308307841534995, 0.0005956888349474087, 0.0409972916531721, -0.03561366653995936, 0.003325068461681794, 0.020184788882055847, -0.008433066333088551, 0.04433191129066924, -0.003180358261069792, 0.03759743053687821, -0.010953241365499588, -0.0478896051574616, 0.018028339435422553, 0.0074099472971167965, -0.01454637282853381, -0.08729593645839707, 0.06590347321267728, -0.006757428765956042, -0.04272359996243929, -0.04997538700621602, -0.07120337265233367, -0.034733352573322836, 0.0700976870433104, -0.03221231431145554, 0.03327634055655124, -0.006138643909331623, 0.015929538055183916, 0.03427696228069255, -0.002702775332578375, -0.09013332129676696, -0.07150017349728828, 0.1045332792493023, 0.029588971969293436, -0.04606390215359869, -0.016648783288471615, -0.020166693534139465, 0.0101376138422147, 0.04211152483526538, -0.012149375573716594, 0.05782600516399208, 0.03591044115408962, -0.03773637931866341, 0.03911415545742692, 0.04560964962528288, -0.02946630111963603, 0.03203304758212058, -0.004440927760103919, 0.08868554075768127, -0.07028768424744208, 0.03604297171168315, -0.03923497994904548, -0.0617418822474163, -0.04161075789258156, 0.03450520918834267, 0.021775363567934896, -0.0018671132455621992, 0.059559464353990565, 0.0480035453069433, -0.026547937458083364, 0.010875035861767919, -0.04735259913895111, -0.04541444137430182, 0.02984141183035475, 0.03512353337156885, -0.005153396509600236, -0.030884825308524825, -0.015999411253061844, -0.062027951209784764, -0.014446537839806787, 0.01718898931338232, 0.01796024263224856, -0.006386443194823953, -0.07950071461753819, -0.044827527847730086, -0.05783744162769265, 0.07676337015252549, -0.07356982856958585, 0.045282222690623285, -0.01298363972795778, 0.03268233387258266, -0.06466890512026136, -0.011320842242236218, 0.14298886096958638, 0.045958371881223856, 0.035238466392380874, 0.06631566991062735, 0.08912920715595964, 0.0646635749723925, -0.09661345867657488, -0.016265862778480147, 0.05016460428850068, -0.011803909260532746, -0.05072272393628524, 0.0894487066953214, -0.06785113009913507, -0.07716051090851454, 0.011268955051275674, 0.022342973111304752, -0.03544889560268622, -0.004189960684638031, -0.008739189496456955, 0.028746534005877268, -0.004997218576598247, 0.014440026190310675, 0.056903679068190945, -0.05054318632891741, -0.041583953485627684, 0.03428725184797395, -0.043692282415009234, -0.017417528708384387, 0.027337609024661903, 0.010532003023976406, 0.04959673991874037, 0.007759431587243605, -0.0007631846100069486, -0.03588816775555876, -0.04775364156105661, -0.055111026543681094, -0.014948919959503554, 0.018041083590941975, 0.07695646258321358, 0.11379078324619307, 0.06832477655330615, -0.03294173175190705, -0.0778284148994309, 0.08856830817770454, 0.02285863044812641, 0.08352485821933482, 0.023573303649705314, 0.05461182477264171, 0.042554162799393544, -0.07777115855135852, -0.03864514870759329, -0.04081216070225656, 0.000722989373178903, -0.03312534671421935, -0.0203406219327775, -0.08440798819618697, 0.018121154119905464, -0.03879858686091209, -0.08201474176928567, -0.005830955486027362, 0.060306892444372415, -0.09650484652096156, -0.02202014511340778, -0.012513014018804799, 0.00699831284891648, -0.018126166588878313, 0.027647190173927083, 0.08582094837266958, 0.007306606292901357, 0.0014099260454402786, 0.003704018539410237, -0.028419200175554882, -0.011273346437338936, 0.04186842802679526, 0.013596899503847607, -0.03720667714910411, 0.020282623885239125, 0.007317644726002786, -0.057503600368295965, -0.04784027321725597, -0.036358496614623724, 0.012900779668779403, 0.054169193715486695, 0.06596352517384872, -0.012841747574518279, -0.11387797261690936, 0.0451349682167097, 0.030196516592652895, 0.08434964443819282, -0.0024373569443880442, -0.07137075097207007, -0.05831181128183112, -0.001520432449244034, 0.06636761991142912, -0.062182840646808506, 0.05975633198051969, 0.06601256166525836, 0.03168180392869955, 0.10156460973137525, 0.08547688948500037, 0.07685765058491371, 0.04962448517645438, -0.03222232354994072, 0.0006989428958361493, 0.013025372089309194, -0.05043607286557508, 0.0354371108012481, -0.04358524183069227, 0.006944463943623336, 0.06735488496455341, -0.034223523749125566, -0.02863022248048258, 0.0661282947971042, 0.0690723811839329, -0.08294300748899891, 0.039201089911337104, 0.0020938839922453783, 0.04932957983419816, -0.04999225242063641, 0.05519198828011458, 0.026506115063178525, 0.06533494533987902, -0.06556716374134201, 0.02457505604964226, -0.0356950632851941, -0.04837814741321271, 0.030201368746932748, 0.06698252531976358, -0.09392517748747625, 0.015029554664856485, 0.0672884147316809, -0.03734509561280609, -0.02752883351456936, 0.03326923005183657, 0.014583896718327436, -0.016959931248880043, -0.017623114781654972, 0.11266564982252927, 0.058618979884911555, 0.0525818996377956, 0.013731681944980702, 0.006992724344676197, -0.023477205018944996, -0.037404590273867264, 0.00630127685204206, -0.0020422906852248968, -0.01678853220362166, 0.039682799506739086, -0.012773694273420629, -0.058155059186982376, -0.017831190296996473, 0.1180966526869262, 0.10026017714057435, 0.10619819206911371, 0.040086961668742954, 0.10117711895983618, 0.07246479260760215, 0.0261240545547555, 0.03730556302793416, -0.007957541608973325, -0.022038405210548447, -0.07102802723965498, -0.002423696202233126, -0.06340124759389737, 0.02208540542249872, 0.08163666000282088, 0.029343542020015104, 0.021676017148681885, 0.09017873264315894, -0.03539889167777161, 0.01761284641965314, -0.0232594185789912, 0.0032699759947777776, 0.04231928126564305, 0.08713331752439092, 0.027126337333510143, 0.007298947965036718, -0.03199349878704484, 0.016250291324804024, 0.08097168745627596, 0.10012927239181345, 0.11343724637282136, 0.034000953460240284, 0.08924015569427944, -0.025732485544652812, -0.0093167907772277, 0.06895168039849144, -0.052218758045429636, -0.06844290577157278, 0.0208202252682855, -0.057955550233976035, 0.018841872024269332, 0.012087391699995337, 0.04597486139208369, -0.089372484493513, 0.03574565317406624, 0.047083452650779144, 0.022817998415212388, 0.03589611189005929, 0.04158012940761467, -0.008884487133847737, 0.021529430032325964, 0.020727158701313548, 0.08964662821492957, -0.021646822176718577, 0.052973203291305636, 0.006276687798080121, 0.017134600939619563, 0.04212649479911452, 0.06256838505964661, -0.0368793235154706, -0.0349374628963215, -0.01629874418599154, 0.06968115959691497, 0.061526730030413104, 0.04849615266758418, -0.032002150704182296, 0.015989714592017333, -0.01478117620907891, 0.018828368431859185, 0.016528105033798694, -0.0033024088052801873, 0.02976353374269738, 0.011536216334596235, 0.08381379824239467, 0.06957763334305783, -0.08774142939897116, 0.07423979246625258, 0.0067723204720842355, 0.058977188530508325, 0.10639408276206812, 0.0889216366443016, -0.06544262457280778, -0.012212440889610269, -0.12625461064389548, 0.007944130247082657, 0.05207507356086303, 0.0485215818437155, -0.00961237133114205, -0.043938058212518276, 0.010431850692736062, -0.031024842268589894, 0.03296896282879072, 0.039233122204362876, -0.01914291564916877, 0.013383329648086738, 0.0008209796533634368, 0.012179271875807387, 0.002804774419779888, 0.11109886795825455, 0.06445240378798656, -0.027279232418771608, 0.028515168916085645, 0.004632563659763226, 0.020329023904471128, -0.05722964227533584, -0.053906505021079916, -0.06544559428033925, -0.006796046861282679, 0.01568216145084322, -0.016110878685225802, -0.08654484932817672, -0.053729187364274476, -0.027425084362085274, 0.02710851722719232, -0.02757407948899039, 0.03689981638499714, 0.022448863121736114, 0.016747840405026256, -0.02644586125333009, 0.07051705328834075, -0.049659080360288294, 0.06854588228021294, 0.016726011804090814, 0.09624376309180144, 0.0019925287060117616, -0.010945591811980439, -0.0731370009778164, -0.11770669329658838, 0.011325049262176203, 0.05756979529102468, -0.0021012782280656834, 0.001164325152645377, 0.06624505635590526, 0.04834685581957932, 0.027811660368290574, -8.692754812420557e-05, 0.015312486109634227, 0.07470084383501377, -0.11203001507387482, -0.021368904255545003, 0.03868763776445048, 0.11720455432304185, 0.04638016111224813, -0.09171298004430954, 0.008935217545625124, 0.05612640372733167, 0.014262846472896062, -0.023036517753755394, 0.11248807253608942, 0.02994677190537388, 0.08029163981202253, 0.07726190400887376, -0.011833053064523834, -0.018848298658317667, -0.07877403733650645, -0.11419606964242188, 0.010329537631891029, 0.03705014088819312, -0.06376237342058841, 0.06822940745095801, 0.003042242763939879, 0.060573948487109903, 0.01283182081687038, 0.07487888816397482, -0.027198729370262152, 0.0015272255505295515, 0.0069566015381811175, 0.0013442245509997478, 0.11749096474763203, 0.1471986786003371, 0.05833969073470433, 0.004109941093408236, 0.10444030883753085, 0.019513992413938818, 0.1434887761921463, 0.019266606107528707, -0.030092741907873675, 0.0780291532502697, 0.07983171879800796, -0.019893362452488468, 0.008111117527865471, -0.055712285566737026, 0.026022357065855536, 0.0380681130304109, 0.05622452316795193, -0.06582859790234787, -0.016611265034343112, -0.09356855735151957, 0.04666344014896093, 0.012553714189393992, -0.04679311796918798, -0.007632294937812915, -0.09084895960743482, 0.1214725889686218, 0.08267033089238165, -0.022012272252330503, 0.09113431644172816, 0.021808947732881567, 0.08851424443898372, 0.0039035320186902012, -0.02311072554595265, -0.08034399409363188, 0.11836863362234612, -0.08017899970925127, 0.0019271975277186369, -0.014732409667808321, -0.03831054976256719, -0.053973235180548564, 0.08071246854336796, -0.04108210334824432, 0.08272492051176103, -0.11683892094422929, -0.054430466651563605, 0.05579261506649807, -0.05742732735132337, 0.03858489086821879, -0.041721110817366874, 0.06262051296417466, 0.0038299372111239766, 0.028924800044497566, -0.022684118673557168, 0.01760852834009256, 0.036653169586192205, -0.07570161304038571, 0.1323253993773867, 0.025562756006578768, 0.10357494416294692, -0.024088862175039954, -0.008162680654992451, -0.00011198317035529107, 0.024757556622150012, 0.03495037174783944, -0.08745929207001273, 0.019669054907409084, -0.08037966296599978, 0.05645806147310699, 0.006659996116182657, -0.039464194589447166, 0.03212104674973053, 0.00865915825410459, 0.03978276699496724, 0.032837132674248405, 0.015833210360870157, -0.013949920552483452, 0.016449183855006266, 0.0221642104622689, -0.010832147650763587, 0.07232513556826435, -0.07910769808013016, 0.03620797359316521, 0.02861196672361224, -0.03036002505148729, 0.05982588300383877, 0.11324899879574059, -0.008005570503470838, -0.002491636873270078, -0.024003986872384503, -0.07223318361113018, -0.01855148967541786, 0.01614610430001404, -0.00831451977411342, 0.010931681965507997, -0.008956904466065016, -0.004460052664244088, -0.043881857798486586, 0.06001440489641417, 0.039990806879594935, 0.09281734897004644, -0.05362445624038859, 0.009114012878641862, 0.019089653401879497, -0.014162064891900276, 0.022516539938100856, -0.10025748022627641, 0.0033471482554402344, -0.008627925243943887, -0.06777286198965164, 0.01081890496116963, 0.09871985776085099, 0.13687159632213494, 0.0045893315644779005, 0.08438402400824734, 0.02757758429442807, 0.09383680988141439, 0.06460626928540283, 0.06843309917580295, -0.0011289502566648715, 0.10542659533894602, 0.11359230298342707, -0.03386137114792795, -0.02061236922363284, 0.11473492506776876, -0.0643907871427973, -0.018445223973970953, -0.017098672861114512, 0.08951115327687136, 0.07423465545151474, -0.06344866079469419, 0.005451560626548927, -0.005425048001497161, -0.013034167852951303, -0.027643696242119466, -0.04421718337681125, 0.014525692432248934, 0.0008302446392912198, 0.010625057509735601, 0.11454531297642648, 0.1023873151586211, 0.09859781216291004, 0.06733275803466539, -0.022764447101958178, -0.13698636990495358, -0.026823201702394554, 0.05218231067587716, -0.03465257102922114, 0.00431472486229146, -0.016817353701116092, 0.034261332423206114, 0.09937054706153865, 0.06865811470751332, 0.00428332113499717, -0.05138997156284668, -0.01249874297115269, -0.014344632904946046, 0.021794256379308985, 0.016415980675479315, 0.02267379401204444, -0.0373533346555611, -0.02988432570536276, -0.0508476959920389, -0.04808474914751172, 0.012478812744191917, 0.05517387841140224, 0.02319726503188638, 0.1541477746359274, -0.01791023344420906, 0.013080995759873709, 0.0362928153634563, 0.06673669159285893, -0.11863381235663924, -0.07989431081727472, -0.0624500097474722, -0.031001478651217947, 0.060191181454704146, -0.07949288227859884, -0.06429635359661945, 0.012215017088983047, -0.09566858793604617, 0.01939224496349638, 0.033009536308573895, -0.029037591496934047, 0.1372698197547613, -0.04351234356394886, 0.025096546214507395, -0.045977151309270235, 0.018188142875055463, 0.02070953728090539, -0.06020292092221785, -0.05016133381624909, 0.02545790883307063, 0.10500179484477055, -0.008856897552373325, 0.09980267980502922, 0.03698366357988317, -0.04892023817434031, 0.13780619648027273, 0.037353714058200066, 0.022103194159231957, 0.06221986539852324, 0.07449681173193667, 0.003048641991088433, 0.000195891478156957, -0.07915500136071975, -0.000612015086259667, 0.0560253919458086, 0.06668743343694838, -0.04013255605699762, -0.044440703135922736, -0.007698707764139709, -0.07866149204130125, -0.03296365057379747, 0.02157453255878416, -0.013702632847078748, -0.04010740545917447, -0.00647698869850643, -0.05570333444382264, -0.003295726706512339, -0.03817629121860157, -0.05560606418578182, -0.05412377738754688, 0.003610038668497304, -0.046504481573894925, 0.0031049360893050317, 0.08192237815953216, 0.037419698638497124, 0.01062033466694003, 0.16005641103644022, 0.07346604195812668, 0.08981365175095297, 0.08753325172756762, 0.06778102036680037, 0.038494343195000925, -0.024921240041185046, 0.022849504462365243, -0.007101125350984442, 0.010499486046657742, -0.03327440061063842, -0.014667777887520498, 0.03398063368085065, -0.05296980201119436, -0.07359485503596733, 0.0291246777381601, 0.010341675729713173, -0.09871501497968396, -0.015619680630751722, -0.09104499889510882, 0.07070743755956892, -0.03495637917706487, -0.01563458808750261, -0.011052659769818682, 0.11572442038880555, 0.04154306238907858, 0.017872523427502136, 0.02637634748285893, 0.07631895126153657, -0.021651756986818087, 0.08220085663742868, 0.037258197428096614, -0.07295733716935969, 0.01784954081528989, -0.019033985249982815, 0.033681439836404044, 0.0069568968117311135, -0.02013803255728963, -0.07263354071873342, -0.03875457771319921, -0.08502066488318728, 0.0013227699864503425, -0.0518520115371186, 0.029951066025634167, 0.02849606433322665, -0.00981975815661691, -0.025056607523426786, -0.039267326747815065, -0.03117865159005695, 0.02014500903277732, -0.026599324681404916, -0.050048852630643986, 0.052122214114572664, -0.03306692366674806, -0.13512900513772244, 0.0021747793589843084, -0.027665614932782284, -0.038377690409962154, 0.02240115373767113, 0.03878742144138553, 0.052535571962066756, -0.0036963369987561153, 0.1989082179800196, -0.006794757066795183, -0.01403986986762574, 0.014288422984547203, -0.017736337008992163, -0.006301865098753334, -0.01039422976353545, -0.010766760660410168, 0.006898716869976432, 0.10640102519687879, 0.023484397584173384, 0.008974801990508454, -0.0275753140104126, 0.010465885603987986, -0.04175376506401104, 0.0640732611754474, 0.08204176052833569, 0.001064850829215269, -0.05636620286593854, 0.06355179813022356, 0.06612880418783992, 0.019450381536642077, 0.07996091173800042, -0.0031936039695072997, -0.045184718146876336, -0.03359446105343818, 0.004612814877172156, -0.0510283469750707, 0.033915484074006526, 0.10415401710676253, -0.07066890590890315, 0.06087204071562989, 0.021143556898312887, -0.08929511129790184, 0.0050453306344970745, -0.01975758907715415, -0.051854158458549036, 0.0022943072435767063, 0.03381505677143041, 0.015810325212860438, 0.002047763577241231, 0.07365868190976993, -0.05511672284398731, 0.024981609812510616, -0.027377120066795636, 0.03970778126736488, 0.0011349439624356566, 0.041098678565784, 0.059526414985811474, -0.013664874184272894, -0.026150326507881034, 0.04410608746816535, -0.008861481613965225, -0.016369723131677814, 0.004447883651330245, 0.0004065844700014336, 0.00848614538074841, -0.07126044380257629, 0.0741941372673859, 0.021659497970020463, -0.03759298936549134], [0.1550037349734303, -0.02191353782917794, 0.02024428423328676, -0.008711345222960389, -0.025721913161613673, 0.10016368518214683, -0.07237952581041097, -0.03702241216415851, -0.023630946013761894, 0.010810150429129453, -0.017063785895817633, 0.03091810096537753, 0.01122658047565025, -0.1038743891939426, -0.1374530595788316, 0.0013095813432927224, -0.11170124438210595, -0.0796033942061611, -0.09593818522473795, 0.029279112645893998, -0.07064592824815816, -0.06382382353999459, 0.038391549052610566, -0.08023815967794475, 0.037140321568957746, -0.0481191101445262, -0.08263745497484004, -0.07426190815473775, -0.05146941194743553, -0.03277632683564745, -0.04067710911936673, 0.011798011286770467, -0.05801332106316157, -0.03261159038663124, -0.004973315526975135, -0.05065867967314376, 0.013844561314964933, 0.0607607462555819, 0.026740762342962306, -0.03959894965993528, 0.056999093968305416, -0.013640736484608751, 0.015391972189222246, -0.008927124906111725, -0.05775100478488826, 0.0242521435338405, 0.021529500794065196, 0.08257317981070292, -0.014197191994256906, 0.0810864315437266, -0.065772092715014, 0.048986982539325034, 0.038184914215977965, 0.020711325489708964, -0.0007216780118565336, -0.08060037825074533, 0.02243667788239905, 0.03086740309575416, 0.08069824865849633, -0.03437419254115289, -0.04755254890955846, -0.10299207086588207, 0.0368934898073503, -0.009796603160798242, -0.07053260431681882, 0.09204198968451398, -0.03985342828485923, 0.08696437485854491, 3.715381325189637e-05, -0.004986642429844029, 0.00029435312186350563, -0.09525790667663125, 0.0397468521430133, 0.06850919066920648, 0.01980963575450162, -0.03931119401046965, 0.014318075146493713, -0.01568282810408271, 0.02256824842132891, 0.05594724687448221, -0.015286629281522475, -0.15541481414402566, -0.03665518736773573, 0.07186067093826647, 0.00721003305944617, 0.0017454405786923545, 0.0142829013112178, -0.01302061154088673, -0.09280389015569322, -0.03952616122657864, 0.0550119475634253, -0.002859644357083187, -0.014785857993812938, -0.02881748308999018, 0.0441390065871992, -0.018659314818869167, 0.020824657663302524, -0.024344028180526504, -0.0752752142775192, 0.05225919507149559, 0.004850492351486128, 0.05083708235307631, -0.027768552946454573, 0.07965937779911479, -0.0022650251923966177, 0.0018451955544270037, -0.017284209114243495, 0.004809351699804606, 0.06914281458542117, 0.04321076526583494, 0.03272903904094196, -0.023230399564745315, 0.11188434183300748, 0.05560658576016086, -0.052842309724180095, -0.06025406013850352, -0.07876093064329213, -0.06599289395790488, -0.027344638495529885, -0.02498119136821877, -0.019006601619335605, 0.0803936566043697, -0.002299807884981064, 0.030332346077785302, -0.04507779558139039, -0.0737339532811408, 0.04825969282974858, 0.06708401878312269, 0.003785128139522693, -0.014853554668365576, 0.05101613620677283, 0.00931411135656771, -0.09093130439767945, -0.03030345777884146, 0.0752716126239237, -0.021109761630483, -0.04768409836097916, 0.04380851036944141, -0.03343342874031885, 0.026535029559256986, 0.013104690016072326, -0.022950848458004675, -0.026149806887625065, -0.003955227980268794, -0.025601517126583564, -0.03459074967206121, 0.04243735996329748, 0.043824381592956735, -0.040121024758472325, 0.005081118949359822, 0.08900573324275207, 0.004147599193586229, 0.06801375773519074, 0.04059339710597107, -0.054542988193165345, -0.05202752964165982, -0.06729107901232347, -0.06355753316803116, 0.051569049885800515, 0.07749425566616515, 0.03698964945482968, -0.015366544554815023, 0.03608845417827174, -0.011534903580277051, 0.051830265303811955, 0.11795576626122503, 0.018921225513940283, -0.00181727976729892, 0.1069717565547927, -0.05138015101306161, -0.034845306530894245, -0.04081817792775148, 0.061548234423099875, 0.01694043825875211, 0.056784518251155484, 0.06712467843826836, 0.08496729548891618, -0.011166154961085866, -0.004329941563486567, 0.05923330644741233, 0.029184061350005577, -0.007727610650930608, 0.036953346145680736, -0.06083608005776197, -0.014438328833848848, -0.06518358790934449, -0.02631078740078844, 0.054184300722977675, 0.07103157135312528, 0.008132170847781145, -0.02155009730678126, -0.009567237584414794, 0.017265087490884606, 0.023906379165553833, 0.06067049828473721, -0.017112630229188047, -0.02918247399644341, -0.027261945408756802, -0.0025770026624251084, -0.0286804503523162, 0.04528600964703504, 0.01671954854263861, -0.08505421287923288, -0.001131491750917097, -0.10337376953239272, 0.02358055653120113, 0.029326607170335334, -0.08907882353902163, 0.023051404090805094, -0.061945204380507095, 0.05601717285431594, -0.02353409177371002, -0.09814768802730992, 0.09173295238134219, 0.03924282401766586, 0.03945790589299082, 0.020335186570405478, 0.034076972450241355, -0.07785368165381726, 0.026483962217079896, -0.007489822615655965, 0.010998592278977148, 0.12196674730988416, 0.05925047827764963, -0.0033986760347025783, 0.06271519652179716, -0.057317698963927244, -0.009270491363334328, 0.02443822108322613, 0.030192983200636944, 0.019775024781684955, -0.004467276721266218, -0.02881808393050567, 0.0904898521036184, 0.015952564419732577, -0.004014019771932657, -0.06581153974912964, -0.0031232343108084514, 0.005636712242120522, 0.06544401950639166, -0.07686221750068652, -0.016166700381796673, 0.021484840170838744, 0.022647011721979908, -0.05743762602140605, 0.052372837419510834, 0.018677365602885285, 0.03166953135597997, 0.027675346232936986, -0.028758452137108488, 0.026643967032287323, -0.03814336822785282, 0.012818310261888973, 0.003293888893162453, -0.07572325205035715, 0.042400530559012634, -0.056205171333495445, -0.08167554061277607, 0.018675985024194437, -0.061650215937051736, -0.0053094787047333215, 0.002841973534204883, -0.023996685873927958, 0.003523858000954382, 0.022788074789942554, 0.07244227701378465, -0.033124101373664866, -0.12756080435874298, -0.04017912694807224, 0.014705277410219991, 0.0046873235229807275, -0.018242879157807642, 0.022703111403579068, -0.0051276597992545945, 0.07026988552677828, -0.027002125698648783, -0.07237302312521676, 0.03533072609947186, -0.08216353002990487, -0.015509687725822856, -0.017596968585146342, -0.022028777726665956, 0.014113578718850113, 0.032745247547225007, -0.043673426677015535, 0.006817120960061645, 0.06457585931218318, -0.023504693794143126, 0.010080976202310526, 0.05535861594395705, -0.07075947552738755, 0.022993970362055655, 0.04850318459978768, -0.08240165171911921, -0.04865544846492766, -0.015814915341259686, -0.0028674233620235596, 0.08432042710352225, 0.02488077399731407, 0.10826272050657454, 0.08313488025265887, -0.011080516141736257, -0.021525290951433487, -0.07829800052916307, 0.00253466266718868, -0.07318084175561688, -0.09499864290435593, -0.09007796047338366, -0.01847719922190639, 0.06339283644454707, -0.03062871048953477, -0.08629136614352709, 0.04341208980826872, 0.0423706212109858, 0.02649057557089538, 0.012349991500267662, -0.09456203422262202, 0.015781560294692767, 0.07280862113289994, 0.06514781400443483, 0.02364001008827156, -0.07185221898790431, -0.10004100418571624, -0.006329056567628942, 0.02686379286645403, 0.13594351142400046, 0.048856040452898326, 0.020704491018641618, 0.11391095741026508, -0.06669689466043535, 0.08042410079542235, -0.002958280594168184, 0.07793997984529467, 0.032415116651384863, -0.11635408845554125, 0.0023925026868175875, -0.025162830896863386, 0.025519692266751597, 0.10060535867831844, -0.008122701636607306, 0.06752222795428124, -0.05182125030860981, -0.01084342189321313, 0.0287066927256988, 0.056979375059447945, 0.08337215291896947, -0.07663923608587447, 0.05677359499524984, -0.01020688461342408, -0.061559061279438575, 0.07823821114367709, -0.04028294436183174, 0.07653681027924565, 0.05008514031260807, 0.014640051088880139, 0.06593534872482731, -0.06255461393015947, 0.02630639390863606, 0.031928340561283956, -0.07010001710823462, -0.026951957941859207, -0.03543342522132868, 0.030136321614586754, 0.02091586894490845, 0.06662798372376987, -0.024817741972347648, 0.07027182396235788, -0.025542548762032404, 0.05943203156864973, 0.05945268708768685, 0.04959615111144455, 0.04246071572242967, 0.015595506785784842, 0.06584478245353152, 0.02747815224038143, -0.014314880189744047, 0.03269340883088196, -0.054086170213167535, -0.0176914382318132, 0.07750126473722489, 0.012895373869230996, 0.017623033337173983, -0.06438114216842174, 0.025321819652869112, -0.0024671907345731807, -0.012961524753025224, 0.06912098626182797, -0.04968970561745567, 0.04624047266084699, -0.013420571403834106, -0.04245131781384714, 0.043296328253372984, 0.028634471675436302, 0.08164533163582545, 0.0152932270201074, 0.008887405209600966, -0.01738208358211819, -0.014032417915646292, 0.07594091964016565, 0.008523051479764393, 0.014863259728454196, 0.04471757949230831, 0.021580235639079542, -0.09049983264164363, 0.07096153517053419, 0.04341256650792076, -0.012701028087479704, 0.02237625414112684, 0.1259113817176599, 0.019023840566753377, 0.039679346870587315, 0.014789252867873682, 0.000970434750001393, -0.06542748082420385, 0.011966660457211618, 0.007674874661429295, -0.09325551864835012, 0.018387297746211118, -0.014808241129042589, -0.027141645323173202, 0.009917948599234309, -0.0600272386411748, -0.02143954061878746, 0.03056194630309221, -0.10863633845759105, 0.08240099457725582, 0.021819392577545785, 0.10897443331908331, 0.038490767701760124, 0.023666045192856304, 0.05864054379423874, 0.02964307146719998, 0.03834340654734173, 0.06399337186526365, -0.06436898650554213, 0.005082432560721368, 0.043331004533107564, 0.04400890616814524, 0.128280340237308, -0.00908148809823923, 0.054333275504832274, -0.06017728465055126, 0.012173391287638812, 0.07335343077469167, 0.031460179835531635, 0.043577284776671575, 0.03655478962017763, -0.002622083193900905, 0.023209236430578407, -0.020792010035713255, 0.04931365370500181, -0.0673951705345427, -0.03358403802074038, -0.02750090325649059, -0.0697594213072303, -0.01883816058168017, -0.07375891047639846, 0.037603879624578174, 0.11677187293969211, 0.11676271313742882, -0.10607538620425067, -0.14534149771201724, 0.036346563389595986, -0.03690760586197986, 0.022943616642983975, 0.10040108621604335, 0.012685313781287235, -0.011876431766502975, -0.09132803330533694, 0.004125129312757155, 0.04437640693750859, -0.06586050175414172, 0.057954734174116875, -0.0076106731883313385, 0.035141728077974915, 0.03343282607618858, 0.007092425358746058, 0.0719299469634207, -0.010700674864534701, 0.016444942304682734, 0.024557804022858558, 0.009935868920107607, 0.028300224004173986, -0.06302406210110524, 0.030271725366621028, 0.016047852683227636, -0.028184686108321293, -0.07545769751005726, -0.026077016345953014, -0.04701689816319683, -0.0015299146089142524, 0.04490331066697967, 0.02176680380283795, 0.030510802396168237, -0.0018739486909305077, -0.0702487243434932, 0.018366997345193585, -0.07099867731618385, -0.010282636935548551, 0.04987678552481851, 0.04038171575064834, 0.0085537139459886, 0.03768100595465184, -0.05986885532802778, -0.009664968549539351, -0.003920070472377754, -0.09646501407908005, -0.08501750470356552, 0.02075392839435951, -0.009387154082451197, 0.0013466729206879574, 0.005567733571730312, -0.027390181645182695, 0.021520991454235156, -0.034358564133909336, -0.1468927621543164, -0.04191748297695649, 0.08857196258097852, 0.014634307914833826, -0.0011156330457270263, -0.0011483705624497223, 0.00325374469286854, -0.04433336918705667, 0.00828009988228204, 0.05388173415940825, 0.016818024850558836, 0.02959825598768413, 0.010636745572422997, 0.08694340022256941, 0.019538105954399112, -0.0029486402686546686, -0.06721582615367347, -0.026785909590460122, 0.011450966871856172, 0.030990845433607413, -0.016408524567958365, -0.03730359458692454, 0.0758763113361261, -0.0504553925680368, -0.008454687094194105, -0.05342164867072628, 0.02490445245647847, 0.060350143855924965, 0.04567936334783094, -0.007883043764334758, 0.034539724258828605, -0.06053535336444291, 0.009355286919667707, 0.0003353457076619752, -0.06485823556545145, 0.018223105099029854, 0.017641231145031855, 0.037103629517859935, 0.1002910756165282, 0.04581062147972003, 0.06154402227283205, 0.030542515247228823, 0.049057529851503974, -0.05787831554081954, -0.000794392827114472, -0.06202705672721567, -0.05985262184787558, 0.09859067955890875, -0.04737932898224257, -0.019883701900277995, 0.04789406286271384, -0.0037662196161245046, -0.04542094933864669, -0.07882588796720176, -0.060015907331319666, 0.017280846783636186, 0.02912162066718364, -0.021974735745983392, 0.07275301768247368, -0.00801779485895532, 0.021751022646642436, 0.012748335500569462, 0.005637484188383168, 0.03182992144094364, -0.024551140821214366, -0.02572568748293971, 0.04639602408771172, 0.014602522407018828, 0.005994747574513911, -0.005373410029093732, -0.004535715020267032, 0.04419992098446727, -0.056522063324253635, 0.0668425199050116, -0.07525236517283038, -0.052885511662336605, -0.020704728621734995, 0.0451169383443265, -0.016573837915325948, 0.016081653390579684, -0.10466929700308825, -0.17026645590949166, -0.05382195290441859, -0.010370779863345416, -0.01556278267453732, 0.07871671443314895, -0.038099305239065816, -0.0038967291072143314, -0.034584535287582444, -0.005757566626107505, -0.013806234464200168, 0.06398434441581707, 0.018817554779689605, -0.03502922246115817, 0.017297303612908783, -0.07662770246033487, 0.04217605297693314, 0.013807078306637521, -0.008301528782160712, -0.04198647045885255, 0.019361844615092494, 0.06116851886393884, 0.011472208032553066, 0.04047926995667757, -0.04338089014330265, -0.05606297911514084, -0.0011259127198898072, 0.08953234444263006, 0.02227571862375115, -0.11558048974357345, -0.023309974810965944, -0.02485340049610711, 0.044366745863191136, 0.0977615876415936, -0.05782522355705858, -0.007886934806582566, 0.04287840103633402, 0.09333766821109936, -0.0015439817128317223, 0.08230268969415429, -0.03233400250380221, 0.04040743415920657, 0.0028137766481117865, 3.3891637089477945e-05, 0.047736989314550594, 0.0106855279699709, -0.023205711548869527, -0.07579558194604653, -0.02706861136980732, -0.007952032630395112, 0.020714914117968913, 0.0756636531200021, -0.021801168689620273, -0.006652448133891136, -0.046464219838222055, -0.03193788244111449, -0.03411497654531551, -0.07184704315680945, -0.041529115891287514, -0.02796414477129782, -0.009396281304794892, 0.031098754450896236, -0.04114744225839016, 0.03833333247087778, 0.0526289874440159, 0.05555326227311959, 0.023211292631997945, 0.01007387689414568, -0.05400248015123993, 0.015526041665213193, -0.04394816507546397, -0.04524408136518421, -0.04442080236917423, 0.06701999883902385, -0.03099087332854214, 0.02409247144631122, -0.05242930679543551, -0.1217709097510577, 0.029348722629396518, -0.01608188726009429, -0.02696005925707991, 0.03931561864059608, -0.008398008591800513, -0.034165051547538766, -0.044741936088551724, -0.12426889684476505, -0.033425825791800666, 0.009242037410563125, -0.0201943515376352, -0.07784467882170457, 0.00047615943775655435, -0.03919901637359732, -0.002572322599651295, 0.04638722622769271, 0.07013792265660405, -0.0384697257008928, 0.03965166484731033, -0.05324817500659966, -0.01860093140293947, 0.10343175159770354, -0.001904219187431501, 0.03629377008420977, -0.04705136862527824, -0.054493996026975154, -0.02509118191674246, 0.1284912149887675, -0.07208280799453877, -0.00391787605245391, -0.0014959582973533756, 0.027009135350169258, -0.04064807141807632, 0.011629084590374024, 0.046615889968182576, 0.08754328914526477, 0.014324152674824172, 0.019910123220982765, 0.041607554191268444, 0.0909434018872872, 0.002770482317152936, 0.08042630813330894, -0.022174676251617412, 0.008592685201050299, -0.03811317232967201, 0.03295056481648089, 0.04487312398156123, 0.045010318971504024, -0.03062036037754952, 0.04629261660762769, -0.008627157069925624, 0.03377631787159642, -0.04491413856623737, -0.02033567000661749, 0.019394972857238655, -0.06360835502571295, 0.023166995714204806, -0.0611588647989464, 0.03869005631289711, 0.05692259998739223, -0.03591727653253715, 0.037985990476201756, 0.023823624027432263, 0.12088914061675111, 0.026402780493335887, 0.016308523337911305, 0.06457892976752348, 0.0635902810258108, -0.06135442795532944, -0.048048835093362705, -0.030927692104545143, 0.00796185098637086, 0.006401897881637613, 0.052898284993157484, -0.04093228141636211, 0.03928020818253261, 0.10418374897920163, 0.003904412383151113, -0.03575166348405522, -0.03093613989113172, 0.03573841437922501, 0.12264992621778252, -0.03869353651528075, -0.03861138665787284, -0.05028116362249542, -0.058201529379987724, 0.0676886860290055, -0.03718428212913185, -0.017298029029840043, -0.01511610987429872, -0.014249577102954552, -0.03842138078401127, -0.022435177558743087, 0.040060084297060775, -0.05086793501943402, -0.033218912251913355, -0.010762449238890436, -0.016952844053813674, 0.009004274541989805, -0.03179992249096227, 0.03739661926039945, -0.08669489345139532, 0.029843528323960634, -0.018262407288708118, -0.002586273390798402, 0.04934417529088338, 0.03568651986869346, -0.01822919888369086, 0.07408774528369597, -0.016271066777430745, 0.08369784332039305], [-0.045966790269121996, 0.0029395064450901177, 0.05161293454425961, 0.06504452323767915, -0.00898113530973665, 0.11611652391392281, -0.013776087336544581, 0.020026210789352548, 0.014211097911097982, -0.0873521672511309, 0.015246021254752435, -0.0843853725990426, -0.0030115445327381337, 0.03807953903084103, 0.04187958799321681, -0.02905035311490112, -0.06060733567629847, -0.0507256856016483, 0.013441726335491103, -0.027244066429928285, -0.05858710665289171, -0.007053075537862838, -0.06351839377203936, 0.06832635818041602, -0.06691260039839278, 0.02593638632338309, 0.005348110168684492, -0.041935817081952174, -0.0702423373055187, -0.010150758743373928, -0.049547832132409986, 0.04756574490395443, -0.07852836926014546, 0.04688066675859894, -0.027119185263092694, 0.03696511170874201, 0.07574537151932823, -0.022085877520077454, 0.027926539215425504, -0.013395982359989162, -0.003500393724403124, 0.08589129297875607, 0.0850966566063724, 0.04107716722546165, -0.05263651220918594, -0.06617798107428617, 0.005433457695260052, -0.02162069596321338, 0.043257014294807876, -0.007153340770512467, 0.032871957344992604, -0.007809063928519793, 0.04776260433784167, 0.019562066154345397, -0.01987077737235838, 0.02434065304493017, -0.05363630209069336, 0.0025178018731856515, 0.05683061246449445, 0.04706341848094848, -0.05891584845474173, -0.01752233271588669, -0.01362679930593893, -0.01820813010337795, -0.05839215086823683, -0.0022686558684642815, 0.10145753330737549, 0.08925936770843594, 0.011159673818437845, -0.02126683350730077, 0.008908787798196056, -0.06428696897377546, 0.04543556460527639, 0.03665482531510434, -0.13357120664070576, 0.011165030735352162, 0.04641165861761715, 0.004866084513058191, -0.017202486742531147, 0.0968791703936753, 0.0538489140546992, 0.04036633024829208, 0.03568867128352215, -0.02385976937481477, -0.030585579107223558, 0.001859198643670054, 0.005785207117050445, 0.05013538011220855, -0.03763703755211767, -0.0492654771085561, -0.1064442401873442, -0.04518066195735927, 0.04875108149416268, -0.08240017011136942, -0.0004053898648106929, 0.03572541922942855, -0.05390570896743707, -0.0006768245783313222, -0.019970551198828734, -0.035268570343126006, 0.0015152400238004715, -0.032986846699021556, -0.042008456819290683, 0.021401162711406074, 0.07607228173564076, -0.0326496907196021, -0.08586314393641847, 0.018211333843085955, 0.00033266140027044157, -0.00137568467374687, 0.034634549875723605, 0.0183221622266373, -0.0278441846957861, -0.023739957187329675, -0.02629717591697688, -0.06352367656891834, 0.004001570060743457, 0.027026301368030522, 0.004925776276210483, 0.01762787976356982, -0.01259597245772764, 0.0632534202196178, 0.0089602519408347, -0.0035659755100723857, -0.00017703351083830574, 0.02528486906184936, -0.007063647808186429, 0.1241190960141558, 0.06350641375228454, -0.03739848159704153, 0.017750793665518308, -0.0031208462926498363, -0.06202489866735933, 0.06749153678242063, -0.04577949940471458, 0.07921559196761045, -0.027315578302796118, 0.008199262071854993, 0.005424452425622571, -0.06177751066329144, -0.013441596920056077, -0.07127689208652253, 0.11896708178273234, -0.04751753559211078, -0.06536208628572573, -0.03630322813348776, -0.061210630824176354, -0.006275359211750845, -0.0433799576225608, 0.011334037622036228, 0.10116608970134762, 0.014667481093174369, -0.0320792984616141, -0.05295608904766119, -0.005927392899873529, 0.07015975654058577, 0.02899930107981245, -0.025303227901231445, -0.1494683794830688, 0.04706877541346952, 0.02791795798312991, 0.0024692327956073873, -0.03859839441631915, -0.03223830234815532, -0.030156715905151642, 0.03388792697741913, -0.06714282735423968, 0.007388183289360913, -0.02389816586467855, 0.02538671362018745, 0.02112241071753895, -0.09015006967260197, -0.06031176894722684, 0.06528147280708492, 0.03651350924573771, -0.04694376454909406, -0.016427864101222656, 0.08260424870825009, 0.008028970639121981, 0.030399819595827417, 0.06702806279094273, -0.046441469967102814, 0.01857950656159897, 0.09680929398568759, 0.010493527320696432, 0.07672273390490279, 0.10078425222012209, 0.009748701756392118, 0.04772870248831255, 0.056194685570944446, -0.02497617549625465, 0.025523571561111316, -0.020520287925662416, 0.008992085006551565, -0.05130630043255967, 0.08974455302137714, -0.04960867632324202, 0.0055507186536510236, 0.021014569204910228, 0.009367431922934545, 0.00326081983069019, 0.06286928509459802, 0.08254386744384562, 0.10112939706508181, 0.05395707254265256, 0.05722107723481141, 0.0602195812747248, 0.10501029320104897, 0.11164454614247554, -0.011173284226471248, 0.011493288395394081, -0.03976887250215053, -0.03419901726025847, 0.0662306134443873, 0.03131121650829258, -0.039508109681949226, 0.028256113825471992, -0.008958766814185818, 0.01959263147109288, 0.05024952785959624, -0.019994493109418834, -0.006668824016261519, 0.005012948898672178, -0.009717582083431119, -0.04069354072858246, -0.03830952576861707, -0.04120209538979001, 0.029207836163677944, -0.06863380984604453, 0.03882720758554098, 0.02673257749375316, 0.02952224904998606, 0.004328301674278945, -0.0484509116365599, 0.04765255077700323, 0.05655567364130194, 0.04295211314811637, 0.0289004912384952, 0.0692252983334057, 0.11159503689325785, 0.09189094387160457, 0.020078400794960816, 0.0934743936467154, -0.030126736789572808, 0.06059340461280954, 0.035404831166981364, -0.1041053964560667, -0.03338552441482271, -0.03330382491986886, -0.03324048927958763, 0.0014316423417947719, 0.053924466970730875, 0.03620796181388327, -0.00047436181329616557, -0.057540866456937755, 0.005763597280691714, 0.06085256015247669, 0.013751765016493065, 0.013430269887841602, -0.02860367268550477, -0.058130829038065726, -0.029218886580033035, 0.06636494656803948, -0.04850101515758325, -0.03943330421369675, 0.010307756744778475, 0.09831669463655542, -0.0763772295955459, 0.05007351578865368, -0.06412147587107135, 0.006018340514688254, -0.011715131466644697, 0.08891594795277503, -0.003960454555908627, -0.12799685766096278, -0.025294742734690758, -0.0191971490698298, -0.039933759707629024, 0.04674871442768231, -0.05797428910373217, -0.041691525246502235, 0.03510091670530102, 0.030274637864747985, 0.04762296518529669, -0.01741572302564931, -0.011890272442061318, -0.04093784172116809, -0.12355109277961004, -0.11207042090179713, 0.06529861970380745, 0.07154046258393033, -0.08153753978286091, 0.01739319564301183, -0.057020011497132754, 0.06656963828034763, -0.002580072041919953, -0.015382830318911528, 0.014367339718916747, -0.03261097882967819, 0.07481855878987834, -0.01914617345127415, 0.01758496080893245, -0.07929199650336846, 0.16757753132643033, -0.028498245431147554, 0.012364008697567973, -0.03461297469003218, -0.04120201572553096, -0.009885679596673169, 0.010765031286620763, 0.052382756507053915, 0.013953615310247936, 0.06806034389063137, -0.019425271820866303, -0.04218021567743357, 0.014282495245717203, -0.16225287945012104, 0.0944456996709866, -0.041381233957224955, -0.07703424181841506, 0.018088804102185923, 0.007870415701155946, -0.09672552247522336, -0.005917916259897035, -0.017549871801035247, 0.0681183658522249, 0.0680465225851888, -0.046474515534664806, -0.018254385102383437, -0.08196860398946819, -0.04762833162455369, 0.0036031427410431888, 0.043697654490864574, -0.02377372269542954, 0.04333415544649929, -0.07314393846124675, 0.01841027570266811, 0.014714282394703085, -0.06448017571798788, -0.04498220675777193, 0.07804342116282252, 0.03775621998687182, 0.012410442422232267, -0.038288488417417, -0.07657682176730342, 0.09279211438632949, -0.018106786227871926, 0.05448418088427898, -0.02637696688503, -0.02458875044347566, 0.060771696820937894, -0.02532172761729329, -0.03594064434753323, 0.09808414135654317, 0.0631170697988245, 0.0533998259844422, -0.04870879337271037, -0.08394925255318503, -0.002565228592896293, 0.06402279476150691, 0.034624260527076095, 0.020800407689925166, 0.018712314060148668, 0.0069653659100410055, 0.10345912083653026, -0.11646399344691125, -0.05032321460063247, -0.017503197309607785, -0.06558043983718977, -0.05824052403827385, -0.0418111402226125, -0.030616254459022732, -0.00029904771815597326, -0.08784687713698466, 0.033189305059156224, 0.09589681268319951, 0.1878578520151011, 0.06265188013092392, 0.05735787617560087, -0.0966304515362184, -0.03582460157930049, -0.030267366671062394, 0.00871331259573272, -0.046030919344814465, -0.0304698345046436, 0.0429411378753924, 0.002563024985311171, -0.033338399280657904, -0.01094936893536616, 0.08523454539970739, -0.028653783533856822, 0.06792594488582264, 0.03826737558075371, -0.08631553500443091, 0.03778858071539122, -0.0022390243442878665, -0.04990554896402344, -0.011670310927214496, 0.04617941948663525, 0.060296626432709235, 0.016628337909973232, -0.015263808973434925, 0.0636559180603576, 0.05619672182667773, 0.05986623570133287, 0.10859481640884128, -0.016189829593594253, -0.07471625391270982, -0.16846670446622075, 0.04682897643655533, 0.06835647465270546, -0.04733919982646853, 0.038658260815436093, 0.03479486456610054, -0.024583333108122118, -0.03881461109844807, -0.025510099037672214, 0.05703169342701313, 0.02937389333828667, -0.03140609745817375, 0.044687900855860586, 0.04864041069868271, 0.026529839492680073, 0.024321320274793907, 0.007687608643930065, 0.06706686324923528, -0.0263051617828269, 0.03903525631505507, 0.015228307223178627, 0.011827467161748678, -0.08546142988324583, -0.0036755613538681613, 0.00637859687783093, 0.03661171146281463, -0.07508263373084956, -0.057211262747776284, -0.0571879982502626, -0.06499284826855899, 0.04873139175748308, 0.049140820892142015, 0.014113627254153783, -0.0197875904203123, -0.016129241904164617, -0.11427802951204799, 0.034930664266187225, 0.004460844117993775, -0.02905797844092524, -0.03888321011112338, 0.04414372140095796, -0.04585163821219654, 0.1215224893030454, -0.004838559622883925, -0.0359442236318596, 0.0022212716310524693, -0.033428042553039015, 0.013195841893649477, 0.036024072407467723, -0.012021461276278674, -0.11759388472052627, 0.025281966328807047, -0.043178772225543414, -0.056176641463273766, 0.04090682662343226, -0.040085928681546076, -0.030425204352123942, 0.029418900658927546, 0.028776842775731875, -0.023341085422664696, 0.05970895408199149, 0.04366571363445226, 0.07858604264275088, 0.019216395340746994, -0.01239908332226148, -0.036165271914096436, 0.004110114765786596, -0.0179644213824263, 0.041418780319859703, 0.004740360133948, 0.069701204781795, 0.03457475307368673, 0.02789245314867107, -0.030644669635793285, 0.05795500527034913, -0.057280774017512616, 0.06488686886538506, 0.03360039455624117, 0.025853950076225936, -0.04050773117614341, -0.09341393320672903, -0.040446905540550714, 0.09041729043428298, 0.01039885767168856, -0.03663800091619162, 0.055930715882831904, 0.06821138830962427, -0.010652542605257666, 0.06822510200312167, 0.08096229414342904, 0.08965654062998182, 0.03276721357648372, -0.08008711228165406, 0.02343317325126351, 0.04166187893543419, -0.017197801932433657, 0.007299040038995286, 0.012860655951296908, -0.07626217611452442, -0.019551074156546822, 0.031825768416661945, 0.14742604034904688, -0.012142877635354722, 0.044808829336042404, -0.0403222702739347, 0.020025437290181986, -0.02025738757540099, 0.039448533294840854, 0.005703752387754307, -0.0009753245464686861, -0.020414522141188652, -0.08677834480306648, -0.04003861797055291, 0.049571444350135455, 0.05606345282737963, -0.10409910450200682, -0.07227586430126978, 0.08397370399518808, 0.04794233641248455, 0.03250830533656115, 0.03506916575462835, 0.08392266651416053, 0.03954796246359671, 0.028418513066629746, -0.010253632221496002, -0.07450652917593077, 0.08268963774395481, 0.02459807566563524, -0.048182677271283496, -0.08248519320767544, 0.04206316112629797, -0.006610539567318245, -0.014150220954929663, 0.05799147585456268, -0.17267337267853006, -0.09015290423280219, -0.08057514104331265, -0.020905272949514435, -0.02332188543007981, -0.01047561473786228, -0.006367503499393279, 0.10752015031062301, 0.07501568745918745, -0.08793369678096244, -0.020183581806669237, -0.053842753683090334, 0.014775313641857291, 0.024733782999121434, -0.01700661562124406, -0.0076790691626156616, 0.014868225360373804, -0.08059780452705503, 0.02544711560728239, 0.08129019669405113, -0.06224340237146796, -0.010518148636534616, 0.014520988319478434, 0.015970832796259004, 0.03231066459118134, -0.06098648534267138, 0.035134530949467835, 0.019410717711904633, 0.05358170416893848, -0.03395926281435959, -0.02215688552803605, -0.06405368101068874, -0.03519292029495035, 0.032499576062349364, -0.0056994040261440235, 0.004829557070253717, -0.008717933996706157, -0.027591029873510628, 0.002587882432134353, 0.09233871716592366, 0.03865475913273005, -0.05617068227762125, -0.020388127620678237, 0.06784197243352723, -0.01550381939966205, 0.042785017878842986, 0.0077441089200169155, -0.002145770520121313, -0.046539774908830565, 0.034068893290353244, -0.0358568435495786, 0.06168213577533433, -0.05664290219744135, -0.06290468153444764, 0.0025841675233059503, 0.08410132939628909, 0.03998257360577254, -0.024733829632511507, -0.10811092858600273, -0.08404348323155729, 0.010205061612729953, 0.016491811562418413, 0.07489414154432332, -0.0002875768795034297, -0.0030213467337033484, -0.1371401326425985, 0.0732183027668035, 0.06796284685828267, 0.027694679099482405, 0.042607143758683685, -0.03025380694267491, -0.03821845423835925, 0.046953525739812804, 0.05004765544059477, 0.005910862097334958, -0.07384474389939726, 0.012186790411953169, -0.0405465353023757, -0.05374206976166077, 0.08616701144406692, 0.0006256223137884547, 0.023930806746600294, 0.10330182407676841, -0.005078401619994893, 0.019893048164546553, -0.04356439026108224, -0.022874590784261697, -0.0786580680558942, -0.03434983401558131, 0.0243860090525215, -0.06383426202999341, -0.022605254215752747, 0.034464122310221286, -0.004668442112831457, 0.0008174867193684633, 0.03371164826013953, 0.07489452351593714, -0.07364590486731995, -0.01550525313370254, -0.02832395749371314, -0.006672843593843324, 0.04610327863190687, 0.035014313925778494, 0.038859265693116846, 0.013458618454597775, -0.10807998559700935, -0.053969206969360646, 0.009561618349706721, -0.05762909620195847, -0.05449353790435161, 0.005342535491955502, 0.04088066901218616, 0.04857962377382837, 0.1048026170418281, 0.05167148677588538, 0.07274041850318873, 0.07075631416797888, -0.09404171645343876, -0.09686895879668889, -0.06595158231879931, 0.0429761336700665, 0.0563582682115097, 0.06543847182123233, 0.08641772561159548, 0.015250988548852325, -0.027776857486734162, 0.05238720669159451, 0.06510492974066576, -0.011141478991189448, 0.010926272823012678, -0.09096661114913192, 0.0016677309565007665, -0.026498995538699072, 0.009503408102228723, -0.07436288497741284, 0.01786398113479046, 0.04113255760082872, -0.07136613575760244, 0.09772652515915826, -0.06921201573000267, -0.032999919196049825, 0.022726069522720695, 0.07705379702909056, -0.03253317798016627, 0.09685582776949257, -0.04811316379454243, -0.05061121606375206, -0.06508283914131527, -0.05778750781368659, -0.009595563272132587, 0.03441368063739848, 0.004087296544375214, -0.038088781509104566, 0.04707759566565124, -0.0504479014009148, 0.0054867687508947495, -0.0711521059529418, -0.07554211781199074, -0.06355419414567957, 0.05259466425954621, 0.026401600078418422, 0.10426978602069814, 0.03038613618634548, 0.1376419993556037, -0.07103094754839628, -0.07447519060299934, -0.04602010310691561, 0.03615040616463527, 0.016910326514554014, 0.0035241114342321237, -0.021353089128048248, -0.04415948366794463, -0.012202828297804044, 0.013130352975134651, -0.040701350825340654, 0.04912806007745834, 0.0379372199975847, -0.003696455747832191, 0.016860361589862354, 0.052346312771141, 0.0546512056335563, 0.03844427539553819, 0.00998612321585935, -0.01841367341623132, -0.07276774469232646, 0.014226069462186974, -0.007477562188794494, -0.03276751749747362, 0.01432385172598837, 0.011864141274885156, -0.020574638135789733, 0.004556768284286435, 0.02188564207841835, 0.04164198162295175, 0.02515314044761299, 0.006648872541325829, -0.07019097113806777, -0.035572026376688, -0.026896356321997543, 0.04938870802780965, -0.020537877239930325, 0.05254824564631271, 0.06343014241365302, -0.014290560565722754, -0.01674105872826822, 0.006889432444555906, 0.0012526699352825306, -0.04751648726776143, -0.02434544434632725, -0.039390945498994044, 0.0022763965656612843, 0.02177082563281742, 0.023401334828932176, 0.02905340869887383, -0.0848000403209046, -0.04248107800028136, -0.009534433929525531, -0.050087287147336255, 0.021982677162409318, -0.03268312957949656, -0.022970097727413107, 0.044529566497669607, 0.010812777445562981, 0.014566092556591722, 0.02758364076189806, -0.041622013493739625, -0.01119423727697234, -0.02631629501591816, -0.018846801737220035, 0.007999066422906351, -0.02399792235626988, -0.03302276435097435, -0.09227721381475847, 0.022033308895669453, -0.006360851301853608, 0.0456653996256845, -0.022102168847008576, 0.05169387140141835, 0.08474302822456992, 0.03287780507913744, 0.03503591244386585, 0.008272439674914185], [0.049984880532987976, 0.02374819401006428, -0.006592044116874864, 0.053420423716016276, -0.0650874066987109, 0.04218880925755964, 0.028329498253541776, -0.049521710223843024, 0.01601144357955759, -0.042952763475211875, -0.02838039511832332, 0.021547386267874183, 0.02376897174833833, -0.04114915266716262, 0.005855121290809395, -0.03477887752957258, 0.00806548530875781, -0.11656254788037858, 0.028160024483003244, 0.0676023926617992, -0.04213254996949562, -0.06185495124044619, -0.02722571111462761, 0.008237101875954878, -0.05816155785099099, -0.11540374306743807, 0.031156123148865487, -0.04825551009393075, -0.07565700383985136, 0.025757814829327035, 0.1043209128334916, 0.004818079328152853, -0.02719390035503609, 0.011035851388430514, -0.03985320670754623, 0.07093194329490968, 0.025818647264639016, -0.02118592159652191, 0.008986338495312671, -0.045187705016081346, 0.0462306025612957, -0.06691651028423334, -0.04757340264244653, -0.012765998219714279, 0.014185016346290243, -0.11593714535983622, -0.018994869618903922, -0.06937778140861453, 0.08093977209126829, -0.013246710463542527, -0.005628749550936094, 0.030637807096785735, 0.0973700840249881, -0.029353256569330053, -0.04437802609484707, -0.07654063467343412, 0.04016885075921447, 0.047637052303945986, -0.02122264608779867, -0.057162679155932775, 0.017315841501834336, -0.012759050643762345, 0.0824663959676843, 0.01576745353218871, 0.0008933557004241491, -0.07042133472928917, 0.04800261226948698, 0.0040596018494040865, 0.027997326089601482, 0.0064103194651919035, -0.04539281334750989, 0.08482912578607209, -0.025546372073267154, -0.0005743488637843977, 0.0315222049875493, 0.04229027969834921, -0.007710168114134718, 0.0060295063012719315, 0.05106046438321397, 0.07624196755830494, -0.02020268402604956, 0.03552196928337649, -0.00026404660190494666, 0.03169095700753337, 0.00061058581092343, 0.04205800733889384, 0.05343957504165602, 0.12214346802783309, 0.03504509821896367, 0.0412274332193269, -0.007275989076766623, 0.04608831211235083, 0.006536228733166905, 0.03939771832738733, -0.061844722814242754, -0.03568472609853921, 0.016674533059962204, -0.10139273330529627, 0.09827322429256229, 0.0575380842952027, -0.017524456899940043, -0.06572664063011344, 0.006782916882860265, -0.037180910126102744, -0.03089344418369844, -0.0439996342301537, -0.03059560648330281, 0.011100051353114192, -0.08592530149116123, 0.03717165303824011, -0.09763124230193405, 0.022615188627328135, -0.05767686228347467, 0.025409010730579325, 0.04733487244787693, -0.00443020871326286, 0.05897904994457651, -0.05147199145783366, 0.042488756945994244, -0.03202171494034583, 0.006303739482695536, 0.035520822863036365, -0.0234523020607645, -0.02054252317680321, 0.011095580495808697, 0.05405521218407181, -0.018498189355584952, -0.05430961919276379, -0.0362309704280118, -0.042204192166661915, 0.005975827519942627, 0.024470032053191555, -0.0039685902012497574, 0.03655368080412016, 0.08211825538595399, 0.007690922872215986, 0.013647680421227297, 0.010284022101945206, 0.002710936360111118, -0.004597110494488465, 0.0040575413628936765, 0.0844563764269458, -0.09001135512404441, 0.06703418560738138, 0.04815213965247452, -0.02866004847946609, 0.013095519593220566, 0.05537012436836691, -0.050656300231773005, -0.07812531840392607, 0.01654991590210882, -0.05637769645943334, -0.0021760887821277654, -0.007838655645311053, -0.014401809069728847, -0.04100876715117329, -0.040043317628077904, 0.032416187210050906, 0.0021303435323174686, 0.023948936310727434, -0.08556970599879457, -0.002880452360028627, -0.06876552334604705, -0.009083658896942091, -0.00517408116234129, -0.04040262618540283, 0.07075496077575541, 0.042373746242016466, 0.07638689092570279, 0.044524208035514795, -0.07500168665775263, -0.03398917089474707, -0.03126354368962376, 0.014804584694423405, -0.09695782199506488, -0.06524902046925701, 0.012339031660567993, -0.0036410471636379254, -0.14842566812631786, -0.06051583887379346, -0.06624838764702107, -0.08755826416307648, -0.06302965220452285, 0.02658635296201597, -0.008902953004495152, 0.030322343586463067, 0.021979616101953717, -0.11550802107513759, 0.026515480298285255, -0.0032935769520808424, 0.008101068418325781, -0.01877814667831858, -0.07758283027621124, 0.08632153380103261, -0.04019391721786447, -0.025210754731608255, 0.005027052786666784, -0.019956299155614633, 0.02607767041608768, 0.01631625588035619, -0.0006641237190180823, 0.06307020969030733, -0.01494848840163605, -0.012041119286051127, -0.023465482831986878, 0.06932936419161351, -0.06600353828837272, -0.036500584918678455, 0.06693048259268757, -0.01325660264262561, 0.019942915548801635, 0.02347499137895256, -0.06651589402529916, 0.01252395806974808, 0.11278636863703671, 0.04749671841520447, -0.016437003707092012, -0.037068985962973075, -0.07144031414302397, 0.05681359304635825, -0.009946994719184754, -0.03134956117367938, 0.006789018561233851, 0.007355168291186302, 0.00907982001025226, 0.013892105004139272, 0.037795614998313194, -0.06471998468733701, 0.07475841023560156, 0.10087573750781183, 0.11644348065133169, 0.0850342025092038, 0.029889538424319864, -0.00975283192730585, 0.0832858991901062, -0.04911067354504712, 0.04729017885604386, 0.04082440319854034, 0.20876168873343134, 0.2009613877510343, 0.028145535098439537, 0.05499516529119529, 0.11052554340343648, 0.05101276652239493, 0.12208868793433776, -0.0442049671402947, -0.08786109404972503, 0.023113160426120438, 0.006904435752980725, 0.01228628938252547, -0.03413003351948639, -0.035286705634546056, 0.03391234727163327, -0.02854916816162396, 0.012336927299165502, 0.01845202826831224, -0.1032520861600263, 0.06844474909155318, 0.0523934363507524, -0.0024247025851758044, 0.056650730633303246, 0.0430325833154542, 0.09707346039011058, 0.12721264569033844, 0.08431052272835893, 0.1506526622438654, 0.09480580608617563, 0.048433155031793115, 0.07341839819403842, 0.012084752110976038, -0.07577099139586377, 0.045676306847498814, 0.029651351143017517, 0.055850194507546184, -0.011810648368446537, -0.006957382220531079, 0.021965508328379235, 0.12970796337075483, -0.023328275174345194, -0.04564801448353077, -0.015184168262517601, 0.013678410991454728, 0.06303544106237308, 0.03900822003160588, -0.005144060873261168, 0.08254580387398398, 0.018052300365527657, -0.018927566920814667, 0.12883871038006955, 0.12115947763190056, 0.1283368257085871, 0.11973091544014043, -0.049020073752991396, 0.06290812243846051, 0.03446264376408986, -0.03774534983172253, 0.004045237489763682, 0.03066032928342131, 0.09892759604166633, 0.10973867599526219, 0.1540951210311729, 0.06463782020306608, -0.06331825978862392, 0.032248112819681395, -0.05795902055107316, 0.0023262133619618925, -0.006109575565251144, 0.013736711317667747, -0.00039103429780226224, 0.045645705387660045, 0.012798642466273442, 0.05422625744709924, -0.003286838341977224, -0.07383923397209632, 0.04546455710248659, -0.006450459006640591, 0.05279375222665721, 0.00912978088736341, 0.020740555282484224, 0.03155241810641754, 0.007976688079032339, 0.022601942115378686, 0.04121787466012539, -0.038669960650494856, 0.07352183493043654, 0.05936706557134012, 0.08969234210491174, 0.09266642751312358, -0.03846721109223061, -0.03709486295534536, -0.024442626384026205, -0.03161158328701763, 0.12239739994905181, 0.020842645714207582, -0.012501793909053942, -0.023526314713001442, 0.0195032723962573, 0.06030246813686714, -0.08723977526216826, 0.08208466470912588, -0.014890584996464404, 0.027900549706430883, -0.002196586350401529, 0.003629809697135475, -0.0601717060886763, -0.00946734828613885, -0.0034107114373399736, -0.05268198163687107, -0.027998012557635725, -0.06342005376852991, -0.08190296621280826, -0.08019044568561436, -0.006604803239837426, 0.027050116595605713, 0.09972129522651293, -0.017415756022685407, 0.03741092099737778, -0.03741644770721849, -0.07743580083863942, 0.04750472575086472, 0.03890426532342122, 0.03052218903077586, 0.012815318931831465, -0.045944520786890694, -0.020722474896592912, -0.02059044145058513, 0.04042497676877662, 0.060123877237123466, 0.041876469176582554, 0.03645496816232957, 0.08118390729427256, -0.0016776782617992487, -0.020688102025601656, -0.07342324134770457, -0.14452774880481717, -0.02293203284665697, -0.05181507517786171, -0.09907062086799794, -0.09055282301117973, -0.03986004395180232, 0.028038057910144777, -0.06413767709944201, -0.03477556502270923, -0.04862388415258272, -0.0007252517640252467, 0.11156661017179559, 0.0003821400364568826, 0.054067130069499474, 0.03872794020570774, -0.07684859131257014, 0.08888144961061184, -0.0025470988256066887, -0.06607831761306303, 0.06682449311883724, 0.03087691101495624, -0.021322884451898127, 0.02417351545786078, -0.1247233344322092, -0.09817538399859874, 0.06586067617330772, 0.001804444288025183, -0.0031066278747520757, 0.0024306074902812006, -0.08245137724074764, -0.15715096977856433, -0.07046249418543823, -0.13363503228619708, -0.09055524413387149, -0.1572613662384545, -0.06178458171593264, -0.0003279100581610842, 0.026240488936918323, -0.07261158207300156, 0.06941414825140342, 0.02227075881065526, -0.06025430003905235, 0.07578900782863718, -0.04993835425256032, 0.02498353459350831, 0.043140124241690864, 0.017217298235182508, 0.03577909730916324, -0.08006209892575798, -0.029472979705258914, -0.0032875726819628776, -0.11606076939632307, -0.10273943131695146, -0.050098540766100756, -0.0757001804565453, -0.00212528796401499, -0.05609618928392694, 0.045032656654209725, -0.03435529481424907, -0.005141564158353513, -0.09064564069618493, -0.028605856796865347, -0.024295253171735132, -0.047992753717573576, -0.036882580296120085, -0.04064414642840033, 0.08809594427856135, 0.007944959345880185, -0.05055005089115735, 0.034993263220166354, 0.05991794309496962, -0.04476614327828312, 0.11918785219638205, 0.05795304267507902, 0.03651700320554135, 0.035158877966370294, 0.014808924119606846, -0.04115072296741966, 0.012618165004566964, -0.016314111586545662, -0.04174843347929853, -0.005664202126462317, 0.1233942353977606, -0.022518150969613536, 0.049342588440591265, -0.0819183206465556, 0.027354800717849695, -0.06707993147541383, -0.04259040383447757, -0.06430261895983351, -0.08438206351237487, 0.027153482833948892, -0.06531475177355588, 0.08999232929868245, -0.08990626083752877, -0.1358396590062635, -0.08606755508273556, 0.006926665312692975, -0.0019965541052237253, 0.07198339339003756, 0.09642793651329955, -0.035366849802350914, -0.00391168059781601, 0.04651796582187242, -0.008744589836063483, -0.07989244073825565, -0.0037083557245702684, -0.08667474983931893, 0.014930756627304222, 0.08356068574990717, 0.044467540151318596, 0.03381541028972986, 0.1150551197488499, 0.004857354147069013, -0.049136167478600785, -0.08381661939630619, -0.008299932546240379, -0.014794819715913577, 0.0371597541656456, -0.10207185241806827, -0.03855173803450259, -0.0018784846242661786, -0.00017845858484125248, -0.010097020278477165, 0.056235610960247547, 0.04312853874386209, 0.04008640767234917, 0.0717586887224127, 0.007205739715501915, -0.08313521643414266, -0.000911581241561902, 0.030072615800260553, -0.015345714524504443, -0.006228368757201029, 0.007401420744869496, 0.00018331261428178384, 0.0734370669441335, 0.05975116177102141, 0.09046815983248982, 0.09083959620702461, 0.03627067256257947, -0.029003876821588257, -0.05589134989342864, 0.030971478281393038, 0.04591608681398845, -0.07833544584410773, -0.012118523716552601, -0.008621341733911523, -0.00396805455293466, -0.015026952589437157, 0.01284981404684005, 0.037101436926310696, 0.014742876301885264, 0.10700480787578438, 0.006949337224631593, -0.0050193462383982266, 0.021456459538422946, 0.07793712093788883, 0.04515479289281824, -0.0462977546819807, -0.013200998571146606, 0.03680441161708349, -0.03678552999987685, 0.04868165969332558, 0.005346102891215173, 0.14512407219366405, -0.022226026122630284, 0.03862472855856448, -0.052156703689388254, 0.02019451279113112, -0.070133393142599, -0.018579905148390093, -0.004096842297758898, 0.03421630043779931, -0.03584612894571095, -0.049741608177218725, 0.0318926600354637, -0.1309398930726207, 0.004963641966911634, -0.06740942664886446, -0.01727081671312343, -0.07460725531458748, 0.028850294499100572, -0.12194438517271397, -0.0029021289085786202, -0.019633239016773864, -0.08903075935977021, 0.014763413205384825, 0.01639595267288508, -0.014422545981194707, 0.08918602426605217, -0.01494247549106895, 0.01223508947359098, 0.0004728256480853808, 0.055893335130986564, -0.022877110712818154, 0.018619584442341696, 0.05832639638829172, 0.03116489299497743, 0.06700026163273495, 0.029680185471084097, 0.05278823878001903, 0.0033244036134662076, -0.036515238852240214, 0.015504315319267057, -0.026725121969514286, -0.08766211988232801, 0.03557683424910153, -0.013203066207101889, 0.07674141823372302, 0.0850124313930971, -0.023525025628019613, 0.03658317341663741, -0.04667490211603317, 0.01688727463452605, 0.024907868776444082, -0.07620526806903036, 0.01450796106711057, 0.05989872178866884, -0.058909819789174055, -0.07061761398107871, -0.04664296453186051, -0.05926477950792028, 0.058434139469840995, 0.039324866097732995, 0.04922101324711946, -0.0665970469641207, 0.030901660936312556, 0.10363842643321149, 0.04230692718295904, -0.032572076401400536, -0.05224347530018421, -0.016842593282059858, -0.010073855217914558, -0.015327712203946133, -0.044594901049640694, 0.024516044271149697, -0.0524230495511321, -0.0031907444122521245, 0.07106145895215946, -0.051616307285481035, -0.09746703644015829, 0.09166337604804613, 0.12126197852285854, -0.002268628320454475, -0.1065108456053715, 0.0038088322209069866, 0.021235532845412654, -0.02124100314586754, -0.05426145577006646, -0.0239092662139626, -0.028633961986454487, 0.031070358999506113, 0.028078814753542077, 0.07522039451760136, 0.0730133187126481, 0.05777403738455962, 0.024525324664391463, 0.09593991364879714, -0.008705108150061302, -0.03399978185881561, 0.04718657659146001, -0.04356082895876488, 0.01790720642978914, -0.041191330930206015, -0.0391404154111915, -0.02121635497386533, -0.009618767582581834, 0.03770387120804191, 0.00698243211009104, -0.04567407920515901, -0.10370655142726187, -0.021408686449069174, 0.026969209215879735, -0.06266734402107767, -0.025017367647862, 0.07204993859540569, -0.01385931166701308, 0.00688538345427575, 0.04427523395803889, 0.037709434264227945, 0.019438317974136633, -0.016219125473233335, 0.0745789667849929, 0.17022555382200058, -0.053376234717639026, 0.051949541684750765, 0.034591748285298936, -0.05326512528694794, 0.014586169784378914, -0.013897433786290915, 0.011540998807319073, -0.10301650073782566, -0.035836661036365874, -0.07223089406947442, 0.08860490963767698, -0.03262949032928992, 0.016258034743378426, 0.012872703538497456, 0.029103955105617786, 0.012181276495927347, 0.062244050330439914, 0.021651283862891276, -0.0926245346995001, -0.011087589525232856, 0.012789894658021399, -0.002855548137245365, 0.0223752924678366, -0.03788613281673204, 0.02877863222321189, 0.05740618881645418, 0.06451365334020391, 0.02468652294451725, -0.04691245160460871, -0.07542205436956678, -0.0038553840000514227, 0.019159659583345843, 0.06223016525163206, 0.006911223773542311, -0.031627339053059964, 0.024161585969383805, -0.07146988383667968, 0.05725306469389124, -0.0365478648559844, 0.060749053336446306, 0.01817440264409753, -0.013271151059865927, 0.052036120282602204, -0.030168657391763175, -0.029754072369525278, 0.0038449680658200506, -0.1170153471019898, 0.042765188345826426, 0.025545925634638172, 0.0640173904479682, -0.05139711716753299, 0.002990467810329723, 0.09744201337196076, 0.06018682981861855, -0.015980850766752243, 0.06617235148728419, 0.036753379571278055, 0.025821359499446785, -0.08671051316580315, 0.0061562370845985965, -0.09473506001448362, 0.09602155420463516, -0.01260106279464565, -0.08867822756571182, -0.0735673501690888, 0.07257003381243177, -0.05031016026536525, -0.05105383715822568, 0.052741224199119606, 0.01910113712049484, -0.028672195312617957, 0.027340893893946977, 0.017474487310589665, 0.02689753647159061, -0.0746890208364845, -0.020775626949555745, 0.03437810144789917, 0.031898197567573956, 0.006591126667652557, -0.07702950311055819, 0.041438441495904234, 0.06800991769367597, 0.1113371545471586, -0.07581297531335501, 0.0767366111690416, -0.06152555030308891, -0.03808156792136031, -0.04064798394769125, -0.003914643228156699, 0.08366710516644199, 0.017169260732399348, -0.06420459125027174, 0.016743325212942434, 0.0004984961958950882, -0.02145940473701629, -0.050808306552158095, 0.023407373040238634, -0.06511863039401873, -0.0006746737815270894, -0.05011372008289728, 0.05704408639719133, 0.01101822190732436, 0.0034326067077957247, 0.008910669428628195, 0.029302055131822817, -0.004521918529642204, -0.037692547595745335, 0.0632796471955839, 0.0059143657840472425, 0.019487000179319695, -0.11540374573814106, -0.0480619533122285, 0.0441315218578652, -0.007858657383694252, 0.057600087002882654, -0.05318871116817969, 0.032984490593523985, 0.03216289365477802, -0.006745749271071966, 0.07496997897124119, -0.053145995089542146, 0.012757045206473597, -0.13215970329205598, 0.04351984493910265, -0.13471885048170415], [-0.02075818594867908, 0.13962974473180115, 0.013316694205839905, -0.017275863731104242, -0.018043308160057243, -0.03549911236332909, -0.01911984805082086, -0.04165659881672771, 0.01934108752627946, -0.020909978733650435, -0.030106808530817437, 0.11689998471374524, -0.0023244623220189304, -0.010043770040316686, 0.032607171711772694, 0.0824164704978302, -0.04241910410216793, 0.0398373187844381, 0.08661960443338629, -0.01927172620752444, -0.0740884321190934, -0.07894192547597577, -0.030542629202203596, -0.12284527549263113, 0.059743247942551155, -0.007781557546164478, 0.05328218835978477, 0.00650848024111212, -0.008481504728272894, -0.08339754038280549, 0.038587710652753265, 0.055023074473252734, 0.05152539469585365, 0.025102313030024873, -0.032377310184071716, 0.10408850841480685, -0.07183273703442175, 0.02054215321231703, 0.013497415068838484, 0.04428665903578227, 0.03434499326498416, 0.006492096729062783, -0.09758492969864282, -0.04034848199107324, -0.03482399000024133, 0.0393575264745539, 0.03384595419845036, 0.002566484066664089, -0.002871741141896314, 0.0775411446212789, 0.04685449846557561, 0.004066791401601406, 0.011135198419476248, 0.04307476557543113, 0.14412943367496792, -0.06989644619877747, 0.05620940521042566, -0.03849584268909292, -0.0884133604072044, 0.002708248488597689, -0.03194750672582436, 0.04641016196289685, -0.012539519219345067, 0.02107176328275933, 0.005557453895723515, 0.020997361744728514, 0.011667843777215138, -0.03482054371985723, 0.03439357245402317, -0.12352289067943126, -0.045992066690517946, -0.08358243009431188, 0.1409784706992967, -0.022955210521770783, -0.04044519047214693, -0.08169665834314822, -0.06625681935025057, 0.004088891636664883, 0.028200759214658085, -0.05230746281993587, 0.015008591837662807, -0.013605957983230943, -0.05636828401106217, -0.045629061082392404, 0.019133941135105175, 0.07094041890621755, 0.008054568093994326, -0.041213842690263125, -0.16104889308024556, 0.005235100114537692, -0.0652163986007716, 0.07116270946113555, 0.030004360701816946, 0.1080728383826279, 0.02435904501178477, 0.025928787817467793, -0.034851250011836477, 0.027350911383417192, 0.017057351753774926, -0.042124846479895804, -0.06539228568056989, -0.016487422446381735, 0.042472626954912274, -0.11760932644177936, -0.02875720315052176, -0.05049186601159771, -0.00038466295754551176, -0.028755202974979514, -0.009548116030416685, 0.0013561724373955526, -0.09743891483906841, -0.03270809286961948, -0.0787442976454055, -0.023706463675945713, 0.02236927624032008, 0.05993757595369246, 0.07284320664168076, -0.02073544424308981, -0.07476979850389591, 0.0026638819637265837, 0.07542189553882508, -0.06071949459941868, -0.006279224593157401, 0.00935528897149588, 0.10020640026581776, 0.0019737112535790314, 0.04491922862721308, 0.04903650228926802, 0.00802198607586444, -0.02784026763807584, -0.05629234584923783, 0.06185739384464372, -0.042954538789682, 0.03869751302294837, 0.010995243865962205, -0.04457374184054933, -0.033603860617862365, 0.00013504122022067166, -0.009670928994856436, -0.00870235783385112, -0.03036332057574785, -0.09482755006569514, -0.03453377625256303, -0.11112606043730888, -0.04555661175967507, -0.019747178275568728, 0.0919063193647359, -0.07120304121885629, -0.039297277882541594, 0.025604859263338685, -0.009249418690885428, -0.016050469921502296, 0.04483635022558955, -0.06979437720968758, 0.008294914716073671, -0.057979705218709925, 0.0555972999492669, 0.007774550496664375, 0.0005578274325089128, -0.04353640339634459, 0.0205405433388976, 0.027668823931937408, 0.029505342594549927, -0.003651483121708159, -0.04848245278670271, -0.005402895735788014, 0.009296706940291473, 0.023064298119103828, 0.03854043380477819, 0.07021565952887401, 0.02798720338377591, -0.007467865153311942, 0.004601658455692591, -0.02774649816733721, 0.01757438215086045, -0.15149279445556438, -0.04603919254941487, 0.011929446751697636, 0.06460532960472812, 0.09233487714033234, 0.007106069458552414, -0.07501601984950283, -0.10172393437862946, -0.043665724978867594, 0.0017607322713295895, -0.07582933077399756, -0.059834118064034866, 0.06338191393748697, -0.008421917092809652, 0.06990869854073146, -0.03499497440802984, -0.011807533706056394, 0.04071292754362543, -0.004737156003299475, 0.05792979430246117, -0.005270872884308704, 0.02550101669283707, -0.06601670632007443, 0.009157643416850691, 0.00680307414587611, 0.011910022013440987, -0.0053985020989082855, -0.01611284668094695, -0.062439095327110034, 0.011180107490860496, -0.0012091447379642601, 0.0019173798077980401, 0.014914513520651358, -0.0850287837589682, -0.11578835712391401, -0.033420804701657536, -0.031613918308904414, -0.04764546656691625, -0.15867722725168126, -0.021521259746910458, 0.0028212949874237697, 0.08833749835448576, -0.02251591032048737, -0.011047981522982434, -0.0023962068122797366, 0.04228045374215405, -0.040865762232380254, -0.022452463086604056, -0.012604707332855774, 0.030196914252494378, -0.041445388035760256, -0.024864825575987626, 0.10757008732503753, -0.06584403241718993, 0.02977551387977034, 0.013644659219430111, 0.034411154963586155, 0.007380184916817675, 0.046899811305895246, -0.010068916217558814, -0.025839514470567527, 0.018461183207199763, -0.03580474207029477, -0.1663641573731347, -0.13286983832788582, 0.044653921319438905, 0.11752739970240175, 0.01212613642234955, -0.09303690560086546, 0.006343348258874038, 0.03487823768305594, -0.061772396369119804, 0.02919307447403352, -0.03377499607121302, -0.007477622437096096, -0.016548917728374125, 0.04271702187457877, 0.015445054894747711, 0.009223345216282534, 0.003995048419059414, -0.07980666586695362, -0.03632505010921849, 0.02583137830833692, 0.03189637221126408, -0.008515111256708811, 0.006950138456697019, 0.05019841971637188, -0.05543614681270201, 0.0061164717243577344, 0.021337650826817708, 0.050224886632838465, 0.059071159866645996, -0.033039679493601835, 0.02504083360053222, 0.059432986954018656, -0.06596227033328425, -0.05371450159994246, 0.037382330882799894, 0.014281951525486856, 0.03085264299091928, 0.056967505058126554, -0.013474768227119986, 0.011239268157854924, 0.032317458661540004, -0.003812505484081854, 0.008018140669416298, -0.04253212680766378, -0.003106783213808337, -0.03111429787823773, 0.02625330850460718, -0.06346981790381168, 0.006508499761024401, -0.043856527913865566, 0.004675826999098093, 0.08208106166648396, 0.051720228615600376, -0.10403332409323042, 0.0861021645893075, 0.09031616415331635, -0.0480136008802237, -0.02866823650641956, -0.006678816570011201, -0.04823377134401257, -0.06984226160655545, -0.04974283420186902, -0.003174592500377597, 0.10620637276171843, 0.05299450831787577, 0.05578062976896451, -0.026260549625010978, 0.014391511514650322, 0.004392278240381646, -0.04546016835276279, 0.052527927105016164, 0.06773261274591764, -0.09753170156192392, -0.038853102377656566, 0.06810906724804851, 0.011230137044749532, -0.0716033079804219, 0.02396258620166291, -0.009320354417362333, 0.10542703299948153, 0.040449503930386516, 0.09576779981043629, 0.08653682781794081, 0.07675995666795014, -0.008571313388088508, -0.16360803034603366, 0.02752806486109512, 0.032453517052724416, -0.07453752935653041, 0.05381737888675983, -0.01317939692497838, 0.0893400356022702, -0.0009244030557148272, 0.0659939028697377, -0.014164679663124841, -0.11253969257192288, 0.07327059808134183, -0.0017034322448861935, 0.06831745601716807, 0.016814104342455, 0.04217506624038861, -0.019954564862414117, 0.0625881586803192, 0.0012112523470257102, 0.019455009177207553, 0.06648426998553185, 0.06682284180818648, 0.12768907223577486, 0.021695808563250357, 0.05087578964402434, -0.01804585925250992, -0.06540688270569198, -0.10176623184859641, -0.07251177066231368, -0.08659872934771469, -0.027022246696962193, -0.03626582800750371, -0.09082386654432917, -0.012613003647169328, 0.00482350695077694, 0.0014166332492394939, 0.0052880368340430675, 0.01879106160198744, 0.050415864115237484, 0.0484347736290578, -0.03760869238517264, -0.05913648321987129, -0.019070836878708655, 0.04666487426379605, 0.01215156149476371, 0.03227512984454693, 0.043198071365241474, 0.05735018160364109, 0.08391958926108314, 0.01290115184414594, 0.11854260468826706, 0.08614717069920724, 0.06577174894674322, -0.06971920239183604, -0.05365532778901095, 0.02429372969994234, -0.05861239849283753, 0.05494030640252685, 0.044526372638117415, 0.04087522817877212, 0.03177930675418419, -0.029685214619998162, -0.07763754069991886, 0.015710178074570823, -0.05304347444210707, 0.01693025768012688, -0.05258454727075159, -0.07638870802936237, -0.024827110505194427, -0.12387566374648343, -0.10515907190188889, 0.050739561704634374, 0.05799984237916967, -0.02022731903835632, -0.029323805858074675, 0.13049443971982014, 0.09912223541790499, 0.0739547779163949, -0.015710555248976174, 0.1255771516525477, 0.033624716287646704, 0.04398827578426785, 0.013390527828334983, 0.11298461862941178, 0.03956605436910272, 0.004906887582756425, 0.015157924425229, 0.06321797166509506, 0.025370794630035373, 0.07220435659610713, -0.001808766311112088, 0.10831396854202348, 0.04521068771814607, 0.009145511299279064, 0.06243036552909427, -0.02576116918975799, -0.06486603843555974, 0.10699470764767262, -0.029760660548758398, 0.005891121751260455, 0.03680198585698701, 0.08624030236897655, 0.038801164178923604, 0.040567407454360674, -0.025263634226481483, 0.04262117456079421, 0.001445535612467741, 0.07015061725673785, 0.1154050005279367, 0.03846091850692596, 0.03777472513249722, 0.10504236208150493, 0.07225296035501279, 0.08979916813150504, 0.13522677009700185, 0.06908388430898468, 0.02427108798197844, 0.0950887372638982, 0.0278936586438314, -0.05595638680983901, -0.05611333662546849, 0.006760637708412738, -0.030683767150109165, -0.053778282775941294, -0.002779518029296281, -0.06568258885998694, -0.03147483684140674, -0.026122137594260013, -0.0732434359360329, -0.07581945673486731, 0.010035008495450503, 0.02004819072251731, -0.006450386789283274, 0.021610684667400494, 0.00666156919690625, -0.007286220680700081, 0.022799358790699692, 0.011445118368658188, 0.013280625077683544, 0.04920825173129825, -0.03736085432891918, -0.007626043366709455, 0.015410148233153245, 0.005361965935732816, 0.008215912446862546, 0.07232389168187983, -0.017471881484200997, 0.008948207071674642, -0.005179334242079545, 0.0041876669163817, -0.04259097842754016, 0.04808136844071122, -0.015856714287955598, -0.003679940943670561, 0.022503541716825615, -0.01198016194530241, 0.03361551533800309, -0.04113248470830844, -0.015602771826737891, 0.044070350168045065, 0.05792880220445627, 0.009172854687999936, -0.026874427429957413, -0.009154288812651417, -0.029609755901881547, -0.023856479708489312, 0.04004634677720839, 0.03480424021457035, -0.027864519386887988, 0.06793589882966364, -0.008349842062218775, 0.08209128051658637, -0.08428684894060803, -0.03897604261788162, -0.01845048667391431, 0.0042783313194831845, -0.054260478621991265, 0.036318290420227876, -0.029638475678370257, -0.06297578567774165, 0.026337347660399257, 0.04667875286984895, -0.05470136978505452, 0.05741448430556465, -0.029786182460972813, 0.050637767174210646, -0.06473109974986416, 0.07786276199145375, -0.010044234249105026, 0.09332701552879843, 0.00031636135170125734, 0.06400538591039232, -0.022210958447429444, 0.028641789564657225, -0.023406949731982103, 0.028254411248867014, -0.0349844663555355, -0.019671749886060016, 0.0726691777717442, 0.0410581321869241, 0.07738267551244084, -0.03486933858920123, 0.002882148671131949, -0.040159191339916314, 0.03935834050066037, -0.030935406889755802, 0.10245509819939719, -0.030481856998610057, 0.10323834888664199, -0.008101128829242623, 0.00216539978374911, 0.001990362539812645, 0.05533401945956647, -0.029659664060395496, 0.036796568987452045, -0.16260914362338896, -0.046595302505006354, 0.034681787212678145, 0.01743262434582195, 0.09761354778951119, 0.007647003431368011, 0.11938427882920402, -0.03911603793842543, -0.057166429169616076, 0.10949922271098415, 0.012514533170596828, -0.04746745872654919, 0.044154364336521285, -0.005332393322544399, 0.04142046749356044, -0.00660360654513719, -0.03217847978299596, 0.013071478262830356, -0.03708562266577705, 0.007833527989947657, -0.041100308451109596, 0.005711335058342618, -0.03791045465978996, -0.01898624739110567, -0.06921701632383873, -0.06483211613402423, -0.029751497164794978, -0.08736975104601515, -0.026895392923567622, -0.03231057654571817, -0.011207347945799764, 0.0643962914365367, -0.11930437568554718, -0.016907779043782482, -0.04007095822456802, 0.012076685165520778, -0.10511558267763867, -0.09049060019207203, -0.006478830524057629, 0.003038651386141249, -0.012517241388958008, 0.03804956601193338, -0.10999762962788712, -0.022529014247121688, 0.002549293772886401, -0.08953630500903398, 0.056399955193695485, -0.019287772051278244, -0.039823572995440114, -0.02708576941116168, -0.08458416325969922, 0.01965781952132484, -0.04061191954585409, 0.09401612958020875, 0.06604138275796238, -0.05283138372353905, 0.04826908541889534, -0.03491207386862, -0.07791770353158693, -0.014475224118385277, -0.03665432001984986, -0.033878197550843724, -0.01480880056251625, -0.07127792078024657, -0.049864339544962125, -0.00540030734744074, 0.038731694515453205, -0.052940125365507504, 0.0415755789761203, -0.014714457766754136, 0.047964959877452286, 0.12675609286725406, -0.020289212831537628, -0.02789572128507612, 0.05057792077431721, -0.0020597414522268635, 0.034234396264013735, -0.03441400136862429, -0.043323229703332876, 0.01884545435189553, -0.0074356475626770864, -0.03857830927949483, -0.08982031377225944, -0.04085829042843724, 2.1225235044917802e-05, -0.08727345466092228, -0.08130686321445407, 0.0019568985700706204, 0.0993990830790464, 0.07137231130226498, -0.07591668281835218, -0.013333476232801192, -0.06945919401384748, 0.08949824283758068, -0.04923837278546267, 0.03510051265599348, 0.03902337327124947, 0.06547771501381945, -0.040103609324633076, 0.015558222295958718, 0.08674397548577793, -0.03202795305221792, -0.054968178772736596, -0.01587218487018922, 0.010659682110568856, -0.00015672979997559226, -0.014440010349085364, -0.03906889574601199, -0.029040993689369313, 0.07730283987332168, -0.13930622397883274, -0.0015692309292480674, 0.06920069748620801, -0.06021952611912338, -0.032951277360726755, 0.06894907610507062, -0.03811943642746103, -0.043350222918462133, -0.039343399056328, -0.07025699049520459, 0.047737857564250696, 0.12837651077120854, -0.020618655474898755, 0.008637839218422877, -0.009412106074052897, -0.02431389388836891, 0.02399993345337565, 0.10767720539353494, 0.06850686320272652, -0.05906976076749001, -0.08115818518295134, -0.09008869884052724, -0.01273616866418486, 0.020950511448084675, 0.03718478979798862, -0.058258070864051825, 0.04167951920768412, -0.04210288678257484, 0.048338726910080725, -0.11052848607583812, -0.039114709752504175, -0.11265708441796049, 0.00022067647467647255, -0.017284586629117672, -0.09333735908418085, -0.026843164038949867, -0.08938530576995238, -0.06387956629908682, 0.12979331597439747, -0.02166145123672408, -0.013259799412789933, -0.03573595064358397, -0.005083804097697028, -0.03491395095932622, 0.04364957798342497, -0.08655550154213772, 0.020186929867733294, 0.012446128217197972, 0.031136906661269056, -0.014012642056961051, -0.040363029673526715, 0.09113672976903738, 0.016672059696288613, 0.0064096631904625, 0.001701250844502091, 0.008620666046443742, -0.05130607800044868, 0.03837931889685484, 0.05280066649236389, -0.08534801385897958, 0.04094223308698461, 0.07934475376453834, -0.013808187255628109, -0.03257183355654528, -0.0002809130595027405, 0.012458311246097847, -0.0061475914833244326, 0.07030326081012335, -0.08224318979750493, -0.08159541106564171, 0.012033803789610806, -0.042033602706999254, 0.08405627285911203, -0.12311773026280215, -0.02555282874568134, -0.004757483156316242, -0.06312441765818937, 0.014859852274271496, 0.01042024259344965, -0.07563460401062509, -0.007860743997263345, 0.005726002048906036, 0.009284161961800274, -0.0260433011306676, -0.0021558566833067005, -0.04628509630327335, 0.06979518975768625, -0.001695784896052925, -0.05852724485693526, -0.04674422882542419, -0.08310763599671517, 0.04050041074057816, 0.006737579440931437, -0.05784050672216948, -0.05361091572648748, 0.04334677973543231, -0.04129645099614568, -0.07236027278067843, -0.030789222822135517, -0.00563505045587137, -0.028546018634029845, -0.015742061839052943, -0.007722838735770168, 0.00970950789806412, -0.019548502230115755, -0.02204748053696916, 0.06992847177118214, -0.05978715960284226, -0.015500008393283991, 0.02256590202570304, 0.00871156980061497, -0.010355987961176477, -0.04252857359819337, -0.06051792240816385, 0.13164716008660643, -0.06429579325310918, -0.019708159570539126, -0.0069435706332073785, 0.015125802165492603, 0.058564387394339376, 0.010784763174870676, -0.06989992400322818, -0.03376401406211868, -0.02188034353252877, 0.04653656416075989, 0.010923898795817852, 0.02889698396973943, 0.04786854938701356, -0.019555490655020758, -0.07109796294742055, 0.019597889348752683, 0.02360300774294377, -0.043288104655121826, 0.03121442406468342, 0.07138492493386431, 0.04740411217722891], [0.014583537143917346, 0.04687004917353085, -0.003770132780310459, -0.027227974350757453, -0.016711364172577545, -0.018228338933418357, -0.03324953843711703, 0.01968557492330028, 0.04397300069586276, 0.044544717041480685, 0.015685443000534663, 0.05071900817632557, -0.12578423648804254, -0.03675820015908754, 0.0286226868485322, 0.07067661035066086, 0.0400086795235886, -0.033911533820201116, -0.028356426813707848, -0.1379429653277406, 0.010346561173257102, 0.01226605531080654, 0.09420416543045126, 0.009120216794146275, 0.020791728701868076, 0.0004505102093228143, 0.008098043845261863, -0.048119754593388055, -0.06269781162255084, 0.046516231751557, -0.002986149707952068, 0.0773901049620513, -0.01751730228786855, 0.003051091852352846, 0.0037435206599129188, -0.016416474977200418, -0.03404988331891273, -0.036693096589272806, -0.09220736001399227, 0.005564804292062341, -0.02646677284374061, 0.005232482382201634, -0.05256018224260148, 0.018344034097579964, 0.06946942880504459, -0.08316999392740058, 0.04086385762640813, -0.07277971078925156, 0.026889824767762385, 0.03180907373785536, 0.0025856668965780235, 0.00743840748535221, -0.007994631592354388, -0.03313038704888004, 0.004442295674013957, -0.017131646775407454, 0.031570753535373065, -0.02638270336187767, -0.039157577582451496, 0.05404101872568197, 0.05699932049529051, 0.08823521285149727, -0.044384227322134984, -0.03827443469331114, 0.02302200010482405, 0.06958772825632724, -0.04810519998973868, 0.0011750535419046975, 0.06134981480945402, 0.0005344221015682268, 0.006017536363359559, 0.011101861334601105, -0.021608269276916454, 0.12117759372112884, 0.05297244372202659, -0.09869507481480314, 0.02254964204975806, -0.015008187479608352, 0.07898680168986956, -0.04962298193655345, -0.0450253084416956, 0.04392382369045062, 0.046454072922708166, -0.0038174655599115433, -0.04270053414612056, 0.09689194260764461, -0.03889217793173669, 0.02556561318750505, 0.002504332295198781, -0.004039155183425733, 0.08212454481216644, 0.07443645456854973, 0.009035627313485659, 0.05153516948560256, 0.028948898919901652, 0.01009182676453005, 0.03353337394466341, 0.02744854929372498, 0.0048095032869361525, -0.05597551659176111, 0.15593491005392446, 0.06342224191233728, 0.0842535316647697, 0.01776923586204856, -0.012374552412268832, -0.0014897123019676443, 0.08933034721736816, -0.041506124549798434, 0.016508749461608293, -0.013620962253093566, 0.071807879026684, -0.04938739226012173, 0.06421558683070111, -0.034863589382032184, -0.08398018368246532, -0.08449872880517668, 0.037847538010268945, -0.016932293583249162, 0.02382056351311226, -0.002951512197662951, -0.0368500497855686, 0.04702851918453558, 0.0106638154552805, -0.05619117018074282, 0.13308269878299897, -0.09841606276256976, -0.027858438122807815, 0.033485032730971816, 0.04380409128598054, 0.0702147191562422, 0.04068883926588513, 0.06993601789928428, -0.07867069903821253, 0.09036043794614136, -0.07398073246016033, 0.08292512279069945, 0.018929800444976323, -0.05172472214035183, 0.10176593627650335, -0.05095645573317588, 0.02361955461069925, 0.003941009088050247, -0.026562605346240928, 0.032248752253734886, 0.07219570947476436, -0.06647710181734313, -0.020949159786571293, 0.06913219178702229, -0.008144231638463987, 0.027682042591647745, -0.05565941440770031, 0.05999531536235966, -0.03401603996150361, 0.014065343820109336, 0.06176590269982712, 0.0217016604353119, 0.06609665992377887, 0.0103248384505413, -0.059141127294459535, 0.027817369260926393, -0.001834229781535471, -0.09079667654235873, -0.06284163680952881, -0.08818994929839859, 0.03426402494055315, 0.03807233082401001, 0.024228420567601945, 0.0291404642318758, 0.010870936111092827, 0.08558978438545838, 0.008232961190700362, -0.017437446481977262, -0.10839547968261927, 0.040391213477912705, 0.047762465695602205, -0.01810845138648693, 0.028114968903897957, 0.021163144996538714, 0.0017363884153990703, -0.01683217999727749, -0.046262700714160415, 0.01220396844714585, -0.03462271244185325, -0.06991010028287986, -0.07474727150248883, -0.04094023020277092, -0.09468624069308403, 0.061862597724992294, 0.006260678440694876, -0.03536997746996156, -0.038685910054775036, 0.0034213641563893876, 0.04409721303198778, -0.0432444576655345, 0.01621076735645911, 0.023422362099431986, 0.02291524456850899, 0.018027649302443705, 0.05156613179916607, 0.07966923520655261, -4.808717628623285e-05, 0.06858581920835027, 0.041558738793210925, 0.07485081637892593, -0.020156756546140842, -0.059132373951775306, 0.10303445187762164, -0.011306003077207595, 0.010162474178514791, 0.1581249146726495, 0.0622881210689068, -0.007505638135732498, 0.0698426639226387, -0.0009290782610584578, -0.13637893086467792, -0.09394118165652587, -0.09340865797064513, -0.03660340233317722, 0.04405398674177187, -0.0511654194995428, 0.018401067642916567, -0.020375711248500582, -0.05654613247977415, 0.014139608167634795, 0.1164022161999748, 0.011890513714773588, -0.014037452001772149, -0.04000109696116627, 0.03954657984554844, -0.004127973993305976, 0.08381448572618719, 0.010165315441157908, -0.0002614137843268521, -0.08107808912871248, -0.013239486714281636, -0.021913915813447454, 0.09980624446363673, 0.08433244995278617, 0.05602032945661624, 0.05945457612367266, 0.046489122424679286, 0.007655407924233526, -0.008191813070829673, -0.15309165501802466, -0.04062372727105474, -0.010810559714865874, 0.013921629277690126, 0.0037825757684440305, -0.0033143590832957993, 0.00906926760658252, 0.04883217496030044, 0.06874789245956653, -0.0006477401075456083, 0.006745656033874263, 0.043095634165762634, 0.004660221480591625, 0.03637581229456045, -0.005270559850110958, 0.049334398731851824, 0.0011950936335516054, 0.012592556795007575, -0.04285922790618776, -0.06568546992310725, -0.0044341973768706805, 0.0450883381935516, 0.11938750481145469, -0.0881894491596384, -0.049294074894027914, -0.05423763444138607, -0.12476125288195372, -0.02201342983564791, -0.04662072863781821, -0.05831730258441904, 0.0391506395063117, 0.04220744367934395, 0.026678502929433013, -0.020228580293093053, -0.06175979345666525, -0.04053745648021561, 0.008987726379970827, -0.037197208968493094, 0.003938956878952066, -0.02568197596100751, -0.0021007994157251804, -0.0017234805276234685, -0.07051003137819536, 0.03383498917668599, -0.07329512057023463, 0.07073839263302686, -0.0069497294619512455, -0.010433704864291864, 0.04439090722425789, -0.0010715175567494808, -0.04442265847959219, 0.047037518852515774, -0.0541237327259747, 0.06514342746805893, -0.005820669943382304, -0.040801932880007226, -0.015463397686099525, -0.01057250969150927, 0.013287268236825479, 0.031761201623105896, -0.03908129272722529, 0.029297472995047844, -0.008664244065915252, 0.010071204748045142, -0.0015949305321597978, -0.01480741705975486, 0.014497271816700717, -0.011260797593016769, -0.015068547004029249, 0.005458753986065124, -0.04600618364919585, 0.053168397999129875, -0.07097578723496994, -0.02432306707868285, 0.040537201979318434, -0.03393884014634431, 0.06613996403890708, 0.052252848226558235, -0.009502461067611715, 0.04571418383234445, 0.07147170469019365, 0.060104606404546825, 0.004435128880834584, 0.11704727437938169, -0.02534989457024362, -0.028671930812374447, 0.023298860822543337, -0.061185657675300376, -0.04317999594146833, -0.03429122561044046, 0.07170981185875218, -0.05724043383093867, -0.039249073822687275, -0.08702176539314094, -0.09171014561778688, -0.036762378841509354, -0.0629607517235101, 0.0374118416665988, -0.01942151007287385, 0.014044432418489341, -0.01058964820338146, -0.02507636456259499, -0.06477014863351215, 0.0865344529471962, 0.11760250623187105, 0.08467379299415752, -0.0503561833500206, 0.0338630620322084, 0.044084180895724225, -0.015396273270137727, 0.02176025024611523, 0.15376980051215103, 0.06250547657822697, -0.0904894636912587, -0.021448917221342224, 0.007780876164944272, -0.1101557540559976, -0.03661986513807013, -0.05514156860328159, 0.08435615773313736, 0.043867468229810726, 0.08742623877554848, 0.07373956826383403, -0.035135152720076716, -0.09231580929400031, 0.03627323068234208, 0.04059957335019742, 0.006562463191711321, -0.03324230782112256, -0.07525035157712656, 0.050157653718639165, 0.1483410376999194, 0.05351475954233942, -0.06750477349673539, -0.03888429801137875, 0.002942684799988337, 0.04782223070907957, 0.10291635786747373, 0.08888189807667636, 0.0495863986609497, 0.07038272084379017, -0.032291869955509596, -0.09254346052830804, -0.08126034027991763, -0.026735869957481395, 0.00012215725267643066, 0.012309574735028469, -0.043630562094992636, -0.04617493299509374, 0.007301523493299536, 0.04975753335425847, 0.06755279604464343, -0.06048469254660515, -0.07149541014844583, 0.049350887957454015, -0.022385911480804703, -0.0476571857259388, -0.07648578347601327, 0.011480453901706955, 0.08226621311279264, -0.001232297077835433, -0.021625131680215487, -0.12660267477553117, 0.11306744980522389, 0.08088241028364913, 0.15059585999165032, 0.05110168068793061, 0.11665325681390494, 0.06067168558839718, 0.04003424397833973, 0.08230237939336264, -0.0789951511265748, 0.06159635679623588, 0.1005998616073535, 0.0817269418348559, -0.006634097799976783, 0.02317926105494128, -0.004157914759521682, 0.1314194902114996, -0.07151437017189603, -0.0593428552639314, 0.021884328561884145, 0.003600681832749689, -0.1383268250513418, -0.06151687558187359, -0.08660619894277155, 0.01965443467996425, -0.005156509450641001, -0.07516176924694506, -0.023058046033123933, -0.03536530753828965, 0.0027984614759855864, -0.003812328149680128, -0.07324206433925474, -0.012825841987134892, 0.0019593633896243046, -0.06782935150211045, -0.023898331157233003, 0.130816194703446, 0.060134601574550854, -0.024411777022603276, -0.09627451001122007, 0.019258703534581055, 0.046764316700200606, -0.00980417241376092, 0.05277160387665495, -0.06627094066916928, 0.05565135180442626, -0.041534431171077385, 0.01776016450589654, 0.04304227478430719, -0.0539173870604565, -0.07876262010109757, -0.03052190611155739, 0.06480120025676275, 0.046255136350609224, -0.024422480813627974, -0.08576175524462601, -0.03766454444503548, 0.017145429029471686, -0.1356315172677978, 0.02744927086032758, 0.035951098703002844, 0.02306014211163379, 0.01520873746096419, 0.07974761312692599, 0.013597549211472309, 0.043151117874357554, 0.045554421010860324, -0.06420650674295314, -0.005077975224705053, 0.027155688425538577, 0.0483183087196431, 0.0054515412569121294, -0.07105510583863109, -0.008093039769238626, 0.07342981334426044, -0.06075950555134897, -0.14543525784405073, 0.016557352500102835, -0.07720920064822968, -0.013180792683623273, 0.14123664964133775, -0.022560319273105405, 0.029464852601318318, 0.03216295144020012, 0.0352436586239875, -0.011245896837835804, -0.11698588810247923, -0.10822942353805705, 0.008361658531838222, 0.10373267992833443, 0.12889234268086647, 0.11510336798571118, -0.021510515445944914, 0.018238360369380733, -0.057695868315825835, -0.0010600204026159133, 0.03536778463415717, 0.021830273062236064, -0.012258780132823175, 0.07161737477988177, -0.04632562182163225, 0.014164359724671357, -0.09015293139896399, -0.02996193228954432, 0.03177839656107129, -0.04100881445578836, -0.06302107753000719, -0.08796519705208777, -0.018303078440466934, 0.053072167494694115, -0.0708687646680769, 0.04044873549482591, -0.009457155068822363, 0.02249535349915134, -0.008907387213450054, 0.00611218006763266, -0.049767499225696524, 0.13188586022129303, 0.13947492970463896, -0.07707346903808358, -0.028419934574123323, -0.12531827665648243, -0.04202082015196361, -0.05537999525836766, 0.011974787855158838, 0.037495014991867824, 0.06189654388955461, 0.002318265186580483, -0.0061864304274143545, 0.009042526310631542, 0.07607664995893273, 0.007824441065548382, -0.0743952293070283, 0.03868519981558332, -0.005778453604181381, -0.07223682959742898, -0.026682035428272282, -0.00856167266762962, -0.05806296312113928, 0.0064208721391351715, -0.039376084719844884, 0.03941174878030862, -0.0046306406573612255, 0.014262910622083236, 0.02436118376710847, 0.10007055154655425, 0.041551108069595985, -0.04145894339146226, 0.04576246030334412, 0.058704279882664516, -0.0032807942950497863, 0.012057368087252291, 0.07798058243950272, -0.035954446825484626, -0.021764556349996134, -0.01547764784805178, -0.045145334972538066, 0.03647449789149315, -0.04091780699826185, 0.049418928190914896, 0.03636051599238085, 0.032284138106459394, 0.03888167493341763, 0.055103203068612445, -0.11539213050072804, -0.11580834089412903, 0.14272127872950785, 0.022216450850284706, 0.0811475631022769, -0.0005637011135550991, 0.06172095584510099, -0.021273191072194532, 0.019739272576518346, 0.08804989723972483, 0.035822445496367386, -0.025186387011705707, 0.00230616104925948, 0.015419794341383785, 0.05800753741499959, 0.001966964991016863, 0.03165475533479184, -0.027763009050427844, -0.09155477310004947, 0.0632754399283595, -0.04371168563813803, -0.04703528420171985, -0.03515671188065978, -0.03364399144764479, -0.03048848945557049, -0.02933734904467647, -0.07054202122744616, -0.16290525134314662, -0.09446445984572437, 0.00317119172632228, 0.06237991745108816, 0.06108666575347359, 0.03816951104303228, 0.05924687883927185, 0.006886865241491687, 0.0021763485049088407, -0.0368206376029682, 0.06889363834456329, 0.06849499735938239, -0.09905940845742664, -0.059031797683909426, 0.054689397823728995, 0.13860005010271484, -0.07033799802310961, 0.014087830932089374, -0.054765904723520095, -0.0030566743234936673, 0.044772831470036245, 0.08883927371916897, -0.05506836753473447, -0.012675139480798224, -0.03489207116981871, -0.019343063234966443, -0.004629462324015319, 0.0317779923477408, -0.16321364104260366, -0.05022342027180809, -0.08992342233121375, -0.03579946256101144, -0.07710354733081387, -0.012352925393375194, 0.006325256881076103, 0.01238335713986999, 0.0020697201777247665, -0.03632367368150892, -0.07135161479246886, -0.014732789737163372, 0.009901237625045996, -0.09297474205690189, -0.0718642732218221, -0.07674538901032882, 0.014676464981048484, 0.04748781137974523, -0.014840803340045913, 0.006756471319318064, -0.054067989037850046, 0.035412127234216245, -0.008571395916560826, 0.03332584506284524, -0.09971143500529235, 