[[-0.4682643953897099, 0.0089127337504353, -0.16099981893741777, 0.18877928945494002, 0.5406570847496887, -0.06257940200775668, -0.5299653649277704, 0.12918134356655106, 0.32826789082583063, 0.4520773080248027, -0.15921474583826642, 0.0887091431056823, 0.4176693127089816, -0.18041221071287877, 0.5116135358959655, 0.026516802503777692, 0.1443205689610832, 0.3065376061354468, 0.08985793159436449, 0.03351572827795753, 0.4677405092158579, 0.681436729257241, 0.23067529773187193, 0.030234850275911995, 0.03551985716630947, 0.1584659340168985, 0.0925300321361479, 0.3773744826528126, 0.0671995180268947, 0.03548631662535318, -0.2707743584808742, -0.027496241343897054, 0.0824862034941397, 0.25717602228282727, 0.14635127585631263, -0.7971897233587477, -0.011276152016708403, -0.11821433880259215, 0.21330399908923423, 0.05107314946133488, -0.9620771147751939, 0.14620772264389614, 0.10334199674990688, 0.42400064767218204, 0.5306218421817904, -0.18434846122661222, -0.08041620545480388, -0.0701782205876224, -0.003534765264045128, 0.08678896433417968, 0.002152045124958643, 0.033480565775392025, 0.012185125092416206, -0.5399880410087495, -0.14587357001133477, 0.04271195409403824, -0.35629081175955274, -0.1896337883395415, 0.22988836140098817, 0.22256095729877998, -0.45617057201169225, -0.122547823104329, 0.2040741339677411, -0.4465975342454236, 0.2180854219061173, -0.10717777409584586, -0.1783407292963587, -0.7007659660975526, 0.32054974659958985, 0.35546061882178753, 0.140327060969669, 0.2684573925288264, 0.18667474480779853, -0.5985443434221916, -0.17785760021935193, -0.26646331876930135, 0.1687874087441476, -0.15657875421718112, 0.20978372482076452, 0.08616562507331191, 0.6449311653278389, -0.48069145853796136, 0.1263819034641923, -0.24536817686456208, -0.46268581267226816, -0.41654067035967, 0.3437956940836984, -0.018960478722616098, 0.7218043890916727, 0.6217809851457526, -0.06691298033950613, 0.1753850246719741, -0.21557028807139417, -0.1627126837106475, -0.24362846169340485, 0.2548493982997608, 0.4863463642744988, 0.2275368802403732, 0.18771766167257237, -0.2344498661594742, -0.39143416356975724, -0.22539211590705283, -0.46302002846264595, 0.4955235413503259, -0.20730500976627914, 0.015092444085378713, 0.3431902727263649, 0.5232100917535083, 0.27200584011447143, -0.026461723714917992, 0.34835053261653437, 0.903149867456459, 0.1189610526140482, 0.760734143796936, 0.1760472073650254, 0.2766902785213698, 0.012200473229307155, -0.3154320682727822, 0.28115949093734893, -0.10022878256803158, -0.6323088772426182, -0.2836641765706625, -0.13768386326371992, 0.14515104688887664, 0.07325191782809808, -0.4880465353730044, -0.13561301322232452, 0.20757586208200313, 0.16780054785304918, -0.658490554773675, 0.3322697555911646, -0.03946699226986475, 0.3819460971640102, 0.16225494009198374, 0.31886073209715937, -0.15511461058081874, -0.35460964365606473, -0.06172044459171499, -0.054685179791071035, -0.06681682449227677, 0.15486183232780776, -0.18301418796262742, 0.3609946531641326, -0.27849125199901476, 0.3564271967264678, 0.0006585893436512922, -0.31696025433809577, 0.39480870596193257, 0.18846761621883093, 0.14658603441267332, -0.33473854474067205, 0.2547751753537639, -0.18254187473899233, -0.27368689603840735, 0.019034484131356968, 0.38945410949855924, -0.2011279742997813, 0.016140581596242324, -0.4139163243336226, 0.5525375738276002, 0.5176088907551208, 0.12746026532478866, -0.1971382775521435, 0.4799341975728503, -0.15162676643575673, -0.03722045386699678, 0.26164824587220853, -0.940745275432719, -0.45935124215611073, -0.029543539062660277, 0.6949053294705494, -0.12408521486920218, 0.3303698121736977, 0.422938580297711, -0.04766827195730327, 0.36565235059038137, -0.33860036309851343, -0.5229000088146815, -0.05624826701147713, 0.11044216082259171, -0.569292997653791, -0.034652012300631106, -0.17656457498394168, 0.04487726009482224, 0.13140544766781456, 0.01673690522555754, 0.26814369103171465, -0.4509773320471889, -0.3950085902510031, 0.23011616120505762, -0.17281733181860592, -0.6059254647751913, 0.03891285568443606, 0.032753885831524054, -0.423115358149507, 0.5938540126207245, 0.0796493826733722, -0.697682764345332, 0.08569933964361377, 0.07854772187476791, 0.15732069297344997, 0.09028265529131245, -0.5069059002111159, -0.463821511530084, -0.1178662746504561, -0.41112810147355505, -0.02126662288697865, 0.11054820661866693, 0.16262873788150595, 0.5679463212444008, -0.24894181601952395, 0.43104080568759784, 0.4903467910428456, 0.1119089337412242, -0.13344778332941523, -0.04874142207056926, -0.14301725481515226, -0.17281819052257605, -0.16313678025468747, 0.009879938396921844, -0.1961951177510995, -0.2725800989359356, -0.6609869580971425, -0.5038037696031523, -0.27798834624736396, -0.1869757942345554, 0.8921897344662777, 0.12914018895986765, 0.14712158333115763, -0.22489278516463485, -0.051288347905401425, 0.003046134566314917, -0.5738494390691664, 0.20354888397395554, -0.5987598617892295, -0.45199000595428507, -0.36320376478489674, -0.04891864047365148, -0.053005512212214945, 0.2331955611819145, 0.17379658173406734, 0.2806646332798587, 0.3086349358102691, -0.13584768502243189, -0.32584023159906855, 0.040906228298056166, -0.1292287520635932, -0.4889169572239838, -0.3041571559925476, -0.37971807438259375, -0.41150549545164355, 0.1681383870513759, -0.3921213660120369, 0.4368394772137391, -0.23948804442990834, 0.32052300076329626, -0.019267242303060022, 0.3809467300712053, -0.24520352224157374, -0.9302826802242233, 0.007714229221326425, -0.18804957835559472, -0.251027272595732, 0.14097772279484605, -0.4097940594030249, -0.5278372242224921, -0.004165618944078651, -0.4782754843215797, -0.3955589318406139, 0.23114742624064816, 0.14844341494509364, -0.13721100305029735, -0.5031364647224543, -0.19824101035278446, -0.43319359651022893, -0.1879336221561783, 0.4043237641325258, -0.07394369096000991, -0.19827854159840513, 0.16813863085689282, -0.9530549503195977, 0.05526133136866982, -0.05871970093312072, -0.4806680080421347, -0.6861527000236529, 0.25689531725999804, 0.12534971588160265, -0.539473502778358, -0.10398048208043102, -0.1179484565629052, -0.0906564380604455, -0.20806446567993173, -0.21281341866704676, -0.16456800847438963, -0.39937143251246837, -0.23312019742581197, -0.3077470734107602, -0.27757880053190104, 0.14441200064009638, -0.07166974898539527, 0.1426188248783813, -0.323892913471978, 0.2611886202713186, -0.24594011057200457, 0.13642141498679716, 0.1741422275363831, 0.32650046820324885, 0.38787990077675993, 0.3969011718545923, -0.0041344906893157635, 0.4046617910921754, 0.1572975887609042, -0.3583950556530147, -0.10061384372415436, -0.31430197653861464, -0.30332098175525696, 0.4125092486013627, 0.2779171087804333, 0.03882408253990509, 0.2769754451673256, -0.5180112852947467, -0.08250957735252458, -0.2550293588777952, 0.44157722339594874, -0.386674875248727, -0.5081105497354396, -0.2803558701381615, 0.029226719235192874, 0.0315767827004988, -0.08022607031966064, 0.2296692544086593, 0.04702756263471743, -0.254151756002344, -0.42996658524675185, -0.21141969276085806, -0.3269510995808577, -0.2844266918562723, 0.7185513220050346, -0.12369265445746261, -0.2621517192854146, 0.4106356780090132, 0.12474995536890258, 0.019508469642386502, 0.3557561445083849, -0.37422413622871437, 0.20423673136565904, -0.004594927585875218, 0.24631915901603907, 0.2647592155704969, 0.1640315666452641, 0.46337521036865664, -0.371086715719824, 0.14677513435148729, 0.09231975632845081, -0.46658836977184887, -0.02651020648652333, 0.12118765808965609, 0.36285537646177984, -0.3504866526349137, -0.3022075542066441, 0.13437771396900552, 0.1988745595821048, -0.696205574165463, -0.3308547071072831, -0.4648336965606147, -0.19585147174727494, -0.01617295277672848, -0.06316515934210569, 0.10047494096570023, -0.33310839672917086, -0.16232592088479433, 0.44123881965626505, -0.21422841918232807, 0.4047342450918927, 0.1650929658853792, -0.19722270509952722, -0.6354730640666474, 0.30505128436298873, 0.07750711835820455, 0.03328310209653481, 0.29125753734850846, -0.22066843412435683, -0.17838689553792933, -0.1032471609397146, -0.08870940046710227, 0.40511524414245315, -0.12821159425767278, 0.2183688247093434, 0.05930596034402773, -0.133757979488343, -0.23478650343560306, 0.31666899980914626, 0.1099577465357518, -0.2106199241218038, 0.1601506174417787, -0.135938258968676, 1.1635618357530573, 0.05162974205309051, -0.23454482352966924, 0.33477550917389054, 0.3150858951356066, -0.26447406765362635, 0.790188794496873, -0.03754612826350582, 0.4996424694899707, 0.15267715505726578, -0.23906605221202984, 0.31902942173116505, -0.2583696907823842, -0.732517198283524, -0.1676408433050924, 0.3061150418947562, -0.11534980386978697, -0.3360890660977177, -0.14054900077519886, 0.34390026323950657, 0.2002551851883327, 0.3617581646567874, -0.09368699475131909, 0.05201933089944717, -0.3032309546824721, -0.3522855532157409, -0.15297720257728065, -0.28528781146275023, 0.2816418337155152, 0.6701223102586976, 0.41691525403010576, -0.21912257926453824, 0.7217158781275583, 0.36721453251101677, 0.34120925023294185, -0.042263331542552934, -0.16049973755749317, 0.02507118620220921, 0.04107601720383682, 0.08886547185294538, -0.08273804180587913, 0.23753411841217267, -0.66006867130732, -0.14096101121118623, -0.5285585210515265, -0.3801072984604188, -0.012388997386532142, -0.5705953948816236, 0.2757748265301135, -0.4278476454885354, 0.20129505149936236, -0.19111168380437793, 0.8005352603826722, 0.03548970783151965, -0.5696484845882738, -0.2557986695390964, -0.3122112655569285, -0.16474891470272518, 0.6175202864178195, -0.2783516615605921, -0.005765692592125127, 0.02093001416107181, -0.6626192195025653, -0.19159756397247366, -0.13275134363447474, 0.04881082717029485, -0.19167406034559167, 0.26845555847552954, -0.4826776975740397, -0.05983350235433801, 0.22682408441750693, -0.3309244034145185, 0.33787440390883094, 0.19652690512786453, -0.5280882479030165, 0.4300599343538289, 0.7755634092147865, -0.5073190924104821, 0.3832750209447455, -0.16264467392357165, -0.3755277183228276, 0.5339395333114716, 0.3793057093381431, 0.05915413058245618, 0.06275511965720024, -0.18869483175216226, 0.42790996317578106, 0.32072397873818764, 0.28317778932569376, 0.34808039199417035, 0.36399699518523354, 0.248137181878171, -0.5693455947069727, 0.005010526076294042, 0.025054616180699967, -0.26700312337265286, -0.08305691979764124, -0.12346635000655969, -0.2980823705622834, 0.42743201896096583, -0.12688559935003446, -0.20355936871629898, -0.30726987649572635, -0.32603745697706604, 0.009978922928594407, 0.29406873386855886, -0.24216334985188906, -0.04008543009129677, 0.6271488673299975, -0.2707882996115499, 0.26433872962002963, 0.5663738750072217, -0.26002033328660057, 0.028030774163220796, -0.23081907143562272, 0.09206971806495029, 0.9305199466683673, 0.2921806975151784, -0.18541358983971976, -0.5146286160627125, 0.4548437549599855, -0.6831981963553768, 0.0514708384764015, 0.02773962896757692, -0.26016432247654625, -0.10998562822480902, -0.5481844203256993, -0.2882014743312499, -0.09939340815203127, -0.4829736613587047, 0.36278264165613955, -0.196247474411068, 0.29143038792701154, -0.4701174422442644, -0.3964605546554265, 0.24812150664794283, 0.1054863262177337, -0.043428645920000196, 0.017768075412193312, 0.06345754442012444, 0.26502117097835237, 0.5124189257602534, 0.21888279534848687, 0.024603734289731647, -0.306049041430323, -0.35676325552027516, -0.3680762618798985, -0.20397223062608033, -0.9115592671689026, -1.258766549978444, -0.11248644118590324, -0.2814660112782571, 0.335431672407285, -0.3235669107522456, -0.2143203991088031, -0.35292492852613255, -0.04922997535678121, -0.17358245145825402, 0.020951529685591247, -0.13548815004159456, -0.3855067448626881, 0.177968882192124, 0.2608954511107401, -0.35957910904261603, 0.3062631853573388, -0.1487315860224664, 0.10148046176675511, -0.07571961461633668, -0.3046508655824374, 0.3792887365614347, -0.12447680271143631, -0.02147738790180925, -0.18304445816920983, -0.2291001376584086, -0.1534906039254639, -0.3324344308632831, -0.5077150397005298, 0.8578998887462113, -0.03611532762665274, -0.796766642942578, -0.2202665530219309, -0.09809779076919074, -0.21484578330170906, 0.22560850370334232, 0.04366169987974953, -0.5955303958711505, 1.0391948343079067, -0.41918310179692564, 0.053595784580912645, -0.15499234786346167, 0.5828016963055203, 0.1677138126074312, -0.11297096880340497, -0.07092137013117335, 0.415443833288403, -0.49790559970153625, -0.11125819358384337, -0.8338336577009425, 0.019224373953445964, -0.5072120498843656, -0.4634378235785511, -0.17612982915602604, -0.05336561170264835, -0.1686949530914662, 0.04282385207132121, -0.330836328599541, -0.37898247681198255, 0.600807667218787, -0.032342834125371485, 0.44279082959779875, -0.21613737180547873, -0.21338146875985048, -0.05461423902351503, 0.864118867616322, -0.45003945252589733, -0.45608507115855984, -0.39815461119550516, 0.23336569052519643, 0.6325104485467012, -0.17942825084031538, -0.011962418188583648, 0.0014506472547996363, 0.07155673615568724, 0.056404106065229304, -0.06991816255889574, 0.0003140103913626878, -0.336153815311496, -0.03238682832821985, 0.05056453682303378, -0.11975259602943031, 0.26318758529277714, -0.22748297720294203, -0.535807433786317, -0.6916595556690144, -0.20348809936686618, -0.3865273577749806, -0.4568507236127134, -0.4364481036070592, -0.016300346400060697, 0.28268292466061035, -0.16192466130273134, -0.0826274643279739, 0.1701743616314386, -0.5297090240510742, -0.05847574511268531, 0.24686939677013905, 0.10172073237440953, 0.3420882399875758, 0.06126390054099283, 0.1366776275911353, -0.29821820714203523, 0.18088664365224266, -0.06612128688461343, 0.40982453620065873, -0.9773626248338505, -0.08166762239462992, -0.5894837664347512, -0.1772866199289116, -0.744505321252345, 0.5043665438247245, -0.7622774657110305, -0.08837712245898843, 0.11658926094857527, -0.7420081847506613, 0.15444976980753136, -0.5786905135492659, 0.23741369961799333, -0.4592099814443157, 0.2519778664213086, 0.26452581741905523, -0.06227459488203121, -0.1523605772973161, 0.8237298461083193, -0.03028947513034388, 0.49511013713308444, 0.3217161353593694, 0.07866402007161538, -0.3468519837997354, 0.028911584902143475, -0.3490632286158316, 0.09949216701451961, -0.4938810049599925, 0.06035069222997968, -0.18812271311774917, -0.15854371581408422, -0.6853808729287628, 0.07734878204738023, -0.1482375647584833, -0.17440544694505222, -0.12566416774942715, -0.10969889968111168, -0.1893203422133119, -0.5963636603287625, -0.5242848604125145, 0.12252987827710582, 0.027304125320246307, 0.3028505863458227, 0.23964684546752327, 0.22498116163821993, 0.1687138479389776, 0.07658615658868323, 0.5546617840296313, -0.11118353203355036, 0.17714924704932894, 0.4136950816247878, 0.16673566858951458, 0.2978512287905165, 0.4489879429783183, -0.2821838419988319, -0.2975566234924163, -0.2154932965026189, 0.35921027485795165, -0.3521067923941176, -0.23423022954806869, 0.19715064374852714, -0.30748667833541377, -0.274348030469086, -0.09333409826547932, -0.7123939897933722, -0.2586191416834658, 0.10749752726884246, 0.14575707080832892, 0.11922625356346937, 0.29218883727655975, -0.2691014865588521, 0.3058471988424283, -0.34511012287629556, 0.011304886483466458, 0.21427523776520027, -0.10372881325836723, -0.2124628795344501, -0.49003386663842424, 0.4961782983309582, 0.08640500512593623, 0.4459266502569267, -0.29898336330252706, 0.7670334190836385, 0.5895345506218952, -0.43222957889958075, -0.6769402584599842, -0.385319866724376, 0.03586512195370105, -0.7313839681095943, 0.6282806544970184, -0.08916671633888017, -0.5105659220502502, -0.033590064240777165, 0.16704168955100582, -0.36088180951777854, -0.02762756233076626, -0.8297146702128431, -0.08679224541516425, 0.19959918436717827, -0.5617648812637274, 0.2756371418632062, 0.08565492170886665, -0.2034329670955259, 0.05458894603181529, -0.016486366904323754, 0.35620142787794395, 0.30579502392991187, -0.07801559092661799, -0.1324233745290661, 0.3264181660996431, -0.2625991666605684, 0.10844794209918783, -0.07626238596675604, 0.04376603348199907, 0.39247258387423206, 0.5017060515118924, -0.001752756010362857, -0.3195442681923531, 0.4504698997104165, -0.21488998295984213, -0.43216706486260537, 0.3723024338473849, 0.18922057370488177, 0.9399521878186479, 0.08157975586928312, -0.11016477769080056, 0.46186940337020044, -0.2551975297684422, 0.31091511938298844, 0.008067405306728821, -0.05651539808761358, -0.26641333470738005, -0.46566771907257, -0.2511611433863515], [-0.5755563900459436, 0.0308686119697648, 0.014629162672153724, 0.0030858588618994844, -0.2262981894657264, -0.5428951235459781, 0.9316247803263445, -0.3447411575820718, -0.4807738285439495, -0.0828251892708953, 0.4701637773083898, 0.46621170743162016, 0.5736377476026201, -0.3868599971773313, 0.17322115446543115, 0.4274029827636785, 0.012168664055589558, -0.1264672855774564, 0.003202631664118541, -0.1571360170794433, -0.24646401863255757, -0.010256397241554414, 0.23417056234734937, 0.0721159435011797, -0.27384038806213507, -0.1897808526869248, -0.07016078487091323, -0.18606363479154361, -0.43138128511311336, -0.24169027342739327, 0.19545848279065164, 0.049113495117817055, -0.11283724309785183, 0.465085700696037, -0.3428538450713384, 0.39040201704116906, 0.6298679257787447, -0.1311041534795999, 0.09826008722485782, -0.08474643218193398, -0.29477664581412333, -0.32579308714252253, -0.0796232072067834, -0.1935187593115821, -0.022623773716733808, 0.5076732736288033, 0.198217045312228, -0.096970625686487, -0.4022894706318261, 0.189855481534892, 0.1600215808813823, -0.3274593290587513, -0.8430356328755007, -0.36954330028793647, -0.01111218752785619, -0.0657237440297569, -0.4151801923207225, 0.19199873105536178, -0.1327970614542461, 0.11432697629398648, 0.061985412765830014, -0.27923040834347923, 0.38650597932516556, 0.027813138609753166, 0.22304059405017626, -0.8025314156178032, 0.6837593536503268, -0.03693167973614637, -0.33094797744137056, -0.42041668497231877, -0.012088000359845358, -0.4056886708403083, 0.4010787499515078, -0.0531229121478004, 0.20046193985716004, 0.3217152897997846, 0.3167328480707012, -0.20652458853184633, 0.23874146933428983, -0.013219921768037624, -0.930604630451024, -0.11361322682748694, -0.5479772872064383, 0.13597966989308113, -0.1880869216916334, 0.011214627451431982, -0.26342543400885937, -0.17154526384546276, -0.13945847724831126, 0.5698689244101282, -0.08895144669074961, 0.5654421939627476, -0.2636881553661579, 0.1782997173940236, -0.5664594534672885, 0.1058120433405697, -0.6622753379418775, -0.4526922876528048, 0.6751266437991457, 0.19696460388842632, -0.39452373271620617, -0.12320708084432992, 0.11010934750094917, 0.3972404054974549, -0.07516458397448135, -0.4374477529156009, -0.36470298204641743, -0.48249674367183065, 0.43183218982386046, 0.06828048613231735, -0.7785006282222888, 0.33981860915557766, 0.053824531544165645, -0.45815794815840755, -0.20088138465051925, 0.36404497362280264, 0.395760555039266, -0.13425430674798633, 0.6202191171888027, -0.2750210515160385, 0.03797968550804923, 0.0013785549076678109, 0.007303168704173342, -0.3291134708595514, 0.23864460984627978, -0.17377409917785636, 0.04880708844387843, 0.08760765279677508, 0.16352397016890713, -0.016385092244976168, -0.22546766685926564, 0.3049607560962653, 0.29988189836329987, -0.6646330485787367, -0.196847910205539, -0.36893968764816043, 0.06747266978359924, 0.07539015886585143, -0.11975869293307423, -0.04448564731879036, 0.19454733523174428, 0.014477664904476982, 0.23245770297834897, 0.1424077547913068, -0.1881831253636681, -0.17606981995152088, -0.19481628615753202, 0.19445202143071885, 0.1929188255303079, 0.11750689092101645, -0.40101823825880034, -0.2179284558347916, -0.07157737807963635, -0.8228839879554984, 0.2516967714988129, 0.4193813966274566, 0.06077849545483101, 0.2047490782725071, 0.01703332717906437, 0.13495487933169317, 0.30976450505871117, -0.2962507356790646, 0.40334626443165156, -0.1514426721156944, 0.61112743394497, -0.22571986418782655, 0.26224780717878504, 0.02472615472012235, 0.14860420350852155, 0.3135679074923411, 0.28667655159127436, 0.3087351283409063, -0.46141150849256507, -0.13140712455654974, 0.8207083513054584, 0.16190379980540903, 0.2052434830853251, 0.2121544029484486, -0.6137921712759153, -0.3125892815261334, -0.3142448669115546, -0.3576221933173365, -0.5636776421323092, -0.0197098374033275, -0.372776288506626, 0.026476937121323443, 0.014322275338729831, 0.3833007417983344, -0.23473020927109167, -0.1805018441721933, 0.04542028313495416, -0.39159761129268006, -0.2296627078401291, 0.1567863587793576, -0.30232212206279585, -0.2552909449431544, -0.6654504211971245, 0.28413695582994286, 0.6957678538870721, 0.02444277612190716, 0.4102011943456807, -0.10552336400331011, 0.4310970563717574, -0.006074494990762203, -0.2572852835779238, 0.13392288568165178, -0.23159714225241695, -0.33365224858249093, 0.13133878747536423, -0.3764704655339131, -0.7922621562457407, -0.20626870056418162, -0.09352634516936528, 0.08152983666042017, 0.23538101239637876, 0.309706432305449, 0.008461128411686163, 0.5561986212894807, -0.5753708063177514, 0.5242568606333096, -0.7303237072264029, -0.019332583363386443, 0.6374770550642045, 0.4507039937681716, -0.09159845121448708, 0.12619755384984113, -0.11151247678364522, -0.4134245104666994, -0.1872373792925691, -0.4160889943723156, 0.06466640332698739, 0.48230968758030457, -0.24268945606758152, 0.7564975008141877, 0.08786954793205332, 1.0388139826201026, -0.7818770239747697, -0.6397442757598426, -0.24216288438595093, -0.27419884182183346, 0.2403648390501229, 0.2951099147412088, 0.30108829344482546, 0.23610011994173302, -0.43241925037445045, 0.09124887501578358, 0.273068390412279, -0.5697087894741086, 0.21389934495752372, -0.1761667878825564, -0.1877803632826875, 0.7691946728405745, 0.2013512077017963, -0.3353657627829533, -0.13039058705526463, -0.022062975783585775, -0.14284536023504407, 0.30081465789110917, -0.4846301153236403, 0.3963832173264268, -0.2743767511716769, 0.8082734561065792, -0.7633564855628024, -0.05543683635036959, -0.6112183717739315, -0.5439160186837855, -1.0290063502897797, 0.21527610157547294, 0.17671801569738071, -0.34530747048913396, 0.42787040035448937, -0.10587578547011636, -0.5013524799360644, -0.7552346530094993, -0.29935632261055145, -0.036036165475679796, -0.3111822297676537, 0.28600335986266484, 0.06770917458991224, 0.4281751825436023, -0.174415749892405, 0.14692476481331876, 0.1734294111215613, 0.2651725461114561, 0.5463703732574384, -0.07109323782554308, -0.1953712238233293, -0.35672804149972326, -0.14313247326255893, -0.8908079024342488, 0.48844311065875873, -0.13190624441299517, -0.3299422470059768, -1.0455690537572644, -0.1698152448924177, 0.5862401459906469, -0.19147198242466038, 0.5393305252343149, -0.4824069904847363, 0.18349596510485955, -0.46700011998399893, -0.15547048940198574, -0.11782552489184567, 0.12392931336741797, -0.3608997300173523, 0.3889641276157825, 0.695377596840207, -0.5190904091183778, 0.01242790678943875, 0.23438574774487755, -0.3878943855585878, 0.14922330479449783, -0.14236119768506486, 0.1984451494629729, 0.09942766581120845, 0.17773651256054365, 0.05211486171272425, -0.00610137236680686, 0.34474646120867214, -0.11268901842716689, -0.4112361143826962, -0.41204119651061716, 0.22891086511168485, 0.002309816278597868, 0.10635510799681698, -0.11498663754378491, -0.4464658925922422, -0.1466911869920818, 0.24577812096806914, -0.8113608435117959, -0.348873759262775, 0.31988211902267244, -0.3649281327854056, -0.2667806818612289, 0.4562172406903378, 0.3840809927942015, -0.17592924163923326, 0.4965719733989081, -0.4380539485698763, -0.16315937091526758, 0.16095092838337088, 0.10174256459678872, -0.17473762136856233, 0.004924132480074879, 0.0751775203924816, 0.5078434574508117, -0.14438268330084816, -0.07173414648607362, 0.36645880143870685, 0.011630728855972048, -0.02960385987155017, 0.8307564002892277, 0.2408500828240092, 0.5330017607967066, 0.4499057264270744, -0.032537410206866214, -0.4218721228784408, -0.03647498674186442, 0.24748388535695678, -0.19087597244463886, -0.24721860895234704, -0.6995894911344682, 0.3557977283181307, 0.46178383717745775, -0.24291296592493106, -0.5419113787784667, -0.03897877868576298, 0.02925174204763955, -0.22072504499536835, -0.41086903762455784, -0.31542983385612816, -0.055421506713119656, -0.5338205733699312, -0.19450089600863638, -0.4457584953976203, -0.23190387278112654, 0.38774676204763237, 0.07734159154311293, -0.002603771130862732, 0.65305750262494, -0.08291037749372326, -0.11654808213990087, -0.35337509433040476, -0.24808512654103254, -0.7615942317571424, -0.25713252348453136, -0.03608496827740145, 0.4243037681025174, -0.37254804440955125, 0.3866127351061747, 0.6581100557666537, -0.5333748059199427, -0.15080725624931582, 0.5293265934762567, -0.1650631869060043, -0.3200104982548772, 0.22292697463020814, -0.15304602233440642, -0.065398351020971, -0.6228819399889594, -0.12264149101378502, 0.15275580403992298, -0.6903883541226296, 1.0046159946455484, 0.5101345679416239, -0.03805487803062598, 0.29693460543550276, -0.09196648680266084, 0.3249794224264594, -0.20059997206091004, 0.2839251248135272, -0.38084861982239765, -0.315130794109622, 0.3106547853501048, 0.0233966658046154, -0.11090337837627554, -0.046721622741038575, 0.1792697868628878, -0.11144460714787537, -0.5773201662407598, -0.16954197039825045, 0.5129706638688881, -0.1468985459767298, -0.4017482546608249, -0.3431643273459981, 0.4456702058514548, -0.3171820733064704, 0.27937971174261916, 0.5848637363815782, -0.12592654727650782, 0.005948589562960307, 0.11075486176488063, -0.601014178823605, 0.12054942929903317, 0.39600037668729077, -0.31906227845114393, 0.18208727828740576, 0.4922478766456322, -0.16869101210034834, 0.08319254100682621, -0.6418998389346899, -0.37271265508224244, -0.026557250715986438, -0.051442488593410086, 0.5180675004819477, 0.6120343255398603, -0.1811656357341415, 0.021726782376277304, -0.09315293821811231, -0.1891095556315529, -0.6109948980746409, 0.23571089283224506, -0.09812968648574165, -0.21788982705839463, -0.8614912012908825, 0.5070772659145895, 0.522641836741589, 0.30389935985243904, 0.3289289961563813, -0.4704391764105912, 0.18128405033845313, 0.4714167733750602, -0.3237880557992024, -0.05936033716380023, -0.5400669455083345, -0.4558253184830802, -0.7082251124642783, -0.3880490759333763, -0.2558361134037294, -0.458740027400747, 0.02952308195601486, -0.45238696799039424, -0.0018839697653201474, -0.21170819309524036, -0.2897061701853359, -0.5350213207194677, 0.8065700403374559, -0.0407756947758719, -0.45697588936055245, -0.530896409018385, -0.06122048314344019, 0.4162969180463991, 0.46987969774346305, -0.4735426104454747, -0.16252085597632518, 0.2806414196774879, 0.23164349559599573, -0.18262109324684678, 0.2471770333500542, -0.36813463878000635, 0.6159542916095282, -0.438926657835675, 0.17856482914592792, -0.29647863448226375, 0.02736934849310547, 0.3053916894603503, -0.4167993112045731, 0.06458523248875406, 0.09294519647505912, -0.14295834590926373, 0.7654225992763836, 0.13463946438614258, -0.028686684630494334, 0.6403488264695795, 0.449108601261176, 0.3910290066697528, -0.502754308617139, -0.3431506080267305, -0.17210114482365027, 0.10146566515406127, -0.11103488407403836, -0.2431757427973071, -0.28473639080712054, 0.45977607643490626, 0.6953200989371423, 0.39272455251166566, 0.29534065980870483, 0.3991646149740322, -0.606950969159509, 0.30723023382023396, 0.12545332762325695, -0.8277957067337555, -0.2088408773271194, -0.15217316002492517, 0.1379570496037458, -0.035561478574649544, 0.003742692531967051, 0.0965708508075505, -0.17762360084451806, 0.0794607194970602, -0.1533447322672475, 0.10401653664101015, -0.5092039217389255, 0.1637079522131375, 0.2566184683343188, -0.36871973269329783, 0.21035841717170858, -0.9718422463297876, 0.3098464241617727, -0.12134277727770774, 0.5121102949089109, -0.2541684653262331, -0.26115643723045834, 0.19291586887749668, -0.2896155093381314, 0.5376013265498244, -0.3629916079562064, -0.5243212320728105, 0.3308696770084633, 0.21125177102419826, -0.15836571076608222, -0.9086524734535815, -0.4037725305109983, 0.3880800535028341, 0.06064117791732036, -0.39877705843457284, 0.5701722667996446, 0.1209081627942778, 0.15672135267109424, 0.38665765221549087, -0.23389214244815903, 0.03772509294038304, 0.7252329128877298, -0.28911753856177763, -0.1222963450483747, -0.14197441917557332, -0.11055420812717043, -0.06695167478355893, 0.596298186642096, 0.356722336572216, -0.2852033730165316, 0.5267540814812395, 0.22994269199185127, -0.07504260282035047, -0.22440253754578213, -0.04068732724566611, -0.5439861441875989, -0.021287430240284674, -0.0695975667711905, -0.5065774014149261, 0.2542261869957553, -0.0041862553122326025, -0.41552821950925545, -0.014449056734753477, -0.24043914502451277, -0.0712719858890475, 0.17533621166760793, -0.03900520307099017, -0.27328104719023805, -0.14832161400498234, -0.48544124076738954, -0.006205644362446862, 0.42949799896497987, 0.2705943044567021, -0.39092884176085263, 0.14197473909023867, 0.29298247235333336, 0.26820214510863605, -0.22396781644320385, -0.040425031179387, -0.03263660110822257, 0.39174563806357027, 0.4618456374449884, 0.4927706600581574, -0.5405278809935675, -0.29338610251315506, -0.057154587947179154, -0.38992680838725985, -0.27350219194396636, 0.39282989729112405, -0.7051128027450247, 0.48036420359560106, -0.21176016088668942, 0.029093856636630496, -0.34555148064693103, 0.5258615870469688, 0.2815367031656073, 0.06009663282932564, 0.17305482391742458, 0.009468283083730506, 0.24903286439776326, 0.7501317880067042, 0.10866817800312992, 0.40047696809803296, 0.2551905784543087, -0.31767372470115135, 0.03225453721998589, -0.23544604830378044, -0.17712542364811829, -0.3185887296237001, -0.16868048053103663, -0.21444401367515964, 0.09426252929964722, -0.4774678081651354, 0.5471113117909631, -0.3232261934155176, 0.7752068596267606, 0.07527967457936778, -0.4268914830531543, -0.0319332135508913, -0.5394058781109854, -0.1366408235607316, -0.15150546586687125, 0.7634122857046165, -0.20474097224656782, 0.14619106337986137, -0.21171879247287817, -0.16474593206421081, -0.06049894713804855, 0.47338931702678105, 0.17913446908055605, -0.05586172165891042, 0.6815677676725108, -0.2727722466497341, -0.05936275794096928, 0.409368530171064, -0.12422617766627594, 0.050964894046229746, -0.16882098185283417, -0.17949804009051354, -0.14935704265121894, 0.20268627057411473, -0.35174638153510657, -0.006994064462389079, -0.17624851545928522, -0.1834852261147283, -0.19929775747314576, 0.3206932264690817, 0.6977507088753915, 0.43940559831243764, -0.022423265718100178, 0.3075369340298709, 0.05466686632612275, 0.022719806304022493, 0.0492213791924377, 0.0821864637483646, 0.38891031801798676, -0.05785189532674948, 0.3362495695331654, -0.8964743513008339, 0.2848971051834223, 0.6336548547919881, -0.09286865244983508, -0.4228051801181308, 0.12819393409624621, -0.13859071451696964, 0.6352097175891718, -0.37722799449441874, -0.019852024523872972, 0.328290376174235, -0.3727312030109301, -0.11748388554558245, -0.740748988686279, 0.4956701572743654, -0.006931408654017471, -0.03998414716339347, -0.4271206566244646, -0.1353623661569692, 0.011796055197837796, 0.26007492272864496, 0.5070072889985863, -0.07654014610371992, -0.2107233616442262, -0.3251037327878235, -0.216018519114895, -0.012234349873433414, 0.3009553272458649, 0.29116801448720747, -0.3573725914718801, -0.46337011181544074, -0.382174188301078, 0.3583049430979617, -0.6154487797650476, -0.1721819788276382, -0.6407845343538205, -0.6621731403071689, 0.39318867383555206, -0.16855122590395097, -0.508831759656104, 0.13835432268344763, 0.2751084167479969, 0.8363254826094302, 0.045783960018732875, -0.6258704502604943, -0.36619436417980467, 0.07512963524887531, -0.052030914097003875, 0.5428558615514424, 0.6657342333557875, 0.25234855034210646, 0.9168493945068635, -0.08114592224833382, 0.26909430018366853, -0.578969506092987, -0.797773570680945, -0.17435967574980937, 0.059529899162740055, 0.34183821018193505, 0.4364219292007765, -0.23753373794817476, -0.5813151813475746, 0.3955734521001624, 0.5874484118940251, 0.11412549875674646, 0.38009583599739444, -0.6494163785257819, -0.37079814242474957, 0.11401619524479041, -0.3399153969729654, 0.29199832169625767, 0.47117834467197744, 0.14869043872389934, 0.13969498996414953, 0.2809768801670701, -0.39204492515234957, 0.4443637608474328, -0.6059112562240968, 0.4575168802665391, 0.09466371011077522, -0.054278213468802954, -0.35949069046721294, 0.030715063975648188, 0.5448146408806718, 0.10371885287043456, -0.15003431296320785, -0.3136132483628674, -0.44230033382517875, -0.024232082678498468, -0.21715576413964127, 0.3630252546066243, 0.033361406499945546, -0.014954925595747464, -0.008828231200842593, 0.7158625186198998, 0.20143344253985754, -0.5932359577694116, 0.19760012672521712, 0.28483726663707243, 0.3913063894531198, -0.3233682248023845, 0.0085699812467972, 0.35835192577235103, 0.24586128013313627, -0.2642992033423172], [0.0946103889704748, 0.03720947579864124, -0.4087428156600223, 0.3097085877951392, 0.1960961091958026, 0.2691000971221061, 0.11658120761134334, -0.18551850675541903, -0.1640166588183907, 0.3138145604588053, 0.30810520205394704, 0.5572004838278272, -0.08112904844741625, 0.12753441719659944, -0.10924187284857635, 0.6844292545743317, -0.26891221954392763, 0.19616736309198557, 0.4034985112898354, 0.14198754784825146, -0.10091108369949477, 0.21068230887157752, -0.0393492398927511, -0.38268563296530156, -0.37126539253910984, -0.32503531672172953, 0.3535391541560736, 0.42046470581290474, -0.09366199338633217, 0.388668517118664, 0.04589616515035078, 0.35919309125889026, -0.7153012364123084, -0.09513024218568647, -0.1344678052410606, -0.21237007627387228, 0.3193085859415082, 0.22031042601036768, 0.2452807647125356, 0.22591171221248008, -0.3127964612820701, -0.07696276456073187, -0.510741153939761, -0.3706720292658278, -0.10835187778514964, -0.010717727610577382, -0.06342184936155279, 0.2659049233129517, -0.2713913165975718, 0.18120528134751335, -0.04735108305225784, -0.18904724308092508, -0.2844531558132653, -0.5529208688187305, 0.25375746100036756, 0.0856149257804147, 0.46854719452910765, 0.3601892996291908, -0.09597914107687404, -0.1937585276489092, 0.017584040292192266, 0.48694151672479663, 0.20900864049571355, 0.592193425720289, -0.7405226044195969, 0.4780309837031097, 0.22675340952299997, -0.38853778128032174, 0.2696433402472428, 0.015694458661328903, 0.46501827125288714, 0.24977055286999103, -0.05430999262525172, 0.06587477687758489, 0.2608648253771026, 0.00607485947805146, -0.1437593349783811, 0.3362211679131348, 0.01571108901104911, 0.17812415243854768, 0.313302153811172, -0.7171096721046665, 0.3029546472966402, -0.24330062330398397, -0.2689954616638799, -0.657206262846044, -0.31467122961412336, -0.4085303558974093, -0.3520451078869233, 0.2982394666592288, 0.2952393475277295, -0.08823692043988661, -0.11618384938611631, -0.5649356097557443, 0.37046214246354575, -0.08624886901228877, -0.41835460549745795, -0.023087569512783457, 0.3880543882902453, -0.08846844748158818, 0.5728466386986445, 0.07633789555870209, 0.3911427439090656, 0.34541482888882785, -0.5651506402783787, -0.40473639632264546, 0.4487613851057361, -0.2574804131989321, 0.17843901574357876, -0.13003389415851088, 0.15228506661814697, 0.743047990021678, -0.6075228944898856, 0.6589280479426863, 0.17303602447002933, 0.18069327667316468, 0.0810787481789783, 0.4108927863228442, -0.32035053673541647, -0.2481094745142399, -0.1139167414696928, 0.04854395976762382, -0.4237914787977426, -0.5343882466512135, -0.46213341170856104, -0.12247053151464089, -0.46265769583264643, -0.09977920084911451, -0.22790519850126825, 0.16499756066547325, 0.4659839144967659, 0.4533851620427641, 0.10215205766042348, 0.08481754296213274, 0.48441575698154254, -0.04149667765028102, -0.27848836969301716, 0.5134801753811247, 0.7776052689498313, 0.5834966135922932, 0.33139320377334364, -0.14214817870448052, 0.024381250979156725, -0.35034845218513244, -0.23202962658122403, -0.29502422385906213, -0.29559666664176104, -0.4529021807626454, -0.48403821373817046, -0.19431662153346316, 0.04263552559307347, -0.4271913286113305, 0.2760707778245249, -0.5391745936436128, -0.27216754230901613, -0.33518310715457544, 0.3756524741775966, 0.2288922016515857, 0.038994477098374766, 0.22650518272615983, 0.6693064703977176, 0.019559225915862278, 0.045367905574942545, 0.7213781525628785, -0.31636885627844974, 0.10259406106130341, 0.31058825049973504, -0.41479059247369016, -0.6741734129342379, 0.4698405590088698, 0.2623820807926037, 0.23349036258461298, -0.42137689342923523, 0.02043201684822918, -0.19812179227099638, 0.012863272744092345, -0.1917578709234051, -0.24712081285162457, 0.2383152001351933, -0.2711683244090043, -0.10257947830875438, 0.11062400939913584, 0.619390798665335, -0.13875274586315062, 0.23473735676740223, -0.46455197200088777, 0.15704315866634816, 0.027611536070798904, -0.08330807825565213, 0.14954885922684907, -0.4981958659775323, 0.19530553248472277, 0.07414956839892148, -0.6755115266130249, -0.2864726296217537, 0.6337573598120997, -0.26304854684652723, -0.03249273736594315, -0.1320094110468514, 0.3053599048274579, 0.010814959329277778, -0.30450737608634965, 0.04452918055155569, -0.1995593355274124, 0.18512804492758825, -0.8224012637988161, -0.14503555260236822, -0.09893486039069276, -0.08634569749443233, -0.4749344396734489, -0.38433609761534815, 0.460738653543901, -0.4155267249253893, -0.029338425867699327, -0.01069396951853666, 0.6146021131219261, 0.11464050030937453, -0.2026502916620506, 0.6086640697881598, 0.06887715754375968, 0.5454129095697933, 0.05093524540029682, 0.1361123642949814, 0.4706728117787823, -0.07665829561728832, 0.004601183976742795, 0.7542535141204277, -0.2394869813452838, 0.05902364254954516, -0.3169510406134858, 0.38857144229909346, -0.4462890007778178, -0.4633706561461224, -0.41939166866077954, 0.037707543759617226, -0.22266271311008207, 0.32144383298558027, -0.38768268137406775, -0.0012244263355294886, -0.07774936748007691, -0.29756626024323324, -0.19195581384497823, -0.1381584996628071, -0.2383590188958902, -0.4043001445841662, 0.03768955732331309, -0.06065611846314834, 0.05394577564220512, 0.10044590834488053, 0.12046895827262018, -0.3823424457387712, 0.4444655252009916, 0.3581466197866688, 0.03850495139178308, -0.12898876348714763, 0.1651613252877594, -0.26735262247603825, 0.47518910067197, -0.2761841593325361, 0.3537635213867546, -0.1442693917663484, 0.16615077021415706, -0.6695257108262074, 0.31841334149391193, 0.08364503260901685, -0.06854211319904684, 0.23556110408510206, -0.0575451431307102, -0.10998390803159427, -0.8334914350161781, -0.9008488494183368, -1.0399217690302622, -0.1987915832484658, -0.5443272379152658, -0.4885771701747862, 0.12815128949966315, 0.01581641770892581, 0.41450049207062994, 0.45187247422313565, 0.39671154235339107, 0.4880234592554405, 0.897277142732514, -0.008157765068776945, 0.20431428813820054, 0.0510140826136467, 0.20581192243695878, -0.25306105314712485, -0.13315323801867307, -0.6614489482941801, 0.34540651815040974, 0.19349919456202028, -0.009988548556683073, -0.2640435245540466, -0.34291070687031766, -0.30976573734646395, -0.7668860524079617, -0.25689799920551853, -0.3842300172805413, -0.8700956009588449, -0.2653905544576493, -0.4305987227116876, -0.6678086705367094, -0.21962601645508045, -0.47368321614716286, -0.11287277259767958, -0.0004023735489195368, -0.3705298800832199, 0.12571592796275033, -0.049277068049845725, -0.1387120697357865, 0.2006755272193678, 0.07150735347353326, 0.2578963308491077, -0.14653340518725816, 0.33192640355670644, 0.43715003614826137, -0.25576532454057954, -0.158090404003519, 0.31650155414874914, 0.222230151138039, 0.07217434757466179, 0.326889086282921, -0.21170715304934318, -0.2107949962807464, -0.26354039254092126, -0.6478796026892718, -0.8387472524002374, 0.06803936110344252, -0.5660988855547168, -0.09308922058927065, -0.1626105366615183, -0.133249828908837, -0.10765764606031457, 0.6173948573321453, 0.4614044523643534, 0.5553644155051504, 0.039266663746175504, -0.17996227906929674, -0.1211101186840249, 0.450835263006911, 0.20685766218701235, 0.2880378939440509, -0.11799528956139477, -0.03614431500993131, -0.3079834754008441, -0.06460869063391442, 0.34589715434998775, -0.03250118372182941, 0.22799302794916418, 0.23449899650491557, -0.11090729672511333, -0.4975540386727153, 0.030539902195729877, -0.14935677529566646, -0.03335357711799436, -0.5176306747157486, -0.09980079815348174, -0.05102993493703249, -0.49155155596633954, -0.21694855779725392, 0.36260736148742895, 0.12457563795785448, 0.23524585701721246, -0.5734482981964701, -0.6724401027106301, 0.21581353604915945, -0.1669274979681325, 0.5206246898803538, -0.05912844011461582, -0.08459379533332817, 0.5387196216666886, 0.4340184610242105, -0.199041505687071, -0.01730740215512312, -0.12503750565482025, 0.44148860819719077, 0.13742832574682087, 0.015547231347816737, -0.3243867638906322, 0.3937419138528035, -0.19635166260434828, 0.3428671142705494, -0.29565249326199405, -0.6075053996068821, -0.4991593998885236, 0.11172788383258063, 0.005601502694474487, 0.12409751302708916, -0.16850037164814463, -0.07830643669890722, -0.3041656325059653, 0.11420527375826436, -0.3353817763577653, -0.18125537075158848, -0.5261050790645755, 0.4274860914721934, 0.23818443980195786, -0.3665492874204596, 0.37116465315555447, -0.08537836891777292, 0.44245435430984487, 0.03713137480737302, 0.5770484909478264, 0.037232914768637694, 0.03320996062842018, -0.026002957846406907, -0.10666391396495563, 0.05529568175298794, -0.28011663741108017, 0.04365305400006076, -0.02542393489922828, 0.2706914278223526, 0.3678320966665329, -0.11855154220686658, 0.21221748708214877, -0.4120169175408757, 0.18126569578360072, 0.0963530923965801, 0.1028349566735695, -0.5220670838218207, -0.3357973646746516, 0.27320252586509225, -0.617672581209515, -0.4695034558529218, -0.26065726963358854, 0.010327408164192062, -0.28784905744651407, -0.17279773018143874, -0.09335688930929587, 0.19536354629243405, 0.44104482574789405, 0.24894886552014228, -0.1895666834151961, 0.03930812259506554, -0.15414437049803348, 0.25129898450145627, 0.2103789128257456, 0.12914683257007978, 0.08338793345928106, -0.026395079947499678, 0.34856067432865273, -0.11692252308262752, 0.0726429468977362, 0.0002939066562008618, -0.3113905502980294, -1.237308554940328, 0.21147151944551984, 0.14155046632000087, 0.18849825330240141, 0.9544008787525405, 0.025863298449271273, 0.08838297342866137, -0.11947643614942545, -0.05640181391235144, -0.18449923703743915, 0.3868111826989259, -0.20802229111844442, 0.1681884653566241, 0.5148796860390211, 0.4229913163748294, 0.41558413267247885, -0.2661222868792149, 0.0024540260503853376, 0.12305871672928477, 0.009499277974924796, -0.4395392354866828, 0.5578532741065554, -0.08011336623816732, 0.5100819045386193, -0.07630476122423833, -0.2220656017790427, -0.3147135042733467, -0.5254631861606512, 0.4401312149534563, 0.0010871686364289867, -0.06895354132255917, 0.3147967476930369, 0.12454774932178575, -0.4917497998604217, 0.34497764190017316, 0.1389395299635581, -0.17117064669662904, -0.20416274937431345, 0.16985262283270736, -0.21526699843601274, 0.40193885580854455, 0.3653988995935171, 0.18795175604599415, -0.5365433991500077, -0.18008931386975968, -0.5098589728143743, -0.11293631010467306, -0.30385344777628837, -0.2277230228823108, 0.40523087998660295, -0.22511619140026082, -0.1534799329439974, 0.8079877587938727, -0.12099841608805985, 0.38767631558521765, -0.056739034286379185, 0.36612280726943924, -0.023056455100640357, -0.06924041241821735, -0.24533953053493532, -0.11399304563834879, -0.42270317983225464, 0.009623017772386944, 0.11490961825240666, 0.07918792619503838, -0.0061189258688410745, -0.3034860413082189, 0.6759294667858633, 0.10443385429853808, -0.43427219184930527, -0.01849088897868237, 0.27383891134887217, 0.07686540550716457, 0.18546911933201954, 0.12160089264047874, 0.29832299590821093, -0.1844104701953253, 0.35115886463942253, 0.7873112938862413, -0.4588080454209633, -0.20740133888646156, -0.7833547675449426, -0.2343733960263336, 0.4593555084897109, 0.07166223294328142, 0.16100078465869125, 0.08101237087644338, 0.550727836256406, 0.008552531208480619, -0.5784229425380473, -0.09854999288914884, -0.5300468650187847, -0.45278169103041094, -0.3722173124458747, -0.47359917165614523, 0.19179808695953227, 0.2278509945942895, 0.2951475849854363, 0.23673907910060338, -0.36420621861457225, 0.012737657709077598, 0.4952713638586643, -0.2301022841920338, 0.0780209718307978, -0.12004332060930523, -0.30009748584781865, -0.19605953365343365, -0.19927241764985437, -0.22740875798758628, -0.17319183215502584, -0.9469341707616022, 0.2699519000608983, 0.11680003873603165, 0.006607844383554458, -0.2066428154619787, 0.041511775110259407, -0.08348661040128305, 0.10575676524748241, -0.5613623662362562, -0.6757288668635876, 0.240140537589563, 0.12497201981352757, 0.16708851776185138, -0.46881887538189576, 0.016668076923522592, -0.07346609638643034, 0.3836132508057136, 0.8008546994778416, 0.033123004950164216, 0.27546200052666464, 0.9931570196228963, 0.13212119919338192, -0.18374399344766393, 0.10819505351249656, 0.07397668029590929, 0.029588702156475362, -0.015709284356370264, -0.16022888237232905, 0.29181173717761044, 0.04729671976313837, -0.0677004742913915, -0.2490218812103074, 0.07951044749339796, 0.31901029249456303, 0.03594748884086931, -0.12494364742189051, -0.40435697564840933, 0.2676469736671349, 0.6583972511883677, -0.8459898857249585, -0.23245857592896974, -0.17052481149051257, 0.19526582227266207, -0.17132139462044682, 0.19020492577234083, 0.027994768923410837, 0.333306610524244, 0.0612852384705596, -0.2246837002824681, -0.2590369447586831, 0.5871613283836964, -0.4245333782702459, -0.3021010805623058, -0.2751705387942108, -0.2184405675344712, 0.2024968018024817, 0.21086033606798368, -0.3428458217724035, 0.36433346599823785, 0.0830749646514644, -0.44887966958614745, 0.07333730048270673, -0.7626455950681228, 0.09827527213921664, 0.1390877750256123, 0.20033655105168666, -0.015894952499239962, 0.05600848161597028, -0.2519453210066401, -0.3058950998956001, -0.7936011781847335, 0.38095335486008036, -0.20506780656015652, 0.16875391510475887, 0.8268372096620361, 0.2201025015076347, 0.1275642431011803, -0.24526547609918248, 0.48977402527121133, 0.20788341665465299, 0.1655007915922686, -0.02271788620335936, 0.21147026518065937, -0.2988894737063021, -0.20386079768442428, 0.46899302058221526, -0.08717870322686168, -0.1379997216808477, -0.0007987428372840498, -0.024941103566466956, -0.012863357741962955, -0.017825084659368638, -0.009017994910686087, -0.33123300726889365, 0.06536427966889974, -0.5098552608113532, -0.2265044817807719, -0.4012764686857309, 0.144341327880737, 0.12054852001592488, -0.46447835488492895, 0.18565935366504946, -0.4867587353083985, 0.12081661891214401, -0.8743795329959446, 0.296208768694153, 0.5351837416191829, 0.42667393264451725, -0.17135357911621552, 0.06912655014044329, 0.3113835764503009, -0.0397373921262822, 0.11969595904071313, -0.43834340176995934, 0.11737791046782203, 0.04007945823905525, 0.30058717930837986, 0.33132858445788693, 0.4438539096634519, -0.010010161554791962, -0.46265855345492257, -0.6190287774327748, -0.07611392518402244, 0.34852090349102477, -0.6589958166627314, -0.29755902390262934, -0.047196563047581665, -0.12285891944082582, 0.11250098722434701, -0.06414609359637087, -0.5387098701234089, 0.3141859846803784, 0.28310755860353565, -0.2500979851892763, -0.13369633563253794, 0.47574111140852493, 0.05850643846969118, 0.12517310427916203, 0.5454587999571934, 0.10671854432524766, 0.07646995828404554, 0.3196466018180345, 0.3532116625444066, -0.3673310887766189, -0.3527892699102266, -0.2948465786749399, -0.21020140501159978, -0.12259953186813102, -0.18335761359097, -0.2875943181783903, -0.3234376665615461, -0.6372733114086603, -0.1920173884113061, 0.5643425756372392, 0.3731635221673504, 0.3740212563303795, 0.5097719031872929, -0.18428718930994303, -0.46236693077621965, 0.148456403490023, -0.4570308264906496, 0.09144403067915276, 0.03928173214106799, -0.5380801296105029, 0.0931125182532492, 0.6958376140120354, -0.264034040701657, -0.04371004575963259, 0.020857194389670878, 0.6117967366309068, -0.20855828767638654, -0.33823725949235767, 0.23071648355360327, -0.16313418575305064, 0.20153359109518965, -0.40756276482289944, 1.0495772108634787, -0.024714799094914794, -0.010728978438841645, -0.25078248076489196, 0.0340263350277675, 0.09266824292030916, 0.4235047346525654, 0.06577837311847014, 0.094415691583913, 0.14348400419901133, 0.2136423492428788, 0.11650248679011173, -0.04450763289789993, -0.12981488039589967, 0.2165338723605352, -0.22738766839667696, -0.2091637566462462, -0.5249417397181959, -0.4646193764400202, 0.23811357391919047, -0.5456348955297434, 0.0981439319797862, 0.22207575910586405, -0.10835360844582705, 0.10028377226898176, 0.06950904843978131, -0.09745168476937383, 0.5998391411468769, -0.4345199870914869, -0.44405978824835546, 0.28216065814284486, -0.037741958656319866, -0.07492570740399732, -0.19524962190163186, 0.10791498252782163, -0.20354477713715458, 0.11355846107641077, 0.5362948669027341, -0.06348780553624835, 0.41479270095354237, 0.6112833065585753, -0.5202001192315724, 0.31627434881363453, -0.9920207435360116, 0.1237052698343641, 0.10180049914548679, -0.25636903367777253, 0.43370378650616054, 0.13107210474801656, -0.25904292485904806, -0.4305710450170135, -0.28598839402888243, -0.43072468346895526], [0.16345739935191272, -0.16858767191631518, -0.4050251210394661, 0.056413236553132705, -0.24725813567157573, -0.42053557294914395, -0.18540266996054103, -0.14081447163032126, -0.4073777570776695, 0.6316304342367304, 0.15514386831116192, -0.013527913583727522, -0.396173058900761, 0.020221796115145574, 0.27102963773466027, 0.28565388494612637, -0.5227129416486883, 0.3741606515036749, -0.5252510155976252, -0.03411518895508503, -0.10951993348993362, -0.030462301532024946, 0.5559849646117699, 1.0197924099867905, 0.13467001763724673, -0.013577176366368472, -0.30072011653098624, 0.2228988127486485, 0.04775212892525942, 0.45733042702146925, 0.2984182485956063, 0.13366235120035783, 0.05514637498802186, -0.33106348696839716, -0.24838028555737426, 0.06118933679984159, 0.13099584222385618, 0.3227061949653978, -0.28203180115537113, -0.24029723657840815, -0.10125419596399218, 0.4366689111575357, -0.003198690184484727, 0.607527461388262, -0.14907832719627293, 1.0730613160186804, -0.4973811005248314, 0.2160375931409428, -0.022178067948456053, -0.4618906907943751, 0.05282184388550314, 0.41719728667750483, 0.3882783830042095, -0.027637315348984854, 0.363693298776814, 0.4374979347332858, 0.5283629288382524, 0.06263451973924537, -0.32992647166450756, -0.34402074123416176, 0.23548367959753813, 0.10819515772462557, 0.16324880856305732, -0.5658269981621614, 0.09345226202265912, -0.07419735449679411, 0.3975728608962266, -0.15776395443320895, 0.15348758781586438, 0.20647688679312362, 0.22454813258635967, -0.05390985880403404, 0.2980418533157836, -0.17978662146158994, 0.5028630644746571, -0.22770493603240385, 0.7030863909011492, -0.08520170617216694, -0.16999610270633891, 0.5872705008459529, -0.3060009772964259, 0.6076677623255632, -0.12909621522519546, -0.6738607529628802, 0.5131409382666701, 0.2751265579785069, -0.6753313656233382, 0.3399602165001222, -0.1674265702492071, 0.01949786381441194, -0.16116034597061443, 0.18494919651927857, -0.17194175740176426, -0.667789051031283, 0.19297400828141528, 0.04680077515325961, 0.10815726947150167, -0.23656838710945227, 0.0168169422267887, -0.07086273839750007, 0.5046331992601087, -0.1713571452719268, 0.19007325595992586, 0.15604078595212476, 0.5153251925567723, 0.0737778733664427, -0.511076389318815, 0.02111234738939456, 0.33453548731517213, 0.5900206019060787, 0.20594894497118746, -0.286226541959335, 0.3257195022470804, -0.35633266681174636, 0.23444228200403822, -0.034977924314101835, -0.4055441642627116, -0.5367102475055952, 0.23872364721306394, -0.09025172140306298, -0.4735232917189804, 0.5938121634975905, 0.3387196896627855, 0.6359857090487521, 0.17092092925675245, -0.0102693771500938, -0.008460462599279522, 0.6897817802963769, -0.39819151415128473, -0.5774006746480855, 0.17988389347842024, -0.030758461874729477, 0.3345303901477331, -0.3458837087442301, 0.12585108306993734, -0.35188887273873637, 0.4409205523364993, 0.2928071604904515, 0.3083293656385147, -0.04967462688857453, -0.24265931681525688, -0.14168230514866945, -0.8627375174333717, 0.3690743684153017, -0.360773481084964, -0.021412658246735484, -0.40766021835518024, -0.718293804803332, -0.1100093490543834, -0.0456134464722057, -0.23272411725017325, -0.2499549233718807, 0.01986432568299151, -0.030262531025011, 0.16744231353793065, 0.012624403451741179, 0.17384341841956785, 0.7558068212421812, 0.13287998065014556, 0.6088526981382758, -0.38225194178213734, 0.38319966007218864, -0.13555042777428053, -0.8109542727156821, -0.41009198906826544, -0.018872076464912763, -0.06760248717151125, 0.46074919753898197, 0.32524432044138796, 0.11993889312770807, -0.009293397341012416, -0.29380237441742185, 0.07648579616815787, -0.15979001435187215, -0.2939118780568727, -0.190976201814388, 0.13184986741517704, -0.3318158772027199, -0.2152110938723702, -0.17121920108893532, 0.03292388711357154, 0.2080783278643382, 0.24837105663866285, -0.08627525005407657, 0.5339108045082621, -0.010045949023598502, 0.05695245156259265, -0.6049413727832711, 0.3343144443187799, -0.2750154137222796, 0.6282453982034935, 0.12078119445003724, -0.18412922106664512, 0.5343048954648761, -0.3491841134114534, 0.08097243323164223, 0.0303144233892532, 0.17007261288263698, 0.49702896761984383, -0.004665102733628707, -0.4886235998767226, -0.20704569246084278, -0.29524292235849653, -0.6626609543707043, -0.054663358526254965, -0.22196079172457606, -0.338796268816367, 0.4361864019053029, -0.24528456147236033, -0.1679318395663544, -0.09357180293729021, -0.3442864224027338, 0.049423196267800826, -0.5685944938915259, -0.1969998792547804, -0.33789904826598305, -0.0011443658716102664, -0.5648243389779108, -0.012150897788562145, -0.3927649731879776, -0.04637084192180144, 0.2338951197007666, -0.061093169988767876, -0.21051045101886412, -0.22658362186007328, -0.2812735181957692, -0.9428697824458451, 0.005661224480792123, -0.6509984807407987, 0.5457272076396759, -0.5454013878884549, 0.528515432533649, -0.26930817458667994, -0.39393531293309203, -0.2554378520145786, -0.49551608817676646, -0.27448339483561873, -0.4646739393177713, 0.18329108650349213, 0.27041361865370706, -0.5482040416836388, 0.22442053408813784, 0.052696184159609985, -0.3826110336831431, -0.033757463989947695, -0.09100158648711837, 0.3112927379699444, -0.0155900840883481, -0.02460175327956846, -0.22935586471095212, -0.22996360563074825, -0.04539306752430312, 0.3540775129901056, 0.3510021268094726, 0.16951839014358733, -0.3925904810868405, -0.1343732883817554, -0.12020919614522518, 0.2779084193414717, 0.2850899935342748, 0.04666550404677155, 0.5104994090352526, 0.16165265705305237, -0.04382334532099165, 0.20914651280624588, -0.3494726376138749, 0.09612188430846333, -0.8564105272213365, -0.27223876093778865, -0.3859362144418427, 0.556205485645016, -0.11548608820394382, -0.1290290395841161, -0.21130235614322684, -0.1803258221078863, -0.14764464916766484, -0.47440158340565036, -0.09610170540757085, 0.6267002084581941, -0.8924191254213774, 0.04771471730731919, -0.12755332664114288, 0.4254754982684557, 0.03350600907558177, 0.23714229549246774, -0.43497226637265624, 0.42014911017440554, -0.20516841924715676, 0.21829282203932354, -0.09734728619127701, 0.43763750440948324, 0.3455644374525396, 0.1732151601893907, 0.35620082909439105, 0.12305582523955291, 0.33432718531345534, -0.4526665136663545, -0.2189113278728231, -0.20924837189624945, -0.06432077101206395, 0.9003515593489927, 0.04119246843280233, 0.5401688795518805, 0.2142506570795486, -0.10786556039524085, 0.09753505931302542, -0.06287399853106668, -0.0700142906305171, -0.377606184174856, -0.22571163260748991, 0.5326127267909363, -0.42593094448262486, -0.4197358013818379, 0.0024795230907358606, 0.45483766508823664, 0.46213866699997636, 0.21385353316033612, -0.0814457154813012, -0.0707044653528405, -0.2606091532704849, -0.16701239911284838, 0.2775008207026799, -0.16320253043784885, 0.1456374479030352, -0.06443706472339007, 0.13529729994454265, -0.26633247305262114, -0.0036331931935483517, 0.23314888675214, 0.0891276766218107, 0.012382821661825692, 0.22811863379973693, -0.4487001726569557, -0.35336718894622576, -0.018336553446076376, 0.09862114751462528, -0.18532940619732702, -0.3404297182700309, 0.6158875298956846, -0.17828192490183467, 0.13702598710891392, 0.028161188541685294, 0.16543512313387432, -0.22922344739856954, -0.1251417781538534, 0.11892799269477085, 0.11511878263550801, 0.013065373867969703, -0.12749237852651446, 0.5784153734832135, 0.25167087776701863, 0.016162045359454612, -0.38270538536993076, 0.0685071963518312, -0.0752917748092159, 0.4891009868391168, 0.2521764506772888, -0.08285895802455712, -0.06748815622204138, -0.2340670941942526, -0.0386762974411377, -0.40347513412221775, -0.29598377282471644, 0.5138462258705654, -0.2643857774275358, 0.43767229391641005, 0.15248313819814396, 0.04599046559503019, -0.18998685509300559, 0.3192825576698298, -0.7533145735157709, -0.703691245505028, -0.2732802853163297, -0.030669265631640706, -0.30626720797106255, -0.2560952023778633, 0.9203738486130516, 0.18167723857552057, 0.8350150296411627, -0.26066999235441657, 0.2327139982437369, -0.1550622567818668, -0.5535067184086851, 0.09090276568716298, -0.1428285502480606, -0.050087810605404855, 0.4117144020693478, 0.022413308250459164, -0.3636324765766047, 0.12890786470188234, 0.36767925821906516, -0.044913815278518995, 0.3456301766633359, -0.006303870116179345, -0.17178199321549298, -0.45691575585301836, -0.3180335675729258, -0.4390182151129019, -0.021230105216181475, -0.014849802239179533, -0.4566298593538771, -0.08274596226717926, -0.04007744776681421, 0.24046969590203757, 0.21783843303982137, 0.45166267990764475, 0.40517192913725475, 0.7184110650515059, 0.07790134563527354, -0.07850119622663612, 0.2679588281411996, -0.2782627982644105, -0.25216839717822614, -0.5210661705579976, -0.4879398314922973, -0.1132572750950191, 0.1752710504108686, 0.5743716690174764, 0.38034001648477495, -0.3572049285989917, 0.12431733104640673, 0.33246193944618907, 0.2119073681109259, 0.6225827142974694, -0.3934084245237692, 0.6553207954657501, -0.22065868115630116, -0.03615709748251803, -0.09055249270065321, -0.09536325966773895, -0.3007488304348713, -0.004073591638183573, -0.06389579508344159, 0.7931987974465219, 0.5138254397471302, 0.29414710239747005, -0.10480793711164876, -0.26995394165702785, -0.634058555519674, -0.1291494991356966, -0.37515793623499605, -0.2129198894234165, -0.3528802947771751, 0.0613521321717026, -0.10325521544617068, 0.06941824834411837, 0.33599381544084267, -0.4085609434529432, 0.13457973762645092, 0.1608431572201185, -0.1248858488730723, 0.17530204624822746, -0.3223491964440774, -0.07165269706261532, -0.2664959993120688, -0.03782096241956328, 0.0871476159920814, 0.1260573576602454, 0.4730993984145423, 0.7047283180064268, -0.15123894308061706, 0.45390475211179576, 0.6028997713837146, -0.24736019905022066, -0.32879804706558685, 0.17200211257892975, -0.286312670404418, -0.15017951831066637, 0.030865335698184466, -0.09039218324647559, -0.42209770445898814, -0.19223027620704902, -0.22289299639811266, 0.22609852279821163, -0.6026986916419969, -0.22500064441978793, -0.411203978838648, -0.14908290670659785, -0.0954925104083704, 0.1608763886056649, 0.16143965864634063, 0.19925117094191777, 0.048851620032156956, 0.4548383533854053, 0.34626259790926406, 0.15261127129982718, 0.32427771019105395, 1.0279337952239853, 0.5282425165490592, 0.24731587056451274, 0.3586377118751111, -0.3079161094224655, -0.031287237776685975, -0.30797757241879037, -0.5159415527837278, -0.5395653225452035, -0.290637966598481, -0.1434168383647443, -0.08339535439368591, 0.8725545290313286, 0.03602649349065572, -0.1310695749537401, -0.03493483887846103, 0.5254490469268314, 0.3454180902846289, -0.07224979675891942, 0.0781582578112151, 0.10671056026282714, -0.37360045456263014, 0.26692210928903826, -0.2389832755791284, -0.16513241799160835, 0.21655995851228219, 0.5078527109415708, 0.7074279815075027, 0.654812454782447, 0.7662119173408622, 0.4585656619694519, 0.21888107154278244, -0.12302526514223114, -0.1379855374189698, -0.4393206942326405, -0.7796979536921972, 0.10594348165009003, -0.8060199398899995, 0.3286790626906056, -0.44171485759046186, 0.8376906329279068, 0.29227454321132884, 0.7223432070961393, -0.25948835449741275, -0.12195172417519616, 0.2651474684194968, 0.05726940014518891, 0.15290290295927716, 0.0435427116939351, -0.11980555843150872, -0.010658470372102338, -0.3323409889311228, 0.4382557746774267, 1.0710827792386566, 0.2747860559614236, 0.3154304882102439, 0.15489273855086852, -0.15110755991991676, 0.022820006136610508, -0.022714382899501215, -0.23485176949695777, -0.2970020652572869, 0.028277008716940773, 0.14403591961416903, 0.3539450579307095, -0.1996227670868958, -0.2813231840865434, 0.278229966475643, 0.18193163123724804, 0.051597076077222616, 0.3119239491754461, -0.31885459358129126, 0.42101104794483407, -0.06735584888509974, 0.005696828742207522, 0.38745706108686423, 0.032296113796056264, -0.01364579865088027, 0.34817090543402646, -0.42476479457339894, 0.10849841494443652, -0.14837867505030458, 0.3288841925324746, 0.5289430224113958, 0.2511496281614432, -0.16492319084856774, -0.2480311421307725, -0.210804797655136, -1.101646780896804, 0.4277495952579533, -0.16150532294350567, 0.12994511120825775, -0.17647154304974674, 0.03913015990288418, 0.05652857119856049, -0.2849791075326665, 0.010546595703863668, -0.323415165484741, -0.2479511369000844, -0.16001750063449366, -0.014435644323543313, 0.3182195831477521, -0.07032655795000467, -0.17255888000463132, 0.044506052791639265, -0.4011641120490117, -0.3727139322614897, -0.22222147174319082, -0.22424837728545294, -0.0017196054667234805, -0.462114693736296, -0.013834230929940544, -0.03027259852587462, -0.05748996286726911, -0.3479629074196232, 0.6437640050682899, -0.4339287324912386, -0.22798080050755234, -0.586522363136186, -0.10036188968801044, -0.05007533358202905, -0.0749073993985511, -0.2556005080196409, 0.1179320712888464, 0.6430801317622349, 0.1262314646590213, 0.43342924667731764, 0.5965041036668873, -0.017066476907358116, -0.40262288049714107, -0.00854587131238784, 0.007810519690089651, -0.31058894851646596, -0.17028244247964153, 0.05246433654577953, 0.30910521044733397, 0.08818234407465268, 0.03231793611793266, -0.35853209856197893, -0.15813926128022154, -0.2219436792252241, 0.12579331051240378, -0.05530075605792898, -0.09388495211982033, 0.18969979100548287, 0.05544571941217402, 0.36696751312587467, -0.25049364278174413, 0.2590660526369733, 0.19816097817520856, -0.14386168823176956, -0.0557610391191817, -0.05299389142228218, -0.2587033547736827, 0.4552235065901663, 0.11794225160223903, -0.9118226172044159, -0.3932076861627428, -0.30340306683293045, -0.2860595584926415, -0.7122082929216366, -0.1422628640710045, -0.14148377969907316, -0.31024547123519824, -0.09959560475109454, -0.6419567944556704, 0.2915902342408186, 0.23019561377319475, -0.4437359891783155, 0.5285269560884004, -0.08672517639939988, 0.565701025330308, -0.07686296619989709, 0.1253911038882699, 0.044208003627016004, 0.059423187543540035, -0.497442226655385, -0.04258221810477842, 0.11152716326747207, 0.28381164136155257, 0.25157045557417107, 0.37872676840713443, -0.17746134709381828, 0.18698447562771076, 0.5008338986101979, -0.03538666728787073, 0.2652233778563302, 0.1261305203070138, 0.17169490036725862, 0.14073822414820175, -0.2906194204714967, -0.06213286260701912, -0.09696972624055218, -0.35169526997675776, -0.5083606905856453, -0.15422205264067446, -0.07135085357976666, -0.0671684284866049, -0.5063783947881254, 0.12821072589766871, 0.5790546063588826, 0.19752169540703124, 0.29026991681300646, 0.2738763762840322, 0.6127273528720688, 0.10494964954146227, 0.0674786490737026, -0.04519590126490364, -0.9968972327780292, -0.32994415967262136, -0.23200298363236868, -0.237127227838809, -0.37598390931894027, 0.20048688836792378, -0.23032501061151764, -0.04722229075674802, 0.28968719531208453, 0.033917968315560876, -0.3807576960278241, -0.07006261030943654, 0.009394572878443225, 0.17001972976058255, -0.28994241317868497, 0.12181170876499106, 0.29552691668784786, -0.0639260810830128, -0.3200763737686021, 0.04897637315663719, -0.1990602922864631, -0.1179103072948109, -0.18061770195689783, -0.5808505492524315, 0.2718580059346265, -0.5116140329437235, -0.15629243569134055, 0.3296451610598142, 0.42307879707772356, -0.06111452333252216, -0.5183118193443381, 0.5297038377658837, 0.12223955799675444, 0.2721950631469798, 0.029384099828926428, -0.18162510380285174, -0.23513372668524513, -0.39010949272134643, 0.25057299786272663, -0.15458626822780464, -0.26282629928603246, -0.2599586646466457, -0.5413723730486985, -0.33082211678717804, -0.08589574204608325, -0.22970833536393964, 0.43772489967155026, 0.1332337047498173, -0.058166853617079246, 0.3098615039142876, -0.4575018270474425, -0.19642159901920245, -0.32595473210962805, -0.18254961486448623, 0.4537837943432056, 0.34036882831984105, -0.3361351722910074, -0.3413541782158211, -0.056348528603153474, 0.0019742498312902536, -0.07215776204852646, -0.5056287401655811, 0.3797763004078966, -0.008260281666408525, -0.06401983892462465, -0.12978324814586434, 0.5301011432303673, 0.20684279943315997, -0.6471045002065925, -0.41386882423468163, 0.204350278746329, -0.08750443229417258, -0.008976490807024146, -0.1545982606478868, -0.3095473341689168, -0.17834860026430027, -0.25836442050361685, -0.2350280701200393, -0.42423615955137356, -0.19283617402741116, -0.06429520452456107, -0.0924275031406369, -0.2332210418537401, -0.1886600908517632, 0.0960480906215787, 0.17961014563460923, 0.46571403444216186, 0.13956237353612894, -0.17885773537991434], [-0.05129317240968434, -0.12375924042540447, -0.09339022535636089, -0.1949808498599316, -0.21710756871866765, -0.14489187416093371, -0.4312834699899747, -0.0363771400558347, -0.3570317824666709, 0.004350490510973798, 0.25067146901423, -0.44481569248800046, -0.3632580837311616, -0.44508513997344906, -0.5026730628562006, 0.2877502030439688, 0.2998026650651719, 0.4766803373636169, 0.052993678409832407, -0.4568696950033719, 0.11464337960637697, 0.25827858389114655, -0.6217366796382131, 0.3643818335930124, -0.19607086987661315, -0.42780317666823936, -0.19727387546465583, -0.22147427800220756, -0.5648378421816378, -0.033018393568672956, -0.4750543218290439, 0.4505358543014513, -0.09914557098298123, 0.15932558688829618, 0.6818107921544868, -0.10987362645086955, 0.473966347202396, 0.7065435627750246, -0.32648790208132816, -0.03445900149854496, -0.1236353733430279, 1.0433676363343856, -0.0457325467104669, 0.3009811817859874, -0.21832075761402303, 0.11987314441228125, 0.21875096080917683, 0.1492349643867326, -0.7212756635150813, 0.09403098170781479, -0.26670970521503995, 0.6060350243136388, 0.03398317216071183, 0.04767076321500151, -0.13080581110547038, -0.6755825466239898, 0.02591563021153184, 0.3983221689574273, 0.10498461551144082, -0.18264761689893402, -0.12878805124263684, -0.5088742078557663, 0.5145203152017883, -0.03714274932849383, -0.24453884881499124, 0.3993692147452557, 0.1290954652139451, 0.27203450611381774, 0.08948414988678846, -0.4990583873647487, -0.12760515639164724, 0.7610333527743579, 0.1954143403730651, 0.43336556202103926, 0.3743813986880836, -0.3064309200856653, -0.5949322774739096, -0.20792634150039999, 0.45307589429782485, -0.07721323386822271, 0.7972279676385137, 0.05113799838210527, 0.12426269785519524, -0.011624647905049109, 0.03575592900588702, -0.45679959837645095, -0.10828124197170537, -0.5251719945335681, 0.06168449075600874, 0.09842710411122005, -0.07848389202297434, -0.21280491723830222, -0.2080795617219666, -0.2530077926716448, -0.17328158097974336, 0.20569159308225027, 0.35061753247621924, 0.4073754232193543, -0.655556827519972, -0.24904709766775984, 0.4110960846416113, -0.0925604152637905, 0.12039747632584862, -0.13192491190820244, -0.008423704337870343, 0.06075180353736205, 0.6886662089254324, -0.22553107666859157, 0.48481559372220473, 0.27391309276634235, 0.6819549714844055, -0.07184495653373123, -0.4431464697586311, 0.3091178031034496, 0.24999584714545647, -0.08754978445460677, 0.9408262078757098, 0.2407852134781813, 0.2344970746732575, 0.31418307311584404, 0.13688727286809946, 0.15403971725478838, -0.10788582007667434, 0.10870797566162103, 0.38128723392994246, 0.4561543893999076, -0.005133336689154157, 0.36190618548630477, 0.2705917690643661, -0.11326994374639789, 0.11882541049986546, -0.42248267668276895, -0.121424573766283, -0.5658579041382505, 0.5213441326437656, -0.287810072210611, -0.39499827121324854, -0.18923135375844138, 0.10883974519920157, -0.3064932134162614, -0.5212824490160787, 0.23812416176178175, 0.05804354291892534, -0.04890616307818121, 0.08346843017633056, 0.11786781056616125, -0.05327762888813928, 0.10386646855257228, -0.6904380562971438, 0.31940880850465514, -0.05684815346819536, 0.1458380898365252, -0.20133479411799945, -0.25510204384946655, -0.6372081231010519, 0.016810300376210764, -0.02743298987883521, 0.08443347231073706, 0.24571857148682233, 0.0815744013484356, 0.08436058393547306, 0.2509843391716973, 0.25451505747861003, -0.21893279311855357, 0.19151414477097348, -0.14187618252394898, 0.2595397003236603, 0.029712437756319463, 0.26414985983031675, -0.6674497236000766, 0.3067698954468037, -0.12506817883615073, 0.26640891394214944, -0.08467233988915869, -0.19076262578492081, -0.37265551644536, -0.2664941746792491, -0.10513028541684889, 0.08975561345811149, 0.24727033217490035, -0.47345810808418504, 0.036271771835193194, 0.13483776259300376, -0.08373300058320998, -0.26580399542788524, -0.49380073342690395, -0.09371608377884148, -0.35515934947598204, -0.6347898894360683, -0.2707594477559563, -0.6068125376985689, -0.3304489958855307, 0.08228698075169603, 0.09876220839536534, 0.13498616323087473, 0.14383693834435765, -0.9066099180974273, -0.0465468299626723, 0.3879067112132657, 0.06651558391992611, 0.2016780530103177, 0.534089218596211, 0.35257918029800683, -0.35530454224533004, 0.026686606174506213, -0.11031109358353028, -0.5065720346748073, 0.28539656982795314, -0.3943810772776432, -0.05226137626564574, -0.15412154604981831, -0.7789347087313538, -0.6913310566959467, 0.12014053108853401, -0.3959303235227822, -0.6741091885266164, -0.24256949392195043, 0.40006442726004715, -0.0806901825327933, -0.15240056299163618, -0.3666823097517186, 0.22777098679120905, -0.3311868662588551, 0.13504583858490887, -0.07283498247486965, 0.23196977473899663, -0.16904511154712468, -0.4962507970629411, -0.13924050020676274, -0.2933131410584176, -0.07593252748299507, 0.016492429886888767, -0.11130554968605649, -0.5826131684631529, -0.45968617017768576, -0.2837078749871966, 0.0990716502161348, -0.6071731318160365, 0.3989020595825673, 0.12562467086482013, 0.0655584936151419, -0.13102422933338817, -0.05573776706293129, -0.8847389322904168, -0.0856712629837097, -0.46010084711300225, -0.285693058798308, -0.044369038204337734, -0.16131325875966776, 0.02852457380290265, -0.03511709099861257, 0.3813870332768127, -0.2945303769633344, 0.4450298829422382, -0.26595122044902636, -0.21378921796297673, 0.3228317351186595, 0.12529265881202037, 0.18626638740786738, -0.6052968498872506, -0.3101772088348029, -0.2711295568262411, -0.5370807827633373, -0.6374027838398341, -0.3561515851385683, 0.5604479517600912, 0.18459105652186494, 0.3322724032899756, 0.6489086824782083, -0.3857201808616171, -0.13626820524450337, 0.02402800338661359, 0.256485476200555, 0.10625439292937876, -0.4876746103073965, -0.36608333939949805, -0.2995211992937813, -0.10016736495323458, 0.21283065651218128, 0.10980493436467015, -0.12373645954757104, 0.3978370580452798, 0.15116087635729406, -0.26360501796973906, 0.4981952038536179, 0.3039524217623727, -0.7592909913935244, -0.28112614017893645, -0.4672496573248832, -0.4443284298986547, -0.5667351638410563, 0.017858547619743096, -0.5107038070546953, 0.21672719830774484, 0.46308381371100077, 0.2775538983266345, 0.038790281658923884, 0.582552497709217, -0.05204266318416843, 0.6012426575189616, 0.27260983332705796, 0.1837816349181886, 0.21926469429067463, -0.8133693279993209, -0.5138443897995835, -0.43025014632186653, -0.012945534359470887, 0.44480611431366585, 0.05510878537037098, 0.0893522178590262, -0.07770564034338942, 0.0805285645082645, 0.005903353369893747, -0.6830329874309875, -0.10595699267644514, -0.15856245712555855, -0.6353068127536297, -0.28483889481386326, -0.5720365719907508, -0.33219691858952904, -0.8106612124406799, 0.20460685034472334, 0.5779437062881859, 0.05317133034843983, 0.09485362516312465, -0.08069399268115952, 0.6239440065454841, -0.5524479347170818, 0.2547175126323695, -0.0262948104028807, -0.14275731389964255, 0.04523966645830077, -0.09469700648002469, 0.19219669581637178, -0.15268423366533276, -0.8149186842222259, -0.5822867924949359, -0.34161675396543134, 0.554410769921722, -0.12421732530819814, 0.07051832591172498, -0.20105088370889573, -0.3204834850473726, -0.5414660390114172, 0.029285379175005948, -0.5910076164687759, 0.09121047543288954, -0.01968214061731669, -0.041707558081733154, 0.06063365905233487, -0.4426584686960996, 0.13063320018051247, -0.5752243571999374, 0.13123970490779474, 0.5752218516278438, -0.28280964309551954, -0.04139974000022256, -0.4180164626310153, 0.2948487797710068, 0.13402843616369026, 0.4073875937871569, -0.17676453021115562, -0.12352600671761509, -0.6675163139853297, -0.6549290024508267, -0.2641485138182982, 0.27837890915060665, -0.03927280247711528, -0.25599060594025796, -0.14152099830819265, -0.06464401385081477, -0.09594491080864047, -0.19697587847893394, -0.12484641055846073, -0.05321289922551442, 0.22467181220058496, -0.3804111019380172, -0.03069314283214491, 0.015652680773115938, -0.34632989104076306, -0.555118820744924, -0.42350498034149653, 0.17189183357966586, -0.06775773543414307, -0.11378388628878848, -0.3553944191336599, -0.07190236307047251, 0.4191758874035141, -0.08755740337815089, 0.3434092541188397, 0.22778987542864923, -0.31390667845935943, 0.6284993149757232, -0.03863772828558492, 0.06725710005548789, 0.0496087623817046, -0.0041127091664448405, 0.33032602539674233, 0.10746678163224353, -0.39082974563838885, -0.3790703635245486, 0.202543044642184, -0.7887954738584594, 0.03523093525823911, 0.02210914268493161, 0.06650112970410353, -0.9377118058774965, 0.11871935269770359, 0.289440038325016, -0.0403858177034753, 0.2644397049105916, -0.39011988989671087, -0.2729985876712749, -0.07373861142899858, -0.3547149419541812, 0.0200847825415523, -0.07565932236241789, -0.12250606037902244, 0.44417057719214553, -0.06965770379448143, 0.2534241986032039, -0.17091310820442498, 0.15193221486780162, -0.28958481821145265, 0.06021544896297464, -0.4024472958991964, -0.18084557860983191, -0.48472533608977664, 0.2167098414833928, -0.32962411255518076, -0.3572281187993277, -0.8136909539699898, -0.5179053125665033, -0.11092167676534256, -0.1400696724096826, -0.3237489860147246, 0.48503022083826186, -0.5892132655212132, -0.8385532656288396, -0.15568787581935403, -0.3800835959791927, -0.20015801064801217, 0.11370421595651575, -0.3271022822693454, -0.028190269666168333, -0.1084825036420433, 0.7899409616555905, -0.41197297055748483, 0.1684172951240549, 0.8692742303909936, 0.09762205592787238, -0.02276549575963221, 0.013467532582171952, -0.6411335502339295, -0.049057025255698265, 0.21997194517738586, -0.5515569816226953, -0.5982189325430034, 0.06123380204556918, -0.2893716585186684, -0.3065609342599333, -0.11650054192605801, 0.10965068594191209, -0.33718491628228703, 0.034599130918160116, -0.14249588311737113, -0.10945751573888068, 0.32398543222651194, -0.013880472373313359, 0.5521618956535007, -0.17977488575199083, -0.11498461833882306, -0.2200182350399395, -0.4316077604944014, -0.2825486650826947, -0.2952859013528625, -0.333971070790544, 0.18727900256399685, 0.02442054421118837, -0.09765128693890988, 0.2852679974071516, 0.2945368156943143, 0.2262823362208852, 0.10105078017112841, -0.35998817322971416, -1.2318693070481912, -0.30683179314894016, -0.09934883243437002, 0.20341431709347169, -0.029443560193482144, -0.6355652233386665, 0.2477061843933044, -0.2912590745544472, 0.21184512284163062, -0.27313321271882224, -0.08034130903549744, 0.6386805767985757, -0.04914297813613861, -0.15167828453104637, -0.40204679225387485, -0.43977366217657465, 0.5102682180263923, 0.15668126868233437, -0.029633848506448207, 0.1737692827567128, 0.4031385239246568, 0.09405742050619706, -0.04423559072226481, -0.20971027940886536, 0.3718139184234156, -0.21220735444773006, -0.1928858073164942, 0.02391327160635419, 0.026343085326654646, -0.06175435137619693, -0.14663201087934719, 0.00543238079220829, -0.4575451008923268, 0.4834971885691935, -0.21394237555780662, -0.5799505616942229, -0.3842883311327212, -0.023315110475403935, 0.11709497364555117, -0.27762301795378924, 0.169479670071934, 0.16778635039923984, 0.9621457714558034, -0.2662056524671255, -0.5721870771669191, 0.32537235703757483, 0.14835690594122608, 0.18317742541366208, 0.28097259913938, 0.5127715821827831, -0.1550315801970656, 0.6948280064979463, 0.05297498504182788, -0.2592377917899067, -0.16678037923677264, 0.22826001414099972, -0.40440458838005133, -0.27940894650378467, 0.3017298694300074, -0.10527134452039842, -0.1708444858632435, 0.274661568923859, -0.15924438176988215, -0.07468304788569888, -0.5201274352915736, 0.3812951507085421, -0.10380343819004832, 0.19242936281167614, -0.14042094079200748, -0.7896629364277369, 0.3309649634775201, 0.6874842111179591, -0.07380032951552688, -0.07554106413618986, 0.2844884565764246, -0.35689983553286136, -0.38095145610313336, 0.2787293227183264, 0.7912580755360807, -0.05286297421542072, 0.3567587558650112, 0.10280888765511244, -0.26583018567830996, -0.20249918617828225, -0.14940743357560818, 0.09918206060182548, 0.03927198206683862, -0.12631602591371532, 0.005029979287515301, 0.024928935505795627, -0.04174316775734231, 0.28007200008043354, 0.17380120804484026, -0.38271269255278584, -0.1402010294461919, 0.10919629326741147, -0.4151092584293548, -0.10106045751910486, 0.343976401889504, 0.35839296676367366, -0.15592769004562557, 0.030143045388736224, -0.029037713897847907, 0.6524970898873403, -0.13212922549978423, -0.15950248160103722, 0.02053191196886826, 0.0044884672793946406, 0.3083843355344865, -0.4800929322305493, -0.23592948311063375, 0.2969536681513767, -0.2599699122733446, 0.02742365249896352, -0.39879863353088, -0.2301486875325054, 0.07758910214935232, 0.5261227110664628, -0.28263469964898136, 0.24707893303879228, 0.47738300225007346, -0.2890864216370806, 0.234098768070814, 0.19572136425685388, -0.19401157734319813, -0.3080133782588873, -0.5803294076513014, -0.1764287735249511, -0.2895128856053533, 0.043392354777141616, -0.0649247972224071, 0.06947414126649867, -0.15562470335711984, 0.1834288714848972, 0.07185093744335388, 0.23831091613109495, -0.0031495083927520436, 0.04074962065534801, -0.13963258156417752, 0.15393670316516364, 0.263794685177009, -0.020157874780460626, -0.07339566918779789, 0.13119982100226874, -0.3117619403626416, -0.5798135831008199, -0.04469163357291558, 0.19686779458829012, 0.5441970742240554, -0.2769175779457655, -0.15358462127770292, 0.10927360722338787, -0.0777070030685474, -0.219929185184779, 0.3982752874253878, 0.1266717383215396, -0.67387404233581, -0.44316082039153887, 0.12129501373697626, -0.06740386746192613, -0.2642872680356741, -0.2130572689841524, 0.29862753464160463, 0.08882951814809666, 0.3661463648952353, 0.04499154749272126, 0.08560750508582134, 0.08336753306189651, -0.3728174409165613, 0.22626134459241645, -0.19100200257113562, -0.43423281935316965, -0.47932726314316104, -0.037298349403763635, -0.5085189444543912, 0.07116603602024496, -0.11685225513727704, -0.20172791558011718, -0.4355326540195311, 0.1765326646029382, 0.05206851365695225, -0.14588281706816247, 0.012541228168164558, 0.20358665106563026, -0.6484163737718471, 0.3357040754832079, 0.15209712430127018, -0.8635604750089221, 0.3928550034791163, 0.6942107924788957, -0.37088720310905987, 0.3517882904074614, -0.6778395050280851, -0.057438380672767506, -0.23102630497078788, 0.07986747981226588, -0.43254173842101706, 0.19123670922858815, -0.3557012997956762, -0.20130012532064495, 0.5747721461512736, -0.18486454572040475, -0.20131269385732548, -0.4243174300341063, -0.25160762607961773, -0.13322763039659827, -0.04462686545214146, 0.0063162454002490855, -0.5369147395349907, -0.08993351167480768, 0.44533796636248435, 0.23702978412117537, 0.48723858485759447, 0.24276492099362096, -0.39410307642837245, -0.2686074063074607, -0.03586317129940044, 0.43314838717453974, 0.6679357778886836, 0.08964437600839595, -0.14818533330434114, -1.0285220213422208, -0.3390982131940436, -0.4951754824494478, 0.15758941884798366, 0.044419309183359935, -0.30971322342799135, -0.04634063124822486, -0.3129066595948032, 0.36405882676091694, -0.03744158208080335, -0.0206994955892716, -0.168162192500389, -0.7269284813869507, 0.23885554289990318, 0.3941449111121389, 0.9570261385800164, -0.44442862258233684, 0.028592522084242677, 0.10412114706910144, 0.3054815791573712, -0.348963562952424, 0.17976524372933497, 0.5104317930250476, -0.2945727175414809, 0.135040602474713, 0.022841168357119756, 0.5254344913914262, 0.4498075180345882, 0.3249042933030315, -0.13499125927855526, 0.5262774835427334, -0.32096712644076064, 0.1927340138870535, -0.17404423432167002, -0.5709629122157668, -0.7592491599794062, 0.7843685899454181, -0.6045254069189797, 0.40034637979865306, -0.04061687960840762, 0.30993006375390647, -0.2831648619276203, 0.31546470956581185, -0.2628180659159882, 0.13889572830213207, 0.45943270603311087, -0.033595342758260247, -0.35757488642003854, -0.3895036121794773, 0.4187990333757745, 0.2730128721251043, 0.1093227184998063, 0.38805522979560253, -0.43627851319161537, 0.38207511390616916, -0.16656173646775008, 0.5044815944353181, 0.19848726944894018, 0.31324032809917907, 0.5170386732413396, 0.402778721115363, -0.06199055947097547, 0.12648329146371667, -0.06797646348131409, -0.12646422756775466, -0.5720819093398333, -0.060961109398680144, -0.030582979527686186, 0.09801760072787791, 0.15628145932970144, -0.4212439107501142, -0.0046058577329444236, 0.43927809959829484, 0.3129085991721529, 0.3055226899369846, 0.5789448899833328, 0.17907890390165804, -0.4099411963706622], [-0.6309618642868855, -0.07719501182234226, 0.15518169540222812, -0.025530279843783768, 0.2717141891631794, -0.030787414001377987, -0.28268167953607026, -0.00039947057212571564, 0.130352962198539, 0.08222891383690725, -0.35980037036152995, -0.15219510088570398, 0.41026992857574374, -0.7292423640795206, -0.055649351385942646, -0.25573642177639366, -0.2641403820382182, -0.34131578589306055, -0.31735400296093136, 0.6558850501531497, 0.21823973638715574, 0.11154219264720809, 0.20094925274919734, -0.1672044925122845, -0.5126236100074227, -0.18396669743226957, 0.4739894044677641, 0.06186384191114565, -0.3995037995517661, -0.021692801274325733, 0.4669174280216994, -0.28125591511109516, 0.02840836100923439, 0.09774737985922453, 0.29910823274022685, -0.2886138249311022, -0.59814206820572, 0.013154410940726858, -0.0065534390069006574, 0.5586549160039896, 0.4015977441792253, -0.6357037360492945, 0.06586239590538873, 0.11255587601564969, 0.10334830239619416, 0.5599057977536944, -0.13138312618752765, -0.10650170411672655, 0.4580213727098567, 0.017956376338910857, -0.041995001077710134, 0.25091334607637283, 0.178558464163758, 0.28156514005771216, -0.11060697608922393, -0.3239956150692506, -0.029626496193058398, 0.3674667474970832, 0.12290894627206643, 0.7683454163918098, -0.5795826934413564, -0.1508710059886513, -0.2636742038749964, -0.3536909802922027, -0.6070024467183751, -0.3052099220972152, -0.25807922210176437, -0.21796215635208813, -0.13973407658333303, -0.41260528209321246, 0.2842228457739075, -0.570632761737742, 0.09469339864268371, 0.13897443818093727, 0.27192870920237877, -0.7723120611616839, -0.13743920135436913, -0.455101880362145, -0.19713899881609578, 0.5205351055715984, 0.37040397501293204, 0.034472210278188295, 0.06533914293618734, -0.2034972492481407, 0.7898224569602991, -0.37635084106814426, -0.330454042063077, -0.028368654589083307, -0.587129083884121, -0.10108819882320533, 0.01832908485575316, 0.0972693875220988, -0.10232447334415445, 0.0817461251129965, -0.3910403143786542, -0.18923360824906024, 0.578938589096462, -0.25268221419997283, -0.41790237902945027, 0.18157142095622314, -0.004016101792886858, -0.3343728874345934, -0.6551891765316625, 0.3697885066756378, -0.38149546371997867, -0.3193654839052012, 0.011753561000470645, -0.02020434547992136, -0.1886252490662951, 0.015171993159162912, -0.23829376284608098, -0.6429361002547359, 0.5219176908208346, -0.23428239274972887, 0.00016651658567832625, 0.19006855877959522, -0.30296358624041375, -0.08940910515957884, 0.15800578309751048, 0.24920547604719584, 0.6493014166916344, -0.07964818667286987, 0.5763794320470069, 0.19438209920642296, -0.11725532160401486, 0.017321420731790178, -0.3179960021925013, -0.9280028891091767, 0.20821570119418262, 0.17882195057484437, 0.013069664177988227, -0.5342667921954122, 0.777353809205883, -0.4007896360264809, -0.22791681289237448, 0.33282868944002203, -0.5418123009068294, 0.025594443327593894, 0.14068814547124625, 0.03515994402361312, 0.12135110669976332, 0.6455900903314953, -0.09327355688455945, -0.2667631856095608, 0.36241120777838126, 0.05923238355516051, -0.6180057055387869, -1.0278508459970965, 0.6648722040070625, -0.22263136449478077, -0.17839399618227555, -0.7217020539351013, 0.1674215341188184, 0.14767746372204257, -0.34696907912449365, -0.035447489023279925, -0.0719997222127129, 0.514791019347975, 0.08472091157074307, -0.23194473237556348, -0.07454117179826016, 0.4074986904584615, 0.46672416199903843, 0.36999785154890524, -0.421871449304792, -0.35354478543325524, 0.21660913739391097, -0.10657884276364896, -0.12399759890758637, -0.1679037099067899, 0.32002929068457425, -0.41543691215829737, -0.07494890392661432, -0.2567932303481646, -0.5925223611252963, 0.18470999351697667, -0.09397337370029707, 0.12444678163043586, -0.7608733061850984, 0.2598581274941249, 0.41243656950083846, -0.2222382552763113, 0.19691910428879997, -0.5555465609400562, -0.06224086486982254, 0.6478251703529981, -0.15934873730614815, 0.4996969885753243, 0.14590181470555283, 0.295709400266692, -0.6407763336761704, -0.7509080672527143, -0.34231972606927785, 0.03706850752587222, -0.08699924572371856, 0.21225453808378583, -0.09727964270649746, -0.08654191081072872, -0.7442725917337686, -0.3987170074293001, -0.5761014588020795, -0.7265084365787414, 0.09322861371898052, 0.025235443530958166, -0.2798301925717511, -0.5883576255919923, 0.161571702374224, 0.3117453512243905, -0.04367405328729573, -0.6288493559549612, 0.0639456757286886, -0.4461816605338746, -0.02912438125263706, -0.2712352688716556, -0.1915958849798078, -0.20470824415130232, -0.17972049274874272, 0.03494521057840975, -0.24581718555940288, 0.9080787455622176, 0.12326669277293778, -0.8965339048700363, -0.30792682922403614, -0.4201384714554367, 0.6267929910291946, 0.22839310999125625, 0.28574300734950525, 0.34205968541210846, -0.01363475226850101, 0.28561414065567015, 0.14801370103059466, 0.12345974596994852, 0.2494614593884335, -0.18668442992367731, 0.30069084207677016, 0.1147622506006815, 0.3342805650470229, 0.01146914169688541, -0.38034034636244396, -0.09888474831002764, 0.14755493850581972, 0.03684417581561997, 0.0492268983163736, -0.03682308711901714, -0.3726111686740482, 0.004501616821116343, 0.10979888251112574, -0.3676381396868136, 0.12896328703624532, 0.001103832068849404, 0.1683713316751138, -0.3455740549884801, 0.4644447746452897, -0.0849441339037142, 0.30643682385834176, -0.26308827690620856, 0.5189432291984238, 0.24891715855661295, -0.5253156446937636, 0.08098752423310003, 0.5094804844836285, 0.3383446561315567, -0.32574125656215336, 0.20785423044380025, 0.8161159599366974, -0.2591103342267533, -0.15035920766830047, -0.07002432291309761, -0.4618716923365994, -0.17487620195904582, -0.9083874586751187, -0.1583288789981106, 0.03159662089287928, 0.12052256634939915, -0.25837025195639024, -0.15919598507843027, -0.3194131995250477, 0.6452485196185627, -0.07989794936625998, 0.33311164635046486, 0.2091834694895816, 0.5940887121108414, -0.3808566516849412, -0.6304194202981964, -0.287356454667797, 0.22744890854643016, -0.11445968836766951, -0.03720843700586804, 0.2224634723008256, 0.019655007811662517, 0.7206960110831349, 0.7407993813656916, 0.5966606223906846, 0.1960939871523298, -0.004493939503273953, 0.1292027058593133, 0.24523383330762022, -0.274961328119736, -0.06238814293157301, 0.16802722237807816, -0.11771005125728252, -0.25625379787251223, -0.44854167119384086, 0.22893658070480666, -0.16751395204329142, 0.6979376361303251, -0.4638407616410483, -0.7033349085057502, 0.16937963016564545, -0.17398052083841214, -0.4057027340210985, 0.021712510235605376, -0.31181321874076284, 0.6790657050910787, 0.053532044292995136, 0.19045912379853414, 0.45735169735393527, -0.14977670233820148, -0.5046869409833492, -0.022248995391116324, 0.6004299994553719, -0.15646606869503468, -0.5965983339565973, 0.11494927822446484, 0.0952415599979011, -0.2900497371540166, 0.3463928758383977, -0.3482632775810516, -0.06595557272580747, 0.3893732255839836, 0.21294791506025335, 0.14719677939223652, 0.5746232906121053, -0.5427267468336784, 0.1563829647463817, 0.5972458569942417, -0.08208916282801981, 0.4676326945590999, -0.36967636370043166, 0.37183497737498045, -0.2413769902411031, 0.1542535937398334, 0.5773484903220135, -0.1784656889464469, -0.015607151699589723, 0.49102436291653473, 0.4598196968349219, 0.10673678820369392, -0.053071579028038066, 0.27146392830273974, 0.3481330758881299, -0.632575889924976, 0.1843307410071082, 0.06865400867514665, -0.12860855207578092, 0.2357686051904496, 0.1740867670253463, 0.2378020695831877, 0.00885220065211747, -0.0666464703841202, 0.5578257044211783, 0.07804464734957149, 0.18829603349764254, -0.6282472344411565, 0.22507279439422792, 0.3766903440280278, 0.2822124637413787, -0.12933407702595986, 0.17670577728912204, 0.19919516093744066, 0.3946762367785496, 0.07342993965977562, 0.4088882919690718, 0.04721744909255255, -0.034651330290614506, 0.05702705387019887, 0.3941055620365713, -0.13365491819047437, 0.03817616861370209, -0.0026778803999343358, -0.12293619572476835, -0.17760677471730973, 0.08915687662658174, -0.16282123779244598, -0.3503997740970075, -0.06303412293363259, -0.04484004921302905, -0.2740320142539398, 0.1704337545254115, -0.6556383740674265, -0.5005983603049287, 0.020282695415954483, -0.06578953804366577, -0.29596885325011074, -0.04657614711849796, 0.1509959596576553, -0.15053404301477105, 0.07809159691021687, -0.28765112705887874, 0.39976364480497456, -0.13039426891327915, -0.2825186699605097, -0.26125704778305114, 0.15297723327165774, -0.14281877497062215, 0.005756414277646069, -0.3130394854257138, -0.724966363537444, 0.2067304413299866, 0.09111444365427598, -0.22478170586543453, 0.4659846707497413, 0.11069410312865509, -0.2708546511973488, 0.06866582109268252, -0.18524010279113912, 0.20507169444701712, 0.12698123187225754, -0.21086542850853765, -0.34758972180134023, 0.11948949089986421, 0.12720246898496804, 0.06646334348139857, 0.36399049489915164, 0.2588927356167387, -0.3718352215637232, -0.024699857623905686, 0.35588833433549105, -0.11182285985574701, 0.09939919522536732, 0.41686143350539023, 0.5497855878467169, -0.6189097155213272, -0.1556018463919391, -0.7125451037991689, -0.19479945754477795, -0.41075710389305387, -0.22464928869297493, 0.21810699253522436, -0.037652853651570374, -0.18472970912194375, 0.3611488743487862, -0.23492472335968428, 0.29545864767078495, -0.02563378141878161, 0.10067893204698503, -0.09644928867915925, -0.3689598481424247, -0.05764491946125802, 0.035605216320331604, -0.476031360046804, 0.368588704477693, -0.19906412665834874, 0.17187993793687487, -0.40779169913327645, -0.0495797181600112, -0.18945317807425335, 0.1745716199949414, -0.36126710814659346, 0.1801024318210145, 0.14422215334883834, -0.6411665902403401, 0.6658455041690639, 0.020359923614128292, 0.08593530734130184, -0.036908121354493395, -0.656805050073912, -0.13039249369617098, -0.43038556404497197, -0.17944784014757825, -0.435809606662731, 0.052567431895605816, -0.2877399951711205, 0.644833583274496, -0.6799211296621865, 0.32161516429589, -0.01632392242526848, -0.002842645587490136, -0.7602152741288579, 0.23321614181563746, 0.034728535251096586, -0.12240865678313054, -0.08115930765965663, 0.5186529855723189, -0.1605666627893471, -0.43411284137427325, 0.13820979420592658, -0.7130327981501153, 0.2507133137160195, -0.48885902227393546, 0.18026807003019568, -0.18628067714934793, -0.2893455748272438, 0.3791174759447017, 0.6392134810007536, 0.2835580493772332, 0.027171115356323675, -0.2290313380543483, 0.06676077551512076, 0.08022745250417104, 0.5791018727411877, 0.047508926854988406, 0.1552806431312677, 0.2415322376641826, -0.2505537060116234, -0.07878518573436223, 0.8723631141088956, -0.4869060578142469, -0.036682352161334246, -0.13028682201598266, 0.09497910002280355, 0.13917217029098056, -0.12496802062557241, -0.17666300309736363, 0.27212118893802095, -0.3035877840645444, -0.008448647521591671, 0.0223451212888147, -0.4817446273055911, 0.3370037598745517, -0.2731856516553798, -0.051970974516731286, -0.02818715917393123, 0.21983627194024297, 0.0980585292951863, -0.13403376662214955, 0.631408292688395, -0.6868631494434762, 0.18084701988808885, 0.41968588870749557, -0.38591808594652777, 0.2058366042983648, 0.5057178774100094, -0.23094405265936302, -0.23793550294633498, -0.6380381455084013, 0.4900775062314332, 0.4319462423651419, -0.3479908571492115, -0.05053022004739923, 0.2637693257166522, 0.40848565346138993, 0.31054265390427893, -0.1956050372021429, 0.29919118020199154, -0.22546909625630066, 0.12834665184502367, -0.43582793514973206, -0.216411281832498, 0.19999006020499607, -0.30962454742228096, -0.3964624047083951, -0.2695186839352364, 0.2644631052478023, -0.5002214591060006, 0.20001805513751544, 0.03968507597201545, -0.20884487233481108, 0.05485719944418182, 0.10328061865321281, 0.2720034064676164, 0.34270023770520613, 0.27115805970270507, 0.13147904909992833, -0.2935015516192398, 0.2735404352309872, -0.03869425127988697, -0.5415519044173451, -0.460244997619684, -0.06381354624919695, -0.3328825053338233, -0.15085240046339626, -0.1293686512261666, 0.18776558099186572, -0.2753218779181481, 0.15812865588552222, 0.2339119227575708, 0.011094151703608808, 0.32380871163287245, -0.31831806926627587, -0.4628949920687126, 0.29678567220994373, 0.12838055149541186, -0.15481307132310188, 0.297331639450588, -0.13881534875331353, 0.2913385025996232, -0.47353647661188614, 0.6656618982337115, -0.05393425905365154, 0.3889501952019179, -0.30249156802815136, 0.3024751807642475, -0.10504059825195669, -0.2319925852497047, 0.2322914136285169, -0.09207132891845428, 0.37246073608398933, -0.2383387131583062, -0.04064215229265375, -0.16441571455373286, -0.6308906974981598, -0.4332994904786866, -0.03580508861058499, -0.15258512631136886, -0.07961041435526015, 0.011375580899228724, 0.057821207861520105, 0.32972886615179225, 0.19168718982503494, 0.12330029372210069, 0.026850289115994064, -0.19311843598028683, -0.7045562441856067, 0.29194591895534333, -0.25764973615546294, -0.4321491987165851, -0.3413314637519722, -0.5637940288072781, 0.21689406572398887, -0.5293239928960725, 0.13561416044929325, 0.045522559739907625, -0.4150819991938933, 0.4284795698470764, 0.3784117304662161, -0.13000428892683596, -0.17160343069052295, 0.005631316413218283, 0.09118534657706118, 0.30757959162787274, -0.1469533920882534, 0.1568700342351676, -0.3998986565906316, -0.29883908237080725, -0.4402063697304399, 0.6580836159178182, 0.14073210595368105, 0.23599372782381947, -0.1935054616995436, -0.297122599689257, 0.21328634315048994, 0.5895942579606244, -0.229163981913678, -0.21652920115623658, -0.41807438472919173, 0.8712010088115842, -0.41842043421917896, 0.25549371003961024, -0.35707135181806865, 0.6223988537876993, 0.053085645273696073, 0.3383901881686059, 0.21794324433606505, -0.14294109913135702, 0.4816066996338106, -0.05198999102155071, 0.31984006674738485, -0.1336142488100169, 0.36159992063739427, 0.3870738609343734, 0.1833245813159117, -0.09153059076504413, 0.26676439860298573, -0.0989141008013536, 0.14352146409307362, -0.062371902455220514, 0.5290074243424235, -0.11361175026553615, -0.09547537723538432, -0.6533128650078471, -0.04346921367113405, 0.1234035615217653, 0.13970044863465322, 0.09877394772513727, 0.08386442790828859, 0.026307948222562924, 0.28406345502417774, -0.2098829999634575, 0.16227815340347454, 0.12509418719042897, -0.3771506595303874, -0.18790561076343085, 0.03756886895268257, 0.13749157382984548, 0.20534593410879154, -0.5488837522574628, 0.3099460074774742, 0.18191128671815712, 7.397051054733797e-05, -0.49758909304835225, -0.35696741819470484, -0.20280237371131082, -0.46317760742813285, -0.1930760940270631, 0.2738436670358463, -0.19195869518772557, -0.6768902329105876, 0.137315105813737, 0.7701622660447912, -0.09514211324973156, -0.09769789206077743, 0.060479354950200896, 0.15780875045555268, 0.09067063615388435, 0.2422817549412641, 0.30810842344276423, 0.11581943826245615, -0.16471132814682093, 0.5047060401292361, 0.06484614479926278, 0.33039778632950195, -0.7590697225825186, 0.2405937228096118, 0.5248799040566648, -0.14979482600814728, -0.040475056258571895, 0.17787028244180084, 0.24350344148773284, 0.19784113566458594, -0.5984591284704118, 0.5323869997665431, 0.1990420677139455, 0.005576432253944565, -0.3449219295490464, 0.5773179689439828, -0.4590952481497299, 0.07086172830072272, -0.3346193606447252, -0.19573220159461163, 0.04163886267430522, 0.4711540549172624, 0.1525260519971818, 0.80615106094009, 0.4576432864587618, 0.7298340545614943, -0.038770560338477034, -0.3687172258410418, 0.0923113866160954, 0.4979126531432803, -0.8269673164784566, 0.4724250028782215, -0.2381706536709887, -0.5106071199429657, -0.020738868502547927, 0.6242949142891612, -0.009369454076268928, 0.19628458348391342, 0.05297189385474748, 0.3537357779460966, -0.6662072116041774, 0.05488907316625457, -0.33325006800802376, 0.2150228015135258, -0.25344731762663186, 0.10267333292234926, 0.13088516448505386, -0.48001688038010865, 0.09064423265431035, 0.16784475911270547, -0.4997870299761111, -0.08940274194696084, 0.25074281921666824, 0.019478153673741217, 0.04045452255680438, 0.1573022857506061, -0.7094241063112205, -0.1886243392653247, 0.056928603471335965, -0.1813081937798355, -0.1626940857630216, 0.24073957927383421, 0.3026506992427329, -0.4110858153723325, 1.1186038679829275, 0.05573062859441806, 0.8234237675854582, 0.02387052781039363, 0.1045523878077404, -0.9397467709140878, 0.303192151947213, -0.328121421683899, 0.4753088992577439, -0.22984936246563015], [0.526958207756682, 0.07340158701861817, -0.6382986010759695, 0.32865243257239923, -0.3567081229142899, -0.5818281155424254, -0.0691334888730973, 0.17198351673042414, 0.666492690214977, -0.16222500412125462, 0.1261499320081871, 0.17387555234952232, -0.3123413019754985, -0.09383882018349728, -0.5492996678915254, 0.31596437214149065, -0.025393965969574557, -0.1716550425593209, 0.32560374020048155, 0.10992270337505361, -0.3762163763581733, 0.6119399421238454, -0.5038532929155995, 0.2858539754976127, 0.36071093017060074, -0.1045230105617934, 