[[[0.06972798185013854, 0.07888168400512843, -0.0660666767734127, -0.20444099037628888, 0.5431182737911722, 0.40097827175936934, -0.06997948413108884, -0.35475349357397207, 0.09880838478138375, -0.6746213605034661, 0.1532566235772251, 0.2503856840060077, -0.37765921185471385, -0.5444765102457336, 0.1389332326623561, 0.351291654963777, 0.2782461057292897, -0.13564351240050546, 0.40951987829777187, -0.33229429312903136, 0.8759875201691731, -0.1665648081341703, -0.41952159612883977, 0.3659497761759737, 0.031949302246959244, 0.23310266549808087, -0.5361778294273143, -0.20646949828441283, 0.0882139783188186, -0.4314247495070266, -0.15508506950885215, -0.3190196028773356, -0.07747743489607903, 0.5292994232046022, 0.65876239215593, 0.6919756544881439, -0.32416452971723886, 0.025536182050874143, -0.343049776219244, -0.0032847271199537634, 0.0677910774934019, -0.11231001733334271, 0.11510097539060643, -0.06845393632872857, -0.14222035175495948, 0.2515956797354514, -0.05299850313591172, -0.11662714814377577, 0.42395680415848885, -0.5159239146414784, 0.28678589895871087, -0.45722170043460164, -0.19471639963295972, -0.08846669996343252, 0.01673357371925512, -0.041702782382635424, -0.25458613175910083, 0.26222887423195734, -0.026103540008401576, 0.48420062952165727, -0.05757574253912572, 0.41238311866326216, -0.2402035935409787, 0.31822325712904187, 0.2678860139954395, -0.009608168709736704, 0.43856884022344544, -0.39362506299083855, 0.17828161589683442, -0.22167038423281754, -0.27283125719878887, 0.13031611119364206, 0.029754144446013823, -0.03789766563882871, -0.260432030889852, -0.04532209851466835, -0.4133351197402983, 0.03237129599558649, 0.16502774226261854, 0.10896719001333369, 0.6300168674778244, 0.48631613605503365, 0.3381232334649783, -0.20591386485437557, -0.050827945167122676, 0.23812572935491658, 0.15821861912237636, 0.14563057434755305, 0.31952063895438404, -0.21505270362277898, -0.07084793685014111, 0.773110822495006, -0.03766848404680451, -0.06447233991443123, 0.10078408890283473, -0.14733104068774427, -0.16147331478733204, -0.08522710031993973, -0.05376126187908267, 0.6174944018523164, -0.2607019139176597, -0.3573339038421339, -0.37575937263156345, -0.15119120627149718, -0.06233876981344542, 0.30269676444019655, 0.044535246574439975, 0.07253384064093076, -0.28366998855547565, 0.44345116505630583, 0.8625477972229212, -0.443314363010815, 0.4676115928627129, 0.14406462104449042, 0.3917901816709586, 0.09139472280050216, -0.004240563172609509, -0.2427251159938604, -0.23279831007742538, -0.006068018764043926, 0.36610197679925394, 0.006881175155755832, -0.0029819320515666325, -0.7713605023115528, -0.9009746939997942, 0.20743316603922796, -0.02101194841861317, -0.23861980430221266, -0.11571410228076176, 0.18054192851649303, -0.2363834931965197, 0.5965155522581138, -0.10234793027487601, 0.5852309252724491, 0.0804759272355454, -0.5311391002618883, -0.24252636869712227, -0.5007734688896722, -0.5918795446286148, -0.14100656574456247, 0.14532287991994577, 0.14623487470375182, -0.007133923729169591, -0.3383604372249419, 0.1076972850998506, -0.35852533386450647, -0.0676459412915034, -0.2595835806349729, -0.04230582363656391, 0.22391611002975256, -0.3768062825709372, 0.418285792661632, -0.32019262410891997, -0.6815683578696585, -0.45302272514382996, 0.02604494455749632, 0.7609675260663413, -0.12015057779978605, -0.5503147623059412, -0.15695514865486931, 0.4518971166697229, -0.07481159166746568, -0.16481541272811345, -0.2353095859174705, -0.593047478564383, -0.04347110224515937, 0.3179405440616064, 0.3855887833806464, -0.1867105764691098, 0.3464823712992762, -0.30166033401746, -0.4302302891006151, -0.6176977555136839, 0.33338311235444706, 0.15737651795794586, 0.26916398138357167, -0.16916960673398093, 0.6934394927593913, 0.08561989170294801, -0.3112781734655714, -0.1396619565914437, -1.4770093752799363, -0.09326104375899472, 0.0031602303357266665, -0.25794933983479423, -0.009057907770649895, 0.07193603080128483, 0.4362803449244375, -0.27953527256676736, -0.0486450998254976, -0.05143521309811622, 0.3774677952888669, 0.20974967210854453, 0.241702228087029, -0.09616170604664649, -0.13750941913309025, -0.695120094284267, 0.01723227256773829, -0.1961215024775367, 0.35755506201172677, 0.21515954319650224, -0.11817444313321701, 0.4342812158244705, -0.6285702364905148, -0.019763813142239905, 0.02631759871726457, -0.05104248066017984, -0.25815911824456345, -0.9000859797578099, 0.0842569204031837, -0.1724527027195106, -0.8666116010399658, -0.8402194474806125, -0.36222812078430355, 0.12475111662248749, -0.06254257979178865, -0.17734651900906143, 0.25626713036900856, 0.0921783724206163, 0.3197807315178715, -0.09644727415327273, 0.3394286941589155, 0.052174532987633734, 0.06019162849740024, -0.3963424387389836, -0.6364386149755817, -0.20995641064207202, 0.31133285041306946, -0.3761446832409679, -0.5079758514386502, 0.15639606458371055, 0.35554192384132505, -0.7893581203354008, 0.26851794264769124, 0.4086766724305013, -0.83455149798616, -0.3072475758345192, -0.8137176812599104, 0.1285120096956149, -0.1509928184017594, 0.01197219739597405, -0.05059549184268507, 0.5826849110061944, 0.07368662762907446, 0.11292866914735819, 0.3706505240797118, 0.7750686061221868, 0.5636374672073781, 0.5667426508710423, 0.6064403080988366, 0.7105824988664424, -0.47472467355185377, 0.2532824872404489, -0.20134097880065258, -0.2924022065365153, 0.23900062917931042, -0.09430351988897002, -0.06568532826527694, -0.5727018188590892, 0.597519120124902, -0.05535215053908899, -0.27447192462189657, -0.9778480347457219, 0.5411477889657338, -0.593050235520814, 0.14959020143628526, 0.26373208759437167, 0.7570794108493654, 0.6728008513303628, 0.2635217169035448, 0.29729780885511464, 0.0891147415221974, -0.06790458365292205, 0.6083112064496188, -0.03881295505670617, -0.005226747694818354, 0.6010644137729246, 0.13735488965138126, 0.17325576296194287, -0.11012346316068701, -0.1572818522600364, 0.2794108787359122, -0.7462500818420614, 0.03610650740364561, 0.16487704455105895, 0.021515988937934372, -0.045582318291771784, 0.15266655250208694, 0.005226958146841444, 0.1255216111760872, -0.9887510857110048, -0.24208504253539537, -0.134368672665156, 0.2064047977202954, 0.3020389123317323, 0.5178393713003551, 0.5730812156096915, 0.40630974079828713, 0.0431566232520311, -0.08659834965292526, -0.4892336506326424, 0.296514662497795, 0.09300771523728184, 0.3945125220209142, -0.16121702809331528, 0.20327787830854996, -0.10144631674749449, 0.30020467967123166, 0.11226283131221458, -0.1541144720071385, 0.07698638756870921, -0.6944098303377534, 0.3517434424511544, -0.2798387258321696, 0.757187681214346, -0.30621695780853947, 0.05391489705769498, 0.08185699661737626, -0.2591587907964889, -0.18954475342301777, 0.2043249344739237, 0.23862087394709566, -0.13497637604723497, 0.33964969707717607, -0.7384165735266783, -0.2678932536510779, -0.7008471605468055, -0.48222334803900835, -0.9904440684622877, -0.5231530307840506, 0.5326469333058043, 0.09807422638232897, 0.48894005494180637, 0.31414890945605745, -0.369485018474286, -0.599659375718702, -0.13052783162774992, 0.32658581106732604, 0.11016597917172685, 0.32473575249425274, -0.20969765638492646, 0.3381818707345509, 0.6972427438048533, -0.35709102229643563, 0.1925387141521342, -0.2594863217976696, 0.22216607231816515, -0.5152901590343796, -0.504691831055944, -0.28534209085165013, 0.2757681576881306, 0.7100578851164575, -0.27750736025098344, 0.09503466971796527, 0.054342395243278496, -0.9699581987434808, -0.3346174378513218, -0.288822721288097, -0.7522705526567537, 0.13812198434794798, 0.21441507516478486, 0.4526823931253354, 0.4226515738330512, -0.13915888118889308, 0.06162066305297262, -0.2583389787107415, -0.41103360944280987, -0.29455862628504087, -0.1707532268135563, -0.654817400233256, -0.5081362712612116, -0.11807609462220901, 0.14534913004063055, 0.10761251449178617, 0.06658022334318033, -0.04053239423405671, -0.2041389292402578, -0.1522787501040513, 0.23901033211261152, -0.5498506903242584, -0.06159867012160278, -0.90349281169665, 0.010725447987138032, -0.5494673500640033, -0.21624444311713387, -0.46845017027466496, 0.0984820480693199, -0.36421220449276925, -0.8791517939931943, 0.3309167341394452, 0.39802799304489517, -0.762265806920937, -0.006953457101415475, 0.36499661312055337, 0.45543821949288016, 0.26581959925382004, 0.09745831546072199, 0.039861221829304516, -0.08328049314900256, -0.78449093741017, -0.04182312152545779, 0.32065068152776766, 0.4485577819654976, 0.6552510233146627, 0.5346318264960714, 0.22092227987854085, 0.014447351463819754, -0.18061439569818868, -0.2009594680870551, -0.9785756240237853, -0.6926537930361353, -0.8566730541168562, -0.4359471661074247, 0.10250591140261278, 0.2947397460109937, 0.01002526229067973, -0.19138546899621553, -0.40546713373591753, 0.1355412870264393, 0.40090488096390464, 0.2726857373110866, -0.12749116173881067, -0.3310065785424006, 0.4054946364403499, -0.18621303197271064, -0.30292768466369185, 0.04206456565926728, -0.5478895451331997, -0.5649733207141773, 0.1437373833644203, 0.5216630020151902, -0.34500589538524107, -0.14623708019817278, -0.14237143871482877, -0.01961834977695767, 0.20333697004687293, -0.2911702774613999, -0.44155396106864847, -0.27443058596319797, 0.21249761480829657, -0.8428063753553311, -0.19081161071508773, 0.2150200381319431, -0.5714014197519928, -0.3777759658067263, -0.2307499273895954, 0.5697749542309428, -0.9207834949641462, 0.5383343300195869, 0.17938637624225254, 0.17498584746745974, 0.04349397161811517, -0.33426844251315996, 0.15318981007016294, -0.48567810850620785, -0.19192557170538568, 0.08943588769178792, 0.3386170231183772, -0.2100269535643404, 0.04313694583090226, 0.09367103931639054, -0.2934894045669914, 0.006854420055785374, -0.4824577544892615, 0.12626755352476643, 0.46864272962241443, -0.5370061993991371, -0.7451133692822384, 0.0938440198315569, -0.21455886536659174, -0.29599177781963126, -0.24603839759314228, -0.5232866703180773, -0.506509411480918, 0.282641952469257, 0.07996918929342134, 0.31173991227036935, -0.013933803182274001, -0.2891501478033199, -0.6190458864846996, -0.6249244580327457, -0.1339822017397377, 0.25175304926310904, -0.3898420764954018, -0.358760435949426, -0.05924158841825964, -0.26405525040718586, 0.26234873247459073, 0.02817999244240298, 0.16270895782295744, 0.8579744067203166, 0.14356311369274716, -0.023658432662913675, -0.17779608760583662, -0.5775441896903346, 0.11772401611790062, -0.5160186344627719, -0.26650506484842496, 0.19911330015820547, 0.1863044509937242, 0.08939979940874526, -0.6751547676772071, -0.2548940053811122, -0.02536097493172839, 0.6218081628140445, -0.28860024752946756, -0.26223599569441547, 0.3086144758021422, 0.02715724867910824, 0.5153050611797214, 0.2986680393003915, 0.536785490894222, 0.6365926591672242, -0.2904854154657569, 0.7936380157545431, 0.5145303677876444, 0.09285387193001901, 0.5293466843051529, 0.36978412031352426, -0.37056472776005983, -0.41543165458362186, -0.4240505653138239, -0.7498375811203956, -0.38222644000778006, 0.07567720247697586, -0.1090472290240321, 0.27625640379202776, 0.05051790375731211, 0.11842202715752694, 0.04332087120733564, 0.09048889291284828, -0.7118517533368933, 0.15614000227342717, -0.1815349544983827, -0.21749954207886438, -0.05765704150498547, 0.040553645345300024, 0.2356453439954325, -0.5772327001705133, -0.1171732227921347, -0.22079729995892516, 0.32763325682240213, 0.2779800052721656, 0.49230200264000873, 0.26039730984139187, 0.16535298141665059, 0.6401626065761374, 0.6847988578633446, 0.29545392328929637, 0.0013434259043318677, -0.3010719268349269, -0.43798237512375227, -0.7144701949333687, 0.08360807794562636, -0.6759624508855203, 0.3768920003271686, 0.0701026386068232, 0.19861434453875232, 0.47077782331079304, 0.2807577976720354, 0.24173234867988166, 0.6193765868285026, -0.10447499927998083, 0.5312106931403787, 0.09717652879759953, 0.15091714607920104, 0.24503329274370872, 0.19044194968043973, 0.6430790896251467, 0.39490067982832416, 0.3782109066345943, 0.14992395606959583, 0.24871804539885844, -0.300655259858771, -0.019372685021689397, -0.05404677077516896, -0.4317809918982632, -0.0749879752430355, -0.29831217979093594, -0.08559266498406845, -0.2117152267373822, -0.11589107201872505, 0.2000988633667846, 0.020016493894988444, 0.5499120390013326, 0.2232203899571382, 0.2948516934056436, 0.2021990428536345, -0.03143834001180496, 0.22484328464696876, 0.16800074880426127, 0.30231885287361115, -0.17425928019017445, -0.3603654771723885, -0.4202449663396495, 0.584274514200947, 0.5400681520730695, 0.5735560005064031, 0.17191068150862698, 0.7414321906374876, 0.5343525871670964, 0.342476172827447, -0.01882342792655088, 0.12085648925002675, 0.11242278179090907, 0.09719079252425308, 0.7892075981090849, 0.04224028246852185, -0.0272684548132582, -0.021176519103183078, -0.01381888366108125, 0.45708149028489653, 0.19164949202022746, 0.26044612865619826, 0.23572880967432663, -0.5061419151196809, -0.6173828749057115, -0.14373914612714328, -0.716100098605554, 0.279751905650068, -0.6708095981770112, -0.8413238326831405, 0.5372468180516832, -0.2956726011383289, -0.07661841490049984, -0.2052726411069437, -0.048532002210032635, 0.10795777879495726, 0.07745928423315715, 1.0498445165976837, -0.031093551459628794, 0.03541162486688099, 0.2494234142211057, -0.9730773380424075, 0.483057539736519, -0.04982136321361941, -0.31737873806674666, 0.26625147666312826, 0.03098933068395994, 0.3321791536024911, 0.1757801830424708, 0.19418862872547246, -0.28168625044207546, 0.49229001330821237, -0.014181351887919911, 0.13670107223667421, -0.015447481345778407, 0.35469876622211044, 0.39897466310350416, 0.045296530986977813, 0.06823770621379105, -0.12560914397988998, 0.30751655074744505, 0.20143522014258708, 0.14303720704900685, 0.151557863972737, -0.12433528488278588, -0.021402397328412287, -0.004277683329398992, 0.33891792881872335, -0.3282452851286313, 0.10799889444524204, 0.20081934220193925, -0.12039230235075055, -0.38208815773787436, -0.025623666090915435, 0.4025549943722506, -0.038529766653677876, 0.015165542233721916, 0.252968767668304, 0.18910447456922533, -0.3067755066264686, 0.15867818498873007, -0.5925524712545597, 0.802296182988369, -0.10981992317157191, -0.06777058973990127, -0.14561394848581957, -0.6783801292950348, -0.9916613949462024, -0.32255749537386325, -0.3297824442208069, 0.7618047402779946, 0.07570390289934419, -0.28843769604995867, 0.42968157307752136, -0.3357140032028454, 0.3636586042294893, -0.3919350286565268, 0.23749354783181906, -0.22876791930848453, 0.36212824506662017, -0.6879881189963271, -0.13802027875724757, 0.29850985755069837, 0.35673024629743494, -0.025005636695807736, 0.17153378161369684, 0.3178792212572233, 0.3405732981818358, 0.04366100467304128, 0.211168854713491, 0.2536677065130975, -0.31274372619093155, -0.18567945127566907, 0.3455132000787938, -0.6748117908409814, -0.2187056089482346, 0.04902646104709381, -0.3726546794081625, -0.939914982979168, 0.1604323532085894, 0.1560297340254051, -0.42258419985438617, -0.2707087611929927, 0.1688982262849552, -0.08503518259641378, -0.2388095006954363, 0.07158309538008086, -0.2022942314876314, 0.08913700040758513, 0.8600448757743775, 0.004598750477893708, -0.39615327710881887, -0.11684124881114702, -0.2467731751298844, -0.09204308391128958, 0.26667442462932656, 0.17239826242879697, -0.12052853026832959, 0.20622172071622413, -0.5022216389819372, 0.13928954130747706, -0.2328161968093959, 0.5199428755121182, 0.4884691091499023, 0.0025834019350185174, -0.3176927535163168, -0.6184129660902075, -0.4466823344460777, -0.08937569704927673, -0.06512784073473803, -0.11258229611444912, -0.350849703188343, 0.1809609035244301, -1.1211725549501292, -0.06546886430538693, -0.005415745464364077, -0.2672505995062353, -0.09766390560273751, -0.010332683749712596, 0.07849514620366929, -0.10580770498861088, 0.3632399186889347, -0.31897936631102697, 0.17419168748233438, -0.17402940327793875, -0.07123577245090955, -0.13415045401266085, 0.16437141093657098, 0.026595177054129334, 0.04617985550269172, 0.4223151514024489, 0.08927746080993954, -0.257602155345117, 0.1368418560176948, 0.20449834122687216, 0.29383976150267016, 0.2066293366670752, -0.06067942350173932, 0.10718776914425193, -0.2760576240461707, -0.33871838200311594, -0.469102714756921, 0.12805758818231075, 0.1034517012615547, 0.5220375010564738, 0.08402534155659845, 0.17645710862218747, 0.02782654360974103, -0.13081366737942993, -0.12188766206697392, 0.33856614276902564, 0.7702373751753231], [-0.5763783854669909, -0.29475714669872066, 0.01340840307053333, -0.107670818784289, 0.5242190211311454, -0.08314040060044024, 0.4225602845472389, -0.01868513133694686, -0.371396580696979, -0.31475200982231955, -0.5035192881083997, -0.7053041662653552, -0.03670507495509988, -0.11992764164018191, 0.20653700660723578, 0.5418295286577954, 0.19930841970362212, -0.33421071052272383, 0.4626159433463038, 0.0877433199942648, 0.2725320717333893, -0.2707524017033611, 0.6137635676451751, -0.22731668078427028, -0.6279782629288778, -0.5207165097888635, 0.7975497456753123, 0.10049377443741554, -0.4631097476462567, -0.09715752501390142, 0.4364939109198518, 0.5613647195120326, 0.08041927515176972, -0.15484394107606542, -0.2728021261880987, -0.36289341409575815, -0.43797180969098737, -0.43321036273265906, -0.359619052629676, -0.005900826657803506, 0.5049928513812255, -0.5519138490069166, -0.306464835479603, 0.649682539588876, -0.001009316289751595, 0.08071460283097684, 0.03128584506099062, 0.47608900885713706, -0.45495913906919755, 0.2809599394493165, 0.14632141395248421, -0.15162971588649699, 0.3242330413267987, 0.1749516171889692, 0.5355621408585133, -0.2843697455632893, 0.1573918550463316, -0.18386695138162257, 0.06350476052474166, 0.056982692761001236, -0.40126484744730545, -0.07953782735271346, -0.24226181004457906, 0.3233753006436214, -0.18780576134446184, -0.4487812807342418, -0.3079580428569282, -0.014663189006645901, -0.22656888141873635, -0.19300387530484353, -0.11501104591433428, 0.018672505811182884, 0.22192204187661335, 0.359832235275954, -0.030805616023829224, -0.05066964510800219, -0.4613896938417736, 0.22160181954307578, 0.3353112067142882, 0.11646644751204471, -0.13107980610251704, 0.6122865342197922, -0.5853809995860649, 0.32844999392513224, 0.1855623265507531, 0.01693987358459647, 0.5541568310606182, -0.007311969664058525, 0.17713145954618623, -0.047026912149638646, 0.1685616327911044, 0.009198349724681127, 0.2625867221206284, -0.23593629295935017, -0.8475473702603378, -0.4228002070668195, 0.10619160476949004, -0.5976514834989815, -0.609633371264955, -0.7322720338762763, 0.2030709234363889, 0.23838919670779857, 0.14037101004556454, 0.3182659275395858, -0.28798891091457285, -0.20068289218034904, -0.7549120208065525, 0.28068313059193195, 0.20304118141726363, 0.010468072854345934, -0.4070908129346689, -0.5000206981359001, 0.005497624033102015, -0.4042000700644273, -0.31516878988355257, 0.42376538979897344, -0.3522059171107959, 0.21624746259174685, 0.5868563898317715, 0.864853504349001, 0.0254387257648015, 0.1076603209661032, -0.4792300680828116, -0.5786941792475572, 0.051028350577828466, -0.0731904338045786, 0.04904420734973675, -0.3681154331351597, -0.007682633322495657, -0.41129127232466584, -0.3787885389021639, -0.050053071382441416, 0.4160843622492871, 0.03892398202829181, 0.0774032334492391, -0.26909301725285933, -0.2320653972615732, -0.06489472958991929, -0.21471777666410832, 0.27833889403262735, -0.18813259402529037, -0.017223251227515713, 0.28048943546273924, 0.1949545622864416, -0.1789694304398112, -0.019268629054431368, -0.13704502291721385, -0.3699970625263566, -0.3123014492140674, -0.018088807421544565, -0.29408450792601626, -0.10616406454510294, 0.015118671432291073, 0.02866503060609309, 0.5229723866757924, 0.18596322486965258, -0.20391555345703968, 0.32905327343158386, -0.7728157717048252, 0.014171010738575004, 0.2103322196359511, -0.037522042413170496, 0.15635812757466946, 0.11939187153191552, -0.010272376518434585, 0.29776192702289767, 0.11103400237573144, 0.2550159676765829, -0.047909908290616185, -0.5913120227435407, -0.00339227304547698, -0.36847972740418017, -0.18242591380796727, 0.46727814618245334, -0.45047220106460234, -0.1367606156004431, -0.38246984097699654, -0.013986988022043106, 0.019619854613223343, 0.6560769889381052, -0.14875913296544557, 0.5946635314791241, 0.416474507409221, 0.48312171027583545, -0.24737879896151396, -0.12283061357792975, -0.15177697038915414, -0.2759499644585972, 0.17432681621079235, 0.08867802257093668, -0.2926577928416441, 0.13506708361448488, -0.5245127301691702, -0.16509624355814223, -0.5132645555912912, -0.519254484644544, -0.09114580695090471, -0.31245355238564243, 0.3496679310050507, 0.14917976585938372, -0.304137602715584, -0.18116890342436207, -0.05156446842495543, 0.20400445146011023, -0.31450629574660993, 0.12638704416893173, -0.3491697706913473, -0.024229817215282813, -0.18064514481859645, 0.4546504474039392, 0.1544640783639369, -0.09800734096922861, 0.5490718349922838, -0.46436994578307883, -0.3954949953040717, -0.18671700997418172, 0.048818946922814334, -0.39096099794099154, -0.12074544142254262, 0.18542946292959436, -0.21783400902754713, -0.42007932657053804, -0.5586727628346965, 0.6218595292052683, -0.147284898394596, 0.2976051092725607, 0.20567735974095583, 0.30513791583691074, 0.20910285085196814, 0.2909533456238171, 0.31879358746313674, 0.08258734637562978, 0.350659227605665, -0.019009851078406796, -0.16365702996920023, 0.1566413342279626, -0.16952547001691357, 0.18743174185990708, 0.40280636812173787, 0.6434206208083031, -0.23711778459909613, -0.33949161877720246, -0.132779019916163, 0.49865061990737125, -0.046446033012370415, 0.16460404716893448, 0.059630780823820145, -0.22184116546284258, -0.37821204354319976, 0.46818009267501115, 0.26178875847217187, 0.2506286927330689, -0.30385680155145006, 0.053333841976582703, 0.3316306638643669, 0.28043388020482835, 0.2184593448133781, 0.004139256803803211, 0.08735979995694196, -0.1255990550806299, 0.05455274307805909, 0.00010563650271490702, 0.25632840532466744, -0.008349267960059694, 0.36227548766890394, 0.47575900991861897, -0.2734918983760401, -0.35393172703187775, -0.09508166278004111, 0.0626451557300629, 0.804371900722187, 0.45553035157495997, 0.32725587120328115, 0.5621599527346057, 0.6365921761559542, -0.21970677629348598, -0.01865993102796754, -0.1984857439561408, 0.4187540423281743, 0.03667087843291791, -0.6039882715753013, 0.02629010175977839, 0.06320745767354188, -0.31379287790119137, 0.031731052480230254, -0.13882558262101333, -0.06568603844644044, 0.13845765795841025, 0.28977771584170225, -0.07307910177775016, 0.4569775103742321, 0.0008454584663541432, 0.1983963022052668, 0.6183661338025888, -0.22241074890311816, 0.18865103376847053, 0.41053625877001076, 0.32312303947951326, 0.49307937820621084, -0.03752222649399473, 0.03453411288971323, 0.8786941658479407, 0.04194223626105537, 0.14630299028208432, -0.036475467651779905, -0.6893442958457477, 0.3653229050271839, 0.09123645341120513, 0.4148526485114957, -0.16560279701148145, -0.22126006545312013, 0.3785289524309618, 0.16598392758815977, -0.08906508463914406, 0.7505697384393071, -0.442315285597457, 0.3271322096049087, 0.2305542169720814, 0.1736097588668434, 0.5710876493373405, 0.3400637555741489, 0.7581339237416741, 0.5397095856055286, -0.20945637937542097, -0.6063125852303886, 0.6250647825679254, 0.4441161320178444, 0.043027465855345955, 0.70586872537831, 0.5153527928929255, 0.4720277607394405, 0.440462659202289, 0.4235239526861815, -0.282903857611105, 0.4768676608510605, 0.1197182593918234, -0.02178406441111394, 0.21617511258982, -0.33652477182360063, -0.18017398740667598, -0.37933976665420094, 0.20296681682749237, -0.3983289503107522, 0.14909409361408435, -0.2788259515296405, -0.10520584741096126, 0.44234043145477003, 0.39592528243431113, 0.09331883389986896, 0.22819945110946155, 0.4155624747391591, -0.08244366234137512, 0.21838692538174903, 0.43434637532252024, 0.10839674629862704, 0.30522097386979274, 0.6239615517411796, -0.30439391245667674, 0.7559568996321141, 0.49507629509372125, 0.2758833614997129, -0.5104205692252618, 0.6685380899872299, 0.14212870960288362, -0.1527603444713856, 0.08972770788378776, -0.3619486439074551, 0.28199452644645967, -0.2423182127626219, 0.40223183053242795, 0.12630319642635812, -0.30981702163684666, -0.22160317477706126, 0.2679268993034441, 0.412923237533869, -0.31461694598229234, 0.3708780184828818, 0.07796799340576555, 0.24827459520195916, 0.03684941208949447, -0.002888560434787837, 0.497173820337609, 0.06774111002978822, -0.4095416159794691, 0.21732761424985053, 0.3360611064228876, -0.7124819059203032, -0.6357935717364308, 0.6113694212642761, 0.2225240573520705, -0.6236715354017668, -0.03070616769258532, -0.7307971963713514, 0.5126130243106243, -0.40105131597153626, 0.20191409032893937, 0.020498576066785748, 0.3083506178917668, -0.1504125004213116, 0.49021512018095187, 0.28731661962415767, -0.09432205731050543, -0.04800487081463714, -0.12305709025843507, -0.13327561566920174, -0.3162042619032143, -0.12257628955137156, 0.02178683675766096, -0.31481867419791565, -0.35946956221980925, 0.050602040726875505, 0.31016477139322507, -0.5912716899113369, -0.13315353051681603, -0.30025553116284104, 0.4189414358048036, -0.3991249215718057, -0.4560144000071686, -0.002415621705421378, 0.1962229405027599, 0.18634890055995898, -0.11478617165536369, 0.4676725549041493, 0.38568339834672616, 0.5116161992887306, 0.29818293507737, -0.2330627487782627, -0.025774359553361242, 0.22011001483283701, -0.4393466839363712, -0.4040389784083615, -0.08035371353422067, -0.6371777973461081, -0.48662316892645735, -0.6996360490857991, -0.06940048610076344, -0.01986453824446183, -0.05065400265958593, -0.24745748541881554, -0.7283556501408925, -0.12557504129365002, 0.09292650042960063, 0.2702559043522908, 0.36608113958337063, -0.1568474345971628, -0.8628125139104035, -0.1740313528701784, 0.052223897374200134, 0.1530223605748403, -0.5905803781864682, -0.5586738126764567, 0.003744925314250043, 0.06209046557841269, -0.24516993171779392, -0.0821174662397137, 0.29377198429933776, -0.10543966030674899, 0.5897106565021681, 0.6221971450280533, 0.08810255888547502, 0.5709011983601433, -0.6076102295798942, -0.7326188504593006, 0.42437214861454675, 0.04238972588175579, -0.2915308157127949, 0.2544942773924132, -0.615941674587153, -0.10976616762655193, -0.3145102001887935, -0.4991849262684358, -0.0722584654493634, -0.02243306845842413, 0.6194213957884328, -0.5263552847803329, -0.3949288017184614, 0.529486513952561, -0.3529504894257727, 0.13914216772918872, 0.26919325909119063, -0.4410813155859178, -0.06843389422538128, -0.31509795442278005, 0.12874320677922524, 0.08198017365454796, 0.08046242865193573, 0.5571220249934452, -0.21976878661398888, -0.29337675274604186, -0.18023732401089712, 0.5617371943741436, 0.7264636590814278, -0.01961310193453143, -0.38114210452253067, -0.017824020184014123, -0.16616012038131703, 0.440758820940992, -0.4406744086638622, -0.4703392399794995, -0.043773459848211335, -0.21271970718545752, -0.805589896674276, -0.049294692838539725, -0.12274110205406569, 0.06617711668842595, 0.01943054803752686, -0.19139497622216903, 0.32944979165885374, -0.05380971037392711, 0.5379780334163494, -0.29554163044730297, -0.40347684596349004, -0.6561290576128198, 0.43127834193785136, 0.25492498333005964, 0.2815306738298806, 0.010910269006438383, -0.3982915168946905, -0.3038703366744178, -0.9496325334621624, 0.23734281469895346, 0.19119955664185986, -0.20857769246900748, 0.7575348215013972, -0.5868594359963222, -0.24147442617962694, -0.2231254781134757, -0.5766807609120654, -0.0443706478548067, 0.7158453404298809, -0.4864759765309483, 0.407261178012003, -0.4992750630468874, -0.11040895262143041, -0.5013868933837695, 0.07463695547829587, -0.6999148874135963, -0.18546166400624173, -0.351417753324739, -0.03891679261373457, -0.16423272813420478, -0.018615960659654474, -0.16582641977325205, -0.1730394642433667, -0.12104727495421805, -0.32349253937701955, -0.1618454153779328, -0.3510392071330319, -0.5471905145871815, -0.17121214456338954, 0.32515739852418474, 0.2893733608493518, 0.32113979936904574, -0.4012969737669188, -0.47361627981477555, -0.8358486226527669, -0.07178700800574765, -0.21629766301366846, -0.13862078648004067, -0.3256655450711924, -0.3815675055098573, 0.23880716547766775, -0.2958902236234884, -0.13024789472742818, -0.02892264438491799, -0.597686723081861, -0.2947283519155278, -0.5230622788161017, 0.0757852177058421, -0.36350966051497835, 0.07820182057710405, -0.47696421925432764, -0.29761444412307336, -0.1648748078236748, -0.5027547837356142, 0.28403214454470427, -0.059760249127509255, -0.3915326518799774, -0.3468569755039286, 0.28471058123778115, -0.29571683247712727, -0.13084705231703886, -0.6652819385956458, -1.1140146592549507, -0.28794229007905264, 0.09163504419091852, 0.1861837648036834, -0.8711042539045569, -0.09905595395318417, 0.3709850157985492, 0.14194387960087032, -0.15905072869133713, -0.2881536096884934, -0.9026498767758101, -0.5095445823069732, 0.7463570068030743, -0.5294435930535271, 0.12163263711307995, -0.022885247341925003, -0.5514699954380994, -0.7595899238474164, 0.12547796856241422, 0.15024197244169388, -0.9541881095030952, -0.04848806931612499, -0.547484353931291, -0.249502129540921, -0.09924926523222692, 0.059409782407086296, -0.03824285831896207, 0.1851414939643141, 0.31813837990208843, -0.06672189352789375, -0.13662511206049888, 0.3977693044837164, 0.3094223860269195, -0.06502359831878544, 0.2714628819048375, -0.4206504348719676, -0.3990957102900269, -0.30009060953018235, -0.04333703494813787, -0.3651367665243276, -1.200277792988964, 0.03530040252287943, 0.492355040134652, 0.08344679548811816, 0.32419680480295127, 0.1324792583664194, -0.14233549072722615, -0.38834623312551997, 0.16308575669273095, 0.08126199673823283, -0.020286085508825623, -0.6676692957073955, -0.33839783205150353, -0.16991338398525357, 0.26399578255240064, -0.42413964802347653, -0.15616462103909837, 0.1781048942933971, -0.12476665929862368, 0.20128570796220815, 0.22596995788487914, -0.28033533531595234, 0.11780426502331588, -0.18047830417867466, 0.010106636496071287, 0.5435531865193751, -0.16156196568624895, -0.52072283451696, 0.34962062817078093, -0.11147005718291121, -0.08321893766278367, -0.10498615218818419, 0.34921688931760864, 0.17308064023369676, 0.39569851870196693, -0.21466282563208994, -0.37385100385989106, 0.04091610632262915, -0.4996977656231441, -0.16592888348596874, 0.2589877049297405, -0.32326933723492995, 0.3892186368707517, -0.2356423426028939, -0.24343000108648014, 0.17454646755054495, -0.188850047569054, 0.4815693889978014, 0.8443285573115359, 0.22605166406656738, 0.2298467537909508, 0.3689833645627104, -0.38709816101970723, -0.1799719632871847, -0.581501015996402, 0.1899485314191657, 0.11907491066199656, -0.8749723803616024, -0.19122305679675336, 0.171188983185528, -0.010527212726197294, 0.05018788125900351, -0.5950548328633176, -0.33356509348713187, -0.08559360608193825, -0.232972409188784, -0.18166770486996603, 0.033711236238264886, 0.12383752073655048, 0.01854667028838455, 0.8481612081207507, -0.5689507884242373, 0.4618140746313584, 0.4843290181626507, 0.45901446505037524, 0.1741925465552185, -0.7182303102972211, -0.2936942246890102, 0.31580117075383896, -0.09897012893113404, -0.32121564265256497, 0.06875998864202991, 0.2418913256248347, -0.29900408037830334, 0.07957816886980848, -0.25959478992448337, 0.20767333109760694, 0.18916100879779035, 0.20832066444819128, 0.10000372446811862, 0.18194717488847853, 0.587192625708431, 0.8644336467177147, 0.35040280319440437, -0.40056615439472515, 0.0783112276905419, 0.11574110582459417, 0.5505715114719072, 0.024888230184335336, 0.34205620241384155, -0.5832708922690044, -0.19775291525186847, -0.21558108972548568, 0.08538070397545039, 0.06981127430218767, -0.9176698605207646, -0.40215530390288673, 0.14606598188970105, -0.0593277754627231, 0.5342804019584422, 0.048402112956706454, 0.20819387257667968, -0.40306025055202077, 0.2041085608870946, 0.009148347062252269, 0.29698775261537474, -0.1801875575885628, -0.08779655520685745, 0.24163803550900476, 0.721102832427241, -0.2913463429588957, 0.3812857684252116, -0.051480591010647274, 0.14526307302805852, -0.07546896583052883, -0.36195319104709617, -0.19033192217871933, 0.12973331937585508, -0.16506818005273619, -0.2935840178170312, 0.5352817649083998, 0.047658114569200376, 0.1294088617244721, -1.017046240243714, 0.1847711310987323, -0.2068659012005821, 0.3680998030546394, -0.1023643855407774, 0.0422371706183267, 0.4653786115353326, 0.03482937864990792, 0.2725106589505896, -0.04142692147727653, -0.15417785476944312, -0.14898963994912684, -0.5634446395002417, -0.1753382546014054, 0.34859375051746117, -0.309994020371498, -0.3339239766718353, 0.17152871340286793, 0.23333336918571992, -0.025248656494464526, -0.36152238534546094, -0.4234173205857588, -0.08576195042013558, 0.1176595369719363, -0.2838364856782817, -0.04504755231294547, 0.08765015575279925, -0.2727194071342646], [-0.09635688256716837, -0.04666886024200541, -0.3163787535168432, -0.2691677046108508, 0.3633849585031998, 0.009431954429256827, 0.307639697558374, -0.16173322635190457, -0.17079980707707132, 0.7651452969365077, 0.5985373624075374, 0.07985004927374355, 0.13474697897961566, 0.7857166191489648, 0.032363547628630376, -0.07661990335753996, 0.07723034064134057, -0.7144619489372175, 0.5493730434806031, 0.11407520028330592, 0.08319493305806665, -0.3616884031247667, 0.2894328631426945, 0.02499661710233898, -0.3036468865317453, 0.247103414932536, 0.34369234135389526, 0.3904553710974819, -0.43303328178614764, 0.292225585103776, 0.07996693972664974, 0.12322066321887942, -0.16793996400443414, 0.09476887737360062, 0.17504521046306842, 0.00982302890492645, 0.12449018120042035, -0.5434074276653865, 0.03528933682034371, -0.02626871505411249, 0.1055586164293126, -0.055004285121781626, -0.015472851283240632, -0.26646342262520734, -0.2774715035997861, 0.38536240765540447, 0.03336503271420706, 0.44073076893790775, 0.3866781577279292, 0.18559782147335158, 0.25731788087495144, 0.2745015818460629, -0.2416657520108768, 0.43824740455358324, 0.20280611676748966, -0.10006977089354907, -0.009659687377615609, -0.005370340218917469, -0.12384800842059726, -0.7601511793572212, -0.12561937262527892, -0.0797625759887594, -0.04663836484173221, 0.11703237946389071, -0.06477679386199706, 0.17582837155229533, -0.23352168729931738, -0.2564865734605354, -0.2003684438076432, -0.4965747848647851, 0.2806872717645062, 0.3499856792296418, -0.23723433766246013, -0.16182390908179586, -0.45836165461903516, 0.011202599804246753, -0.5704387792099634, 0.09399760428666881, 0.3184758704678332, 0.030578228031121032, 0.5505690188580152, -0.03432728581636865, -0.008765108624705281, -0.6364977297936435, -0.0548508164150341, -0.5958960110959706, -0.03419214249535073, -0.008503666622281551, 0.1860625535748607, 0.32739298554984203, -0.08332820544849388, -0.1580083361312228, 0.06338676616734713, -0.13123901705315286, -0.12257215510799734, -0.3916416692169307, -0.3105332921713317, 0.35458390683939844, -0.2297654490184672, -0.43797813221040977, 0.45066718062855565, 0.14484035188215047, 0.10180289151941838, -0.2727443988431035, 0.30567703444722527, -0.5171397835247197, -0.49624925647201273, 0.23319069337420745, 0.4930349957998871, 0.2180032859679379, -0.13117825060253663, 0.5380082289425488, 0.4789401977188728, 0.10430013573163822, -0.733266443314256, -0.07505233349067368, 0.3085552019412867, 0.25227204880244525, 0.20626875642070389, 0.2948082577872489, -0.512826214436049, -0.05632437563191475, -0.6771714013962699, 0.3892002707755712, 0.17473449736894658, 0.08804466450204018, 0.02843977751318936, -0.10899659892851803, 0.0982895854961765, -0.23821474447648627, -0.6075521119014197, -0.01514001615441928, 0.16833141023398052, -0.39554583860686443, 0.6494403545684229, 0.16930463797959686, -0.5042905119886139, -0.5126922314958566, -0.22696469132314626, -0.46413232074873245, 0.07567966910494738, 0.13856557542321657, 0.04074990992891733, 0.27656475290090177, 0.5790750638958552, -0.22737424658669192, -0.25701352284519224, -0.23404503218058625, -0.5070007012486731, -0.10625596014052797, -0.14855593257106564, -0.648334719465805, -0.1293462279268086, 0.5642200387260011, -0.12369376910436304, 0.3319505752184747, 0.5735541334319691, 0.10572973536090466, -0.025303221587944694, 0.5113509754500755, 0.1982259171418056, -0.30904228393331945, -0.6313968118365664, 0.2758258455756939, -0.35358421627635395, -0.006585568965848938, -0.5171743766505817, -0.021184479441153488, 0.5819294520423232, 0.14965166575344777, -0.20185644536225744, -0.10207591060167694, -0.25663940918104244, 0.543506124810564, -0.2615503919974125, -0.2788091303255965, 0.03510191520313563, -0.43290581528951166, 0.314722574985254, -0.36461817005677677, -0.21802004099447844, 0.1722671536216618, -0.42713716046827094, 0.1937505398985994, 0.3473072136804306, -0.10127419983404803, 0.5551549278337338, 0.03160539119208935, -0.23830168809428184, 0.5471388368719685, -0.032924792549691155, 0.25206205427568357, -0.09553172400941018, -0.7040571502114168, -0.33957460691470687, -0.38614300524287637, 0.15432459280262126, 0.18729927414148537, -0.138805325339934, 0.2004039417716588, -0.06135304566269439, -0.41683292353423534, -0.20938607786190275, 0.06411180527579853, -0.1123383277744032, 0.0822122851029, -0.04316539929186282, 0.08655182457756927, 0.036481837982703366, 0.2057898561845874, -0.22797498377956738, 0.24831525046933858, 0.11647432536645508, 0.02014297956716197, -0.22253397702674238, -0.3345664608953316, -0.05793370328999179, 0.27199944944794946, 0.02056955183325697, -0.7200185396550322, 0.5712410349608679, -0.014424628130120513, -0.4744311458286363, -0.187437091807829, 0.5810111717280885, 0.11011660110798413, -0.5933288685723866, 0.3944957955788261, -0.13567925047279644, -0.40655242039202316, 0.24276556835134072, -0.0444195282500753, -0.4041517643799161, -0.2309687462050041, 0.8675751407320923, -0.2127589888070653, -0.5103056770458106, 0.46312694411366656, 0.08482352394123814, -0.08806173743711997, 0.22245572539508898, 0.0932114791794563, 0.3354840365860055, -0.21494086564549042, -0.2795562013696776, -0.580063251312712, -0.2247264980673653, 0.1325880812879154, -0.20219068932675274, 0.2627788540416461, -0.6068433077714928, -0.4055335208684781, 0.023029144956750302, 0.3355812106559577, 0.06246069611670346, 0.1785043077928357, -0.1417139619874793, -0.5977927853514129, -0.46857609555528806, -0.25760439367139415, -0.06412271788670658, -0.36409584568469966, -0.39565939631060154, -0.33357824105828265, 0.042302719692705805, 0.10606409015961693, 0.30512889931942344, 0.3239587622993612, 0.3348690555081143, 0.19059335542838884, 0.3525410891866272, 0.5210324997173575, 0.5599226781734028, 0.2737574265543834, 0.0587530177122535, 0.5599250712722907, 0.027015725483519104, 0.2191090688890136, -0.007680412074855972, -0.2427327811728982, 0.6539672191518114, -0.21969839414516087, 0.03654802674735086, -0.25427979614426843, 0.3554727755355753, -0.05182319006464588, -0.27834327216648774, 0.22362570585366337, -0.024529384150602344, 0.2615966791637747, 0.1353632856883087, 0.10045513952297062, 0.6394959099434612, -0.17451877598448018, 0.5798783474396146, -0.31876893138242984, 0.07483895839594741, 0.06697224494556354, 0.1441777681580899, 0.3761223843020249, -0.006847313931377519, 0.3356279271080055, 0.2956136597833152, -0.2897741395076118, 0.14430738369557822, 0.2386749793433503, -0.2587945489850534, -0.20971390601515005, -0.02424697559873714, -0.300955346852561, 0.08331714002043573, 0.0945452037671041, 0.14500884889489868, 0.09437356142916008, 0.7914741192139233, 0.22904227728674476, 0.2783328086111486, 0.8628898308448096, -0.29742900842129344, -0.12648065353400173, -0.5458246363652175, 0.3805916149749219, -0.782295610313554, -0.5646247301864655, -0.11839942796704357, -0.0343510621549813, 0.6386256247801442, 0.1609256410995779, 0.3178158167931563, 0.37411124968741055, -0.04356236061535895, 0.7804470321995142, 0.3169261920922211, 0.6992581480154115, -0.04058734698343552, 0.5588527475750991, -0.44762098452004856, 0.1784262538741957, -0.009144170018715439, 0.04281965022318368, 0.11315314276395984, -0.23735217271090062, -0.1513474913664201, -0.2168363437957945, -0.39150017643671636, -0.4648049970643575, -0.02035626842659458, -0.0634499677856047, -0.15868104534456495, -0.47324805812327986, -0.31614277863926904, -0.6299849064910681, -0.40336869882691717, -0.4631075493273127, -0.7389983475441253, 0.5395697942831039, -0.10058821759985068, 0.24205627135576735, 0.6551764120002559, 0.17222148063052067, 0.2730192529492592, 0.2947720610587, 0.4003844295001746, -0.815147317519014, 0.524158458449392, 0.08291232122885893, -0.8988214511719079, 0.32642911349317993, -0.5249957378884196, -0.07570138092910937, 0.17975236446327733, -0.30936745483981054, -0.02180438209190604, 0.41550251149382045, 0.2037522708546514, -0.082256177673208, -0.07682717702582742, 0.4590312242634901, -0.9678410040732253, -1.4140823082872402, -0.4953627128332699, -0.570198885272856, -0.1764465388386277, -0.2297083438349411, -0.21238582506124656, 0.2003550805817053, 0.2093036024813971, 0.4798449602992961, 0.14496423503575473, -0.17225775616029046, -0.4731447078546425, -0.2019580284867902, -0.624831403895133, -0.19629115141934264, 0.25457350605647705, 0.5129778248862936, -0.3052069271432391, 0.629689138196069, 0.09781690465944815, 0.32895965952594297, 0.44015370702762774, 0.5835201110368307, -0.0207989960639256, 0.40108161022835276, -0.10650810891785045, 0.2277123039746284, -1.1472382011002407, -0.5795235903709212, -0.15530522324759052, -0.16602144582053924, -0.7340981256545746, -0.2922812648972619, 0.37756871102329365, -0.34297582786294034, 0.3319782155145615, 0.5989489705058906, 0.11514389390737448, 0.46069519707162, -0.16136718803402345, 0.27180498977843576, 0.10061615034800649, -0.1728413487355504, -0.449167668924521, 0.2502346280925477, 0.24886008900280368, 0.22542895469891233, 0.6485014983249914, 0.12364722382255627, -0.1356372524791227, -0.0833152577922854, -0.039135222939734586, -0.14102746600987517, 0.2496281569807207, -0.48642241643576756, -0.6352503556314448, -0.6430709338821532, -0.5922378308701185, -0.5489291415171383, 0.2468038911838316, -0.7052522837025385, -0.31892297689417043, -0.3947524523717474, 0.29441353287281885, -0.23371052199703646, -0.19155320213474303, -0.25800613618318863, 0.012580003889154234, 0.2671667894701189, 0.1080846097286207, 0.034065539920138714, 0.49308506408912095, -0.4929670594796311, -0.07523678683916911, 0.01484557116901426, 0.3419234796729438, 0.4732828996008892, 0.8635693403582426, 0.132521607678553, 0.5923992160164745, 0.6322080842148, -0.36567788502765247, -0.5041406148773058, -0.7551631249595236, -0.6778240253820019, -0.23055742586019878, 0.12960618907320684, -0.06484977996933632, 0.3253204861971573, -0.1886030589820967, 0.3265697377226644, -0.18671272996256702, 0.6734083725970621, 0.0784374540912755, 0.5378610908606132, -0.5432972858544425, 0.5626007636848143, 0.0801595637907031, 0.05190160355477451, -0.6393430123965264, 0.08828282161677604, 0.0872309193903814, 0.07037511754584545, 0.14701049654467196, 0.41798406522958537, -0.13692236516975553, 0.8401612288557604, 0.8182409075338484, 0.8114420807057889, -0.33971219091944754, 0.1325611726643116, -0.7943663314896242, -0.7937754066298551, -0.717507010094928, 0.017341704818008653, -0.3685525639323885, 0.3707259104481146, 0.1483659053581123, -0.037341360716711, 0.5933587600923342, 0.10221046794159554, 0.146809826625316, -0.07993069758083197, -0.18021725559759583, -0.4223517287093346, 0.21311297311914593, 0.6663538119742634, 0.2386194157061128, -0.2789759088427882, -0.7894271575987811, -0.2728564744843005, 0.04458886487683561, -0.10304211457575424, 0.23771469439805312, 0.3081580145533378, 0.571150188771365, 0.2356393667503342, -0.9048075807141098, -0.787947464239419, 0.06710473431165974, -0.6219476639388211, -0.4813559120249048, -0.6268981895812352, -0.39861052443410355, 0.035238250066438666, -0.37752057038748527, 0.21691169661897286, 0.2329933310435703, -0.18036753619464402, 0.5236676397584722, -0.013423736344360573, 0.3091039308558706, 0.05953781551578297, 0.3125703529750977, -0.13083812812227283, 0.050405260207141034, 0.06518040862437964, 0.2476676064573275, -0.09284637868786101, 0.38580825176158584, 0.046285718159440284, 0.1877894991208064, 0.2567025267729196, 0.5345821371263764, 0.48652544023302746, 0.5686403080108695, -0.13964326107032976, -0.19799995233649398, 0.33654002752655177, -0.20463058035146162, 0.2803923256079077, 0.30816754163734567, -0.3068133433772588, -0.13112829491868952, -0.0725443976238883, -0.02464969839641601, 0.02363651740510519, 0.29142093683462295, 0.07750646351941806, 0.25570926956720336, -0.03102614598687173, -0.739116040240106, -0.170179900657698, 0.1363659281668885, -0.1449463640148912, 0.4872999055490688, -0.17090038531109797, 0.010494999407777601, -0.02208937051160017, 0.46966547457396757, 0.6812230776101438, 0.3920007711632148, -0.08087226246801768, 0.7085939455218847, -0.0728450071776955, -0.6247147939731813, -0.5406807025169733, -0.0598243857450832, -0.4181574332751239, -0.15476795795242768, 0.07314395570644477, -0.004746141768976343, -0.41667095439692764, -0.004971104388590297, -0.09976777989784165, -0.3817718162284226, 0.13747473942894767, -0.7052958499660291, -0.8214451781764182, -0.34166090797712323, -0.715636340945089, 0.5701414456869394, -0.06179943362325627, 0.12543798872759443, 0.6107623386656498, -0.023382926481285694, 0.08297728312053539, -0.1547341103965191, 0.30307602768257164, 0.22572682260260848, 0.7272465752739273, 0.568464197169881, 0.2714619893667496, -0.4724995711554028, 0.711035173777466, -0.6085990367451405, -0.2727457013328516, -0.3274774999439013, -0.6573467248817861, 0.07636088509451892, -0.1337725760070124, -0.6032717981380156, -0.8162108387377541, 0.174375155201845, -0.177674818425297, 0.2808783594541192, -0.1495859133299421, 0.5250470124529476, -0.6325665912779013, -0.3884058629351855, 0.14732524318809231, -0.4122442700791223, 0.37079254723140587, -0.30070021590123885, 0.10563971079417746, -0.19289962748818126, -0.22110821663288333, -0.16903872792552316, 0.3066638787504078, 0.07387309024902243, 0.7474252449541361, 0.48346376700139293, -0.056984987098467756, 0.052569914356434065, -0.39352370161426947, -0.05359366863456536, -0.16805001701379374, 0.02095222699585434, -0.15994394143654544, -0.23277300221000863, -0.6084708946928155, -0.5812279644787519, -0.4941356340819043, -0.8111520640242105, -0.16355555311490066, 0.08667094919144647, -0.132616738421282, 0.15888706536763236, 0.039415544358223836, 0.0851444493561534, 0.03521415953479073, -0.2603472423323294, 0.1871300415543997, 0.4850175216541297, 0.5473321949819465, -0.020665284312469254, 0.9465082397821657, -0.13926788895545977, 0.7214345605716432, -0.11003154944086782, 0.20206689101443903, -0.429514040692889, 0.2685911727946523, -0.19334204327945456, 0.15779937371230904, 0.11572412329298913, -0.7063524796547623, -0.2679510230247986, 0.3766946096803612, 0.2362082112689975, 0.09958812881271167, -0.7028739281857783, 0.06677043409900725, 0.0737226300485176, -0.0525398421601782, 0.17897892801552182, -0.11947229642349848, -0.04512287830956943, -0.12476507110337884, 0.47918192201724735, -0.10151427501167644, 0.252520941142829, -0.024382754723342746, -0.7726235626228245, -0.18110476343278148, 0.19221527388419002, 0.0993702275317761, 0.14075136821616294, 0.5113019770180406, 0.2041867530856802, 0.12744928445617826, -0.2972650061165998, 0.4591709130583664, -0.4245419354261073, -0.20680516960080744, -0.4315229772337707, -0.10556846079493468, -0.23934808100476943, 0.5178099465977093, 0.44390352404819144, 0.21569662961330735, 0.3674709878747031, 0.07851505834180189, -0.025235059219826224, 0.012384781071515728, -0.17145727706391614, 0.12067742527159306, 0.18785646232545725, 0.1330374573197091, 0.13621038545019698, -0.5331162381766033, 0.49220931844231325, -0.45358857219196114, -0.019526641657527096, -0.5073893389528845, -0.33105115811197616, -0.2375847884326323, -0.5226839106656443, -0.25146525918165535, -0.6049944849885579, -0.14842241663336578, -0.48534742809811077, -0.058294986966635834, -0.14443452702817297, -0.4866165621339883, -0.40906040679715455, -0.09747134255282078, 0.14017261770709843, -0.6463130701825465, 0.4097897883470686, -0.4706973349233773, -0.03678872619044785, -0.157966716914104, 0.0042206117076351735, -0.11131266232238932, 0.36522993571635676, -0.7270015384556153, -0.792816037510584, 0.10596955895966695, 0.15051032956238852, -0.31655137670324995, 0.27190912035991605, 0.3532634696689531, -0.21459742506967625, 0.15711208226669424, -0.25151146060540264, -0.00691159982310374, -0.10465312528813016, -0.15208640310437518, -0.3520152492958302, 0.36966029876941175, 0.2174930261397947, -0.38814113442833686, -0.34558713470395086, 0.2942104783221802, 0.10275195511410663, 0.09358971497772386, 0.3812138547037257, 0.01417071736147365, -0.15222295633585933, 0.23174247454697244, 0.11396192472189877, 0.4632841603220018, 0.048822052475043835, 0.2853809990065261, 0.018838415244956108, -0.6359554842565576, -0.14542714271029747, 0.09683468378205042, 0.04424395441832907, -0.5181729948795406, -0.1715868561987084, 0.04411800398268066, 0.596437019790003, -0.3814477526144952, -0.13678941681610332, -0.6086078639139382, 0.271501047695774, -0.06969647271887223, 0.08689310275758516, 0.039390252350873865, -0.025870820894084125, -0.3566447076301082, 0.3901348744751374, 0.29402332912600465], [0.12822841853779912, 0.8096356898458132, -0.2659849995993015, 0.20819541455365081, 0.6222639597920283, -0.21036827781467726, -0.14724351132638988, 0.2684153094360844, 0.11922919226994075, 0.378358112722586, 0.12305902475268199, 0.34534584839088744, 0.419940480089706, 0.3046126456929087, 0.2541145185704508, -0.45792981315314585, -0.2677699922366875, 0.14168475681987816, -0.7755778975060991, 0.5249926333496007, 0.16094700438367107, 0.09319837394648985, -0.3517881085326496, 0.1047491453451462, -0.12153321002076035, 0.531069670880246, 0.057701814263863574, 0.41239942522996953, 0.5469415659228324, -0.3895665417253441, -0.37097855792476964, -0.5955461935334176, 0.6205074606595812, -0.10608301885450756, 0.0042273756115041635, -0.2676715862693477, 0.5100951556705278, 0.25160926279846174, 0.4048874757010395, -0.19511585766210282, -0.36175184241586505, -0.11492754911911397, -0.17758053117423644, 0.1271130443300042, 0.03619088214819875, -0.4306059840719042, 0.04937938102789433, 0.017007418358036507, 0.310907430543029, 0.27068437469652573, -0.12195379127321153, 0.10187549798187924, -0.16635436416578403, -0.2108260670425872, 0.05722073450555887, 0.1504778510607746, -0.5970817436639122, -0.27763207444623306, 0.31040797161996914, -0.2832424428335085, -0.39467772501148074, -0.06888209165480688, -0.4419722122754835, 0.26370331696572163, 0.24450071980630717, 0.8864875888829192, -0.5106302732164989, -0.3926724560994798, -0.3404413860272218, -0.8425654149627331, 0.11437802529351726, -0.2829019461410259, 0.2036574980429392, -0.19999528690160703, -0.05733843153369504, 0.2695620554138996, -0.22805199814609176, 0.022564154063731343, 0.003082918671582955, 0.6566813548789812, 0.4171291162220734, 0.02831626354192862, -0.11344120696827606, -0.3284159131076398, 0.5408048608486284, 0.3002613530406812, -0.007003524520799706, 0.373022698528319, 0.3260861815900049, 0.9400235088983262, 0.11058557338928805, 0.504814072829431, -0.08653881527595872, 0.25943054239834795, 0.03958644295737243, 0.03229196761169379, 0.9829837124304637, -0.429555281750337, -0.06049824790896914, 0.3789626313372512, 0.5736378402305945, 0.29103122523068925, 0.414162237362205, 0.37260037564612036, 0.22727129929757164, 0.27208524005719564, -0.11289389263556826, -0.05547886992346766, -0.6046442099494251, -0.15665563015440773, -0.13963026814808524, 0.5007530457897597, 0.1043718775369741, -0.1607226793857258, 0.26788333145332877, 0.3372342922880171, -0.2555708888607236, 0.17154003212644675, 0.20866139483870297, 0.20551834795094417, 0.10171664570788116, -0.18581106342369172, 0.08709413060940893, 0.3306466788704177, -0.5620140948655984, 0.03509512718672685, 0.3401963416997004, -0.39201049773157043, -0.2947589283335584, -0.33252369868598275, 0.08091413515639957, -0.0876917344579964, 0.5082804729229545, 0.03820572363802887, 0.8670737766176865, -0.5267672303164658, 0.5473976303434492, -0.31989160916745063, 0.5056499396652154, 0.4702308951482442, -0.690190863771404, 0.5293363660821224, 0.45861756358731526, -0.003300932893224382, 0.2281512316953928, -0.38244441572943183, -0.22877977052420723, 0.28316566536140747, 0.20694614261049865, 0.3193920438026708, -0.4098411331055593, 0.14599671304950407, 0.09110634801826957, 0.14863857226943067, 0.150075501197559, 0.25607968221376154, 0.01331495238724479, 1.0130621181098263, 0.2077892754130608, 0.056946464502610906, -0.20742830054869432, -0.9226962263792734, 0.044794473361058115, 0.07639396432759207, 0.13930648933299541, 0.5175761578460235, -1.1631031960065528, -0.972948737488148, -0.1275900488434705, 0.15601386729769717, 0.043901746145326444, -0.2121879466282289, -0.13166854796812907, 0.14644888241625043, 0.1449932580322702, 0.5101822182397134, -0.21590985783072436, -0.5052344197789074, -0.23698820062151033, 0.12754203002734055, -0.016415021282032736, -0.20479257340078816, -0.18313852606090347, -0.5799853303663202, 0.41534504314646925, -0.1906178013207416, -0.1017252082665123, -0.3949176178332686, 0.09893819990188304, 0.36903086456601214, -0.5264733391582512, -0.1016517937912315, -0.16184907029511383, 0.5150663119219537, 0.3372717838703057, 0.30979945371334777, 0.5687964002143723, -0.09355704001795209, -0.650296373220246, -0.4115277186874331, -0.21756562847150107, -0.07810253957288224, 0.13999532153647448, -0.20720767340308083, 0.3010391877843652, -0.035547845433097164, -0.14015945401196092, -0.44398014133398084, -0.768077360713224, -0.08843066656584417, -0.44705626159179485, 0.27984824553331805, -0.015163911243744423, -0.17352860099076486, -0.3225568639962143, -0.3450576945963082, -0.31728160134034056, 0.13593705517779783, -0.42429559563859515, -0.03790739239745855, -0.12128335042131377, -0.043721937559085766, -0.0384234623106337, -0.3730407745598699, 0.010581360545201363, 0.3051486212005702, -0.3227754115729358, 0.08010782021267057, -0.8738924062806053, -0.2944094770827799, 0.37148471473981604, -0.5311527832461593, -0.7922706702235354, 0.2353280832026372, -0.307594807038898, -0.6393885554602393, -0.2629452413914225, 0.321761807967657, 0.35555802721915225, -0.11591831089047876, -0.1438076602402693, -0.4744071609882837, -0.6408383505292728, -0.1848841727709432, 0.04835388412446776, -0.1679439994997564, 0.04076356506355577, 0.23331287935137507, -0.691675179097269, 0.3607970848268077, -0.36930741660189065, -0.043153250173693036, 0.03474186912561424, -0.17531562323366512, -0.1191923227456759, 0.38309105828054174, -0.2730033520304682, -0.31920012089517763, 0.17865777801245064, -0.5777456997837807, -0.14386820858778637, -0.1474434122520569, -0.2496959265484132, -0.15513555745384644, -0.023919164735585488, -0.559660347484582, -1.0174882438610584, -0.5036948109235723, -0.2606786121794205, -0.5956976238890611, -0.7045755267960178, 0.17019304386709583, -0.3672083873217204, -0.5577232347254552, -0.6104098754711139, -0.19583325632600562, -0.2606906190781897, 0.5386282510595144, 0.23775876106345203, 0.1779298782922544, 0.13831680766908402, 0.14538129233165528, -0.10395500957592418, -0.23606873752564944, 0.3059737153253862, -0.7220111551278166, -0.2471486501147495, -0.24541993560348016, -1.0268564820601926, -0.27757289154491543, -0.4217297998150075, 0.5055643980324367, -0.8023340999139156, 0.09889741332138731, -0.613556990202068, -0.051736582778371606, -0.06322866220716264, -0.12289884332614054, 0.08528099333207223, 0.17794995829516314, -0.5948514023440303, 0.0007462191682634261, 0.28072700677693224, -0.8740796891904741, 0.17197769073002664, 0.08832227832583155, 0.12747344594791113, 0.046712715001106235, -0.015457833350117686, -0.30275747469437403, 0.16049571225265813, -0.11677233589448219, -0.42578269770011257, 0.0033294443093472873, -0.14951411213675522, -0.7155807753840616, 0.23913287154749197, -0.5427631531790944, -0.6838967212304731, -0.6399181166796714, 0.09709229661056883, -0.45885922247622457, -0.652794467883215, -1.2547620713909091, 0.4053407966564789, 0.11895187094092166, -1.1075077480050937, -0.07456679746847947, 0.08368297499233375, -0.7057783443204301, -0.15587838754839423, 0.2070707683763528, -0.2340666683577843, -0.45899820388815393, 0.2492948131340788, 0.42150745073283075, 0.24313476989141714, -0.0702706348453684, 0.082303002183166, -0.4487958641168065, -0.6720034039058201, -0.09370615848933928, -0.03348543372832419, -0.13644051995163392, -0.017485884309273225, -0.30658471216409583, -0.10478283620861244, -0.29308932072063676, 0.4481639715634884, -0.23163898131317387, -0.4706865215783551, -0.21468200241271337, 0.010736464293204386, -0.26486756804780465, 0.1942611837658629, 0.25149286168881035, -0.0035396331188924718, 0.29616724096827085, -0.013533259788744102, -0.18102435916569548, 0.05358154331252305, 0.08319608702085352, 0.2300360062669512, 0.18682659876255578, -0.07615365265376318, -0.35940564943928843, -0.3951464827192898, -0.08618445255751792, -0.4908729319633529, -0.238637720463374, -0.20077686991537033, -0.6529459014236451, -0.5118136734258708, 0.10151715224799031, -0.37704002055110264, 0.07346135708471901, -0.3080859285403868, -1.0389705286900872, -0.3649948390768588, 0.16283622578515664, 0.2529111163221055, -0.042931474186685206, -0.19172848786961894, 0.27155648504147706, 0.1528894980958273, -0.6194928126349846, 0.5062454047873743, -0.2049213190592255, 0.21760435409587503, 0.28230071284481073, 0.031479248238816246, -0.3567975059562447, -0.21726240974164815, 0.556540147461147, -0.6827384990561575, 0.15667113361548757, -0.6561437463997953, 0.041242393150728425, 0.3305952481023423, 0.8583457700548468, 0.4210023206767933, -0.27524030567298174, 0.263178736671691, 0.23684423586691755, 0.13810350395504256, 0.3003136377792543, -0.3724051168845854, -0.5460826712725098, 0.21582270562363529, 0.1037729433040345, 0.20658745187042787, -0.3145322553979446, 0.028927029970207276, 0.12542010334160356, 0.06359276767275127, 0.24725001241148023, -0.475815004052996, 0.4989440660058102, -0.15531985614841975, -0.6041354943488182, -0.13307429901759746, 0.049326923480233195, -0.5164423335192349, 0.15080577837674106, -0.38557699049236815, 0.8840422779508879, 0.27922889600340084, 0.30916946868183887, 0.6851987174242714, 0.7709269534879236, 0.5616011233145208, 0.16359673182762918, -0.3501699797793027, -0.6044216305959589, 0.08492402197893881, 0.09657291087022658, 0.5082226083154946, 0.2490460697509232, 0.6456404342823358, -0.38747174507307136, 0.1357419599837599, 0.07673512874986722, 0.6890086425172766, -0.530503947000381, 0.31157088015297935, -0.06625823720999298, -0.23651999813585253, -0.2019459317937192, 0.2157055494179869, -0.008962714245487136, 0.5430280967486181, -0.16161604158357953, 0.9007619963723954, 0.0051874717956062, 0.5699854921059557, 0.39796294129792115, 0.2823997364132748, 0.8314665375608146, 1.0492370953807046, 0.4193093364590036, 0.8564682875758112, -0.6619802295011444, 0.07078659947858026, 0.33309614524776626, 0.44880284290688854, 0.20507221661948485, -0.10991886435451534, 0.47058243601585276, 0.09122576430422902, 0.08758481158549167, 0.2707665077275795, -0.26793868526494774, 0.2941408425023998, -0.15825433236414946, -0.012381992805410608, -0.14450794766849526, 0.05265803343809451, -0.14125123732936432, -0.1576592163328962, -0.15996659520824721, 0.17815768666790718, 0.2648619349093948, 0.6826256770620867, -0.3502023469345781, 0.30162920929791076, 0.5150733967394749, 0.6541741696933595, 0.0036210912415462057, 0.509759101070327, 0.5735169379019072, 0.15937638832801052, 0.32511683824910387, -0.11967933948891323, 0.2245886775968289, -0.04921738262538338, 0.13986892396871475, 0.6278716332773524, -0.3154179517998211, -0.09985695403362048, 0.4940779058281934, -0.5751883459958987, 0.4101930364348691, 0.33739460626276424, 0.1840199665873634, 0.5435097144438962, 0.7567765456821145, 0.25476345324435723, -0.8160573753639266, -0.7899077028707309, 0.37484920499387425, 0.08679358056395817, -0.011998053111217143, -0.24467318148519235, 0.17159201828647067, 0.12282169863583044, 0.8714122521780844, 0.7380809959815774, 0.5540065261108861, 0.2834120425856057, -0.5233258760961667, 0.43782617126747014, 0.08655406025331423, 0.4541304506357617, 0.22062027799373582, 0.3533355863957634, -0.0825814090717277, -0.17198350678186222, 0.4760247322095763, 0.603344234130209, 0.15601984840781893, -0.5574613348594119, -0.1530691442876379, 0.1126301679223195, 0.08902976686477297, 0.07041827073153858, 0.1100032412521354, -0.025184395613020036, 0.2605223648955731, 0.3856998790286868, 0.10230819932664763, 0.017878253820894988, 0.16025237110595558, 0.16899812986263743, 0.4842117691013244, 0.2744723185467125, -0.291933130405405, 0.41803844539405577, 0.33304654598858263, -0.29489929551721794, 0.40174226265485885, -0.1978663348594925, 0.08827875359571771, 0.4445275472043226, 0.002025321271257821, 0.025388900966634424, 0.10035770384023933, -0.37757979059781716, 0.33370778615962426, 0.47052586013426817, 0.08413090097200598, -0.4834544466450607, -0.7377366256058567, -0.307762492466079, 0.8492047288617388, 0.046243063021559574, 0.0899477759476084, -0.4639088167801223, -1.2764896297141743, -0.3836975063858079, -0.4702446169426794, 0.5982565012288236, 0.20151800384752852, 0.7159767256503516, 0.0918215690989583, 0.4971779531756225, 0.32553610587723003, 0.28485013187015995, 0.4225005750387914, 0.6434597071126884, 0.22023126337372453, 0.36048634541587843, 0.4004020478454315, -0.7271858289643373, 0.15046562107324896, -0.033155527081525735, 0.2969642612546286, -0.3122537997556395, -0.3037295455890533, 0.22603484265102539, -0.16001054050549685, 0.48141001427354607, -0.4955678294519548, 0.2180241681656849, -0.09800280882504586, -0.5388368996209272, 0.5917987937804587, 0.1962894151895043, -0.05971465930054081, -0.3488634509532582, 0.3102503006219062, 0.2990640337511819, 0.15183989017148436, 0.2134994934751653, -0.0453127169858853, 0.06790705435506696, -0.13447637020822015, 0.30913597267484294, 0.24778723507281958, 0.33067989836711165, 0.5748516201208141, -0.10403661197517486, 0.4562309969670879, 0.35239001573756346, 0.23769400945323246, 0.15694597589448664, 0.2076796049047944, 0.2372193872560753, -0.3192149169962892, 0.2764609413520281, 0.7067882364693099, -0.3734898468982719, 0.24899619674857604, -0.3157721590621198, 0.1448149413226713, -0.025652092450199646, 0.18192426053649094, -0.18305446911143855, 0.13252372775556673, -0.5634410252014261, -0.1863031346683882, -0.16160686858119283, -0.21277641475917072, -0.12025043540471664, 0.10690525111288446, -0.24117601322130705, -0.117422659584515, 0.09366214549242394, -0.3914020149075129, -0.38795746798637776, -0.039524329397728625, -0.19409244974688047, -0.018297690560166162, -0.03617944931298362, -0.03804740441693164, -0.12847161722733094, -0.14983349719159028, 0.5271078217807937, -0.20412817242538298, 0.2779325803722073, -0.13412552646552553, -0.12242366787483425, -0.38635065176550876, -0.2164813315888679, -0.16137100243876776, -0.549397027924512, 0.2747186674075534, -0.5691971527853615, -0.7473771378185655, -0.6521265531720847, -0.14502022400643, -0.30326111251403803, -0.21390622446314939, -0.27797168509498066, 0.18573149706589284, -0.4376340237536498, -0.14798968726864692, 0.07378102323910075, -0.22127754936962996, -0.459160851321737, 0.03575335567761885, 0.2827552998722951, -0.2537358299853881, -0.5046015899766884, 0.042382443211707095, 0.505976940108056, 0.32583733397187287, 0.23638397867379835, 0.07838002248490775, -0.19891261380391118, -0.42301229488838993, 0.006272059320590977, -0.5408112928441083, -0.15163682094681175, -0.13646763898837758, 0.16694410330738238, -0.7596300643758729, -0.05121874746459188, -0.31487786038122856, 0.024676218756593777, -0.735030546541125, 0.038026232513208025, 0.29947454115683153, -0.23671204239902605, 0.2879469045521214, -0.025565812006670685, 0.48673673701215325, 0.30304136085387984, 0.03614777991231611, -0.3140703570315629, 0.28488933740086003, 0.4510223291071864, -0.012574822166530554, -0.033965964709961646, 0.2255709850214979, 0.1632129907729867, -0.19848691360269985, -0.19243399643007636, 0.47232829207258853, 0.0010664769094261646, 0.21580721209117523, -0.4412644096855994, -0.47445133262998285, 0.5032324492349548, 0.0018713683565683003, 0.13627669378663423, -0.023709324409566114, 0.24859072806958601, 0.16968301222797566, 0.14421127633917594, -0.2543346592136961, 0.6838611600614665, -0.03118849542500658, 0.32928005786017256, -0.35633172882821573, 0.39421196962409505, 0.39931016566923544, 0.1936368700435977, 0.08361736062365284, 0.07401619038699613, -0.07425294198828485, -0.164582350964328, 0.13448934769695362, 0.23321098383606886, 0.05280731849235052, -0.45736301877100516, -0.2984731380665599, 0.13234404428477706, -0.490234346003056, -0.3599237933331946, 0.2965045463341271, -0.5302867517586648, -0.6952016553994089, 0.2164800080287978, -0.9208029747324349, -0.2348685434661708, 0.5597553714491841, -0.3468548040770971, -0.2873155379336217, -0.0891939805647705, 0.5696628683293562, 0.4380104930064561, 0.14127636471245014, 0.20610232011855975, 0.7578212395156803, 0.18960471886377275, 0.1111840181443645, -0.1750427276623671, -0.507526792922914, -0.621877276565061, -0.380818971823523, -0.6134152661049537, -0.0271556772434748, 0.27900830141788274, 0.5018759812933806, 0.3758917419970231, 0.1966271123995434, -0.040469739563587785, 0.10755904712390864, -0.19070526791136036, 0.28191610856024313, -0.5388890325862826, 0.4026464515149582, 0.42950582671542425, -0.1139243944008835, -0.29059933334102533, 0.0397144292327568, -0.20118229894485362, 0.39718267529841095, 0.06008593731115146, 0.3586897501761582, 0.09162784550177105, -0.3315320978800718, -0.6585343340970042, 0.04273809930658586], [0.00596181969009196, 0.17651082009283856, 0.1892469410289143, -0.22395029598543495, -0.0494629374933627, 0.8450094542696569, 0.08657060264544708, -0.31168161969429437, 0.02065315282848578, -0.32548685642987535, -0.7281482984639936, 0.25613547576563334, 0.16050548486975438, 0.17409026005053926, 0.4020870331093812, 0.1389739492910658, 0.8687425383190072, -0.04318153700763795, -0.49388693103600234, -0.6731776082134707, 0.5208426479008532, -0.15799032952478084, 0.5921012214050252, 0.07130406626466432, 0.2637665839763118, -0.047310618831553373, 0.3034873544854447, -0.43818480574084834, 0.5088531205438119, 0.16541579732140363, 0.03177735409497738, -0.30165363061849604, 0.32156366866730957, -0.6006703298791851, -0.3164421587000237, -0.436080935561107, -0.7484969931337009, -0.7629168292827527, 0.348211606479741, 0.27102329396815783, -0.14662662728499729, 0.4945029032428246, 0.051034306061096484, 0.10147090588075189, 0.08117242987412028, -0.0752820208903836, 0.005091070456177869, 0.555375396697002, 0.37478255371145636, -0.23992022640608038, 0.6105723631749103, 0.16184327089356745, 0.38931818028031534, -0.5669847442783832, -0.03431433151750463, 0.07871060561333063, 0.05321400405060794, -0.15061234869000742, 0.019186776594199, 0.22820012701013584, 1.0246133141828486, -0.0585134849451038, -0.3014509592380357, -0.29218659332216895, -0.6009505106542679, 0.4013969806435337, -0.6063365358316003, -0.16255896870484965, 0.08165639370986048, -0.13763743495169048, 0.23233984068317123, -0.26738961293150026, 0.35920025760963314, 0.2007378231180105, 0.19580241664740022, 0.03129231237304017, -0.324213526716797, -0.3595456293653834, -0.2857148931071415, -0.3226835352930164, -0.09847820789661191, 0.3322414199607658, 0.022036875244200466, -0.09828785481111052, -0.012181753089354782, 0.5374309784927166, -0.35345368079440076, -0.22631207670286713, 0.19658689641870566, 0.028662933549926696, 0.06298210086836391, 0.5773769449286534, 0.7840490589981177, 0.28284450152804014, 0.19652781026622704, 0.08657155366025501, 0.21408315598217678, -0.09707127722016441, 0.06196063745529586, 0.4644533356556585, 0.012576397967606656, -0.047406429434522133, -0.004412735149775095, 0.2527572082243958, -0.05237868131216572, -0.10932984544964192, -0.4629222115839911, -0.1527841084862894, -0.08511167489023468, -0.41669834135180545, 0.4418578814912379, -0.1549411467472576, -0.07637048295902801, -0.1889848939959151, -0.013153634302539128, 0.08271417292261306, -0.5125583920142458, 0.8169184081695235, -0.24825481350960427, -0.37672732544117643, 0.3032403789387743, -0.5131717338128534, 0.11256447848587572, 0.37343962905020167, 0.018533905637011242, 0.10127975776214988, 0.35286514544712794, 0.17026166264099674, 0.03484787700237741, 0.5061180623632106, 0.0883802023176953, 0.003951832003074589, 0.47355258035682357, 0.3089237737991083, -0.3045054398117618, -0.15583790645157664, 0.1594791531062968, 0.39793972546088396, 0.9894197917943998, -0.061132895883963374, -0.7856202684217091, 0.2776414690197671, -0.09694510230950525, 0.08691701639385972, 0.4200680391541529, -0.05789753221976541, -0.4635263842052237, -0.4377114525276048, -0.38288910319185004, -0.4050544433530129, -0.16040568001238098, -0.0646374782591813, -0.15289062106708895, 0.16754452246514182, 0.29967278011429316, -0.04864192032848003, 0.34732749346078073, 0.45920171846158575, -0.03466395921531499, 0.4233670371982231, 0.5064096715176951, 0.2704805165020275, 0.08014040560606595, 0.4838668867062047, 0.6752969014121305, -0.15727243774831062, 0.4095150154236284, 0.27364880815306514, 0.2237201129556469, 0.07568598352688051, -0.39565754998621505, 0.22217269448686042, 0.15143223856859436, 0.08710654069017319, 0.029161875559666366, 0.20491351128098184, -0.716708285364627, 0.34207996846022687, 0.2912566494362551, -0.41083333226803226, 0.4682392096433879, 0.4039016840985099, -0.30257545511997364, 0.09341586777348031, 0.1339704094877582, 0.21290870979790527, -0.7148442388395713, 0.01073407043589376, 0.7845534988822908, -0.3768417017626347, 0.5002626574939165, 0.029909907883873942, 0.1400819378890905, 0.24037920859457926, 0.5019984587479273, 0.22891470141578915, 0.30828407389764223, 0.1776999098175985, 0.17489261446767862, 0.24819335130637038, -0.052112598398228696, -0.5068125450795145, 0.2985680590243432, -0.3051251802045293, 0.5496516301802105, -0.1236026965566378, 0.44441800066824694, 0.0003956694421994671, 0.265801612806025, -0.3106369523264297, -0.07633342789896669, 0.43688794838446976, -0.1076299957527514, 0.14037183950706333, 0.4777215228820729, 0.6391283728512304, 0.036486552422059455, 0.39795645067599006, 0.3583137367644691, 0.35269173347342625, 0.817713373336557, 0.5006774246178882, 0.21939609621638484, 0.23438474650011676, 0.13784008106607393, -0.2738212675133033, 0.023096941967847603, -0.109935471567152, 0.15688993538787044, -0.010910316925075342, 0.19283220338996238, -0.2116112883846065, 0.31291586882916533, 0.2810017761159894, -0.049045595415756954, 0.2894340599009105, -0.13430674183248725, 0.33486859317314355, -0.10143202481093665, 0.21838537650004183, -0.018743892565766748, 0.28502142272145614, 0.29833498960333504, -0.002735247807189185, 0.591966802321906, -0.17686906675091837, -0.15029153282725502, -0.20328404096942704, 0.260458694336745, -0.5886185012620222, 0.004035056137113852, -0.23199890293024056, 0.5506446264746315, 0.37053422136256403, 0.12039640205530927, -0.18954781474250348, 0.2138049596204087, 0.020955375182980355, -0.3951232268716296, -0.12048166286208446, 0.026330752769074917, -0.2622092962035233, -0.07310858572764758, 0.006611384721354157, 0.7061106828435668, -0.13955854798205308, 0.11051734328065542, -0.2705215355601877, -0.023938431779536966, -0.3905180578532896, -0.0011450993826970215, 0.0506948005355838, -0.30861936739789597, -0.1685668803422564, 0.03474599762702697, -0.06130137527776998, 0.6077345549338845, 0.4086895467565184, -0.7314034861580987, -0.19832015976830195, 0.6193100537636936, 0.2388900060452537, 0.11507737677654947, -0.8823526337045664, -0.18458158511750639, -0.005148413074112989, 0.7640282235870162, 0.2728904473583025, -0.002496899867240853, 0.44758612562881367, 0.3778970938548872, -0.19224874807692774, 0.23562119011010701, -0.1912293400258832, -0.862612444820998, -1.1133232727898579, -0.37793251687716545, -0.9500994649354184, -0.5585173000662802, -0.5559960396337505, -0.5749567487408104, -0.38408531997308254, -0.0013930305532403404, 0.03180180068134918, -0.1744171173244256, 0.506118309851692, 0.438471114589495, 0.09361921329150559, -0.1297697012865461, 0.0739320631028542, 0.45236927640401614, 0.32838359662591193, -0.331938415858069, -0.38602841018413087, -0.09017755431968, 0.24449539744403398, 0.2768830119409074, -0.1677403044923808, 0.2860258009281348, -0.007128272722141428, 0.08515485627991926, 0.39778762254124256, 0.0502142253402056, -0.6929145046929247, -0.30823591857220983, 0.14886244673781954, -0.3103927935199131, -0.2742311890537261, -0.03869111096403726, -0.36698579355697847, -0.26643166617214087, 0.19962398114715016, 0.18175833520857324, 0.013878694944422905, 0.28457555964282955, -0.14767517233171473, -0.19637378025623195, 0.6729848580555959, -0.24653068768830522, -0.008504096469022135, -0.12350724831643146, -0.11522677343752614, -0.1389828815453018, 0.10527548477090504, -0.2055948474177535, 0.03330545717590369, -0.3808728684672458, -0.2893481295495142, 0.2773710173513656, -0.22316438833993432, 0.2608648736874299, 0.18232243475188864, 0.24521726078014527, -0.7263953226284746, 0.20908037777023114, -0.0536015678309504, -0.7912844869006942, -0.5396168179975075, -0.05161921860394474, 0.5976673567103828, -0.13400105089555048, -0.36300611788417964, 0.1788605004394381, 0.7071141325948139, -0.587559149789643, 0.5115737411566907, -0.804478005403358, 0.08678037781203861, -0.020141021797009842, 0.10775018676010675, -0.23174942222992512, -0.4101220156499904, 0.09738986310070462, 0.27822307641384997, -0.1156491957056107, 0.47895448821864584, 0.47925820059994323, -0.10920510565919293, 0.13277678863437684, 0.02207340997914163, -0.09004148196577166, 0.08833211519992933, -0.10523990269369463, -0.5871545898215602, -0.29783057672745744, -0.447918352703681, -0.6298631686426522, -0.37256709550133965, 0.746637548272342, 0.11977970971893227, 0.41807481057736046, 0.7501537716123359, -0.005942748074480592, -0.2535624139103182, -0.2964953804859771, 0.4169716310048939, -0.6468714806099383, -0.41571370986713646, -0.0023546989740972405, 0.38989163270805394, -0.31111762024747913, -0.42607733175552615, 0.08577980507144757, 0.022083906221620656, 0.13317528670297774, -0.1768523192908285, 0.12404552156849813, 0.01872480059109739, -0.33262780818778787, -0.0665265691487981, -0.2920332293776167, -0.06364330009640738, 0.046319139319614455, -0.7170385574531438, -0.1890039854409563, 0.3431641550550411, 0.1747200155567083, -0.16638460114167133, -0.6380615768150955, -0.42390556143025293, -0.21202692302368123, 0.016773027288805285, -0.27018150771363164, 0.3697489560836763, 0.20128413986596555, -0.23472285796698747, -0.7846080633034095, -0.04846500155520543, -0.04723607065805616, -0.3558722717906302, 0.09255458736792341, -0.297774223883833, -0.064411013856353, -0.10301893962383837, -0.5864594110269129, -0.37397857271598123, 0.24626500424265305, -0.007721723061118724, -0.23072269339210733, -0.3303753886660699, -0.7527799526199604, 0.26582279702991596, -0.271190222496443, 0.04760042244780273, -0.06883052194039894, -0.18455541540372702, 0.599522654412078, -0.518207685021976, -0.41937002314837585, -0.15764647588819272, -0.3489065690011634, 0.3044065968002674, 0.348012362669604, -0.35028918451610386, -0.1812967312771318, -0.43989693501539895, -0.3214436967703575, -0.6572610672672305, -0.3895028030040964, 0.19766336623119318, 0.09434804458653685, 0.4380081672784095, 0.1324689227215378, 0.26818936232616963, -0.8540531156013202, -0.5646294021163238, -0.3670027764861319, 0.556413325629513, 0.4241796257046483, -0.02248966243073384, 0.525040416225536, 0.03790048432999578, 0.43346699813214934, 0.4654861132834348, 0.5059094780512864, -0.3413053183907939, 0.5778840353756985, 0.16051709710126597, 0.2035807487164806, 0.1979644808750711, 0.31265263051453457, 0.08686880703149828, -0.031648073386383334, -0.7500270115801524, -0.6505715407554423, -0.11877184242378454, 0.11164570029668663, -0.4631699065412732, 0.3850561583083178, 0.07115429137772337, -0.3665828313341307, -0.5499171642457507, -0.14247357183202308, 0.16567455529647004, 0.22416877599665977, 0.17700010378793687, 0.48351843777810627, 0.4327975348396917, 0.15606639130485236, -0.03206639630375284, 0.5874341287022589, 0.3131229751536487, -0.047529939217935586, -0.052866982858050054, 0.7303806001652147, 0.44957932273074297, 0.051640391563253084, 0.10885997570968671, -0.04117333728850231, -0.44239930787432913, 0.6966411625948017, -0.72587741731637, -0.11534329112567997, -0.7501310148535925, -0.4185902255326984, 0.09946352264520375, -0.5293992935965369, -0.6982083801176251, -0.3153438172229562, 0.4747482285104948, 0.24031049704307159, 0.08369594375425687, 0.2268777419063182, -0.10832193261580543, 0.013979175813229256, -0.028284351007553145, -0.4152743334849463, 0.6624858184237964, -0.25090433004914076, 0.23056572692709087, 0.19450830097597646, -0.30073820064103074, 0.11651964656420576, 0.10791231592556517, -0.006735120026491042, 0.3517410808148825, 0.08590557425289244, 0.6007820917304048, 0.022295515195715893, 0.13378711240822236, 0.20871485535530923, 0.36374143955543803, 0.08940489098098832, -0.3298250153080612, 0.11844428800279999, -0.07991912155532206, -0.06763383816613266, 0.11123195300672685, 0.20769263688591827, -0.2747229144649201, 0.23233310942524557, 0.7510412220227171, -0.43749983994716557, 0.16265723402322668, 0.8503187862239022, -0.43758475943815095, -0.32517793898106095, -0.08935535328229688, -0.3836603524129153, 0.06417059692502108, 0.48395461963320874, -0.05491274596340792, 0.3149553229400905, -0.7349684807431556, 0.3756339737251336, 0.5351715406837295, -0.011194419907945431, -0.07072735506257548, 0.5794042173716889, 0.6236535666381341, -0.0785471938180748, 0.2755689773883968, -0.32252586644489667, -0.02911651964666235, 0.29691772520597304, -0.21760815726557084, 0.5928145502304872, 0.2313216530572813, 0.08027821555211767, 0.29050992056178887, -0.0321852000972401, -0.20019337915159252, 0.4313644639697935, 0.19098989663156002, -0.19783495806447052, 0.536622034736187, -0.054297346512380454, -0.10333553771945791, 0.2595613796653852, 0.14139048572590712, -0.11879326360559499, 0.3188581968203611, -0.32377207210865827, -0.3328132853288528, 0.37164247504803805, -0.46148500947611376, 0.6912427098922133, 0.24186184616336262, 0.585215544785263, 0.7084655631207414, 0.20748789738901163, 0.41684867419974064, 0.5175843091110628, -0.2492128056726673, -0.05799704631589997, -0.240893490313234, -0.2426719812684913, -0.42833665605434457, -0.094869678683929, 0.13366266184841955, -0.20593089789967814, 0.9029269551995143, 0.2539646083986388, -0.14105328683890647, 0.20135968565523146, -0.1758252365713099, -0.38407704588273767, 0.24857263626350415, 0.017870266788140833, 0.2173270917829751, 0.09240478493846957, 0.01876494693206186, 0.4478971058983676, -0.1702509814298578, -0.2898978832582008, -0.10644609149050209, -0.029464593542570593, 0.6280992633380724, 0.1631426462658315, 0.4646622176762664, 0.35757404560491135, 0.1741209725000484, 0.3568970223786084, -0.2685454174430275, 0.23236420934544672, 0.1631984398851476, 0.21107602244853935, 0.22516656274818386, 0.27476074258312677, -0.4888791630136031, 0.5770752817710223, -0.278971561015628, 0.05187371847502775, -0.03624204678147454, 0.010765491018698998, -0.2885026388206955, 0.06624487547488683, -0.19563125544927207, -0.09224624921830098, -0.11439286381249375, -0.22543427706886593, 0.4970507266782676, 0.28037240286993304, -0.23432118063015916, 0.30151312630899846, 0.42727939171225765, 0.30672108725594704, -0.16593807608848798, 0.22304344856214717, 0.0623417935073014, 0.21298138872626357, 0.24677264689900624, 0.43341833175919636, 0.005278518257651096, -0.5097295322372242, -0.039446197096323694, 0.1777378207052596, 0.2729106987584419, 0.05913086403219119, 0.02096537524170407, -0.022808010711623743, -0.25220145093196245, -0.5084097905454786, -0.5601970089401871, -0.19848394882029385, 0.07402400125575569, 0.3034407451433108, 0.12631315681417274, 0.3362024648510784, 0.6424941918496673, 0.07927860275702589, 0.10654549896946561, 0.10911633992766581, 0.5435436629595459, 0.21603314779212013, 0.06205269101274485, 0.8386031848216362, 0.05698293117338715, 0.18214233388681395, -0.165756999785587, 0.7660436745105647, 0.7588649727456622, 0.14027519652695908, 0.5182481278664893, 0.0008536861134872822, -0.20176040108738988, -0.22120641700561947, 0.4788517358728454, 0.5317184663438902, 0.012416286560512338, -0.39686636146870985, 0.05439186515055844, -0.1022850569453184, 0.974953378547272, 0.05871828198251844, -0.27370848440487455, -0.16239976521590246, -0.06406682119013635, 0.19059010361359477, 0.14225260827734487, -0.19559698152425112, -0.06820345918529355, 0.3386124976948799, -0.29853230804777975, -0.09996749820202529, -0.08354276835401558, 0.26652788597872484, -0.0974991148423978, 0.21047218839610798, 0.26504704388105216, 0.9255663691680664, -0.3248673047875973, 0.6683678858015304, 0.12360682575662271, 0.1851737998924399, 0.5703078021319636, -0.422436666308186, -0.14427167952593306, -0.182296351197922, 0.05027905455673746, 0.2993559013419122, -0.6457869231570663, -0.39035478107274985, -0.19846500510138934, -0.3843830357352298, -0.2627057864140586, 0.020508026790724904, 0.14980123083590915, -0.7335440538147188, 0.26927236821303957, -0.030521107235277282, 0.3356312754954744, 0.018532488977444587, 0.2168570604379106, 0.2992238803570165, -0.38637783907761963, 0.29864468224697693, 0.19066267042447854, 0.2305222708687336, -0.4227983804969429, 0.1205243813593885, -0.2132331916670333, 1.1361626330896977, -0.42942707748749936, -0.4986192575905823, 0.29763991928924416, 0.2186332681242953, -0.8157665095670834, -0.09457272736046124, -0.44622538241347576, -0.09357459068259819, -0.25019963583997584, 0.3708138184395834, 0.12937939623306208, -0.4404377336916372, -0.18048872926522405, -0.16890453013797913, -0.4660179168699141, -0.9233968539970866, 0.21747621220069654, -0.19892595720180167, -0.0789289818001952, 0.17828867012918473, 0.13208533483021412, -0.032388609498348146, 0.11692967475530197, -0.28331816406883004, -0.05489803481953781, 0.008170151426906871, -0.26228955842871404, -0.33106590373387046, -0.7064954113767395, -0.05690807794215019, -0.1427151484576753], [-0.214419938806084, 0.10933318478708164, -0.23140790554189924, 0.32667991331929774, 0.608904509290328, 0.29873085892165047, -0.4402529773826949, -0.30032488511051875, -0.8153752546972279, -0.05722768914351512, -0.028959543554473825, -0.2427047507621697, 0.6610723050660222, 0.3854170975656996, -0.05160930184503585, -0.43067204296515543, -0.5307667494665337, -0.6942431595811749, -0.06541092310056493, 0.2173780572832854, 0.2091114759349954, 0.044350886398549116, -0.8270073025868908, 0.5064822531799139, -0.1532435205336377, -0.44083911217090793, 0.12179593396685197, 0.0658811426699793, 1.2330405477235147, -0.5508199332918174, -0.36986963329628375, 0.13715414384382177, 0.03364840866905899, 0.2777534857931868, -0.013899152607636692, -0.022581309979387374, 0.05465058421134877, -0.02093756320554267, 0.353948448492047, 0.319659924844217, 0.08807712407703505, 0.5836951249681634, -0.9530181858753117, -0.5806269584544247, -0.08914510467581323, -6.120730829524526e-05, 0.6029204262202565, -0.29719425846381, 0.07897011631751176, 0.0030885928246108655, 0.24026160505314573, -0.31306855921753357, 0.32438497422519097, -0.22678014583149822, 0.12903988847750794, 0.19871955562281052, 0.32819395280265257, -0.13364501673988693, 0.8387555753376257, 0.10253641066739103, -0.4616103160231564, -0.014544646505206841, 0.31951300951768985, -0.022321680758767507, -0.018226899329865223, -0.7342599527156097, 0.0683169316087965, -0.42091719001380634, -0.3404419942308947, 0.1373389537761722, 0.24415319615155184, -0.08576225784446875, 0.3783640096581122, 0.4543315796531202, -0.5573039218952055, -0.017322527924901653, 0.48078768881505646, 0.04947167756522055, 0.014737534227630586, -0.1809596554682669, -0.27256521089559566, -0.4132460791954563, 0.3465541808630266, 0.23599306708869752, -0.22905061474485539, -0.19640759117148926, -0.10377401650989077, -0.2095390390338487, -0.7807354268220585, 0.18661480083140602, -0.3160283932819609, 0.03894753357295699, 0.0980569661922188, -0.270010709556534, 0.04407055754945892, 0.6061718484400396, -0.41839391144913324, -0.4029767966213952, -0.14894045660326163, -0.7517109854856743, 0.29363224688778183, 0.341608363707499, -0.0038161800826969085, -0.12616859481128073, 0.28162941652813606, 0.13337726590007273, -0.11619031726620216, -0.3859470444301875, -0.0006899766694464027, 0.11881474068626581, -0.3441072741112361, 0.6696551645683263, 0.15529916849298311, -0.09661969941909375, 0.41868380973634034, 0.10097775249295665, -0.1590466087687475, 0.48026019091206246, -0.11112909520310907, -0.24826678528429855, 0.5030755070307893, 0.48259357224490923, -0.1049209110137426, 0.22558410503997645, -0.30421755141553675, 0.07808802358677767, -0.2644868423667128, 0.43674933330490107, 0.33265413716642256, -0.604168096704037, 0.1615845127976959, -0.015419055943525469, 0.017222561470762798, 0.5732028278456762, 0.25823205550992184, -0.15793229378677895, -0.16810160265486102, -0.2494239007393731, 0.2539206772649429, -0.3984281060772185, -0.16654108598610784, -0.47634942021960774, 0.1162947155250231, -1.1404137270049362, 0.2590890531737892, 0.25793219608061346, -0.179282044874183, -0.3895010855767759, -0.41313952286405564, -0.2893681170565525, -0.5273575816878748, -0.2331092417440111, -0.780207027964358, -0.21847056457351066, -0.331115166853011, -0.28930997084806637, -0.845442264816067, 0.10161870469868681, -0.46843528411382546, 0.5129718335188053, -0.2619931513408497, -0.34007572903375477, -0.6178325707586576, -0.3444554022288232, -0.35965430918882907, 0.22480115271892384, 0.12130087740376842, -0.012705875466205635, 0.2122132107631609, -0.393434379886059, 0.4660933026639572, 0.8790677294412267, -0.3597633222252008, 0.25562840476875537, 0.06687812396870324, -0.2828110052541553, 0.5107094666951468, -0.4014364291291307, -0.052035083564197046, -0.03266659971133949, -0.17817088066693157, 0.6517922410043646, -0.03975277265850194, 0.22629758357029672, -0.22986127394923817, -0.5732488977899725, 0.12550183188885547, -0.6557954348867805, -0.047195432953021, -0.15508739312700118, 0.4289156040174759, 0.007203474059057234, 0.19385392180728198, -0.1638874458146774, -0.35130148532346916, -0.33034936851229185, 0.13456791568312398, -0.16650353167169904, 0.4235228416934433, -0.2976395463736379, -0.024988755459657327, 0.1223050784520365, -0.2231358890683732, -0.0209782722027211, -0.5822272613059502, -0.16189056904316207, 0.007271435748177727, -0.28282123800190007, -0.17720188408753998, -0.11057796236487295, -0.03353501382828161, 0.11882518192991058, -0.01653842748721297, 0.06071879940037284, -0.21565103796387916, 0.31475098502352017, 0.5796151154643278, 0.32408495763524475, 0.13465178170683134, 0.2974461993952673, 0.22704236065563524, 0.45890661391460297, 0.048397225876009024, 0.4323221243292587, 0.14056677855070468, -0.31975313595259336, -0.01185480324813249, -0.19643687470362908, 0.11612914120711099, -0.12240469108641422, 0.34443812585702716, -0.08406445437022372, -0.41891350601501665, -0.25546740317754063, -0.7398556683905236, 0.29152253081017854, 0.12138614213540291, -0.0959962555051291, -0.4768553079858279, 0.5310696306340047, -0.08887609783822788, -0.0004976211885156614, -0.24645137912374, -0.5871004996258251, 0.12985201826795723, -0.25669258443922827, -0.08110207257256588, 0.057958496876814765, 0.42497973118148175, -0.11819222171433746, -0.7476876988477913, 0.11540858317849019, 0.5651669997819806, -0.2700050953078803, 0.2558463943697164, -0.3739115889434394, 0.11793247798590903, 0.31089483199934115, -0.10224783777405486, -0.32768440771270047, -0.481161887470053, 0.11795041490367607, -0.3643693791374845, -0.3053296408005273, -0.29432969102069645, -0.592407352482886, 0.20106958846715214, -0.41534985053798984, -0.2962329298409811, -0.4618556540856282, -0.2011203907751012, -0.3594666701430503, -0.632739844543111, -0.0768775338739904, 0.2628743731341839, -0.28045155732780425, -0.014086150872969633, -0.38260445808486754, 0.08352737298768738, -0.25071089216276526, -0.3238718391038412, -0.08120513815920694, 0.14091941810169886, -0.19856125444358977, -0.21467668558792383, 0.045983853336242136, 0.5048525246691352, 0.8118428960233887, 0.4370386311635743, 0.3341090935451194, -0.52663290613331, -0.20269095166797874, 0.5082776479108456, 0.46930656741894644, -0.22412203209294831, -0.20286507927133648, 0.16708092600199267, -0.4548298095410142, 0.31975381654729645, -0.8612045629832524, -0.49908156160184985, -0.32482061682983154, -0.5836868513458066, 0.19262232776878732, 0.9925130561010798, -0.18328583147531705, -0.2836070870119395, 0.16382449551268582, 0.06541561904124032, 0.09449639369758872, 0.4983528464425042, -0.029002596141596063, 0.38017030353888187, -0.860499652322252, 0.049489745023715226, 0.670933277852364, -0.02153518753174975, -0.5628477216605196, -0.1313840828428769, -0.17580572725588903, -0.3819216749809265, 0.032703285354506346, -0.5414092814069642, 0.2973943893469173, -0.5361217208376067, -0.24585994183060383, -0.7877602089102429, -0.413293883608099, -0.40813530301849754, -0.9336121595859531, 0.11341203945431458, 0.4673430331489996, -0.12384604248603509, 0.13597023843686679, 0.2307402789700409, 0.49943089552195774, -0.06526682834412986, 0.19927097662090995, 0.09369491544646756, -0.5441454873239278, -0.5239107671541269, -0.3479973281996458, -0.09083992333157336, 0.17625185411962344, -0.048970954304496814, -0.3093221006975626, -0.17344976497832307, 0.05647088971554563, -0.08169677833892251, 0.07901685672186379, 0.20903340107056714, -0.14907353615768276, -0.6218703395939793, 0.025456435508650486, 0.0682550871836966, -0.11480828388260952, 0.10888642908497413, 0.28134360420733073, -0.002342870169947588, 0.6500028491539165, 0.06780822623852802, -0.02415887349503283, -0.01854400229189943, -0.23062934666456736, -0.05212651771676619, -0.22259411591514178, 0.29505027316652666, -0.17003870396311202, -0.49700105124293326, -0.19173814066833839, 0.4210963760817257, -0.004236090037033239, -0.266616639786863, -0.6458106587504907, 0.09412913915670315, -0.11883149185159304, 0.06591260856927772, -0.07840809742921254, -0.33634587460929044, -0.12314202523573672, -0.9531418671822312, 0.2233865930424373, -0.10031632130360449, -0.3782698365888946, -0.13409346573675657, 0.528270025879366, -0.07655030110840105, -0.32424657646368044, 0.18343570335691436, -0.09791358191630936, -0.5589239123679803, 0.3803443389853829, -0.022315506691997684, 0.3385205618145729, 0.07359154919888074, 0.37399442643347575, 0.16091106415150258, 0.3022931533399556, -0.2602562141069857, -0.24961631586468042, 0.25664649232568454, 0.0631563856780087, -0.2840601550484532, -0.7411013427416724, -0.06921199376261682, 0.4413142504484898, -0.6985040525014837, -0.29218270810563507, -0.5093407461720414, -0.6825324422746336, 0.3233206637254789, -0.021051289466814768, -0.1046202978643481, -0.27144454418871816, -0.35983561694243227, -0.3985315932949914, -0.16866772097429156, 0.20183820378773476, -0.3378087541756471, 0.20735658086125233, -0.13342877742084466, -0.24578054421991938, -0.036164079303827756, -0.29802019660580764, 0.28147010436077297, -0.7297740030244272, -0.029496249463480326, -0.2534438371346107, -0.22281172132603935, -0.813602273459086, -0.3127843665893131, -0.27286939052310955, -0.37997031299730005, -0.06953803729496451, 0.1639619673728411, -0.20520284300547897, -0.6191979389926533, -0.1910048181970581, 0.2712933257087114, -0.032378299847234886, -0.24119360519092195, 0.19032380610554658, 0.7214199134542996, -0.22118484143151756, 0.11936680825754681, -0.08862688098042713, 0.040765250271679314, 0.05298901940014288, -0.9791623232853167, -0.5880841324746688, -0.03879754039056756, -0.6208042159563846, -0.16339396125322725, -0.15760480804150562, 0.17676435330088774, -0.3724033188824925, 0.04630539256689654, 0.11956618699072742, -0.692020817514357, -0.6706839230323305, -0.21365687000308348, -0.34005814230942516, -0.4216103447823179, -0.28280738605428807, -0.8252098051335532, 0.12956639860403737, -0.0036263044862428796, 0.11487863282372945, -0.043405315100503106, -0.3033087129972394, 0.6055556457384828, -0.06186162058883259, -0.44295878242288206, -0.43143697345885035, 0.3165076311342643, 0.6346517741665191, -0.1626676171384317, 0.12852548741526953, -0.08722205506999771, 0.25531162462805834, -0.12545076760717702, 0.20063479851889596, -0.422696063621674, 0.16645822954357245, 0.2521965353466514, 0.10770792741355276, -0.20865382372573227, -0.17872562119411148, -0.9599763617718902, -0.05104118309448268, -0.13761893426183527, -0.8214096235459672, -0.16121895082153537, 0.6047000142210696, 0.2279639769446242, -0.055215991950280235, 0.4533814262208514, -0.03045269423250606, 0.1670678357043245, 0.456100021390303, -0.38217388287195886, -0.3169506579613337, 0.08077268015438209, 0.029316045402745794, -0.2642599972159409, -0.23079074429057406, -0.11565827625874923, -0.03327149610615279, 0.1540869118621576, -0.036179334297867426, -0.5366787610462904, 0.7461418245311361, 0.02306452746257356, 0.29604463840393636, 0.007915550122406847, -0.45536755342590884, 0.7649210073192021, -0.25079154066070103, -0.45366261150674075, 0.3968336174982017, -0.21033787456517042, 0.018585423031087456, 0.6318578884967903, 0.22548348336993868, 0.4734552428223287, -0.17496846441480984, 0.7029010045029858, -0.16059526294885582, 0.463807917226696, 0.10553758525276864, 0.07002271019719652, 0.23052783535788465, -0.35907311468041003, 0.16744968908645305, -0.44872455755202284, -0.39310672166442157, 0.45703541720019225, -0.13548286727479586, -0.4939811474794521, -0.051495608324477735, 0.15780623865634605, -0.011262805604863575, -0.08112304109124574, 0.32090343384840087, -0.10912760454504673, -0.45107563500515413, 0.31104858587393713, -0.280556494106235, 0.06971568498742067, 0.2276767891311362, 0.5734925702180678, -0.2306614230164285, 0.657097796042997, 0.47819642762459924, -0.00021473733432140173, -0.28140367992100856, 0.7433785214083838, 0.5601370127835733, 0.09722002075752635, -0.3163383271186697, -0.14873346624566477, -0.02900833416468115, 0.17808877383727112, 0.12746202550485236, 0.3283353263850596, -0.200077513959856, -0.2723950568275782, -0.08531093777331024, 0.028214495474692267, -0.24231022623187962, -0.3139466841660333, 0.7297048057512253, -0.08914105504592246, 0.22369789194786405, 0.6978154707447581, 0.17270894795555192, 0.5178229306393667, -0.3594384581902925, -0.1708241245398011, -0.6259668645023764, -0.20223123879793473, 0.4657392263261865, -0.394383886180728, 0.039700543593430095, -0.1729141498935812, -0.12747640178469546, 0.01943546276022226, 0.6418994590961016, -0.4722133342491132, -0.040253320811255336, 0.16309693949245277, 0.23370022252524125, -0.24105138444599192, -0.5898473294749867, 0.836680337179009, -0.46788819819450933, -0.030336327705711184, -0.23116126262640208, 0.32132339848694635, -0.36548439858134096, -0.21827653405729522, -0.11201566362985159, 0.17201965423328436, -0.1142234877853596, 0.20248854281912196, 0.009740850631611201, -0.6590347283099354, -1.1890039342043184, -0.28097409976984244, -0.02522501922206697, -0.2568131601133266, -0.09230869031013297, -0.24522444416819034, -0.5739654158043821, 0.08718872067096296, 0.11064033845726703, -0.24977283870294653, -0.19921168662123795, 0.46450607418231177, -0.14108416941118077, -0.005833826071011904, -0.1866453819848392, 0.10637122958088295, 0.39883001782100136, -0.27705214690849334, 0.2185643097393903, 0.407168182643491, -0.07795599189476633, -0.5544814021526382, -0.5253674240299084, 0.24108442959016382, 0.7320204204528735, 0.25952933653658455, 0.4047136459782135, 0.24217831404197965, -0.18635709879455875, 0.1529727959982111, 0.1017917508574761, 0.4750591898318389, -0.12682258414688416, -0.42120427545425476, -0.2031799245208215, 0.19951271929490527, -0.030951172674366624, -0.33725681473459423, -0.07917824058924165, 0.03509438759692143, 0.07275875115854138, 0.23954055021483842, -0.27298061355952563, 0.37996126043761475, -0.15211321098790825, 0.3773968794818442, 0.11898940109856701, -0.6774099134851407, -0.264582731943373, 0.4546973706546661, -0.08362568415169361, -0.2935507623967966, -0.3263152245534076, -0.06253126372595429, -0.32350886883812224, -0.6773683230128903, -0.03854093788133191, -0.7782165377096818, -0.08565007686560404, 0.48212274192307447, 0.12007333743269527, 0.07773594766471235, 0.0707791455630201, -0.2260912146410628, 0.22715966884637864, -0.34058206715430434, -0.4420205206515978, 0.47280742768987444, 0.09770086241410858, 0.07476947995563833, 0.6615140787989697, 0.12677453720329898, -0.2870695557928741, -0.11148194762092996, -0.22367840396250324, 0.09467233122370104, -0.5952733504824744, -0.1078235997925591, -0.4953877442367747, -0.37507238332652687, -0.29647123890748195, -0.5061039865881204, -0.26595176097674267, 0.013838106971075976, -0.43079415274777094, 0.3496133795702844, -0.22674283551401989, -0.036765436227447865, 0.49845262074612023, 0.17536055169901274, -0.17031136128886434, -0.3866673190408275, -0.028079466679267532, -0.10915106384621347, -0.19383854410997278, 0.12225380855421206, -0.20472627439272886, -0.4618301905393153, 0.293352450342148, -0.17687508082543013, 0.6440861398656583, -0.4006756704610752, -0.15531697596816318, 0.4543093416972931, -0.3991733194504999, -0.13791621369402016, -0.024401943056222397, 0.5644389785744885, -0.3468378734008614, -0.06161633773802252, -0.34983933991381727, -0.5089905708055185, -0.34012052344740906, -0.41774660482423864, -0.27211663276515935, -0.4292460789961318, -0.01137017514089485, 0.726846816229717, -0.11159565675307591, 0.7335298480321003, 0.6594864424024343, 0.17602002659286103, 0.1773703827259016, 0.15560171076982598, -0.34811972468420355, -0.18083638553412296, -0.38922516877879815, 0.2331262172641241, 0.15191313070339516, -0.5012047916289847, -0.186262797724892, 0.22700368778995936, 0.013569667657392367, 0.1548621206371656, -0.42997191966510095, 0.06178633027116665, 0.24748339054025167, -0.4820939908255323, -0.09382883243355256, 0.4942624025689804, -0.4477863724052252, -0.5516806601756682, 0.13984750558142928, -0.06385248081915045, 0.25447008051107606, 0.37780854487052673, 0.5565672668172366, 0.22881764986422853, 0.13937448735284114, -0.05469738382491313, 0.051214310179811366, -0.14686592294381445, 0.08662991359003604, 0.5849221888634001, -0.10953032748639561, -0.29850400894651663, 0.4312502601894031, -0.33198926825107616, 0.1354615892219527, 0.07244231429903183, -0.16350193158564585, -0.17927805890326257, -0.1394792177018952, 0.1966125532740602, -0.3360250369136825, 0.2082133267342215, 0.048522250235142735, -0.2058434523620173, -0.10954284362132549, 0.2866148118193955, 0.012861693904704022, 0.3415656944911077, 0.468558008121767, -0.003909543971180503, 0.4996021284800466, -0.12476300332554559, 0.16122019348299332], [0.24697578757272434, -0.6299278952338184, -0.40986081391232215, 0.20796038621537022, -0.2263434046906239, 0.13153393493334567, -0.16009267733992424, 0.25870423422871197, 0.49823456785919623, 0.000589841268428775, -0.0006831977449497483, -0.534111004955306, -0.10525764943541811, -0.3647619476764255, 0.7535786225490299, 0.4114932389056702, 0.23601073487036917, -0.10217648937998969, -0.49355036724185003, 0.03385641365097464, -0.09641635594243403, -0.3460416860111031, 0.07784000708951516, -0.11121339467146098, -0.3586584160651163, 0.2939984990333458, -0.2736292198711951, 0.6601121064353445, 0.19023934950134577, -0.4161670589949484, 0.021940730655066333, -0.02282732506157653, 0.6990261833081637, 0.2649735029784912, -0.24483074671323704, 0.20004136131695602, 