[[[0.8003790924809654, -0.49131733493506236, 0.03602618431223575, 0.7569908576217006, -0.42024603646651265, -0.22112277020882423, -0.40166742820633244, -0.5518387328376703, 0.28188319314755866, 0.21024958654306808, 0.13949659696433603, -0.43679652478987324, 0.47764191083476953, -0.4030124364306819, 0.10164838560777467, 0.06425137574342547, -0.2737783653452138, -0.2548601537679119, -0.3033531472314844, -0.24238528884578076, -0.29344531446090344, 0.04046471467551351, 0.2947647598931519, -0.8719234264909498, 0.1736872928141735, -0.30471242051896325, 0.3610742426461148, 0.09386896278179625, -0.4080405571573731, -0.3724530833436526, -0.10919548727135273, -0.8004023369841193, -0.17321675990123384, 0.26909183987178176, 0.8433310330307736, -0.17714246007087672, 0.10958015017246192, -0.3321004473232496, 0.34484437019919556, 0.7500852237530614, 0.20674667731036084, -0.5953505206381254, -0.021378132588660673, 0.4380466371065845, -0.052474434764899706, -0.2869287641075027, 0.028921901233632558, 0.6191537492699537, -0.20744074893692288, 0.44259364759442804, -0.2498761689706061, -0.21042116620530793, -0.08357878809763604, -0.17777409461515545, 0.008884619957932525, -0.07931170878342064, -0.24696598947643117, -0.06758369839913579, -0.08096764446697682, -0.5394484109686403, -0.138757384464182, -0.11428811657203891, 0.2623593242639089, -0.07712628856290887, 0.36769809634391354, 0.2346307512290229, 0.1690690524043494, 0.7164071823954588, 0.1042365631649813, 0.2490055350358177, 0.1298775255705115, -0.15725233001870162, -0.23205520596053011, -0.052391631069286806, 0.38461219087845827, 0.45821821573287846, -0.3406744964070175, -0.25777717516944487, 0.6480179351932399, 0.10751550907712394, -0.6743370826066659, 0.2235598267374018, -0.34143718678793056, 0.8008809531673181, -0.1275159710199836, -0.5041050460923924, -0.28832526723303015, 0.44769792965032573, 0.025858698010825073, -0.22583320613734556, -0.16929820054208145, 0.08878645705324603, 0.2344032243746984, -0.0408546682542551, 0.39318785954912183, 0.15829873350390866, -0.20995523110938083, 0.10909903522828873, -0.32760537066885714, -0.9482176497424291, -0.07563327610553891, 0.32293160919833047, 0.28046135187113735, -0.031641231560105794, 0.29413145846928496, 0.10422346259335548, 0.9292151377557, -0.20785278138737218, -0.05051113698983731, -0.40564865934631866, 0.1776935905703943, -0.33564082770652337, 0.46486179631833996, 0.8270887620169591, 0.28234395458527, -0.23162382131408396, -0.09242510768262618, -0.5925847098415185, -0.2254579664604758, 0.5717318385493633, -0.5929925413597841, -0.05001551149525626, -0.27146103005944044, -0.11484625439376153, 0.5286217700664388, 0.12020776429852917, -0.182659925844334, 0.33035914088837326, -0.41863833558739993, -0.35986103132389935, -0.1619052216294497, -0.2640011986389907, -0.10567823173842752, 0.22779368820296544, -0.6115779988277068, -0.2507255679994916, 0.13968585272211428, -0.12297732341433082, -0.0035859297979923058, 0.019629555613179563, 0.004636765880368598, -0.46228503104160407, 0.2674681106000259, 0.09528556199822136, 0.6754374982080987, -0.1568620018572617, -0.3604664809596691, -0.3463904240989352, 0.25265919288836763, 0.1928420407793556, 0.009994835317724248, -0.1032275699037388, 0.5070765580169919, 0.44312303264415315, 0.6041805288026111, 0.1640093270303298, 0.07923370284852801, 0.5483590771730897, -0.301814334126307, -0.2329154200770987, -0.45175184582277345, -0.43242653731418523, 0.5694573113797683, -0.17617490098695887, -0.5404563221724908, 0.09778618742860971, 0.18237910929219436, -0.08055832660682877, 0.2959376411190591, -0.06924458592258957, -0.5754313961420199, 0.3353654909260247, -0.18607803499134426, 0.1676754726897651, -0.10505642531937423, 0.0877015514217009, 0.1610933453275189, -0.006527526982914559, 0.4324358982418577, 0.24988699594465946, -0.22337255405332032, 0.0030706118571649506, -0.0013250169050928924, 0.12907444189969428, 0.351916517579035, 0.567501733129531, -0.5417155783467169, 0.16500645199726124, -0.05418349519161825, 0.2158136130295863, 0.22945092658295732, 0.09780931453479078, 0.2597013092164465, 0.012939160537800457, 0.04776857325099767, -0.575429104406265, -0.482367629717123, -0.10074035588292275, -0.16972719265334146, 0.00509308742006907, 0.2359127700546304, -0.24274733749081628, 0.16727176677149241, 0.49680832277738035, -0.17302451840730895, -0.1323436070606792, -0.4697774062529725, -0.003561736042407912, -0.2658838557955143, -0.01781469599277336, -0.41696085103381375, -0.28718979721039095, 0.1296322462291361, -0.18848387694122737, 0.5792004215136342, -0.17473214543229126, -0.22480178730302783, -0.08613581553649247, -0.013242344547748605, -0.1332989535228932, 0.25569894330923026, -0.2612589151714372, -0.6706473918726651, -0.1772983227853846, -0.05668972237240988, -0.19118331383964698, -0.24570448989906202, 0.04735535409161895, -0.61443587233493, -0.2069634901151386, 0.1789144031536485, 0.30236855050997274, -0.41900251467407057, -0.4936163338968107, 0.17134881260930718, 0.35750673843174496, 0.5300406390236959, 0.21779798653304225, -0.13020277068627564, -0.32166139605063504, -0.025728307010188287, -0.19861859034782578, 0.08768207675947025, -0.38827329667173477, 0.3992864532473417, 1.0277407030499062, 0.8906507867370489, -0.3432230410857646, 0.2096135188394203, 0.18899841520459076, -0.2601198107229825, 0.4607302481434517, 0.40115874348361685, 0.19647154271374445, -0.022934829456577495, 0.6312990123020834, -0.3529983701095548, -0.7771272947095883, -0.1089236097026884, 0.13234525146810255, -0.4520226349799843, -0.13822630270913094, 0.030784445972668974, 0.02066351092920803, -0.05332187149038203, -0.2877171536767345, 0.12955039914751187, -0.1851708823114463, 0.9513109005707733, -0.4938546681125382, -9.636813080670514e-05, 0.34251654047599833, -0.3833624083863901, -0.2604008679943673, 0.3419924040770163, 0.18890282463140207, 0.3666752980560479, 0.0646492428279528, 0.33134813058276497, -0.18161688349315014, -0.03950436180583406, 0.014358384881423544, 0.1688716311479273, 0.4581699694627581, 0.18259020108727259, 0.38872566207900905, -0.3418640945019916, -0.32865216746475195, -0.712870984351528, -0.3543651035588959, 0.5043158318153489, 0.13617554564003523, -0.14519087640906395, 0.41412774859039325, -0.1862660045522946, -0.15249318392285902, 0.6715112155506132, 0.2873791970339445, -0.4756753240168794, -0.0612845598782827, 0.17530942207860198, 0.7515595737849446, -0.3414507684397228, 0.00943323487395731, 0.12241634782914493, 0.6207797507442756, -0.35671875032389355, 0.1507479576567629, -0.4509048840312228, -0.19337482564100264, 0.2618498804273627, 0.11774360936223269, 0.9594413035559745, 0.2770854685358444, 0.09489124017216162, 0.45089215403436145, 0.018151155845032296, 0.0891680991331282, 0.04753656249886676, -0.14065431206429455, -0.4813409962293919, 0.6012650769462605, 0.6340201530163279, -0.45690791653096985, 0.3711987553441289, 0.44018776908240204, 0.025532082833337317, -0.347237499724467, 0.24217402080953368, 0.44441834959736887, 0.34597248585353535, -0.2853099342601162, -0.06727013241268334, -0.23499479408134194, -0.23204462572425988, 0.08072719646658962, 0.3989003505074756, -0.39605106383722544, -0.09008911607731286, -0.03130370559449606, -0.23409412051463563, -0.34103276603953, 0.11387159330530905, -0.11849131480366304, 1.2443280360945685, -0.22284058576629878, -0.03862108240281491, -0.02380196048929154, 0.4481464400117453, -0.07001361577781952, -0.5030406957842765, -0.1998432583659957, -0.0519186943828359, -0.704801925056733, 0.04678492433170948, -0.4319537530518197, 0.6192089927870041, -0.22970393733583067, -0.2863770989618031, -0.2802033915487131, 0.6112462412810723, 0.241639458862489, 0.20782115777855345, 0.6125401783321414, 0.28570299647533853, 0.1748813968087079, 0.3582277594726037, 0.15351224401962854, 0.12885118706663365, -0.22110857517294716, -0.06287253409197291, 0.07916317307489137, 0.12952819614968716, 0.34940472947683704, 0.26091304975378027, 0.2488513444616922, -0.3004103375766329, -0.01143145710657551, -0.2211559281702856, -0.4792186757958335, 0.23288298501678228, -0.5106103555319687, -0.12818667205635778, 0.24036722036453817, -0.1777359048176272, -0.08886663552918549, -0.0627223519874809, -0.46164431870733386, 0.4898572447190076, 0.19306993608857598, 0.4421866408545273, 0.44244468738116377, -0.21080932719690798, 0.32176506957782713, 0.39158616995755907, -0.6965271381847039, 0.12059298573420958, 0.48609706229324484, 0.03886889254200127, -0.32558947357609713, -0.13002602108499026, 0.7751352102186859, -0.4107303596208491, 0.01466216427461373, -0.1856120371389091, 0.48275746173264916, 0.26432844556869856, -0.20985784856029885, 0.10475483927693209, -0.2861539441986573, 0.5181086967891108, 0.6133303479878344, -0.41817625583268914, 0.16767969419918022, 0.02300738407172728, -0.20957499296801443, -0.1060963931995366, -0.30121428728795424, -0.12635755482288086, 0.2732402896503475, -0.17515709224485376, -0.25085054657031153, 0.009384038918374906, -0.20235371591493756, 0.5606613964757369, -0.1074146836224297, 0.4697895045127745, 0.36615366447409425, 0.004062369882251582, -0.4828141667835702, -0.5197899546451488, -0.17116703722603624, -0.6054913938773558, -0.1261600661884128, 0.35031608048856194, 0.038468399328056305, -0.3151479134715561, -0.217547641302702, 0.20472218575800677, 0.15777582011558705, 0.170117819347589, -0.08193425862621079, 0.21230721638888264, 0.565157783127422, 0.09285960017285011, 0.26391559596604935, -0.18628403852191883, -0.05722198320091913, 0.2823142614731168, -0.49908037734018096, -0.05113719190242009, -0.43632036058435514, 0.10714792950562135, -0.24224188094270707, -0.2559868392662792, 0.09102341561807972, 0.3159992252304532, 0.25231650175881265, 0.014907410619516984, -0.2360855017545585, 0.27698838262006803, -0.61953530113242, -0.5478017528732089, 0.2165695563771277, 0.24407592262949798, 0.3637187815169647, 0.7288441355133854, -0.7309045804195973, -0.2906972247558741, -0.3778141212697434, 0.3263130653234164, 0.05156638925592907, 0.28511344046054765, -0.07702195777567128, -0.4933035058230224, 0.39229683155463285, 0.16748693572432966, 0.23373698505543317, 0.010739613309206229, 0.8368633628255397, 0.39022878826878227, -0.1307987608759304, 0.0835540212609799, -0.021958138598013675, -0.1057679890121697, -0.52286176247068, -0.047149120810790264, -0.21148475828607186, 0.019378287239328305, -0.24085530622114662, 0.19953711591152018, 0.011680236917759221, -0.15925008522636497, 0.10641251511600872, 0.49594183326646407, 0.17453502571527496, -0.1574692048325101, -0.4742238863418463, -0.13771154414178208, 0.1403176508557374, -0.27653150909358676, -0.06807025270801993, -0.1971019823734464, 0.1497250718029417, 0.25401953485700934, -0.046530604943449336, 0.14176083997846234, -0.29845703886076336, -0.23971248613390972, 0.2560632258974091, -0.21050119600055403, 0.15964712957424573, 0.4313433687472815, -0.3471185030013939, -0.3916636814821724, 0.005912711313078952, 0.13820403376574447, -0.22036019062894227, 0.5112175374536135, -0.362699758933532, -1.2400644692739313, 0.14222777259148559, 0.19769519878572464, -0.2969648869614492, -0.4878596513145443, 0.7037690980906751, -0.3351641435129366, -0.3622806862550798, 0.3412778848833352, 0.2429504484015675, -0.29812854794702526, 0.21857499620977083, -0.3703668896744773, 0.4982011247963122, 0.7139479471379025, 0.1154693684424304, -0.3663446188642825, 0.15573454447467974, 0.201755125769488, 0.25897081866189164, -0.1083546123860645, -0.6841392536073899, 0.22204414374466602, -0.5360985669984839, 0.02130587975956959, -0.2535466049279812, -0.04312434346315599, 0.130648240929067, 0.17286072780243691, 0.09896218271291819, -0.3308949291755016, 0.08790892243134196, -0.2321460346214445, 0.33622747304474193, -0.07553122173960877, 0.14829928849622534, 0.516548784968898, -0.1861417724947731, -0.05369234035975981, -0.061341083348132264, 0.570852195602553, -0.0027235332141801122, 0.25501065162653036, 0.2582936543515179, -0.057460755163371874, -0.31079795368520446, -0.06143792059389547, -0.13434560078370852, -0.3169649892495651, 0.332768477863634, 0.26276710499765144, 0.634630855865078, 0.17114466838204503, -0.3122704507883811, -0.05478856657277745, -0.1202579923290711, -0.10706068419922518, 0.09129612238619761, 0.0012425198155255578, 0.48909866514289646, 0.25904654442515646, 0.08303447113630533, -0.3475364309513856, 0.417635907282235, 0.32178209561736043, 0.12517967498549784, -0.5548966745505214, 0.3282678802765745, -0.5821731166100724, -0.005584596654295765, -0.2083178151115991, -0.16692183360741022, 0.4095779314061178, 0.04221499126436662, 0.020487066922077, 0.12802995931476965, 0.1471921806173836, 0.20445654537515964, -0.09646219966418891, 0.07129596419670753, -0.06190098108462059, 0.03160574399121291, 0.015152840582564128, -0.04472680470285618, -0.12180009320600244, -0.3317220995780278, -0.29771972951931747, -0.5142614938661425, -0.39196007853610615, 0.409022331730617, 0.2790960446084077, 0.07742116212557597, 0.24216559460368312, 0.20901017296298224, -0.6076341844715191, -0.6269704839937643, -0.7007049157587595, 0.22939592412919155, -0.07080392355164282, 0.17097084116971342, -0.14971292521828136, 0.18755494360702038, 0.18435724695239142, -0.19496269199787736, -0.019155896278350105, -0.08409653758747254, 0.6450024067123096, -0.39378673323522245, -0.4084381119974621, 0.22043508862085925, 0.24265194850927008, -0.10319499363902034, 0.1554703846414935, 0.0730809857982566, 0.08704215096870302, -0.26901893711705505, 0.49100561610738774, 0.28326564231464313, -0.3671693278029855, -0.03912918421401481, -0.1913129323968633, 0.554488855992109, -0.3381656519774904, -0.3989139489093872, 0.20972295246039052, -0.7141375212182908, -0.41071670808623983, -0.14196280417360016, -0.7608305832239729, 0.013995447479953571, 0.4562060638480344, 0.07190163679043336, 0.12541721920019785, -0.16944776195372918, -0.17022681555062535, -0.5840044611119627, -0.08581095818771793, -0.9744793538284015, -0.01461950584414585, -0.17766017926034566, -0.04000216807548996, -0.3098933130378199, 0.04764589243940027, 0.6115621289841328, 0.4592002907857325, -0.04247333458546605, -0.06084948589457452, 0.7528222577971538, -0.04349255276823934, -0.14422525244374942, 0.8276049493394817, 0.0834584295059386, -0.7422293483558451, 0.6072282811326287, 0.7918344526868154, 0.25982098724711816, 0.21423227145572848, 0.2448142336132599, -0.14688873944461872, 0.4082204796829197, -0.15710984375316017, -0.12612479661253198, 0.7255447576628519, -0.27986190882407014, 0.18653219565648302, -0.04692516172062485, -0.04986059588103154, -0.6468410846804414, -0.3545828058168071, 0.17370258418820222, 0.4409173118760487, 0.2669113240499695, -0.36547977601509946, -0.5339751885682779, 0.4425748527718312, 0.6448299336787827, 0.18447607410994188, -0.10215837642825444, -0.005148299073109608, 0.11790299606953843, -0.05219100016058726, -0.3421805263053754, -0.23657270488094448, 0.11992907387018562, 0.20676718181505993, 0.04063741962355691, -0.5192994347619853, -0.28845392211688403, 0.12174073795821465, 0.0001245883894237354, -0.573814163890659, -0.5111245593175828, 0.35379241744172707, -0.1796847528337379, -0.040299717621631426, 0.13837656336802742, -0.37074296262817663, -0.7939763653367122, -0.3752253201671224, -0.6594772927009208, -0.5533140130903004, -0.49676896226095524, 0.6019834189153683, 0.17466388963146215, 0.05218527731315085, -0.43006975664102176, 0.34174125490867563, -0.2366401396964176, -0.2090967366733392, 0.1417897919688044, 0.21737770453782226, 0.0868851920482514, -0.06687902441088799, -0.06525952324547435, 0.39859554142937254, -0.2688280561964425, 0.3261921087377826, -0.06863053881140879, -0.16392522361338807, 0.4839783255579039, 0.486307580773602, -0.09989797535909191, 0.24396638899645645, -0.11517012673438579, 0.18099806738548196, -0.041310583916509755, -0.08362467930176752, -0.27764542559686856, -0.37637155488068674, 0.036358453812618076, -0.11983002892968038, -0.14090383748158655, 0.22842627868829674, 0.7108231554630295, -0.27472899515095767, 0.1408945622500365, 0.3340315529767308, 0.005997751637148542, 0.1318573947148061, -0.2985721972051435, 0.22322692638344235, -0.11995396604372173, -0.15234157906002777, 0.1353028937804655, 0.281636573375186, 0.08729075396731789, -0.12444503719600912, 0.25173395105269963, -0.41058268226251304, 0.23759545977118277, 0.3749204988962388, -0.04733637167206573, 0.10118950223431125, -0.1444261493135067, 0.23786153482851968, 0.15290489059880322, 0.35287503930400926, -0.2502077604990706, -0.023291244832255288, -0.05657896477928704, 0.9779433423873423, 0.6994772839029526, -0.26124193574241905, -0.3173295237246063], [0.12051001009083777, -0.4696089750346766, 0.5413060666806344, 0.061231849009770786, 0.2885297617021288, 0.01220967883996785, 0.17689326128719068, -0.04928427991231038, 0.17388358998873796, 0.11728955095730219, 0.046410830041441115, 0.6548457137574312, 0.08790722565409836, -0.32437088724407087, -0.1923356410835052, -0.32560850750806086, 0.09245711859434928, -0.15931380935942588, -0.6302087738527388, 0.24036205373795935, 0.7640226443422857, 0.41032229702682893, 0.7000359335076874, -0.35406355334868217, -0.07588681474606727, -0.02951272271172021, 0.41536165486278037, -0.48095752192002345, 0.06500986026293334, -0.2727507401827625, 0.48934210371325687, 0.21494351309530996, -0.15322345806948953, -0.48367010492912615, 0.2743717780180106, -0.54206396255603, -0.6627922601992996, 0.29967687898772166, 0.08786680248159424, 0.6023164965629371, -0.13251342491136267, 0.19207461912835247, -0.03462611514817764, -0.2878237694542937, 0.2552685655083386, 0.09640438116762229, 0.17199926198130425, 0.43193244809505543, -0.0915989288823652, -0.1563084524652023, -0.1827436559985133, 0.13456697632336978, 0.1908787715542982, -0.1621904816427706, -0.4704973803576149, 0.14056113295364486, -0.0659142600032159, -0.037724736430548, -0.18604330184706175, 0.22636197464385113, 0.31762120062624843, 0.13460561473921856, 0.1959132006559531, 0.28757892403196084, -0.14543233471965558, -0.6334943279803867, 0.2111823326093466, -0.4714021451032064, 0.34287236013976685, 0.25428871278732074, -0.4407205395412841, -0.26603064325025916, 0.02123208963985076, -0.3510820388400165, 0.2084029931522038, 0.2199496660408946, -0.6658607497395214, 0.2564580692243085, -0.08089048512095323, -0.7107835954885048, 0.29129658266370556, -0.2780918804665678, -0.06297173990149503, 0.11233235579720356, -0.687055306587112, -0.32158023912661815, -0.10239401293478044, -0.1843880571516693, -0.1881411689443306, 0.033042241059284425, 0.11481348431008569, 0.27402904852625454, 0.5800185150986179, -0.06508334554470271, -0.13457227963390203, 0.3781229752593045, 0.3502018034697617, 0.09668032212013052, -0.8814681920133911, -0.4460225245369785, -0.22320646829185772, -0.20320452919830603, 0.26356875506070354, -0.11615411610465898, 0.26333387609264675, 0.03357981628216108, 0.17835808773576836, -0.1278918014128856, 0.14003631600816427, -0.1630651588551094, 0.9199794406550669, -0.5347046585926759, 0.24357541736155003, 0.006276318558156799, 0.14259625694794592, 0.154644245032357, 0.7792375021062806, -0.42448446687161767, 0.3323427134151833, 0.2078436744954081, -0.1720901864147831, -0.42493708072133923, -0.5021446133121691, -0.019175391942796684, -0.061356569452094584, 0.07689909441808103, -0.25636640995041954, 0.6660250266391792, -0.3578567645695108, 0.04731254503516093, -0.05504166948951925, 0.2941751783761358, -0.14295817739711977, 0.12444459670648264, 0.0430964999169672, -0.6922507538092785, 0.16303413722558835, -0.023174845319435193, -0.13093723780608824, -0.3173647112102637, 0.4050053092838211, -0.10792574763900799, -0.060860051941046045, 0.30276860298251124, -0.1191957333651559, -0.3716318243579484, 0.1736767036433318, 0.011561194088343026, -0.30482229866313454, -0.1559884827441021, -0.8550428699594572, 0.11850571386530036, 0.22788164910129566, 0.027811463739250676, 0.10405700277029901, -0.1333133062862329, 0.41967450321076966, -0.025821177070788997, 0.14395592322500445, -0.13179926724423624, -0.3561397794517209, 0.39558816616175607, -0.5771055933611605, -0.37240688312692705, -0.10021892689590786, -0.24698207903406633, 0.3197420651666298, -0.6466439745705469, -0.043231447513533965, -0.03371319490564664, 0.05002263861364777, 0.07855280994732272, 0.2238601631961145, 0.6290828029593997, -0.20912629895635867, -0.30564285315103595, 0.6141650271232899, 0.27049734695330196, -0.20939126946186334, 0.09626016244872015, 0.20265608955400574, -0.20610774250943353, 0.4455423571147252, 0.37131385844340764, -0.36574361500327013, -0.1657569896012565, 0.06584662482223748, -0.18210882656467328, 0.09746716142178224, -0.4082969779000164, 0.47403855953126967, -0.23067637872233035, 0.3066701749090434, -0.10157791591448581, -0.01436417222892475, -0.1256123881173365, 0.33140992923207524, -0.28333064870915675, 0.4071075111991015, -0.18391661953930705, 0.22224434903828216, 0.01697703936046972, -0.17820293298605133, 0.09417236797033154, -0.5191444882258026, 0.42067293343214157, 0.6312956177554321, -0.0370368895759131, 0.011993004493811, -0.4342943632899971, 0.10397136169786468, -0.04353331003928126, 0.2382328105429806, -0.33431725356799347, 0.18109387525157467, 0.7687431802190369, 0.03868196232070287, 0.23387029326533204, 0.40930645106922786, 0.20673720415269348, -0.3330941196141098, 0.3345871063223008, 0.18172803386881542, -0.4243965874058447, -0.0532740322604003, -0.20128988789526756, 0.3259840019070083, -0.1949042218483016, 0.43406947273349916, 0.5902336601265987, -0.16686443886734773, -0.26149889705391133, -0.15385491329675974, 0.22979985305449155, -0.533633717500434, 0.03118982150740369, 0.06123156714836303, -0.11307354051726595, -0.1564998650863063, -0.09461077518364909, 0.1273149778259185, 0.16730515181844738, -0.33995274557894634, 0.45886938601053795, 0.11287789434778922, -0.1102242654617885, -0.33344170636698817, 0.03910675492743186, 0.11203059825680002, -0.2884859920100193, -0.318027617153391, -0.1782238343735334, -0.3304419243491787, 0.4449755028949436, 0.04190283020378051, 0.01989898142099989, -0.07764103161320593, -0.42090036325242236, 0.23051798066968415, -0.2999950695044149, 0.31584906352128267, -0.3954999676267623, 0.11124098299895735, 0.17254452220904531, -0.8927423123732149, -0.10806945608072466, -0.9886884157447559, 0.6788172835757039, 0.749120150607094, 0.1197515516244859, -0.18945771734367645, 0.5474955575074408, 0.9884475730017701, -0.25933812956590546, 0.5404447532744882, 0.4265231322313608, -0.42249586110246345, 0.11689939502243034, -0.2859378772978699, -0.5616107876449402, -0.0861175500306942, -0.0007874479999332518, -1.1204381970018158, -0.09481664183629346, 0.405737185915007, 0.35666844639365414, 0.03814497220480528, -0.07661069788117408, -0.02356483080922025, -0.08523908436407958, -0.46478088064131867, -0.6481573895946562, -0.8515278234780351, -0.890059167991074, 0.1678857769810394, -0.08849712925053405, -0.052457402096723886, 0.2830864184923731, -0.06046139650179642, -0.1312784965346494, -0.20858513309037782, 0.33281945867854484, 0.017142029469586918, 0.12760277832555447, -0.5597135192679903, 0.1479724005671098, -0.06940519281000576, -0.43673445052336346, 0.07527724535846991, -0.6137974141891349, 0.47116462132386855, -0.07539986351677719, 0.2603095821842463, -0.2880379469225914, -0.6108495601009554, -0.1764715948901269, -0.27792667879726857, 0.3285201174393461, 0.2850954187481191, 0.11437186418235927, -0.0859638348316792, 0.1313310665430421, 0.08591160597187203, 0.17758167136432246, -0.0591822117749404, -0.18486211977796468, 0.4908638750542467, 0.2893117935880565, 0.5389162343878782, -0.483862086687501, -0.5078265862982602, -0.26157717833829847, 0.28734644103897405, -0.1269038680829668, 0.48796108921586095, 0.41853244528220307, 0.3133538195077699, 0.7476684675437217, 0.7535897044328189, -0.18702869607588596, -0.7195420077558817, -0.05551757227244217, -0.666807893855601, -0.3066874957399506, 0.18325140323462216, 0.010586366675441142, -0.22079985084667883, -0.391440255658859, -0.7466069290655258, 0.9412466289361938, 0.7012627766756292, 0.3538550079820694, 0.0024409193707670704, 0.279832045034949, 0.17020101387551595, -0.2437929597698251, 0.45635158584320795, 0.223147697788914, -0.028343144337220703, -0.7624853909643236, 0.4418999844636604, -0.6287554099237082, 0.4031013820021657, 0.5778886467926655, -0.2954110035591035, 0.2579140453852673, 0.49079262485931535, -0.15034588094680662, -0.42634729277310196, 0.7901444855733354, 0.137011546671233, -0.41222058885156393, 0.055191917016917245, 0.14105060366275893, -0.12855153365431443, 0.24872742402294376, 0.0494253033687878, -0.5110672076051532, -0.6027204887253558, -0.06189081444271049, -0.5931990970375822, 0.08461533252484925, 0.6315776104322969, -0.1525886501103687, 0.5983125352693265, -0.49614554583550874, 0.11532673539754099, 0.23815993379693523, 0.31123149461529914, -0.1871910621568456, -0.8410199823424993, -0.12467497838446974, -0.1211527454949458, 0.11074720024151832, 0.25712134506946616, 0.13797520349971362, -0.476393489405203, -0.49761453111698994, -0.01540426774039926, 0.32884563183929016, -0.15648849257958095, -0.19581678130498817, -0.20054923171680175, -0.16611554778420012, 0.10907495349824976, 0.16957531126825162, 0.43302040320899354, -0.01844447443188811, 0.2579722899196762, 0.5466064732095056, 0.2360092426949926, -0.014802418386362088, -0.5318127232516052, -0.29414246802737815, 0.1542370937993914, -0.5639468584255595, 0.35164616552349026, 0.18314367660256403, 0.6235263110228322, -0.5072559582801452, 0.39491127726906705, 0.13026508483951413, -0.07653814549221626, 0.09627145441933031, 0.27760833289777725, 0.2653920106399747, -0.1771767107375289, -0.044590872053911386, 0.452751118311346, 0.42390500736948494, -0.39205354253863145, -0.7869994255024647, -0.021548098319218126, 0.18558110826776608, 0.34616894754051886, 0.054100253665648176, -0.14910927616556768, 0.6645153406366863, -0.05301185126845755, 0.0306601125595216, 0.3854860292237765, 0.432139594921011, -0.2161646959165649, 0.6866869377124147, -0.04512058776472387, -0.3639458966648739, 0.3065252577163239, -0.25945476492754893, -0.10495283821964266, 0.2979992120817772, -0.3405812328249094, 0.11767882905749336, -0.04133052170149043, 0.2154375761956654, 0.20167325475253925, -0.16225962815963857, 0.05958193050538443, 0.5024990167711131, 0.06616177723381939, 0.3329812166567263, -0.9715120372687792, -0.11004446410100341, 0.27221735154393417, 0.3132577136151903, -0.3074611129823703, 0.24672666107440208, 0.27058610224209984, -0.4378072858530734, -0.516920489973849, -0.45881958659361466, -0.1887682291543092, -0.10970155657905675, 0.05953060753248036, -0.27139528577909283, 0.26520205982745587, -0.4288044165201501, -0.40226827503173057, 0.1839482614840695, 0.336739192755462, 0.026544626557207067, 0.3412472075309733, 0.39889228543456695, 0.029669433947711578, -0.09178203619807315, -0.02110094248233351, 0.16240947156627783, -0.8454687456052805, -0.29445506864937193, 0.07100268795553752, -0.05660982542075475, -0.42247168580128797, 0.4443714028575118, -0.003949136930091752, -0.5975333771712069, -0.3147746283509432, -0.3123422593575949, 0.1997654108380297, 0.3168585764441671, -0.5847619539374914, 0.41386644198912687, -0.14047869054177042, -0.5294539566544143, 0.43427661697583686, -0.6803395779068658, -0.02047210126153022, 0.4353794061761454, -0.22979462759621047, 0.07306475329652969, -0.20586633971738016, -0.2379982163838576, 0.18721603047671273, 0.1433960311584919, -0.7706847293302862, 0.12758287690594675, -0.12415848389907122, -0.03505169974267861, 0.27284528791483653, 0.026899464518755103, -0.16441343140017564, -0.33905915336315395, -0.25346532912589315, 0.2978972365228874, -0.08679606806896546, 0.35488657266672846, 0.12546164961699263, 0.39407800640641005, -0.45124513002677624, -0.08400199200318238, 0.13922294499415944, 0.096841363857582, -0.2679067316200167, 0.42293358060928316, -0.34862996428207327, 0.5870990188426275, -0.025479447869330624, 0.09448627800304563, -0.014607055213494166, 0.26853250642013693, 0.07733077326953415, -0.5257570069684521, -0.307345536846256, -0.5113431356559539, -0.7018696366537698, -0.6689495448077918, 0.08240656356458463, -1.1021176752384532, -0.10421805631347865, -0.7868827966687982, -0.07171079770077841, 0.07563062803431232, -0.11779505045208996, 0.38013971023997334, 0.12132928719547263, 0.21474928024062123, 0.14550121362804147, -0.2177228006655581, 0.012897544895514047, 0.39389398240760404, 0.21403174811569398, -0.5143551979018988, -0.6869391686455711, 0.3043020924991098, -0.03394856762244487, -0.43568810489548515, 0.1881287921700455, 0.22225340660648202, -0.07437760637199246, 0.008357454441812918, -0.27042682260736245, 0.37387234666846725, -0.6077491305030955, -0.22222935447543532, -0.36076076511225913, 0.6593603309421164, 0.13878061378951728, 0.22272017591110702, 0.2602195799112879, 0.1382916849979577, -0.009087471674272382, -0.49140910600640647, 0.37760448384594925, -0.37874631556949123, 0.12019953301668303, -0.24809959663415979, -0.1022280354516035, 0.33245925378019153, 0.1884377369120984, 0.15730994491908354, -0.5413065767498816, -0.4497189653649627, -0.03492968079266093, -1.060150266284082, 0.011391492257492662, 0.3639225927165334, 0.014397226567967696, 0.29588732724813066, 0.1264113810513647, 0.6402194026429725, 0.24933208472791205, -0.13457044572765467, -0.17436582411944482, 0.571145893921518, -0.6616074739208974, -0.06745816509473562, 0.35195297519746843, 0.015877059509689286, 0.46849649089767986, -0.2435986722887752, -0.5738499292288876, 0.6460149278586895, -0.06756338730206796, 0.6071880335563883, -0.21711211435727037, -0.1616552987615278, 0.23985254445194645, 0.23136813076108018, -0.06730821836478383, -0.15390851696181718, 0.0454693050321721, 0.7207316644870959, -0.01696013223760751, 0.17236372202370648, 0.19056888675505815, 0.26408752336380914, 0.423548083149289, 0.5288523059708768, 0.16446809582506, 0.07581161346173758, 0.341769554860965, -0.3471267655798095, 0.0873530981521695, 0.33177761017856533, -0.29261829487475816, -0.10819302292795001, -0.5102027083508147, 0.12236317898949772, 0.09930429928356642, 0.5054109101818668, 0.3027040922083253, 0.2830301048552796, -0.36168183065246673, 0.2954478282821002, -0.3022977061508338, 0.16434870139152719, -0.23865198038426913, -0.19771749385008267, 0.4618958835068137, 0.3090204692187628, -0.17085113085720566, -0.5100148917282741, 0.3050335334534579, 0.14331412679655264, 0.03777935914370393, -0.04571343842808574, 0.1764297582868785, -0.07386550181840337, -0.2912803895533206, 0.05356969682464971, -0.4233575675652621, 0.11639775354996884, -0.3435154912697294, -0.06560873545413605, -0.0855367949700488, -0.03712057255294819, 0.23502169945424384, -0.3472046780074395, -0.15586457487614389, -0.37262534043592677, 0.5955138948225219, 0.12074349900804678, -0.44629376012820016, 0.4318839236064092, 0.2437434883093196, -0.3351892328508606, 0.037360661297546845, 0.044522054427549446, 0.7029892685455281, 0.493053972833867, 0.4589007609191336, 0.3487720756742833, 0.1815166283869191, 0.2793221736493419, -0.25065525905385594, 0.598942763417512, -0.33928628783126796, 0.06643046062606708, 0.02478693145336457, 0.07309627385379325, -0.04176561992669879, 0.09314473393470395, -0.3932244288678715, 0.034033176212033514, 0.2528367841081166, 0.17817131341621498, 0.6602799228334421, 0.5536215733607276, 0.08909108378667013, -0.05483476358961207, -0.12873681248652988, -0.011318652668300917, 0.14519884483518325, -0.5451509390649315, -0.1207986910268883, 0.05192486289693782, -0.41458938748122215, 0.5577870162968127, 0.15146303513237377, 0.7464144391240926, -0.05111743628150377, 0.09708183103548937, -0.3597765162308257, 0.5873687102437836, -0.3401698294863052, 0.3490508062037459, 0.15203490792125077, 0.051679482489244546, -0.6492535945131743, -0.22596409784395344, -0.3161317805636021, -0.18554135035997674, -0.44142445649215234, -0.19485366418251726, 0.30430013560571634, -0.5343316515267995, -0.17751340212108524, -0.06824532256348924, -0.4811933707720102, 0.3297884238130511, -0.3957281306651182, -0.217544562193775, -0.03421648210201366, 0.7588051792052565, 0.4165052882244798, -0.15951266108792933, 0.006121293934498042, 0.1386505465262478, -0.29545468988940093, 0.6056898519821882, -0.33111234213101454, 0.22907810254426425, -0.8578737155023508, -0.20127137794133207, -0.05447715167937809, 0.008213221931872109, 0.764671914287514, -0.3028844035422741, 0.3855042240641203, -0.44760343386455786, 0.25260659704256405, -0.01134628127435075, -0.32167187994548263, -0.423336440520969, -0.025459202258613974, 0.6058728106124677, 0.4047452396819807, 0.015938610952032573, 0.2104117189162801, 0.3145989516372199, 0.24176644740151146, -0.7317345669148905, -0.14067880328724316, 0.295813293833823, -0.3286301395385835, -0.2970238664500946, 0.08445411624104746, -0.34276386597088276, -0.3909336677629976, 0.9453092250489848, 0.12091857168149091, -0.12623110818293196, 0.6493039921752866, 0.21267395899859398, 0.48633735481686197, 0.5263346314820011, -0.4314084910154711, 0.3680301196669359, -0.01338749064788241, 0.4637781828876264, -0.4753911190460659, -0.3778616572788534, 0.04772813091297534, -0.2774786038648206, 0.372298162312562, -0.3312803132041897], [0.15253166353391748, -0.003332732615347204, 0.4794172414786799, -0.488089162055865, -0.014757467718801617, 0.0769518323511664, -1.0244428841332107, 0.18853415022636344, 0.45278818243837793, -0.32232283332088596, -0.21010890721655157, -0.3640925721352025, -0.7053547537294627, 0.866404765279353, 0.38775766681207374, 0.1358093107315971, -0.14284511825608076, 0.03464443467376936, 0.4157820952117966, -0.5106210695569006, -0.25379744427836615, 0.36608620389590457, -0.1673232746362539, 0.16766957921294728, -0.3677538075591757, -0.6157621355006713, 0.5541662193716311, -0.08972992786806876, 0.44312423555910274, 0.058490548939669304, 0.13820648129476223, 0.03469931183533068, -0.08741965095730224, -0.060849478387186684, -0.42815483416773875, -0.7556024264833585, 0.5568753032850661, 0.07861685155709147, -0.3169208329404463, 0.36894019560224933, -0.5457281032636546, 0.2152144266814713, 0.2990905303080846, -0.6859900456021937, -0.57717553446427, 0.27341065899235356, -0.33634237571378556, 0.9908790460145309, -0.266043105763772, -0.2538659316590601, 0.33636933496968535, 0.2531359422861932, -0.2231658283220228, 0.08687842521071967, 0.09376654417877951, 0.26165576571816057, 0.3392033956122297, -0.41102239614618324, 0.01396837920210784, -0.4299193652486061, 0.34488101317455017, 0.0172361780449119, -0.46458274077110656, -0.534435137893457, -0.09049604240950969, -0.1362727332134839, -0.1699819942395417, 0.1631730053700893, -0.034341370109068764, 0.24867275274092265, 0.3639177082762934, -0.15603772782810324, -0.3859984841189452, 0.4361638727250446, -0.28842080597749525, 0.04322708848519863, 0.005510006070831819, -0.0989434539581047, -0.7051814661265106, -0.1055122695148091, 0.3884881944084691, -0.28470191520336624, 0.07474786912153629, -0.11388309425991083, 0.12492963392236078, 0.4248427815347958, -0.564726700689185, -0.3792631204819075, 0.31091620099976064, -0.2022957475741896, 0.29863024174276687, -0.23717742615017295, 0.13293069105709018, 0.5496100216370046, -0.04876265569984854, -0.19133823375200923, 0.23976882228808588, 0.6576151980733819, 0.20270946570623688, 0.16582178850232776, -0.22733951810593667, 0.5901191205723886, 0.002839930006630016, -0.21513521528632013, 0.30740143156925925, 0.03736322334466631, -0.5968031396326687, 0.8483596780355537, 0.03643189119141755, 0.2493797118153164, -0.33508153804251045, 0.7006300930897098, 0.07368490047505309, -0.28350256989738376, 0.016498856318477053, -0.15073460498937308, -0.3788703464721739, -0.10627539707314113, 0.03637831551542212, 0.31160444456190495, 0.2022383175467892, -0.4237983210164708, -0.20794812671700486, -0.12386667049782839, 0.16921543061687877, 0.22214501782848925, 0.09975217569693182, -0.2928618004786063, -0.09708582159943002, 0.8322756046016669, 0.07865245520757405, 0.0948556551279197, -0.44278100247922686, 0.12481648003541954, 0.28889859914909444, 0.5297090927451088, 0.24010262755049416, -0.09208800328674561, -0.546135252476333, -0.5152317492442227, -0.1414513006580778, 0.2030705501095368, -0.3869158926071004, 0.1650192108529237, -0.3221679393808625, 0.15833625570586457, 0.20331313814207316, -0.4605875349247467, 0.5545837375501877, -0.15189742523698907, 0.4937553272741713, -0.2933343601218218, 0.6391653933971361, -0.15175188802741782, -0.1789071408474632, -0.020374819282993843, 0.6645022192933302, 0.3985214732712606, -0.5969535224410613, -0.26887936501580995, -0.2607684612100011, 0.7002222745496074, 0.24166656360259522, 0.1403062729554265, 0.03710015502383074, 0.27953221147551804, -0.473018133250559, 0.16160615668874836, -0.0009305892508747796, -0.30369219357037097, 0.1185081695361203, 0.31945299450035836, -0.022172226097724675, 1.110783506928154, 0.29454555569384017, 0.32550658833461393, -0.30446029293809995, -0.008186448662427792, 0.24961921117104383, 0.3274306099136972, 0.4206989693719392, 0.24430562723638566, -0.30329296192726873, 0.23823195685650303, -0.2649958268858256, -0.2089625217834042, 0.23882962502957067, -0.30789783335672016, -0.15168184082846922, 0.1712576055629269, 0.08546952672663671, -0.607474281995461, -0.6413218143054196, -0.3373492520124529, 0.5334483523384299, -0.09549978504892372, -0.047594613015963905, 0.3077235622625625, 0.13500009602988813, -0.7425020704065596, 0.1507959844361349, 0.6586710254109984, 0.32680448067131634, -0.13338533707955877, -0.10385502710073857, -0.05916161095457257, -0.19394160078785846, 0.864388624603176, 0.6358649772423796, 0.19917021947233, 0.22138360720262296, -0.018179860783300198, 0.03951490288039587, 0.3384988458943678, 0.35853780308454847, 0.016523664735656255, -0.2807759622067728, -0.6196600478056413, -0.3992076205931663, 0.5336987569489715, 0.15105414798469707, 0.34682582736924505, -0.5865229358575603, 0.28759200150296477, 0.577257597652897, -0.00026485850330420656, -0.36258681535815057, -0.05242243936565895, 0.6369333453897328, -0.11983395582660172, 0.0398178118043872, 0.27732748339333224, -0.04864084977550232, 0.07983523877285302, 0.23776767676586577, 0.3298887263194502, 0.1465665783533696, -0.14324865387037633, 0.5256758192577788, 0.21400576305985472, -0.07032511592420046, 0.29224968670997264, -0.13076375457453776, 0.28608926728657225, 0.18064030550809626, -0.05718192719217572, 0.2930415226513187, -0.20732342218428335, 0.044539054633980266, -0.19516615494329706, 0.7434499899647027, 0.1985168581849588, 0.3563885791934284, 0.18849908731472087, -0.19177866593545176, 0.360326462575819, 0.08267056434515441, -0.4428475520790795, 0.4744981998358933, 0.4307153351231476, -0.12225287254416047, 0.35392753488767914, 0.038728235472326705, 0.4219005027138514, -0.016868854777070126, 0.05695305188704795, 0.6233412270124391, 0.29201079157053567, 0.3623094635421653, 0.07186367974885133, -0.4660203722171702, 0.26538523029569044, -0.08946651031780053, -0.10139467894128915, -0.09303998708028575, -0.608710652121195, -0.3991400164895463, 0.2228511192021805, -0.1570004446647138, -0.16969679027745585, 0.22115307906064138, -0.19793627054250074, 0.25932701134458114, -0.22424309487746094, 0.20608499336261699, 0.15793055804022452, 0.0008820640591561367, 0.026378046385357314, 0.44001853888391695, -0.45275299082966036, -0.29243369723196194, -0.4453795041551843, -0.5131279134285963, -0.6625398797579242, 0.2974523892673939, 0.16864630344526244, 0.10748410019597261, 0.618385653081108, 0.1582714224643819, 0.2215812350089736, -0.1973305819188062, 0.2856622665670653, 0.3582485639979985, -0.11114535626527451, -0.4969052779705433, -0.13534829408178772, -0.23545214167142506, -0.2088823076901412, -0.7434115982676417, 0.022622820386919006, 0.19618418894250197, -0.540777629784344, -0.031016480904179095, -0.7063880860714755, -0.3761120422129495, -0.1259185128991967, -0.5571229460781951, -0.6378789677875496, 0.06235225749402405, 0.14343027261887328, 0.015939695638973513, -0.6893814571505664, -0.1614349655240151, 0.17028557030034752, 0.7219127281361709, 0.004367578361957779, -0.29703172307279085, -0.004372047673544398, 0.02370731503331297, 0.31123967059836244, -0.3944861115327949, -0.08698191034233356, -0.36865929338140835, -0.33600031433655564, 0.05948794923479673, -0.04031368839724017, 0.27357960019305216, -0.055827749258285694, 0.04163675204825857, 0.2782233703551452, -0.5813456813197172, 0.28511843998814923, -0.32320915154973895, -1.148403965112427, -0.1090213560367675, -0.43520931337670027, -0.33014224857522634, -0.055636815702246746, -0.6288329295314872, 0.07164293921514436, -0.24407294351560174, 0.2014958600875709, 0.0729268635799427, 0.5516749918404315, 0.17720553560045746, 0.37767682616920845, 0.20957161290115758, 0.5995759394255807, -0.2132072231747844, 0.4736441569168754, -0.25568141151175644, -0.033772058549741926, 0.10399833528790445, 0.46457375344257584, 0.2804080499860083, 0.5788492271761821, -0.2213790751496363, -0.10502805743123121, 0.6980098235545179, -0.5701653201324308, 0.04727185133566241, 0.35620873694284216, -0.07271899976996657, -0.5003129669899521, -0.6871169177891916, -0.3045169175036506, -0.4701655988256682, -0.30584138524744575, 0.17162862145910798, 0.042380469290178545, 0.2260195927084432, -0.04321145601378756, 0.04775611430475734, -0.3166187535357506, 0.004976154069368559, -0.07194835249589818, 0.04326168774998679, -0.5040115985591198, -0.14339051695007787, -0.6446131287266621, 0.027764792188914762, 0.24961007133284752, 0.15647903883979075, -0.10982872139285005, 0.5586794544836132, 0.2465093890987648, 0.1704977466127146, -0.3031334955079484, -0.6970266431424231, -0.5793884618164069, -0.11346943373059395, -0.11348986816209662, -0.31006846391735715, 0.3850750753904108, 0.36644665021572953, 0.11444088870576902, 0.22087325032189994, -0.14816677729607167, 0.3925016123936014, -0.0071880012536009895, -0.36440488044297403, 0.18013571155610153, 0.009516121050045366, 0.03869892471088278, -0.4992722028801608, -0.36772211481782785, -0.2651264746926573, 0.23588495639252577, 0.04038097270102205, 0.13894100397217174, 0.3368869073162687, -0.2746844965656823, -0.019597503081587784, -0.07027606557926969, 0.001979712088618781, -0.1488618766803981, -0.7012313124447709, 0.47931641938078656, -0.6435651273347086, 0.19882176804087953, -0.24595259248330317, -0.06811183884394165, 0.161593770529303, -0.5188898728545724, -0.2792774451449935, -0.2667558761397651, 0.09856113581327905, 0.05601787239466477, 0.32752104583319863, 0.15799186916998312, -0.02858337828445655, 0.22764834207582255, 0.11376593288417977, 0.14156825587849978, -0.2696638631518763, -0.3108654460384068, 0.3441353015661434, 0.5403231695031571, -0.6796980125275921, 0.032558466239433315, -0.9758295675645372, -0.368704784308065, -0.041854159992928325, 0.5387024797867064, 0.37456215036783647, 0.23160495828427025, -0.271200127033088, 0.16044472800072293, -0.1276736070218535, -0.08382046501308822, 0.9992925185916758, 0.37415474176630387, 0.7604562135034991, 0.4877643449473883, -0.23873803565870294, 0.21216276357583222, 0.11496571565785561, -0.32809981867173127, -0.12773504570420602, -0.11322843133183057, -0.4349217852916738, -0.15278452773684287, 0.35865339677929353, -0.563854327473802, -0.012220713785398867, -0.49621127626855294, 0.16943020717574395, 0.02928052870357993, -0.36128177269850204, -0.962666699799412, -0.16147970957930377, -0.08450524302138904, 0.12769779334608217, 0.4397761608383206, 0.38566818609115927, -0.31950209428676674, -0.09627314137172828, -0.45167400083499687, -0.22116720517708607, -0.05638455844561492, 0.6771286789484879, 0.2991536616300564, -0.6320372824531725, -0.5982586741290591, -0.0072938142381006165, 0.16562789143839118, -0.16569886073413514, -0.25850311580604335, 0.34970778285695275, 0.5943698463901564, 0.1520286607102555, 0.319298176149244, -0.38620335207458184, -0.022607883125078127, -0.29615824605548935, 0.7019479377795792, 0.5934698452465179, -0.6361824785118425, 0.5520337856919953, -0.2954104572859516, 0.09274820352855606, -0.3954773501479853, -0.008913132522405361, -0.2788595239510586, 0.20398553628766336, 0.07810501561852284, -0.09554150703823494, -0.7309894932850154, 0.30871849419494674, -0.08463824374914594, 0.0030609289618743502, -0.06806333559969784, 0.2991388122944468, -0.14515129291168427, 0.16710410635076958, 0.20895837291823993, -0.22584062512815192, 0.08150359123486739, -0.09908422772256037, 0.30523523497988486, -0.010667065239612908, 0.28477328261562146, 0.06995487458351864, -0.007564347195900566, 0.0987844204068573, 0.21013613111862575, -0.7889394396803313, 0.2684374691777965, -0.42071066716797595, 0.30512869064176534, -0.41505806285902375, -0.3177782521212539, 0.15186288099085177, 0.011663776243976057, 0.3409597580868894, -0.7687196472286858, -0.008294645924624068, -0.24064636851435445, 0.45601826870097656, 0.2811236867197798, -0.4767108964182332, -0.10918083463647878, 0.13350028275599415, -0.03692057665495912, 0.3870467299063357, -0.05799057889580932, -0.3887145620554644, -0.2205597790282882, 0.19570417489186864, 0.19658610014730682, 0.2636140035076459, 0.4088015150994904, -0.006756564934423412, 0.34529228498347914, 0.3237336482128684, 0.649140989258818, 0.4223529176954446, -0.23585635074434555, 0.5519991970436738, -0.19495131299870683, -0.19216505653863358, 0.0012775855582855288, -0.27344040326458025, 0.4956979607923977, -0.36472857448686063, 0.6282095397595261, -0.04928079004197343, 0.05823762554827178, -0.16017874649871416, -0.04020869574397102, 0.6618896009497716, 0.464657748932752, 0.2889125645512944, 0.0034755689671144346, 0.17263827957273006, -0.7771562156602654, 0.028858088083918296, 0.17496234855489756, -0.08900567109803402, -0.28010929897273534, -0.04637423454669011, -0.23181527885129813, -0.527377941062801, 0.4157595157082099, 0.04970530452413928, 0.38646069308660175, -0.02232360803638826, -0.17505607031626175, -0.14714438942090208, 0.2494120379526167, -0.9130413213305492, 0.6467778281489418, -0.45288769382076355, -0.4981570415389655, -0.23854403137731678, 0.32592259475004653, 0.0008045316916639433, 0.16739879201590938, -0.038887705338419246, 0.21614877251629522, -0.0015560023408399274, 0.2728560030763704, -0.3262683175112668, -0.20217869193713908, 0.6842229499761665, 0.41586757935740326, 0.00809253396171578, -0.20765977595854507, 0.2937153113826641, 0.3282916769432536, 0.9198453171051458, -0.5154865783469534, 0.14491856521832425, -0.280422473809993, 0.05767550533399542, -0.6701652595832062, -0.25265272005561956, -0.1511972605879629, 0.5987674823864441, 0.011149219526304075, -0.27654015450349934, -0.20666242803929405, -0.4793585522089803, -0.3261459258349126, 0.3604277384541453, -0.5472331116278774, -0.20658396434740964, -0.0585470423144414, 0.13967450779713572, 0.34458381753527784, 0.08301074953510794, -0.29428475518943087, -0.007123263251903969, 0.1779613337123312, -0.17427116520805805, 0.3446508119817122, -0.5631116247697742, -0.47417826244180133, -0.15088746668735564, -0.2683192161337446, 0.47965787429130674, -0.1366591448947763, -0.10926858962405053, 0.565837323175366, -0.131840586367186, 0.03538003816195904, 0.05356684744611051, -0.0389470025753668, 0.21900175600124497, 0.228805966326946, -0.3596459024275196, -0.17639787978018526, -0.42425631721190377, 0.13599998370508468, -0.1889894390359316, -0.00896512019306681, -0.37038624420862726, 0.12917136725530934, 0.10623960356771867, -0.4040424262738125, 0.2962755825361402, -0.7796020470315755, -0.03322738202414274, 0.12269898743976848, 0.16762847728026212, -0.4027353831809849, 0.23506448700610602, 0.32413346637377766, 0.4309961777489432, 0.14999559107897326, -0.22709781201407903, 0.15376747990293216, 0.35346793886760147, 0.1382023463775711, 0.07053474192970981, -0.10467380455572531, -0.16387028047657506, -0.07067037428695713, 0.4562981192652438, -0.009187029665495132, 0.10658869237990662, 0.14992340521893008, 0.22958676004746637, 0.21166532624173878, -0.2485557255510735, -0.4354753159842756, 0.5136596390472054, -0.05342435747295212, -0.20381789745147422, 0.45543186058270796, -0.09418023013908415, -0.2112781202052259, -0.3831177763696623, 0.07230120725555293, -0.9848875106287044, 0.04685376730977372, 0.03382361813845836, -0.5561332713861201, 0.05061341755180147, -0.2325179333866795, 0.10638922070983244, 0.27689651242948504, 0.08642671888434188, -0.6059504612469088, 0.19288674769794928, 0.522872594348168, 0.5327649200365813, -0.05412475367327261, 0.07191739073275649, 0.3397641021569958, -0.4354300940707183, 0.1471319033874569, 0.48565226275477447, -0.725408137781494, 0.31727692752734155, -0.11925829662589384, 0.21814260319198034, -0.04685729173639412, 1.0390477903921016, 0.4754692435664805, -0.3293945969250005, 0.11206200060650051, -0.34393285554799463, 0.45902030972182284, -0.05923016455228403, -0.3893563098579552, 0.08492622231004286, -0.02632456753564036, -0.0786371762012329, -0.44815319161046807, -0.29516698706624894, -0.0716704335111704, 0.7565479217344044, -0.013510123965864712, -0.0690815746599012, 0.3413775508739948, 0.24839401801819033, -0.35012474441181957, -0.7064267717301713, 0.36217673487199203, -0.021854977290982045, -0.37143705471899524, -0.23890054385090934, -0.11009129052103628, 0.03914655571047864, 0.0934131225335454, 1.108678602616938, 0.06496274438542392, -0.3748137731990727, -0.10040788888084823, 0.3293149260110833, 0.05890403801136995, -0.10782954539784388, -0.15340873342563158, -0.015429265647065727, 0.015165144743467673, 0.18534658611063004, 0.513435644811742, 0.00034534788494593204, -0.0963258865905053, 0.3827863487375972, -0.022456439848741436, -0.836677996680986, 0.30214428339662674, -0.17005146417631065, -0.004826530870281773, -0.3636101858763328, -0.0013859019036680219, -0.7223811663672047, -0.02250148518011536, -0.2007129102962767, -0.3161740965681912, -0.32919981264868436, -0.17600898740420184], [0.2379818368578588, 0.06819558173625134, 0.26864469789751644, -0.034421389579613146, 0.14162872644658317, -0.2135995306903606, -0.24791381392355974, 0.6616368841709737, -0.14534298207890642, -0.4272487289419823, 0.01783135838340539, 0.39285398026603785, -0.2161900101583634, 0.1899161392805553, 0.5475164703005083, 0.07240263821800824, -0.21018064301773884, 0.5127745700440139, 0.3034496678984957, 0.36771121884967944, 0.21261192478192895, 0.3561245552218969, 0.5601823902616262, 0.0003026176586506116, -0.5812261688533226, 0.35744455352836974, 0.20132673261478512, 0.027858179243473464, -0.30972309919015645, -0.16951949600828992, -0.34247566592818235, 0.0984094489696392, 0.2714244536083233, -0.3222893681762219, -0.13238702797770682, -0.35563113947915426, 0.5648816780592751, -0.22891323011460765, 0.7450156792948127, -0.16397263465759887, 0.19508883018055348, 0.6214825051835757, 0.13309183339859956, -0.2280450159304423, -0.17063955714714937, 0.11330635400686395, 0.5742712177570289, -0.010443718729237788, -0.0992152518801888, 0.578370017578117, 0.33411939118088324, -0.39850440694606504, -0.013045575065522182, 0.3548409211720399, -0.3954514717257686, -0.04025309227046446, 0.11576852591514823, -0.020376404522756176, -0.21024923234748497, 0.16462718618384115, -0.5087655381225525, 0.01854747379518091, -0.6192069928139854, 0.24162388687325104, 0.37304184345352637, -0.16979884364192138, 0.185818558897987, -0.03624240330283182, -0.055299693157732616, 0.5512656859706009, -0.052661664005233935, -0.7174481270406085, -0.1507491606867079, 0.5000445070589351, 0.42439146860576954, -0.3360146665764188, -0.3572788834797215, -0.205379281997091, -0.06341093877925778, 0.5394343674844173, 0.1287426924274305, 0.49601373029454426, 0.25058572766866993, -0.43182787385849386, -0.04798048322410167, 0.06298143824404487, -0.1413176227376791, 0.24263982468157658, 0.24505452424110105, 0.37888715764388087, -0.002104456660214651, -0.5484195638396335, -0.20492633514265762, 0.16189500488417774, 0.3161674686946469, -0.055169699749722946, 0.03478233609968009, -0.43500450283883263, 0.1642390563301823, -0.05555120299594232, -0.08217337791642754, -0.09905642685319446, 0.30583993265146636, -0.07323465974927244, -0.20260129626797138, 0.4509420646845527, -0.4965939242023594, 0.3219363110231836, -0.34464315542202906, -0.7273582381787405, -0.3439019480340887, 0.1929314556967063, -0.6876329741454589, 0.39471344089396393, 0.15347394337758666, 0.288487146660362, 0.10908638940845362, 0.6310058293294887, 0.25419943226736547, 0.05022840906328858, 0.15421460473049747, 0.5322485144303111, 0.09805098258424771, -0.4441756784090353, -0.3191147192833929, 0.3345742318672958, -0.3013693034698381, -0.3442330138055049, -0.35524041454582217, 0.04469620083174536, -0.29045408992592103, 0.40267056118135325, 0.5424580829474862, 0.10212287284644532, 0.04656713687348789, 0.3003475454396245, -0.1638864743924983, 0.08354706159123906, 0.05104970206562179, 0.01053664161425449, -0.05699053841425279, 0.11969078131031012, 0.04999736656406375, 0.12071496169063115, -0.031070939964810654, 0.23709810066429896, -0.25836221147464733, -0.03554936951396537, 0.3832502246598204, 0.3831813426972404, -0.38692279727258483, 0.7521714992988128, -0.5848655535697951, 0.028686643152199792, -0.15342514611394337, -0.36254536288328953, -0.12687938863202988, -0.4365971786816312, 0.15892236238155827, 0.07475859832288595, 0.5162868962326989, 0.4373943258625516, -0.6102751521017015, -0.2884128466976011, -0.005111719639783204, -0.26487479372106554, 0.07727531304072238, 0.5486734035499722, -0.671687728344534, 0.43885163414097744, -0.07952484483736673, -0.046289491772290366, -0.2121443637056584, -0.30738706663390314, 0.3386280870869431, -0.41706649576350535, 0.624662486669514, -0.40323474488962663, -0.7219118272955717, -0.03772461887607643, -0.30689099544259874, -0.15215405890034084, -0.0344548570155042, 0.0764311791211616, -0.0488533548186792, -0.032004350871054056, 0.302243080849534, -0.0824075770329476, -0.1652997276073061, 0.03706650265991389, -0.02856728114941744, -0.12724243528844173, -0.00888929282880198, -0.1865107270864474, 0.07043586712007599, -0.14450261951822696, -0.22585932683717588, -0.3750678205304948, -0.11620530492930471, -0.0829491967219981, -0.06498172474486072, -0.5277601942375698, 0.67767275074279, -0.6134731645303432, 0.17582565773059677, -0.027270256709297166, 0.3258773504603229, 0.2754183788683366, 0.20794088521940216, -0.5980003491339256, 0.09794567208923122, 0.18203542041351814, 0.22325567395383206, 0.11804791712294878, 0.08108461611451498, -0.28351817187333717, -0.23005279834212544, 0.23441985302343235, 0.5920721482782416, 0.0055299994811737, -0.428850516084163, 1.2682402269992474, -0.08837679718455158, -0.4177089360414813, 0.3998552580005864, -0.21233770211307268, -0.13579428973128765, 0.3594424423636914, 0.025323851423441603, -0.215525000016449, 0.5562391896822411, 0.0176507298265841, -0.2808937946700061, -0.3980662968666696, -0.38394983350170486, 0.055308507708185226, 0.417197446285118, -0.275790420727145, 0.10871666064171796, -0.09108758148709563, 0.31444350804944265, 0.08805493309581634, -0.5880717585303884, -0.15804866887470526, -0.0023640283317968914, -0.009436375726484732, 0.2858083959919541, 0.22792000633178192, -0.14178961335335596, 0.27208277895927674, -0.0998352303530263, -0.5766966154960591, 0.44654180877265576, -0.30758473103739414, -0.0883505989885595, -0.25304820350682994, 0.3363168877785041, 0.3659101151364358, 0.13946420113863445, -0.03334532020587934, 0.10003799959627026, 0.21287302252214516, -0.13355375320577934, -0.5169789400055843, -0.8054476426557239, 0.1609233205298189, 0.528718239778708, -0.6360537095183478, -0.04419068693980384, -0.10639233343260002, -0.3531738816676325, 0.09561538367877435, -0.19030270987453782, -0.040242746081365306, 0.43094846769085177, -0.43722283390089683, -0.26575832812897404, 0.0607782988108904, -0.08069009479508661, 0.1944046958339267, 0.03898015327609315, -0.2717639240533751, 0.08874633459127333, -0.13882226772553066, 0.44221432812442024, -0.09716115795055755, -0.05122358661153648, 0.47935032288868235, -0.1854369472280172, -0.41285406115736273, 0.061068671304353964, -0.2295472053754866, 0.34468985650835376, -0.6357442915543433, -0.13197382662421714, 0.22805589170971946, -0.42921649604435597, -0.39937805667271786, -0.19820865621862074, -0.48895769319490584, -0.2542205713749236, -0.09666923131023726, -0.05186434588831688, 0.285659796980016, 0.4387675494280206, -0.3606693596881943, 0.3481552083761701, 0.16912987240977928, -0.027834566568385483, -0.17849287264014835, -0.17126025257029392, 0.30405962081380594, -0.22265936262770458, 0.4676220008753455, -0.22223035662870627, 0.026615805845017385, 0.4753103540096022, -0.15596413885761365, -0.08504469241527296, -0.13235461907517734, 0.48856385300420774, 0.10601776213699317, -0.2465659520176315, 0.032181271745560146, -0.44969682269601496, -0.11123646732575383, -0.2220882995399767, 0.06083975826719682, 0.07965103337370216, -0.4938644289530061, -0.15093538182747762, -0.05316372191924457, -0.1388480777501455, -0.0309919805389047, -0.14193241746854854, -0.033539200165058465, -0.571427886577546, -0.46177191717941485, 0.28109193140218974, 0.050568751695863313, 0.4093591181904513, 0.28786823247775306, -0.05819728030877182, -0.0994320740557586, -0.27000919577034665, -0.41328016297998477, -0.1224879278051037, -0.3795582048785064, -0.2178108172830211, 0.24833368243722373, 0.34257457289617976, 0.4146265501351552, 0.586257219074338, 0.192727464509191, -0.2046153640935778, -0.11818053508262999, -1.0312698271198977, 0.151089977106831, 0.10252136292427501, 0.4120402172765868, -0.5608646823206355, -0.35227426900926434, 0.14558851855181554, -0.08370849904536405, -0.9562780393943916, 0.45727457315293213, -0.6709747658280181, 0.5021869364777714, 0.004031504543056714, 0.20442438416646125, 0.08224421528384643, -0.26319367615588896, 0.0016949352512985543, 0.004112012379612541, -0.36230986098565, 0.2735505468805907, 0.20148412862846754, 0.0030205909120510307, -0.6373103990337546, 0.7079500385834824, 0.3927766860179899, 0.5449748089067072, -0.09185481717438229, -0.15016727922457757, 0.3159531931317647, -0.07579593164652422, -0.00020561370273184602, -0.39053249714307053, 0.079410825541411, 0.2983899529469711, 0.22665789603225991, 0.39306008583696844, -0.47040069247639815, -0.48960792607703696, -0.05102116428168585, 0.3008993056896382, -0.4125308142508921, -0.32730145150130013, 0.2572085630486084, 0.642751374063639, 0.14329237897126962, 0.5699960627662227, -0.2833951091554642, 0.5136246727225668, 0.21134648593558805, 0.550062011545993, 0.2891159809596319, -0.4266007023778321, -0.04420143988749447, 0.7371327236919879, 0.15155956415038316, 0.7980720621715743, -0.03171709586229808, -0.20401241630982714, 0.03523931677814658, -0.11733385657335475, 0.1433839541873348, 0.05238249895354063, 0.16093021287628534, -0.017500267448872807, -0.18902894865509287, -0.08665858421936247, -0.4596099961791079, -0.3982078250450555, -0.582726800209986, -0.05520186821000556, 0.1248982042615468, -0.755436010168798, -0.03247201048172687, -0.3903300150783864, 0.252623201372689, 0.2034171186282208, -0.3818868572767966, -0.35192250485011417, 0.6197049180543498, 0.161229207328089, 0.033418100067326206, 0.2157321275311146, -0.7092905990711168, 0.2890457006238884, 0.48116397985383164, 0.16870433352488676, 0.4068290689155602, 0.060772360581795484, -0.22580933388720695, -0.35649016305466774, -0.05398245007852349, 0.22969793236656913, -0.28997662018645365, -0.8420230116480485, 0.13099238949803862, -0.3631495122823607, -0.4775074677787023, -0.4135099664097585, -0.21131178668028636, 0.03621833705864322, -0.6173656968259899, -0.3899639394400375, -0.05347651619936252, 0.07388130519606094, 0.06957356593842749, -0.16955463462232806, -0.19713891586179055, -0.25580714867514404, 0.17235629589565649, 0.34003336242040966, -0.7784600099354606, 0.16268108631921696, -0.4486991807240159, 0.2729207305519647, 0.27152296013843097, -0.03366069386807629, -0.29792738919233963, 0.2516670723450331, -0.7788707427217026, -0.23534810397506245, -0.13039825840900204, -0.07956173849095548, 0.23473387107307103, -0.027415197436557244, 0.16040602889672068, -0.29809672144532157, 0.41406380930690334, -0.6600685632406058, 0.5033813284114542, -0.3055539031914226, -0.6438206058171219, -0.19041143122351153, -0.8533804305557378, -0.5604981037694249, -0.45581093129276334, -0.22425126856188138, 0.16735826855471497, 0.4706474145018448, 0.09946391649906638, 0.6095189519256365, 0.43047257367861547, -0.32875668850860484, -0.021774718114736802, 0.026293689266075098, 0.22950006078123836, 0.18986440401634147, -0.9911867230231497, -0.2352007100824852, -0.4583100797734067, -0.06909125585191836, 0.7634766390856574, 0.28984297676735377, 0.4055536448405979, 0.47497555165968935, -0.25444039346378666, -0.8532474184232905, 0.22761205670480475, -0.10225769886207214, -0.5943437193182081, -0.5322078685966967, -0.21213138181113855, -0.446555536531812, 0.2905509766874756, -0.2785461750827251, -0.1284700850975179, 0.5378432788194375, -0.18147277405460083, 0.4251136850643967, 0.19652218859960277, 0.3798714480037658, 0.315025616150652, -0.38592082984865794, 0.7239638456686059, -0.3784622472749782, -0.20508978721786092, 0.0810080662317433, -0.03637993822185578, 0.04479139165915991, -0.3616986039254395, -0.46609257007093474, -0.20688773699659535, -0.06101562418898337, 0.20596717103210577, -0.2893832574771663, -0.23206130565926295, -0.037488289571327965, -0.36927769136548116, 0.07379224589206332, -0.5683452281313994, 0.11696574335108649, -0.8538298199675118, 0.04302714366863326, 0.6107376715512673, 0.6669312245452442, -0.1972888589534397, 0.02544154113491717, 0.15981474898531736, -0.13607003304827905, -0.017779770576163888, -0.6408184569009719, 0.03223581426474835, 0.9285364896420221, -0.009358000515808932, -0.5073683703740839, 0.36977877796123376, -0.4166144680787945, -0.3121843493537916, 0.19842960123011386, 0.49737264495881645, 0.11553656020263874, 0.2370824259100413, 0.06241169456280545, 0.16433743735737075, -0.08933268569386242, 0.39130637280778396, 0.12165947496648799, -0.5327021964812919, -0.04421209176942107, -0.21025659904315736, -0.11084692099220242, 0.3615348599320121, -0.49129343849113494, -0.5111286556115618, 0.09552644160659007, 0.9518656889064304, 0.40666408445205793, -0.08386993797207813, 0.29332696684905035, 0.14256619996615016, -0.17648378810702384, -0.0665899535056185, 0.2561880161488704, 0.10739806269012774, -0.35958613438272213, -0.3392637333140054, 0.3501563403615681, 0.23011759850125665, 0.3618690772959456, 0.07484843459810621, 0.553057791408121, 0.4809191719741513, -0.3953250197540478, 0.09069752161171296, 0.16376824330733314, 0.044977208466366325, 0.09089149596584305, 0.6867320414847603, 0.018342803529323482, 0.46147170584171815, 0.15205997655719575, 0.19217560657714325, -0.29590140901871176, -0.6092878118501212, 0.03162585934160887, -0.15459252786405508, -0.1361322856171523, 0.1556236558492762, 0.2539694198543415, -0.5609016156127511, 0.45488928827532693, 0.44208371562469256, -0.42245011597167764, -0.20516371755137472, 0.6366830578080862, 0.008495951380142265, -0.004976234698306684, -0.24853885054663707, -0.6351679598766531, -0.0010554007803092425, 0.2917864754645557, -0.26584423725225886, 0.7363324153556438, 0.5388399274667625, 0.150807446096848, 0.08188591188314948, -0.28756607939618783, -0.003799697101345247, 0.44796083390668384, -0.44800398802166175, 0.30544248564411564, 0.18524304903049008, -0.402354231994021, 0.12014550372691403, 0.19186588070380922, -0.09768360202571404, 0.8042463172421805, 0.30498465297077043, 0.37596982524489353, 0.06940972917040694, -0.038656319870954345, 0.005869474904451724, 0.0010841799322215842, -0.44896049144209516, -0.08281160963915504, 0.5894358961824936, 0.2757291672283996, -0.020134090433031226, 0.5249750190727096, 0.10280877378617154, -0.06187828652182473, 0.399184331912603, 0.17234494035485654, -0.211528015513512, -0.029544957356403816, 0.02747045032206358, -0.9174633053731086, -0.2244472446108795, 0.178214546643936, -0.3930944949104175, 0.11528611882665611, -0.24237863008863683, -0.4879365286731719, 0.1615971576654156, -0.21672334199026713, -0.14098684682548138, -0.18366858992667762, -0.4024046018241403, 0.07960549444484741, 0.11013631168714544, -0.16279846687120675, -0.10861810941338364, 0.19507364504558367, 0.3453242051601588, 0.0511873901225102, 0.3549781564710795, 0.49914994737328594, 0.10970660488066798, 0.3187532928347307, 0.09772423611212881, 0.35758223569267417, -0.2019663294756147, 0.5712202933105506, -0.0754005125826773, -0.2553876793017264, 0.27718013604270636, -0.26451112227391743, -0.07404964516525732, -0.20584087298268564, 0.3053372957965584, 0.23999805785731146, 0.14126982624990725, 0.1271332647806026, -0.4186781034533238, -0.2890337044738047, -0.1423359864252457, 0.24695387575652236, 0.24577395529493368, -0.09387506856305029, -0.9852938151322138, -0.27148611830199004, 0.11111829011161677, 0.11923425303839084, 0.4150517375894981, 0.6312557700737849, 0.842043889235834, 0.01519188701291149, 0.1665547008896877, 0.52394211252195, -0.23471738429874278, 0.047452975916567414, -0.25969009724015424, -0.10577337960000581, -0.10455982167575381, -0.4257874785066078, 0.12950445021846638, 0.791313169876467, -0.9318733088341735, 0.39615691502567596, -0.6367568339995626, -0.8573690538346914, 0.0014610731283903335, 0.09660171589018712, 0.19053707505304054, 0.2614437432353862, 0.6615156264231954, 0.41479626862801106, 0.6056649537281685, -0.7286845974398857, 0.12002167969417273, -0.36291248936891324, -0.2032954715333766, -0.3372523624386393, -0.1599308865964528, -0.29091405901569434, 0.44370940297351763, -0.3096764695638996, 0.06440855460390747, 0.13723688151684393, 0.040976572362723666, -0.8104328889200164, 0.24969451387622452, 0.5175975461522143, 0.05214000804830837, 0.3119490578561067, -0.003169045755906852, -0.8137548228882889, -0.28816177812629984, -0.330556815151421, 0.334230122844366, -0.18380814541393184, 0.09596460776339744, 0.6110752638537684, 0.13874599612713312, 0.16431080768151007, 0.1193906039447775, -0.19216471936100174, -0.35314543111870556, 0.8312159998187933, -0.2746514562367611, -0.24759274189464994, -0.34768563873318903, 0.15158477948304078, -0.27288896159109777, 0.05057651690129731, 0.18480230213792628, 0.5269394100402413, 0.2306683386203282, -0.8207267654754921, 0.1201190623798524, 0.05224745655360065, 0.3344027567746842, 0.043192531755098504, 0.1920567284114319, -0.600528236070587, 0.02362266880011489, -0.06480076537942955, -0.17869664805577742, -0.2284225963585658], [-0.014986365342999368, -0.13901096530565704, -0.33660288762623547, -0.31855520873177495, 0.6332560273167648, 0.09382119566948126, -0.7846437304454661, -0.29594428921845795, 0.3544088947758637, 0.18754871617263555, -0.5319167045251839, -0.17780439974831816, -0.07076356630163667, -0.3184776927444328, 0.026374841962804995, 0.1754311046390705, -0.21141410373051608, -0.23071787828505425, 0.4314194148397295, 0.7563316880214249, 0.27438668595980226, -0.39756944436232067, 0.321587725902416, 0.26573546938472675, 0.12167097306569073, 0.48356401581144864, 0.010024804329961808, 0.12274561820500479, 0.03603878802351186, -0.458009497530409, -0.44031934853774746, 0.042537040311275094, 0.5191418442904533, -0.022948499959127525, -0.12943006022701767, 0.14382911389359898, -0.3358470914472187, 0.1255662988682524, 0.11722059951853633, -0.017658099583294236, 0.11563501820628587, 0.08209230511539453, 0.49629085618363855, -0.07907905325288986, -0.04893802532478845, -0.1613572731792845, -0.40368126785917796, -0.40733016722096194, 0.03048999859840572, -0.058311875471811686, 0.5532585038636215, 0.03382805628845221, 0.10462209720304486, -0.005472942505843299, 0.4585617742166194, -0.5013751931424999, 0.18866596053683155, -0.22859416919728937, -0.015754040846926092, -0.054849574994038953, -0.7595595973970606, -0.36716641484853163, 0.20768960638067008, -0.35934642241427944, -0.3546615650792677, 0.01927074056073629, 0.38437098663810393, -0.09089132322053185, 0.5623452907815327, -0.005410477649170595, 0.1052531210481601, -0.4135990478316516, 0.27983661494485246, 0.3531013685934273, 0.1370062270744472, -0.4921084520140216, -0.27797844249203635, -0.8308204612368156, -0.5530278882617206, 0.2765772567272877, -0.13322801340030987, 0.625851828408218, -0.05294401718773298, 0.15193397523059837, -0.12316081289076494, -0.012748631067501494, -0.23793309240426302, 0.20206300548903933, -0.055876438554922664, -0.06968467735114037, 0.23533731478046382, 0.5526170927726424, -0.9713349950440496, -0.12319031629626492, -0.03095192110481369, 0.09255161741144825, -0.2235395754857603, 0.3309917594361132, 0.3943389136772905, -0.22011263510468568, 0.10573995878174669, 0.16732923684146325, -0.31125098154237235, -0.10753704372867123, -0.09738358536296657, -0.0408156695574609, -0.7154283270726871, -0.10595156899769954, 0.1494915640901732, -0.14237141042808557, 0.27689443242940764, -0.003088402164638705, 0.48257283113734967, 0.372205086021592, 0.495702937028324, 0.02850235024504108, -0.05397938835257492, 0.3947986119621151, 0.5795671775095513, 0.2837043004455998, -0.03549670779343358, -0.14902293248127713, 0.006956799925467335, 0.20290460757393097, 0.8826949740405274, 0.06805125606505527, -0.46681434304383396, 0.711771265225471, -0.2512461302152135, 0.29317748709681324, -0.6751729306676714, 0.3075993271560696, 0.38083488395222514, 0.4451864227519611, 0.204460601273829, 0.33947502681496694, 0.026755946555250616, -0.4523514187430416, -0.37312309142399885, 0.23763103665202634, 0.4163834183790933, -0.45904994850734776, 0.43191127619287856, -0.2388554371987033, -0.3948484582011831, 0.09936056059791668, -0.6193395947092545, 0.4721558592538369, -0.517060325745188, -0.05880041172838392, -0.376495215748086, 0.1087853608034105, 0.18823231701462606, -0.5263135729752442, 0.652845940091194, -0.14427925099823255, 0.5113157965437184, 0.3604860973649588, -0.10960940410620808, -0.375024460280119, 0.37642866735036107, 0.5346924818722262, -0.2126683496535427, 0.21161008655483657, 0.16456354412786312, -0.5368426431021299, -0.3993711500623067, -0.316276391900424, -0.4945722410565594, 0.04905661806703887, -0.13637246243311876, 0.6306095327869112, 0.04820046954188337, -0.2804890589937776, -0.020629475605516506, -0.15827387189627556, 0.09514287468101312, 0.23857989577601274, -0.30212492841159516, -0.2006756962654398, 0.9945579335230247, 0.15206300971144038, -0.12979221439394895, 0.1896500200061891, 0.058904756280925924, -0.12597914120933348, -0.012718026357746222, -0.35904545080648786, 0.5068918551941529, -0.1171799913164481, -0.0690450710215974, 0.6354321102428304, 0.28673798977374537, -0.6619797546811009, 0.2660620212403331, -0.5413229043365736, 0.2591955587363149, -0.03709875735487217, 0.26047429500284275, 0.6573026509423181, 0.7088313027022292, -0.1757143906764178, 0.08893288882594676, 0.16168764082141146, -0.0638940460894087, -0.1659549972642571, -0.09013584744113248, 0.19263382650555386, 0.17025557210905595, -0.8062980788295326, -0.1251750649958695, -0.17968928808089982, 0.05710423649511607, -0.23912917140500622, -0.46975133211773723, -0.40704890236695385, -0.4134507436653899, 0.268521397322571, -0.2901556415183763, 0.08282562545082472, -0.032196140757422394, 0.012769755646231003, -0.18253342594792565, 0.5514912336403267, 0.10605800969095196, 0.16367505118135428, 0.4032174205388418, -0.5104729685558723, 0.2128092767421978, -0.33114234713715385, 0.44461486989836235, -0.1838185126198695, 0.12879226039441236, -0.03741292613450152, 0.4933765602742872, -0.4676510169885708, -0.025089768520097467, 0.20894006719423283, 0.017135467871304436, 0.6109821503759333, 0.8563016997985836, -0.4665441664937907, -0.4319775140319609, -0.20384319730041772, 0.27396892670366907, 0.3198455232791065, 0.48639810724784266, -0.46577295886016007, -0.34809033191811106, 0.6134122010028589, -0.25464641435971636, -0.1663455463888794, -0.01569620811887101, 0.5904016551422165, -0.16466056608080634, -0.057128387202434634, 0.5653263289751819, -0.48382327012790927, 0.18989979203725624, -0.20890627424142127, -0.10074034745842614, 0.32226001482060257, 0.1833625327876038, -0.44856825038747844, 0.23059447640338393, 0.052839109587335883, -0.22279732273729483, -0.8660681737707191, -0.17636585175851716, -0.02901824114149782, 0.23306478434858746, 0.2137396437699126, 0.3564155116627074, 0.19424411507036407, 0.1875963720472356, -0.04466791346705498, 0.5134254724097123, -0.36851448320522695, 0.21345260358965323, -0.1394504050351746, 0.1492410588348928, -0.7023061981035701, -0.11145907118171237, -0.13730038706165718, 0.24013721038963745, 0.6761433194525791, 0.08449749858726503, 0.028600277835783897, 0.013997126909803974, 0.3686791374851735, -0.6538580214450295, -0.48028365940324835, -0.12755522574396044, -0.45071864983367316, 0.24595169628785285, -0.1620838563413731, 0.08509490230653215, -0.6073356172527802, -0.14394000544529842, -0.5280533371028558, -0.3425372382842172, 0.666682434847377, -0.6791063356933221, 0.14325355070967763, -0.4304467907187427, -0.6052303795939817, 0.23257649057913504, -0.49063659830735395, 0.44738247784705715, -0.40187237812196075, 0.18225671661495005, 0.21106993348486233, 0.3462991402512907, 0.5110832072518334, -0.13008896956852653, 0.5073180359134698, -0.24079653035402343, -0.46699771574097443, -0.33494393484950374, 0.11681846166702672, -0.389198717467587, 0.054379521989074954, -0.3235915662664004, -0.12459430119358555, -0.16031384521363928, -0.0005637627138059837, -0.11983031288880587, -0.08817324846306634, 0.25544659533595243, 0.49671533352177377, 0.21848102024317795, 0.07619791698349246, -0.4414849938492033, 0.023034255335182715, -0.07865333734075108, 0.06712323137514588, 0.1648040331931126, 0.1720658821847707, -0.13941813590936525, 0.08889886388031303, 0.5084659208794702, -0.05520409347889283, -0.011161241116228245, -0.423631214378578, -0.461861834824214, -0.2148764759729973, -0.6725592179428919, 0.23284351686001628, 0.5077780444300173, -0.4639141250213061, -0.4004936198074941, -0.24193668945755126, 0.5700104175337128, 0.012665404944837512, 0.16060761757756478, -0.043201189846900266, 0.3180944039455434, -0.6999034540064305, -0.2929914451710782, 0.47134851453989585, 0.07891479129080801, -0.009010898854209071, -0.13968746393533962, -0.0688817000602498, -0.28431664878724766, -0.3392465280974997, -0.5850693704550126, 0.02005304086614779, 0.17679077395877696, 0.769939336476096, 0.19178982509851394, -0.5400532082806949, -0.0164972871553895, 0.4714220846558971, 0.10708140880040248, 0.2077768429411758, -0.017975913977052577, -0.21847294672881407, 0.3496666280137246, -0.6281407481242799, 0.01180723067867708, -0.0565707512191742, 0.5288707643558778, 0.3990762327185052, -0.09578776224815042, 0.13078406231380757, 0.4498035381007231, -0.1432540380103008, 0.3902801424536681, 0.11895995536141221, 0.41410625120214645, 0.4544029210876367, 0.12220840741968025, 0.1242183867145516, -0.35287780890039194, -0.11240325723463279, 0.1653428532139245, 0.23969822993052378, 0.13529147916781084, 0.21775671471572977, 0.008761080518092462, 0.1473784185095476, 0.3464146689420109, -0.033387275345032025, -0.09599109133513561, 0.17257608235715421, 0.5370004125631265, -0.19973903894711717, 0.16584773008163786, 0.6314927410634291, -0.6383609406197427, -0.15726844185144753, 0.30919091915924224, -0.7739646064618411, 0.17553419920149385, 0.5581260755506146, 0.6035361330676012, 0.4494419362007409, 0.7160558408591723, -0.18183114654513158, -0.03611044366315817, 0.5119739054905486, 0.14364522147749562, 0.6346178411739758, -0.11625172575355194, 0.6136119378883826, -0.0013673736802281434, 0.5760130854809488, 0.15701840162396738, -0.14999660336159684, 0.32215129930441266, -0.19742242395216605, 0.07888967136934645, -0.3697902823002326, -0.06581588966085972, 0.14255652786657821, -0.1732823600564742, 0.4569380253623176, -0.2568049362879656, -0.06350256427262241, -0.2869332525423806, -0.02313724877679355, -0.2352180480010784, -0.3496309851812963, -0.09764245323138221, -0.031165356710582244, 0.32132398474098817, -0.4385558289241388, 0.018617591474246943, -0.13497681418835938, -0.3160318418028698, 0.12488103799996607, -0.1753848467805423, 0.3368442606227488, -0.15760485033963562, 0.2914778404760729, 0.11750008210002516, -0.05099043364170647, -0.06503112355957119, 0.043086815204767204, 0.14697242498875335, 0.26230714841239083, -0.05539868435863361, 0.23329281337529606, 0.19115627462838405, 0.31842410283046446, 0.08079599991434996, 0.3155897594420366, -0.01781231154584849, -0.08285104119416006, 0.378465450221706, -0.20648728084738754, 0.3636498346654572, -0.5966190671400535, 0.1753932287671093, -0.34572578321526876, 0.040249967184214655, 0.006723493880340251, 0.04306658094408176, -0.2552313348399563, 0.3609324907348505, 0.3975629006798107, -0.5827357128024532, -0.13958752521539589, -0.6660907331280835, -0.12624030526355112, -0.3772322279290811, 0.28060903718636737, -0.3727774111382264, -0.18412495388737266, -0.11292559918373879, -0.08793667375749557, 0.5575197896147742, -0.17149390356516955, -0.09202051147972805, 0.018512349515391695, 0.02248141845952111, -0.27659943411698923, -0.23357143141713937, -0.06871837536699572, 0.04254359205477126, 0.06383536930909009, -0.3561924079214465, 0.012745909992188909, -0.10302124447419089, -0.1637239346619507, 0.4350298300259347, 0.2652804482127047, 0.5534587855720148, 0.15015991848481125, -0.3936572052526736, 0.3549766801200164, -0.07391245750439654, 0.3443061543955925, 0.22411657640777732, -0.038042777172993085, -0.07621824426650463, 0.053551826914741564, 0.24628583679375346, 0.08077157802998788, 0.043833743848952604, -0.5302140605782283, 0.16744613443485692, 0.6141508665373553, -0.0059745130452920694, 0.5751349201619252, 0.32739495890276293, -0.24795098190127318, -0.0005862065396351309, 0.10053728663508217, 0.4153118048803118, -0.2809212699567478, 0.45017456218631874, 0.2743160015369708, -0.14283072429489502, -0.05224129061195543, 0.5998924597448128, 0.4978458281557104, 0.7575728918476909, 0.18822156220258812, -0.10909772753831523, -0.2550153118303276, -0.5172457309917464, -0.4497309835530313, 0.22181556986710144, -0.33013159627295335, -0.9949753854521617, -0.36513555919273577, 0.005494643879893846, 0.12384219093259234, 0.7292511089270661, -0.2787944446140181, -0.0958077677633242, 0.5600354984873723, -0.1926562881105796, 0.019688743593326882, -0.5042362009453747, 0.35420672196747194, -0.19445896088171707, 0.008300342771383284, 0.7061904760129372, 0.12311784970552364, -0.22626189858384663, -0.09818814502597513, 0.21588430896370414, 0.1733720029909732, 0.3539460247180436, -0.23984713573744612, 0.0697525972147671, 0.3330663807661214, -0.18068235886673073, -0.33464566183166994, -0.5588275222774131, -0.16654434732386297, 0.2740003189545377, -0.2841174199077606, -0.1989240786415652, -0.13490354342296607, -0.21644162995468721, -0.6926499521711815, 0.27828710752330527, 0.06118624791172009, -0.19135210712029713, -0.42166590957530636, 0.140999245109858, 0.05530651525393475, 0.03946250938496596, 0.42054918201547753, -0.0685236502130827, 0.005464597618072948, 0.37324188669205344, -0.04376347913917642, 0.43224791771486554, -0.033161839373519346, -0.26830341269093, 0.4053674519384818, -0.44083593789932396, 0.2635455185524061, 0.014844051357953532, 0.09414224377813049, 0.12703134188158371, -0.7868159442759898, 0.2176666006384434, -0.5448076626051132, 0.31008953231411934, 0.4281384514736296, -0.18297412185010478, -0.2104351037801315, 0.15945887355185331, -0.2861378621992626, 0.19342014357520196, -0.34083689372639586, -0.0692101098468413, 0.04804891930665287, 0.21063896332981616, 0.05708220348422761, -0.31061697285867496, 0.477908122543593, -0.6430207396282395, -0.09655729963174782, -0.5264371629212746, -0.31887676549931404, 0.026962059502331954, -0.32536974033211824, 0.14963103308751588, -0.4107375232025641, -0.45038714917954215, -0.5309239442142417, 0.3488618540738208, 0.12026321193668049, -0.8357270341931617, -0.07575714224420597, -0.15772808362257745, 0.7144009536820456, 0.2661994894073597, 0.25487306241864227, -0.3440854530068919, 0.05397822273369181, 0.27353396397922175, 0.33188939218417585, -0.2633351090489948, -0.17919918488247513, 0.05150635177103739, -0.31719943465601974, 0.003515187365404709, 0.06018935005817813, -0.3459574633229089, -0.09801372873466115, -0.3302917632573174, -0.01855386801219705, -0.3796967919577827, -0.15121369522018255, -0.5997129360963807, -0.7328754333229502, -0.0701015053472568, -0.21085530072170916, 0.07251559348611895, 0.19233245440491575, -0.47486092139855907, -0.3738017309129955, 0.16659269663805276, 0.2738731414332245, -0.43988451416749075, -0.3998513047427734, 0.4336434360667253, 0.1550321664527755, 0.6316443616130752, -0.16189710944795407, 0.04471060400801761, -0.6226199465463982, 0.04184570844161113, 0.11519577219977717, 0.4588510812676507, -0.4832301013881023, -0.5424195595124429, 0.4030428239453415, -0.2784519064389441, 0.13393410118774796, 0.9178090130704992, -0.06541342606063792, 0.21072945704433613, -0.2852736794339328, 0.13571929032102362, 0.2961349833829153, 0.2718233622674362, 0.367918957270883, -0.3220126584548789, 0.2862351930147589, -0.054619740274055036, -0.050824854166126164, -0.10397574331523861, 0.2703703702872769, 0.2575068498427169, -0.07456273912788723, 0.04774279459372604, -0.16216478575579454, 0.05742026574156687, -0.40848184967629153, 0.11212835768587022, 0.03821002252292438, -0.4686800108653705, 0.2719243495245759, -0.09195176516861972, -0.7711376128434115, 0.4095717286457885, 0.1002932678597196, 0.3164022916882041, 0.2717426976695386, 0.11401506825509866, 0.3846923645896576, -0.039506019593617346, -0.38841890114107996, -0.1072990846307926, 0.2987571246224641, -0.15504619477404963, 0.4488252739788936, 0.319593716606229, 0.33745232678901993, -0.18715662709001984, 0.4044746620259732, 0.04488502289577619, -0.2814254403060093, 0.4211133718227504, -0.36158188819913445, 0.13069802100332703, 0.141705623743383, -0.5711768155375743, -0.14577582995872967, -0.15828920293900803, -0.3344060778549494, 0.1854908891591558, 0.15779747785607537, -0.06853447743372988, -0.37835236854551796, 0.05379836586504559, -0.10324756485360206, -0.23762116834100439, -0.02328730032194737, 0.09779813613764514, 0.40488135331952313, 0.055294246728570765, -0.13322582152435544, -0.45883873327018676, -1.1338150640902382, 0.3451474094811745, 0.017394986955511758, -0.12784846539469355, 0.5849850595602534, -0.28718951267211695, 0.43954400614698946, -0.48166282115927683, -0.4861621032518837, 0.31981300779036015, -0.3621280272091835, 0.17165862919259253, 0.1698921420053348, -0.06363051768071597, 0.4293271843903416, -0.05385694076675485, 0.355088648400356, 0.2551315939331665, -0.3440626881889938, -0.20003498406369885, 0.3051675360315466, -0.08312509215770672, -0.22718950389028275, -0.006119923190655551, -0.07178948353269418, -0.0642379732289212, -0.6068855378447598, -0.2693467026501772, -0.21430083164086344, -0.2892065647863823, 0.3159825543398694, 0.2303939469721411, 0.2055131193575733, -0.113705501142829, -0.26481552295146504, -0.4723016180519249, -0.45017335871371755, 0.5884696068448455, -0.22966979563685067, -0.2867213350455575, -0.24571870921414798], [0.4533486490343939, 0.20915481393783641, 0.3803256081698527, -0.5155102600189547, -0.22691584892233257, 0.008738495982864846, -0.43862161715281434, 0.08261216941572855, -0.8023052851732352, -0.1907953415731701, -0.06975076764572329, 0.3066125210776869, -0.02138941900585777, -0.11558024990578782, 0.44051433979830357, 0.3536410745809345, 0.23893706458164746, 0.841941384397103, 0.2753760857081781, -0.3166624297844203, -0.03573995409658228, -0.6128486164841265, -0.07117556888546198, 0.25044568734852884, -0.07514784357879918, -0.0706523182534242, 0.8244800968433514, -0.26433073326289497, -0.46350659241479397, 0.04849701823460775, -0.14593676993550478, -0.41447845716942416, -0.03977487171382407, 0.3231879507372696, -0.5182428027426195, 0.22015808973437817, -0.29740992296203556, -0.024030339892738138, 0.0056124850329003, 0.34426192226358726, 0.06592405828965686, 0.14426143319039794, 0.531375796467993, -0.5314130978198762, 0.3376542770010837, -0.22278032771092218, 0.05875361032305078, -0.10782835978878824, 0.2445825463340896, 0.19122605177682864, -0.5904434207556083, 0.6304539164376428, 0.28263121665814817, 0.185132075990853, -0.19147662775517343, 0.007245870519504517, -0.19389834786518806, 0.38213271942738203, -0.08195317896848048, 0.22521164437672997, 0.272832743249449, 0.8054791712319573, 0.05816039856862888, -0.1648762553592859, -0.3408879865593867, 0.009206920972437898, 0.16740439294466078, 0.06735373581284199, 0.7928836351169166, 0.5008397179141882, -0.38247571644956363, 0.13770333135472962, -0.207110848715228, -0.08718703526152438, -0.22052680789203213, 0.03402644805616131, 0.1678577100843333, 0.45885700684899733, 0.16867474764205087, 0.0010596857636977458, 0.026911327814601857, 0.18187787291805585, -0.5624339834344411, -0.39278277173397774, 0.15285043034773335, 0.21756983541855196, 0.11483943115740582, 0.07633735078765455, -0.2175712976328797, -0.2640414471497689, 0.04783709286088738, -0.10878891688466938, 0.025961324120366332, -0.6086647736488485, 0.35506664361882434, -0.8020665599746913, 0.3574067683283031, 0.3485789342831188, 0.09338504831312955, -0.2080888267919087, 0.39069422855394814, 0.5938385374272683, 0.11124245408228314, -0.7083837202172872, -0.5661930413538215, -0.07600258471611446, -0.010155721820880327, 0.16059436989192108, 0.5356504858399715, 0.2281870670599185, -0.4005381293361466, -0.2668512203818996, 0.5106188270569203, -0.03056623670297568, -0.14899188397813903, 0.3014437788499892, -0.2922043786532135, 0.10270521050452927, 0.023845079891695424, 0.2599719685499532, 0.41153416378383356, 0.29877785979814064, 0.3840704409694279, 0.0031415482751023477, -0.14457609880519356, 0.06415158402713488, 0.028198738843011033, 0.05003462290543485, -0.44744188364817705, -0.11128707332250481, 0.038090968833756504, 0.27799295984551187, 0.3223174674375123, -0.13643491647629163, 0.3522374500433113, 0.393157674864605, 0.010719904822192263, 0.7636834552587933, 0.18342548772189066, 0.15615637566651366, 0.0013121695763002972, -0.6546823014592027, 0.4762094011270823, -0.022421786456560556, 0.5710118089393261, -0.03350489047489601, -0.26342046356498444, -0.29077760716122986, -0.01498327963568525, 0.17843661523042326, -0.4148510850956917, 0.009169876741062358, -0.16027132477329692, -0.4590972028067687, 0.05431003637706507, 0.007107860828268296, 0.24808855856889586, 0.3989946349085204, 0.15694381723297443, 0.536077611951518, 0.3487888570736225, -0.3703646535912371, -0.26885770728004654, 0.06519853285488861, -0.45031277312338686, 0.025562789397666492, 0.06541838726685922, -0.18125228420770254, -0.17552194441833022, -0.821578288146243, -0.33890268004140656, 0.3815973935763496, -0.036032037955232306, -0.05847290834434992, 0.32549365299159344, 0.018323931984401475, -0.2613366341873116, -0.2733713584552405, -0.02314047747214887, -0.34107090678455676, 0.17329442212258359, 0.16861262714676759, -0.050479150271654505, -0.0509293164943681, -0.14876343597368955, 0.09398688531296562, -0.12372983809168293, -0.24202357753476464, 0.07495294317430731, 0.5114029641016239, 0.31139856799161775, 0.1517249017924505, -0.546107496665742, -0.11517817545079347, 0.1494834555402194, -0.5489111356176604, 0.1993895113789075, 0.16268098071922418, -0.7098922512736211, -0.20644518852350363, -0.01922980147132935, 0.04752475861448756, -0.09989024642394664, -0.3357951381227729, -0.4769602273696669, -0.16954951652083522, -0.11098923398555481, 0.03970058811516856, -0.3868676785732957, 0.1390993265146248, 0.07250381106561425, 0.6819058534925176, -0.43470114324128334, -0.011816968459419212, -0.22724516771212308, 0.08680603298271315, -0.16416771395740498, 0.4076435796141448, 0.05028807941698654, 0.30417348171717706, 0.47346332666905416, -0.030809925469389685, 0.5385550334605289, 0.1554923092699856, 0.14583562957183852, -0.15706385597369402, 0.05209792028916168, 0.8582205489781422, -0.0505371991785554, -0.0704790107235107, 0.4677285225873503, -0.04963885881855567, 0.02147444352924526, -0.013857085871879343, -0.018368052512027153, -0.3230109420566668, -0.17196500107629661, -0.7513895215733094, -0.2531280135014824, -0.06939978466873048, -0.3449576326820531, 0.37919016144846673, 0.06192564255084731, -0.09435223401718873, -0.016184894318068455, 0.3830112743104846, 0.5619283041548516, 0.2499499725987176, 0.017922046538597327, 0.7154232138911274, -0.27907518644555224, -0.22598609877861392, -0.4875131664065181, 0.25329956837568496, -0.5790700936338975, 0.2686759595001478, -0.08164053011591123, -0.709607212139211, -0.3572402972573417, 0.28420434753349655, -0.08674008604352124, -0.008670133607673262, -0.3689637291098579, 0.15004491440584425, 0.5792123575788494, -0.13099218460408013, 0.3686476809973718, -0.21127717590186057, 0.8620350187947491, -1.0878481850923531, 0.2051642774373852, 0.4251052444957986, 0.32514496753180944, -0.20419214662083546, -0.133252739719074, 0.12435401956177786, 0.2050010416413042, -0.02667516676155375, -0.43697485731371555, -0.027493359937934763, 0.1465010263202622, -0.026255259155722646, -0.07017583067417968, -0.011265811630245348, 0.006642378891331836, -0.03275607197667417, 0.05941074973874595, -0.1649835279407013, 4.739704330526239e-05, -0.0620360000841276, 0.5196187427038641, 0.13840861510945596, 0.3503034191446915, -0.39529950064121283, 0.12352916271754079, 0.9255091539320282, -0.10019899934692832, 0.17212061207976062, 0.29970117935630486, 0.6949609653537295, -0.6732046745411268, -0.0013891569121476921, -0.15209721066857715, -0.272001728261202, -0.14148312239840427, 0.31787685308596947, 0.905142118982812, 0.010892878694222317, 0.21498916109395155, 0.7787314623030533, -0.005565135013267899, 0.32132634238450886, 0.5608118341569852, 0.6428715601177737, 0.3940132149937728, -0.2491291450567346, 0.1705785448856644, 0.18251826348913142, 0.5644862607352713, 0.1420779051054821, -0.10171513382964913, 0.08919336943313608, 0.7246110615186869, 0.3557342458852439, -0.08594997334167478, -0.14319617222855868, 0.9367642315431651, 0.4231482082064583, 0.4907045704011356, 0.02461001277038487, 0.1792501871795601, 0.23014167620510914, 0.00220606483708663, 0.21815354525157016, -0.007921580913732186, 0.4435372411981115, -0.16477772677745445, -0.2014705777750245, 0.153655004468825, 0.8067517749596447, 0.06870645625111933, -0.02271731219404948, 0.011164791560577795, 0.013422431694553488, -0.019020703857054233, 0.04040759623523641, 0.030033700663686255, -0.5423758005779249, 0.526814177152479, 0.36495365117907014, 0.2439448124165598, 0.012531264019295314, 0.11993866736172487, 0.2798619968714587, 0.12944228309933398, -0.18889740533341895, -0.7044789632982389, -0.6146591418072309, 0.15589132758073004, -0.10599502766344472, 0.13925417336090545, -0.2629026877856243, -0.24530993701654494, 0.23409815909656648, -0.010270179138826194, -0.4346633187755786, -0.2384351438607669, 0.3425249533061514, 0.43920455177552936, 0.36741113507303275, 0.49531134099505936, -0.32706337613838726, 0.3864133040566899, 0.48085800387541894, -0.1330780756575608, -0.38894434677859524, -0.4820466984276513, 0.05876397687845551, 0.5760759260282754, 0.40908458034902667, 0.33925574953487053, 0.15050389114475698, 0.42300949603938964, -0.32201364707550456, -0.2371589573737098, -0.0967587830183431, -0.2231287276996031, 0.050623998302994556, 0.34068185168136367, -0.867733488501576, -0.030639877787604877, -0.0630812326967647, 0.10069508487862708, -0.5887136344533602, 0.12672365475772743, -0.16835231331860542, -0.033864539107562264, -0.00874189323163605, -0.21777158792091195, -0.01479205719273974, -0.31826551037561623, -0.06875635935818486, 0.20690293756093456, -0.07614837364954584, 0.4167311127619086, 0.5446070114623079, 0.299084028516222, 0.3534379954724797, 0.3228307895928385, 0.21703188498980164, -0.06861328217090162, 0.31183734346650704, -0.021177871173960566, 0.3146835138187478, 0.8622110405571953, -0.06206006198627835, 0.47251962754201393, -0.08262785905341759, 0.18422583495417705, 0.18614896596711022, -0.2896637478912368, 0.36738606372995336, -0.11860204343915869, 0.3077147543072287, -0.3019110039364881, -0.10452592242074765, 0.24521001437203035, 0.0033883636980947935, -0.2532377337409593, 0.39467072569404155, -0.2978928299383899, -0.5414528093823601, 0.1311743627431271, 0.6606283275974492, 0.1558882045310855, -0.6353874479725038, 0.20761766459980327, 0.08746299865451429, 0.104523745666063, -0.19700408164565664, -0.06747265008310119, -0.4482313175398043, -0.6223082118401811, -0.14277167873498964, -0.0032649767594700126, -0.35997086822362767, -0.9000075540507813, 0.12735526873832442, -0.011115651584639017, 0.3778915442647117, 0.00715087402836463, -0.16781014930105434, 0.15051576190244484, -0.41242531866984566, -0.17552044461630578, -0.11257453775838339, -0.30901557080377057, -0.3512741469137064, -0.8011129706633058, -0.8439180027930542, -0.05942433393942029, -0.2274147886261915, 0.5970473297456094, 0.39688073950382946, -0.15129496768178366, -0.18448384253226768, 0.1629819490353874, -0.04656966556871382, -0.3499425294038125, -0.26192036013815756, 0.2837295415553319, 0.46641967216449265, -0.1966736042157022, 0.23774511971001008, 0.2095657689071983, -0.055453618576619464, 0.7321148233372033, -0.3995155323558299, -0.4425941720853518, 0.051967936360015565, 0.4438449513933042, 0.702031180112387, 0.2772062336594902, -0.61389238718587, -0.09691787661969209, 0.37651364593422837, 0.43797466184344525, 0.5673234117136848, 0.44063894956463706, 0.34363897857410747, 0.22641154899445198, -0.12598668496894203, -0.4081511023745873, -0.2049642630341871, -0.21204339759361218, -0.2133826410175126, -0.025178293356007797, -0.841330229785048, -0.3711448962252105, 0.5390209623626395, -0.31034467386231984, -0.2593565485415339, 1.1016972293349705, -0.18036467682371082, -0.21615962911194847, 0.17262986943446704, 0.11783363111995779, -0.0641331764432521, 0.32341119635619664, 0.17119107771285605, -0.5968239698411945, -0.17172909666762362, -0.133867842788787, 0.5103159540349267, -0.7132617173568491, 0.13101427968651083, 0.3751072675096291, 0.022655064699027616, -0.07578199944095687, -0.8240741711792825, -0.9285958672373272, -0.11769187892935465, -0.1177493337603325, -0.13660023966935753, -0.09051064746350143, -0.09015223946143991, -1.086112560414756, 0.20025905723889914, 0.32150819869294045, -0.12108158106742045, 0.1782846758937185, 0.19074201014475622, 0.6818555472890178, 0.19993096025054774, 0.3914591053997562, -0.0595416830827041, 0.20715557306328097, 0.009501456664144505, -0.5126822883081592, 0.09872177341352317, -0.605507753254071, 0.3232754443368798, -0.3417644026637915, -0.03123684955222247, -0.7636140915852376, -0.03534160570415834, 0.38511162667059534, 0.5171115910768306, 0.20176367837208348, 0.4031211779332116, -0.27442902341156056, -0.38360984946390486, -0.6280397166203103, -0.12769933145846527, 0.321688637199211, 0.26881110013424986, -0.8315853724613759, -0.7376044269544988, 0.8322167223168684, -0.3769602274380762, 0.10279972452115198, -0.8349669268282461, 0.37939109587677816, 0.27259092828421894, -0.18560916372411768, -0.4949076925487091, 0.010646514882183346, -0.2684333847067318, -0.6076546038745331, -0.08128443253723543, -0.06623363860572884, -0.4493107524830204, 0.4709763709158362, -0.3234018207933385, -0.15570951570805439, -0.5121553020414149, 0.14108666480787307, -0.44847538430601125, -0.30040217148238035, 0.13443196018990672, -0.716796554779999, -0.07811866978000899, 0.4787375997167872, -0.12298844048281093, -0.34841580482530526, 0.2881217277641478, 0.1458320022481425, -0.13138685692026345, -0.04718556282168881, 0.2172588328407152, 0.428201073969331, -0.14842952762180486, -0.4648171465177977, 0.11740474745899852, 0.08717533157004266, -0.34172126005102155, 0.03485578087286937, 0.30986642736361325, -0.019812278071042435, -0.18038570625479303, 0.2087931308409035, -0.2894186757791222, -0.28845296119882863, 0.18970225076665106, 0.4731241875490144, 0.11972326353318394, 0.23943602259468713, 0.036593164309956114, -0.18868810360589092, 0.3889561673396503, 0.6896208232714828, -0.7671470590283184, -0.02334187887700429, -0.48428729276371585, -0.47745889795339597, 0.26968806252434463, 0.03686224000713699, -0.30270139865800344, 0.509342435864043, -0.13909867742553625, 0.06708292321829448, -0.182584465553803, 0.39656511351456736, -0.14530106068956686, -0.0735090993525741, 0.14264350940592074, 0.09727319873159536, 0.15121055478076253, 0.5260660410035723, -0.11938081429457396, -0.3880922463576599, -0.03268603558201535, -0.3223535393220481, -0.1355292171276974, 0.8094006726689127, 0.44548526517167897, -0.6627465955424624, -0.009636030320261542, 0.07504771632996814, 0.010550819254565691, -0.1797727303186786, 0.24098941946176552, 0.2224378651738331, -0.06503303442044711, 0.07368297072913016, 0.10980071507495011, -0.3987936449862525, 0.09220248772402156, 0.6639689715339533, 0.1819029849089762, 0.28233881650039483, -0.0887397824251521, -0.12879484796205523, -0.11255954893409004, -0.09670490345550846, -0.738241073028729, -0.07138484278094642, -0.17192365975993287, -0.05913981673180764, -0.7182185552367343, 0.3230908639145636, 0.3489661018846386, 0.029714205114669198, 0.5726898893638979, 0.05013096431907046, 0.3321857441606894, -0.39902410848148073, -0.3409344189367134, 0.3203331131700197, -0.509126993004255, 0.5320664491537849, -0.12368761882773, 0.20045196382368452, -0.517432817252635, 0.20184214398490416, 0.08271967231863556, -0.08771886199047511, -0.09809199112558856, 0.4782194548169953, 0.24668513539666603, 0.1725722538452185, -0.21299928477138472, -0.330540981996817, -0.2558149871158359, 0.058292235190369066, -0.7140860894152419, 0.4152829085777714, 0.028983234111957256, 0.08270169110113262, -0.14192206377144026, -0.08186485520743675, 0.9192272943524257, 0.18660617768964324, 0.04559317776291593, -0.3884792116609216, -0.21878119098982593, -0.49494926003964346, 0.35989186157430997, -0.0822158224290447, 0.3082859774565014, 0.022384167092662142, 0.09366892424737541, -0.14646619903979982, 0.33057562119598627, 0.19909452587871262, 0.10055377434332972, -0.19184555312922294, 0.24429143480733148, 0.3864081845990809, -0.16919369112633686, 0.21552602037065985, 0.3225390948356468, 0.2257461725170883, 0.48548346975160905, 0.05627524389304699, 0.14460047089021066, 0.4613581150461691, -0.21478439997309154, 0.0022021351684662514, 0.3592584066687824, 0.1121397224705991, 0.016499153825045396, 0.17603344667576842, -0.3751604163187003, 0.46367177841633245, 0.1323176127081581, 0.32910785230699563, 0.43615476036567974, 0.2572167976769865, -0.17908707846162078, 0.3818348734273606, -0.47582679589188165, 0.30297093413975373, -0.5786807628042824, -0.08732062878209848, 0.06974957488778714, 0.6119082252666025, 0.24799124551908425, 0.47230564324621904, 0.20217540007894036, -0.22374485080870737, 0.5985407104027071, -0.26806841661810515, 0.5894271517611928, -0.5579813684391318, 0.3871505745657713, -0.21386375258537507, 0.06269722820425881, 0.13425717684645763, 0.5658934837503715, 0.021361917369437464, 0.17645802854767273, -0.674244854346934, -0.18713654691793805, -0.10024456527051526, -0.6335203835454815, -0.05786187536840951, 0.29293872066975984, 0.19357110273601102, 0.7400401113855827, -0.4586619753152712, -0.13859744330239368, 0.2170339401506485, 0.455273254471767, -0.3039946978858543, 0.5842169112737815, 0.2673381959149523, -0.4842335191389332, 0.47380936056280565, 0.05873411928269012, 0.3367152685923442, -0.10266810902517541, -0.3012487561722606, -0.0021274335606312326, -0.15920499433971383, 0.6092688452820547, -0.589110452075421, -0.023456514393430092, -0.13731986415665542, -0.2697641848334956, 0.009020502298658088, -0.16564488605989608, -0.03668929941190431, -0.032861462331439044], [-0.5052912668038522, 0.330262189251263, -0.04664025368635019, -0.15531892854423118, -0.3728667051254035, -0.14575511864321358, 0.42234334508355187, -0.04581026452038342, -0.07229914090545056, 0.08612738786983469, -0.13380790071617507, 0.14797033105813576, -0.29706269654957157, 0.02119220578073103, 0.8034600011212825, -0.485745594723836, -0.5146595441632041, 0.19190687347260246, -0.04956762637603875, 0.3369792580960532, 0.24540333662046965, 0.4737774525613275, 0.05439249265823322, -0.7012976918042552, 0.2907236134050917, -0.19821419626700942, 0.4717953220192951, 0.4396166160656456, 0.5862357397732016, -0.03174505144881553, 0.20171256218289865, -0.7597844829165074, 