[[[0.005483266121197341, -0.0691163156032793, 0.04138106107463042, 0.028636035584893395, -0.09411158553375079, -0.24997953530280637, 0.06542062045561121, 0.04945162714432812, -0.031634871903108895, -0.1985162849653945, -0.16761462718147513, 0.028397103378609234, -0.0014223981854137137, -0.060787752679555614, 0.02059099493947637, -0.03951918809752849, -0.2780807947922131, -0.18620937657114184, -0.024389513385405345, 0.15220228637851105, -0.037250540172734846, -0.12314422061418762, 0.0637153148906679, 0.12868296342049484, -0.11033118551679831, -0.09501912526132111, 0.02610225313790086, 0.10272252665914833, -0.13675216263950882, 0.12298481168709613, -0.16915292371170543, 0.1412601568470285, 0.049378989325013, 0.043895686189465426, 0.04311489267961847, 0.07184613492901805, 0.16144047127782607, -0.09243354027877018, -0.2081169502919578, -0.05324781859463987, 0.10573375087290245, -0.010983717091136122, 0.0005151590669076743, 0.02049616216526615, 0.002928419720064472, -0.02121912229944799, 0.07088908539768733, 0.044528846869057, 0.06236125549853056, 0.07287931791706978, -0.1656153809088309, -0.010819267825232721, 0.2696224277747196, 0.07463246264016662, -0.07038169149638365, 0.32411368623357684, 0.10074326666252625, 0.09112572620525954, -0.16069594977814095, -0.23473908950182246, 0.11325043591994614, 0.11738741141440896, 0.06381412244664499, 0.17341193750803086, -0.2028779177443688, -0.17009378683985213, -0.03558850362533012, 0.04411859065737227, 0.1735923496049461, 0.0491573837153151, 0.03871336253226748, -0.0814996367318755, 0.10996606933836173, 0.016535158111491203, -0.05831074125679602, 0.17075252157642504, -0.05178217822244712, -0.040819557774733305, 0.23446384089197186, 0.10652588491455696, -0.23892730910277588, 0.11295732637946572, 0.2319767608203864, 0.028953271279886318, -0.14241143207796614, 0.018875616744236177, -0.13966062703874335, 0.0639388719229184, -0.06381082829025725, 0.21208897379976044, -0.011441433773764897, -0.0680347598358255, 0.10456493839634722, 0.12700859143034357, -0.02350426985383409, -0.09168809291990943, 0.09797902593243489, 0.001050104527120492, -0.3094459154558678, 0.15855099847133952, -0.13170730359892777, -0.04900157404144754, -0.07648850239444845, -0.1518049394620605, -0.01571198701843679, -0.11530398368919093, -0.16587557325583555, -0.19966009037628973, -0.014913703724830297, -0.13017189001226842, -0.13944279542311827, -0.029522200100411813, 0.008681727358224768, 0.07670697527967878, -0.1327420686308674, -0.20093431816912471, -0.13412154500738754, 0.12721796674583, -0.18414960361245983, 0.0027216836132974514, -0.13984518537306664, -0.07905919029970453, -0.001654883805344342, -0.13106111860210232, -0.19964981201560408, 0.10783693278551322, -0.06217901498526519, -0.040861760137084674, 0.064735491974517, -0.1669513852128332, -0.08727431562999631, -0.22232761024518, 0.3254430381680549, 0.12906624437141187, 0.0748274624219357, -0.1318529580786587, 0.0565047193875948, -0.10806196546303291, -0.12906413151997392, 0.05347608710812366, -0.14475400084571963, 0.028882885182154053, 0.15699058693777723, -0.12309777435415512, 0.0202679336805122, 0.048490703802967, -0.18315739571565157, -0.2193094685320391, 0.0315022553661668, 0.14800361017519512, -0.0617753199512365, 0.0053596992562909285, -0.008830931237628738, -0.21036970659916265, -0.10895308159465827, 0.10973957103122095, 0.17274217980650336, 0.007732787251580793, -0.14394297460613434, -0.13476294273645872, 0.05301903977242535, -0.071524992442993, -0.041153219702464876, -0.08058483743014842, 0.22652579166299677, 0.01774857999552415, -0.12364963531998178, -0.1458029516690907, -0.025151041438601272, -0.1967191781571728, 0.15215488334900307, -0.12729404822581317, 0.03320446833903556, -0.0069130808943873735, -0.2476179007665841, -0.0987386823019723, 0.0258809609781938, 0.01677513198077312, -0.07797937988254594, -0.13253170795744704, 0.054035729062719876, 0.0037930178192504766, -0.15134141669483503, 0.19837749179558123, -0.3555072014581466, -0.23880388560757815, -0.18387394192324139, 0.03625464302467409, -0.13311309310793562, -0.17402037203756832, 0.11668427339558976, -0.04146910546710659, -0.15616787941655152, 0.2552746122260023, 0.021213378644572744, 0.15992835090280344, 0.018235036789263803, -0.2455921400410377, -0.0181288764805105, -0.07288489471293037, 0.06649731102983157, 0.10982623758110673, -0.03893899415446464, -0.03876895892732922, 0.014215163545193091, 0.0536099256832553, -0.20782648895904338, -0.05815133889969288, -0.22340166898033328, 0.0761924916275469, 0.08620024571171261, -0.20488948499372808, -0.2086705936175669, 0.04162384293517007, 0.12674069298962165, -0.07276629153623979, 0.26969286291434436, -0.010530860007477768, 0.16456693272113188, -0.17356429505060655, 0.18379733788868804, 0.11085742887688298, -0.1423168172272751, 0.010842446210265358, 0.04405386920393663, 0.02655874456882397, -0.2855384389366682, -0.12290811977410085, 0.051037399320677225, 0.017164561518203857, 0.04163716850221995, 0.12355507635800883, 0.017179630278228317, 0.11545316595761242, -0.15256301161069663, 0.16897712739121712, 0.14908269262231003, -0.02346956812492039, -0.09338135764896395, 0.12439457184251887, -0.07477162761107238, 0.23990614027177767, -0.05299688122519544, 0.12614573533420811, -0.3081527937634644, -0.24918358833038282, -0.022006288370931753, -0.3253558864393252, -0.2751800060460043, -0.04310873143880881, 0.016074037330878466, 0.22633247509727858, -0.1536412612332045, -0.052707226088454, -0.2610045354510626, -0.03179652156560495, 0.2070867834510378, 0.05620933432945695, 0.04015535912817233, 0.028716280623806056, -0.22721195730224575, 0.028811624647602445, -0.1321875357028524, -0.1536207111870071, 0.1086117263623471, -0.0067739621571270186, -0.0075989870689142985, -0.1578508745629719, -0.023011838997163053, 0.042668315898473905, 0.06496801489542053, 0.16224445193375836, 0.08447999656068526, -0.14119858837626412, 0.055626070494239836, -0.18957343750719413, -0.18424855769515924, -0.06233212358633196, 0.12173504497025464, -0.12487060652859712, -0.05068328750518904, -0.13529439615566982, 0.0945731456720507, 0.13063575531606889, -0.0468021659954111, 0.13330497633007504, 0.2739891168386665, 0.04892437336634169, 0.10801858334525437, 0.08787167353030975, 0.11804969231539503, -0.06979713488904668, -0.10723063965762454, 0.09437473526168501, -0.03884206051678399, -0.2219019483832081, -0.05124312157194595, -0.005022953272994142, 0.06457063352181816, 0.19158863437780776, -0.010511919510806675, 0.030142117040890475, 0.16292504371258046, -0.09058157212679667, -0.3146935656789351, -0.042564888931367846, 0.08953116813443433, 0.062203178335578244, 0.028881176739413535, -0.07545214777988146, -0.1574577102215868, 0.05466331095663564, -0.004718948868200874, 0.1811953206450631, 0.013016822553612447, -0.09037597880461387, 0.042573399714394146, 0.3261833402264435, -0.1301103928147453, 0.014971773453403286, -0.29881693374794605, -0.1434465972368925, -0.011070596294232408, 0.0696142482628801, 0.12483624547605397, -0.0338361224174715, 0.1095619307924902, 0.20544360878297477, 0.06711685888379315, -0.03307500652728538, -0.09186749868506312, 0.012069219245469125, -0.03971010565143896, -0.11668323272864563, 0.08017357317562686, -0.10551011094801138, -0.3467117155228754, -0.004499425422831964, 0.023959236607453107, -0.10284102755939724, -0.024339670144536595, -0.16098601356459152, -0.02502670025684095, -0.043371751287408, 0.26023556253281444, -0.14467130069675982, 0.24097306233659288, 0.219243611559607, 0.0820664078427248, -0.19325426449363547, -0.16784888600393214, -0.2273992542001868, 0.17470383627674035, 0.20400984407003395, 0.03345356706215541, 0.20488564836427878, 0.04373792727411812, 0.34317749600697584, -0.18272519942059198, -0.16524576555727802, -0.09538080316212647, 0.16527840925470333, 0.0615074301660697, 0.07790356842034342, -0.09425398903965897, 0.028424003314839488, 0.047808044860005554, 0.14446204521649395, 0.012057842268768042, 0.0005509945333087252, -0.02420365285364453, 0.1498530913821336, 0.18950315290378805, 0.023642822576019615, 0.1909554796638801, 0.06992928423121916, -0.0010598431966167977, -0.19280173781448542, 0.019148921857330012, -0.21472994081676433, 0.2184088192211741, -0.0785396540598853, 0.33582771131342026, 0.11891400394363616, 0.06901608198878957, 0.037447210135127376, -0.06396641307154097, -0.2340699003147922, -0.0393229040252306, 0.09541682430366631, -0.12039343710671953, 0.08659698444603543, -0.06661621538029974, -0.1466190521274351, 0.04661124359422857, 0.03310710845917033, 0.00025497273979228604, 0.09708939134503046, -0.11445001454615981, -0.028648024300073852, 0.1678100318653226, -0.20859609298984944, -0.08621755616791345, 0.05670909769503328, -0.047291316081322116, -0.0224567829682087, -0.13955741459771884, -0.058349701703402646, -0.03241662253133967, 0.24151426226758346, 0.0684578054946991, 0.06696014148365223, 0.17372740415885693, -0.013078321019262002, -0.0629367854875766, -0.23245677345047563, -0.032122234040062245, -0.010581029207323447, 0.055933533491873515, 0.028244701848938125, 0.1741499711083095, -0.10802185753949088, -0.11378511540325334, -0.08012830121011702, -0.03319419175720753, -0.05680745218909667, 0.24829375968272493, 0.11202531737781503, 0.17741326997682447, -0.12236195330071324, 0.11744209339099891, 0.07145566744727534, 0.0843650823719464, 0.06959894617409668, -0.05737259782827477, 0.10278410858848677, 0.33039568650922263, 0.21744132160997892, 0.1542543551229659, 0.1960753431717852, 0.15515354696214015, -0.16267596535309076, 0.04581707794541933, -0.06623395239167451, 0.24315554610194678, 0.010747849506957632, 0.07981377403500386, -0.06427455176280669, -0.020643701899151826, -0.05847782606011306, 0.11251622983433478, -0.0771336658347141, -0.04731195142214501, -0.013448661943877503, 0.17360017327874508, 0.22692765352166525, 0.0002911833184074584, -0.08205468703036213, 0.0967780917106146, -0.04085994185200873, -0.047023284345657085, 0.25113395848644204, 0.21385881072942986, 0.10955362953420693, 0.17913186409892093, 0.2840076103581819, 0.24446070729056468, 0.1499316561807417, 0.2099620084978703, 0.035055747105072976, 0.008211518974987553, -0.03958835517166768, 0.1431084380643059, 0.018864537792017348, -0.17164980924363693, 0.06841664454594908, -0.13051501155747933, 0.187944938855289, -0.22249123660776207, 0.23108358044047456, 0.12329769964424643, 0.09822044462027744, 0.15019608174456436, -0.04931984582081059, 0.23654872861070328, 0.13341157344470944, 0.021207811652528625, -0.158258672910003, 0.27384567558967565, 0.02885557079755953, 0.11838678144751592, 0.21029100153925767, 0.510832774735935, 0.08813513561694523, 0.14182073938499642, 0.11760095392280256, 0.1736393634459566, 0.1032727173348476, 0.0911612952021059, 0.2070746787093153, 0.04269028848550806, -0.04202986497368213, 0.007030900302386286, -0.023836475669829417, 0.02821402680889881, -0.0916564785117334, -0.016855556848163908, 0.02341172608799039, 0.07732819156673218, 0.12071207323516281, -0.04401242207476036, -0.013456556698763496, 0.036623480258580796, -0.24997969366419664, 0.029279330281494924, -0.2121791080775797, -0.019976696893466164, 0.07979283935775612, 0.363754335066345, 0.20305712823085054, 0.15120525868067788, -0.06250130154350687, -0.04180490926750769, -0.04905915735040929, 0.01810476486836767, 0.20452860224064826, -0.02699870732904827, -0.06663053278914047, -0.027467397451834227, -0.02308734086108559, 0.1582302414305299, 0.042828755457215185, -0.1847995656200491, 0.11152683713896828, -0.013519252252334671, 0.1861759351999393, -0.04777304508404723, -0.028908783372843177, 0.2524177985043152, 0.09757345749120874, -0.1547163749000854, -0.08065457818912786, -0.3083434746098908, -0.03609494348011742, -0.18299188913945086, 0.028960226119055923, -0.05635194592082677, 0.05409858473317206, 0.10415513140175267, -0.1480275310355463, -0.07760002576638089, 0.04573785148485912, -0.3218145069486155, -0.10691079667620122, -0.04994252112709302, 0.1083140973121356, -0.11617432864501064, -0.007539868067491165, -0.16860795097356743, 0.060873841582266566, 0.0250755750708263, -0.12098913598485653, 0.17759894228303508, 0.06825842482999436, 0.12214444041909353, -0.16328611622460362, 0.06332416477731684, -0.14120333405003985, 0.032398541285860734, -0.06650679896642986, -0.37191369933932084, -0.3780015202155636, -0.0039370342057153855, -0.1388600497795901, -0.028747788972471915, 0.26651010658472213, -0.2372459173554731, -0.08219721805244937, -0.2303412450854372, 0.015343278872315822, -0.22937037526707096, -0.19724247610105647, -0.09313447565530941, -0.06499440104911645, 0.0549705161455509, -0.07369584902430588, 0.03310688406135239, 0.013406300024159129, 0.03057423201632014, 0.11473362709885344, -0.02493408388186538, -0.15865386000888618, -0.010268893090479524, -0.006787998287926487, -0.05950493058745862, -0.0042707577593873855, -0.3139905388996898, -0.042662298046176675, 0.11986743146175576, -0.1666250468574424, -0.15642699568791585, -0.0597367494643583, 0.09144974387200572, -0.319247091752874, -0.1883676696551403, -0.004164089732678261, 0.05325865852405535, -0.23840741870532675, -0.08951246119385296, 0.0012626071882730135, -0.00025125609653491894, -0.17684919571329316, -0.0031198989037295034, -0.1050696434589682, 0.1501936123103403, 0.07815051412303257, 0.13812108124075118, -0.05183121538809177, -0.01773241110223266, -0.031212303503612752, 0.19833703497239538, -0.07599137828044411, -0.15010156717137818, -0.01383645693011988, -0.0340773697156073, -0.015715166485304723, -0.12196241379631945, -0.16283691238930484, 0.1571688389166802, 0.14388550381115606, -0.11564574210703935, -0.09500308048279872, 0.03454626697880778, -0.17456476937158275, -0.17704968173794006, -0.07147440593180768, 0.10859336339921545, 0.12078678691096194, -0.11649165005497371, -0.1956458232321522, -0.06778911621204542, -0.027088431139772034, 0.128483985019347, -0.022182638079856695, 0.03754895885983486, -0.07253349094302187, 0.14627423758299146, -0.1134837804979666, -0.2546798509464965, -0.017000460995538265, -0.13487031224401272, -0.0656433949549526, 0.009756563368439782, -0.27583535496685835, -0.09671875624919872, -0.2565015486403842, -0.14195631637889033, -0.14900753832138652, -0.06151413718007693, 0.03212103764513813, -0.08120658174814031, 0.08555072460003937, -0.09236981205808303, -0.15685026174908542, -0.1584545305673033, -0.10342172501971919, 0.21599450381925828, 0.1292913992982997, -0.03671516238500445, 0.2699978012607056, 0.15432434635127057, 0.09565913718199971, -0.20735736084896822, -0.06234686647201672, -0.007709236262325456, -0.0881074948727205, -0.26202702307580844, 0.025095039569841524, 0.041075569514057816, 0.1257012615896623, -0.0224365849526058, 0.17671389581438543, -0.02920780134957069, -0.07727881873078965, 0.09886276891078977, 0.14150535705684814, -0.2450015979898779, 0.022150896656114298, 0.2408549255110042, 0.03982906813104894, -0.16337335417766038, 0.003962387559914977, 0.08133515925772983, 0.13767014598625107, -0.26830003437773, -0.0016792221094035912, -0.05685616923485747, 0.1034049119242129, -0.07548278223726528, -0.11062737689952758, -0.008622108788787547, 0.02406222825972417, 0.21308001342969768, -0.09074835024862257, -0.00017616466296669302, 0.22012656085631568, -0.018661214646446645, -0.17760681064378367, 0.09452783325097462, -0.09908792296445829, 0.09943758808425913, -0.21855082552932623, -0.03731290194245323, 0.2646204488856376, -0.18451563950538424, -0.057933684639996326, 0.18972140575691024, -0.1257129223641146, -0.05471571733671946, -0.014187432866829192, -0.22904607918401082, -0.17805473257189838, 0.013763260403353916, -0.09218793843279456, 0.18385959325056977, 0.006164762652268519, 0.0553219754956497, -0.1670699829755987, -0.0589112466152503, 0.11296553772365606, 0.0938441929350791, -0.013056860863830205, -0.05082970025401809, -0.042042110691357965, 0.0008638447890110577, -0.12053634271354052, 0.021952443989423996, -0.25163027515472997, 0.014070676587571693, -0.07507055926143194, -0.005634651123847516, -0.1751035693189764, -0.009970116882690672, 0.0828779411049968, 0.02898962629772066, -0.19814727564059115, 0.03640416780860867, 0.022792725429952504, -0.09130472061352947, 0.1460287877660607, 0.11957379419179494, -0.050504772938859896, -0.00668190970898321, -0.2419870074052979, -0.029562484643702595, 0.03009444139263394, 0.18371815647578676, -0.01807365609125274, -0.06463472430229472, 0.0639677988215057, -0.12285201688948807, -0.07383831994342376, -0.16284302537409118, -0.09176016845115713, -0.19267396733423578, 0.10842437608210526, 0.15191049711259888, 0.010904625968049446, -0.04170625628230151, 0.023887614238156, -0.05428354062681563, -0.0657377621761533, 0.06780854362800065, -0.11399997491121532, 0.06956403697979992, -0.1333932342483991, -0.08904970029064933, -0.07993342310000391, -0.04042131710956861, 0.1126405119222383, 0.09493223086226722, -0.23348939194063295, 0.12270374124156735, 0.23990814033466465], [-0.038333831915826476, 0.21443266977352526, -0.005607000923502101, -0.1740586236404095, 0.11431648477055631, -0.1223275618248997, 0.10319864894813158, 0.06346890393774803, -0.15193713747189636, 0.04892527103346929, -0.08942525853306187, 0.04737973834487217, -0.09274760750054299, -0.23857292251919557, 0.05516128871826708, 0.016839038870639655, 0.09509116463430436, 0.19452242396304248, -0.031210500135102227, -0.2627491956368732, -0.254099697423525, -0.07617573652048273, -0.11946895761729473, 0.06621283596523664, 0.017972713963131656, -0.06186431516069601, 0.06658153501814935, 0.12965982785970614, 0.23146833992493965, -0.19620278061291097, 0.013989730592791334, 0.20933345348806479, -0.07350772527098574, 0.05485849953461616, 0.09897788570121115, 0.020173747855272962, -0.12373247705562025, 0.044514844905180775, 0.14208597937053033, 0.07852345124315516, -0.09686765310702825, -0.18600155929198994, -0.1440173186630405, 0.16927430168601662, 0.13040106999772405, 0.06365999561020898, -0.2644077499775301, 0.07034956437621584, 0.05781873134779722, -0.231411060159969, 0.08997571079598977, 0.01459239122321493, -0.007455144504531236, -0.15733151939594767, 0.15678278944815943, 0.06057644032956293, 0.03044395637258489, -0.34026741284283135, -0.029940872964634123, 0.11910937296464, 0.15715390727421574, 0.17022215475611865, -0.13582589883051105, 0.2241599975946753, 0.057238571412242256, -0.04809536168631695, -0.0860741185476835, -0.14813509046201598, -0.029895855440662058, -0.2368095944769125, 0.15318047791032777, 0.3294826765947134, 0.12363206546210309, 0.004819548388661334, 0.08197044595633105, -0.00797787996017012, 0.13157443111199105, 0.07366227309200049, -0.02707457590881287, 0.15790460987870766, -0.13095012099769057, -0.17553019500030193, -0.07140176868995401, -0.11199811542743894, -0.1767324110977019, -0.06638767923405896, -0.1284561255599325, 0.044003414243953216, -0.007360649604755981, 0.28833826015971165, -0.18101857144225325, 0.06393644340289582, 0.07993760468677388, 0.06422478978769013, -0.05013608068005085, -0.07293294801047989, 0.18591029970154033, -0.010823386791071027, -0.03441355194118555, -0.15296795984317788, 0.034115603745183486, -0.07216727479649264, -0.228473168231293, 0.06576672241144253, -0.22596127830547771, -0.1887620963597925, 0.003285702032609612, -0.11182014443945189, -0.2938821593105012, 0.1052212650292262, 0.08219093168425129, 0.005194739759148357, -0.12012507685037538, -0.05797446780146388, 0.002507107914963956, -0.0014677405499330858, 0.14478468230195998, 0.16104062587618775, 0.062430131811922175, 0.30987196397471684, -0.09951859639763645, -0.1619547402437617, -0.10640742637453449, 0.07710278435116788, 0.22293586790168612, -0.05513572590434282, -0.17885735648495568, -0.06411332387171143, -0.04624930406454948, -0.10554487720743966, -0.14217402617466582, -0.16055681014822706, 0.016879305404437498, -0.1430479298762096, 0.09261826227659356, -0.17048058492924617, -0.32504806669941777, 0.017917407031692142, -0.0949519601787799, 0.08505119317261968, 0.04985661095849802, -0.01543851220102431, 0.09792863865517928, -0.11560384403497746, -0.012053678262445966, -0.11771344556261377, -0.22706709451340473, -0.17418808963437027, 0.05507081044950793, -0.06272768412714122, -0.2223043970222542, -0.009098545835470708, 0.3098755012794378, 0.1574407696170865, 0.13689666979724394, 0.06743249372257118, 0.053562716055599556, -0.08776972942641412, -0.12797865473370568, 0.16719152380693383, -0.013637106754180572, 0.08314022224175334, -0.12113720704570946, -0.06328974059562774, 0.22595852238378697, 0.12162727486794325, 0.09362717901727635, -0.19571741288763855, -0.007673040567856557, -0.13995347910751946, 0.01849512731201916, 0.13220199837169386, 0.05883439317894971, -0.02624446964235637, -0.04650895374322534, -0.06482543569400903, 0.02152493330845927, 0.24361395605077352, 0.1354621203429369, 0.16967153082224776, 0.39111024765438424, 0.035028642775498574, 0.06688835721605038, 0.1511139431104445, 0.2834232464487146, 0.15111968949513077, -0.012089559600054622, 0.0978403322384174, 0.23951212207249967, 0.13879339870195798, -0.06910650269276679, 0.1195707322003308, 0.20871965938790632, -0.1477959313308225, -0.13409800814936293, 0.10448714260690363, 0.030106641144301397, 0.027790023001411392, 0.01055669011986863, 0.020522491385885664, 0.07599768844135008, -0.14190047764549915, 0.06289726575273158, -0.0579372113048234, -0.0038440781537456064, 0.20665002844673544, 0.16362517682581057, -0.21968466152489913, 0.18051163462190994, -0.07892288100792426, 0.17033281087866006, -0.044924923680090385, -0.1628101544147364, 0.08592771576353092, -0.12848768452362888, 0.13861485978493593, 0.09517235552489593, 0.1370601590587841, -0.13381032179389382, -0.04193792809833135, 0.0733676061185487, 0.043271887157836066, 0.15287138211251644, 0.041954055417704916, -0.0050541388573974045, 0.04971070369922494, 0.08362335604526878, -0.003529918280536649, -0.047028961908106875, -0.13928775167151974, -0.06096115345697541, 0.03459115304137082, -0.18608212817470746, 0.0066510515813207926, 0.002117432557340007, -0.0038201403159847792, -0.12337261646971433, 0.14580100662684012, -0.10321004613946042, 0.14158608004043902, 0.057355770957343656, 0.15241355628142697, -0.15146458411918656, 0.12918259249823127, 0.2614270242063442, -0.000337921796412322, 0.09147455557502744, 0.08455224815946719, -0.038411558960251724, 0.06798160354714236, 0.03149970643995238, -0.009915027218391038, 0.008125677249316312, -0.018950077735350023, -0.19464352020159664, -0.025455856284063685, -0.02188071732972776, 0.21393064954265822, 0.05210468869771426, -0.024037602128179455, -0.24004836047940234, 0.2472728461461711, 0.24176541841656304, -0.04662171001033188, -0.14250969641144204, -0.2889505429284167, -0.19398084932436474, -0.1427845323010032, -0.12245200293761609, -0.2527031142222513, -0.09459608704880774, 0.16845588950729132, 0.1341203197114092, 0.05374102018196067, 0.07545950633705638, 0.010287329703172744, 0.23942022823010756, -0.008668615633211904, 0.09121589372031638, -0.05701416942788103, 0.040648463906637115, 0.25481266356024024, -0.0115792297080296, 0.0019214418661708072, -0.10777739386124906, 0.2155560819513558, 0.1433300016914198, 0.10271092240656725, 0.029960071918994503, -0.19228455512536669, 0.2972775286436522, -0.015749089083703854, -0.0664239992180412, -0.13994013509024364, -0.1311243132428314, -0.1097870654252641, 0.15301661371816191, 0.10932816385033566, -0.004917044243503539, -0.09950510286780334, 0.010365156329082732, -0.2042887742259849, -0.24918425739580724, -0.03722666361188032, -0.05549204969880367, -0.3133388003113363, -0.23740028393525806, -0.0019702867856535504, 0.03065994761893958, 0.08075505280197001, -0.08037861122975813, -0.011982265844738119, -0.17532693549384726, 0.2239216519117787, 0.24804131360332288, 0.22977596115828916, 0.015119340855774002, 0.04953960186707169, 0.0776872142462518, 0.2246338869495907, 0.05011105339487093, -0.05420555178919127, 0.01894478020959806, 0.08000444380522224, 0.27527352001217115, 0.030452356683803534, 0.11522275013055595, -0.1778050688188118, -0.20794167337327935, -0.1773286607616153, -0.18189605715523427, -0.09989323611977131, 0.34330956283351804, -0.032484520152794114, 0.15156346423848935, -0.003587629928079093, 0.2592875892336055, -0.021919269211283534, 0.022917958590310043, -0.010710789700782273, 0.28229542502833754, 0.14781182810219232, 0.261153203394415, 0.0850011355906998, 0.015806350258649807, -0.17925978248769575, 0.31691784343988977, 0.29374923007875275, -0.07191098966997955, -0.24859112417505946, -0.19627225106200485, 0.0008819771400472615, 0.06615209010045607, 0.14914218439020674, 0.1001807143775265, 0.3779880365303337, 0.16927098847462127, 0.059526859494925644, -0.06136138854980218, -0.010051607816236988, -0.26853424349220845, 0.0725573542218451, 0.2409425117982869, 0.07097038690168737, -0.076596167290248, 0.01193308332377526, -0.03330955234567149, -0.1392942946743322, 0.058668938853712854, -0.06864748342995314, -0.044325447783905854, 0.20237826416090984, 0.17718547022380052, 0.15406192835851842, 0.23299581593811383, 0.014424700450711144, 0.2917680052642251, 0.11505857361787711, 0.037460167238704135, -0.2608799891664927, 0.028707551903479164, -0.06462876586208877, 0.05859163574449881, 0.1157390488607076, 0.11107018409418458, 0.00019278125186872406, -0.12358436466923794, 0.0061237549295482105, 0.04914011932234948, -0.032489328427064916, -0.09817555742976036, 0.019924046514415865, -0.20343378537476142, 0.007303240927546343, 0.07184820804852535, -0.11612822896033008, 0.02214483935364976, 0.040237022263619, 0.0029575194290682267, -0.051090904189849365, 0.0016151842812077834, 0.018715350739375115, 0.1815231651827949, 0.2697036439730726, 0.5768547923159979, 0.18096262543860356, 0.1026291627802035, 0.17138309958364856, 0.08659255977010745, -0.16100163414073615, 0.16001313639702014, -0.01540300799428216, 0.004767017331024039, 0.1217473098784586, 0.22399682717021704, 0.05657417461556524, -0.00760260193139212, 0.004871229496104625, -0.1594880437429395, -0.011932825479266107, -0.19199184776332942, 0.1353537472350869, 0.1204169039216349, -0.10126740906830027, 0.08290881766033426, -0.030258122521927635, 0.12317228963006585, 0.04147352554114159, 0.21026257188483063, -0.11365108270994045, 0.07099905774921515, 0.15529310594676485, 0.04110176946931735, 0.019174262597604318, -0.16153794574683505, 0.2134400812389968, 0.18909918130897546, 0.1834602642843779, 0.013298644165451533, -0.16489883796632857, 0.26643936117774636, -0.007398952779585826, -0.07264425457433006, -0.013542496846616146, 0.01024525862618468, -0.07858312391957928, -0.3334874867337488, -0.09308573887126348, -0.01966219064029539, -0.15942433260382155, 0.10819796996855516, 0.09794979571340902, 0.0016832610118101637, 0.026136711108131136, 0.09396775110359493, 0.13199160297525478, 0.2432529654009398, -0.026331316687416624, 0.14984498768247312, 0.05776333339257394, -0.09382219814899485, 0.008773068701177578, -0.02819912712823572, -0.003187447838900377, -0.07271848900403054, 0.0008248186260990194, -0.2272392454135915, 0.030487093641166897, 0.3410466148781193, -0.24580341791555485, 0.09155186691262597, -0.16967889856866464, 0.13986373440134328, -0.03129958886091287, -0.02549653238207597, 0.016700712823038363, -0.019650291865864263, 0.0393350639779908, -0.016641077131326083, -0.26582718427682916, -0.12843150489052496, 0.004538640824642735, 0.006273428052268648, 0.01615248550303206, -0.08183039040883124, 0.10475926190524394, 0.036231369929119524, -0.06663304294808295, -0.0039043700017922507, 0.10240297196347652, 0.08261451095189964, -0.09858209316823331, 0.1567783244447996, 0.06729807405261515, 0.1667724118692276, -0.10208949115807736, 0.08509357581321236, 0.0009388805924557487, 0.0837209669293153, -0.028803772181379268, -0.11488840375032587, -0.20175918804483225, -0.060053517612270894, -0.048693202142131055, -0.12423323456299835, -0.32787222048887366, -0.007162653662456701, 0.09547197679475782, -0.10245842994973092, -0.12814978729417942, 0.398060397132617, -0.0006061029750656395, -0.06945330885225046, -0.12008827277795261, -0.03002564081896694, 0.05555003398605713, 0.1754716361443297, -0.046947927651816795, -0.06502816975092918, -0.17574258149931257, -0.09394139691537283, 0.22717815064980593, 0.1623776097501562, 0.1315520303630943, 0.025896478719762674, 0.02312930758035871, 0.047353920573337135, -0.10290130858342211, 0.207052091082071, 0.08087413373958287, -0.03547367253841286, 0.12741960479663372, 0.06204159320355104, -0.20226548566364652, -0.08046254445120896, 0.16574925145146463, -0.2598185746717902, -0.10962120630775841, 0.21646405027356258, 0.13700831319970838, -0.2591642435634459, -0.18151346406505547, -0.06839561358375011, -0.03262975517410166, -0.09447154351482745, -0.16686273659068285, -0.2980796423338234, 0.08566543488321357, -0.10643895376089386, -0.05049769388876158, 0.183447480187553, 0.1579322591306935, 0.030870579097991548, 0.11793209310885489, 0.04157699937952855, 0.06907036522846474, 0.04975687661315938, 0.12407369009580904, 0.034831553091652215, -0.0059239353220948985, 0.08411054510929435, 0.12122807776092752, 0.03052620962757683, 0.3062778187838367, -0.17603987097022744, -0.37507137293984993, 0.15490167230206772, 0.135416404612771, 0.05402557940169673, 0.14654087885880396, -0.12141943005089752, 0.12584490771603368, -0.23622946715080934, -0.376359053126014, -0.257922542036041, -0.05494558167320053, 0.12173954226751706, 0.2733334619714899, -0.15110133996747807, -0.04616111597640244, 0.03693713553435524, 0.11444623468955435, -0.26214028106843534, 0.15713629658439013, 0.037608477340349285, -0.11610527227427712, 0.03931585541845604, -0.08784135331865545, 0.14820854505763642, 0.14249775812962698, 0.04356537949885334, -0.10378233023957067, -0.15367009302226067, 0.026642892334716558, -0.022707433609371587, -0.05698329784779392, -0.048410065683493486, 0.16811935584521187, 0.14405513965386635, -0.1843660134417639, -0.09489869152952894, -0.010234933224008667, -0.12501549653758853, 0.17118405561967748, 0.23654132346929224, 0.3685800474922761, -0.06991768415405562, 0.03286501155578598, -0.1256377077741471, 0.005424833472148792, -0.03440794180592005, -0.02560310852273071, -0.11835703034051374, 0.062114485564955475, 0.10498284392713707, 0.01856755514386512, 0.19108128108575806, 0.1203594204506049, -0.14655424870847594, -0.19692065180957036, 0.020695205991583168, 0.08148759029380472, 0.2767927729314428, -0.1895076102700974, -0.16987776701930768, -0.16092387776216574, -0.021355944098086752, 0.049972131870991275, 0.11268429812707603, 0.12091160206894024, 0.0888953473293266, -0.23290803696355164, 0.24356229698426318, 0.017232661850010676, -0.010832305257703146, 0.006203349645470882, 0.08492335132727537, 0.07140339692792796, 0.04605083979032854, 0.10504393927830044, 0.09622131460447143, 0.12031647190495258, -0.09234931228739322, 0.09475207818947813, -0.12296439668678603, 0.042075959838089504, -0.03159927307691961, -0.20921856850524895, 0.09300017612968128, 0.03039347314328514, -0.06279839658751812, 0.06761150790552146, 0.21448871978898662, -0.08160615264069271, 0.2327372044842441, -0.26092817302318155, 0.08907826014031917, 0.19035748030462873, 0.21581255301511168, 0.1008937129946508, 0.059650289439664134, 0.049371117252660524, 0.11066803349448956, 0.20776945072399813, -0.06193444597799355, 0.1791924802546925, 0.31565543684989367, 0.08085455640090074, 0.2108258604737679, 0.00039628055134594535, 0.1332564849091576, 0.11131001543646703, 0.10503116745575407, 0.1317304008048995, 0.012559149820475951, -0.08190022088510286, 0.008405842517765343, -0.14741874656307996, 0.0011020573003716564, -0.1934701516067798, -0.20673407695492343, -0.1887376968848825, -0.02200639869550769, -0.15512817067932871, -0.012854016855740738, -0.017800132828531597, 0.09201097139438552, 0.2356999510868244, 0.1453810719268727, 0.0007463649265536414, 0.05155554548923859, 0.07219517471301272, 0.11582835932129698, 0.08458839216461998, 0.021098816034059657, 0.0796168033727947, 0.008818422252919834, 0.029726557492474968, -0.07732201725319933, -0.056610179351499805, 0.013679992980655652, 0.038942198880988606, 0.20293814354040174, 0.13391019045506886, -0.05345166602951449, 0.2734956894561815, -0.14675585309750866, -0.1254272019128918, -0.14429646361306886, -0.25665032379854497, -0.06631115107320378, -0.1768285814830864, 0.037364127029812004, -0.16821640618690767, -0.0879214129425823, 0.036242035737847886, -0.14802153510667906, 0.25719460445638725, -0.025058423303178996, 0.13421408685173472, 0.13910491954332, -0.12254573211248806, 0.05992727568045197, 0.0013454220829650142, -0.011143896018574845, -0.21796432695338644, 0.027815227428762974, 0.042159167078953674, -0.04538348066553002, -0.05645258734382658, 0.14319922758762785, 0.0324020298367179, 0.11973898540405781, 0.09678667100367322, -0.010164432447252845, -0.08297603859830288, 0.014027921554858953, 0.201087830742953, 0.08595504237165774, -0.03567211394427948, -0.06669661958375968, -0.06712028090155459, -0.06425152124114888, -0.14028864206192318, 0.303993027155411, -0.02237147877978622, 0.037581740227181894, -0.17825094588449347, 0.013197310043720293, -0.08111929374530596, 0.0053421993775761515, -0.029534235230869506, 0.018207682129921014, 0.04347153941787661, -0.13513905583006441, 0.15675884222524478, -0.016178612641121883, 0.06460200568543904, -0.235766185483562, 0.019117518575149015, 0.07749962410028456, -0.03402274310881372, 0.02017662048126743, 0.12163040928493646, -0.11518747449518456, -0.07168669138175278, -0.07241406623650687, -0.12125694266724124, 0.06400896115222213, 0.16043564070111482, -0.0014782174715447217, 0.22710388531644127, -0.012725400401989743, 0.20142000953782468, 0.09413923921692935, 0.11375661943492964, 0.18830841283041802, 0.06969341367050062, -0.12445305424112095, -0.042439674465706005, 9.40311739638757e-05, -0.03263917554006705, -0.014171450758138006, 0.06552441477160394], [0.30491969530834073, 0.06205368458753315, 0.02088924180076861, -0.07422273006469061, -0.1336515222796039, 0.19649727008859016, 0.05719834104323682, 0.04598026016073573, -0.08550063162211594, 0.05030448244067582, -0.07823928126043107, 0.1951215145784502, 0.03532323025226585, 0.06521907817634394, 0.16257358497160596, -0.02821591581806135, -0.10370119795938489, -0.16744431117258757, 0.2585375760285432, -0.04102733863013856, -0.10368495885533846, -0.08202161059157673, 0.07147254817926225, 0.17184345312182833, -0.1765888827423739, -0.14699569248785682, 0.09100571614374216, -0.013389990903982546, -0.20980745047134441, 0.030708170418831577, -0.2487058183068709, 0.10683066499998249, -0.08447058926907339, -0.04061197287568676, -0.09781299418211947, -0.10755925652959912, -0.004918461506180745, -0.006611562212618262, -0.12846170339420554, -0.119521201792042, -0.03110325405549623, -0.08936386943451693, 0.007915286320308848, 0.13686810928500454, -0.012138047532188981, 0.05954972768062042, 0.017115271532344715, -0.2814281133689002, 0.0326712222659718, -0.03556415430949772, 0.21221864020629144, 0.04611659922821864, -0.05231876483757645, -0.10899880529800636, -0.040690759949145706, 0.25332597992388045, 0.08349275145268834, -0.02331411239936393, 0.2406993596348991, -0.07220109783848087, -0.00516756546716803, -0.14603410582122758, 0.045280731212567, -0.13572446876193664, -0.06332590731924848, -0.2277685229943812, -0.01718985480792467, 0.08208538290313384, 0.055505984014374586, -0.025019086127861082, -0.005908619988069556, -0.03203043962032081, -0.14450722292566748, 0.020586268872125113, -0.04057252918797005, -0.03982501938456363, 0.05718439768857547, 0.1275876817493174, 0.030747417809239994, 0.0195714544786142, 0.03401036009062584, 0.03703672723721495, 0.10026410678316237, -0.17856961685945458, 0.09844634204056393, 0.062380067697078226, 0.0011224386522136938, -0.01527202676012751, -0.04354154203632721, -0.10282435782309138, 0.0737676908310618, -0.11963392044202971, -0.4084391737400047, 0.04926501576171239, -0.07753189531866948, 0.04990992787881107, 0.08846515574909124, -0.0447516098231991, 0.06093240242929412, -0.05612262121625903, 0.2251749194861945, 0.05692503223707093, -0.030628710756843296, -0.015741579239306865, -0.06992305891616221, -0.29809967550067934, -0.03654001594564407, -0.11095310758588639, -0.0990898680023415, 0.3196285416867287, 0.0821278360642273, -0.021283818068447147, -0.31859194063311036, -0.0465020862823209, -0.06483737783665154, 0.10948341325778538, 0.11558476815378949, 0.132678617472064, -0.35509322788169095, -0.01556386521790742, -0.06909941549637756, -0.20463568383774744, 0.18725096930933105, -0.013482562057403443, -0.053830122052892095, -0.2953206273189508, 0.12946309017038707, 0.13986095605451787, -0.07910910363078459, 0.22974664813007403, -0.10712900112111087, 0.34933203024533965, 0.27090742768839376, -0.350562723432605, 0.1653233988939608, 0.1430683209903203, 0.05556412051078801, 0.03731213646914002, -0.16243523244706604, 0.3117020449949383, -0.05287494883385926, 0.1761571812420283, -0.28380080605799285, 0.09676836827512697, 0.16019445874048768, 0.12221997647499568, -0.22934754629336798, -0.2260972817176227, 0.07364449031649997, -0.2284036097903428, -0.08468882756493759, 0.03510578588661139, -0.09334891029272348, 0.19006515439467198, 0.3140789546659344, -0.002536236831424074, 0.033179830720189186, -0.04746448100709345, 0.07162729194039946, -0.08401280642685197, 0.11051331424017362, 0.05163033310601681, 0.11503346671056423, -0.00787417429816343, 0.011986742820261565, -0.1122797350667598, 0.10067783556997244, -0.09397604041941152, -0.16959099022463764, 0.15967556184505638, 0.0649214427079835, 0.025298706502667943, -0.06974449116839417, -0.20736699525344557, 0.012628107579424841, -0.3253227574176647, -0.385111558173508, 0.2111070326918523, 0.06214571682590991, 0.0007111280702544394, 0.0545277206686185, 0.021139641093691423, 0.11798819610358321, 0.017305652264252864, -0.14321528308608839, -0.07026912656058197, -0.013510273506980674, 0.2617992506401979, 0.16011540150471198, -0.1539085957544598, -0.06683579596784844, -0.025998293581108462, -0.011404139103588872, -0.2332693036847635, 0.13532829530735452, -0.14035036663849715, 0.1912676387621773, -0.0792228166019299, -0.026789406312410127, -0.19844822398884243, -0.03217843812853443, -0.023660619534858384, 0.08090968451229744, 0.24856815764984586, -0.04307693526133697, -0.25186051125669756, 0.09598078674435062, -0.07300985230155681, 0.3004649289556302, -0.1361157618258026, -0.11896414464453285, 0.28597065085337686, 0.142423993172018, 0.02508421830564582, 0.10132575175954416, 0.14776788289391166, 0.27905878129541123, 0.1795206750002902, 0.07002387859419842, 0.16425511531403594, 0.04781868535557339, -0.12985851428822087, 0.009344257646872328, -0.1287224816497312, -0.012212186104631791, -0.01839494340298552, -0.12677061151090935, 0.07696307087965716, -0.17927569088633805, -0.05253357678249297, 0.12401456206851218, 0.20820344819180323, 0.05262454576558685, -0.0147816417713912, 0.15473989695979415, 0.0015043491199251634, 0.1008491020460547, 0.10362571074779235, -0.056828388868167906, 0.1324296094455176, 0.11016194899206858, -0.2747218782330678, -0.011460703692254446, -0.015942911723787246, -0.002985232268144455, -0.023830372581306238, 0.16580977823073992, -0.11506117469060985, -0.0015485141852132484, 0.075720097667639, 0.250328101355369, -0.015043479934034057, 0.05253071010046307, 0.06482137047059039, 0.015049391127992041, 0.031317765018430296, -0.11210191321484432, -0.18608061370787354, -0.08119600484596219, -0.026281999682836826, -0.18733708765849372, 0.03787081902438578, -0.07520647658777352, 0.13526297882713684, -0.06245021249315064, 0.1680755644369991, -0.1693282256019143, 0.21334436470808774, -0.2872986670403597, -0.19559618415973049, 0.11320383012967716, -0.2234350572894526, -0.20135686951629128, -0.06551485362787098, 0.12019685823783696, -0.061656863396890776, -0.34720309309234904, -0.06754931787510171, -0.1049786419665095, -0.2334703605307988, -0.08969152935761893, 0.06808422077345723, -0.1726538908634582, -0.012631302772694647, -0.08655070980542381, -0.0008207258115965715, 0.1036507737426907, -0.09780374076884475, -0.08261760101222689, -0.13225546958334317, -0.13590576373211746, -0.05097665153887916, -0.032261413538465976, 0.10142889368871394, 0.2720353138037993, -0.21395921849346392, -0.11290112750874012, -0.38610754541360154, 0.12139915278186818, -0.30984575727582514, -0.0789782043642878, -0.1908023727814124, 0.017914488363799858, 0.08025210742249406, 0.04683890352111092, -0.013297753823404158, -0.09190864019238841, -0.0012140817454034153, 0.022604605316693276, -0.08323749441588572, -0.012400174856590472, -0.0003066888301143261, 0.1383296254832252, 0.016133991113496005, 0.019024331546673896, 0.07186279978681771, -0.12271191007212845, -0.05491121502761605, 0.21021650676940937, 0.06894316290981926, -0.14395680825193966, -0.14586313232916884, -0.06468450988582605, 0.1199418085528673, -0.012846531712613837, -0.1307570191859319, -0.3354942019683441, -0.09515594645000477, -0.13645525204147396, -0.14035677231857588, 0.07209711770226473, -0.02352273739344076, 0.05595346309748553, 0.0668656825532507, -0.05272433213549896, -0.21627792023935494, -0.20479581534044988, 0.003931811036398183, -0.16135090786247977, 0.029703386146825415, 0.14814252153848925, 0.01110594158557545, 0.10443640568897504, -0.12769231546541146, -0.0728972628470511, -0.10973992529559141, -0.08643147350029959, 0.10231739816402942, -0.10100940751252341, -0.12670847678190988, -0.07659682541815778, -0.0028235436463058144, -0.1314664996886135, -0.05804560360314972, -0.07655376887400743, -0.07604835603959759, -0.014205215589006465, -0.14210196951984555, -0.08957655374103486, 0.027893074318567378, 0.16570397590855296, 0.15459838813329163, 0.06346472286157304, -0.08813562420890117, -0.18980629751244818, -0.1194581708585099, -0.16975636721133086, -0.06482691122102602, -0.03333991523602034, 0.007034764044233548, 0.06166243641587832, -0.1273066020157048, -0.08844980369723883, 0.05151945177743597, 0.03920436481104072, -0.1676320139837059, 0.04442091630363326, -0.023721878942805398, 0.0997644383532836, 0.07919998370371194, -0.23041322878102707, -0.08501240061210091, 0.02544650252379533, -0.08079398459852188, 0.11013355967523737, -0.07959022979104927, 0.04797744476006843, 0.03237224483278296, -0.010409817283436741, 0.08969119626911418, 0.1393040861884409, 0.07179823048539137, 0.008752825482757683, -0.11462415036261075, 0.18068505522283426, -0.01909886955632436, -0.08134907722539787, 0.1705442229154418, 0.07726429801303167, -0.04104998274395447, 0.00742266537507368, 0.10207750196831289, 0.3924411335345779, 0.004388510328339279, 0.21233914886112226, 0.17068748344518483, 0.04089872587095859, 0.04653238231696243, -0.13530450060688387, -0.05229274925371986, -0.20587288228122425, -0.24123844000535025, 0.2383699593174764, 0.2826670970851407, 0.05056955472812043, -0.01927496869195808, 0.03881604639208249, -0.05643878226391748, -0.15200237907534472, -0.11608143645085602, 0.11044746644957766, 0.03942595067524609, -0.07387265887448842, -0.01912954924679174, -0.05299969416731867, 0.019343934572813776, 0.20970453297045208, 0.1816874968569778, -0.09144724523916699, 0.2719653017530185, 0.089354981537677, -0.06582077247186587, 0.10607645081081063, 0.030604511395278568, 0.16931832978611663, -0.2076644423382607, -0.1846965693251098, -0.1523675813720721, -0.312487347979266, -0.016740303258147394, 0.02903065258841119, 0.2827940220883531, -0.03659903748288122, -0.004942436016497689, -0.047359278036573645, 0.1756633247389701, 0.05167108815112216, -0.32288574425986266, 0.26015683924583743, -0.009278789197878149, 0.04818845933785811, 0.19507929241339766, -0.2223369981171578, 0.20158983486579213, 0.10754878242574452, 0.2054921962553042, 0.06477970702839667, -0.14691539615645513, 0.13898458299394556, 0.1487728608448487, 0.18707241238960945, -0.032448643503245, -0.28473858165124794, -0.08659073074376072, -0.06052389444839668, -0.2340587894985252, -0.286601285168925, 0.20151382156962713, 0.05531922573088074, 0.1768452322530226, 0.07065778545077403, 0.13785409074272081, -0.05062390615563951, 0.15385268587167994, 0.165642865725682, 0.22473127104527377, -0.17814757112173246, -0.09314773822840758, -0.0028783434244306167, -0.0658502836309111, -0.10902692561971591, -0.09757777923619375, 0.07253521304643958, -0.113729102549442, 0.11258998863880279, -0.09049315233979961, -0.008711634478912563, 0.2727431256384419, -0.125162961729575, 0.12226381983059499, 0.1854517497795364, -0.061196626628047646, -0.03589528359270715, -0.07036221103141037, 0.04220859489475872, 0.15907787880498117, -0.1656112092606754, 0.1103435621817563, 0.10180697201262036, 0.29374697895541335, -0.06985928406481896, 0.17669052381854128, -0.049353929092645306, 0.15351589705540067, 0.11792203597194073, 0.22194835631778023, 0.12663180856235912, -0.16434117349676997, -0.18046331007432342, 0.34355131555450735, 0.06432742744210491, 0.014730555054370218, -0.09410396436816372, -0.044073357277868486, 0.31699674571760095, -0.09030810406766011, 0.0009905045321615886, 0.10741857425863804, 0.2454504830497454, -0.4673645368723094, 0.02705446983109364, -0.020289478816649904, 0.18942505502792187, 0.17303072908822412, 0.03178996500463013, 0.07817949244462379, -0.011543069503559423, -0.05571351182566373, -0.21457212616375226, 0.05503449180558984, -0.1534953615065628, 0.03618437468973922, 0.12909074524594982, -0.13853957096237082, -0.14365811066806136, 0.02271695783583317, 0.046881559713848504, -0.024745205180793435, 0.11475816228132155, 0.061477202179853974, -0.017460301355055864, 0.003541500473488739, -0.12474030838647313, 0.05108082369881305, 0.12750686005206688, 0.04639966757291364, 0.023694986709022918, -0.30603853965737676, 0.11260034404648048, 0.047135515680014894, -0.01781222354867226, -0.048984714808336216, -0.15696275020033454, 0.017961469226814904, -0.13287689480037482, -0.21280316132758653, -0.15023254658728688, -0.09950067008101725, 0.0209146880520953, 0.0390965557205439, 0.15400277131833676, 0.11040650047829323, -0.07102885812575244, 0.13666671792781115, -0.07764344359534936, 0.20203001974359452, -0.22008178114456653, -0.03570551626333561, -0.16107564755549508, -0.175652713605885, 0.04999289750145414, 0.11551680075697583, -0.018172537164367286, -0.04659362290966255, -0.09335816784349378, -0.12570824533078767, 0.055375215763679, -0.03610727226659851, 0.05412558103419419, -0.08250175474150671, -0.11450594756131503, -0.07146773246509812, -0.15740887562778186, 0.08634972636634276, -0.006447225798398558, 0.03266552238026488, 0.19835144186271433, 0.08083997894485619, -0.18853006687320936, 0.07257947760750662, -0.09627464018270417, -0.016369253447067626, 0.05562481508634854, -0.06401425706021553, 0.1275143402159686, -0.1646284371545889, -0.2030635507759027, -0.20936830239835963, -0.06411019319315477, -0.10152632299065281, 0.04079262932028785, 0.022897228615223263, -0.17382543743847334, 0.017326951654928133, 0.3777872429713535, -0.09357134542428694, 0.06582698781490325, -0.054423930271545046, -0.0603131035337591, -0.017076258024612267, 0.04226611205918858, -0.14265905870591533, 0.09509496085365592, -0.09495336240136099, -0.3113893664674155, 0.18472331383607582, -0.16103621915450722, -0.007924720969652408, 0.11506175389540786, 0.24683418953041378, -0.1524407618527581, 0.06103756191113597, 0.06202325597226837, -0.11064309181291875, -0.26840866375764644, -0.029528670813560844, 0.11938569607819223, -0.13507303971269058, 0.06728600450742726, 0.13357066626377742, 0.334531578409045, 0.3170968619004054, -0.040714162716335815, -0.10040240735050318, 0.08422973447305185, 0.23873975797399338, 0.192365765336295, 0.2021280474561431, -0.09440463902316014, 0.10068766608951196, 0.18872490303546172, -0.10272234125019951, -0.07556588590351096, 0.18546613933779602, -0.012896133738928553, -0.04351681140188258, 0.04132119593305993, -0.04450499554878437, -0.15422835198123885, 0.020345424699655678, -0.0647842453621416, 0.20202802183560664, 0.0635003035076323, -0.14664213558980727, -0.10025406914246572, -0.04784532743423457, 0.0481600041722798, -0.018346599587475258, 0.06067717003187362, -0.028976448853289864, -0.02396203182504434, 0.1392574147714982, 0.07115737114885116, -0.025585565435255628, -0.21082819496260105, -0.0554042030341903, -0.1868587648696113, -0.14857952503738164, 0.09903703040565083, 0.07501785307288025, -0.02424752620662455, -0.06928765344791693, -0.3362199370820428, 0.3613397164397736, 0.07316046559309641, -0.22019360801439278, 0.09180091268004148, 0.4718446586824136, -0.21460554437204174, 0.018423644250639724, 0.09188563747713194, 0.13905004279975755, -0.12015720418564603, 0.11803773331991747, 0.3144589103526082, 0.13718466718388894, -0.07529104545197375, -0.14707462915471625, -0.16751115414331003, 0.37849118311757957, 0.19956876462641426, -0.35264107239210457, 0.03726453429599581, 0.09154240062623703, -0.2143063317902322, -0.008186180083558543, 0.06366055681482614, -0.32664077134836655, -0.15059156219053252, 0.06743230387782624, -0.260169516917509, 0.0789579478793664, -0.010891182638385934, 0.019281593679370067, -0.027109034127303974, -0.1944548723564721, -0.18239111868632013, 0.047490106237738916, -0.07915267647904488, -0.11681383540531469, -0.357624810274311, 0.009059444909284557, -0.24941193476482512, 0.06832216253489908, 0.1758830067149138, 0.040467778372910025, 0.2452217324997048, -0.0019620858108477662, 0.079685175488939, -0.18503788174825275, -0.0352001654876197, -0.06868358778761587, 0.27667160132230684, 0.1081520010710836, -0.09774085059634799, 0.11365627949748144, 0.20043815740710272, 0.07984132458738678, -0.059328925455272394, -0.10963727558769186, -0.08782002267461764, -0.1437880625865042, 0.14909528172770722, 0.06333333396252833, -0.08637798886842102, -0.18245604668906337, -0.10197392298273074, -0.05929268604627472, -0.06919768514999995, -0.07010306511439213, -0.11344692024221484, 0.02007951460570542, 0.007784209143153378, 0.06004213175753125, 0.03261841779530702, 0.11436733256955263, -0.23946412564130415, -0.15006280046098064, 0.05674172934436284, -0.05567660021455289, 0.3609260270322964, 0.11685446393419356, -0.008906643535056604, 0.10716196692085012, -0.15030204631990765, 0.07111739844652296, 0.13246335820248165, 0.21455667940892223, -0.20938482768491842, 0.02448486549116884, 0.29692251757172045, -0.0012177139839959401, 0.09833453407349496, -0.13965645935805207, -0.15510434869160122, -0.07451769040697881, 0.03226883694710719, -0.14371071732709173, 0.02386873286678049, -0.14577347459661413, -0.1827507459851455, -0.014363888667105487, 0.08368357553739447, 0.20884527550979198, -0.024215371584911514, -0.07201259631432881, 0.16807656156437673, 0.020032507276112367, 0.1346283279021937, -0.20786208820753269, -0.1129474960969133, -0.07627620115978065, -0.17122119120094367, -0.22723991654539263], [0.05589450481136574, -0.21354567774478073, 0.10837380875130931, -0.17090924200307453, 0.045157996462659354, 0.12394238036256294, -0.0733494165203368, 0.003344851200447656, 0.04599235129535994, 0.12571252947617514, 0.024052696401198476, 0.11914066599580286, -0.021760500348149095, -0.06965165770066606, 0.09821781027638948, -0.1219288915642691, 0.11173703078334879, 0.08680675229169577, 0.04223503952966399, -0.11278529691550485, -0.05110245730811008, -0.13126906681843103, 0.03620912558703849, 0.09794605999649832, 0.018426792850168825, -0.05706575815704706, 0.03657555328379673, 0.014542723036760576, -0.007197996702216203, -0.08328155824599895, -0.07030280863162142, 0.10734849697214567, -0.06169065142662227, -0.01249178198032321, -0.06953892308509123, 0.059617836900484396, -0.026567139388482094, -0.04803500359859487, 0.005630998213376315, -0.03133768494169139, -0.02021168291619507, 0.024089785027022505, -0.09493723700462225, -0.05655966928636756, -0.027885281554082864, 0.3025620738542669, 0.10521902655033194, -0.033809385391227256, -0.023519503627695226, 0.10789794453915467, 0.18516143667709528, -0.003873859563245801, 0.073191837486129, 0.04495330977742545, -0.2429713386465584, -0.05091836871741437, -0.2728306573165122, -0.08959507698555481, -0.05635627387322258, 0.030234947871754406, -0.10747268088220124, 0.06931493224047842, 0.11180455303177265, 0.02493980883703334, 0.10450651249198376, -0.05641956688155976, 0.18257936810402214, 0.052908916956623656, 0.1339392445076993, 0.041217837067236286, 0.0464765063104119, 0.22434788518290155, 0.12082766592995971, -0.013602420185630184, 0.02434419295128862, -0.16227475422997104, -0.22954615307537424, 0.0278989528212289, -0.21068566752253803, 0.3218790727047874, 0.06415570525252232, -0.05065373419420598, -0.02829943648226249, -0.0500567376974986, -0.04803514697602785, 0.08067148883552804, 0.09834007563313103, 0.1573530468883102, 0.23050325073713912, -0.008423113456168727, 0.3994057631931413, 0.09203223089447296, 0.1366169314010828, -0.216955340938042, -0.18279430810465358, -0.1669905623476067, 0.02837140990769525, -0.22383737269662365, -0.19686718414554094, -0.0460501492876383, 0.014095218240708165, -0.11985879547418397, 0.08945147803447666, -0.08538919066151203, 0.014929761994620323, -0.07498212830336336, 0.0709635395364054, 0.11164340950085329, -0.18747713928659768, 0.002910241759080392, -0.10930500546679829, 0.07424141647913911, -0.10601238811345973, -0.2403149762394281, 0.05925411627230692, -0.0416392348209172, -0.2258618608930458, -0.09834477816501648, 0.13696717317762766, -0.08854869308440888, 0.054658358781621286, -0.08916428174044135, 0.09470937945525032, 0.1446064431908749, -0.044510563666071506, 0.16952340106031602, -0.05396818561452087, -0.030871128456107785, -0.22849881668029653, -0.3678909752597966, 0.05458920058878899, 0.07026499882710245, -0.06526276005883296, -0.032479273540688615, -0.03191286289666452, 0.03669429130296217, -0.1336720995878905, 0.1160844344748007, 0.11786670853156367, -0.01622098547077284, 0.27399405303449853, -0.18223477808381675, 0.07655417606296387, -0.13324973024502976, -0.07148877238097401, -0.06572790087100215, 0.021566435025035278, -0.016887754858227598, 0.24302944037317434, 0.04579478496885611, -0.34594474042203827, 0.034996943626975634, 0.061110023949630346, -0.18028670679867803, -0.19172506172475717, -0.10019401707968215, -0.20743410534818413, -0.0978617786720442, -0.22658140310033584, -0.10125244943543611, -0.11233746105096139, 0.04849759307147899, -0.08979717379406008, -0.0038175378800014894, 0.06946056719290074, 0.07603950269224051, 8.364312681218524e-05, 0.07591022002768977, -0.06325046425502656, -0.04538567787765644, 0.17739363160072916, 0.1121364772020256, 0.05077090702574308, -0.15069697700072202, -0.04139901754128425, -0.11251294280731872, -0.17874250445471826, 0.022448995960703145, 0.061899057593090855, -0.09472764867769995, -0.1336650377209497, -0.1530973251379774, -0.06784756802744257, -0.02268829894102742, 0.05909082240267905, 0.0842437579820401, -0.12907482172100257, -0.32827273499522847, 0.03668211740464903, -0.024331279540926204, -0.13278959834331083, 0.013817073186280893, -0.12148099613589537, -0.2908498174222596, -0.4399672706721067, 0.06595416449708802, 0.06704590929038873, 0.33150737569089456, -0.1993407454736362, -0.06064661134216303, -0.014014655016815886, -0.402291945375673, 0.18062986303413198, 0.04927898538209024, -0.03943714363587394, 0.015249583115909689, -0.0896098975199835, -0.0329969148587922, -0.07267396237632703, -0.013950456297565125, 0.10996246775614933, 0.02112169431635675, 0.04350314457523223, -0.09662741827676026, -0.03417849477649737, -0.14835180347513285, -0.04317475751592531, -0.10081560926206323, 0.11888677453471613, -0.1892814472499974, 0.22841697160312321, 0.16743329876750676, -0.15372703776765198, 0.09592586031759417, 0.16934603670620263, -0.04994842138996753, -0.18038273742309224, 0.22392999226774546, -0.1474210943257299, -0.10159058556192126, -0.31862612696714915, -0.13897895541522584, -0.08612924825895452, 0.08225117524969201, -0.09963322764340708, 0.19612643264892318, -0.25134570964089203, 0.22474619123762066, -0.17064570115728925, 0.07160169762523669, 0.08887943183916842, 0.015451196170184716, 0.21093620523997947, 0.12361940217165708, 0.2675397618939244, 0.21107923210565163, -0.1508826553612081, -0.009380513120508258, -0.04780487829093884, 0.14977624451848856, -0.12379977980865642, -0.0627888267220287, 0.03652371103319646, 0.04375223799771521, 0.28228917512541746, -0.04885404484916739, 0.04819151849965744, -0.43843206444197236, -0.038120020322289304, 0.0541454806075609, -0.09025356838997196, 0.052562259165813044, -0.2282442249676479, 0.2670490601119538, 0.04355740677172449, 0.15344305149662285, 0.16434599279220943, 0.02704999559024289, 0.19849127794543436, 0.043306077007502906, 0.03462535496006739, 0.41554995322879973, 0.21224729196721157, 0.09441392899433743, 0.02156767009642478, -0.3096945135769324, -0.019703390021142853, 0.16594362682692845, -0.2782942396550179, -0.041052596747686486, -0.070255598889948, 0.07252740433608557, 0.06575123940872389, 0.13739947497897959, -0.20424216525297956, -0.19349865645815237, -0.18864887824381252, -0.15604507961836525, 0.03218901466412255, -0.17816443711727473, -0.10177583119654197, 0.22704304478648385, 0.26651880230557856, 0.03929867487402356, -0.08070018517054244, 0.09179480854604348, -0.06325706012414924, -0.12901405982198927, 0.33514097135210325, -0.08123409721807144, 0.11977528725979654, 0.023043935510769192, 0.004576368055168375, 0.13142035830851437, -0.01670666751274636, 0.12160094202204579, 0.0026234486871578476, 0.05042220493985711, 0.19381580662606296, 0.17755839435813026, 0.010785980742850794, -0.048019335570011354, -0.17311829149311445, -0.24295396521499127, 0.16608160829472712, -0.05061242804499808, -0.016645146049394925, 0.30087169479930226, -0.04626977767535969, 0.39096524615310163, 0.13418841530124123, -0.050224168915697254, -0.02861757399461633, 0.1527108276379537, -0.07736911253577612, -0.06459735752843367, -0.06316785071890874, -0.020000266314705677, -0.007308723417245795, 0.14471984961046297, -0.032627484492707665, -0.15975614926701437, 0.08265906342628511, -0.05995828206233023, 0.0230891106479948, -0.06151285717140999, -0.20519791669539475, -0.011071074360069747, 0.010661887016130071, 0.0676024834043273, 0.03116567739565657, -0.19107426692763993, -0.004843546487709329, 0.37775096630482863, -0.07164215189412977, 0.03233657682412334, -0.05551852755657744, 0.1149428606516235, 0.21300738909224887, 0.10960003819203336, 0.03148224738953884, 0.055428428707658135, 0.18378254223892876, -0.17736144404198148, -0.28928104183674136, -0.27604215335034876, 0.11906979800649643, 0.01711075642390231, -0.028722886548404096, 0.12884118747722761, 0.04277965379497764, -0.08225836211301439, 0.037790146576769414, -0.11588501100022373, 0.15824291506682286, 0.1321166569323012, 0.029141595816770206, 0.03310434368544933, 0.04413575936694096, -0.10761574850391184, 0.05270987126906564, 0.07465390446035629, 0.2369649253438954, 0.35570213542019974, 0.12166209657093993, -0.06095510542810229, -0.09997548125312543, -0.2911707275535938, 0.0679924042876668, 0.004917307258807873, 0.19587608259327638, -0.1784510053199637, 0.18650219597747872, -0.15416111678113334, -0.1236698696809056, -0.016532975885524392, 0.0088077467464037, -0.07513400365187023, -0.023681128304985515, 0.015513279396495326, 0.12910207086317046, -0.07379733547414559, -0.20292104429199867, 0.029464476796835105, 0.029986413575598756, -0.1415477335323826, -0.044987825810779696, 0.17668585160622796, -0.02512467791358413, 0.00570817994822167, 0.21557412063282552, 0.2179297768878189, 0.1311928019498331, 0.1048887691837888, 0.09146216189891368, 0.009362506545750245, 0.28800818003226564, 0.2394794678901255, 0.25594099698454253, -0.2492974425997583, -0.026916128455452326, -0.05096408801645713, 0.054807060612495885, 0.09929293998849606, 0.2699931628124539, 0.21807198356700788, -0.06046980157535163, 0.048535981307680644, -0.12655732297693523, -0.07924438031086341, -0.128974219846672, -0.09483775104014, -0.11606176481761726, -0.08491065343601464, -0.03878987584596825, -0.1490137702735779, 0.022075998445468398, -0.13472119914069328, 0.03711091530227977, 0.10123240689500752, 0.09436213010118195, -0.004105010533237405, 0.0819732079056184, 0.08644594048049566, 0.14937613712049574, 0.17550903125001888, 0.05903897117370934, 0.2130741502718401, -0.11394239148416614, -0.024275756002066735, 0.020107030005489565, -0.018612636755222706, 0.044653458745797715, -0.20173192114962843, -0.08742061014193708, 0.014803218782585798, -0.13522747324549947, 0.1275073740731352, -0.06505425151493918, 0.007536750198242545, 0.34787237433687185, -0.10222111594906953, -0.22766176715071917, 0.049029639118021474, -0.2786343488909052, 0.128519900186352, 0.05565229989811156, 0.08584184677533556, -0.03548699410009255, -0.2089234628657062, 0.25009425557818277, 0.1509395722469451, 0.030714470087917823, 0.30260048067869383, 0.21301334625214202, 0.02738103716568887, -0.24388994667422118, -0.11852110444238687, -0.2241879483992133, -0.18270729079465456, -0.014929376432162874, 0.2762028519338826, 0.19020855558493896, -0.10095133342385576, -0.16093363693224058, 0.08730373305160771, -0.03993176307198436, 0.17946015051871445, -0.247597366567075, 0.04150155969042174, -0.05999072455645994, -0.21138785455429915, -0.21221320300953497, -0.10399860167079433, -0.2302279950283224, 0.23133832179962735, -0.0391530379022722, 0.16592016151279865, -0.09791374214374907, 0.17013103836817772, 0.12917872182521478, 0.1262437935713775, -0.265682326143589, -0.20087494245967938, -0.3244982910713664, -0.32384541993713767, 0.011805941485794346, -0.18619033833955317, -0.15258476173951102, -0.12140824989196067, -0.05226732395145654, -0.027376002894606934, -0.25432869748233133, -0.05333994479894742, 0.020682473269651263, -0.034122868386511455, 0.16311543624944827, 6.737512522146739e-05, 1.681638077344567e-05, 0.024101670876641543, -0.38141030683611443, -0.0389442457192247, 0.08683311101850615, 0.05737160822653131, -0.05766220873413703, -0.0846962988056922, 0.06062820352670819, 0.10868964919585297, 0.2668048620122473, -0.12234931193128477, -0.14607375133195463, -0.006843530204319828, -0.26078333073574794, -0.19936577538154754, -0.13414602206739723, 0.010549981268301865, -0.022610709424292066, 0.007966172260861217, 0.030588555034695486, 0.07578392742472555, -0.056501517498135, -0.02190294479680828, -0.14202764907624096, 0.18543992353946437, -0.0441962449298905, -0.07834939279804433, -0.09761402372396998, -0.16822792494672587, -0.28883850415604573, -0.19054039964816188, 0.126380367109147, 0.09389935379580848, 0.05526674978250741, -0.18115808749335785, 0.2594331568441541, 0.07959591137347433, 0.0147237053513571, -0.14599615175109396, -0.057892326680621914, 0.012076531899432849, -0.01845078491339807, -0.15071266629112523, -0.10428858052197468, -0.06693074182218489, 0.19811177289513726, 0.08859582140732115, 0.1026005776632576, 0.08021867543875978, -0.18615064898129882, -0.21528175718468995, -0.03777764683305198, -0.1030646997946819, -0.013622926905228119, 0.059893370633439455, 0.06491391436901253, -0.06491238343760201, 0.16864976026399428, -0.06656519258502192, -0.17171036050006974, -0.1830025997367378, -0.25884260330639963, 0.16282150847659807, 0.010423241380166589, -0.1392136537125816, 0.09688483231540242, 0.0441948645360674, -0.16345226662119458, -0.14369040930384833, -0.04741248696618287, 0.012817758859056044, -0.0017881691946354029, 0.10234251071301163, 0.18527788227345163, 0.046661249032457885, -0.003333436040184968, -0.009924448779341753, -0.015770778216171438, 0.0068713762490834026, -0.15007347073052388, -0.05912777319530158, -0.1120167411727763, 0.045196381321263565, 0.026689771540312643, -0.19613967630408968, -0.271349386742833, 0.12186876519293129, -0.19291637486995217, 0.02346610094239767, 0.016643204882648324, -0.07829872164453784, -0.2832482030523744, -0.16032701665028692, -0.05224942711360644, -0.11231394034805757, -0.056231897489180165, -0.18317900876545132, 0.1092368482050698, -0.0879045638359378, -0.024073252571117015, -0.15315502522761876, 0.1350694886297628, 0.09609115297518306, -0.14915819040647946, -0.009625374614965862, 0.04972667784358638, -0.05107449391023578, -0.11536151251523184, -0.25900382752695006, -0.018400974853842674, 0.26904595210349425, 0.05028278634296999, -0.03299058784622812, -0.19645826866864308, -0.2071794178478538, -0.08428524119451213, -0.1546597627987029, -0.2815697822642905, 0.05567539144090343, -0.03610172952026497, -0.1823515934357049, -0.01658051796690252, -0.15855136406699583, -0.2895181009829141, 0.08420125390606506, -0.18491470590894787, -0.039653801637502324, -0.1281225586013085, 0.20829493817104675, 0.001270344841902858, -0.1274913078867978, 0.07459324886456326, 0.06699801707765674, 0.0593388441877663, 0.12330603273076735, 0.01587478389000205, -0.15787302154770452, -0.032029599701810525, -0.07290289102349966, -0.0278255840110594, -5.940102733421262e-05, 0.22991392731074167, 0.2446027172607796, 0.07595605032718573, -0.20871299232445892, -0.11682847315822513, 0.09991241159363685, 0.10881204663984474, -0.06684977744049331, -0.37850751357954115, -0.12658837549103943, -0.0890134360736428, -0.14964527874400918, 0.05399177175131223, -0.08596494851283414, -0.18790370888771885, -0.1798036920202056, -0.0038939530759002578, 0.11064254531092124, 0.007049051123916991, -0.14406573370142794, 0.0025583265762684406, 0.054438076634179024, -0.19030727631269037, 0.31669127814228265, 0.06605967337818738, 0.08906364982297428, -0.10572673779319067, 0.05631268308701424, 0.3333071661783307, -0.052789052407078804, 0.13319844246816215, -0.2080694808086138, -0.05541057154970979, 0.09608769484494908, 0.021262387254603686, -0.24788444827856618, 0.23468961801714097, 0.030875829060858402, 0.019811997394929528, 0.1720263041315481, -0.010907735378204525, -0.3315976128148407, -0.11495959613215673, -0.009137711830456334, -0.11119840897606253, -0.02906644108405537, -0.032166125334696316, -0.01462366977759854, 0.15618382913615375, 0.11714272541484745, 0.08740141446994844, 0.052116510413501224, 0.0035248986004100613, 0.14278511014427275, -0.11163505122470527, 0.05067769074006776, 0.16430479938700057, 0.030053010285596485, 0.06511856089510239, 0.035367435704642985, 0.11180668990787322, -0.1470520448087494, 0.1398381599000684, 0.15509746079118275, 0.050072890111337635, 0.3443310738261663, 0.27134614021347575, 0.08177251171030596, 0.0021612695799538657, -0.05047875236465899, -0.278755660522109, 0.19881573631973382, -0.07170551607317689, -0.19200867435954685, -0.0618831644413856, 0.042925875138671014, -0.09036394050732897, 0.17650040663327185, 0.09152817741312361, -0.09218137322101491, 0.19854190714930461, 0.0875219493436662, -0.1928397517258161, 0.15895288940873992, 0.03998918286887798, 0.007237310723903967, -0.04382412102026129, 0.11509048801836848, 0.08461953212424447, 0.06999723115681689, 0.06747011486134305, -0.06284437944345618, 0.08625500910113523, 0.012363179676980258, 0.1248563113527617, -0.07819887421154424, 0.15440281073149986, -0.045059991885263044, 0.034755659313502996, 0.045714977854680386, 0.15124742555459025, 0.055545143845581256, 0.049386301018224284, -0.05011523406671334, 0.15466807402766353, 0.2338497312554804, 0.15456288466506196, 0.024014809605835682, 0.06817122298795679, -0.13252797933202123, -0.15023207373917574, -0.10417513379407206, 0.031150765660773936, -0.1806346474271816, -0.14566606938818807, -7.627670704981186e-05, 0.2079131154406975, 0.10231236867677013, 0.026733374957629816, -0.08625548090870043, -0.16406052389780407, 0.05704242902079508, -0.03349900810888607, 0.13581304802495767, 0.07928812687926007, -0.04034627421696758, 0.1457948122093515, -0.17687565620857992, 0.01408188913694608, 0.057721312606535485, -0.03648959575637793, 0.14649169609726564, -0.06288100973054155, -0.0668100807218784], [-0.058097935285032626, 0.0034545050096928325, -0.037840192521757667, 0.14293422715166398, -0.1361216661480756, -0.2168648163337374, -0.09705190796033385, 0.0038352525477351744, -0.2992382576775793, 0.036216716405158784, 0.046673028450395705, 0.14148894685017732, -0.12291731861292426, 0.03685239716770077, 0.14252674712797997, 0.15498882088996066, -0.18002005568588378, -0.11696711412077905, -0.12190006637810907, 0.10383378120014915, -0.126746230490763, -0.11081288305692572, 0.0019941108607292053, -0.02115634783276288, 0.1881522094538737, -0.19251440780047369, 0.05629648800224442, 0.029891424134143665, 0.1073694968165062, -0.14605490447111008, 0.07787171993977253, 0.2516027468696874, 0.012931511737753715, 0.06594062250284824, 0.10725516207182287, -0.01837818331658547, 0.028444502678347267, 0.10670041241092589, 0.1899250329738976, -0.060657631571663866, 0.020195207476716007, 0.07156809302579095, -0.08505979056677834, 0.003301409753243314, -0.005851635713572708, -0.34937098500458624, -0.2703239660791524, 0.12851169662207043, 0.016410159301245723, 0.23426836135769702, 0.06974945953237706, 0.2097919472098441, -0.24096155787203424, -0.04903566155931933, 0.04233356944597523, 0.08512098352140036, -0.06763824957799416, 0.015321481589356123, 0.08457297102657106, 0.09458252848617087, 0.023042458849389384, -0.02995830119074047, -0.05057449140555771, 0.124190313804153, -0.1286162577420303, -0.20865829602526206, -0.09466492831259384, -0.1417290998307187, -0.09727299770044379, 0.2448061223620964, 0.24991287370976906, 0.27262191748080505, -0.24592681541489622, -0.11155527628623169, 0.12839043816990264, 0.26414193259781693, -0.12451436779983772, -0.03735173147629518, 0.03120302264225809, -0.019060265202779734, -0.2363624067501535, -0.05234177707665231, 0.2044271060437622, 0.2962008610860083, -0.0488108694803288, 0.18276892548123463, -0.009295442447055156, 0.04932639316533115, -0.22530741933759038, 0.30293743055647776, 0.029973591860834682, 0.10070261941405985, -0.174861357765635, 0.052525502229078994, -0.22460698115236802, -0.15860379636640762, -0.07177156275588219, -0.16646248729703905, -0.17504187039597344, -0.025661699241162055, -0.047609701125392055, 0.1663396391897499, -0.20383596236901683, -0.07270432887269324, 0.260019756409639, 0.05356773483708225, 0.09300918868496262, 0.03670573735255343, -0.05712154079410275, 0.0535941797991171, 0.18393138140657947, -0.08356154663672549, 0.06043904935006154, 0.06748804491072874, -0.14711403812952947, -0.07601788705957507, -0.04309034822228842, -0.17674323514916676, -0.2165470479994415, 0.03511399816604638, 0.15464899400030305, 0.16965805652393495, -0.020236920474872144, -0.2351026355234464, -0.12411856480630393, 0.0005198419915418968, -0.09681591472888275, -0.09761067983590248, 0.06142844670268003, -0.02988167582662672, -0.16607448893566498, 0.12809045636075542, -0.03929239788474055, -0.05467822013293701, 0.0909574468463158, 0.10953519024408541, -0.0389218086150562, -0.21955677449400737, 0.1033404523597217, -0.01067570122952036, 0.0979984282204785, -0.09922689011963354, -0.02912500936361609, 0.06053400577792197, -0.011952241739883565, 0.018122943877779876, 0.14604134350268333, 0.03617319112451822, 0.3487365104513888, -0.0929788731056204, 0.012380336990779556, -0.3630654006628214, -0.09832164125843339, -0.10462397158444713, -0.16189593032712557, -0.05167740795399356, -0.13449865137504563, 0.2866050700253132, 0.041967063456165195, 0.2731158146040246, 0.14497563589758003, 0.04027211459140876, 0.14908974372892683, 0.04563522569600154, -0.1653502874301427, 0.14875835116458264, -0.030135986030909834, -0.08159141378935536, -9.444100203190996e-05, -0.14534000518643644, 0.0491158517504084, -0.11524056249187462, -0.2899094771454638, 0.12649663200633388, -0.022998583099854787, 0.009069638630636444, 0.06512144379131167, 0.034751609546865875, -0.1900167238792524, 0.1587876182099969, -0.17262434478995914, -0.1965251625042962, -0.04145800502619848, -0.07153136694345118, 0.27773362900532134, -0.040670919353472494, 0.13714152927021522, 0.2606984511647735, -0.20968210247049637, 0.1166573949640799, 0.16605884745347027, -0.06742899959931546, 0.004746812049044337, -0.1162639164817241, -0.133603960077756, -0.05731261608625655, -0.0698944752536309, -0.15122490051182777, 0.031072540917874286, 0.07602689864463766, 0.1649833410081765, -0.23557203266680682, 0.1916157005989315, -0.031698768356056985, 0.12333679495554113, -0.038736131550417836, -0.04690295121751326, -0.39509111608939146, -0.20222143135307089, -0.024868943025446788, -0.10145451298738206, -0.03177913175459174, -0.08504814236819014, -0.03196674041887445, -0.03315138212657217, 0.05735039670940223, -0.014641710307949668, 0.22727297000333133, 0.3548889940002882, 0.01652398051411537, 0.1812382331851117, 0.0586659901792742, -0.028112199270304897, 0.12399814799637857, 0.11440607365497969, -0.17337123194323983, 0.032794186444812655, 0.23167977556885458, -0.03371675953889389, -0.07755521751537972, -0.06977014962201085, -0.0320752130351146, 0.07963012851059342, -0.12141036897487174, -0.4266503223948623, -0.30108203466903466, -0.27127683065633645, -0.1414662898664863, -0.00589713701112558, -0.20047871277590643, -0.050482348703156744, -0.13192689975142327, 0.13687397431027365, -0.21707861213526877, 0.09018240844274085, -0.29248610628578464, 0.03190558277104283, 0.052908882758294556, 0.041590967037010665, 0.03023741223876102, -0.10812357770861512, -0.022158341695486933, -0.013892299764944284, -0.06267227245965903, -0.054334019028314105, 0.16905100378942037, -0.03744079443240407, -0.1917450280412282, -0.25433256390584447, 0.0684797329270582, -0.0007965772197176547, 0.13959659420266862, 0.051220037290344536, 0.03816308117704904, 0.1349023691970482, -0.018272586945891504, 0.034095978281274475, -0.16606804361517521, 0.12470599938818522, -0.0913547952135928, 0.017247945131127655, 0.18335194949280004, 0.06594652032060115, -0.018271331998079676, -0.1290284388710709, 0.1643759340525829, -0.12158214418257318, 0.014163311984253912, 0.06532419701648375, 0.037909879819788835, -0.030430246829986955, 0.07639156187618912, 0.023387466719302506, 0.17585227158058653, -0.15418192410333698, 0.0016253990771373829, 0.06003484027039003, -0.022347039547467765, 0.11843158295658847, -0.01879738669689791, -0.053497261867495816, -0.15460668368847927, 0.24599683440972972, -0.09562846033906444, 0.3694097942979924, 0.28136647534882125, 0.011513315995618984, -0.11207344143551227, 0.07749990702620728, -0.04855545634081993, -0.4534613023204274, 0.09604722524986224, 0.0020760290220211836, -0.22231689648366684, -0.1446274808762868, -0.21867364680009702, -0.02194842444402697, 0.2929410158102349, 0.02346356284295597, 0.11303129817723226, -0.03368766356794867, -0.10642248455066572, 0.050665738885734654, -0.17910278726042556, -0.1907548315688664, 0.4088462555285223, 0.068727444225064, 0.1737803420244998, -0.0399896768150395, 0.17539193440115888, -0.3273695535482476, 0.12832406438316732, 0.2407532671650538, 0.049218402222804714, 0.10929372256716634, -0.06528439767964635, -0.11687924911172938, -0.08285377755835077, -0.1505600617733004, 0.03854736093388981, -0.1613720398436252, -0.21118175761641586, 0.09214613307723256, 0.09031858156528817, 0.04364978201342888, -0.03849055911904226, 0.17496387062055024, 0.014498935524017067, -0.18591873391708247, 0.008672104482268428, 0.1469088761902043, -0.06466620452119781, -0.05543706212372527, 0.33248488924205094, 0.17386103880231907, 0.29332880184001187, 0.3282754045819057, -0.27750390697224975, 0.19130066474510046, 0.13766868632951412, 0.07848456548754003, 0.3110045568632397, -0.012388614865613842, -0.2511940040540337, -0.03720715877186995, -0.042056217824580855, -0.13915996921192766, -0.09701521122180813, -0.060739938558988314, -0.17074937759294706, -0.08085863876623647, 0.15738705188550203, 0.00681621975629734, -0.06482850402082592, 0.1210514904652787, -0.0847130701813004, -0.23833467617983703, -0.054067514392605535, -0.01133031967199234, -0.040909806671663336, -0.026632392158938967, 0.21650001921856651, -0.02512760366300978, -0.06213759064335233, -0.03940512831663738, 0.021281242398725014, 0.08505778395972036, 0.17271054025680116, 0.16204848881382278, -0.21660764743668567, 0.008609379235523497, -0.15083506933882598, -0.05786171029907194, -0.0029463075903523967, 0.08348296021260349, -0.00895801972993773, -0.10565575697169759, -0.016460738079808607, -0.13458459333838296, -0.07291289319954299, -0.10073812280279411, 0.044416789683064575, -0.05070226259489065, 0.04416374357834295, -0.028008441936858773, 0.08681379302595124, -0.09144363672227704, 0.029258472698996146, 0.21966077773418574, 0.01254913848774547, 0.28539654501468853, 0.05646426067184582, -0.3388526376668362, -0.12001518855892333, 0.07942435507028325, 0.384717638156971, 0.4056920612961602, 0.1622357552773233, 0.08911878212091606, -0.007415662984278862, 0.0455832472031776, -0.13215105799009091, 0.1286078122285713, -0.18473747244030556, -0.02220178039122253, -0.1673401369604184, 0.1037121380913395, -0.23303855314621885, 0.12147483492976739, 0.12846127137836186, 0.06164488243374478, -0.07501934752140009, -0.12478945141769178, 0.03412419885205039, 0.19347389992176703, -0.07834132375287893, 0.11846832676292815, 0.24290600880598712, -0.079144634645274, -0.16336011651832733, -0.26827226061479786, -0.16576949898170626, 0.15886588107011404, 0.5108475077657331, 0.3935187111823152, 0.06292036284600908, -0.12400303949813812, -0.0739851145102336, 0.1356652833021724, -0.21323825622303558, -0.008538561281955867, 0.11077987385115198, -0.03552434184819461, -0.18275180934445634, 0.034980574346270894, -0.19843973124261816, 0.11381124164437949, 0.042074907692094494, -0.2356954899546501, 0.024074512746994868, -0.09033990368536012, -0.04789094730613962, -0.3087887493803066, 0.05534165906170051, -0.22005430698508757, 0.11428842176164863, 0.07553793299571408, -0.3063006852312527, -0.18050292186425598, -0.17929229242213363, -0.157341475433229, 0.24819871017670592, 0.519099577518935, 0.3878637088730864, -0.05143696230514264, -0.18199823196755696, -0.12365433573817397, 0.12252112015150061, -0.09463970433772444, 0.3265456479962312, 0.010615879812230411, -0.10163187829696221, 0.1897584240743416, 0.026758365500684635, -0.21042751990075334, -0.05687326156553644, -0.018962272433144686, 0.0721680757388356, 0.041959420430965774, 0.128204480424906, 0.08083877968463442, -0.07985137548711536, 0.12751161533471908, 0.07943875294985707, 0.09234923884958053, -0.17521190321009164, 0.04824730552741099, -0.18297112980796298, -0.04061818446416275, -0.051029958487697154, 0.07044914370381318, -0.228301274112674, -0.011812124994856532, -0.08499270650140345, -0.013999116812917978, -0.14319234936884817, 0.11547834489277815, 0.10534071316555042, -0.07925702779630843, -0.2715126414388097, 0.04553280666200513, 0.0030974570715387446, 0.07467725979965509, 0.013066132372908603, 0.014379334656739011, -0.16645369466038487, -0.11572021414954513, -0.12695724457562868, -0.09816288447935309, 0.1660927525598426, -0.21763354660662587, 0.007343986434345403, -0.41403285422535885, -0.372026321390871, -0.013617206208971763, -0.12813192522907077, -0.09653004099944584, 0.09224756024432794, -0.03376349007374441, -0.19737675033797927, 0.17117498203448342, 0.0024834653163278656, 0.04408063717888875, -0.012845844974958647, 0.005283396659901461, -0.07417703023429698, -0.010206171035535614, 0.1494244837918775, 0.06644623992557012, -0.02367978015001146, -0.07759783404480741, -0.01607712123618863, 0.21447401793692422, 0.06375216218209943, 0.08799592338336244, -0.013188936292821928, 0.11971052200293314, -0.13110004324701657, -0.10117319049421307, -0.06431261618047861, -0.12395608171598443, -0.1977262173747708, 0.0033659290427283145, 0.038653894410723734, -0.22989365270339146, 0.18087551110520825, -0.07784566828211373, 0.11976001640002301, -0.07058901820347979, -0.13240743749500022, 0.035480688154673805, 0.18924258674094027, 0.014856114628026454, 0.01581724948224218, -0.10113429148270435, 0.06604732303659473, -0.14506006006103067, 0.0627562256948819, -0.05439943012752713, 0.2475017537879554, 0.21515292044641335, -0.047993437943198124, 0.17496561776065797, 0.10409268145184734, -0.22150571458313048, -0.2180772673103076, 0.05694931012914616, -0.08079337731268399, 0.11674614910824953, 0.05354831421179732, 0.22175787362805033, -0.007823235700295583, 0.13411491114317226, -0.1670067110464948, -0.016653375165467256, 0.1655012201005829, -0.057212271548706416, -0.02634596919384921, -0.09341387722348979, -0.3035728586132836, 0.09839724555801056, -0.04460899054223515, -0.07046871797910419, 0.10172681496746488, 0.14059024873365672, 0.030403299828827227, -0.12167106041768905, 0.02359449409614415, 0.008776827544654251, -0.004657665135986992, 0.030225091977281814, 0.1188946650998996, 0.0803197814518257, 0.012189145568132172, -0.036384277291166126, 0.02191667405002741, 0.01155321497187049, 0.35041477641332885, 0.26900399615594023, 0.14160947024617004, 0.086470550523833, -0.07629511880201081, 0.020571131401394452, 0.037137498083880914, 0.24011274486325532, 0.07008925242774325, -0.14348118845104454, 0.3744922385276724, 0.0735950881754205, 0.04083048558144829, -0.23974052372201646, -0.08062937719251762, -0.09048478853703666, -0.04552787919345727, 0.1425376971897201, -0.004279258284984628, -0.1362744238083014, -0.0316454943254859, -0.08653281662104724, -0.04402808299234833, 0.050598795336269986, 0.06652005621878376, 0.013112303296719422, 0.0078642147086623, -0.12076835247130696, -0.10088989907009104, 0.022738302359035786, 0.12693302142160398, -0.0022692958263102517, -0.06765897450220015, 0.1570062202651935, 0.02839176821106522, 0.25118835592756833, 0.10333939891202742, 0.1752923765957908, -0.021469197036063575, 0.07474173453297568, 0.17150633561192505, 0.1565578626869154, 0.07201227645362093, 0.022681797299022085, 0.20188460779700948, 0.013384920627834073, -0.27360718551181096, 0.08424523992766986, 0.1747675124750797, 0.09321575802162035, 0.037071894556398595, 0.19941313394341156, -0.028173547546949167, 0.36379845920409704, 0.003448545094959987, 0.22820088735249894, 0.09187974518215179, 0.0892033641640387, -0.2973636796851695, -0.10299296553239387, 0.08536759119986857, -0.24119113014879917, -0.13503460652089508, 0.1223718115876279, -0.23659763762639865, -0.034555193772810126, 0.17775890135517006, -0.10601020452180009, 0.2786042738753955, 0.12511208025327575, 0.13813898041207703, 0.023842921458933745, 0.09319849673219287, -0.019879158036590707, -0.1303692904280899, 0.03590225756950205, -0.1007902441073229, 0.003982984641243776, -0.12785108579047239, 0.2505197831488655, 0.1586456878209526, -0.012071479866325974, -0.14768718989831925, -0.11023141738662343, 0.044586344400179424, 0.005321807760952015, -0.12385019306506907, 0.05856911210025299, -0.06598298362663894, 0.21019590251271558, -0.20440433805891944, -0.051115967272043206, 0.2886877141293246, -0.14683371732389308, -0.27261231405999625, -0.36579025466728204, -0.31755427279404413, -0.20893316503497683, 0.13825244751257404, 0.0009837445241764446, 0.0975443623049478, -0.019212190335168824, 0.1724102665271265, -0.08509619789253148, -0.08517981206343239, 0.03456921128403809, -0.1578419857708568, 0.12233215664539099, 0.1833868796041613, 0.08873322731935775, -0.038248902874429315, 0.02419768826339788, -0.0933750022620244, 0.0834013219358603, -0.19533446421548845, -0.06508210941920363, -0.26765205513442897, -0.24270533883959927, -0.1011307035252831, -0.15151741211729275, -0.10389470123866539, 0.09543415659699471, 0.04502772750122985, 0.012014615783726949, -0.04656288712080282, 0.2497251870743246, -0.0034568541153884445, -0.07636953492839116, 0.0650263175500564, -0.08999211908168969, -0.024947024508889203, 0.2520499627959473, -0.0703343757542092, 0.10878621568668155, -0.008113840687332256, -0.023833917580223594, -0.03023532792797243, 0.10694410719661372, -0.09929274751184805, -0.025067968695236593, 0.2191047838419563, 0.01403568986142559, 0.008476690327864885, -0.22142800269270055, 0.04878214741899197, -0.16303664355073463, 0.0320776168590765, 0.10861346586464203, 0.018887060535572514, 0.011301642278221637, -0.34547924143357983, -0.09681793545445493, 0.29152310749456967, 0.10295384352270615, 0.1441664611956822, 0.12132648593377349, -0.179328254980197, 0.07548924779915245, -0.15039430857371647, -0.2772180380098255, -0.14694562953230128, 0.028389458308257128, -0.08988013409275637, -0.1901676352548239, 0.09831137567980104, -0.11525216482440408, -0.18981592941206726, 0.22633798083288853, 0.08647754417854592, -0.12042727534188184, 0.055702465914885604, 0.14583329444535428, -0.023262229240381783, 0.04645649150825083, -0.1579078938214034, -0.19251847408821998, -0.0550795863186969, 0.12320698514166063, 0.34145037734006484, 0.00040801561292413713, 0.13545674639640906, 0.03615996565998016, -0.08769637338035985, -0.11355759492915449, 0.1294667056109174, 0.27029481965481916, -0.017557695785897685], [-0.1316378715571349, -0.04769450793313083, 0.05594408559534718, -0.05474235520745376, -0.05729132339625776, 0.21194792909305224, -0.26667440149518395, 0.1969222573053249, -0.07097930266287798, -0.06612380930650118, -0.18128930446758498, -0.15973165474233827, -0.2262435480345131, 0.13462587352480251, -0.07107443948399646, -0.0979561177042626, 0.17772096631308865, -0.020106762941985257, -0.0725795063572998, -0.09110999665622324, -0.1690317118855647, 0.01083889371596897, 0.08998115391507276, 0.21654886466790496, -0.006153662422848023, -0.0548226682990678, -0.1181871324788013, 0.020009880073755152, 0.016598447790780332, 0.12487202869734595, 0.06299750964811139, -0.039203868875611406, -0.08166755591899216, 0.3224331322383599, -0.0363398627764491, 0.007644982735457002, -0.02733300331544016, -0.07231004584750171, -0.15810883525986935, 0.3193698980917137, 0.0892511629477048, 0.035774967132579015, -0.07187696537503452, -0.31694522463945907, -0.20746074879904985, 0.12057287541540501, -0.22782024714632085, 0.13277870369372638, 0.07025990361060247, 0.028471884098630922, 0.06994751152984297, 0.03679062007855413, 0.113835593022162, -0.08202148174979745, -0.003845540629333229, 0.13262297534520756, -0.04019049235809783, 0.11145038678186908, 0.1492489809035816, 0.2782258058737615, -0.09709379190499862, -0.008782500838347298, 0.13274081312150846, 0.2670655869324491, 0.11623956292306714, -0.08021831908713631, 0.11258915788307296, -0.006515905992731771, 0.00820262199410728, 0.31659153062780926, 0.045973807845303895, -0.0789644645056774, -0.10929661678835507, -0.13506726031380734, 0.14236803765094067, -0.044002068501360826, -0.16820591722277586, 0.09060852560631884, -0.057230858970935855, 0.20402011196890157, 0.1517876110820365, -0.16190521300329322, -0.058091046367230094, -0.30242199247138973, -0.07366966211898963, 0.16418783115700783, -0.10333525949845675, 0.03502089624296957, -0.02099065608326883, -0.14417709171971227, -0.08233752858958311, 0.1858202863598078, 0.16638739455635554, 0.31896800840312484, -0.1674957432586279, 0.11865680316555612, 0.14453061042117657, -0.0028183876528937893, 0.3209917075321395, 0.1579913563510276, -0.03736394054025418, -0.11392593229982502, -0.04523483569901755, 0.038144318310490165, 0.17513693180264878, -0.05451110681795529, -0.16969938869802662, -0.17289064036348165, -0.07945455987624482, 0.016718150020029843, -0.1966182279499558, 0.17532748941712722, 0.09819072363525304, -0.12714630320563328, 0.01562677631500926, -0.14538901035447122, -0.01786449311489984, -0.027451569518738714, 0.03443142615311642, 0.10512990022425138, 0.09464108444130702, 0.05730711548040442, 0.03585478557372664, -0.10484442229641709, -0.13047608050312764, -0.09134074760165023, -0.057533980561069925, 0.18935012432365908, 0.08081290432263973, 0.11627752431636175, -0.020633880001155503, -0.18717127985391718, 0.1062016238978297, 0.03519075488918082, -0.04417866908411108, 0.0518139450915969, -0.04953207250243596, -0.09658694371673074, 0.06781398267632767, -0.1739344155400582, 0.06725723870359242, 0.23255345239710523, -0.09590161208692038, -0.07874872701562047, -0.19216487509635943, -0.2445301157661082, -0.006804291391509346, 0.03606939643724367, 0.019406458589013523, 0.07573434630433502, 0.23283560910954074, 0.2543233896237515, 0.03517355387006208, -0.13981066401777162, 0.0026290672620464177, 0.22424908144362837, 0.01436057093162922, -0.2885089199354476, 0.04698685287762731, 0.060923952195959356, 0.1511413128575841, 0.0940407622250213, -0.028854620322358367, -0.03618219816548058, 0.0434588706424093, 0.15017612341109132, 0.26662886586364004, -0.16005041141866683, -0.21026165013188, 0.06402736883758883, -0.11530570708846564, 0.09732228963147363, 0.07735638269549987, -0.1826464388073192, 0.13714611457801484, 0.06413990991189941, -0.08233477737714218, 0.09931414590524563, 0.1256623317869748, -0.016926665027049943, 0.175380932412901, 0.1445459764421198, -0.28563121913869755, -0.21971843197322524, -0.16548458335261104, -0.10701835438534243, 0.16335354097697105, -0.10379187052177569, 0.12355937943815332, 0.06972247774822111, 0.19779690226715, 0.10599482043709613, -0.06580867003576621, -0.14205511789197853, -0.0310287468218882, -0.1368693772553397, 0.07042958686058984, -0.015721402813609436, -0.05702560425073333, -0.1020651144696823, 0.007915355579846692, -0.04057069756960206, 0.11003538122708763, 0.004603292509514232, 0.035021089169436456, -0.28595989486252216, -0.12032435394903455, -0.12106926814881726, 0.1388902945487144, -0.2656592878731667, -0.3460327272838604, -0.4963053970462687, -0.2548199595987258, -0.07428152625533208, 0.09472679163848795, 0.061360978801416236, 0.05034729185000333, 0.1014663252817039, 0.17081036305410893, 0.03175614935941599, -0.3719524253714226, -0.1446097298776668, -0.2058942713704558, 0.11761585839576084, 0.08644725286620923, -0.018613543830467608, -0.17553849766025936, -0.19201435012532045, 0.01902645693419479, 0.2882616710650468, 0.07851506479645694, -0.17233326335079188, -0.35350228659693095, -0.027858284063648275, 0.00041151430072311246, -0.07191019024432715, 0.10570377116337663, -0.06300257820251022, -0.011847471817683393, -0.3818917387223459, -0.30923465576534026, -0.0732375609947116, 0.0517250426631751, -0.07522336276015491, 0.10184264341013863, -0.13474278037288617, 0.11397023433456283, 0.051904775010742796, 0.08206736420440103, 0.0500471396506329, 0.07566758141423166, -0.11252126431393866, 0.016547874760350408, -0.1812643340159984, 0.0022116083719218886, 0.00742314535904381, -0.1824920201908625, 0.1017771964856383, 0.006780915709536397, -0.03360009600873915, -0.10890797386653904, 0.02067560967664205, -0.15796040113185297, -0.07012657771160043, -0.13384350228617659, 0.04096442364041969, -0.27907505724673864, -0.13070176005746084, -0.08782281311056363, -0.1268094730075289, -0.2391593534427756, 0.09586795938198027, -0.03854019155157602, 0.07665630692948482, 0.24197947613515433, 0.14941877517024085, -0.051472297914431385, -0.16337183912194053, 0.13433727354984565, -0.03903195886348, -0.04229139459354721, 0.08669423473611974, 0.15910430774901943, -0.05210214939747349, -0.053506101553593255, 0.07084515853881863, -0.01635694931293145, -0.07147675647526627, -0.26733943904495766, 0.054468455952218206, -0.24075424324031844, -0.22510703647095823, 0.0817366971972665, 0.06980744552309946, -0.029386387210156368, -0.27677291066732085, 0.042176823850487315, 0.02901132244883251, -0.25223991086350395, -0.024043295380538177, 0.1304602631229633, -0.261797389407044, 0.3406620371936775, -0.02036317020129032, 0.11329671921421654, -0.23060399562221254, 0.20238336940284993, -0.10352633737740449, 0.1346263250844282, -0.060859418367590366, -0.036717498967109054, 0.2503642217527376, -0.07008183840110821, 0.15116731646039963, 0.07515499194312696, -0.19087250832699418, -0.11322975388174149, 0.05608093326686557, -0.06062158083787889, -0.07446964862275102, -0.05340606276383217, -0.03136061335631605, -0.08025410332037375, -0.042023041727808755, 0.1274155415502704, 0.14642098611249438, 0.1686232368295952, 0.12476954495070343, -0.17526250902163823, 0.20620581876841443, 0.059793858528319824, 0.09577085358016975, -0.09933185495305981, -0.20971569706055007, 0.08180097044453058, -0.1769215824101263, -0.013024887580889754, 0.07167140555185984, -0.1286273296869431, -0.22633570501963418, 0.3157509711518327, 0.14772489225131297, -0.07434414230265714, -0.006263314516557883, -0.41859211645520933, -0.030153258752423875, 0.03872237508276954, 0.2087227258965613, 0.18843316966934412, -0.006345077997844362, -0.13476013014718127, 0.06824582790747623, 0.18884538467917214, -0.19035965283844328, -0.13496650460684556, -0.19145575513430366, -0.18084867814763536, 0.045710763003598165, -0.013494182318794734, -0.03566315378680562, 0.07774780880901569, -0.08123839608311062, 0.03651722074065768, 0.014999328756517098, -0.05254132245635664, 0.08124753850713036, -0.0196280417590996, -0.06341137972835269, -0.014862587381708498, 0.21537113175811498, -0.15040204044505648, -0.06779577361571315, -0.1397022914562987, 0.04406886293707031, 0.11522043128464621, 0.3233508597440446, 0.045717670799239316, 0.15749564927991336, 0.13264789762732015, 0.19815613786173278, 0.1335094717262425, 0.11216089961659773, 0.025452816211463312, -0.0558033863318426, -0.06527225077670518, 0.14160651701679627, 0.13584458624366283, -0.167710459053034, -0.05282873839241908, -0.04684145009590447, 0.09289891291335253, 0.05698962087809128, -0.1097613003033102, 0.23246860591111285, 0.18655020671373498, 0.21502219373990725, -0.37436612526981783, -0.18496744429253797, 0.2237671730137173, 0.06856432430431451, 0.24438971912473453, 0.217518519818922, 0.008379424231545791, -0.03045794084187771, 0.0686274573300992, 0.06672502670035195, 0.12398126029922174, -0.2894293242262291, -0.18640085411762633, 0.04147724932068814, -0.09400512552091303, -0.10527406711297667, 0.013998719519592258, -0.060975579117801555, -0.02234438969229836, -0.05951669669260511, -0.029990345935896574, -0.09544970357317141, 0.010579429803958837, 0.13495191991737368, 0.15906337642259533, -0.14487683293175616, -0.06580804597219526, 0.028713770832582395, -0.11165867880435298, -0.01449769856009655, 0.04973995243990715, 0.31104588331356453, 0.3110789973495199, 0.21152719496410163, 0.17087689985231713, 0.24555925559770067, 0.34223451326209386, 0.4567509553235363, 0.13278129875453815, 0.115176410868918, 0.10738081731792684, -0.1495431078257469, 0.026116196198085397, 0.06379808859388122, -0.03455231354406119, -0.06525934075865257, 0.1828120191742499, -0.07401634643294065, 0.18878684961979042, -0.05821013137412944, -0.12034761303637935, 0.05933563688008029, -0.1265767067303757, 0.04489806475206125, 0.09424817105709658, -0.2292652212204373, 0.12020169924999459, -0.04196210070043624, 0.009957929734088612, 0.10936359995675952, -0.01938320114148543, 0.008702712843853055, -0.09043890029189779, 0.1205897866078976, 0.1179121742857938, 0.13797730650664256, 0.028378307197691213, 0.03772480867843196, 0.023205713269173443, 0.047606976040777994, -0.11669544806707989, -0.03521571073013938, -0.1561375602717433, -0.04468053289665015, -0.09424921296969417, 0.08767172775102354, -0.0703382144358796, -0.04396613693520438, -0.1683999757548338, -0.19573285331152643, 0.06283437969006939, 0.025841930084936036, -0.011246101930675713, -0.01298345459236318, 0.13898887954884093, 0.18990467446779744, 0.08955795130872467, 0.11322203718993408, 0.0701016140557501, 0.14071403261504584, 0.33075067448750645, 0.09085998492051023, 0.2282585240569509, 0.09563940113334791, -0.16096846727684858, -0.09540620225497815, 0.0002357773747838963, -0.019847644896940953, -0.15731349718873186, -0.1613130015233262, -0.24516430481685, -0.05101401263556362, -0.05154456373614016, -0.1322824913738483, -0.15626995019642875, -0.05194142229626143, 0.00502324525812182, -0.08194309721172868, 0.15786908670773975, 0.04587810256151412, -0.09326701472772427, -0.06316018136673181, 0.1464525722144308, -0.10866374630623746, 0.23618545196930502, -0.017979260944081022, -0.02108500130991701, 0.17902590315151487, -0.09379564191743522, -0.1293254958900049, 0.08712860155418926, 0.20285193108654254, 0.25678603960568425, -0.07791132884701552, -0.06217370158515625, 0.07836547272605342, 0.06377449780940814, 0.10305399404362484, -0.03880790229233865, 0.012611891242134897, 0.0155553715369527, -0.15004131204634819, -0.021233950461169812, -0.08957566809815004, -0.015682578298965157, -0.025372966290361183, -0.1390525173283413, 0.0031469018550540923, 0.043337709941752296, 0.060862857224124496, 0.26178804936080946, 0.06985595334208798, 0.17289813682856, -0.03224306604155142, -0.043401797813772264, -0.09272410976423257, 0.17747697971468188, -0.09153984559893437, 0.017283341411052436, 0.09955668954938952, 0.12818605469635505, -0.060250196656117805, 0.3154109856862017, 0.02667682324786643, 0.12506245810773456, 0.07151258639339794, 0.19975996941270815, 0.007255790495563915, 0.18487458222284903, -0.06426454839513605, 0.12735424304206447, -0.01385249950399506, 0.09941624597664397, 0.034048856247591464, -0.23950970628912907, 0.01928383322295454, 0.07622582770836564, 0.09871997744451459, 0.14014197111239365, 0.21065900416458552, 0.18869075133404314, -0.03230102254176853, -0.03583329784476115, -0.19829223980324298, 0.14422707318729586, -0.10705575303536254, -0.09582073572702005, 0.270225559517089, 0.3900070850407935, 0.18462232865952208, 0.15150951754394915, -0.004236302391133121, 0.0803054997146486, -0.0396066075697139, 0.16714538537901705, 0.21529314413674103, -0.046093903421180464, 0.19805174816578786, 0.02739472298600992, -0.029262324149357633, 0.16307552132965128, -0.13587844895509865, -0.05118530699672242, -0.22227894142577986, 0.21200302258603027, 0.09108404701430593, 0.09009806223790351, -0.233604384277382, 7.377827555830507e-05, -0.22704324393340108, 0.05137709160733343, 0.04663450459337383, -0.11356445095963529, -0.44693991129527644, -0.04442501841227862, -0.16524411836651548, 0.06956353502665445, 0.04160925307817217, 0.002990215221239304, -0.13832646215215633, 0.23290666771505844, 0.09765146332848074, 0.19306101852130483, -0.05123350649947206, 0.1309290952841379, 0.17464286529132456, 0.14519403582531734, -0.08281265295752431, -0.03342810528174794, -0.08724490960802757, -0.11660578736119778, 0.055035254315878655, 0.051088856210972984, -0.0752138852651603, 0.04450362032455879, 0.04698164774526799, 0.23527078861524034, 0.02400423134189628, 0.1374998511695652, -0.02895470355399367, -0.12460543755301208, 0.14807895366211857, -0.10232076920577345, 0.21797295262508926, 0.029425272274725835, -0.03859376537181275, 0.2308331899634563, -0.24009240137327487, 0.16054024733014854, -0.09776016072713573, 0.2501685705628199, -0.06377301446465371, 0.14050115867901056, 0.16329432865176308, -0.023731763575905625, 0.05096323281904253, -0.03224187454651147, 0.07117855882697784, -0.13315700671719144, 0.10018025464677141, -0.05293976888303572, 0.1804757686565612, 0.033632469668469125, 0.0025300017795915537, 0.003805023929171178, 0.06064311162892716, 0.18768165309200255, -0.18759457188430212, 0.09422015688649746, 0.19329392705291415, -0.09470211032816371, -0.07982475266140138, 0.0639426369352339, 0.04312212739244758, 0.22068801056275758, 0.056380100416402755, 0.016717360870670522, -0.10732426686596065, 0.34615696271398616, 0.2906579767383463, -0.12842155716798653, -0.04275849455334406, 0.053362352510286176, 0.1383602318885589, 0.010635490274095456, 0.015642855124891643, -0.08004899475291925, 0.19308376975143796, -0.06366515704668377, 0.25528767042909606, 0.0444368076185774, -0.09658366023256389, -0.31184370682327034, 0.033038855269794595, -0.038496365698064174, 0.11844016398175258, -0.2045476102101591, 0.03657218421709562, -0.22681688634649103, -0.007424750736638193, 0.05113254758552715, 0.010084634595660752, -0.10793895125321955, 0.26972009283810194, -0.08575209351376883, 0.32907656396574425, -0.02943232317446465, -0.16979950125799476, 0.010798343092925758, -0.19091839052749981, -0.1341122359288565, -0.023705935607022912, 0.02533303541005588, 0.039107080520948766, -0.01723521704920897, 0.21193631943725472, -0.09507840651728153, 0.046513417866999265, 0.11645384111809162, 0.07068848824876488, 0.061607045358405214, -0.07484598723182503, -0.09107827805311557, 0.007816238465797246, -0.3183733430905226, 0.08141324241145263, -0.1964419677846755, 0.09150109758555068, -0.1531972200649817, 0.039986730003228776, -0.20053642152366025, -0.1625302453956895, -0.2724956176095351, -0.12548812938019113, 0.009210414269761371, -0.04391014647746534, 0.17317756219109168, 0.0382972452359716, -0.11041838885929199, 0.13164850685277202, 0.03760390440100564, 0.13191639096963087, 0.10945882144198765, -0.024738595412027973, 