[[-0.0284994719909619, 0.1243491337861192, -0.21387198801637725, 0.18556942371426277, -0.074628027925422, 0.048612106578973115, 0.5819369527776801, 0.23450675058926543, 0.03366097251471589, -0.5801397942344636, 0.12247493197447731, 0.7939227575502947, 0.1903499690715023, -0.43996909730501943, 0.2764531748811104, -0.19980884973092364, -0.12096493857291853, 0.1175963004945822, -0.10688271358552423, -0.14042439424641479, -0.15762119956619358, -0.004863619851901596, 0.2226947438687383, 0.174349946320656, -0.578418275927691, 0.10565900415722794, 0.2631732818617073, 0.32369266812986247, -0.45336458576982547, -0.4212016802392114, 0.0722548931924664, 0.3937470213851199, -0.1883986944839906, -0.14647542571912667, -0.12096337863821618, 0.32903040784718857, -0.030896642144457278, 0.5953162876832461, -0.30653441941301074, -0.574433925065854, 0.9491418672966487, 0.12644410920711585, 0.015516062364076814, -0.27452850957014724, 0.3415931453405602, 0.15786959965466973, -0.6054238461747069, -0.16754272797079292, 0.43657306641590615, 0.09640038068921311, -0.06594544235122461, 0.09652172690729563, -0.22007227789189227, -0.5413718287071435, -0.13457616544350873, 0.200078155304456, 0.444602466904037, -0.15429274774384275, 0.004686864451517082, -0.5667402735404505, 0.24257317224310962, 0.24310820152040827, 0.11090276959803004, 0.18944342205879947, -0.33560517452304617, 0.24306491802425842, -0.4276617064350581, -0.6068904720438806, 0.39064542491879245, -0.2636882394367297, 0.11201007110110485, -0.12512242945615798, -0.4826810264986574, -0.0861558304964353, -0.5785719068291113, -0.10510078145105518, 0.4974683647397875, 0.07544667865584584, -0.05093407875245914, 0.38426531608765535, -0.3239449721833076, 0.39534991384207324, -0.17030679225168863, -0.4841820975543018, 0.19711694175056654, -0.47188822372037476, -0.05986317049804951, -0.5328132765154275, 0.23232158162330466, 0.15396146978057476, 0.3387541397700578, 0.27106064087956167, -0.02313605981615196, 0.1235129101631122, -0.007827625993103639, -0.2734100091090015, 0.6911761121103867, 0.17233170920023047, -0.08349337861794066, 0.3154569807424269, -0.24101457929804604, -0.10652771155449614, 0.5668759925966813, 0.2604751058537982, -0.446376098032227, -0.02263810065842994, -0.19467094141338703, 0.5036085787058406, 0.119439907278837, -0.40771569316323575, -0.08357734582915141, -0.05651749843603103, -0.43339361204588983, 0.38608009466186755, -0.4050633365953814, 0.06424045742608678, 0.4932159074436546, 0.3260513314792357, 0.15784263659031122, 0.20040280957489628, -0.5283682042479316, -0.08708815416213797, -0.29130069038854306, -0.012216247140808089, 0.254378558910794, -0.14974283708484168, 0.18795187100431696, -0.2761855351174139, 0.044860821054747896, -0.022141048316191306, 0.29715871531186416, -0.39581815354224015, 0.6159667866254496, -0.3498676334804448, 0.3299605859051498, 0.6041116810596181, -0.03973742358293923, -0.5372734351600865, -0.05523898962304305, -0.30632178475590577, 0.3553409077669931, -0.06888124551739598, -0.5697786107023827, 0.4865623760716197, 0.050064818110225735, -0.391431986410166, -0.17647165873205597, -0.4770339731277262, 0.6201520766909256, 0.08955479591444893, 0.052417980801988326, 0.09649249687772118, 0.3690107886661246, 0.0035422211402430645, -0.04779123793839017, 0.5757053069570652, 0.29923818225723403, -0.19108570106759729, -0.24420801054752347, 0.4544525926766685, -0.4030521893488285, -0.40718385806367174, 0.12650957290112205, -0.05416605163907822, -0.16918225868579892, -0.07404873109173968, 0.162602266188331, 0.2972464006527486, -0.13579279797824334, -0.07110955199931161, -0.3588775593696896, 0.22180097151381384, 0.45393827241077245, 0.4659515031600624, -0.2725456095769302, -0.08151660881693766, 0.48972736021028895, -0.4017550046345999, -0.42390699409215604, 0.3352836842117468, -0.1716824129518599, -0.42874823823176683, -0.042853968054192816, 0.3351907835292683, 0.1821926602662107, -0.027594814445058975, 0.16999515339781182, -0.14967605836060663, -0.386050598580123, 0.09142461246657821, 0.46322320692086716, -0.010604194027766446, -0.19794868160996507, -0.045827739125861994, -0.2835874917812234, -0.8201450705163232, -0.0952500341803024, 0.24398934461101626, 0.6314358840844844, 0.03767527749873239, -0.07568387684546275, -0.5592652891828555, 0.17877541625883947, 0.11717792797657228, 0.7132220828201224, -0.24749530560286992, -0.08879489747611591, -0.1089757246813112, -0.06479331220991202, 0.3298415741163362, 0.10700410056141738, 0.018862518684771658, -0.06638956754465801, 0.0767720013578189, -0.3920469275453224, 0.08107858532637006, -0.049240561599003835, 0.08408911588059184, -0.13830733900761125, 0.2395073233545896, -0.027727663583123674, 0.09479049342403098, -0.1403701802666004, 0.43981044254352614, 0.2439509070927561, 0.16491707766694907, 0.3142968154993406, -0.8644083557446564, -0.10903066507040143, -0.10537197485547214, 0.07637377886034914, -0.1145735758326218, 0.049000736090152555, 0.2757428482019032, -0.08083302408134022, -0.23734781558816406, 0.1967806834092754, 0.3082717674377627, 0.3530849489724067, -0.3233253129007996, -0.40691022320964615, 0.006100944383123721, 0.12926541496004368, -0.43619803226381276, -0.3546559412721324, -0.17427441337166016, -0.5992097323869422, 0.41279706403247135, -0.26103729983897006, -0.4974832808550011, -0.3126073717929583, -0.18569573120441912, -0.1714939847913456, 0.34814728204015705, 0.4546100481336765, -0.48734295788970666, -0.5300949213160157, 0.13362903255989544, -0.3070419285184255, -0.21974062482875703, -0.5932625803051491, 0.43251902690778954, -0.90522601525579, -0.05006255855154515, -0.5082475883422466, -0.5184882086195439, -0.025980056318821765, 0.023259381158836915, -0.20835798775034037, -0.31282234293359495, -0.32856943047743015, -0.16219799773526639, 0.555419578631229, 0.18375297460027978, -0.08382796411082169, 0.17024889345127556, -0.7943401830899566, -0.2696529875945491, -0.0943428874688553, -0.14330808305435885, 0.17390353165975214, 0.034874666505735764, 0.03124540332251519, 0.22834124762117106, -0.11381823654391705, 0.10778745008021971, 0.11140822297728271, -0.5412098569951388, 0.567722041516282, 0.2061932211238341, 0.250976733448791, -0.19127251026216194, -0.44618397936900184, -0.544370227134664, -0.9612164192297808, -0.5866840111207725, -0.11553848302098617, 0.013621914155418588, 0.408712636355256, -0.34586769781934534, 0.02143577655416894, 0.22864243775711035, 0.23686897201145152, 0.16984327014996184, -0.07035568102048509, -0.11381730612329409, 0.2591543466676209, -0.18054931166373808, -0.1215347506727549, -0.7113937751231644, -0.42165875244073786, -0.04372309712419881, 0.17611062966351937, 0.560699533726437, 0.2445821685968147, -0.7129759349972903, -0.1262181061356925, -0.15236114507599957, 0.09199361584746238, -0.24089372365903972, 0.049985056831201885, 0.41437525408755294, -0.1081413870853051, -0.10857275992885645, -0.44920773155661126, 0.30272146397639277, -0.21435880832740442, 0.06358044134712254, -0.11356091201939787, -0.1284794497845948, -0.07237055605302109, -0.3942420602697977, -0.1275006105977555, -0.31318209410131037, -0.4486961801903637, 0.14921629108419107, -0.5822018038320922, 0.06753983319790502, -0.07655522858480737, -0.3021432259360717, -0.36233253896171136, 0.1528777531248558, 0.25270773578066097, 0.680438058837643, -0.6086977897695757, 0.3439999862545459, -0.07347230184159592, -0.3061512595431438, 0.15456632672462492, -0.5771430208827775, -0.03737095400442904, -0.23033958545425182, 0.44863806173486936, 0.09545286593752295, 0.18926452653566958, 0.31309705989273323, 0.3329828755086486, 0.3756442012401455, 0.014281390308857398, -0.03320947591638321, -0.3598101697485099, -0.1947777605710064, -0.2390068796509565, -0.643660732766848, 0.4236860191724664, 0.02015911382146727, 0.19309899338328396, 0.7365898890352798, -0.23677944890419533, -0.3040993137051435, 0.1748549395658321, -0.01472796964677567, -0.11985347603613107, -0.06898057643989126, 0.13939453046375835, 0.8437668932322467, 0.516710824832794, 0.050903567796658764, 0.06581084610948566, 0.1620285847155466, 0.29442350936407163, -0.09751662930019393, 0.11095486179364554, -0.24916887407699292, 0.09548663735108177, -0.3250759621868829, 0.6209938760448911, -0.010457780795825792, 0.410311107017717, 0.6084444028922944, -0.3878372617360147, 0.18298564139411536, -0.4623044879560498, 0.28845411773883256, -0.004063248980495371, 0.013305423322034618, 0.06255832445275158, 0.10431592303028633, -0.6286366879683494, -0.05476092982755164, 0.3211297470695718, 0.442099465832881, -0.37576512045682636, -0.1530196703389612, 1.384435941228896, 0.24240215882735755, 0.38111039276035685, 0.3337021967260131, 0.18199065602926262, 0.18745142579853324, 0.010072454275416974, -0.025866093288324718, -0.1739734919057714, -0.22400095589579602, 0.12165269691844317, -0.7909472903918362, 0.17317843469649163, 0.06203074132277459, 0.14226969993542293, -0.3667071614371844, -0.05309185774899082, -0.4688910231312927, 0.07946006823170326, -0.061826774878213496, 0.19653919195597358, 0.3369394675957327, 0.26152131472643453, 0.1798743631878686, 0.3309798772742619, 0.1445376059300843, 0.340390352514976, 0.8286156822920543, 0.4642644140704698, 0.7390444461961445, 0.622175390082791, 0.03660613114883439, -0.06957367102584242, 0.6635136785066258, 0.21303985995109606, -0.25921441250554156, 0.024549086221618, -0.6282455588160096, 0.30453780828360044, -0.023080124482414432, -0.6722077739545501, 0.3127316698607566, -0.03000790888953639, 0.4019439360772031, 0.15524869226065335, 0.6325501615927154, 0.5008731032136167, 0.002344928245851832, 0.3069735653061049, -0.15179480473114995, 0.19969242755257335, 0.0033040999065387204, 0.23111200059662673, 0.10424504021553394, 0.5501334119911738, 0.23269831314891687, 1.1998509390243288, 0.1985432659812975, -0.3128798180280823, -0.04054023515149994, 0.6120898476668655, 0.40942682742503916, -0.4075776121185593, -0.18629980506985977, -0.0028445635837467775, -0.538214754301663, 0.0518852745866092, 0.015705817061795017, 0.20236253030889667, 0.09638783608866132, 0.731953156803502, -0.13462202431680528, 0.22418568613781026, -0.23426750245962585, 0.02925183679251343, -0.20360170139463785, -0.3548781732806845, 0.18982351372751113, 0.570352958014357, 0.18463957006994797, 0.6644368352131196, 0.464784435530663, 0.1718211955705144, 0.7377567167649075, 0.6199616631838891, 0.4116134642364027, 0.5047320752269783, 0.060145859373327226, 0.02638140963077521, -0.27932008181223594, -0.2547906100304616, -0.48814727667085944, -0.36185709734946014, 0.41628925623039886, -0.5254666859179365, -0.07284211362831362, 0.7844454938650397, 0.26200888242775633, -0.11582566602600544, -0.31355096298275525, -0.0850201712598939, -0.04572891822748114, 0.037669241024875885, -0.21562394777817706, 0.14790685861876793, 0.325973436393644, -0.37457114910490785, 0.5046444715889709, 0.08886632601139807, -0.011480661454607032, 0.05887382113316357, 0.7396002664401861, 0.24624076289450908, 0.1923331566402883, -0.5291841980650273, -0.01699681483980277, -0.02060076981705713, 0.12214009682737573, -0.30272483418659385, 0.1541546881279147, 0.2954583189513559, -0.4206964106845748, -0.24331118752042805, 0.029229243442096906, 0.15686488088922915, 0.20687671155553788, -0.3517545282959721, -0.3646739862999232, -0.0926279313738431, 0.0061903055849469625, -0.016340055048136484, 0.04887287334402628, 0.14972295625311238, 0.21017178470141706, -0.5352083574291182, 0.15847896615552465, -0.22016901220032098, -0.04868748732461778, 0.37294442192236615, 0.23853530941444406, 0.11445491216555792, 0.1601723728870795, 0.6314614433491469, -0.6126825613544004, 0.8916917789547749, 0.00676189312082694, 0.3750100610099222, -0.09795951699606238, 0.08355351993380392, -0.17459417637847946, 0.002630693475808355, -0.32535194369838893, 0.3228641985772108, 0.13769789714187552, -0.36441273550144754, -0.7037920408175858, -0.008256312628326237, 0.3192099267413778, 0.3600249589629127, -0.27887957040718714, -0.061826606328010916, 0.44522466620423523, -0.21222128101288282, -0.09316502144763847, 0.6474901864421565, -0.08806646367399727, -0.49095826094928186, -0.03384366540994002, -0.6783254470589944, -0.1427568645704402, 0.48830259426854067, 0.030610804759324046, -0.19031800508012106, -0.1634905012343905, -0.019470621967840242, 0.26441923872476786, -0.16788176195181295, 0.11343658015411202, 0.17517005622534138, 0.1087005076474847, -0.41221076743704577, -0.006877490245576542, 0.06222964213915512, -0.07907616396072484, -0.1316824256900955, 0.20874559230964018, 0.5013624733233665, -0.19138764240594228, 0.22567891997902012, 0.1765013547859476, -0.05209624469780547, -0.31869348900553135, -0.057979107873219984, 0.26092773886000353, -0.1720659938170478, 0.31442529635425304, 0.010858211256962699, -0.1430101847204985, 0.03900572739080203, -0.7827538209045211, 0.05917825195758723, -0.28860953909192044, -0.14263365825655833, 0.2840117086780929, 0.06354674452780977, -0.017620216971043184, 0.19005664990603066, 0.03432168484248603, 0.0482556965999321, 0.22647384582863678, -0.17787527086917237, 0.3120846552180001, -0.14799937193773152, -0.007386837819314271, -0.2991100404870881, -0.4293080389937612, 0.20845584896662905, 0.14627350106847423, 0.0722717481136614, 0.06460313948551026, -0.26448373759338384, -0.11040905726009319, -0.026307862279554756, -0.29136882407611386, 0.17891936623190804, -0.4547749965704553, 0.05805720416601149, 0.22168873445102757, -0.010977160004239189, -0.2066698340545479, 0.09196470459906012, 0.46134992827252536, 0.15871099633903224, 0.7501495505666517, 0.24155673582985282, 1.0286362755524332, 0.5362653251098113, 0.3771979954326987, 0.6661317425807128, -0.42085462629754483, -0.42523512172458644, -0.21152758109656433, -0.4177381247340985, -0.16114113494807775, -0.1772118633769696, 0.3624824926911521, 0.013052310355228828, -0.45025226935049384, -0.43246384945487704, 0.09699410434368085, -0.016832696298170947, -0.28144137774465716, 0.14231326373819708, -0.8010287009520939, -0.4552727398543905, -0.3629129954946771, -0.10245772802511553, -0.328559706105984, 0.4004730154206873, -0.11566139453888387, 0.31579855991128636, 0.16575125202328958, -0.2862738732159406, -0.34959177210103254, 0.4423236790890009, -0.3456581913069939, 0.6990021145101164, 0.3885438722592203, 0.09358809864609802, 0.03620869385838101, 0.0031097553887512643, -0.24637110023992503, -0.5688153574849873, 0.7024789998812364, 0.15920653705992388, 0.19096624659712666, -0.4959291510371534, -0.2981833853164166, -0.2831800249713642, -0.1141185428340843, 0.6945498483951035, 0.15244886323929982, 0.3716425965905458, 0.1853097303693384, -0.061594993052209994, -0.23046280455149387, 0.5386651304361221, -0.5970576647069483, 0.43040778648290146, -0.23294655483003165, -0.27188739997445116, 0.0629004124965194, 0.14433631499249755, 0.2856805957030534, 0.5165677526949373, 0.029934900365005273, -0.4928257305412672, -0.4810913463887842, -0.5099493273785906, 0.03437132841144524, 0.7424326496072035, -0.18949829488876202, -0.43541708780509386, -0.611466526622659, 0.1617665503984736, 0.04821561331744094, -0.5927881782617309, 0.5480893556140091, -0.7535486225675402, -0.4444161017542742, -0.18147351546593934, -0.2306380126451054, 0.048964494693204526, 0.0216879370617343, -0.8388058321108515, -0.2309240471648634, -0.27321490015093847, 0.04915630449323273, -0.31193081372570264, -0.2080050718239672, -0.06858960165660967, 0.2993124301826415, 0.12700902966124042, -0.6765205179564231, 0.3750828241879234, 0.004612538136811262, -0.37321735258481115, 0.4189902463155276, 0.7307981795771001, -0.17106106998875098, -0.5465401396112609, -0.04330919014293721, 0.014483640100807497, 0.21218577479723572, 0.06830027959421121, 0.1453762512591784, -0.3642366551573707, 0.09966599283880309, -0.3252106230395605, 0.11792141322901671, 0.05298851769551, -0.21796184181790468, 0.31181416121454175, -0.38422006178745866, 0.2875527270811207, -0.0441696075853611, -0.243629724343762, -0.8704657798979609, 0.4502821728261497, -0.38014064578319434, 0.1582263226370606, -0.19644894648030717, -0.2624253971127958, -0.7143618985858896, -0.1551036235738276, -0.5601619694050672, -0.31271849562245074, -0.4356174443031491, -0.34702302936830026, 0.12038124826882524, 0.2713291181888721, 0.5695706664771306, -0.22397871758967106, 0.4063696359112078, 0.2974159061353706, -0.18430313668602463, -0.12011531755346558, 0.010841381030485877, 0.32036426481542957, -0.5327456914377952, -0.19758835904509167, -0.12469544764557132, -0.22369356712410018, -0.38761295510031474, 0.36576742202144946, 0.029023234755418077, -0.2523583839365226, -0.6236881585745343, 0.3360135349432624, -0.2551978775807419], [-0.17804202404975797, -0.481513047986387, -0.2743636414616665, -0.5447304838290603, -0.22552454199597063, 0.31301804922886317, -0.24530287633803435, -0.5164340807486542, -0.01714148525653579, 0.14080516353397962, 0.10229128242526928, -0.02459293513382136, 0.2050805951743511, -0.059540164765957436, 0.49173485117670657, 0.3180449570496565, -0.4838884966327645, -0.22244361983570976, -0.0942140536807045, 0.08555400746607746, 0.2647114675405553, 0.10756511199406549, -0.12416764892945167, 0.8121584610634028, -0.15651479777897165, -0.07248355244339201, -0.025656757775497457, -0.16747934987039453, 0.0431425310805485, -0.038234785803391354, -0.21248323246388726, -0.0962462722120551, 0.8884362542168489, -0.4863083408246619, -0.2296467288684613, 0.448447563894109, -0.14583946378319493, -0.22788581011591139, 0.11275642708412018, 0.5350514138976914, -0.6013780533215897, 0.43709150858708823, 0.02980573250995571, -0.039512070056730346, -0.1582320094749607, -0.3729585585962293, -0.004534142234477959, -0.23815870253135366, 0.3844586100131798, 0.594774794810695, -0.003091029492615352, 0.5927560197390579, 0.016751706265685683, 0.2124937899178456, 0.044975348679061604, -0.5758168613329644, -0.5568495485524727, 0.4406206469044787, -0.141090562971236, 0.45095757185464797, -0.5233947639638095, 0.20954574712427684, 0.042083212563955356, -0.1475733301597467, 0.3230629467012237, -0.15278142090765606, -0.5591337493985824, 0.3919182191744229, 0.2846733703913926, -0.2983560077006577, -0.40980999762396036, 0.3879651423638809, -0.01427113337646092, -0.1067532977693829, 0.11517785054376077, -0.49617521649197166, 0.43262843410675866, 0.12248006984455803, -0.32018732569625236, 0.3339399930537825, -0.5050783435388768, 0.5165391490818747, -0.5508582982669757, -0.4278973844556995, -0.03599793540007527, -0.3683312445701782, -0.10593842151520085, 0.25164035849472915, 0.26445500526251386, -0.5453049233656372, 0.08704396343596059, 0.38491284168359374, 0.30841446053527144, 0.7666344759549814, -0.5126613120841259, 0.21114879315934953, 0.2430388159501005, 0.09599074361108152, 0.6064964278156905, -0.450915016482465, 0.3675493080706899, 0.07428268914500229, 0.43977785527374297, -0.7552355171990124, -0.08939455547082646, -0.04183033378819465, 0.15834174024963324, -0.520067970430602, -0.18299467383254123, 0.42998478652949784, -0.5167558139302205, -0.34907334190361133, -0.21190905699185947, 0.3189331250050747, -0.09132162136937685, 0.22636452408663219, -0.28461507028662436, -0.14024778560968748, -0.15947176651075085, 0.3548456899021622, -0.02138446233111477, 0.4339440563087558, 0.15757218764664274, 0.21112905501220708, 0.7469291448985179, 0.15206160923729753, 0.6607221011199989, 0.34054515998451623, -0.09230026470736481, 0.4903094160393735, -0.26385944614901113, 0.20726932532761635, 0.6689176889655322, -0.7349556781954837, -0.07653429655765052, -0.5118532373167681, -0.40468542378036876, 0.13385098631702502, 0.14798495008289583, -0.14339081726731007, 0.16165661969726747, -0.8440827313310649, -0.41667628803050305, -0.10500449982238062, 0.14162891773590103, 0.11718263667181812, 0.32709736486118607, -0.21833027955788262, -0.15427922799593619, 0.20079844644103004, -0.013599723110458015, 0.22445020188679252, 0.23233738767928913, 0.3813634931966725, 0.49660493666363886, -0.03838349516642739, 0.02336663913295742, 0.01747756315128527, 0.14655586230511927, -0.3597472509664883, 0.3224287564697506, -0.6034204796416933, -0.20641675773277232, -0.1433198567630986, 0.3393754206091171, -0.44781189830032797, -0.47683245700475185, -1.0112654771739376, -0.14375311137804245, 0.2210564007120537, 0.4801235865060041, 0.5627484072545527, -0.31026867204741626, 0.2562313839356178, 0.27520269688482596, 0.5353295633931279, -0.3296905633070777, 0.1746535865700445, 0.13459889384717302, 0.2966770135223668, 0.04817719390295324, 0.036603292953335385, 0.8223822949009508, -0.038826162394313274, 0.6834755813526636, 0.1401433017422027, 0.3025087619971785, 0.25976547037444775, -0.17890471701341573, 0.33114011570551566, -0.07130701844679124, -0.4289153565747082, -0.6602336081499246, 0.6907317127715699, 0.2834368795505833, 0.249638484177081, -0.003707288655993109, -0.1550467349803584, 0.5731860830936524, -0.04830007160370516, -0.22565115852156054, -0.3328220265166879, 0.04702742939074794, 0.038661855568497355, 0.4136442684560495, 0.7464641585670954, -0.5906913871346964, 0.5832960828518297, -0.015049249836326908, 0.4225134202098346, 0.5453333533054733, 0.16985639827345478, 0.7953289289778754, 0.11819235689114453, 0.0028298021551036974, 0.33507361831014115, 0.1640030131157598, 0.17176936209320126, -0.42733208460432387, 0.304024753804802, -0.16620106575663465, -0.21997323939884456, 0.40592220342198654, 0.14645656897089163, -0.1452153012066383, -0.06854670014609626, -0.034263154169866514, 0.34909771706024345, -0.1479155107470106, 0.33042303635696524, -0.1584467834627143, 0.06656817289920008, -0.07298944533009162, 0.46679887194686925, 0.26895988593746595, 0.3863038623894692, 0.6290694719957618, 0.11234048425712367, 0.7659238640609076, 0.8436879484471889, 0.03962392101496385, 0.3769989392726789, 0.4874589238534922, 0.10949024521536481, 0.07113407785744356, 0.3686389279626599, -0.021909374603821166, 0.5267080734569685, 0.08512232172764447, 0.17013074680433354, 0.020037477439660334, 0.15809077132887076, 0.19911516376992014, 0.2886906615290437, 0.14627214155432833, 0.5283772924098566, 0.5051145679989539, 0.3238587146666372, -0.26256241332378133, -0.03324242957473261, 0.13842523456450911, 0.19386578470778443, 0.4260638567644633, 0.3142703377043727, 0.2120135294256177, 0.14000072172694328, 0.7238408526446186, 0.3518409395718929, 0.3381651051043168, -0.002086753542349585, -0.049037623806820335, 0.10590832808240497, 0.015921976944989043, 0.23722289587960033, -0.19994057114932384, 0.31135295664030654, 0.5094759386866953, -0.09831081457125414, 0.6051511991322213, -0.4966761262606001, 0.3210102099824341, -0.6592822509913027, -0.23016619099660673, -0.24908251879588897, -0.11598726590634864, -0.15137212489728466, 0.044358682675127506, 0.2387603277834242, -0.14290191495305438, -0.4776168450028981, -0.4551630735197913, -0.08343146721205577, -0.10995104242373817, -0.02542570824296454, 0.6047630762550185, 0.06701060131018151, -0.4177290935907056, 0.14952326933196972, -0.07547143497143782, 0.06495909908406006, 0.024679773117223157, -0.10344126242321161, -0.13395257683144757, -0.7360499472896009, -0.4135732844747328, -0.2490545496009021, -0.21119353647180522, 0.6746138336602522, 0.2817670531579244, 0.8491655967602406, -0.0030309975189978565, 0.42930541902974895, 0.45219775054141237, 0.030734443419721577, 0.6743028939201481, -0.5023424199766945, -0.07688847828993742, 0.20167491359167034, 0.2812004666108649, -0.2446865631200956, -0.03768282439495924, -0.46641049537351603, 0.20411184202148863, 0.04040810146333914, 0.17309310123491278, 0.23743383389960507, -0.10989300560371329, -0.18553005558694285, 0.5235770441228573, -0.12869019329555065, 0.329702891942394, 0.6053435203359991, 0.07702978196124835, 0.09985227973593969, -0.11995078583274424, 0.30589463436302605, 0.18005156028340366, -0.5796575656636179, -0.24899710417313756, -0.10747337684825513, -0.12189109910528212, 0.26247353558054853, -0.11730904186850069, -0.12704449573886226, 0.3441106066702346, -0.6649936786589982, -0.34398376646488144, -0.4615158702486617, -0.3263219536120524, 0.020651534934563787, 0.4692084230957639, -0.5959025315767811, -0.4203897224964672, 0.004603445747048585, 0.3497131130715536, 0.12169455644607503, 0.01700006648454899, 0.21119475899578283, 0.03607194236516024, -0.08808574248141642, 0.8837501603424424, 0.09897858514045874, -0.5527899123963608, 0.7255515064715196, -0.5744693521189334, -0.07662638618138491, 0.4608191326879395, 0.7395131605497968, -0.6751682957185231, 0.37095774516722474, -0.5267517489100448, -0.19599397677550354, -0.48236164033460827, -0.27055329925648913, -0.2352509180711274, -0.7966329337573432, -0.1022504494104857, 0.029070066312155692, 0.35222205277380386, 0.5927438531495143, -0.29449126668865133, -0.34655490124603444, -0.2681884676920277, -0.027251481715520904, -0.3805832479713616, 0.02049675928191862, -0.1595168377533965, -0.30835508420372654, -0.29133597591789656, 0.4029982877236702, 0.24366667889073818, 0.29096897230706825, 0.04824876110200873, -0.06003277735185723, 0.16876267916791715, 0.1324022116450214, -0.32613483991881254, -0.5193549098744167, 0.12517152313175275, -0.3702478773823376, -0.04291783555154766, -0.3550787705091171, -0.19486774803123122, -0.49768509241721537, 0.09033933684414246, 0.1493205790100505, 0.0075979088715791504, -0.11025792101085129, -0.19009621732378973, 0.10891536261414797, -0.23168243611378272, 0.08669015773346302, -0.42051016234884914, -0.09268772552910359, -0.24148948184785646, 0.04256912263509997, -0.7449125936906269, 0.6039447832248369, -0.7318700255054784, -0.12423450793891691, 0.04910489623416043, -0.3034309048934734, 0.5682242735878428, 0.2366658800559236, -0.17279991823571145, -0.176159338610122, -0.1497836799612428, -0.3719791413386023, -0.3808028974896155, 0.0880866216853302, -0.6569761896344039, 0.010050306105062426, 0.10633084840662103, 0.04947980819816449, 0.05929919677778188, 0.020571224572712828, -0.3188943702742174, -0.0258979341516444, 0.3287764104404984, -0.545424543927075, -0.04443924374303952, -0.05207850119235404, 0.2191444290067779, -0.33162500625572, 0.42101275775271374, 0.253892075172347, -0.11725275737911305, 0.027182505509095903, -0.035956627925126994, 0.5882900078445947, -0.5796256333681719, 1.0351913935518653, 0.37570577764127444, 0.6603366869558402, -0.5827342622053991, 0.12492569657520942, 0.03172351259761829, -0.2927059924343692, 0.03764549139460164, 0.21798967802165203, -0.0795048498637914, 0.5731648603355389, -0.44946025364559905, -0.34835655065983495, -0.2562582170828038, -0.7998631556192276, -0.3993997380434436, -0.3694368000602452, -0.6252600834829835, -0.10518522764113962, -0.33172044323022676, -0.012697690557701518, 0.1021613215484877, 0.25197142700674136, 0.2686802878405275, 0.30615691486965013, -0.34097663406989137, 0.6631060548346274, -0.006949105101007214, -0.036757220678253946, 0.2143882346783344, -0.11612888222200543, -0.6330138127555687, 0.02087887117920265, -0.5437237921547625, 0.046808795661129665, -0.3739454432073654, 0.21252498388458416, 0.14423350500237703, 0.04993254236625087, -0.33393338368840214, -0.30671650584080945, 0.22058607231112845, 0.2550155821286508, -0.41604692712160474, 0.5295657623548957, 0.08715012292383677, 0.20635655710095102, 0.061185686415842454, 0.10719643171959589, 0.45295553970658736, 0.21714780940716563, 0.5101788862503654, -0.1846948369058802, 0.30378198101279313, -0.08973741456156692, -0.6487019564912722, 0.009871254338307689, -0.3464031229346864, 0.4608502596750289, 0.2415179190392968, -0.11733201282715365, -0.32910237327384767, -0.13722198683398124, 0.3442713203125784, 0.1786631493449488, -0.21352225344594578, 0.10238721970735001, -0.16002642279481566, -0.05465304213384796, -0.3921769895358033, 0.2625354978002426, 0.2404564776684374, 0.03798630821485408, 0.35668250740274887, -0.7548463993152513, 0.2087455897721875, 0.5979083443222872, 0.36612211561950675, -0.1202748727583937, 0.289754070707033, -0.5699606574603959, 0.09307078125197069, 0.059972366055655264, -0.4183931904062819, 0.01008551555210507, 0.6301948495315398, 0.09096817135689088, 0.5277842174258762, 0.2786193706640457, 0.2413868122168651, 0.9404933640711769, 0.28776984827234164, -0.4577818097148556, 0.1743063074290961, -0.22460258125673815, 0.1987166155294864, -0.05743151120621517, 0.12977284808549203, -0.11646330561395914, -0.033204889101277744, -0.1305369272404217, 0.44544516965853564, 0.9701830027895133, 0.10302078315710696, -0.0500242444098128, 0.17522286033124454, 0.12240000768262693, 0.23436986199887164, -0.35903636008428186, -0.4020600269690487, 0.3233593994722181, 0.1037707507735348, -0.09285438152585797, 0.10089378067548348, -0.23583782216638563, 0.39024479763829073, 0.08703437895438383, 0.48366188692678264, 0.080643074006966, 0.55611832153654, 0.3714900728538889, 0.08958811216263318, 0.05092757961323899, -0.457353933202119, 0.03549978651969079, -0.16404657317769136, -0.20023468397329716, -0.036099174394875665, 0.7014771619223649, -0.3145343108159456, -0.13183353656478974, 0.022693421279493104, 0.42240594835265627, -0.6294347203539835, 0.1808992215809567, -0.11157559004028285, 0.40772632044721346, 0.17023731315677815, -0.337661785307379, -0.29526391681239483, 0.1992601610676699, -0.04413106498760525, 0.4508169283005466, 0.5114194777872657, 0.4664155531206368, 0.5146006706483895, 0.0412299107274419, 0.08335829532034318, 0.006648621024812315, -0.28982796142075784, 0.08067359018198378, 0.19498705334871014, -0.21507711016621953, 0.027747121846539484, -0.14457962273842784, -0.07633334240907991, -0.03920879755306246, 0.4955809450445265, 0.3536394918866141, 0.020651883515741685, 0.0930899066218338, 0.9463802938487258, 0.0713404027617011, 0.0054049188717124235, -0.45516290402004345, -0.049598611547570656, 0.347298857242543, -0.12148193716203202, 0.24991115627598123, 0.0009929115469373103, 0.12726977804050574, 0.8175050474041412, 0.22553494339506575, -0.09772824452166833, 0.16900184452249947, -0.05599368960282238, 0.031901713028848956, 0.40459989822289333, -0.0644988944486427, -0.0180281485554361, 0.07874392828355059, -0.10577284766082, 0.3618113141010287, -0.0930251219800599, 0.2205929744198861, -0.8785553169660949, 0.7303512783757518, 0.07683294713009414, 0.0024133695969598395, -0.319625700557206, -0.2431332779229958, 0.23729267734739995, -0.7202859862126733, 0.31329355060494357, -0.34264439052167867, 0.01811543390880955, -0.22509319663204122, 0.26657972635235866, -0.4053498139142515, 0.1643081727880571, -0.2782581651773515, 0.8022077738719273, 0.31023043007383083, -0.1006462292986865, 0.5293549046582038, -0.00651185637516627, 0.12876024637591404, 0.32102826184731603, 0.23464032755279737, 0.2825880955621132, -0.17243999473766047, -0.053387294273329146, 0.4015183056019549, 0.29993453673952486, 0.09139042569064601, -0.06141647015340636, 0.3083484742898654, 0.1919193649902118, 0.05971292282100184, 0.28138156997348557, 0.039973655867345526, -0.32558866963190974, 0.23141891897512537, -0.42036112891973426, 0.03478658966090995, 0.3722382703687927, 0.060557101263512346, 0.1888231324320019, -0.1612936724257535, -0.06546930141121297, 0.6298607247329528, 0.2649936705260299, 0.4525937277904696, 0.38826216694498084, 0.5595785869481671, 0.3241752980271479, 0.36275395806916577, -0.04757731121076843, 0.8750963502576059, 0.37178237379057705, -0.06114992739227059, -0.40531860341419407, -0.19931400426619597, 0.300782647903612, 0.01863972049813323, -0.977262244887002, 0.08259974007663866, -0.004790644851587478, 0.027578943092645667, -0.11809602461966656, -0.8334567845511668, 0.12132994075923524, -0.37502400076690373, 0.6191447418366773, 0.15421983060749497, -0.4862731353090638, 0.4307384167036157, -0.0414486699796632, 0.16620211744115757, -0.18884539948569765, 0.2944802279508005, 0.4212951388937183, -0.01836532923310444, 0.48214163289841483, 0.24892705404543636, 0.6427807507319936, 0.11915954108460933, 0.2152129624679863, 0.5587890659275909, -0.020557122518868508, -0.1776912821971845, 0.5203126344585107, 0.3688447866361191, 0.0038805619445103114, 0.13968946179877048, -0.17962649728991678, 0.3724112445390894, 0.6168398077164107, -0.09305437425004544, 0.08696596567462617, -0.26970201203187305, -0.0178739971556163, -0.03784768351508638, 0.2698419617709714, 0.6199691174730511, 0.5564460029124599, -0.019221520861764374, -0.020794121270790597, 0.32135335364944506, 0.40517821628967476, 0.17771447010058097, 0.43511733003976716, 0.1157571820534828, 0.5048835979246872, 0.011866453261922727, 0.5746696664539667, -0.14439605325914548, 1.090877855562141, 0.801758990581952, 0.32499483509075966, 0.43746244503991955, -0.6339521373825836, -0.31903633670785336, -0.3338393462993552, -0.39016612907038595, -0.02733381541975676, -0.08456506937771738, -0.2430690301475967, 0.664650899822454, 0.44245960118456995, 0.44149511953246307, -0.3038162757351712, -0.12913129766961148, -0.19033751621770226, 0.017252372989329388, 0.5101596104915811, 0.5849044746492665, -0.0023828169647070125, -0.42642162035363274, 0.19447323940053265, -0.01816150959948564, -0.4918670038999476, 0.28558758520517524, -0.37408358041715484, -0.17861399947953394, -0.21114528003829844, 0.07054740223991392, 0.05809390845753787, -0.01991203868173972, -0.3433901056659622, -0.3532376500271882, 0.04241321342424456, -0.6831571281032597], [-0.7863424274234553, -0.5609524501243821, 0.13310984764635608, -0.1854271337059815, 0.7186544738557579, -0.08278145784145209, -0.26034868638670544, 0.6443696823662258, -0.4219218887222412, 0.031058572833774712, -0.03799866895053105, 0.0967672473027359, 0.0742618751347278, -0.3909028339120148, -0.1473389320500211, -0.11883368138366265, 0.25540712912493396, 0.19123537256829273, -0.02984697365009309, 0.28028562284603725, 0.8448695301246884, 0.09120735826727626, -0.32047532673938744, 0.1577046735295989, 0.1658872939770448, -0.7360727071237428, -0.28925380270070467, -0.12399636239663829, 0.4439611133155877, -0.2077999284518624, -0.03705993368868471, -0.15162597655465604, -0.45177668569694757, -0.3206850930137648, -0.6042980211329215, -0.5817485992467456, 0.2999777046518493, 0.0011231309280190162, -0.4043529462054862, -0.3387729673928803, -0.0007515169198228615, -0.5309916265580914, 0.030198068497197954, 0.03766310047149343, 0.2970711360143955, 0.10765143453486518, -0.20567585477465308, -0.19471883155986344, -0.22322181272777653, -0.7582004912704633, -0.631354306161385, 0.026979626115842804, 0.06458292430657413, -0.07915098043428366, 0.5536176500385435, 0.2908345084649481, 0.37719228044365677, 0.0855774684687917, -0.5699715485428004, 0.29967077916087514, 0.1643229909466965, -0.09418079990787469, -0.12317409643743259, -0.4577860672121035, -0.059983820164837436, -0.1353596612877038, 0.11460641617864455, -0.13675021529873715, -0.6075740834118349, -0.7917509603433587, 0.2591853306022765, -0.042010499889202656, 0.4031565224640914, 0.16134156979596154, -0.39748932177041557, 1.060727037310717, -0.1375377606838811, -0.2719224023932816, 0.6008270523849747, -0.47171613097699744, 0.26775543432620275, -0.13153859227343895, 0.014287500504394764, 0.32826015855100815, 0.3325616728610296, 0.04908330763199017, -0.2919524458743799, -0.25158165596545845, 0.3039724949494087, -0.16721288287715144, 0.18494617068546396, 0.10241202154264784, 0.5770106296091816, 0.041337085237464724, -0.6226830585824678, -0.4790037471629174, -0.23557897228371485, 0.4822583953763798, 0.13941275829333985, -0.30356139898435525, -0.4604818082330781, -0.1429828885002041, -0.2684423041452355, 0.2830844218902702, 0.18281436038697965, -0.0029817419124674215, -0.1001160209955209, 0.17760154146797627, -0.3497174276828885, -0.18069692681348296, -0.07965985768996718, 0.2926304520468832, -0.3052900323630961, 0.027468292919813862, -0.7432513054965153, 0.1906853289789655, 0.08903618317322635, -0.2056924953477546, 0.26866860148167615, -0.4730622127239868, -0.18777704431543973, -0.6998816608868809, 0.2335762106791741, 0.13292624244901086, -0.4603827127307977, -0.125450195232573, 0.11962451586049055, -0.17730383016455964, 0.6167774434434877, 0.025635878026117092, -0.34762100541163277, -0.292592801688522, 0.18614070286573825, 0.39370058262154817, -0.1414497817629509, 0.05900512674363708, 0.03497384905174168, -0.16948991032822566, 0.34188867277110846, 0.3756634845348172, -0.7023649107184345, -0.10963175895737565, 4.801615708364106e-05, -1.090649002141057, 0.6426558338665573, 0.37367138681473033, -0.14547094043091302, -0.20955555902395273, -0.23448930025448234, -0.08089610590321718, 0.16921648889216456, 0.04595643230219298, 0.2746216655031754, -0.17076736089957797, -0.05144351776041972, -0.05105145214863433, 0.00987465461999249, -0.7835251133085044, 0.08417006044068648, -0.2656778849570575, -0.6921140832487935, -0.7904716079312848, 0.39681280006312813, -0.3396208826767516, -0.18182773507175828, -0.07650181815803152, -0.018242558700831253, -0.5247871707926698, 0.1519429468242585, -0.03367058404249228, -0.11284578830716306, 0.6091239831301093, 0.02909817907156851, 0.20933682234824202, -0.7348497437026245, 0.37867990716089367, 0.39761526767592115, -0.17276582841085358, 0.06451172405908984, -0.22704155811340354, 0.4179370615634359, -0.35094101262657307, 0.2781451147392774, 0.000876869995658077, -0.2544712220085863, -0.8533922731459777, 0.24976842103873775, -0.4622440305884353, 0.4243231320092288, -0.52494101293835, -0.07133562759072239, -0.4304787803472995, 0.28363102329021195, 0.229084918399672, 0.20363738600922776, 0.11098184981608451, -0.24541021858350445, 0.12398864891839832, 0.14082773859620595, 0.6281623346931651, -0.23573321250286444, -0.031015516489401436, -0.09689888131043166, -0.24244709444295626, 0.500752089683567, -0.44802587020382695, -0.13417388239287598, -0.012841770260069316, 0.19506021489748554, 0.5185491767886925, 0.39268239952185857, -0.33346677864953633, -0.05423458898183019, 0.4877532915097377, -0.10035122796246955, -0.35509220122999774, 0.5480698582841658, -0.4622194412712348, -0.3365055584768925, -1.0389609460951414, -0.4296135355611599, 0.39745749596311675, 0.30591037331483795, 0.06471732836587236, 0.6853844124857812, 0.08249909520024584, -0.002109984361361761, 0.5497955246098492, -0.14842313253226508, -0.7076461098023032, -0.2835315559503786, -0.3146514963673446, 0.2484669513720548, 0.017461163717674522, -0.13974159264898814, 0.25990959725772184, 0.45768087974015237, -0.23290700099077796, -0.055825894199502256, 0.4131335573555566, -0.31334930048010534, -0.13805396534899678, 0.11325239834696023, -0.7857613673763202, -0.4066364417122543, 0.2516237569417638, -0.3004016030556183, 0.3783744470778111, -0.6384247610718332, 0.41267802468590303, -0.22840069326064796, 0.5904754202414525, -0.6459191260754372, 0.545425501691734, 0.11375590134286438, 0.3837518118484517, -0.42845635438938806, 0.7326266851893535, -0.42516813002478415, -0.20543501649749918, 0.2360473773501982, -0.09353352903037011, -0.1015769253117558, 0.07690207488662143, -0.1913917088645554, 0.03406435925604997, -0.4382943602383704, 0.5823976807280699, -0.09993818150744753, 0.3221814502019578, -0.010537625125879078, -0.12177655212614762, 0.28752624924521397, -0.3120223961441876, -0.45844200061370816, 0.654373307427243, -0.2882023584146717, -0.5111562194780305, 0.0780979261436399, -0.6182840144385703, -0.42446101537097164, -0.5654409918227775, -0.10460673134913477, -0.04935905423417828, -0.08837865866653868, 0.041260638818420244, 0.35059360049813504, 0.1427317205877784, -0.5481429815486771, -0.19457202796738796, 0.31764511663700706, -0.08234932766380804, -0.7009474825300759, -0.2582383530191677, -0.8645975610548103, -0.37709386077373724, 0.32742701153392406, 0.035563935007466484, -0.15351322324624492, -0.7224231353946301, 0.014196216712325625, 0.03173129400391767, -0.5770360480545889, 0.25111232337410494, 0.1493511477895408, -0.20916640534748493, -0.019423071985822025, -0.24860943494531468, -0.20724851671362382, 0.25428760853492777, -0.23957164562330524, -0.007988104408445924, -0.11160702098627404, 0.024902090990880338, -0.3079043512506572, 0.234458506444878, -0.7316721013218601, -0.5037669867466995, 0.18365885286857667, -0.0495516939384776, -0.5727301248630233, 0.03622762986014544, -0.6681379828615005, 0.12986253894165947, -0.4972173375620458, 0.041688793327128645, -0.14277217695776492, 0.05529464073709236, -0.087707568402873, -0.11675088023829105, 0.17929444687029744, 0.20351991789957932, 0.6538163117422175, 0.12170848561880032, -0.07839732840520144, 0.40577742346864015, 0.7022262151963146, -0.009279842812321904, 0.158622025290736, -0.06893971315913983, 0.07787576028231476, -0.4416748548293885, -0.12395478207773397, 0.6499322253873387, -0.24466972357672273, -0.6916197058074808, 0.6500031034013385, -0.05364155626447636, -0.4999243260574288, 0.08302690906425667, 0.10229030173585833, 0.4324556341499918, -0.033932111084756134, 0.25588983744076094, 0.13595570722663108, -0.30211248647715105, -0.17397854436271223, -0.0222826128871547, -0.6066563199999323, 0.14454194713711901, 0.26871631632669024, -0.04150275760048951, -0.25094139315519093, 0.36652627137599614, 0.36043074908068984, 0.6424184576465811, 0.7211354491585874, 0.031049470594803164, -0.6454627941201023, 0.9819811763308425, -0.3516007121662727, 0.11101518812876725, 0.14895178575940946, 0.05996511386059535, 0.3747167666906016, -0.1004875727388387, -0.4927546244194423, 0.3549395568392578, 0.4340492241068989, -0.2517318528940857, 0.08108697859651369, 0.14297922725436105, 0.1679790676982091, -0.26298751467362524, 0.19151332085837822, -0.13650372145810571, 0.14527221864098624, 0.0575390944264065, -0.009941576073316923, -0.39316874612121955, -0.2682870387261989, 0.21861652617099056, -0.06765593739441432, 0.3325131224266317, 0.05583097988932521, 0.315671352070597, 0.20615442649453644, -0.2912982427628909, 0.4218855847072388, -0.001209067808623801, -0.5418547683188064, -0.41419416998914843, 0.09319470299501269, 0.1655148720381165, -0.808378178109436, -0.1563858645399209, 0.15942467982235736, 0.3123914185951156, -0.415585995909053, -0.42656844525692705, 0.2468608605962515, -0.11710365385977206, -0.48513876763585606, -0.1053697428084542, -0.14497023488368918, -0.08265855601602813, 0.008867587252687076, -0.5373726040828818, 0.033802712905055814, -0.5565654453041742, 0.35451956050816064, -0.7728636800745704, 0.4288433327074873, -0.16604303820323107, -0.6465953251792446, 0.4061676011013593, -0.30502901147516354, -0.16443608800648127, -0.5509908224203521, -0.8714368523869808, -0.35910871563699537, -0.3516198015511144, -0.010574730806804059, -0.26786881915017685, 0.0780118847823905, 0.029338256463022593, 0.22032594441488565, 0.4296257728312904, -0.39135649271047324, -0.45153552265861663, -0.7127673215107341, -0.1313172159664569, -0.8138281212857227, 0.4186437311519535, 0.39163342222190417, 0.31242179624691074, -0.5306747066746138, -0.19825290106164561, -0.3330900763332309, -0.3280865632323325, -0.46163973736503716, 0.15874688506773837, -0.16624423692770657, -0.359611822424666, 0.10717345878606585, 0.5362913377219319, 0.4137604695843212, 0.2335970767475331, 0.047052862563212165, -0.4590482445333988, 0.30742295142443016, -0.30687871652250925, 0.0309141727675017, 0.2788959236729671, -0.23765916325864855, -0.243335162863939, -0.05200748490635014, -0.356199204870213, -0.3638487967949061, 0.24461220357505953, -0.09717047555365112, -0.5878455201479608, 0.18972448227689628, 0.12973780789923303, 0.10108321616578501, 0.48140302471900664, 0.6256760513969214, 0.30390663926405537, 0.3914511957258753, 0.047497852568379254, 0.2560067543574296, -0.4634545257419789, -0.14843861927528937, 0.3233955204143171, -0.26758507121203384, -0.09539020005078945, -0.00254778244107309, 0.09847247834148755, 0.10911055440914096, -0.6105837657150527, -0.11328890332592337, -0.10684732439108693, 0.02531331189353807, -0.3183375466423567, -0.16739980168689172, -0.36229322156974014, -0.00766579291316219, 0.10023240966949239, -0.3398796437504609, -0.1499938522715194, 0.026579959666846786, 0.022924096871545684, 0.01210737753380112, -0.33011639476584587, -0.05300883374132288, 0.3536255181626743, 0.09436230964617448, 0.3332258706171609, -0.5720301472590856, -0.3141237565164654, -0.1036046153314954, -0.42030581678518697, 0.003089799928651322, 0.20428017464197604, 0.2578264677142746, -0.1452618221022268, 0.16427401033981368, 0.08892654187228183, -0.13586257425499365, -0.3488879359890861, -0.048846252209612556, 0.03208279794836394, -0.16189960045605495, -0.1785217801790019, -0.3937682007368138, 0.02571177249286302, -0.3437385953542336, -0.33099146786904926, -0.5119371648591999, 0.6704600112709622, 0.18012103249050385, 0.40764558066535667, 0.08430252540488706, 0.3032389285988864, 0.2299251370583122, 0.07037772957416141, -0.33115164666866387, 0.5092121009956425, -0.08308733289286174, 0.2824400019337505, -0.32201453229451454, -0.05201633221709543, 0.24854183230030966, -0.7825621190491369, -0.19954796592402232, 0.01214969118766229, -0.2623273873514584, -0.036349710227184945, 0.0476161566052602, -0.356014872711064, 0.32269344143939827, 0.03983766055658166, 0.12610999187043823, 0.734263228638987, 0.11092049327346162, 0.0564557281881358, -0.038503788127014715, 0.22472400024241523, 0.3526810829085311, -0.5458192509448163, -0.20034320235051642, -0.8588757214190085, 0.11392529053921154, 0.2936296701304177, 0.2743611604766638, -0.2388239233773427, -0.8540694133849651, -0.007710472348067518, 0.11607356492617199, 0.6807350636075791, -0.17237223450064315, -0.0409741832876265, -0.49654617228103604, -0.22905513542013203, -0.4231703502710866, 0.06831056207674999, -0.49783426588406204, 0.06449569930163258, 0.2720141952740965, -0.338874342623206, 0.025689633430827936, -0.13285549194256768, -0.1968286242058163, 0.40194451242822854, -0.5030004086846442, -0.04437547364479779, -0.034864806563181125, -0.2536103003429662, -0.26137693488084796, 0.10124114889091333, 0.6293794972736121, 0.7893622248802021, 0.09704559000874369, 0.6513506322508186, -0.5185618300417811, 0.06713165926180929, -0.20327270569652325, -0.04577456919232412, -0.09753838389127174, -0.19574440103503693, -0.5460401847423495, -0.04020375644088069, -0.32544952957584056, 0.43041614631472846, -0.1148389871720061, -1.0514134362730045, -0.37335245434485764, -0.0609671911080929, 0.09694616153704552, 0.16639250859816496, 0.3704626485191938, -0.24364284819610335, 0.5798808246566668, 0.4031654432362565, 0.04045555627041908, 0.006390477516627459, 0.9522262490793925, -0.025924216067378825, 0.4426251695538254, 0.1734310083721011, 0.2583865912295158, -0.26670442719805415, -0.5572759522254028, 0.08976073241861283, 0.04747545095920422, -0.30904261401294764, -0.4685527450871836, -0.20292768363268587, -0.12572748015181365, -0.2732633039761018, -0.5231224834846123, -0.2630375445734317, 0.02803119088777155, 0.0658218799885498, 0.022810523403548316, -0.4413183217590951, 0.1884736317016056, 0.7012679102930148, 0.22970807632300744, -0.25362166084303245, 0.6634266181143934, -0.24633251859915586, -0.4205076297111122, 0.30011799425716734, 0.45524984619980413, 0.09929186566934992, -0.20179813553397086, 0.8113401524089652, -0.07774733998508108, 0.435207075579821, -0.23689775411119604, -0.47442534971190836, 0.14178586030378137, -0.36727663576355635, -0.24589224203603216, -0.2231417014585162, -0.09568402225056236, -0.26967456049400723, 0.036576548144358394, 0.0983516424705424, -0.1340411536284623, 0.18233339308305832, 0.5523381607720405, -0.3307083166956491, 0.13631932345048278, -0.37122068359381477, -0.04491497677836643, 0.2231952002336289, 0.8479138017271703, 0.13917108897794386, -0.1685925814195093, 0.3577957963246363, -0.15305709111912622, 0.10055163774903075, -0.23963646287876858, -0.29324378919921024, 0.20713060779137782, -0.3010871568425637, 0.14417185455948062, -0.3741204383436466, 0.5095497337003996, -0.6681492032702259, 0.48769015846833214, -0.28489811166927326, -0.4129291622922983, -0.07216629037297724, -0.25904372339536086, 0.19979112453061462, -0.2046953919129498, -0.7075357715819985, 0.22398607900866277, 0.010895853973913393, 0.0690931485745447, 0.08384732081741465, 0.42406091831971365, 0.3306255085865084, -0.10655537793685936, -0.46468792179106266, -0.2404063930572328, 0.06301267058266811, -0.36390853379538235, -0.07459199198951864, -0.5008938314101414, -0.018658783304633268, 0.44613392503792815, 0.08027033396708645, -0.038542365162119806, 0.4434478052225967, -0.30564718714127564, -0.20042436621531828, -0.35193716388701773, 0.21120473610796234, 0.03583281018998326, -0.14108805524953102, 0.2320735405079828, -0.18129335617840825, -0.030080608891599674, -0.07081213742853529, 0.2161047591352704, 0.004788365591844248, -0.4700602868170623, 0.44593098997329106, -0.0026105421353860786, 0.06274616501049447, 0.24200936985130728, -0.36446625759278395, -0.08722502533197708, 1.1627468967670227, -0.3473481232104769, 0.13359415935094818, 0.1550969678602768, 0.1944383984121965, 0.3199366532143381, -0.3047906828633508, 0.0661284619378711, 0.088562539970145, -0.5510687336122603, -0.18701753897232612, 0.05666798998131981, -0.314769971898886, -0.6200997954777177, 0.5868421635694843, -0.32349059963259813, -0.3471927364634692, -0.4561691993483987, -0.34445788579803044, -0.8846042889456305, 0.3213569863591357, -0.129333742174619, 0.0777430618610602, -0.04751646235878115, 0.1272120415309756, -0.0008066760678269809, -0.03824171538565815, 0.48156028925077876, -0.24733656449394614, -0.17607983307131508, 0.5399654323723746, -0.3233889556916682, -0.6190506492589438, -0.34187193809339644, 0.19243919540524637, 0.3043360304720402, 0.014462982263904132, 0.1054206974936795, 1.0107565525642515, 0.23204607353155704, -0.007382443551228843, 0.38408341294020953, -0.04371433139431949, -0.05024948834125792, 0.0948049361096462, -0.2771606877632593, 0.5767635007587875, -0.04151773352649137, -0.5285638610477932, -0.09243335531562807, 0.0431951648311247, -0.15885336664586033, -0.05397535198818137, 0.024851277050691224, -0.5595625882429789, -0.06113509493423549, -0.2505201492413366], [-0.18168064103703507, 0.061467834314493895, 0.5454076211586045, -0.043697237667814144, -0.5387253545981369, -0.579659646947024, 0.13961547420237236, -0.3920222588398484, 0.45120092296906994, 0.2741792371735401, -0.1597655862209613, -0.1811770983945166, -0.15504691971994772, -0.2108147065292046, 0.157826397633227, 0.45318523156954815, -0.19321811043999057, -0.11107026040771815, 0.15978402977095263, -0.29033112147960805, 0.5291598635989456, -0.10287709888043862, 0.12643488422163404, -0.12343847722891114, 0.10407164107190593, 0.1697922366372845, -0.35072920354136533, 0.1133271679792886, 0.08741428329768433, -0.2583974225590552, -0.4259849329023315, -0.08819212099714714, -0.02258640757609183, 0.11707222303046745, 0.025438307089690033, -0.16896915196548679, 0.2496133986711674, -0.01336739938951689, 0.9968876370031966, -0.1399740448793787, 0.6856861449464887, -0.28607924275806834, 0.44417236022417467, 0.1772116506964863, 0.545766247371299, -0.28038408428417066, -0.8255233631544399, 0.036820307780400616, -0.49785487222260655, -0.15246250784792245, 0.913236536152717, -0.07782449628585031, -0.022232110415872447, -0.06526237332795135, 0.417940973840792, -0.17512671165474925, 0.31603743513380117, -0.05708579312945315, -0.3531679568781626, 0.13878776038853427, -0.3305065201066767, -0.1393944001001034, 0.26839284340712183, 0.10632791938918794, -0.2552394923378212, -0.6574578141217906, -0.0908388480410061, -0.25175682409351907, 0.13947824976724935, 0.14302319610886005, 0.10709146991913135, 0.4813143232048946, 0.6520128971957246, -0.43208983230351866, 0.3097763774593242, 0.03166463911818529, 0.18795402771319833, -0.20588010992468464, -0.003861306948229974, 0.6401944095090243, 0.3039596766493849, 0.12910580943375055, -0.4392349060442196, 0.576873990418183, 0.21643984990828105, -0.2958800448059328, -0.3321271109127902, -0.474349197805061, -0.13583766284048854, 0.13306637060695797, 0.177551128155822, -0.33779489839188187, -0.2531261249995028, 0.3693003948284771, -0.13919204213365424, -0.10942181097919286, 0.4220266390578355, -0.5738562809789731, -0.38159036358649173, -0.3980859236805673, -0.2980437164201091, 0.4055087616845545, 0.07030714875112966, -0.5377679092586906, 0.0023440676958496566, 0.06750253715309258, -0.043959833017710996, 0.27962224357733056, 0.1783688005813883, 0.2643994269150166, -0.36549786587644767, 0.2284046206346711, 0.490561434725534, -0.6761131447446094, 0.20719985941343055, 0.057448002967520735, 0.020113953275744955, 0.23099497205721767, 0.34958469233911166, 0.6718324773624751, -0.4560353529846237, 0.4009418017039649, -0.27855360258443707, 1.0252259550494818, -0.23298813086581677, 0.1177331156550702, -0.04543806118606225, -0.22895982653307753, -0.6221809584881002, -0.13804774420775828, 0.7276593546860465, -0.49115035499273435, -0.062004952456975834, 0.17256730469696424, -0.09239088971644019, 0.16326992428422507, -0.11937027870721689, -0.13940942544190074, -0.48589579255036724, 0.5015512670091644, 0.3201167677171995, -0.23484859842395134, -0.2753098611406292, -0.26023304864230473, -0.09473990395114762, 0.11083489408551092, -0.019772081212208976, 0.24015534055743137, -0.4366157959146057, -0.4674278864637085, 0.16880310649111951, -0.7120354141284243, -0.11631847519900909, -0.005487100003422697, -0.03410370950564264, -0.23178840392191707, -0.20099242927245434, -0.3171025133370374, -0.4865109807323417, 0.21737642667956975, -0.22386017014603243, -0.010149973324788307, 0.9842608507808833, -0.5189612730832804, 0.47825156375574945, -0.12626021772330304, -0.03257149838275855, -0.17692576071219845, 0.31594008118708666, -0.1674856754620691, -0.17206481702581783, 0.23259040231888056, -0.16379359123556267, 0.14107124997142073, 0.03899781857564659, 0.011250134567907041, -0.39671193913844877, -0.44916635277204864, 0.14246200349537222, -0.029944813829633384, -0.4305749815026245, -0.5889179357250269, 0.13371965686001466, -0.3718154594276072, -0.4806727822933577, -0.12826538583710076, -0.05022848838157056, -0.04332284376780484, 0.13831489240814987, -0.6866868313817057, -0.05794734984366755, 0.16474245250217753, 0.3447067597246489, -0.013339129661913455, -0.49119638815846756, -0.14904203509622105, -0.1825375275813951, 0.4034834552449915, -0.3383230074610247, 0.2139727949385087, -0.2527025765992863, 0.2886199393289587, 0.2252564190388598, -0.30366450441463105, -0.03931665220958542, 0.442837765711153, -0.10357021712151127, -0.17031037558671305, 0.47950840883100726, -1.0486990957962468, 0.010514991999845154, 0.10428788842888297, -0.1833189744201698, -0.217639459741867, 0.20525077545243073, -0.10458903529734902, -0.31265683805193145, -0.2048767732922747, 0.13876972696941675, 0.49352452663509194, 0.5485996572421556, 0.1270643496237461, 0.02722825741457966, 0.168238692486176, 0.2621746590660959, -0.04188803387320274, 0.2625411453999353, 0.13967589292881208, -0.21367731969791595, -0.26253238882174584, 0.6244410941329553, -0.8772334012691613, 0.18022897205993904, 0.009509741884325532, -0.3355195555057021, -0.3844577913038731, -0.02324018894312354, 0.3686326079460122, 0.2696152578582652, 0.5157853249028133, -0.21925290440467035, 0.30682050333745436, -0.11246403736101247, 0.10060133558676859, 0.07335818828362596, 0.32011108856660403, -0.08362681687811153, -0.18927432960751703, 0.36591951864019917, 0.24510959710541216, 0.11443379846634244, 0.21279714568512043, 0.1149803598226234, 0.26679653603989334, -0.4057873626026651, 0.14330040487796705, 0.05041549144888206, -0.29920693661861386, -0.7137587562004902, -0.33877578872808123, 0.1530942924104281, -0.3342018800885011, 0.1781051118258678, -0.13272229672213032, -0.5264276265302399, -0.02782005892532548, 0.09418250410399744, 0.5073106647561294, -0.40044808320585834, 0.19366449680528697, 0.31664279868992234, 0.24430387831561154, 0.5792848005586344, 0.12715910779615394, 0.38513851389318443, 0.5204305474172891, -0.06616412957237333, 0.7292253430640658, 0.4121803707030222, 0.10601472294254347, 0.3851269875613903, -0.16157252957400206, -0.14280721396722704, -0.4086638966921511, -0.3227855518207169, -0.5372744152044071, 0.4735400916244035, -0.4335878443755258, -0.20521093600369597, -0.22630293227482093, -0.28467318844970685, -0.5645676259887629, 0.6694147559194581, -0.5825163690529689, 0.728159683497456, 0.40489460207941846, 0.7615332339435866, 0.08376981647468322, -0.3563964238545312, 0.11406986037374708, 0.5412846688034064, 0.5663057010061896, 0.2768366000700677, -0.279020437240228, 0.2609765850260551, 0.3270495571491505, 0.06056056593880666, -0.1395375567247643, -0.09570093975574612, 0.20584904014983393, -0.26035494699069894, -0.003090132716717862, -0.12032731312555506, -0.17175216624111883, 0.565874445364053, -0.7167859123578604, -0.5156835795194725, 0.46116002835962144, 0.18001946732699825, -0.22670836001014857, -0.4245396168495504, 0.39496305073544613, 0.9422229573673377, -0.10721399840320152, -0.3167679057002051, 0.08486208089200968, -0.42496698854185005, -1.0480497260462005, -0.14550796138890468, -0.2333123223671313, -0.060159534033363125, -0.033988383190654003, 0.3412513078278346, 0.00035267634247406886, 0.08159043355446038, 0.35041186722023154, 0.3802855185770755, -0.6372441727047417, -0.35687337597509766, -0.2268849820798356, -0.047394136066926544, 0.3163457942063123, -0.02428749357833489, 0.44228442697025033, -0.4712410053704316, -0.45315395988273677, 0.7503555212201585, 0.09378616960559119, 0.4621739616739788, 0.20326042409571496, -0.2944931467929008, 0.08301381012088578, 0.311297686930145, -0.289322107740198, -0.04469801389062988, -0.7218509640097998, -0.005477200949675451, -0.5045508984695957, -0.21951509931652866, -0.23395933995673499, -0.429006662075821, 0.11310232848337201, 0.3206441316050727, -0.01650001569771162, 0.35782049547728745, -0.39775328552182354, 0.08569365199575339, 0.21155935085363503, -0.46616513605557514, 0.42633541730279817, 0.4146409381352537, -0.06069831296594086, 0.27215130136512483, 0.1482864049472669, -0.5731342043882773, 0.17702503944040746, 0.2729752896169608, 0.6151109752088764, 0.39848931473076143, -0.04112091628745935, -0.35139222563340955, -0.29343375709949004, -0.710406502127086, -0.4424552686661626, -0.6315694563700048, 0.3408584293453038, 0.21337277046939743, -0.12801583882672224, -0.12225854066994013, -0.47068231248446457, 0.6740226282371626, -0.5033146271623469, 0.10281943166437044, -0.17073241733887445, -0.29126582245222016, -0.2886006275817188, -0.5034820655841137, -0.5967333293940739, 0.7227073915559603, 0.4335767355015802, -0.06489459083913811, 0.20374757024565374, -0.6825150765515771, 0.19764923002717713, -0.2439247666746158, 0.38421412750048145, -0.029550779999469725, 0.06646480040409328, -0.3790610327567013, 0.19203941594842341, -0.6743271824471451, -0.6855200662144749, -0.07898941668472945, -0.2616147959749612, -0.05858293871412139, -0.8817418802339742, 1.0613506525488605, -0.6233494765278896, -0.22235222569147606, 0.25475143110969706, 0.22097549221233354, 0.13569606446535007, -0.3476420488559382, -0.5639855968181764, 0.45759339296666135, -0.8122298427905146, -0.01975211934696867, -0.03304173759376184, -0.23676682439598426, -0.22690617365631963, -0.5010915350218257, 0.3789647019040236, 0.4821809751549779, 0.23856782819111952, 0.12201453611545579, -0.012078214002532742, -0.4475226795034916, -0.31320936036275404, -1.0951359106686263, 0.10079977621776265, -0.22100973721174358, -0.6898688966683428, 0.17642095238383673, -0.2558532494978067, -0.033343033396159606, 0.5878334589658155, 0.5088938537774246, 0.48320619280450133, 0.11264508925626951, -0.44800259142077153, -0.2642268718445457, 0.028254281579880074, -0.22486046853395833, 0.4210817557866292, -0.1495078097539732, -0.03979540183667111, 0.161722724815836, -0.09510440839133122, 0.12222422996613505, -0.1943710504008204, 0.5258061558317852, -0.0224626857282444, 0.19314212745559226, -0.28075169774636205, 0.1704629870609104, -0.021994544244189215, -0.27313037751914243, -0.373628423269867, -0.5069673686289342, 0.20845732275532852, 0.5075412693809244, -0.6008871117685327, -0.42220320434439035, -0.3171548723822733, -0.4434471591644974, 0.24202210154920278, -0.14068273831156683, -0.3378008017608003, -0.6417210639980567, 0.6545313793825074, -0.40346668779852235, -0.5105225732588766, -0.27160633395378303, -0.2204499835223165, -0.20714611854497855, -0.3618898541487497, -0.41676475605863944, -0.013636350756006735, 0.2062368902151238, -0.03710918894170422, 0.1567488798775057, 0.16273340031379455, 0.4819912192997332, 0.06367002806058973, -0.0755836629723941, -0.61130418513057, -0.5672478274173175, -0.5348242943668178, 0.13217467922972817, -0.08050183427916108, 0.28639509499845767, 0.0656982664555325, 0.05643376153728455, 0.03880885087975131, 0.12265171164047264, 0.36748960214059867, -0.39850880012791584, -0.12277415295757863, -0.06308086421657724, 0.0952482505772058, 0.0842771951956361, 0.3447234469989929, 0.110036801896131, -0.14311581022090428, -0.37302812399306984, 0.0840731735706021, 0.2923318410120284, 0.31418004857581044, -0.03351777535725653, -0.18074533067235732, 0.0787665200767979, 0.06221667268550311, -0.4457736830292724, -0.3304654017359361, 0.2696144014058522, -0.5160635782616207, -0.17684683853111421, -0.2021357811577616, 0.10430014202615051, -0.1898401242234761, 0.10457559853940554, 0.1367550211232072, 0.24098228092048782, 0.027328017616313913, 0.36980069623420553, -0.21136815521442992, -0.5343441427832355, 0.39182992702994396, 0.10283314673192522, 0.06611474300435122, -0.12685104178342582, 0.11200994722021164, -0.2588109808203744, -0.1030292413396994, 0.3977140676454223, 0.5111188499561687, 0.7308975924438661, -0.2291119208832198, -0.14825030699661487, -0.618791682414603, -0.08388619124581996, -0.059470966301813415, -0.27983413614505454, 0.2818828327659375, -0.9992320131969685, -0.3630858271712042, -0.2520714758256067, -0.1606367803498547, -0.33447329177855073, -0.17554711611494617, -0.008224263417903839, 0.1357247743151617, 0.29915646639136356, -0.7738044575566494, -0.2379859145756976, -0.006164679130298642, -0.3400966822791367, -0.06405394365642257, 0.598007324292214, 0.14690958496296738, 0.477233252949759, -0.35325863486571696, -0.0793693448896079, -0.19070194102694857, 0.26973676603138713, 0.352584261577123, -0.2705347575317576, -0.10709911886847753, 0.208423939479392, -0.397050539464528, -0.5393235896128464, 0.8666113975664228, -0.47353354529589464, 0.8978721973310502, 0.60598096178105, 0.1132817688337945, -0.3090899612964299, -0.12477603416880383, 0.04879507752080908, 0.06695357340103708, -0.03910848126718953, -0.1348003281244824, 0.23760446366075402, -0.16826846302518286, -0.09257183498639229, -0.15297964216484009, 0.33274286461637276, 0.14305019706418517, -0.08715506788582535, 0.21997244688802314, 0.0342496857945303, -0.1500046569941453, -0.3136092053913569, 0.36535057600635323, 0.06547249185720233, -0.1441120195267059, -0.4006329288219012, -0.11997608266429297, 0.06651839274208171, -0.4983833559422043, 0.04020390727603075, -0.45516883887853654, 0.03239133970230471, -0.4675480701632343, 0.36901465764700286, 0.03179120081153554, 0.005205286821807621, -0.025781117175560645, -0.5622086408732024, -0.12483874606649341, -0.11579865806073608, 0.43732458083598014, -0.5252266537850866, -0.08736936024559576, 0.046274943976066116, -0.253153391540291, -0.14453083860488625, 0.024580230392385684, -0.19907806582802287, 0.28211976253846444, -0.4688173857646619, 0.36617649804251506, -0.0266065833540398, -0.05254358470207614, -0.045448974517980974, -0.27789907965374105, 0.04320157100459678, -0.1679664674009775, -0.2854255922558492, 0.08371412711568064, -0.06505871860559286, 0.36718871070639014, -0.5368660790028984, 0.6570781700654629, -0.372609565180012, 0.4648381478810749, 0.5764753829074996, -0.4729029546422519, 0.26900731917632903, -0.7139882119094396, -0.31505378943147444, 0.4177421560664519, 0.21730027182754838, 0.3878831118056542, -0.0892334114605452, 0.1383290157470906, -0.31985576294688384, -0.07644178387555417, 0.2781595529645822, -0.5305491499478608, -0.29234913958713016, -0.2852419930473476, -0.10224313065699928, -0.06199945411026646, 0.13554600740241102, -0.08491056165090276, 0.2573643967997931, -0.2042487735153389, -0.05927372913616885, 0.19886217958633212, -0.9707271976723367, 0.01271989586178985, -0.09547815509382983, -0.5853120215402677, 0.42830652725826573, 0.2397396272705121, 0.25958303261610144, 0.038235234850612185, -0.3994942368366296, -0.3332124483054817, -0.04331733124239103, -0.05103131923935151, -0.22404284477764094, 0.3406513658253663, -0.5040436841848972, -0.48408721756926976, 0.0020816934963061736, -0.26318444627048215, 0.7328625161349518, 0.27554901857494324, -0.340649495057098, -0.08147238113634248, -0.24724095970999765, -0.18915034338419487, 0.02929578957608215, -0.08647888793672719, 0.6268336986783233, 0.10421135275265743, -0.07753636008667883, 0.20067192369186082, -0.14467374134660915, 0.05884421020453002, -0.12241622762898001, 0.06936032795376638, -0.5422855997430186, 0.050046000588923736, 0.012094797994303906, -0.19098011580151864, -0.482944816252638, 0.3349099092611482, 0.011124704388881522, -0.48591279667741455, 0.05062756231274402, 0.22188839546814768, -0.3683820582975092, -0.394060927437902, -0.15652849194917898, 0.15660058491693832, -0.3548877503070705, -0.6081571232142032, 0.3518181133324767, 0.1834787696783941, 0.2975371503845918, 0.13485459084344506, -0.6355232418701527, 0.1566815989058942, 0.2126224611690955, -0.6161481492002867, -0.3282488593612646, 0.027663362844354934, 0.8940896371876675, -0.11294435091618406, 0.07133181362624433, 0.47005327103367117, 0.897704887864383, 0.018268693321116608, 0.3304055923075726, -0.37672640666651347, -0.04829505201046265, -0.47999785567767805, 0.36513285997358275, 0.05775595776851615, -0.7488107896671381, -0.2489139356069745, -0.24936284644419698, -0.1737671239883489, 0.31827878709341456, -0.49410047770651044, 0.12003219998815357, -0.473017772994776, -0.13554886416107426, 0.10464621268542758, -0.08999730880321537, 0.16894835581314696, -0.07472630350965238, -0.4110792116888284, -0.05046684390501508, -0.3708515241462566, 0.20696753135340054, -0.5034561545174667, 0.21934118620236764, -0.026679310371642482, -0.5207014987057804, 0.28101489886902076, 0.3261017331889313, 0.7017462711160098, 0.17473094947081594, 0.7406814904769428, 0.061163709491744545, 0.2683483628589764, -0.18442377146736605, 0.4824754239831495, -0.7834960452759857, -0.3794205516883735, 0.12420126364177596, -0.1579574415053334, 0.14002240032416846, -0.009316889714569546, -0.21569647809904605, 0.28074097727724917, 0.07259402965108694, -0.3083011188493159, 0.029870753226845972, -0.05442432661762212], [-0.4981478159185451, -0.16095387925461102, 0.04900991041504345, 0.8208270794455967, -0.4156375848524685, 0.2401759356037417, -0.3120821141873675, -0.05659675367191849, 0.10892416675281597, 0.17798827176788742, -0.34964988035489825, -0.22144657615938046, -0.3226576753580178, -0.05742319056097305, 0.06426064223097301, -0.08606112775146414, 0.3363509016503965, -0.2934368683721477, -0.04137830289091978, -0.22202542469008005, -0.12647130188915412, -0.41166294618629307, 0.8188236463250937, -0.4249854766601001, -0.02640202490321439, 0.33331608463807133, 0.04910531858688678, -0.28399264234793087, 0.009336242153945788, 0.14299160352964477, 0.24620009062614645, 0.4148406669023594, -0.17554748402395476, -0.2501293346585004, -0.22559042891176873, 0.7165701128333294, -0.02940760514184629, -0.5115365285076214, 0.32096102052213277, -0.5636039456787343, 0.30279203874182536, -0.04206778213088225, 0.5935953208142487, 0.3513311436828607, -0.0005598052311802125, 0.4061434309926599, -0.6810937752200433, -0.7382499556549488, -0.019845889590704276, 0.03189886201125934, -0.06687305313825684, 0.016322587022600924, -0.11121137233547324, 0.0546089612137527, -0.18616841933675715, -0.11504220328612692, -0.3089231168087394, 0.22562464241907718, 0.13136333379992104, 0.008054555931192841, 0.29204328970445675, 0.19863915079171007, -0.21801478276740244, 0.29148045273731565, -0.31613421412236214, 0.3072289455201495, -0.37805133896421345, -0.08897935304171968, -0.5174673004744959, -0.04856043302320275, -0.18702235040480125, -0.23338493819505116, -0.28869922947806004, 0.4189892715555554, -0.07757168878428414, -0.01545969498242379, -0.10024950764962438, 0.6435268477015358, 0.23359109821491847, -0.27941387136606266, -0.7578149841410733, -0.41560015314354043, -0.33507497772870076, 0.13429521823235413, -0.021098795117447392, 0.3130041337909268, 0.11827921854764868, -0.7862920463414278, 0.3934215888890596, 0.21840668407119165, -0.037087960094840375, 0.04686200575503109, 0.040625037348963555, -0.06723690906466542, 0.00462424926782437, 0.22865429287371442, 0.4153453709335154, 0.05285657289891077, -0.5494850601787004, 0.24151641008197638, -0.03694403096569043, -0.024856162082552456, 0.30407702752220334, 0.10185895450609829, 0.38822002123919164, 0.17805052918412598, 0.16858632854732072, -0.1811778087493497, -0.08406783905661423, 0.3269582630973466, 0.41755609643904285, -0.2261007587712828, 0.5740313481137539, -0.507381744867587, -0.2996724105815776, 0.05393395615544112, -0.6911101209080114, 0.03207202655664494, 0.5177886706399306, 0.27132269384887714, 0.025328162275340262, -0.5378508520319686, -0.2511686169865637, -0.01747878770533101, -0.6503125534123954, 0.11489112045638268, -0.34990594192631813, -0.19957491867031626, 0.22609679914978323, -0.3103306680907753, -0.2611966827202649, 0.4305165922054151, -0.14786678815213988, -0.039218151562428485, -0.23730386530381647, -0.1765605366791357, -0.002367721203128738, -0.3707140658416185, -0.6697919585760067, -0.20056881402870982, 0.11258692842384824, -0.19679560333211873, 0.11136612463640697, 0.1797986291060649, 0.2023550384771834, -0.03523159005648331, 0.3098638918202243, -0.5064572171092556, -0.2771837976856884, -0.29525430325784796, -0.45548160643521374, -0.24247310225902524, 0.11159675709122537, 0.2743522589004107, 0.18920493616343126, 0.20780724788124708, 0.03388290610253265, -0.10200439866417421, 0.28864177568371924, 0.11974998488714082, 0.22195749356067873, 0.07275055202320231, -0.05583652847941523, -0.010348609519927984, 0.04549859252292077, 0.04887339056626708, 0.16511690008608457, -0.42209051383359864, -0.20688309580639067, -0.18896563624994575, -0.5071820624227296, -0.4134881304486967, 0.15696624843653972, 0.055607664940592154, -0.32826178518543, -0.8093012475614063, -0.25021946622647917, -0.2152872526759904, 0.02063391023662489, 0.1099738144835184, -0.2345717491303655, 0.17437135120350464, 0.06863745572872688, -0.07607515202757537, -0.11066751529484194, 0.1579754619704291, 0.3427624033197406, 0.32826215531594366, 0.06267456694386196, -0.11639063175415719, 0.5491876176445559, 0.2727456641580421, -0.13750591092800302, 0.3475278742631973, 0.17458541350173143, -0.22901970829024362, -0.050201232034840206, 0.037104976557935695, -0.046572991120646445, -0.023088371273273303, -0.08536567654096923, -0.13437153732273818, 0.5377126233806971, 0.5108282132648329, -0.37767644283004626, 0.21157120868170956, -0.8251569315101981, -0.0939004663056166, -0.2740620514270466, -0.16959659947137598, -0.5338172528668369, -0.37752928650749656, -0.1051465190901404, -0.5563283115207684, -0.03539633302351757, -0.0782319344765024, 0.14018703344093716, 0.04352271588987603, -0.117156037685611, 0.18340020196269444, 0.29198010691500875, -0.2845264226706754, 0.15038585882055472, -0.39354308775250013, -0.587729922102573, 0.2288111096447256, -0.39614134098354187, 0.40673786988023847, 0.36318383347028216, -0.13263094709151851, -0.08828347282889186, -0.1561977601188577, 0.28430585683297116, -0.15933724727427284, 0.3371192241345452, 0.42277010399162124, -0.2945942309883396, 0.4186186598550948, -0.11329734215898245, 0.1567416720299403, -0.02511607398192412, 0.05635148221213825, 0.3328517506413327, -0.48602440863544155, -0.23195649472631555, 0.29071909062028795, 0.4295788857712859, 0.06091765168707925, 0.2326256058330765, -0.03958134104786573, -0.37721696451608305, 0.021958993081331986, -0.32033430786173767, -0.6722199657412619, -0.1760190013638187, -0.06991590721245798, -0.22531683368411187, -0.1471681481519626, -0.5039203587026265, 0.18483093028628692, 0.30384565417127796, -0.1278263945826938, 0.5313533653994416, -0.4043206320141882, -0.2796070838668794, -0.5712312681556021, -0.4521844514881487, -0.45149777965349885, -0.5136539578663092, -0.8512939427840234, -0.35257175201172136, 0.31696239142565386, 0.0770254708030412, -0.02228610078496906, 0.05337890957292818, 0.3555492725983339, -0.10677899496564122, 0.6014107982230292, 0.28559286493811603, -0.39333414154020546, -0.10125974738542606, -0.31474221046846895, -0.5980508005475378, 0.02309065589316932, 0.15577208257957834, 0.4185369434458737, -0.31249138572788415, 0.03241828204218834, 0.16148980230338927, -0.17953321197641023, 0.13143824623404105, 0.3864125511105233, 0.5976394090894028, -0.05157307801798985, -0.05971009042563339, -0.4218642080766789, -0.07431831002514093, -0.0681682649208342, -0.7131612990525094, -0.3169939892829257, -0.093757445157971, -0.014305583361513339, 0.04070367429683427, -0.26081385202530394, -0.14336698152991148, -0.17985697418305963, -0.3573631163755266, -0.5357166892161986, 0.2168002976766521, 0.09281444205744377, 0.18139241359240077, -0.3157282060552864, -0.6377645620373973, 0.26370433894843937, -0.1160594871713943, 0.3143530511196227, 0.4956265787612672, 0.6023948496629759, -0.06365042990248865, -0.16512106182186506, 0.4006780829722221, 0.2759277223615555, 0.9260019017846465, -0.3231642344582606, -0.3944845868346928, 0.5170460986476912, -0.2614326619864304, -0.19736369336712703, -0.43223546751456826, 0.006629881415811659, 0.17627414283530182, 0.1877309632465731, -0.45334098200493, 0.8051170872339931, 0.46333101794074705, -0.09410437096520623, -0.2285454081420854, 0.8065460751351065, -0.599780567141205, -0.24888371040094573, -0.27487081396297003, -0.07185551254026193, 0.2517113186764006, 0.07417458541272079, 0.4075587936230129, -0.30871452903830604, 0.2548456137641433, 0.37046749507522186, 0.47897075743212897, 0.31750907331222017, 0.6831383452583407, 0.5737354646653161, -0.12780159540550148, -0.9154192956268014, -0.03126892874961704, -0.41690978654215094, -0.16474191314709452, 0.326825294018027, -0.09649475667433328, -0.3913338665924265, -0.47675165967486466, -0.6107505420034772, 0.1229290026869244, 0.20817361652499136, 0.29230696599114847, 0.3884489647105538, 0.013107077258587485, 0.11237736679119434, 0.11777538733760212, -0.5975637177326409, -0.49137061011200456, -0.5349033455249881, 0.287769935080086, 0.08557600158114884, 0.14896315494939028, -0.19496961631106105, 0.33314202924048253, 0.6371801972218656, 0.8652166954122444, 0.6189962948409932, 0.08573494330811067, 0.3135047986181827, -0.12086532713030287, 0.3020115083471149, 0.14629051297989776, -0.24787044122149884, -0.27760339634202275, -0.4733691173674741, -0.15456342461238493, 0.7140081066883179, 0.33080466700585326, -0.2539747790747227, 0.09637892847657832, -0.05057133312425488, -0.7176114418201696, -0.16164882356272833, 0.028362523802844524, -0.07441304627621807, -0.22127254734165833, 0.1359174290277214, -0.022230677099488862, -0.46521397685727794, -0.3408853391804005, 0.6338178533432903, 0.019616245521475863, 0.05265896615328074, 1.0211681402956578, -0.13371962737771914, -0.16808329748355344, -0.1220000439516616, -0.2953235219205115, 0.3778963776956026, -0.05986226684826495, -0.2712209263055359, 0.09537539259213333, -1.0327061138367923, -0.06624124658420757, -0.32795994839537174, -0.7459036375501552, -0.05838413168639132, 0.022427820396896142, 0.43768119968075564, -0.15363793360544664, -0.14185595938931092, -0.3338239482136626, 0.09196924370270111, 0.2879820882130055, 0.1693827722175931, -0.228034126891429, 0.27325451621772506, -0.6181216678404552, 0.10910163621306937, 0.47975834973312026, 0.5164033855245203, 0.6392552877166866, 0.6034693147867032, -0.1626333946658873, -0.07813268067440245, -0.5112270036503334, -0.8203476865353411, -0.3764779359854125, -0.5814574367013586, -0.00821567067960489, -0.27007222716001006, 0.44339583789725584, -0.17847916795404417, 0.012284207797633097, -0.03278442039599154, -0.46426859026382206, -0.00470469224143686, 0.3479171420687685, -0.8756029284810812, -0.20760601186117544, -0.7386153962871899, -0.11814188819970937, -0.3889111156282114, -0.2725163274749577, -0.42965046485887887, 0.11422154475513421, -0.015245939526558096, -0.018535004140764533, 0.3987789238382411, 0.39915501108117885, 0.11244779750291525, -0.284723598861171, -0.476951696587536, -0.37617263726939765, 0.2797702447391621, -0.46041054255900893, 0.2077552190951419, 0.038317470402708664, 0.09844192215214181, -0.5383883966980829, -0.8418508688697491, -0.08267546971392767, -0.08199849865352758, -0.9182165412032341, -0.4625548992280918, -0.006213137655301254, 0.012813133708189043, 0.052160104455506895, 0.17833519412601123, -0.1664563089103459, -0.6691816140622939, -0.4729194774544903, 0.19675250845439532, 0.33600797410991834, -0.021398951890748603, 0.09048382871416873, 0.6403767052882576, -0.031068098079762956, -0.32196124894039574, -0.132718722467598, 0.03743221619824662, -0.1863313641214246, -0.23321962209366146, -0.3201207714570101, 0.08334298612832386, 0.285067114539246, -0.5640435774656323, -0.34923443514124236, 0.2664813215361637, 0.2530031847890756, -0.2085953356574343, 0.7797309278327825, 0.5023686740505913, 0.4209870348450711, 0.027312567399400824, 0.4423046446047062, -0.4739391414321595, -0.7028515914021191, 0.23809171488382605, 0.3254028857949105, 0.46980338571600816, 0.062019479330777304, 0.5304135293582228, 0.8354345156534582, 0.3943120360628805, -0.04358615863432619, -0.16439561142833942, -0.18051106014541754, 0.13982117473722078, -0.26856762711930204, -0.06445078946954556, 0.18058155637091736, -0.27366991530183643, -0.40083364371266367, 0.4440317846175748, -0.1141248633140567, 0.008323157672912933, 0.5468630368809982, -0.6656571527435913, 0.36189936976493553, 0.5014053050101107, -0.028427830583835842, -0.5002087021520029, -0.4335750419502727, 0.21404718094611247, -0.10280732295251704, -0.629159264175768, -0.0480451605671436, 0.21774534886568672, 0.6287542251736717, -0.09865552951096879, -0.4903052997008318, -0.2552008685719591, -0.4328219734482142, -0.3575609443634662, 0.043411401072673945, -1.2141377955723989, -0.33057652726696646, -0.4925368595687382, -0.46609988157094734, 0.6612073448231656, -0.30465209972207197, 0.6715813211996443, 0.07443133844769358, 0.1892221924196516, 0.11322534522351069, -0.7337459922467645, -0.390976184992725, -0.5833857549558489, -0.5012182986574494, -0.04019788284931354, -0.5147218013679572, -0.5896453772882508, 0.3752596433266082, 0.1804856361555378, 0.48517926914693865, -0.531086997622021, 0.2353761837826208, 0.13563999850178915, 0.16593373448487858, 0.10481430360088614, -0.174470786281799, 0.15703118962434756, 0.18808473128442962, -0.09468108158340909, -0.37653118781898764, 0.1722491614004704, -0.16057052637847233, -0.5750610970068891, -0.4321770711848784, 0.23684352190585356, -0.4318687197368824, -0.03164850426145782, -0.39207914740736705, -0.2379076441350099, 0.06913393286354849, 0.24998252626493497, -0.3949358313272529, -0.4454990466279304, -0.14246398919496994, -0.18273312610270903, 0.2200384020344154, 0.08090234116468038, -0.28126155467818054, -0.21236829726622447, 0.010289566733127375, 0.1465333746602507, 0.12842504110395994, -0.005953199351777425, 0.2994682726367372, -0.2361633197444344, -0.4771699667372904, 0.36796547297768084, -0.09515351452911552, 0.11817966870386631, -0.39137454034994185, -0.6268488413445398, -0.12066096045211, 0.006330532147303913, 0.12136707747957641, 0.13337272554715246, -0.12736303631832904, 0.04245496061021338, -0.4797193542412488, 0.06854763958905043, -0.38202530745074775, -0.053580256387994775, -0.33083930694629393, -0.21569714150284539, 0.18042767204814666, 0.08764653498079263, -0.048797514149978655, 0.3649144584166133, 0.11957700630184961, 0.19247371025148977, -0.4503483711275436, 0.11642041247547957, -0.0017970385650470993, 0.33227032354926184, 0.23041653807231618, 0.15823954235813195, 0.26759677902077283, -0.6021762935900824, -0.10050544786560042, -0.24402362739978303, -0.5023780025876701, -0.16633262788813297, 0.07378493632140612, -0.09904521972121054, -0.18235256358907453, 0.22596964726905178, 0.40596199591216536, 0.009177937282315612, 0.28732634912499205, -0.29839466928392716, -0.64707317468165, 0.024231311234347897, 0.3779450150393418, -0.12233777236111083, -0.5108639347173846, 0.04111142265734293, -0.48805731227684035, 0.7228176294174967, 0.5933248804571001, 0.7925169326926403, 0.7199913210493889, 0.45029450748299277, 0.3070019008259443, 0.4735568818316694, 0.11555629553150285, 0.40028624640827054, 0.125035453929253, -0.01861988438997295, 0.026246379300165202, -0.5941457628180995, -0.06444879670985296, 0.6563800633993112, 0.015668876342598954, 0.15559289181899474, 0.020540409400556184, -0.0366108885368975, 0.34925435962317813, 0.14155374498891515, -0.166098367664042, -0.27315589661547773, -0.6475492986666341, -0.4269609849845139, -0.10798296170415979, 0.20862810981462915, 0.054418628129053924, -0.4787580758210183, -0.3373523440745573, 0.18689908021579282, -0.564379704447314, 0.13198122472193446, 0.11176781192487831, -0.012572007770335514, 0.5632145373189571, 0.7639065712997234, 0.2906200035864995, 0.18171694394700255, -0.05837666523113037, 0.1081837577387729, -0.4896535216000614, 0.8721348695668899, 0.4043365544101431, 0.1041313632151091, -0.43155477995115576, -0.14237928029661354, 0.08088642388489671, 0.5866155741638016, -0.23898481181330627, 0.04934616718213018, 0.1925909397387998, -0.017025272005869077, 0.019231805803136444, -0.6767743554929203, -0.19721543879402745, -0.4216997788509381, -0.0372794709748786, 0.01646881319868685, -0.46112591003292747, 0.004847476254686598, 0.18262530898897425, 0.33278516530787583, -0.022911341942763865, -0.2653811384881861, 0.4271010893764397, -0.5982311571300182, -0.1767580677540016, 0.21282845872438075, -0.5014533141027748, -0.07566851222595479, 0.2718750725411955, 0.2327235170680599, 0.2540584513956788, 0.590858382593179, -0.22372818652295978, -0.4221966908222785, 0.5159201611166087, 0.31281886126790454, 0.37149283462209975, -0.006124453620389227, -0.36701282391246515, -0.02362960843384103, -0.07348365238753346, 0.4265458815457165, -0.3261518966085963, -0.38232340183425306, 0.1541320520631513, -0.24617640453913295, -0.13106565128488068, 0.08724592843955518, 0.2857585532189144, 0.17878091517974787, 0.22066589721900562, 0.1269088198537257, -0.4714916638643504, -0.4019655858218666, 0.07845987380555385, 0.10305363284868276, -0.050903823076372444, -0.2576839936252006, 0.017733697955799353, 0.07159250027605944, -0.20056694269145592, 0.11068909087783024, 0.34541970869337046, 0.4344282360166819, 0.1074122623845975, -0.2929922491652981, 0.10790412498817736, -0.31657784308926384, 0.6626880047870071, 0.32362403854338295, -0.2671897584056683, -0.8358014053307805, -0.20222706883640662, 0.363667856755733, -0.4039714406466181, -0.509975508213871, -0.30405893005953943, -0.2749550883759116, 0.21915578560821494, -0.42364293075023923, -0.2979661637733222, 0.07845988338664052, 0.3173545862903682, -0.7149258502061675, 0.35972829691794805, -0.27380026817455233], [0.04205866340089715, -0.2307925407144179, 0.4956833825187821, -0.2603529266107673, -0.019212050613361564, -0.11053816750084998, 0.059752331103653133, -0.2840416900826338, 0.6006630545077453, 0.41219853547812924, -0.3976186516378612, -0.31137807720181343, -0.07079887400268972, -0.16370866312056073, -0.3810579538510261, 0.4655801644885686, -0.32376159041975744, 0.16988589557607134, -0.03972978200001689, 0.12254648750271353, 0.10940592861096461, 0.42243729734696384, -0.16868065996688875, -0.607133744650389, -0.5605333014311362, -0.0078027234029610084, 0.01131248542174745, 0.3547965840284662, 0.5248692174071408, 0.46894900552251323, 0.34698360136005224, 0.37794663544695295, -0.3780238254029614, -0.36198151014393287, -0.19907160162754686, 0.03139691096656612, 0.29798824540169816, -0.601850331698028, -0.4160760489958377, -0.2894319242252635, -0.06196376035213817, -0.06192828443833985, -0.20440706481742754, -0.3703210989737965, -0.2288196684685754, -0.11947985116146422, 0.15053234112667105, -0.24516560591480224, -0.28403006755894855, 0.12184237907104789, -0.34609169104329546, -0.07083773334381259, -0.44796067933492517, -0.2546747108404493, 0.14671928707993445, -0.3853443455321516, -0.08498841171736576, 0.3355171967052951, -0.2739611382701535, 0.25536453495494066, 0.004375197473634553, -0.3315439398783195, -0.4038263925549199, -0.3829772625488529, -0.06684606818477179, -0.4363891196639193, 0.29747091306726986, -0.08149595112751386, 0.19933297052533677, -0.2954570691843872, 0.5853022670934674, -0.5049206963195466, 0.3602802774856283, 0.5846601139639107, -0.010362627024580006, -0.4346427473393828, 0.6072065285893339, -0.23869197924246371, 0.09970169404021154, -0.380485478322462, 0.2730629502828344, -0.26408855755068017, -0.18372867264939644, 0.2160968165939243, 0.03614949189956963, -0.2423729732134583, 0.16848443773369906, 0.5617498761082294, -0.442368104902006, -0.10235645637587082, -0.20648354398078528, -0.34941624013876765, 0.04232303936985515, -0.011415500193701253, -0.0764039801587677, 0.40074302697086694, 0.2791354788439079, 0.32443746603338924, -0.2573877328814785, -0.16477834162047653, -0.656187658811837, -0.17768123770221736, -0.06168183322308186, -0.07647928309796603, -0.24916889633863132, 0.3988334623928863, -0.2905076826548888, 0.09494832901578278, 0.48428616088995524, -0.6115019102556322, 0.3534363450624605, -0.5574472140796322, -0.18441756816041738, 0.19822198549743886, -0.30350938496826413, -0.24838856395913708, -0.7538047944552633, -0.18184648438314474, -0.9870551352361159, -0.2610554270864758, 0.6903021820781043, 0.4243846119136586, -0.30707265520483235, 0.18142531205469692, -0.692103756786268, -0.05529037342793292, 0.06701178072027092, 0.14422276443611928, -0.17375476950208582, 0.6159529293755229, -0.271999632892381, 0.5025608239936544, 0.09154115545075855, -0.44734751602143213, -0.0133100083824541, 0.4644408577048563, 0.4790725318450399, -0.07451410682321032, 0.4525615942985031, 0.3710110366297547, -0.1729738686209455, 0.09408396350356076, 0.122024464636717, -0.1101940365169237, 0.3469465890245167, -0.13647228881255594, -0.18101987961318503, -0.2704034758410649, 0.07452581207537028, -0.011952704858882194, -0.3239923823859724, 0.0749618499143503, -0.288935790937689, -0.5872055960318899, -0.1425882773711917, 0.11729265038359898, 0.030892287555801645, 0.17596732352550076, 0.036894687036966335, -0.2018939055839518, -0.01796839136851476, 0.04586263314796745, 0.551219375786656, -0.1918647825853366, -0.048866099981635595, 0.07795416260732303, 0.5314739305999893, 0.28630331770153794, 0.3281444238191373, 0.3454104834017964, -0.37245125236554555, -1.0735538443034902, -0.2600026483588763, 0.5956170457420285, 0.0403292401941578, -0.15117528149645837, 0.013812963308545954, 0.059778277164235144, -0.065382557176828, -0.1384154791365537, -0.02830073067564455, -0.04909522927049841, -0.45094653983172933, 0.5588172309812782, -0.0660020964052471, 0.010072427138656526, -0.35641077805974525, 0.5489264838935624, -0.27068001271992176, 0.0947364750059754, 0.4019975843921806, 0.10135401251084597, -0.08889871393750008, -0.49592923468664063, 0.27380444575202156, 0.1283094730967356, -0.49226069421557517, 0.8010433773271302, -0.4116792108822636, 0.7919548109974126, 0.058301719904187976, -0.14683196019945027, 0.3749274071307158, 0.08379294245901753, 0.32953079380539363, -0.07175974304877893, -0.2612012683956145, -0.16000777027838678, 0.2729057585408461, -0.6511727499158615, -0.16048919872991885, -0.49534275139228306, -0.3285932050657497, 0.02347637550495532, 0.158753094041808, -0.25704654595511706, 0.08751564980985238, 0.2882921978158856, -0.07605127962181699, 0.6843680399708522, 0.4580658502379653, -0.3955564832527208, -0.20518999723998332, 0.1451857434763895, 0.3459185463284755, 0.06321397036488598, 0.1553252473640209, 0.21349114698984176, 0.05201397533830092, -0.0460262334583457, -0.1980669301035375, -0.6580714558155965, 0.02185927876674124, -0.007352824534362352, -0.34531362461586873, -0.13140451390589733, 0.7013803433392288, -0.046699252570056, -0.005718223143954374, -0.23918043838574013, -0.14828360567956775, -0.054398523006248686, 0.535132197317072, 0.08154344744045888, -0.021106976389864435, 0.2446489414886486, 0.2664629449608543, -0.03685814873733018, -0.025754147335415298, -0.20461320147309187, 0.29674653924586436, -0.016063714522575222, 0.31392324965016577, -0.00028875299511509924, 0.48995068323960794, -0.05963827704843398, -0.1107642194533348, 0.13968166252227168, 0.4199502972549977, -0.32200232909644266, 0.06977476406062896, -0.018294577207829593, 0.3098945306988496, -0.031523418715180954, -0.26432753932986713, 0.5721587304853226, -0.548978159229243, -0.46622856594055584, -0.3159390900218584, -0.14490957650289948, 0.026014267317065555, -0.12216866781825986, -0.41725275552426594, 0.16904801561285596, -0.10534722459831607, 0.49771793516487256, 0.05971807355785077, -0.11808454605608676, -0.39741349918252067, -0.3380880783972769, -0.4128591240439695, -0.2730034865308689, -0.471457961398626, -0.14724672762332133, -0.015743473032887256, 0.5530330211994845, 0.09415688202499134, -0.4676687707117423, -0.29405321562503084, -0.03881756754558101, -0.43499612776897095, 0.0009391383007378646, 0.3292664712912956, -0.28291938459826166, -0.23304475835800326, -0.4158415855940949, -0.32687694737663664, 0.4933616359838452, -0.02368809536348502, 0.8337196633122557, -0.47972145157854434, -0.3181487667166766, -0.08073610853407534, -0.44215246782435813, 0.005907690555402457, -0.15047521504604003, 0.08873617213403624, 0.8833742205525885, 0.32379802547932224, -0.894802988394916, 0.40034053780426115, -0.051601092932950066, -0.16958371822024268, 0.42273531905538003, 0.2986167630315154, 0.4135748260916796, -0.004357234373430646, 0.4381848192985742, -0.027415165030788422, 0.2002770144675185, 0.19822476583419965, -0.29420150861009786, 0.038442642273020605, 0.48634865949011064, -0.24592826238557397, 0.7125262940174653, 0.29906114533030814, 0.13753010527432263, 0.20907965952167384, 0.2152449209732131, -0.6186666891406495, -0.5203836966192446, 0.413356089023757, 0.1606834712078405, 0.4379586144498835, 0.20996024980445704, -0.4662473509765758, -0.10772653847714735, 0.24837470779591553, -0.4401939395559129, -0.42905448307153604, 0.4181051065765953, 0.26320985146810644, -0.015925683896181257, -0.6789155662444853, 0.19072872195067733, 0.2404841343817617, -0.43570528207502096, 0.3782818345846012, 0.06884970604183682, 0.1189401811155405, -0.14954420038771746, -0.3633814926964907, 0.07460381232086176, 0.034221802074430874, 0.20972705190067356, 0.017353002401060656, 0.06008609893819545, 0.02749732598912948, -0.023549594283732253, 0.009703927369957017, 0.2683950556265791, 0.2510469640014392, -0.5762197805964973, -0.4262371520544372, -0.3072919885018663, 0.008634158705068165, -0.4633924227236711, 0.06083642357323684, -0.368785345167239, 0.4366552501414443, 0.08810104686695432, 0.19348949521037997, -0.029568598173980498, -0.5621502651544357, -0.5791874665216158, -0.07361152751869111, -0.4901979223577079, 0.4079433589402315, 0.3176131901620172, 0.05468284373141212, 0.7512317776240205, -0.3361790595090333, 0.3315851886356378, -0.26805131593885395, 0.5528831768488253, -0.2974166263618472, -0.2151900419276827, 0.1627068964558474, -0.5656735944224222, -0.058498164155182, -0.28803426573735447, -0.14874777283283344, 0.0010460480430308206, -0.09851680134878735, -0.14795952075522886, -0.12279910505156148, 0.2191299659694999, 0.18521392675257053, 0.2245262131111105, 0.1317883105224654, 0.4208988116866927, 0.3622773720775031, -0.29627117735566405, -0.47302330266813397, -0.48443783006229235, 0.9940267833698041, -0.5824279088769394, 0.32214331899396464, 0.4962413321833274, -0.169444196690877, 0.5409514235365597, -0.017308205970565267, -0.18567676261375307, 0.24945482844758535, 0.3333805376719873, -0.3383146851961391, 0.00770662815492148, -0.011224609613317055, -0.014795953814409128, -0.02060855582474957, 0.5556704080205689, -0.34417893050349607, -1.1240891712661176, 0.5712539049092912, 0.1779800434147075, 0.6463850025768683, -0.015026648867235485, -0.4517961906877185, 0.4673159399098471, -0.07010431213857074, -0.2751152577974194, 0.24260853458457346, 0.33573836816530245, 0.49407922185737285, -0.007048333447704173, -0.09295663532779642, 0.21810348176395683, 0.43799677668448433, -0.028208891405754843, 0.04174824029452696, -0.29600725327754746, 0.34268991944148847, -0.13824580039203177, -0.7295570997462548, 0.5060907354901646, -0.831523649338649, 0.4194106057751157, -0.13100828757889596, 0.06482601487514404, -1.0008644551203285, -0.785106252550598, 0.08217614682468675, -0.5766688251114893, 0.30948147256575287, 0.2804558624269379, 0.2029574177063671, 0.08080729102797476, -0.7664897366778808, 0.3091172500574, -0.4236293379768944, -0.537494493733123, 0.2669537021868489, -0.24088491738624038, 0.3422180838072212, -0.0910543996292133, -0.24011553826843263, -0.06331916448771728, -0.24475133089314846, 0.361759489890416, -0.26448128071242605, 0.816619343262434, -0.2191409307717641, -0.057885212004914074, 0.4208059262409009, -0.10735515337322568, 0.06106531932634651, 0.30173513726991336, -0.23180530374900732, -0.22107297718528876, -0.2516887921342312, -0.34627490424170987, -0.29707588020210074, 0.22584200342035027, 0.013141166949680531, -0.11504306446105621, -0.25392035458343426, 0.5356222137249419, 0.195058275630618, 0.15882997113265845, -0.3985573712097821, 0.054187350369592234, -0.014604345962731738, 0.2432883221963681, -0.07574129927963812, -0.3372939631585938, 0.02626020286432809, 0.08234028470518806, 0.07219310876818526, -0.11597992565835097, 0.28618084672185895, 0.611335148969099, 0.0058294208720391545, -0.16165806538667415, 0.3676323651810422, -0.3009414923100264, 0.25025865708643996, -0.3183418707626872, 0.09264406846450088, -0.006319139335472453, -0.6886179826088504, -0.37436786875995126, -0.26799129685133777, -0.17005962201660144, -0.3142300668926526, -0.3525391779460579, 0.41664745118570434, 0.0193671222956765, -0.2558365777967104, -0.7511244240955895, -0.0574972089422224, -0.5675252210823144, 0.20408201683451635, -0.4461473298796419, 0.1568578337468755, 0.22849509197921125, -0.08226435093262872, -0.10685763851988486, 0.008917138148725912, 0.2783014586699105, 0.22348225493239934, -0.6043961823456818, 0.3250369397349567, -0.4236265301528093, -0.5127537311624131, 0.09694461428451785, -0.06302555596462775, -0.5393424091400918, -0.5765519214751745, -0.32192755242616006, 0.21046528127420153, -0.029640004652990114, -0.35220919034597037, -0.06047509758151445, 0.031059814192331343, -0.068902566339581, -0.5122315408207899, 0.13254769038737646, 0.663551365174441, -0.16434539943773194, -0.3304423724406133, -0.06511061633907123, -0.3994113055651055, -0.45473969266081704, -0.26211385807421894, -0.40625499411210436, -0.4242607021522498, 0.3626427314158161, -0.41192155141049613, -0.2800740878667649, -0.40520159738475114, 0.2575355702216552, -0.3533511985758841, -0.6472423125934498, -0.40833250514848923, 0.27895060113673525, -0.242866970005989, -0.08458005326268803, 0.425435391760139, 0.2902486552384454, -0.21640713748964438, 0.038861592627503286, -0.3004695902547105, 0.038012419017514364, -0.7847438017912644, -0.2741836113328574, 0.003850586962488486, -0.15364266855000674, -0.3911782201331211, 0.2391187471186566, -0.19513985644688694, 0.012133369593999934, 0.4851400414092654, -0.1022358935389513, -0.09292530119716143, 0.2617224350437857, -0.47408959468043704, -0.10452400763955903, 0.35257826796067526, 0.5177976629037027, 0.18160671926834665, 0.13406358231099944, -0.3728868580122725, 0.42913802772799603, -0.20962929058348664, -0.04528920477820075, -0.33732712703068757, 0.22993256840291731, -0.22872960163514072, 0.2400728686464105, -0.6357786148763741, 0.058001779770880585, -0.5612015197354565, -0.2478226475179727, -0.07917027793033726, -0.42995864603282913, -0.4941597640862237, 0.1256433219263243, -0.5550111253344872, 0.004918410320583306, 0.5232530499052989, 0.6991471032379049, 0.9453123191533372, -0.08286469018425098, 0.3490373487433998, 0.6539739890031014, 0.08939086041772845, -0.35669146258965134, -0.16369360637722824, -0.48010326542728654, 0.12536673308914267, -0.08865701792917632, 0.09397988800045233, 0.0347081720736876, -0.07787562867411867, 0.4761549124401015, -0.17622926999401353, -0.5730235704181478, -0.3058273757262386, -0.17612941324414272, -0.1364234141065294, 0.17216248379005916, 0.34535674597896837, 0.5754898745037288, 0.04011397959799942, 0.36643916791197023, 0.10917987478703875, -0.2922183743211428, -0.09647086547275027, 0.23891557399375898, 0.40267044486831255, 0.19698565464176923, 0.07577162000808732, -0.04556707606228073, -0.3014094858610434, 0.07867590249950843, 0.02603661147396732, -0.058468570874592465, -0.4409575208782626, 0.3214674101870948, 0.7717969028597587, 0.22141974564154598, -0.09668713984733882, -0.42155435680595427, 0.33052837445325545, -0.3051600960020908, -0.09422968278387123, -0.7613880667911103, -0.17315197117102235, -0.2432385327242098, 0.08110864921001978, -0.14202926274725663, -0.30655525219790936, 0.46289038480120115, 0.5020147960312008, -0.5161242232885042, -0.19246666588462952, -0.20477832877086105, 0.3494009434337349, -0.376986893234445, 0.030255129376719304, -0.44243019114645066, -0.03186940940972261, -0.29305851015607015, -0.21588893677346313, 0.06944630319420284, -0.012122451463856683, 0.2019718760956756, 0.33591175662825534, 0.34726968836236377, -0.3289763008790705, 0.6548937125323314, 0.7303840401471533, -0.5023439314808832, -0.1953665077456065, -0.11233791651882521, -0.22168688814518187, -0.4092298020339968, 0.025990506608039997, -0.17311915145851314, -0.11245406321417578, 0.08423276117981637, 0.07665810909089267, -0.30465363448242805, -0.18579906432125323, -0.7278021948944733, -0.3785834614045415, -0.535911312702592, -0.5595886376432049, -0.7185855192187072, -0.013824857854982605, -0.05435327337812345, 0.1293611919669934, -0.000518550017070481, 0.14801258055569294, 0.03206810237007467, 0.15948360915932433, -0.4574414375069161, 0.4076021463987192, 0.0007766984848932647, 0.2207273076241915, 0.01193325480175932, 0.0600172200096745, -0.024711364985090148, 0.38659814019540395, -0.2546530698133465, 0.3778919787581197, 0.3288667153406677, 0.06149575824431509, 0.28045686685486987, 0.06800907422639556, -0.19927015837434678, -0.06873424786955823, -0.35317038804365086, -0.33386368020754265, -0.42383706042484187, -0.6306983324318381, -0.0034913139862502657, 0.5674119493470201, 0.359009603662189, 0.14053752028682528, 0.3098146850069141, 0.1451608910649734, -0.009383907143895552, -0.41967082601592937, 0.3842299201358497, -0.5307929839811165, -0.20276745180484712, -0.06886785305319001, 0.20269478489183082, 0.030733107278102516, 0.018102641930759635, -0.08592078562365497, -0.021181036308494935, -0.215970284493668, 0.07659175595233475, -0.24392400777444617, -0.3915771249329272, -0.025760981862696614, 0.5193795528416041, -0.48209137580731276, 0.4235433935331147, 0.10884052966783547, 0.061686253661417494, 0.09507470059157822, -0.2526439678532373, -0.0637864218055072, -0.4961703157868641, -0.36719077665931943, -0.3333871216012545, 0.09062761508013874, -0.3801973447509812, 0.7367830802545762, -0.06341933941434585, -0.49342312837330377, -0.20481157118818882, -0.5363487481117515, -0.5391053899279863, -0.33747465098396545, 0.7580679508214304, 0.35880485930059847, 0.1415805071854827, 0.2239811803662397, 0.04408555267423012, 0.5341529078370117, 0.6251596898502565, -0.16644808115842363, 0.12526524339824138, -0.047567041436387986, -0.5134969282455188, -0.3008375008024335, -0.21893066867868305, 0.12262332036376132, 0.43103001320968126], [-0.764352074095861, 0.2273306329901025, 0.07931075872559958, -0.25108797858682863, -0.05410062703087165, -0.065818746767351, -0.14361915011684118, 0.14831379934935202, 0.003197887449464086, 0.0823088959421666, 0.5283515397760624, 0.17369780391672235, 0.48527747943258254, -0.18799561217371719, 0.16682318439383934, 0.6503279197390623, -0.4424912750451459, 0.36877557620245466, 0.30676994308558697, -0.32640714894208084, -1.1727787256931006, 0.21254166517783174, -0.2805689844282274, 0.1333669291743441, -0.13489464882092936, -0.06914054240204588, 0.6180710558665224, 