[[-0.016745249329887742, 0.10656450777262141, -0.08032652331893626, -0.018035699044801904, 0.046703914812968844, -0.06626759486869489, 0.03917017708151016, -0.010940205549606553, 0.11029214311492154, 0.013682977340330213, 0.047421448442034234, 0.0016900082727867602, 0.04565836546444871, 0.00518833719055446, -0.013812929564445995, -0.02389084502640115], [0.01031619233855479, -0.011522334133404068, -0.0715771661961127, 0.041415164008307234, 0.03475095531349048, -0.016890432996010635, 0.051166807667219705, 0.06609178845802476, 0.04519130313359373, -0.004773590950685115, -0.046672592924720445, 0.03545830300044083, -0.0013984409998342268, 0.03695429753788361, -0.11746224940305287, -0.013147300424166793], [0.01366937447223628, 0.0503144528739616, -0.016111950251773286, -0.004023770516476327, 0.023015860301634578, -0.04959396673746765, 0.057942729182785625, 0.12271042777822633, -0.0003804740117687587, 0.05208769471551685, 0.03881199131815922, 0.13121176641069104, -0.002018023559515738, -0.027982981641461336, 0.03411947483408567, -0.06557402450366073], [-0.02623130262808114, -0.012488730118956208, -0.0014121184497183216, 0.04028303705828955, 0.056634735812759185, -0.10851225214461804, 0.0787225956379673, 0.026927487679303388, 0.03359883089729256, 0.02185176107382833, -0.020286511110984166, 0.02323805391696442, -0.00707556568679788, -0.04834395815736146, -0.05333006472528995, 0.019132702932044426], [-0.07086006955678065, 0.023134427262417618, 0.07711987373324923, 0.03717038309119585, -0.08676362701290916, -0.00516721130983545, -0.010052843105196158, -0.029279914149154745, -0.002729923843262637, 0.09421404336562164, 0.036349545595598505, -0.04904372342320431, -0.003684602210734132, -0.03854181230678221, -0.04688987925919018, -0.03652021051042369], [0.08598370559212017, -0.042913922823039574, 0.006621734867269873, -0.03401534295766405, 0.05298616063604043, -0.07830193182407852, 0.07280387224544925, -0.10443783809655065, 0.044235587161898314, -0.008721985258193671, -0.005738005369528253, 0.12084835016329237, 0.048750379834458374, 0.06617509957259993, 0.04059064123562093, 0.06112294256989713], [-0.007615394044426682, 0.009135407279734126, 0.03428192851484902, -0.011180857498782304, 0.0021987239577006164, -0.012626017230374162, -0.1081668692084048, -0.044372831306636364, 0.08307976850607084, -0.059723643089486744, -0.12367247525778943, -0.016845725160803276, 0.03672143302372956, -0.08598521742187366, 0.018272532521150107, -0.029024407512605842], [0.022275873320367647, 0.029734883524119234, 0.09396478800736709, -0.04529634289242121, -0.011507995463372457, -0.038104707982396555, -0.01513218249076812, 0.021907119275019527, -0.009876530127307517, 0.04665898904971023, -0.01028964026850822, 0.12399408894276523, 0.0008261501027850831, 0.044321967412170364, -0.049028745639975946, -0.0008258771820373194], [-0.03115131476763963, -0.013523944513507991, -0.06282635981672603, -0.03323833054979017, -0.09877129986750675, 0.07629871608099888, 0.026523919312538603, -0.06162944000538841, 0.002282150030952614, 0.018212792610914238, -0.014269831059527291, -0.046532945934088486, 0.02437424291297413, 0.03113681871045568, -0.052608132629760544, -0.00024741976162537764], [-0.05651349124111604, 0.04193245084715942, 0.008465656073748228, 0.028513208231213224, 0.06490095504623693, 0.03138618388610192, 0.031673053128003156, 0.06151299713309058, 0.15012422702661352, -0.012069477516000645, -0.05278162722748455, 0.01961957284650146, -0.02290792115094098, 0.10631752157699301, 0.10089354971085723, 0.0019090147214724507], [-0.02216678993463187, 0.015233367624738418, 0.032265015891262405, 0.021934239517829638, 0.031994419350216456, -0.03444782888657157, 0.036147295289385956, 0.0123146443977279, -0.056544656275226604, 0.04157286374814653, -0.025105902564451013, -0.003109742510213813, 0.0794909580384993, 0.027428261347357492, -0.06199960426921062, -0.0670221802980015], [-0.035479250498256086, -0.020508923477369868, -0.03530433901195674, 0.05910513422024348, -0.0641476390185308, 0.08614516425442134, -0.12217178738730912, -0.005939508922806007, 0.018124896503203248, 0.032569643029923045, 0.07901909809167527, 0.010213043610733972, -0.023277382216181145, -0.03304497537737811, 0.010259903594138382, -0.04755369163788841], [-0.008417504940195723, 0.03983464105152023, 0.030875765655522653, 0.01175710987544833, 0.045851708521670455, -0.046711156472414486, -0.05313091812123654, -0.02416156371593398, -0.05693024111611914, 0.0416730199660089, 0.060046116455775816, -0.045793014065327695, 0.0025150609514055953, 0.052579688712184526, -0.07568792557386542, 0.05390415556241017], [-0.10093400343175538, -0.02123563983574888, -0.01004043522726631, -0.03646151820269099, 0.0016533959759827263, -0.015362935952551508, -0.03437862602584478, -0.057081866917799075, -0.04713560482966018, 0.037561800962475994, 0.05431833527441541, 0.0931204408480665, -0.02065693973481997, 0.008551796801403427, 0.01957275007762636, -0.010143436490984335], [0.02234716196643786, 0.00945649435341333, 0.013946108191684512, 0.013962542338883529, 0.03538088982127597, -0.0854070434062347, -0.046468204921469095, 0.0326085974153407, 0.029063202062927906, -0.07591111335946303, 0.068696576986063, -0.033024990188486064, -0.045336035315651356, 0.04562370643346885, -0.04510975927473347, 0.03442998384072797], [-0.06186687559712071, -0.0031131220208636184, 0.027115531517984518, 0.05866436787828522, 0.034451425470110895, 0.08200994653498472, -0.007794113917434111, -0.00036610427184639464, 0.08716712138747344, -0.005376678459857118, -0.013471824004531638, 0.048778727897897736, 0.007270953284598562, -0.0999808143302267, -0.027384839798098345, -0.0015971491875941195], [0.003901950428199418, 0.025997608396077208, 0.023416029002154226, -0.053027717752709085, 0.026538718133995158, -0.04270883449843256, 0.05316772343713541, 0.008756639451478353, -0.04119995301084612, 0.09713173706924311, 0.11718452289912305, -0.018696859914863407, 0.03235970506016559, -0.017966180720779924, 0.025839580869020905, 0.07185863413711598], [-0.010796060941265263, 0.0021803509957004697, -0.006972836974162129, -0.07377535766828867, 0.04401138607737935, -0.06750520568758402, -0.0030835601718911454, -0.02051803390494832, -0.06807576016737824, 0.004367445721292511, -0.10784834330020786, 0.008532692221264364, 0.022901537932993533, -0.007898247350352414, -0.012683722256035179, 0.015962859753311888], [0.0339572119719898, -0.014334608858394354, 0.10284756839535009, 0.012682564961104845, -0.031793521043993994, 0.007810801774145922, -0.0385448390891455, -0.07209413062656127, 0.03816565159155074, -0.0076100714505873655, -0.07943630035926955, -0.028499431918411765, -0.003932129653121369, -0.04387906767118325, 0.056670064395486386, 0.030019231305095595], [0.020897370131600198, -0.038357080425696036, -0.030015975520798575, 0.004741356681830125, -0.05590828896090471, 0.00035568391547252177, -0.007995893920177043, -0.02603881884929365, 0.020747487549315696, 0.005157613177052394, -0.030436971258296128, -0.10884965681043535, 0.03574644826767304, -0.009791751260143294, -0.08172327140637095, 0.10780169520486221], [-0.03862339725932159, 0.06226088423641669, 0.06032432846701672, 0.04147577994481297, 0.0019257163114961863, -0.022422889353805826, -0.08879253595079419, -0.022450353752620014, 0.03748921947879057, 0.003557793086900003, 0.035371492745294865, 0.026423241701247276, 0.027046114132203022, -0.026134993303182724, -0.0680543148243776, -0.02051002326418517], [0.03374093925195954, 0.05025634733440929, 0.024045905853116736, 0.05135088284965872, -0.05035490132053826, -0.13211566518291026, 0.061905028592881474, -0.044884874567996016, -0.08093792486694185, -0.06832335201113121, -0.044303605309649954, -0.02075342484639851, 0.09111630372694239, 0.061130173974701496, 0.010188880435976015, 0.07318560404053953], [0.07527647905489432, 0.006731742432750135, 0.051936780801487406, -0.0145982887364801, 0.028895092543169347, 0.019721448989020975, -0.039350175524745276, 0.009353092328483822, -0.06479745029769915, 0.028022599271263174, 0.004677099873763426, 0.023198103119455884, -0.016890754024054905, 0.03303223449412396, 0.007506365720272676, 0.03289307022184892], [-0.09718120945274286, -0.06665883083270635, -0.039715229018884336, 0.015845949146471278, 0.006954493343053413, 0.013789486218713268, 0.10815216968503653, 0.06613583647651314, -0.03723871570625728, 0.01917025262936681, 0.07899664182302985, 0.02066621121872821, -0.041289364128046714, 0.028114796621599374, -0.03657304505135165, -0.02348138012317102], [-0.02305009147938586, -0.0447307804242998, 0.06748154098187541, 0.005000945426884629, 0.07719725971388744, 0.10034806721666553, -0.029713751916086252, -0.014393109990861117, 0.028237030029103632, -0.02778129413555955, -0.04230571025742693, 0.06486693954416539, 0.004780778592650948, 0.09938011101206193, 0.05063504064492591, -0.11214759793093965], [-0.07921511946788076, 0.009180943612376114, -0.05884623171654206, -0.08279764917727768, 0.01966900885537976, 0.024540135794795553, -0.006818921343262687, 0.04756401199182725, 0.059758666215929394, -0.013604109773998858, -0.052936484931034825, 0.06111912811966014, -0.01110101854268561, -0.08449235268353338, -0.03322778057785241, 0.04740121718318866], [-0.07342482244547129, -0.03046743612622873, -0.00817151101621093, 0.007931086110437358, -0.01866196099159566, 0.053710946204152656, -0.027353292908323754, 0.1240555543922385, 0.05601275196118138, 0.006067579981753998, 0.030239946750006113, 0.004124568154998289, -0.047337480750426035, -0.02184309297727572, 0.004846846636850305, -0.013424514254134596], [0.0300273222037975, -0.03130397892164921, -0.006313649326620362, -0.10504836430739611, -0.018339214095012, -0.034932069772954, -0.02310273619026145, -0.03240111410889528, -0.10218888143943453, 0.016766623023484858, 0.020716764520684584, -0.03956283640988714, 0.0640436449765986, 0.060995759035361086, 0.073171888912843, 0.0013258145003492688], [-0.021362626698971567, 0.028435939577944117, 0.025995841148319144, -0.029682088993057354, 0.04678354596300206, 0.031249245874668492, 0.04980512068471364, -0.03555624903552063, 0.01424183737603036, 0.03889423840438984, 0.040517615885235024, -0.12086167330688143, 0.03293142070418687, -0.04700477870409046, -0.025055024351661192, -0.05389844198317179], [0.057429992164113146, -0.058992230089687334, -0.034640590674779696, 0.07251688394398804, 0.016137244953312438, 0.03243486310899643, -0.11364915532206356, -0.013591565554075877, 0.05963939256832362, -0.02446233449225473, -0.060124449751838914, -0.02628791429250615, 0.03199553397151369, -0.0013804618835161003, -0.059418329774344886, 0.046185307025630944], [-0.00039441196157787803, -0.004501156324915398, 0.006043868557226948, -0.06667688731339781, -0.04208659543955173, 0.1076145256970409, -0.010470884657426972, -0.03162537563629823, -0.010365749573787083, 0.034377747621685516, -0.020172664629113053, -0.021020312150642716, 0.016556513738764204, -0.016896281722964146, 0.0007207669466050303, -0.023745808745221104], [0.011477428666132794, -0.029645400661735, 0.03761778198369568, -0.11683562646111334, 0.026767331322494176, -0.014400588724087681, -0.007254025068487832, 0.08074648800191778, 0.018102040969514583, 0.03399247992019238, 0.037054714759418385, 0.0031052237281747625, 0.033787659808301854, 0.02530419923625201, 0.021531887480824376, -0.10112403452603332], [-0.006393617325909859, 0.11679156790518898, 0.004124513547854462, -0.0479278780502881, 0.024799810640417676, -0.007820734579638361, 0.1105542342518851, 0.09063683822498998, -0.018738859475760115, -0.05857548471786556, -0.006117534889473246, 0.009591620886865328, 0.003927165824241658, -0.007085853642288475, -0.04675678021087348, -0.04005042502527615], [-0.06562945018389171, 0.024886056499113057, -0.03523441613408705, -0.05502209342410993, 0.024491011892881623, 0.029115788137633283, -0.10128291392812595, -0.07809812583591387, 0.041736246670600545, -0.0051848025920324305, 0.14602582701977201, 0.08492265884753626, 0.06660894323717738, -0.03872658455181216, -0.0024737138459064527, -0.02344412659301876], [0.019536006770689583, -0.036902629356468694, 0.006812054124993238, -0.05668733064962351, -0.001595514648382957, 0.0871589693023291, -0.056696668075594, -0.02487090867723364, -0.128818962638683, -0.08218654876280085, -0.034820608717597984, -0.06899739533780486, -0.0001302757875927974, 0.02726502546081427, 0.04069014653444334, 0.07628160278023896], [0.025692210579628335, 0.02455621964239934, -0.04711190627878184, -0.062241675930110284, -0.004880355638477073, 0.06123605065380923, -0.13262386604291718, 0.09689057518851843, 0.03951142306307178, -0.04238224288741782, -0.03437539608752549, -0.02073099837447182, 0.08645035068802624, -0.08093681042432067, 0.07521606772272534, 0.06185537052171378], [0.03541027777475442, -0.03633021557393129, 0.04135478958580185, 0.06715665583381214, 0.04909350832069934, 0.031057354589003754, -0.07471714067819293, 0.02368649496083369, 0.02351311285267212, 0.07609838114095425, -0.0036702825743731376, 0.0022954788424923702, -0.0371773098167657, -0.02254405579565874, -0.050222005521478874, 0.013342362407970397], [0.05730787120948444, 0.014336443177695092, 0.061528264884219405, -0.013426519415792345, 0.0009493091512768244, 0.008369422773265007, -0.09695817650040778, -0.05173336630817874, -0.004945222280258112, 0.0017770901031241393, 0.10975110364320644, 0.04274723818928961, -0.0648783264955349, -0.0011408347390571764, 0.029476223530096816, -0.04188622198924639], [-0.02093067921992889, 0.0014930241334319778, -0.014249683026917561, -0.013020073941768368, 0.01488740875491056, 0.027990917172223247, 0.040282588781601646, 0.02830503535033351, -0.006220648528776504, 0.04323300501332675, -0.08203046192755908, 0.08755074036020735, 0.02124505774891513, -0.08287838866107179, -0.03336706621754677, -0.018558354409045914], [-0.015495495585604315, -0.01626527987598168, -0.05942357805922934, -0.06821954455511636, 0.022219529436857507, 0.04497509758792931, 0.02603514564562658, 1.9856473249033197e-05, 0.06277930426165347, 0.017612188606290602, 0.07771146309465275, -0.026558429228511295, 0.09532667917082285, -0.009626856757070113, 0.04793686840684241, 0.13967479747213335], [-0.08814139414808136, -0.0417111186810966, 0.02217598338766974, -0.04807253685524976, -0.0022988856878822317, -0.09045856901785683, -0.04606456375457685, 0.017648979357592586, -0.07890113442697798, -0.02134724648197292, 0.0084963329474655, 0.03265976039808584, -0.04398059459564873, -0.039266782175472484, 0.03307071323233472, -0.08068370758851234], [-0.00461608077855704, 0.008735576361369532, -0.0170561426954389, -0.03717483625695083, 0.0337900613196181, 0.01000148826668512, 0.08921392233157885, 0.09041900486918922, 0.03258119039346492, -0.05041662550439485, -0.1251601541526564, 0.006571744265535796, 0.05802241641283031, 0.004071417831113845, 0.011539722566894162, -0.05621296623222516], [0.019621473318781953, 0.033449844027852844, -0.03985693167213064, 0.003289379924555682, 0.046349447408031375, -0.04573162268067931, 0.03155591410197269, -0.027086555026479806, -0.020484081632534727, 0.11199190015958169, -0.042838611404899, -0.017261013162603627, 0.10329287644670576, 0.020610115116708218, 0.05774571588310796, -0.014372807373569883], [0.01484769425523038, -0.056568681181037354, -0.020414009982437767, -0.02672629660791897, -0.018600749311516472, 0.09812542505180917, -0.02087960022893887, -0.09342159554810964, -0.06343321030532768, 0.017022755671349196, 0.07267124187336277, 0.0028198671416224874, -0.06665028891789503, -0.007303085484095054, 0.03149571454689312, 0.00908368262247522], [-0.015970962668953766, -0.04422108560568181, 0.07190806284089604, -0.05915790934645683, 0.014458893408268577, -0.07575256706331589, 0.060680375639515394, -0.12214537267975255, 0.06590817613521668, 0.07505708717971343, 0.03976676635381391, -0.0262730371835492, -0.01955138370647269, 0.028643436966152347, 0.0207573787840961, 0.07105760708824768], [0.001639824872556457, -0.0318974296145733, 0.08528167842935067, 0.0888515869140687, 0.02542790243507957, 0.0385140918531881, -0.030431578700877364, 0.058086891380442394, 0.05371115221520635, 0.040912370965064886, -0.04388466987890529, 0.001660389788684608, -0.053447908843426414, 0.10532461934258854, -0.05474440655245502, -0.05405914736746526], [0.14698529257992102, -0.015155362753151422, -0.06977703193151573, 0.04760001312025482, 0.03183788501746813, 0.07135948811033636, 0.04411645457620445, -0.03571017486077429, 0.018004005529324935, -0.06273218078239762, -0.049976209047295946, 0.07752261632389024, -0.011366962548957013, 0.008349451996970722, 0.012004710423325831, -0.01560987717996593], [0.04183575631838383, 0.08114323083465495, 0.03520170614191749, 0.0540498874345151, -0.028620287238875216, -0.01742093233073445, -0.035204979633791544, -0.033284551273147035, 0.0637712541292494, -0.015956359445368815, -0.0073525548177051595, 0.05714210298325249, -0.08151565743006883, 0.0510483310213192, 0.0567223833484468, 0.028845119372969446], [0.021130003717964124, 0.03719611885983249, 0.015635169452341145, 0.02277561140580269, -0.011680865804428373, 0.001408404812827487, -0.044372508024632065, 0.040362915602193065, 0.014721748490809367, -0.04270109213732497, -0.035059474624179916, 0.11770161988198923, -0.01318017376693528, -0.04011498273245434, 0.05001240006656713, -0.01008959241596783], [0.004851051519994738, 0.004715710655001762, -0.054609412281559924, -0.025787449400101213, -0.059792251866655335, -0.023057167267769758, -0.11835389031987807, 0.020181253206665348, -0.030518516944298288, -0.029666579751068838, -0.07129509863477962, -0.021306969389208914, 0.048139341278464705, -0.0190215780444343, 0.07788993988687316, 0.01302393944028511], [-0.028651952757365255, 0.01667520118242295, -0.062076356038981644, 0.017951008382716255, -0.009308381431410315, 0.026093521266857496, -0.03974749333747538, -0.08260684979081533, 0.003948147115485851, -0.0188622166239919, -0.025178778898704787, -0.041006340713142964, 0.005109260069479609, -0.030871176334742678, 0.036571186657413976, 0.03175784661812416], [0.020251189251363787, 0.02597895616337111, -0.08258054753931825, -0.08119875888704531, -0.0012141631659759802, 0.05011961877168337, -0.0153530787645748, -0.11996551267926094, -0.00829220314867004, 0.04204791387504938, -0.01778923245704224, -0.03747272892511564, 0.04077461641525608, 0.007917467070125904, -0.04564921932542835, 0.1423148516433245], [0.06521352450187314, -0.008330766975540149, -0.017603771383150443, 0.057534727215156324, -0.08199476932925708, 0.0272476222820722, -0.04743246940973714, -0.020088119172109474, 0.04699952743052549, -0.00993484553080581, -0.06142223322766158, 0.003985463660447063, 0.03501726491103169, 0.011785555446565253, 0.07443035400704175, -0.06892690445723218], [0.07896279248985003, -0.05497306297132457, -0.10286771507361563, 0.0982351281547805, -0.05910527350217104, 0.039843359938542905, -0.13059497856399127, 0.02435392437116473, -0.023423649116909757, -0.01774092135487556, -0.02573272309069737, 0.025117678299786866, 0.0030725671462907846, 0.009580644301588318, -0.027362945610609514, -0.016968748533775217], [-0.03783600971746865, 0.040552342785253756, 0.048491295176874526, 0.06261719530860917, -0.0011391733654069112, 0.007473391287022897, -0.06220684883541354, -0.009898983003410147, 0.026176007649014028, -0.07568105529986431, 0.05787854612515609, 0.030407749229005344, 0.027086991160465656, -0.0064104287302723635, -0.011562097921789749, 0.017554145659475016], [0.03673239495025516, 0.012289239347399944, 0.011353308831852392, 0.025276325204491506, 0.04275943217571398, 0.039136958147700754, -0.008978666739167576, 0.03126352743418567, 0.03741635243617888, -0.03611833072208919, -0.0507532418756642, -0.004508473114193271, 0.0022962041631507113, 0.015372129655780907, -0.04884944805408553, 0.011108350159765105], [0.03606465509106063, 0.07092378991335105, -0.07871756943698556, 0.03510268326417889, 0.048709198225691065, -0.07800110345268849, 0.06170240983395116, 0.020664710033729553, -0.050295736429596824, -0.07966288206973843, -0.0561257123170895, -0.045879643251661044, -0.050811029201421845, -0.012578307522306062, -0.007200287226211178, -0.05663691852694753], [-0.03934519676320215, 0.016625138399953412, 0.07836810635673963, -0.05065206913999677, -0.009378976726528973, -0.06900846303793905, 0.04435967337869442, -0.05614138019966105, 0.012188464481915925, -0.0019978952957037848, -0.056793349719132816, -0.0017441482511692055, -0.053706176057325916, -0.023844892740293985, 0.019745403249646777, 0.05913923033679592], [0.07904284048508461, 0.08301910452816398, -0.03851199512863552, -0.025061188502341094, -0.030890751932917303, -0.003001225423565891, 0.02770714783759727, 0.09326037643207331, 0.011642470924636628, 0.06304554283493667, -0.004467137578774373, 0.12809288725539728, -0.01658883179459129, -0.07091811600374794, -0.06883538721000683, 0.05116020762637991], [-0.06277185389856557, 0.058764453068263334, -0.08189521404943166, 0.10613065175043823, 0.01067706265068981, -0.07701254019431962, 0.028691318097131074, -0.009852708937982874, 0.00761772832421301, 0.04317166633663803, 0.09756346051713596, -0.06835291881341352, -0.03183691050491905, -0.11675214721365396, -0.029319152521789304, 0.0986095538590392], [-0.01731332436390918, 0.03469469858336489, 0.0367448830006839, 0.005010812586719423, 0.009182591606535794, -0.05784575572187074, 0.046587231456867675, 0.022592293591832638, 0.01931041927679679, -0.05721681739661987, 0.01207654366028676, -0.006899117358678964, -0.12104664837818169, -0.01758219969948092, -0.005151694631831968, -0.1349745326506888], [-0.016459290015761477, -0.06687234008629642, 0.05104890238866005, 0.015047854575798469, 0.08170051989211559, -0.09085060559317926, 0.014157640462266662, -0.020349111716869456, 0.01312691416224334, -0.025885179620728217, 0.028066285474771573, -0.06256575491666701, -0.028426837451935902, -0.0471275127377153, 0.04442943557758899, -0.043484699365648256], [-0.013257791111746695, -0.021022349122583064, -0.04366146716457279, 0.0238205579876118, 0.1037440315195014, -0.014258805782015972, 0.05521808775171269, 0.02818491572000507, 0.025952785651545327, 0.05080484145658182, -0.01781027746343683, 0.027289119256299118, -0.008244147433122287, 0.009166901001081463, -0.006409953150306876, 0.08450201630847932], [-0.014227819477891425, -0.031595851459823056, 0.07504202088506876, -0.028633005678139978, 0.04621443552266871, -0.04203217572984819, -0.016990140831420458, 0.01688983775387744, -0.023572071582093845, -0.09010954427553228, -0.023311598379273754, 0.04245645512593694, -0.0397236264094849, -0.0826714261983351, 0.04016588227834238, -0.044879356790481814], [-0.005019120207517716, -0.018029707452353008, -0.054407307988568146, -0.06700898580646454, 0.10927442604731513, 0.04195338153196193, -0.01272004518301624, -0.11456040177186388, -0.03770602552196065, 0.011961828678172805, 0.036777591115665954, 0.0217835030604149, 0.049040482263158366, 0.05696828493429999, 0.06537533057707012, -0.017146659285252705], [-0.09712215707100104, 0.07735788821851669, -0.02408866043720216, -0.020847887182790275, -0.04080911417527905, 0.07704950412244793, -0.039909063548477314, 0.02430188664361874, 0.008948753215621014, -0.033463919366950944, 0.04199520331096009, 0.03288864568209286, 0.03918404185562941, 0.028703627974935215, 0.07596139974917517, 0.025692584626502302], [0.015908650349477704, -0.046379633585109006, -0.05249155058280996, -0.06667998258071338, -0.010166272201124585, 0.023876563414583017, 0.07174586465246413, -0.014875484412929582, 0.0353501966742994, -0.13274517051532128, 0.010603373132588686, 0.06161602090189827, 0.07270667998014674, 0.05624771727500657, 0.05371404861335097, 0.040526306530013184], [0.03700630276466888, 0.02698611554824957, 0.017948869815741106, -0.03199118579646619, 0.014671870480518025, 0.02364327206578503, 0.10623220823625162, -0.14013300620162142, 0.06650351866304585, -0.08405623908686068, -0.019486297735945343, 0.08085530337673047, 0.1317093954986434, 0.07666061152044297, 0.1411043139103528, 0.02572608967119544], [-0.0028786772484939273, 0.05460520600205405, 0.03174732135138706, -0.028627050828779994, 0.0026387831129667354, -0.01001238245537983, -0.014219913464920972, 0.02706138278489473, -0.03821762467337845, 0.02988632105895896, 0.00798019604011624, 0.09351978237250955, 0.10604256979814711, 0.06077920843900019, 0.15698018572780595, 0.05021180810185286], [-0.09584787377627649, 0.04280134591952913, 0.026398882717390555, -0.005707772312914165, 0.06579949442553855, 0.000666466016752004, -0.0282911927428637, 0.04452485115978289, 0.05804207060644189, -0.13342225870333194, 0.09683992711643992, 0.17292871902701468, -0.0050021123276539365, -0.015698037966580116, 0.09368963313310233, 0.008984726364881878], [-0.027797503296045738, 0.08753967963843201, 0.058125854040219166, -0.07225416855650864, 0.02144639865509699, -0.008474807327646779, -0.12836533207547682, 0.0752516900876733, -0.002764337230959945, -0.062444921455792154, 0.060972417664249566, 0.008235688840970706, -0.004701271924936798, 0.1961797346055423, 0.0964896108300451, -0.02393298732519355], [0.06945938511287075, -0.04285021222138957, 0.017381324659060213, -0.053949116486995075, 0.07245736679417568, -0.014264930915167074, -0.06183504473090513, 0.006960072630532005, -0.08176189545254961, -0.13135456393034134, -0.03995424855733295, 0.052188973647419735, -0.014450121319194466, 0.16059819037725587, 0.06612206864036586, 0.0024208567964387156], [-0.005433122647059847, 0.03015959867727301, 0.053521820474143916, -0.007810576939658323, 0.05736925464932744, 0.07342970557072125, -0.03168697164502697, -0.01380421221459644, -0.030315166655088797, -0.030432188819628846, -0.008820948248800514, 0.002544271325779304, -0.0367913916965816, 0.1553067848344457, 0.09065738502569641, 0.0055787398273754625], [0.03965366049492983, 0.017413960376656695, -0.008034362574924132, -0.011720336954768328, -0.014049122634997753, 0.05480711992910549, -0.057924970639823804, 0.08730193233107662, 0.08072522762662689, -0.017118508000865798, 0.0290868197408694, -0.05251307041855106, 0.04280870090915705, 0.07842025829768232, 0.07613915188157348, -0.04641587398539681], [0.06136750126206689, -0.017939222739876727, -0.0028251612817942378, -0.03553164674278564, -0.03469854160289661, 0.09636559767518384, -0.04061895331300886, -0.007821081016425386, 0.03509415660816165, -0.012282808452779192, -0.009497102088674632, 0.09159143731529808, -0.12082431321958241, -0.010893947838234908, -0.030350641070273153, 0.0334755462101826], [0.09859093857407349, 0.15507594916843462, 0.057068212792904124, 0.02206596293618883, 0.003455469277098123, -0.00860508493406749, -0.09243279669846233, 0.06011178661572961, 0.029899075338841737, 0.014506532204464375, 0.010012086447220774, 0.06358009643161136, 0.011272835725091414, 0.06834259368089075, 0.11182822704756504, 0.08453483000910263], [-0.051644075259311424, 0.10414974288512495, -0.08721086688453074, 0.05451073645755358, 0.03870398839046297, -0.04865923292477059, -0.031252082597665896, 0.002510678403011195, 0.05640149848976823, 0.00044397201617544363, 0.08620716922322699, 0.07153790878081963, 0.028644672152829835, 0.1638528789595538, 0.0444548921980841, 0.007954082570354067], [-0.01212450650208954, 0.030419237874165516, 0.008692345301494134, -0.041119507080862754, -0.01622022847361801, 0.10193344922070646, -0.024817167371981322, 0.1140419724706496, 0.05908337918780495, 0.04310617612393586, 0.03501351410187799, -0.03718567371616024, -0.032574578172720484, 0.02228112802763253, 0.032881909887929404, -0.005690594012330018], [0.02397120539823315, -0.027534551167934886, -0.034266848047961936, -0.015031671742699856, 0.1430023266161681, 0.05629500057817957, 0.014736291223866577, 0.03616837220220969, -0.020048304117892254, 0.013245192249943446, 0.03268049612139602, 0.05986951231044759, -0.0101387573365613, -0.0017675569819007627, 0.05821025492299074, -0.021720100835351648], [0.011858000970444284, 0.12682308686521476, 0.01699256571855482, 0.057638190380191044, 0.04026106536334089, -0.010721843647331508, 0.011739996131923813, 0.01944431281522327, 0.030453948250541794, -0.019479247021677464, -0.06691263028593214, 0.005385124240894505, -0.00221175727868895, -0.028791048841885523, 0.093252954323974, -0.038577978256269185], [-0.02287509632561787, -0.015955191585237432, -0.0408178924066936, -0.02504033741487285, -0.02049138787299158, 0.006370998009167279, -0.004570493477844364, 0.06882816138926215, 0.026131094378645272, 0.018504407502386862, 0.00725575450905012, 0.03567740552451426, -0.03284486749458775, 0.055589683063264644, -0.030677367784613132, 0.07080288071984996], [-0.051993074230987264, -0.02651104926876836, 0.021798047006865235, 0.06469453662142365, 0.019501610136129957, 0.03603742847644298, -0.013344135624115148, -0.00954671472855221, 0.02812856946797929, -0.05379200392004478, 0.022355836056175388, 0.09318506361996365, 0.05478374829247346, 0.06546910350170032, -0.043478060010994364, -0.02235874897210665], [-0.03348943143910935, -0.004218068154927621, -0.04753952900556088, -0.015803050037906607, -0.022365448407942343, -0.026464516242809256, 0.024658947868666202, -0.02225591024031561, 0.018809002683247342, -0.047784032930852864, 0.07516426887901217, 0.09985415281651476, 0.04454487800237362, 0.038427924215655884, -0.1575960090432979, 0.001632068971242962], [-0.06168645068222354, 0.05419005635914113, -0.0274838371883865, -0.002787830235806567, 0.012946817216102456, 0.0147193431776517, 0.04694814383239902, -0.048600902724378434, -0.03764320362763534, 0.026015860696638495, 0.08276519785355689, 0.011477166696536242, 0.06816496217167357, -0.02457819880742724, 0.12101830759194554, -0.026085053511611986], [-0.07376636882792234, 0.002619418641197985, 0.004151839627930159, -0.06746267584167127, -0.028418450351896034, -0.017783392563645566, -0.06391897669134272, 0.0017304315389808297, 0.07647910038543136, -0.05431324337853212, 0.05253033132552683, -0.01751137573381974, -0.035918925644168154, -0.04008560598761339, 8.327654769042769e-05, 0.04863112185212268], [0.1147509192975442, -0.02147723597205083, 0.08140221687615229, -0.023073860316047155, -0.05853686773200964, -0.03205954136274312, 0.02004297395148898, -0.048243692379142965, -0.05542336960343542, 0.04876808960341402, -0.07527801308102448, -0.027820772004288317, -0.04476061233326539, -0.05121470391309175, -0.04232626061898222, -0.0018427552440553302], [-0.011772306859853546, -0.025975073904270302, -0.03966844536379812, 0.031793451015341624, 0.03941019950925937, 0.04169583985468209, 0.008869822293322215, -0.04658887629087372, -0.12117249795039223, 0.0075203157255180645, -0.08831653418261638, -0.07466630534855835, -0.06257711838496327, 0.0035747777074445816, -0.09777310831709635, 0.037145684368824594], [0.024166442737921595, -0.024538945296821813, 0.0011298348159055258, 0.09881207610819301, 0.03250843134079228, 0.10523209958644031, -0.05448512261905685, -0.05884703766221388, 0.02268521389177059, -0.03475273887596807, 0.07258689802962481, -0.013683522980723633, 0.02727361652717552, 0.06610463476696805, 0.09986882275218957, -0.08266627410466634], [0.06276320025518853, 0.057633851336631604, 0.04551727650297654, -0.005374975987932276, -0.02726607137065194, 0.012301066080967513, -0.051701796444923426, -0.028711274835086432, -0.04998056568812003, 0.007607975621686791, -0.0001410775109160842, -0.018768427765001983, 0.04955246885755378, 0.012228870655487773, -0.0486638915525232, 0.12650262946081559], [0.0002081465342243032, 0.01792559120098662, 0.00342379941821397, -0.018803688366642046, 0.0683693994090435, -0.014097435126318341, 0.06868901547336696, -0.06140332991100421, -0.001955257024862098, -0.061118767671409446, 0.007733397708086319, -0.006093062959910022, 0.10814213469805894, -0.019280686594635568, -0.01909299374102326, -0.08228134427146633], [0.04378438756623316, -0.0010638714693909093, -0.014469159214545276, 0.06793027280636274, -0.01852294635527537, -0.04686657384247452, 0.10053263544982367, 0.026384897886527574, 0.010121451301515257, -0.005307563259724926, 0.11974140819850035, 0.018569095426480036, -0.07098680251050461, 0.04455241433043252, 0.160944650281014, -0.04242925870677719], [-0.014833508267114765, 0.024585010008952256, -0.05479596967346294, -0.01448425714692221, 0.04532716732062376, 0.0004924837778611142, -0.028582014982914898, -0.023312247665117195, -0.031769766267797137, -0.027965328414796025, 0.012915360363270033, -0.037175295046649647, -0.02232641463744085, -0.0420389951520719, 0.016857465707423504, 0.03861543587208888], [-0.0065001789778433875, -0.05045701587036291, -0.03814696578114803, -0.034983431976673744, 0.032644999407256084, 0.10158491020700613, 0.03535631935374216, 0.048847183839876046, -0.018387441297227698, -0.034308553140385854, 0.12004284157890255, -0.038928655047529216, 0.03403546707905877, 0.09106623798411981, 0.10569706591667086, -0.0691841960752997], [-0.05538113854083823, -0.009850069784160621, 0.09500449401487113, -0.014994353366973023, 0.13882357462630288, -0.049948113167713415, 0.03120916266982555, 0.08172425537348614, -0.02365173445301684, -0.15033046443487375, -0.039680213652501975, 0.0704431754025711, -0.04602829118143112, -0.024702710448640995, 0.13088152846036546, 0.01979942974751492], [0.013222061012282642, 0.016395789382722625, 0.10674952065346084, -0.11937299034823161, 0.14738075646148027, 0.09818236221575662, 0.08547098814843922, 0.01736938439471015, -0.0963412311554278, -0.13020479299249368, 0.018496837588232812, 0.01787645029333338, 0.10042892704023865, -0.015430284241084148, 0.07980422281268337, -0.06830843942429785], [0.05035583203274462, 0.036665319171349714, 0.09392244236109176, -0.11409689246968098, -0.07152932879362467, 0.022408841820276967, 0.029128366058943166, -0.006141629716066152, 0.005646321018481735, -0.03917936017665833, 0.03410233149865105, 0.0740384445662555, 0.08921791463611543, 0.09899073913864131, 0.16634265074782228, -0.02056678224005834], [-0.1038485443152102, -0.04927695414272219, 0.05998566692131628, -0.13863079731298328, 0.07907467138263198, 0.08215425507466374, -0.05292087350157657, 0.009166344759482538, 0.04209912552460987, -0.012815349537587221, 0.09847910715848368, 0.08393052268707764, 0.051114390813827036, -0.015165776725224124, 0.19018542491924986, 0.025715994932160494], [-0.021490395743966925, -0.013898102412060053, 0.15601227462142508, -0.16567741366390806, 0.015440541463679989, 0.17514728882574124, -0.01684988357143524, 0.031570628413484396, -0.07031234430673963, -0.06674073814609977, 0.09232759332729346, -0.03032458816108051, 0.07607923744320276, 0.09247451217856048, 0.20129069882592002, 0.10127206693183018], [0.023920902342086058, 0.07832920864721533, -0.01878151562902817, -0.09841064000337228, 0.19298702606179471, 0.1278757041405081, -0.1938396156138945, 0.12415543742722195, -0.06981231745225563, -0.09598157755382532, 0.1823202914240741, 0.16450975171566135, 0.09650533643416875, 0.15136488430218073, 0.17433033114406557, 0.08975904087592275], [-0.03525582786584232, 0.14963124127542485, 0.015706633012633277, -0.0308383758167531, 0.21449717915817543, 0.2330325356676359, -0.14687023662374285, 0.06823901340236148, -0.017768895380530295, -0.04683149892467676, 0.1054706156117489, 0.1277175905606816, -0.01838078720249141, 0.23949358023301065, 0.2548900074596006, -0.02214551819837737], [0.10243124028586284, 0.10319533643775165, 0.02479933562837793, -0.04945253136371558, 0.18742733951075258, 0.16701117956362987, -0.2618653129306142, 0.06325078305502305, -0.009326989534483692, -0.02231069958429292, 0.14118016279446038, 0.05580003172769968, -0.01251562097398835, 0.17595657704579243, 0.2880601671546986, 0.01215548941311954], [0.011887629477796285, 0.1463939508364172, 0.010575101668086185, -0.12357783560545518, 0.17978926989157964, 0.22099237390838833, -0.2941437655384534, 0.02758904742723045, -0.09029295313003165, -0.13055148241295708, 0.162900293594989, 0.1066076361851019, -0.14512821966037162, 0.20331240360708092, 0.34308499511952656, -0.02491524509194497], [0.014281885175886421, 0.11382926757671459, 0.07478770364793802, -0.007834152869537947, 0.11375933413025287, 0.22236842594029083, -0.3311364477119264, 0.0436889246581033, -0.0028778049041454446, -0.12514665995440696, 0.10950218694900402, 0.08471583306933629, -0.10068526438399471, 0.2254296023456237, 0.3369076483893561, -0.0576252315635722], [0.011606130928610028, 0.11380140767979192, -0.03954612156818668, 0.015467418694071413, 0.12602393917957394, 0.2014974559614084, -0.21893193608415817, 0.01992741501904849, -0.012774684387198984, -0.0557619318101309, 0.14797037947398908, 0.18993024374323977, -0.11031983086061414, 0.1822177797577269, 0.31677418618289865, -0.03131031474724181], [0.05505626669381406, 0.15154957735021143, -0.008880648933429458, -0.066712854129867, 0.10029842584872577, 0.14197292661208397, -0.16369608782041678, 0.025011567950117827, -0.012709754419054012, -0.06882836436898128, 0.07951022940576931, 0.13973084940261837, -0.06536095101913195, 0.08450292736695178, 0.18409795602711856, -0.0130220739251803], [0.05467223486704495, 0.02498620230859171, 0.03437944127602693, 0.021867482061438417, 0.10927229676594061, -0.027957320439358592, -0.15348545274517866, 0.06708753652774342, -0.019844273263896352, -0.10112881916615436, 0.11161712684470325, 0.175034528397548, -0.09267408901804274, 0.050154265937748854, 0.19075027445783657, 0.014784812225535963], [-0.02687419310362559, 0.009726423526095597, -0.009024903225987585, 0.01485223790921114, -0.014579785545732011, -0.0034737883643237155, -0.04257501639496874, 0.01227193340685546, -0.11466933774521686, -0.04813962966888116, -0.04578930067481926, 0.07075359148144533, 0.04201881266641446, 0.03779529480827873, 0.13699220370665532, -0.00523074049296638], [0.11875108565277143, -0.04149839028990723, -0.02114445112919231, 0.010954283834939417, 0.038190909211804534, 0.05224213413551629, -0.01995950090614894, -0.03778780253380334, 0.015318449044491447, -0.027006727055888337, 0.06861484767454147, 0.07386653800229913, -0.025191712871565918, -0.0062143886176905085, 0.0304324977860115, 0.009040637772247196], [0.01629368667206013, 0.0016068625157170209, -0.011877502789998662, 0.013969979525336051, -0.013299756041694215, 0.007632105457247086, 0.12568801067924598, 0.02313658086120933, -0.04106904706358708, -0.023063470407117936, -0.0030114581870346623, -0.005364249886471721, -0.0012843828880550947, 0.027973849882259996, -0.052708989742789696, 0.030055627401115274], [0.02026235374742969, 0.049335075573201374, 0.03439390304696403, -0.004836021929733484, -0.010328302652210943, 0.0015736546323347964, 0.09922767642530313, 0.03627833693779998, -0.02739769905474085, -0.020804676948170044, -0.018103013279117123, -0.07009378395203847, 0.037152592987321924, 0.015165462850623423, -0.008813870092107195, -0.04436660821429549], [-0.06685674980990884, -0.027759366269716954, 0.021418854843347056, -0.05480557347421349, 0.09442226296924013, -0.06469861095598596, -0.12066913753940138, 0.03968008578332471, 0.10121960277041059, 0.055048346855243464, -0.0013607962487988184, -0.01449725709730593, -0.09202697967416346, -0.0004470412253666863, -0.029222147204423243, 0.08987789880408517], [-0.13421248239520828, -0.05573018504146054, 0.10124297074255392, 0.005600083816053376, -0.02615713783494568, 0.028479166883864624, 0.009423414387147173, -0.07377212802111224, 0.050810259732276805, 0.019708302848936262, -0.039698743159102635, -0.027128093952816533, -0.07384120473509725, -0.05144561727058184, -0.01920205975859266, 0.03240062936832642], [0.07444083895516965, -0.11545151618964983, -0.0031140529152366403, 0.07010200254729579, -0.15144606249582945, 0.009234789166982935, 0.08769381618178887, -0.005450412727279391, 0.014423624458420579, -0.030114286679896567, 0.023428271729816787, -0.06519492599745681, -0.023242727733584375, 0.04064627006679272, -0.05127635856271721, 0.031637643344719385], [0.0460713967096746, 0.04198196345618849, 0.08578180279567331, 0.0036174136829767796, -0.013088823786343613, -0.009732408664809289, 0.03283533751206352, -0.024993833108293995, -0.018641784645014998, -0.0344727323596356, 0.00995810518124317, -0.0006546013294561278, 0.094455446978942, 0.012271697397521583, -0.02690350903433686, 0.0068630090879432245], [0.015263438448407536, 0.04446273834760173, 0.013446986375417908, 0.02612863356121759, -0.017354075784714228, 0.004035835963690607, -0.00735985654157392, -0.11298664802772433, 0.04298868108577839, -0.1062466063809842, -0.03529672948643693, -0.018829308421843393, -0.004704764533187396, 0.0152056001860541, -0.041338877360285, 0.06074181127589236], [-0.05995456879913187, 0.013611804085851449, 0.05070669310154023, 0.04353684303827262, -0.02981781807201926, 0.03319253451614015, 0.006809150380252127, 0.008724002704210759, 0.014562312968521831, 0.04952134365261063, -0.05759154701383982, 0.02850868701622331, 0.009250388942200406, 0.17888782885291107, 0.04458188041450095, 0.0032742088018941863], [0.040673681902592886, -0.048020134771310875, 0.03187574409613218, 0.005663125892685329, 0.05106493782738131, 0.005414324234015072, 0.027616888792949452, 0.0469112505807668, 0.00961706061593521, -0.06685881708423766, -0.021308493342335765, 0.07049769596204443, -0.003986057777496698, -0.02566011314639658, -0.015523652016712703, 0.04555132617223748], [0.019309865421889904, -0.002685677764146008, -0.012177978815572676, 0.013305053593237668, -0.051130499458505035, -0.10038196788451734, -0.048373591190909296, 0.050999690992405124, -0.007236764236039623, -0.006886663825108832, -0.004512735798795081, 0.028926973395627362, -0.017177608790848398, 0.07504478442816247, 0.05588672474098451, 0.03894240624010356], [0.07165626899858603, 0.05415603159377238, 0.04515180181500225, -0.027335159763007596, 0.020853961177254424, 0.031188241202646873, -0.09045410865027223, 0.009442985349475214, 0.013013347678986037, 0.05004741628621804, 0.05074828168099592, 0.051146420360410776, 0.01567144283661103, 0.053371628821304494, 0.020890797685604107, -0.005242851141025758], [-0.021004127526565202, 0.028439525809960797, 0.03772913856520737, -0.03246507886657235, 0.010500513827807546, 0.05691996708004912, -0.012549929809916585, 0.07326219576028357, 0.01798424790598476, 0.039271999184530795, 0.04189978587664531, 0.08958714078494112, 0.07286040205900429, 0.015343453846545441, -0.047800485675273195, -0.08267621278806864], [-0.01744475749603993, 0.08615056723826733, -0.0832108614713052, -0.03248253026465104, 0.04697579240362839, 0.048385362330511245, -0.025382899339742714, 0.11642602182244016, 0.030890852418300772, -0.024548888591524036, -0.07610987777110621, 0.05559269709588809, 0.06902324441615232, 0.03370773471998115, 0.11201337232005383, 0.04268218533717483], [-0.06589062155949614, -0.0612272800320351, 0.06081039713301079, 0.0008618701299722468, 0.10570366009237177, 0.048497280604828254, 0.019485314510948995, 0.02535678945851183, -0.015487328056055735, -0.07496194829279104, -0.1247398571101797, 0.03959460716588453, 0.09383116261243592, -0.008021033449390907, 0.13185529604570018, 0.07610071153756144], [0.029007543662129816, 0.05599771281874535, 0.054083063926921325, -0.04953907691077358, 0.08186182997843654, 0.021597779993266623, -0.1365072133412923, 0.08678026396220538, -0.08543301800326643, -0.10617225145630167, 0.008318474786659065, 0.00277572997526641, 0.19906414660958888, -0.04887311317850345, 0.08969972968973826, 0.057528072823641564], [-0.02230506294707181, 0.038082101747476345, 0.0405014387940551, -0.03221356344879147, 0.071802080774949, 0.07604841991723514, -0.007086802185322994, 0.13336492983557252, -0.03195008523944743, -0.16230879558026337, -0.04358676543581396, -0.02118446685387149, 0.20034583376827503, 0.0971761494423475, 0.09705987479690165, 0.1288439721284065], [0.04447399068645809, 0.03851152371598089, 0.10047553933544764, -0.07119777744167273, 0.05552185754710295, -0.054543684299784005, 0.06079413524808683, 0.1534006599087025, 0.03322819154889878, -0.140661508016368, 0.009887120524570492, -0.024154058456576456, 0.22062564190529638, 0.010302284732363047, 0.14779838757370403, 0.05788176242461122], [-0.06116448479138808, -0.05047661407331538, 0.04044160121241105, 0.017643718591596014, 0.0760921238317903, -0.0558135589873095, -0.03430418534425403, 0.2785836959553592, 0.012698019763384867, -0.08283180054290974, 0.06704703879839784, 0.014502989618586102, 0.21362295416384, 0.005890089319528718, 0.17736700356671808, 0.11532098658264817], [0.060535907363194204, 0.04235194427145172, 0.10183509162888917, -0.047850416994109926, 0.12369222347874399, 0.1594107661256519, -0.044920394299621, 0.18906143069661652, 0.08877983441435727, -0.04801355994494707, -0.06256240829539547, 0.04526550816565729, 0.17942098050907357, -0.04230924226784914, 0.19883396581754478, 0.18010726358869428], [-0.017185192040130977, -0.012521183613674111, 0.12247560897135419, -0.051835481914559396, 0.1567022335133672, 0.08986862654319057, -0.10084761170469966, 0.25246953577468156, -0.017539376870878285, -0.1211420133001535, -0.00906815678006473, 0.06762067007628055, 0.13765509862812095, -0.05335683168230889, 0.22034919240293172, 0.2958995036828512], [-0.005676733858786035, -0.14964219324620043, 0.07754667768515648, -0.009785588239372936, 0.17555068735825252, 0.10791678621240397, -0.22318899447389065, 0.2571800933113113, -0.10217809363115857, 0.018017470751933246, -0.0039009966867313882, 0.02686362096539297, 0.03979286507290311, -0.015056786690156896, 0.2539634286308466, 0.09756696661921468], [-0.06602176943936, 0.028700681673916584, -0.0038849471042432466, 0.0005726078567414813, 0.17294414458695487, 0.1581341213012588, -0.23026801415164674, 0.23415657212715538, 0.05107281948303761, 0.026521556625108952, -0.012573279305010392, -0.0030783550642915873, 0.006163658712245931, -0.009323214658721761, 0.2118867455160522, 0.0139596497265466], [-0.0192633559648113, 0.028800110738898838, -0.030165123408885882, 0.04312747841609518, 0.14826737309744445, 0.12630306883760595, -0.1170562276820229, 0.046365138743665046, -0.06351772298728765, -0.0527593502950665, 0.1448227345397965, 0.07112931692304673, 0.07818798560713676, 0.1026801133738055, 0.2817117864723622, 0.10700559809680524], [-0.10832249130461058, 0.017727006740027158, 0.015049374552359341, -0.06459159698646737, 0.24821478422437696, 0.1493795740241415, -0.15291217707009866, 0.14304052216248067, -0.04687608218937725, -0.10262264116705001, 0.1418709260717622, 0.08972223990387829, -0.006523854855178105, 0.11146210200427888, 0.2423763045347969, 0.13697287473216654], [0.053400588803306843, -0.007099363483688997, -0.12254438922932674, 0.04805719404497944, 0.10992619297744746, 0.002604662700135803, -0.08387724436944216, 0.06411007351560664, 0.14756783970923426, -0.04928448417290679, 0.14107393114272754, 0.12398111143709294, -0.007181208211854177, 0.06689079417713116, 0.20520124793320846, 0.023934069630517765], [-0.035874802422366375, -0.008408102404710703, 0.007389825266415964, -0.036258899768755765, 0.05454277197558224, 0.0279254177954767, -0.08495060383558885, -0.01707927101916774, 0.04219976939182059, -0.03288617906956413, 0.19417680017453307, 0.09745254124147984, 0.008700654135788887, 0.08424189301273201, 0.14226393387815695, 0.014886566076130288], [0.022648444376953892, -0.01807726758630082, -0.04806925574493822, -0.1576320220071023, -0.03965869347657931, 0.02696607886890743, -0.053717907405706644, -0.03840540525022995, 0.025101844059325848, -0.05159705910270501, 0.03013343910761833, 0.10415606935927013, 0.03193179079086015, -0.04959795055827956, 0.026641499171348514, 0.07380487408715469], [0.10099718817246923, -0.01349423142914808, -0.021852828082526834, 0.04337577423817324, -0.06996775135838346, 0.0511999001528398, -0.0610543999321621, 0.07798501919072483, 0.0306744548674722, 0.011905151002110656, 0.0675815176097509, -0.050750024361580374, 0.03877710249255772, 0.055597317374916674, 0.07515065681007532, 0.0012629460024551305], [0.05702612804633166, 0.010451403415191086, -0.07110767755766907, -0.05723486594194855, 0.04450688764304223, 0.06386218730560768, -0.04523546661140383, -0.04242440228180057, 0.02176713881726941, 0.001685253963693635, 0.006890014147759742, -0.07566074566048638, -0.016464735950713252, -0.010772262890196336, 0.023295993526971207, 0.022745147310242884], [-0.031752534275643084, 0.030478976297772763, 0.021094121552526303, 0.009365309816899927, 0.011947827400393393, -0.16820216006664582, -0.00467617662804132, 0.0491915616164001, 0.021248660535171663, 0.02258268011039276, 0.0101761613191047, 0.003332284891177747, 0.0192809794692479, 0.01881012578420871, 0.0565691021151838, -0.08129213786381367], [-0.05969072302723614, 0.028211474940766118, -0.020291233463729064, -0.07691173232675216, 0.07113875939128544, 0.004074333705528085, 0.09562848245610554, -0.04767735215836547, -0.010660617862843445, 0.039964121001391205, 0.07684917061190555, 0.04209503365212649, 0.03125214837836382, -0.049239466456354415, 0.013977115674568738, -0.03542822064211841], [-0.0805826292933351, -0.005781119098656654, 0.08165701621911549, -0.008992498157351328, -0.01260528052163253, -0.058245248936397695, 0.004680473906921376, 0.03313823697147973, 0.07940989989629603, 0.006299783437800095, -0.00022323224550466615, -0.018444040983086184, -0.030436359078541985, -0.020475387019657815, 0.036610297993819034, 0.05880786797685965], [-0.020699364684595503, 0.009580216114297687, 0.05360336588976473, 0.05049551605125563, 0.04475710793652425, 0.030842456746598492, 0.03549178836615148, 0.0453815682131367, -0.010487241593976243, 0.06228021650597421, 0.009088486487947868, -0.08435924329891191, -0.04590401490961982, 0.010762465716897344, 0.01713648965366445, -0.06646748592092076], [-0.05568221889973023, 0.07867597733915478, 0.030333305804067446, -0.03326604937119679, 0.002527562242063996, 0.06437969630604518, -0.02267805153671819, 0.01976108292753003, -0.08880389785687946, 0.024998026645416845, -0.025979275364268643, -0.022646362447673297, 0.06880442967505694, 0.005461627985816425, 0.00735891714692069, -0.02668596917319476], [0.026939355999591113, 0.01660160377827956, 0.02314444714388521, 0.03513592628838004, -0.07049921830081056, -0.09527727644005836, -0.08736552765655707, -0.06169298197876444, 0.0045401373633352695, -0.005710426199487678, -0.017682174099316675, 0.04890493663013778, 0.003179531512543875, -0.053731694005741334, 0.06823762458829445, 0.011204622944693687], [-0.034162028083106734, -0.024926099002991496, -0.04201076407749137, -0.03348141673250587, 0.05417160092370251, -0.03997648186533114, 0.02152723148938746, -0.016768316291951996, 0.03215688117295805, -0.021759404406944894, 0.09524620321739434, -0.03548642207548041, 0.003600839809625973, -0.028937612214271057, 0.017893356199631602, -0.026440922520285584], [-0.04629774982227166, 0.07945153401899345, 0.05929627502224615, 0.07026685752328211, 0.0754853026965012, 0.06716665776526067, 0.05286517486857064, 0.02696141430117709, 0.00535890524103151, -0.012947551628057863, -0.011015934867541259, 0.00961031336243908, 0.0651452147428623, 0.018863744545301764, 0.011869484028802809, -0.015083680732105793], [-0.05986411976753057, -0.027439124402605933, -0.05201148763378991, 0.054075433613454835, -0.05387004113332979, -0.01652205434850401, 0.005368155245317043, 0.06984058245634843, -0.0057489526704146005, -0.07544675373078834, 0.010577693862191475, 0.03903895407884067, -0.022239905748682946, 0.11291370005339986, 0.008649372432834682, 0.0052543173471947474], [0.012636447718688734, -0.03338601209102883, 0.031213788179428242, 0.002308294178538861, 0.034089385386661744, -0.06992179519990069, 0.0063322435500968955, 0.03564130388233941, -0.05964063582997698, -0.02479728307645399, -0.02863731092705388, -0.034948320717235526, -0.06983130579364907, 0.16670466758026312, -0.05652235127036602, -0.05328481275314497], [0.021004521271609525, 0.03496208520632529, 0.04947570957935771, -0.03504358943103548, 0.0771375360185872, 0.011375641881899207, 0.009444031619561016, 0.02675456204999897, -0.04658250660479212, 0.045204403680288024, -0.10644822125963845, 0.025910091046325346, 0.027303359783569788, -0.060382576589623545, -0.14163269025634057, -0.0011101766222312071], [-0.1002770506010787, 0.13132868580556106, 0.03189622438806196, -0.05327244718993527, 0.055133172392289646, -0.030454955195279625, -0.04744753132549499, -0.01351764093751066, -0.012090500320738502, -0.08382340938985952, -0.10557314765316228, 0.005266033038701447, -0.04696934571766833, 0.00884575801850462, -0.08850729094402209, -0.07446383463654457], [0.011267650164317987, 0.13170434509572074, 0.02462876927455278, -0.0021058320330969798, 0.04077193402142594, 0.005415307465303278, -0.16987392192361253, 0.04972569275639655, -0.14283486603941759, -0.014419371364276496, -0.18563453800107332, -0.15802237362123867, 0.03177544872627836, -0.04483923582373566, 0.0623701816682098, -0.15434033652105558], [-0.06389323762108542, -0.03704059779232428, 0.12178759596148099, -0.13053573020734544, 0.07437706870659072, -0.016300462021162622, -0.0157131904268401, 0.13627601111495635, 0.004320078620800093, -0.032714165722636086, -0.2918973810946659, 0.0017311907916018254, 0.08399966230783551, -0.0533930828135213, 0.12594684789299132, 0.02459207945672008], [-0.08156396447525237, 0.06473012351518569, -0.01896478984973305, -0.1447402292992522, 0.005774021067343919, 0.023089107905053786, 0.015902417022586914, 0.041729807940543505, -0.07387013279236554, -0.06763056140453996, -0.15343479629579934, -0.022554962060424347, 0.09885783967351153, -0.09447225774147398, 0.04446647161132922, -0.067364291823172], [-0.024517019735918744, 0.04760714319359561, 0.07341443207286795, -0.1186262302009162, 0.07069565596612207, -0.11636480565043292, -0.03557805267034942, 0.0715781671893366, 0.013312003244320017, -0.0018486302950565096, -0.09424889379429538, -0.0034573589664260514, 0.12406653847544458, 0.0627428156034862, 0.06836020168105986, 0.045389178175714695], [-0.042703796499723, -0.07939449206291932, 0.1226978171786098, -0.06973896326984418, -0.02880132946511604, -0.13793147484362125, 0.13914929352222935, 0.20680068669289317, 0.04864545784787042, -0.008712393924224746, -0.1643382979733337, 0.0623388985452751, 0.11505658342543544, 0.050085524505329236, -0.017524014055203194, 0.10825984079782881], [-0.035528283858858124, -0.08625555853855946, 0.06520238590732093, -0.21456673685990812, -0.0841442803271423, -0.11055096856336526, 0.06853595369646892, 0.19728801766631973, 0.06099950426698386, 0.0995300556220802, -0.4209156035992165, 0.06243163285532017, 0.09985484783917409, 0.060809071818822565, -0.03778697590082236, 0.052676947240904215], [0.05190246092042699, -0.13012882521310243, 0.11959154066786275, -0.13704752278802668, 0.032664959622030046, -0.08719496635981037, 0.10108944708791869, 0.16769122706344758, 0.05369755916334136, 0.20196937948852692, -0.3844664083553385, 0.0940727611184662, 0.011162845858288122, 0.07906891433982036, -0.04634940776104346, 0.05758257469375067], [-0.05323506024197809, -0.08675979035384691, 0.1239394076677, -0.23913849603064555, -0.05332613805669623, -0.168449752450657, 0.03828215638930812, 0.11623760737488209, 0.15644849097794428, 0.1649693841072232, -0.5038219103327388, 0.02323003842784897, -0.031668392379291026, 0.007644532051202534, -0.173750109364934, -0.0344716802288086], [0.11055111691819915, -0.10101426685849163, 0.16578388930391574, -0.1285879440512293, 0.013947448544476711, -0.04777680108099326, -0.029462012450494467, 0.10257165931704004, 0.04919495526345663, 0.19234370368438725, -0.3762299537376576, 0.04813824889096526, 0.005325256587441517, -0.05022034313593956, -0.03643816151810712, 0.06825508165331788], [-0.022805971950376112, -0.10826243850873558, 0.051005634956686, -0.1715288547184101, -0.039023094859021785, 0.02324800510598527, -0.04698680713991966, 0.10082117556849918, -0.012651434458502194, 0.020637414438899868, -0.28016479224570323, 0.02143922769055094, -0.018192045982274935, 0.006375095606095745, -0.022380731230977346, 0.06004052933660033], [0.07745372059408832, -0.0715823788774632, 0.006874489796016409, -0.08663155845298562, -0.005587328106739288, -0.013827203961351427, 0.0060052241775341185, 0.08775697495223729, 0.03307384164716965, 0.017260417244342355, -0.0006344480185840085, 0.05204293963308392, -0.06756560239224141, -0.008594596306349702, -0.026161947736975125, 0.006848781918728542], [0.13926906921394386, -0.10381474091954639, -0.08641045099218636, -0.09345062052430779, -0.03915171668416601, 0.023094591959351485, -0.015137304495693145, -0.01201396306958953, -0.07650363554056068, 0.020515538859671226, -0.04737637592407155, -0.0502019046741239, 0.008351344673684442, -0.003708365023933063, 0.06350267736611988, 0.03983020065420738], [-0.009721020872377664, -0.0734581575384681, -0.0062986396180028, -0.04456312217779022, -0.14363682376228387, 0.09737615113687036, 0.03407105263179696, 0.025136156505449845, 0.00411628552049447, -0.06529665896878704, -0.006885292324688384, -0.10191877853831699, -0.08631112405490482, 0.00433319267948896, -0.06986994154276721, 0.07741221776252082], [0.08525376836219561, -0.06222015098429586, -0.09632442195908444, 0.00543740576477034, -0.05599737068995549, 0.007259794923746928, -0.03220936515321251, -0.137066552821322, 0.001810772113945682, -0.10631690175862794, 0.0350506963360118, -0.18961387168168, -0.11905125133411334, -0.08736047747611447, 0.0015002532426154729, 0.0773370278652835], [0.022351807558569484, 0.025992728130750882, -0.08017342680973981, -0.09903614999329077, -0.0412937110984741, 0.13883329543993325, -0.09379722571841781, -0.12793760250158298, 0.004785551560929597, -0.001120249372212451, -0.08333628877494978, -0.05435129175161556, -0.07944598747026718, -0.03189078185469872, 0.01646610482544518, -0.055229465324093244], [0.08037168389974648, -0.017600277411138367, -0.04155544011679916, -0.06566033821654099, -0.024103741835787926, 0.12229770761109336, -0.024055279920879392, -0.06610892253811049, -0.06556302711238826, -0.14669047322427375, 0.016643874521885423, -0.05701110701012555, -0.02849324653422822, -0.022663513547639607, -0.012257394772130255, 0.027915413982421852], [0.016437488975659983, 0.04909314662921382, 0.00513057860272264, -0.08968310783780054, -0.10876922754639566, 0.011209160766141734, -0.02498833904130706, -0.0925369378107444, 0.047327454117425616, -0.08398124467181117, -0.03387679031234157, 0.00034849024139545215, -0.006742839515635153, -0.058127063740683146, 0.008498365376029299, 0.051319991889434695], [-0.04174191285498978, 0.03398071845341416, -0.030164069591856114, -0.00507175536395359, 0.01765552134398891, -0.021209572850346185, -0.020392600811801033, -0.004865774756566231, -0.05367805242330276, 0.09529689913536313, 0.01830600470618966, 0.005302696183403301, -0.015025188692027255, -0.014198549845249745, 0.009983275754013157, 0.030555588163442796], [0.00687933605151823, 0.030524301236913017, -0.03430627448073304, -0.008393673631192018, 0.06721620093746135, 0.025458265483011472, -0.0310130179813972, -0.037330493561884046, 0.08894490835817034, -0.07153824375970651, -0.04278830112501783, 0.02898569361590131, 0.03408564271975231, 0.020461197011910442, -0.05291592197762206, -0.06389173978803674], [0.01617911822370169, 0.06368273512555256, 0.03641530484616001, 0.050119318305227874, -0.040056608930362024, 0.041589128998895844, 0.05126556285546854, 0.034776353461109834, -0.003910568660394996, 0.04089693998216329, -0.049468939812536306, -0.060405385439023636, -0.02239581701142203, 0.021271519479728097, 0.08789998189404809, -0.04180223686652924], [0.03981610066896987, -0.04132539863224145, -0.09323356257522815, 0.05627149102621817, 0.0036623441414813523, -0.07958544526676613, 0.035580863457364574, 0.013502963093200974, 0.049639866803954165, 0.0038502604789226536, 0.03085088867866762, 0.03941338561713454, 0.06843880036501171, 0.022689910767358774, 0.04704432755534477, 0.015759905157051477], [0.020303013652338144, -0.0732504250723674, 0.009690183539079914, -0.017351014014909037, 0.0004137254386198255, -0.08919272848989472, -0.040343800004195796, 0.03279326208871892, -0.1357024779985397, 0.0075085292611187975, 0.026421194575200577, -0.01016452811703719, -0.0772394606987456, 0.05272497948458431, -0.019330082103270998, -0.05027343588024155], [0.06232391264357457, 0.08179438752364938, -0.06820698568348828, 0.023679305963420022, 0.018410090641474898, 0.02919112984066435, 0.06547340335366733, -0.03431668324651182, 0.01722276670798552, -0.04288061142015639, -0.032373965758928425, 0.006929810491319381, -0.02332446922406281, 0.02930313907495708, -0.08469798724259249, -0.030665278900201567], [0.010398220418345629, 0.09213193862130953, -0.009849825931756448, 0.037930489716698296, 0.009751708785032258, 0.05036576023334012, -0.032410666783539696, 0.11999385404864017, 0.007232638887889951, 0.01989949612723663, -0.021359732107002042, 0.03719587102249624, 0.035692515253039715, 0.04042729941595368, -0.03955035720405173, 0.0803262471491658], [-0.04701094796420993, 0.0466247760035963, -0.019824781318598505, 0.062324606728781276, 0.07835350233530886, -0.0889434670395829, 0.11375146258760394, 0.01926813071035624, 0.08132584590757669, 0.05653113976941461, -0.07891811286644759, -0.019231495623866477, 0.015813431954772587, 0.10282405881001366, -0.029709242053709006, 0.00935357697047003], [-0.011426775647039873, 0.11738473146242472, 0.04466698731479808, -0.007764824127708599, 0.07567705143271973, -0.07562133495605837, -0.028162234660037498, 0.06256150849563602, -0.024674154093743066, 0.10383122020471722, -0.1543997560771743, 0.0645419528214018, -0.04651400631698492, 0.11718928421370116, -0.03980867941311435, -0.013170719939424994], [-0.06510004248981943, -0.05143070009892225, 0.12379042335836488, 0.04652876703188576, 0.035325215884375746, -0.028306978617969405, -0.14924507899900188, 0.10383859146423352, 0.06570356772472577, 0.046683013223225815, -0.18744174314220052, -0.06907740155551566, 0.08464590846770909, 0.010990047404965399, -0.03890271436067291, -0.09215181983097434], [-0.09087753493476519, 0.08659988157694229, -0.0030054659066118387, 0.015780554989754742, 0.10545158974322441, -0.06178701131658646, -0.12861208894254803, 0.07357493723655076, 0.004281448646334511, 0.12849999725395309, -0.25369722030520026, -0.01787706112302797, 0.0063153321213591535, 0.014597520865820777, -0.0033176341840197477, -0.011085973221258911], [-0.005026116157364664, 0.0339569217299014, 0.016158057767158136, -0.11366417052608326, 0.13086371739627614, 0.05574475242341734, -0.20377771540390152, 0.07162307747333682, -0.04019279795990822, 0.06838535134499804, -0.34694902395195687, -0.00849404478918146, 0.015151801939797909, 0.04528582707559542, -0.006935731900857835, -0.07377750658932568], [-0.06080243465328506, 0.07184859487327817, 0.04593590502936836, -0.09331455386371083, -0.011585488831384657, 0.07492491705345378, -0.16339399281715425, 0.09360936223278576, -0.002383876895039676, 0.036936946433104446, -0.3530609153566938, 0.019119289290629973, 0.008901105060230868, 0.06615556457029806, -0.0749986121857479, 0.030199608185921094], [-0.04465966987051164, -0.0767556312688789, 0.020570903440399833, -0.07847679293693839, 0.032103864962620805, 0.090587257358843, -0.09666744446872368, 0.04908255461636376, -0.0656112007248715, -0.06967539265586334, -0.20075798834801495, -0.1860435230195537, 0.12776856983003324, 0.07477599800811534, -0.0719060172708581, -0.020203126433225013], [-0.0020283827746044054, 0.03988115037478642, 0.08121411319902735, -0.1209159428377032, 0.011612460229599886, -0.03240341594077696, 0.044301902512629276, 0.12349346408008961, -0.09675474689547028, -0.024161801981327138, -0.19137089702762283, 0.037881997423940154, 0.16412822438076063, 0.03483090138811159, -0.0015540011785189684, 0.051497487877424024], [-0.03856812625363854, 0.014690683280934898, 0.005186284610257726, -0.11344512131462202, -0.0669063570661568, -0.17337818174600758, 0.27432321717130637, 0.05332341956768315, -0.08687636802779353, -0.16198425522664514, 0.08981302749339631, -0.015760088291017913, 0.20014072106988226, 0.003131695427519104, -0.03358996804296673, 0.13189733488059366], [-0.027565439893897623, -0.010899680660483038, 0.0435149831296198, -0.06728014757890417, -0.1595385785489894, -0.16007366087748795, 0.24299350540406334, -0.04672378624797284, -0.27765156461576856, -0.2152287196419135, 0.17555378737136715, 0.005138977203457646, 0.22874096908357214, -0.033252382644803735, -0.1475380173734553, 0.03943470738874962], [-0.10306070086858561, 0.09553188110135732, 0.11453874362555308, -0.19338420490459296, -0.21070135892407738, -0.22761177560622806, 0.1855737284963638, -0.13833409321774998, -0.253566922591373, -0.23105251092741572, 0.06444818475103696, 0.11433663442265649, 0.2601491169346379, -0.08162202570253049, -0.11603396995923132, 0.0055394923465901915], [-0.040226285153032657, 0.07737165888368314, 0.07215788300928645, -0.1785331508150263, -0.1281047064916961, -0.2602939258103223, 0.1902550539521806, -0.06347659323730136, -0.2969813527013105, -0.161397855614471, 0.10359171649869252, 0.01934439501609988, 0.21973368615476382, -0.08644282824589226, -0.2897132314502962, 0.0018892848954762727], [0.04156218981110029, -0.003965727351009601, 0.06022904367549278, -0.1150541511445718, -0.18797102133306867, -0.2075533382331895, 0.15202969789655899, -0.17628864773216069, -0.18533691939432068, -0.1921617251212925, -0.017047298853108024, 0.05024215964470916, 0.15838729297774504, -0.11170271681347994, -0.166667452246652, -0.02712512281546092], [0.082911608746454, 0.026591655484484913, 0.02978260570606253, -0.053155935311631985, -0.09249833629709421, -0.08748243102341584, 0.1596579804518107, -0.12337068598752493, -0.23882034050946016, -0.1523287160896495, 0.003793737349348701, -0.05641273896188942, 0.09953473096329413, -0.11561239693858975, -0.1629422941387618, -0.020661065023909245], [0.09510160814828716, -0.011862457287812614, -0.0816859213235972, -0.07695580538252604, -0.13521694976863072, -0.0751501572081628, 0.10156994989119213, -0.09012265332634067, -0.07312687037879857, -0.030956616153012595, -0.10175432037497258, -0.008100883544749624, 0.03233222628783859, -0.009229844562359656, -0.14770003611040497, 0.055618685659369636], [0.08866178278275037, -0.11414003626147434, 0.01280478409988478, -0.024092834323563243, -0.14238649996653305, 0.009177122713933743, 0.004981858186432334, -0.08086950244655723, -0.016579190412662752, -0.0069611999272793275, -0.13037754524125011, -0.1260757123471523, 0.01044955055300697, -0.017198194856195472, -0.13373901520869072, 0.0387238209988238], [0.08633910230493874, 0.019498546803690564, -0.04599934907481669, -0.04724054487730882, -0.04051945493242342, -0.03301404089268554, -0.08141639162670208, -0.1350566050758876, -0.022540769314483088, 0.04789306377174982, -0.19058932443847318, -0.10894872857098004, -0.03703825411746259, -0.012941518716681396, -0.1871480584354606, 0.038794763199078375], [0.10374454533783609, -0.05661823161158102, -0.03759797630663996, -0.07178877214773045, -0.0601496328660304, 0.033729871120505246, -0.08745728715882238, -0.1711414187813554, -0.013727451020567067, -0.017736510072665784, -0.1654440126454078, -0.19363918131736588, -0.07627717712349888, -0.08253052041471229, -0.08552287672629254, 0.021570418832332475], [0.1286986547388605, -0.07186008787234198, -0.1761313091450303, -0.02681958220081784, -0.029793851429446436, 0.01453080855280339, -0.05009576333186862, -0.2107969735986844, -0.1221913841343661, -0.0008161552788741896, -0.10853851000576163, -0.17895677291019413, -0.08515684211716491, -0.016112467586598383, -0.06769403511836174, -0.007323279491182766], [0.1384821707120817, -0.04380647397314401, -0.1998982161089097, -0.061671556935994826, -0.11002677097492564, 0.1226267694696077, -0.19008322428255803, 0.0339818177465649, -0.10275688576416338, -0.07552681596766722, 0.05155104159953839, -0.13947622931092835, -0.07517441431696639, -0.09603429927465483, 0.05925955045345453, 0.04102189664094331], [-0.07837095199776577, -0.004859329456489219, -0.06912903978562318, -0.1410893827558505, 0.033275098850848006, 0.026112118302898953, -0.07264081693509288, -0.02114477235349581, -0.07892788744570632, -0.022718301688024675, -0.05022038593838427, -0.10184703691740497, -0.08350951557349891, -0.00419070445240983, -0.010837809110433692, 0.02259133167566177], [0.002234155444201803, -0.06965696925915012, 0.02119112243611257, -0.08117898188817259, 0.01690409852283805, 0.054793178683809514, -0.04404871340027315, 0.027679177791537123, -0.08905819350290596, 0.03180576065964925, 0.025451116857536673, -0.035052191884363114, 0.004415596957615527, -0.07400641644963053, 0.008164035814895994, 0.10083558743214092], [-0.012789683131064971, 0.08236613293938622, -0.023341629670725846, -0.045539008928683476, -0.09705626042822038, 0.02238524179330148, -0.019851626436672987, -0.03410946462091597, -0.026452937075080347, -0.046870414300424684, -0.017043534910350974, -0.0279208649624749, -0.05498387481904871, -0.07688122965317905, -0.031465041640329226, 0.08066404083848487], [0.0006746125001604198, -0.08658735943371577, -0.05395287906132833, -0.041092521110251294, 0.01191196788459744, -0.03973563255673128, -0.024304748161801646, -0.017569839720249107, -0.11531988377642047, 0.025579608416612186, -0.0763174056370589, 0.056978654367940064, 0.010711009890425035, 0.06284157230128853, -0.0428385849985621, -0.009054059764505372], [-0.06253415719413019, 0.05546126385385648, -0.06597882010775946, -0.04710370158664214, 0.010136984808288915, 0.010048762037367783, 0.053908612050109786, 0.08431642721902245, -0.030618297036040326, 0.01821961845251357, 0.06197867933880092, 0.01917286329003393, -0.07494689682085164, 0.051532360272304414, 0.05544323542808669, 0.08589825239926747], [-0.06086159379701246, -0.09526210458668519, 0.09203913682489333, -0.06098220084021707, -0.05087922225411056, 0.017983194584904875, -0.005330648282145832, 0.08285892442285628, 0.05742689242468426, 0.0288007699337994, 0.030813563057489075, -0.014210621637164971, 0.021210157137294978, 0.06265382076533688, -0.07127120221177988, -0.012339101402105961], [-0.10654975988715441, -0.035748038013798854, 0.006166940323627785, -0.035609541925822275, -0.0012774584875465216, 0.012942225138906846, -0.011392509099304931, 0.0377165843123851, 0.03439900314366857, 0.07684757324152848, -0.012162238693515208, -0.0697158697806746, 0.03142005560589351, 0.043484566894335906, 0.01013541952682258, -0.01947976155237241], [0.05904832639851505, 0.028429964030774475, 0.12485908898991176, 0.007659717678602323, 0.0344853863089539, 0.05707264713859203, 0.016189845050686835, 0.05615548147058851, -0.015321293701427385, 0.08589066363849751, -0.027590374800239324, 0.007284041326000221, 0.032639535330790274, 0.14429182932186913, -0.006859232871653922, -0.08049544494232806], [0.02070717679428737, 0.01926807494982916, -0.025715729453128576, -0.0060480959665104046, 0.145216438267165, -0.025981103945144086, -0.04799330752554667, 0.062374838054508046, 0.04175340857057656, 0.19510238178484754, -0.12885331975745626, -0.020333294291877295, 0.041793087114301686, 0.07886037330815672, -0.03781433631924259, 0.0013183806630472725], [-0.12851917346438974, 0.04954996904634755, -0.028651056468608875, -0.00047355549162193155, 0.19750270220686147, -0.006164102648046256, -0.03779134176213547, 0.10831171041903911, 0.13311093879686203, 0.11155992888909348, -0.0972203007320628, -0.019349561110692755, -0.01582902287960193, 0.1385190187404162, -0.022761803207762984, -0.06508228031979461], [-0.049332060641797695, -0.03867164066769572, 0.07334890756256708, -0.07751603349215407, 0.0545639438130038, 0.0467402210075456, -0.11254096956133748, 0.039222991689043224, 0.004265170772390047, 0.15494169895448184, -0.22490915619576862, 0.05955000903783408, -0.0746561653783566, 0.05831497342475163, 0.043268446113301134, 0.01043626154767779], [-0.01174845137540285, -0.0401816737211902, -0.01701123176176425, -0.004142614494029154, 0.036556899622487996, 0.07595645787380138, -0.18996648138163724, 0.00859083931308688, 0.10451959848647825, 0.11209331184784865, -0.27064341650714707, -0.08435246394005513, -0.0053182795484338005, 0.03409614959281396, 0.04836541793332342, -0.026284479583462975], [-0.10274089058254914, -0.04820250546097234, -0.04050476990041132, 0.025030807013723674, 0.10089421707592279, 0.1076353184498919, -0.20274602261271268, -0.10237905778351906, 0.08291130167511536, 0.08907840555968217, -0.31280383335974293, -0.0059842574647107055, -0.0014469890977499365, 0.09867217042317285, 0.05346935305091797, 0.03139126279086687], [-0.04884241221241227, -0.0351421191708951, 0.016856375916916813, 0.049618885872121724, 0.10198344559247932, 0.030561180000822474, -0.1351631098769393, -0.0780509837800229, 0.02450189665959919, 0.08077641133767002, -0.11567287762207634, -0.008483713053929733, -0.00015042371226142357, -0.062381223020899, 0.04582167891847636, 0.05343955222507853], [-0.14365486590053123, 0.0004845087336310462, -0.03949429805914603, -0.015763377210168815, 0.08892106592289234, 0.13745375396948367, 0.004477220261952047, -0.0188387745241902, -0.09936892223889936, 0.014774145544696242, -0.06582099404894476, -0.005414333706044073, 0.1028417486898467, -0.043066093044454246, 0.06580067376752073, -0.07442006219940529], [-0.14805826392139368, -0.05538248319261633, -0.06398094965947135, -0.0012542755462380004, -0.04252430811059235, -0.06070059870331421, 0.048034753922632865, -0.009806140419143558, 0.006534763105062292, -0.04819603250931155, 0.24549776273530016, -0.06326804256202212, 0.18018552446483987, -0.03412682576926706, 0.0215293541417136, 0.1420972458501497], [-0.14897157563628427, 0.033778025237541726, 0.04938551627085099, 0.06642200693594431, 0.008571736908035128, -0.008725878027979765, 0.13123623098620193, 0.03579107283106486, -0.20437591968148233, -0.14663580219254943, 0.35052519916116137, -0.020327863704251985, 0.22003202743084874, -0.11303671834696896, 0.04497618307733893, 0.02675763916274653], [-0.17664416108600153, 0.13653704476949122, 0.08287987856714016, -0.15012422702081, -0.17512259659873344, -0.014558651419964212, 0.14727325575330877, -0.06734216360477357, -0.22608805718853822, -0.259667244783359, 0.5372640786503308, -0.015947947057408936, 0.44264956415687534, -0.26215064054175896, -0.019751137414939987, 0.1499412322810579], [-0.1699282530504927, 0.11536451992943918, 0.0721329229208058, -0.08315450918505851, 0.02077259350972465, 0.04450328359594622, 0.16891489005874685, -0.18316191972113263, -0.4319008153510596, -0.3183441594866141, 0.6210626968045936, 0.0014253137031260237, 0.4080583604500313, -0.18715681649350727, 0.03955928187978157, 0.05807086353457566], [-0.08820953848044483, 0.07809766902104738, 0.014880495557545118, -0.017697987919349418, 0.015479336711654018, -0.05910043207949232, 0.2140954557491506, -0.2580643957246333, -0.40081958270795115, -0.213572933761881, 0.4703239399854514, -0.02067336138153147, 0.2553093784868391, -0.19170556561447952, -0.10080725227123635, -0.04394274779256869], [-0.07709926062171683, 0.019083159728518023, 0.08139691552340245, -0.06178680351562638, -0.03320034773352912, -0.07084128845922408, 0.12688916536982325, -0.19949714161729776, -0.31414274430212963, -0.130607919601179, 0.2478750054135449, -0.05334409252339083, 0.1929313925142803, -0.13865519857409417, -0.15427017584306132, -0.03710490684415931], [-0.016352599021232046, -0.036474941742305665, -0.022568432959739974, 0.07110083203295198, -0.00824143398053238, -0.12448102330676132, 0.17046675970102762, -0.15363184865996077, -0.07098089629150077, 0.026001379165462753, 0.042869415479302425, -0.048653681150813456, 0.15268870751179534, -0.15003225394270966, -0.17123954695538438, 0.0750810779681874], [-0.056891176234548216, -0.02358113981349949, 0.05695699442473023, 0.0033834032025237526, -0.015748111885971652, -0.07683563472248897, 0.09088790222631145, -0.027944850157915747, -0.1189516508040836, 0.1711624085888156, 0.0020788464950589605, -0.03549712291209868, 0.07872066748709161, 0.002941066078804142, -0.1403312978024578, -0.028240476475074387], [0.057044934353622435, -0.08836223170770219, 0.030142618372116476, 0.1149213392968091, -0.050547912313073325, -0.02529820107964304, -0.035905183375043774, 0.05136003286326412, -0.09128813825055926, 0.06202230104260892, -0.016983195244501204, -0.051808712671251325, 0.07799566213835875, -0.04867535020998051, -0.21271966492191557, 0.05042853283657503], [0.01264501397105973, 0.012777888073673783, 0.010758923658081915, 0.03921944191252282, 0.03199801515141202, -0.05529201096506819, 0.02500732046070565, -0.10219506080662823, -0.013713229973858371, 0.052884943244187084, -0.09520034370259328, -0.08692913582897772, 0.009898521812766273, -0.008092637587243628, -0.16895418203319543, 0.01731227154198224], [0.07674806963988733, -0.03652187282151811, -0.006909427790977712, -0.06379781816460581, -0.07412833075326238, -0.06833787758928687, -0.12069147742294849, -0.17271076225033058, -0.010087778470062925, 0.17239364910810273, -0.20613201874818687, -0.06087852997388637, -0.04474201509400649, -0.08080817286491122, -0.15595650274488834, -0.003055465628068915], [0.09692465535760028, -0.0831714221124698, -0.16322085970616576, -0.13475754523738384, -0.16581599467356664, 0.04568683383796901, -0.0796754596765742, -0.2795489958349337, -0.09867845314063085, 0.007536537221900023, -0.07331991481158295, -0.19297642196323886, -0.062119027193212294, -0.27944992802829277, -0.10388486098818986, 0.013684773152194756], [-0.017959752499675886, -0.22888667797580886, -0.15363066560181585, -0.08477623354892788, -0.24767627978754636, 0.1576037443556806, -0.15568608498958306, -0.13560437034191206, -0.16764252921106215, -0.0870788291060426, -0.05322922209430298, -0.18796976024653697, 0.027603462771516495, -0.19836598840740802, 0.0017163842504043, -0.03331281080970386], [-0.04226385284363951, -0.08798095158353701, -0.08183351338384694, -0.0507453930802683, -0.07224540714755225, 0.056320745797491266, 0.005086877070834136, -0.12335830512187192, -0.01782587889116124, -0.0793636378513695, 0.052755835120888286, -0.26472852226176563, -0.0663745669800703, -0.1365673950067912, 0.002497693084042093, -0.019440775230843383], [0.10946359254115122, 0.009981761201913152, 0.028419517262180855, 0.009926287933767392, -0.0560766526680637, -0.01351308320264633, -0.06406774287026427, -0.015319512506678725, -0.0372608112198483, -0.06716425547968376, 0.04140608543194973, 0.06341241148689719, -0.0378062253704281, -0.024377238304952673, 0.02085983263449453, -0.023307745512062113], [0.034953723475541716, -0.09987268922180197, 0.10672386925294317, -0.025477390927881868, -0.06711532782616324, -0.003937378701464609, 0.03289450093437356, 0.030759070909325996, -0.09912485135338966, 0.020933555094997343, -0.029458097738420362, 0.07750401374495505, -0.02752273066163692, 0.0011805810763842537, -0.04302428023760257, 0.05421111399698088], [0.007913280811627713, -0.09616719236721777, -0.15323399249563177, -0.014125906911635287, -0.08165366097709896, -0.015368037394560184, -0.09332542430259663, -0.041997251937407956, 0.017588089111344202, -0.027864285827991785, 0.002610088969759783, 0.04369863969872367, 0.08441993460072, 0.0799308158263059, -0.010005280609401847, -0.07058592101364794], [-0.013946642334462002, 0.004180147683962294, -0.11011382293575497, -0.06432308282336818, -0.005876810121647229, -0.00471782427367728, -0.009989217703081485, -0.02713092974337616, 0.03927044174040467, 0.028222112156493166, 0.02377699672586202, 0.1163546717452408, 0.019236027093596102, 0.01696899322008799, -0.028287632897216836, -0.05277400471733302], [-0.006794528294228447, -0.042341340242951366, -0.013703270911977197, 0.07313076394462602, -0.10317283692407317, -0.010862909740069671, 0.11110312673283704, 0.004397152189349249, 0.08006474575661268, -0.0052591606109129736, 0.002229298912550973, -0.01726404994786468, -0.05272068922438394, 0.032133700776770455, 0.01452720254771777, -0.0134090088651445], [-0.0012741415910410767, -0.051807572675493054, -0.05651076123963194, 0.01283303756342544, 0.020759682433752938, -0.01910018158337944, 0.09143948575270507, 0.04461072574765484, 0.040060512793959994, 0.04074268859296122, -0.08197672597028403, 0.07651843260460188, -0.04669154770568843, 0.12908123701590987, 0.04883104192693706, 0.10588215476065553], [0.011306823971376683, 0.07809059104606482, 0.05770886636052856, 0.041805870275761846, 0.07399451408569538, -0.05708934459583762, 0.008880769158037484, -0.05259223343422381, 0.01514618068667118, 0.026622061623438376, 0.03312374190993546, 0.034704196170898094, 0.028494450366019983, 0.049136759821563125, -0.008639639074614111, 0.0018192691061669388], [0.060905946540411315, -0.05308332105996194, 0.10737413992234458, 0.025703645644943263, 0.17803256248443866, 0.048409733007043536, 0.03273964313110954, 0.14127171449689033, 0.12206780080592056, 0.2026208257500994, -0.15865958841445615, 0.030821066080278854, -0.02979202586113307, 0.12439570493707304, -0.043974414472466763, 0.002255405823756983], [-0.08583522736030195, -0.00517585279554098, -0.040694238147452634, 0.009874950774785656, 0.15481149393577034, -0.030501191250615914, -0.053150536044500776, 0.1603906078833477, 0.15300008542234084, 0.07600848455065261, -0.18116598851774823, 0.030630086570731994, -0.05451920652498304, 0.09716733839326487, 0.002440734450903401, -0.06871764579333885], [-0.08212479159523818, -0.08544797777801526, 0.06108667344015125, 0.005146811197872319, 0.04139352474099453, 0.06414243761159802, -0.011239507089694208, 0.09120332868994964, 0.05075883709177967, 0.04609278060288713, -0.2658903102442709, -0.08698510342367301, 0.025729534613885933, 0.043340448858735676, -0.0043324966580202354, 0.014995832941681794], [-0.046255130382666126, -0.08268933239136761, 0.07063583804403745, 0.023600988654377954, 0.01547841539548181, 0.0655499642877224, -0.05840776719482227, 0.08413394187070981, 0.11135847990194664, 0.08820534348243182, -0.19282698922637373, 0.012382535675235107, -0.04164755763263005, -0.11399141111793518, 0.095196239971543, 0.0877390927142684], [-0.06269714001744167, -0.11110380399543698, -0.0020702891499348513, 0.026820152652875233, 0.03673720889736853, 0.06888829797009353, -0.05926540998357086, 0.07151537332878244, 0.050037653304714436, 0.14280525194614666, -0.14797102020356645, -0.021967508918660672, -0.027677926949740646, -0.03939290606264222, 0.09831674510669242, -0.004655055588680367], [-0.0951112214582819, -0.011383884228831763, -0.00617270525922057, -0.07129254351481962, 0.02426566672634231, 0.11773971331382449, -0.06879630665326301, 0.003811562555839541, 0.05600787231259301, 0.025070703605490345, -0.11087193837448057, -0.011299496650181033, -0.05501863140774281, -0.12285682335495006, -0.018835533697582358, -0.047563415955024946], [-0.05023109745918683, -0.06969446851337492, 0.02107870555950916, 0.026828345799903876, 0.0036975087042391986, 0.08259557286491336, -0.11732711421946733, -0.000759167469743093, 0.051613376502622606, 0.00878912707914074, 0.026908227601248304, -0.07524352252177217, 0.02685893260096307, -0.18222884131320452, 0.10370421783909317, 0.044354583640019665], [-0.054512870345558746, -0.18329286331778474, 0.03324754223351696, -0.011166777883389425, 0.1432890182377178, 0.01110669444027279, 0.002346474356885045, 0.03721362012556374, -0.014027050886612758, -0.10679480279237313, 0.26028811266624013, -0.018045940272525863, 0.09852162555082083, -0.0836232162543136, 0.05554278213991237, 0.11242867928227065], [-0.0315758584055042, -0.03821477878308302, -0.0022978726811023927, 0.00844571153713559, 0.09637170506371898, 0.1473072634587752, 0.17415410824228375, 0.0267370319612183, 0.0909142615805718, -0.037240333937799644, 0.4241490330038546, 0.029231947429101277, 0.1793444361181527, -0.06274146056081915, 0.17308159197492226, 0.08996695235883914], [-0.0762758183056362, -0.0561730003251071, 0.023065323835071146, 0.04018753081100449, 0.16273084403584917, 0.1314047699170342, 0.10723836065712042, 0.20782279694246286, -0.05289920016166543, -0.15160259036667317, 0.5333371619056821, -0.0419546147388575, 0.2232751546072312, -0.06010161957486648, 0.2031452835666234, 0.1616813771882664], [-0.06273447649205437, 0.0029876107159104636, 0.12309231894550451, -0.11351413499892657, 0.07881689606866547, 0.14419271979594156, 0.18791847314931615, 0.09270882491297819, -0.04083195667873803, -0.01513811067226369, 0.5123606386095094, -0.02688128655091095, 0.27461002659587946, -0.10629065169961682, 0.21739505639703455, 0.0967803190863845], [0.017303645147254708, 0.00265828468250303, 0.049921659442529034, 0.02992167366599024, 0.0949247102297068, 0.06017608139109333, 0.1582386803531709, 0.04322249273931219, 0.0031564093021657293, 0.05558803712374052, 0.31829347077312026, -0.059090618380927565, 0.23403843363207658, -0.10939790662359618, 0.032885617908583846, 0.034522201905306214], [-0.04232571203521822, -0.06424936072360667, 0.057858845953049035, 0.010475670847771505, 0.05079287056101342, -0.0323753914507818, 0.1985937698781931, 0.024316593445111178, -0.10116621564740488, 0.15036182968976394, 0.16847775530348066, -0.05252376846601551, 0.16712012624708728, -0.08518078856882991, -0.06876691708804195, -0.07304264854465643], [0.059001465536430056, -0.05757108130688591, 0.11078864009373345, 0.1363316346791205, -0.01055419561225495, -0.08711608650959035, 0.17575825475422296, -0.14209671145737046, 0.03612730499994469, 0.12565469454034106, 0.07487542163203835, -0.05243615237813046, 0.08832420285950117, -0.10124825231249142, -0.1481201944378613, -0.02659620167525399], [0.009778601522122366, -0.11604908438419623, -0.026580744590266093, 0.053360501771683215, 0.018669316331532636, -0.11957233115999591, 0.1568377309292127, -0.014834805226264087, -0.03071854981292489, 0.11317148124909181, -0.0518398967733095, -0.09752585655166122, 0.17283343784212044, 0.045430040202588715, -0.2247824714654365, -0.001756281396243696], [0.031535503921256536, 0.01563923530570321, -0.013476866878863361, 0.021742008930759955, 0.0035385771499086313, -0.054498832201052214, 0.09259343924627023, -0.12689458044094745, -0.006247645807305795, 0.13908308773740338, -0.11254134870048091, -0.12068556097722578, 0.04507859357598011, 0.08490806379209354, -0.215988987257506, -0.07122402288519059], [-0.06350818624422574, -0.004378615285992725, 0.003481903133738584, -0.06778016505227277, -0.043103766989666115, -0.047696826003367124, -0.015289780369692025, -0.12131666812171284, -0.04211431816857107, 0.0685424929618239, -0.10145359179793317, 0.0037234000621211042, 0.03599464869215731, 0.027863463466622933, -0.18454205300300036, -0.0889806182228604], [-0.0305854378508666, -0.08779861429879667, -0.00011832051673284712, -0.01483138851831648, -0.11812708909411623, -0.03320782799194046, 0.07573960349143066, -0.10271320370119838, -0.02541348269967191, 0.08646937370620879, -0.08721319882001884, -0.13433978783085304, 0.0826570191867428, -0.09267115400615507, -0.10982569081220511, -0.03130638941196118], [0.06387035527538551, -0.12714567643868763, -0.1432797030160035, -0.15464174991351726, -0.15115892102136988, 0.15999470437543672, 0.0844870478217987, -0.32183395486891014, -0.12409068581184461, -0.06978130626256987, 0.09639194812475069, -0.21494049537790158, 0.02945111886789496, -0.3461095323344494, -0.08959545049897587, -0.020186634815147982], [0.020068157714543015, -0.24427410109384848, -0.23536724708881226, -0.18332328566799383, -0.2565863214681581, 0.2474458663748034, -0.035727699662930115, -0.3051152526455338, -0.1442377864392675, -0.04106588752193308, 0.03850196990362296, -0.40368409437677544, -0.05231052472611722, -0.2515472491400758, -0.09126537065659027, -0.026991324273636538], [-0.0012251033021469585, -0.186484309801795, -0.10925201604809738, -0.12520696158835368, -0.13372025702312954, 0.17315613384756895, -0.0657594786417526, -0.2026539979778912, -0.0512831359507973, -0.13736554385210228, 0.06068013650340917, -0.2521974905608699, 0.0553903947376488, -0.16237293257970595, 0.11114304310995833, -0.005771300201225299], [-0.05262374824400533, -0.050509389566113956, 0.005782559334925219, -0.010155787893306074, -0.0497561535946148, -0.0015773294463692436, 0.04622791589793809, -0.060355234753882235, -0.03572476108178405, -0.002346805951215479, -0.011571043457369019, -0.051359910491681815, 0.10529244132030778, -0.09770246497591117, -0.07775431993290946, -0.014593017795067897], [-0.06768006699263486, -0.03771895196412099, -0.053966129326610886, -0.026103044906470838, -0.08130340943274939, 0.0027141853728640895, 0.04267897232533901, 0.03482660270325828, -0.07241515964702396, 0.012864203010627859, -0.04454200646724863, -0.023726308575035847, -0.02845829054233817, 0.0051698899905228525, -0.09697065955979241, 0.09999584590393834], [-0.055801812672391385, 0.015422620711779052, 0.007915820180952122, -0.015590768601770647, -0.008983935457629181, 0.004906266084941377, -0.011705940600592097, 0.02611855658933699, 0.0007760682501118999, 0.022878180867260074, 0.026976159140412452, 0.020228494299437686, -0.009713435991666514, -0.03230860390248967, -0.01659987767012673, -0.03685429694956505], [0.016879679353930196, -0.00017365188502464177, -0.07302569988656923, 0.008894539584472623, -0.008492132669736863, 0.07609043915945084, -0.0666787539626825, 0.010716480540043453, 0.0058351510824689035, -0.03531021038926165, -0.04570910846250349, -0.03841000768972359, 0.017190645737768035, -0.041553647579913554, -0.05237440465699955, 0.010073463572379478], [0.03343514637669654, -0.10911369617443015, -0.07557196041777747, 0.020827635660475075, 0.01671046771444439, 0.016956068451498416, 0.0026527451706251093, 0.026668765003043896, 0.0700868253338138, -0.03370894580248583, 0.006271770206268968, -0.012274990329425384, 0.024553427060512896, -0.010015415576060168, 0.027745058858334223, -0.021301853572951966], [0.11675397939556559, -0.11037747327649722, -0.04362810848696298, 0.02441781143053918, 0.03800207236432245, -0.010572680368850668, -0.06238670905943281, 0.03908082263328205, 0.03889063260778496, 0.04798834786862562, 0.024797944066285296, -0.0010009600325984033, -0.0554037640743044, -0.010454586983166593, 0.034157310888092096, -0.010497764807951495], [-0.0321611896384965, -0.04925612221058703, 0.06503672126728154, -0.024807048386007873, 0.025609145699596506, 0.003921261720166129, 0.040888540749504036, 0.13264815035575217, 0.04743779382504803, 0.10889463180731486, 0.009229210236162754, 0.04724079260802086, 0.0708805101833496, 0.0828075398486595, 0.10604218529965617, 0.037752362271173685], [-0.007663106430570688, -0.123072722310438, 0.09139725179001273, 0.029283960713109486, 0.041735215160290835, 0.058827955818329204, -0.09678853036430629, 0.09431678791663173, -0.029921020271098313, 0.03114850290784466, -0.04679832377966384, -0.014727908564254419, 0.03358985048356241, 0.10141879018541901, 0.06766689869201148, -0.020264233228099646], [-0.027304156810739968, -0.09499107669973736, 0.0978017113319703, -0.009405196131715355, 0.06972365280381482, 0.032238949392054884, -0.011934220919827574, 0.07494197750738163, 0.001185748976407608, 0.10135624971642279, -0.06452985318831507, 0.011439110778859991, 0.03381981182138685, 0.060844265636934514, 0.058460085840196505, 0.09947794712865071], [0.024890286684572067, -0.17628745626661219, 0.0007023465847516253, -0.007007017115872259, 0.09455257823836045, 0.05836309174384501, -0.05664893817624776, -0.07416593033657928, 0.0424901699984771, 0.066526257534435, -0.11706497571496054, 0.028598983974948082, -0.07905262197146669, -0.03815547023561661, 0.03278273052248139, 0.057935032513686105], [0.05510166594596655, -0.030219255425412258, -0.10377157152423983, -0.010423646061172579, 0.007128933198410748, 0.0863176614557585, -0.14039328482624785, -0.10341910499740524, 0.08550982521761889, 0.07239733400320573, -0.028624790597893388, 0.0020599184259104297, -0.05745066147741965, -0.12005073405583588, 0.0814736400342185, 0.014827091569947498], [-0.04400462864410493, -0.09826513773961965, 0.00028976951227037694, 0.11233938070044547, -0.06337451393085894, 0.1004191737013518, -0.06434893702622994, -0.08943721554776855, -0.03499850011816637, -0.05449720330681478, -0.03813055581760281, -0.010915739070728169, -0.0014143940052715814, -0.20088078705398218, -0.0345616428444937, 0.049017908243135636], [-0.09592778748977786, -0.0807963778549726, 0.10543541173040107, -0.017247773995021795, -0.034034199004252086, -0.05253418055467852, -0.026807495374795237, -0.13953453663436205, -0.14249844711965037, -0.0957394178145943, 0.018099218078815246, -0.002185181783856699, 0.04826723635921559, -0.27653537621763874, -0.025985441226485526, 0.026656900984159747], [-0.0300574777695965, -0.022685421904910835, 0.008647246748893996, -0.033606483774467774, -0.06676997829837929, 0.0033893730295275716, -0.05810867730447728, -0.10935239232785547, -0.16746755051826065, -0.13577540136535093, 0.042378612348964936, -0.03868700982565437, 0.07609025542788969, -0.27828198407522975, 0.01153789202613366, -0.012208312857215166], [0.015110215915830196, -0.06714852529176765, 0.014583876605166062, 0.0027244622461527986, 0.03740917177853321, -0.005719362433724796, -0.050259034051010974, -0.0700427504836457, -0.023277611464427545, 0.0059460119914940745, 0.17930825746719686, 0.011361035108082436, 0.07351129092889026, -0.22428677343827338, 0.06494607773681788, 0.11302870107497137], [-0.015655209388733847, -0.15496960912258403, 0.025008010986227715, -0.04639661378504965, 0.16149626588753482, 0.2099901846365784, 0.07020129015401579, 0.16878124989064142, 0.15422298521890107, 0.13450221396505613, 0.2512089507370134, -0.08481642316176888, 0.11202765014338888, -0.042279855547010484, 0.19051975331021986, 0.21805241379534426], [-0.009527395665194038, -0.0782415728474864, 0.009753908168131535, 0.004356707121294599, 0.3297019327347769, 0.2546418687798, 0.2432908996715779, 0.30575088213045387, 0.19710795390862512, 0.13915118581952957, 0.41328224892669335, 0.03787290335075266, 0.18026502739945122, 0.17841879013750192, 0.2000278615676597, 0.254629652904525], [0.0008705024156749468, -0.09981593501983947, 0.09371547530768558, -0.008424854629376196, 0.2391709946347178, 0.22082740545980278, 0.14814278282249865, 0.3342968571202073, 0.2001837470318773, 0.2554500128228852, 0.36014187245275353, -0.11285259873155506, 0.23582633079271534, 0.1399651599375784, 0.1422388677387684, 0.12584668206365962], [-0.03524202538598948, -0.14214229938884795, 0.10756998798489069, 0.08642303780463713, 0.14640417463175473, -0.031862790853058286, 0.14717705194741787, 0.1615263368689321, 0.20350722603645993, 0.2666932102200634, 0.11878059491658276, -0.09415515846610407, 0.13801875438004205, 0.21291398311315102, 0.04353160062178923, 0.1457938899423087], [0.025734038545681126, -0.0937251221794384, 0.07530839864099272, 0.09455230004397727, 0.25821652046131993, -0.028872406033181645, 0.07954689867188486, 0.11824023237919308, 0.23211514898540425, 0.1942762808203723, -0.08699712867537998, -0.11652520783589589, 0.05713852008797479, 0.10491201644343476, -0.1437836810554425, 0.10062224071777352], [-0.10549471198155028, -0.13658954300627377, 0.09568715137982894, 0.09531187761048156, -0.06186106286008365, -0.11021201858307028, 0.17402766536523007, 0.12981707136846748, 0.15454728750501986, 0.2216192890832179, -0.11792680576512254, -0.017689049413945824, 0.13976393719231855, 0.008805380848727309, -0.29851063680467677, -0.04659318008328282], [-0.07109124548975344, -0.0434413826757412, 0.11689298235334074, 0.032826394871256194, -0.10105267057862027, -0.20805952174793724, 0.14369261922561952, 0.03548454734520557, 0.1814048658886164, 0.26887789234033793, -0.17647277435691644, -0.08051133198421592, 0.03624029576280714, -0.038383544414843866, -0.26953890869195296, -0.06404297809592487], [-0.10351199136646866, -0.014193143981057922, -0.009887725256387299, 0.08655583047269573, 0.015417812494959496, -0.154734335259717, 0.056663069768596586, -0.1062364507664924, 0.015335884307924201, 0.14715173513884316, -0.1320411965372436, 0.017160668570666632, 0.15889070917769305, -0.023834397531345218, -0.3427771669252522, -0.06306656619444002], [-0.11130099963137759, -0.07689079639105559, -0.07187405300966947, 0.06300578333797659, -0.025301889096729938, -0.10280254460831473, 0.09340203589814107, -0.10422035298419678, 0.023589371196058983, 0.13275289780517058, -0.07523328416796227, -0.09733929164928401, 0.017669795426744666, 0.064285650289209, -0.23421946645699218, -0.0842800350707271], [-0.13855641772195726, -0.10585185049405338, 0.0006608891707521552, 0.05035603527266822, -0.0655812042271419, -0.12620946838414368, 0.04247144151683512, -0.14040190154588644, -0.05124804850293229, 0.07688554556349414, -0.05151253432295708, -0.03501697381794538, 0.03315794361082748, -0.035760584287488656, -0.11311586610275938, -0.030731315342643784], [-0.07608872295587853, -0.1492752410219594, -0.013758129544877174, -0.0761989218797539, -0.1397594949839547, 0.07181668899112689, 0.09002177368123578, -0.33929258199831464, -0.04452508708632213, -0.014343062293940223, 0.006402881553884402, -0.18467141180107435, -0.0067797649150179795, -0.22424921692273445, -0.12494815715728105, 0.0069207141745767625], [0.06682185504067227, -0.22005295397467733, -0.22089722983255308, -0.24625317679400532, -0.2838522251998076, 0.16724444744471315, -0.013085390614375374, -0.3485203089190586, -0.12534905981539038, -0.06731269601082385, 0.11207177557202039, -0.3008789340239908, -0.0827152545638583, -0.2647737014833777, -0.17075198855562176, -0.021461832811553637], [-0.09754182798248433, -0.1143319495792483, -0.29094452539139226, -0.1044603928553747, -0.24327198693924568, 0.07817627618719612, -0.09390507639523282, -0.17385836207907998, -0.1209178948101661, 0.025814066723631447, -0.012817442026162038, -0.268241624869058, -0.07229125387748758, -0.20325780319817732, -0.05723753075038239, -0.06459880947058438], [-0.04235612698165423, 0.013721521391355893, -0.0066797283211219695, -0.026348569882086646, -0.0013981368349153147, 0.10297658444496499, -0.060083079342683615, -0.11284198658907942, -0.07913872900830751, -0.04171414511636997, 0.07123231509593944, -0.03978407582186293, -0.012077253489094894, -0.0477031348922961, 0.009832345543675415, 0.03291630795554833], [-0.012090446363643054, 0.03733415243317306, -0.0005242320387156747, 0.02344632160598919, 0.05757220405227814, -0.05401990885604169, 0.05702164458353095, -0.09142926211760462, 0.025879737111902015, 0.09218151586972473, 0.015334684751609378, -0.052366387060185815, -0.057631843141441465, 0.021757735481279676, -0.043664462373904575, -0.003219587444994886], [-0.05229322947909496, -0.04969266290970929, -0.0333167966463696, 0.05332575584001162, 0.019755779806098453, 0.030529267429222573, 0.05383106135305911, 0.06999780082681835, -0.05067338067140646, -0.08272914601346709, 0.03146515189000673, 0.0422534952645715, 0.045737759766121405, 0.030142713644947805, 0.011649890607935604, -0.1167490178173847], [0.01992860747106835, 0.02141243086106075, -0.01950833589954313, -0.007524198385523602, -0.006604368519016309, -0.002090153729079093, 0.00824210571109727, 0.059070772818047124, 0.07386783910347428, -0.05041017532210952, 0.04304930262071402, -0.014641357511808565, -0.03607358311662486, 0.07984025942475101, 0.01163819126977389, 0.015741972200621426], [-0.013127644371267025, 0.01435221818748785, 0.007712397078286866, 0.08796625529898827, -0.010465917688986325, 0.07591500788070227, -0.017531288736927362, 0.016402603499226544, 0.024742465216085138, -0.041323277808424215, 0.05947375644988503, -0.051232517397245554, 0.017179454313404823, -0.07183559027477297, -0.10151076182411943, -0.024843039953014647], [-0.08417273208123965, -0.04950216989929966, -0.007273015091827926, 0.06359560550965987, 0.03772581350026623, -0.04518064035951421, -0.09151452951456332, 0.015048878327858823, 0.14213654491230665, -0.03442740135550067, -0.024484124611039645, -0.009628346717703623, 0.009948678355765133, 0.09917743477079954, 0.016048625564559597, 0.02873810347113192], [0.05533404701101852, -0.09624227455698933, -0.05565034672497051, 0.06964266079875298, 0.01141875576681619, 0.024028558533345172, -0.031581341027020184, 0.08757909785907397, 0.2164716605753938, -0.023085398200388376, -0.04372334029137386, 0.06000230178983095, 0.017987153738584605, 0.02090037253173629, 0.02252481016128731, -0.0047395104163616975], [0.0019012532210207747, -0.08361849510691653, -0.020628587219039554, 0.11150352229857304, -0.09584719616160953, 